<?xml version="1.0"?>
<opencv_storage>
<my_svm type_id="opencv-ml-svm">
  <svm_type>C_SVC</svm_type>
  <kernel><type>LINEAR</type></kernel>
  <C>1.</C>
  <term_criteria><epsilon>9.9999999747524271e-007</epsilon>
    <iterations>1000000</iterations></term_criteria>
  <var_all>108</var_all>
  <var_count>108</var_count>
  <class_count>11</class_count>
  <class_labels type_id="opencv-matrix">
    <rows>1</rows>
    <cols>11</cols>
    <dt>i</dt>
    <data>
      -1 0 1 2 3 4 5 6 7 8 9</data></class_labels>
  <sv_total>55</sv_total>
  <support_vectors>
    <_>
      1.75444216e-001 -5.74094383e-003 -1.16317138e-001 1.26553193e-001
      1.59844622e-001 7.59065002e-002 -2.04140805e-002 -1.02922030e-001
      2.54288644e-001 -9.12694037e-002 -1.38528720e-001 -2.70317364e-002
      2.98529048e-003 7.05992654e-002 -1.27981708e-003 1.25036955e-001
      1.51020214e-001 7.42987692e-002 -6.70711324e-002 -1.00861393e-001
      -8.55383053e-002 4.47561592e-002 2.37650812e-001 1.39776006e-001
      -6.97794408e-002 -1.48306087e-001 -1.42247766e-001
      -2.44619504e-001 2.18328908e-002 1.03599511e-001 5.86527213e-002
      1.76501185e-001 3.75887603e-002 3.46478634e-002 -8.28883722e-002
      -2.55358875e-001 -1.48214921e-001 1.54990718e-001 6.46908395e-003
      4.53601032e-002 3.20254415e-002 2.14512721e-002 8.18868056e-002
      1.74068928e-001 1.31636914e-002 6.42936230e-002 2.00274512e-001
      1.00889765e-001 1.32961750e-001 1.54629471e-002 3.60830203e-002
      2.69508082e-003 -8.14226940e-002 1.31636914e-002 -2.85100788e-001
      1.45055532e-001 9.82697234e-002 1.40050009e-001 9.12723914e-002
      8.17569122e-002 8.15516263e-002 1.25771286e-002 -2.83727586e-001
      -1.70570672e-001 4.74803969e-002 1.89420268e-001 2.31404722e-001
      4.26515981e-005 1.41086757e-001 1.35544866e-001 7.16781765e-002
      -2.22470060e-001 1.53885394e-001 1.62054002e-002 1.06374517e-001
      5.98065034e-002 -1.01044793e-002 -3.33993584e-002 -7.19276443e-002
      -1.46114781e-001 6.96031526e-002 2.43214041e-001 4.42565009e-002
      2.80719027e-002 -2.30494775e-002 5.07923681e-003 -5.23078181e-002
      -1.29423961e-001 -8.84366333e-002 2.23573253e-001 -6.93205148e-002
      -4.20008302e-002 1.16257250e-001 7.16147274e-002 -5.63302338e-002
      9.52684227e-003 7.32923597e-002 8.21701586e-002 -1.22055352e-001
      5.07439189e-002 -4.92928885e-002 4.41033719e-003 -3.13800685e-002
      3.61112021e-002 -3.43383639e-003 4.82443161e-003 1.01679653e-001
      8.77334401e-002</_>
    <_>
      1.60249382e-001 7.09931627e-002 -3.83877684e-003 8.82259309e-002
      3.43060717e-002 6.72696307e-002 -5.74968010e-002 -1.34321898e-001
      1.10172778e-001 -9.49344039e-002 1.52761759e-002 -1.20733457e-003
      -6.32610694e-002 -6.41184151e-002 -1.02711120e-003 3.39301862e-002
      1.03936248e-001 6.05479255e-002 -2.17651322e-001 -7.19257295e-002
      -3.34223732e-002 1.14676192e-001 2.75697231e-001 1.91514298e-001
      -1.65710822e-002 -6.93973526e-002 -2.71275550e-001
      -2.80525714e-001 3.65971997e-002 9.32914242e-002 8.72112513e-002
      1.74646437e-001 6.80252612e-002 2.62909383e-002 -7.07273707e-002
      -2.79025465e-001 -7.79501647e-002 1.72707543e-001 2.77419691e-003
      3.14547047e-002 -2.61830445e-003 -2.03689896e-002 4.36905138e-002
      7.67269060e-002 4.76197451e-002 1.58732906e-002 2.10898325e-001
      9.52223614e-002 1.32595971e-001 -5.84998028e-003 -1.54858865e-002
      1.54851601e-002 -7.14497045e-002 1.58732906e-002 -2.26962626e-001
      1.55052260e-001 9.40094665e-002 1.34930462e-001 7.84783661e-002
      6.88666552e-002 4.84422557e-002 -8.91394839e-002 -2.81017989e-001
      -1.88157007e-001 9.08248946e-002 1.81447297e-001 2.20770717e-001
      -1.83509581e-003 1.59913555e-001 1.54785663e-001 7.89021626e-002
      -2.19760463e-001 2.85069440e-002 6.50448278e-002 1.04275219e-001
      6.65928870e-002 -3.90289128e-002 -1.16379708e-002 9.64847114e-003
      -7.31679797e-002 2.77264584e-002 7.54071102e-002 -3.22889276e-002
      9.59173683e-003 1.57703750e-003 -6.50341064e-002 -1.73100699e-002
      1.38840983e-002 -3.24548073e-002 1.70721695e-001 -1.66467145e-001
      1.38472542e-002 1.35124788e-001 7.48916119e-002 -4.97949645e-002
      7.85679892e-002 1.42598987e-001 1.36095852e-001 -1.91115916e-001
      -5.35161905e-002 -6.96921647e-002 3.59273329e-002 6.41980767e-003
      8.52927789e-002 6.93289265e-002 6.42361939e-002 9.95115414e-002
      -3.24207917e-002</_>
    <_>
      2.42883652e-001 6.00371920e-002 -3.72435264e-002 3.99053060e-002
      7.69248903e-002 8.01304877e-002 -1.40508707e-003 -1.21657185e-001
      1.41139135e-001 2.26221494e-002 -1.76192984e-001 -1.03665955e-001
      -8.11366960e-002 1.44521249e-002 -2.05779932e-002 1.11475810e-001
      2.20774367e-001 1.49323851e-001 -7.44764879e-002 1.37019251e-002
      1.71026159e-002 8.19031969e-002 2.27795526e-001 9.54823941e-002
      -7.95787051e-002 -1.37845755e-001 -2.01691046e-001
      -2.58444071e-001 5.21796616e-003 5.25739491e-002 6.06296211e-002
      1.74973398e-001 -1.43746892e-002 -5.64660784e-003 -4.76634502e-002
      -2.66113937e-001 -3.99051607e-002 -1.19703121e-001
      -1.56369045e-001 1.88973900e-002 6.13701344e-003 6.39816560e-003
      7.95344710e-002 2.22938284e-001 3.01815331e-001 1.59344226e-001
      -7.16256276e-002 -5.94219677e-002 7.99201056e-002 -5.02710417e-003
      6.45035431e-002 3.17786634e-002 3.02776601e-002 3.20750326e-001
      -2.39098415e-001 -1.39761537e-001 -5.17565683e-002 1.31353676e-001
      7.37058371e-002 7.70522207e-002 7.69917443e-002 4.57830094e-002
      -9.35326070e-002 -6.13498203e-002 -2.09877878e-001 6.28470853e-002
      1.88870862e-001 -7.84926675e-003 1.86067358e-001 1.77027687e-001
      1.64155334e-001 4.22369801e-002 1.43209830e-001 -1.68083385e-001
      -3.67430076e-002 2.72650830e-002 -1.15620680e-002 -1.20882252e-002
      3.23030911e-002 5.68312313e-003 2.47184366e-001 1.45700976e-001
      -5.91463000e-002 -8.35555233e-003 -1.17410542e-002
      -7.78164715e-002 -8.95716697e-002 -4.67131734e-002 3.45467925e-002
      1.10693291e-001 1.44386869e-002 -1.78903610e-001 5.00448495e-002
      2.44759396e-002 -1.04969114e-001 4.11046930e-002 1.55530840e-001
      1.37443736e-001 4.16489467e-002 7.20332488e-002 3.61607000e-002
      4.87959199e-002 -5.74277155e-002 1.41939484e-002 -1.02805711e-001
      6.94437325e-003 1.57707129e-002 -6.03078231e-002</_>
    <_>
      1.22029841e-001 8.84176269e-002 -6.54338002e-002 9.19092894e-002
      1.56154990e-001 7.72290975e-002 -3.02870926e-002 -1.64432097e-002
      9.86620784e-002 -3.43711600e-002 -6.30264729e-002 -1.06365763e-001
      -7.54745528e-002 3.56710367e-002 1.30640101e-002 1.08645074e-001
      2.57904679e-001 1.06805734e-001 -1.99489027e-001 -7.73523450e-002
      -5.56810871e-002 9.94696096e-002 2.62945145e-001 1.21648401e-001
      -1.50402308e-001 -4.39041965e-002 -2.26463169e-001
      -2.65408784e-001 -8.74569640e-002 -4.08270024e-002 4.19167690e-002
      1.66791320e-001 3.98469418e-002 -1.21090161e-002 2.48383917e-002
      -2.58232266e-001 -7.26340041e-002 8.85758549e-002 -7.17506781e-002
      6.81558205e-003 3.31675843e-003 -9.47635341e-003 3.50047611e-002
      1.75475106e-001 1.28999069e-001 1.38211831e-001 1.95783511e-001
      7.04361498e-002 1.09253198e-001 -4.33931947e-002 -2.33897753e-002
      -9.83878449e-002 -6.22727871e-002 1.31565467e-001 -2.34603241e-001
      -1.68046970e-002 -2.41922624e-002 9.99603122e-002 5.28761484e-002
      3.33809964e-002 -5.66035323e-003 -6.41725063e-002 -1.84944764e-001
      -1.10394493e-001 2.39049103e-002 1.59271643e-001 1.85238883e-001
      -4.93627749e-002 9.27147046e-002 -5.23145981e-002 -8.84115249e-002
      -1.20063215e-001 1.41050354e-001 9.24889594e-002 1.08832553e-001
      5.87614104e-002 -6.66431263e-002 -8.39879587e-002 -8.67753699e-002
      -6.75054640e-002 1.35283321e-001 1.32726833e-001 7.95524120e-002
      2.64995210e-002 1.18510425e-002 -6.57567475e-003 -4.30374630e-002
      -8.19077268e-002 -7.09245875e-002 1.52930483e-001 -7.97596127e-002
      -2.27947775e-002 9.96189788e-002 6.40819445e-002 -6.72927424e-002
      3.09249517e-002 5.83334602e-002 1.29835983e-003 -7.11000413e-002
      -1.96383018e-002 -8.77625570e-002 -1.06452428e-001
      -4.14609723e-002 9.33923572e-002 6.43469468e-002 4.92684506e-002
      4.69474941e-002 1.28146680e-002</_>
    <_>
      8.15154612e-002 -8.16585943e-002 1.57578140e-002 1.87653735e-001
      2.23010540e-001 1.19397834e-001 2.05525160e-002 2.72701774e-003
      1.09603189e-001 -3.67301926e-002 -1.90988287e-001 -5.32524250e-002
      1.90301016e-002 7.65021294e-002 -1.21603338e-002 1.35465130e-001
      2.80693263e-001 1.28802270e-001 -2.63154954e-001 -1.33112714e-001
      -3.47182713e-002 1.34557351e-001 3.14295679e-001 1.72253385e-001
      2.17295140e-002 2.87062917e-002 -3.10674489e-001 -2.88333386e-001
      2.67823301e-002 9.77408960e-002 1.00614689e-001 2.00579315e-001
      -1.24507714e-002 4.38700169e-002 8.00723508e-002 -2.86833137e-001
      -8.33001435e-002 -7.99536556e-002 -9.56730098e-002 4.49833572e-002
      6.55297004e-003 -3.20737176e-002 7.65890926e-002 1.98024347e-001
      1.39443994e-001 1.29228070e-001 -4.09087352e-003 -9.91579052e-003
      1.23982742e-001 -2.50234697e-002 2.10008398e-002 -1.77450068e-002
      -1.32732108e-001 8.66964608e-002 -2.50101805e-001 8.44464004e-002
      5.98245673e-002 1.28406614e-001 7.46251270e-002 2.73655020e-002
      5.49139865e-002 4.23179852e-004 -2.38106072e-001 -1.16867296e-001
      -1.70069169e-002 1.36145785e-001 2.35080779e-001 -9.71559715e-003
      1.59188539e-001 1.53212249e-001 -4.54166792e-002 -1.76848546e-001
      1.66990593e-001 1.61844678e-002 8.69299397e-002 5.50264567e-002
      -1.09103717e-001 -4.93915416e-002 -5.71621954e-002
      -1.23922504e-001 1.35145143e-001 1.53897926e-001 5.92029989e-002
      6.04663044e-002 2.75822612e-003 -8.00813884e-002 -8.14759135e-002
      -5.55387884e-002 -7.73784965e-002 9.40689147e-002 -1.24091104e-001
      -4.68131602e-002 1.43083796e-001 1.09462075e-001 -6.42619729e-002
      8.41907263e-002 1.16214469e-001 -3.78744840e-003 -1.53424352e-001
      -5.63511625e-002 -7.98927993e-002 6.64173812e-002 -9.34789795e-003
      8.59133899e-002 8.70783851e-002 3.08841690e-002 1.57912858e-002
      -9.33923125e-002</_>
    <_>
      7.79057518e-002 7.60689378e-002 -7.10279047e-002 1.03320226e-001
      9.91377458e-002 1.02125309e-001 -3.26636108e-003 -4.32947744e-003
      2.03437597e-001 -9.55441445e-002 -1.08749447e-002 -6.93026409e-002
      -5.78209572e-002 4.08510305e-002 4.06112522e-003 5.43455742e-002
      1.72144771e-001 6.73117936e-002 -1.97220370e-001 -8.14597681e-002
      -9.16855037e-002 4.70057800e-002 1.74525410e-001 1.01556405e-001
      5.71081787e-003 1.07682627e-002 -1.03384130e-001 -1.72953054e-001
      7.36039430e-002 5.12785390e-002 -2.05866173e-002 8.66551250e-002
      -7.84836784e-002 -6.45130053e-002 -1.08820282e-001
      -1.33834735e-001 -8.46283231e-003 1.38166383e-001 -1.04415551e-001
      -2.98051927e-002 -1.89951435e-002 -6.00788146e-002 3.22110727e-002
      9.55480859e-002 1.17807902e-001 1.99951395e-001 1.43181279e-001
      -6.98436871e-002 2.41833646e-002 -8.52482319e-002 -4.35096323e-002
      -4.13713641e-002 -9.50539932e-002 1.57461762e-001 -2.46221162e-002
      1.35708898e-001 2.93249190e-002 4.60762307e-002 -2.77147219e-002
      -1.02450758e-001 -6.64356425e-002 -1.40084669e-001
      -1.44519046e-001 -6.26678988e-002 5.32895252e-002 1.24410525e-001
      2.02872381e-001 -4.87410910e-002 1.13024078e-002 3.95638421e-002
      -7.29122609e-002 -1.69088423e-001 1.82328373e-001 4.25920524e-002
      7.58870542e-002 7.38167623e-003 -5.31790592e-002 -3.34138498e-002
      -9.65872332e-002 -1.26650259e-001 1.81720525e-001 1.66454166e-001
      8.88398141e-002 3.33433487e-002 2.00763985e-004 -1.09785013e-002
      -6.05417453e-002 -1.02530599e-001 -1.25529274e-001 2.16423258e-001
      -1.08667545e-001 -4.93478812e-002 7.69639015e-002 6.28238171e-002
      -2.99771596e-002 5.18369600e-002 7.61162043e-002 3.61565500e-002
      -1.64640829e-001 -3.68125401e-002 -9.00822729e-002
      -3.89937758e-002 -7.30274767e-002 6.11921810e-002 4.57416140e-002
      4.61712591e-002 5.07586598e-002 1.87339298e-002</_>
    <_>
      1.33601025e-001 -4.53446954e-002 -8.28790739e-002 1.11635372e-001
      1.12220682e-001 1.04404837e-001 -1.18242810e-002 -5.52230664e-002
      2.01106891e-001 -3.63317542e-002 -1.07178107e-001 -2.84814946e-002
      -5.22916913e-002 -2.42177453e-002 2.69745477e-003 6.66504204e-002
      1.78239703e-001 1.41298145e-001 -1.43812940e-001 -1.50338113e-001
      -9.27951783e-002 2.36449391e-002 2.07173347e-001 1.37711242e-001
      -5.70660271e-002 -8.65243450e-002 -1.38508409e-001
      -1.71093494e-001 -1.51521023e-002 3.11792549e-002 -1.31094642e-002
      3.22558060e-002 -9.19160713e-003 -3.35427448e-002 -7.13567957e-002
      -1.56583503e-001 -2.93105301e-002 1.01610340e-001 -1.31409429e-002
      1.17881093e-002 -2.41412073e-002 -2.96930224e-002 1.45357400e-002
      1.11588463e-001 1.12998560e-001 7.29738325e-002 1.15334839e-001
      5.80656677e-002 1.13043383e-001 -1.83612406e-002 -1.39972186e-002
      -5.87418452e-002 -1.09565318e-001 6.04372285e-002 -1.20419502e-001
      8.60462487e-002 4.93318141e-002 7.16360286e-002 -2.64452714e-002
      -8.25544447e-003 -3.00540254e-002 -1.15399182e-001
      -1.52747244e-001 -1.43593058e-001 -1.68261584e-002 1.15380690e-001
      1.77447617e-001 -4.87684645e-002 9.34689343e-002 5.82166091e-002
      -2.89400816e-002 -1.75196528e-001 1.33743063e-001 4.81525585e-002
      1.02212653e-001 5.78263067e-002 -5.14803380e-002 -3.57880108e-002
      -6.76955953e-002 -1.47911787e-001 8.61616880e-002 2.12525055e-001
      7.76949376e-002 5.42775989e-002 3.74806896e-002 -6.17046058e-002
      -3.76483463e-002 -8.13248977e-002 -9.55781117e-002 2.01942801e-001
      -8.32514390e-002 -1.55267222e-002 1.10938959e-001 5.67392744e-002
      -5.81489317e-002 3.11729722e-002 7.17392713e-002 6.14577495e-002
      -1.38726667e-001 5.95186427e-002 -2.57794764e-002 5.87493181e-003
      -1.04375388e-002 2.32634060e-002 1.49442451e-002 1.75913665e-002
      4.70610112e-002 3.52689475e-002</_>
    <_>
      2.05423713e-001 1.22015215e-001 4.26617004e-002 5.64998649e-002
      -6.17389530e-002 4.58276607e-002 -2.44500712e-002 -2.00130716e-002
      2.50426829e-001 -5.07851690e-002 -1.86216533e-001 -3.73496674e-002
      -1.05985314e-001 -7.80079141e-002 -3.15619335e-002 9.67482254e-002
      2.60677993e-001 2.53655165e-001 -1.96442828e-001 -2.24309400e-001
      -6.19219206e-002 8.11630413e-002 1.21985361e-001 9.86874625e-002
      5.39342547e-003 -1.77927483e-002 -1.37964591e-001 -2.59858221e-001
      -1.84048444e-001 -5.22199236e-002 5.74123412e-002 1.33686334e-001
      3.47553939e-002 6.99319839e-002 8.99228826e-002 -9.45889652e-002
      -1.24025024e-001 -1.56459585e-001 -4.80158590e-002 1.72004420e-002
      1.43773397e-002 1.96676962e-002 8.06079581e-002 2.30061054e-001
      3.20079863e-001 -3.11894109e-003 -1.03067435e-001 8.09092969e-002
      1.30841985e-001 1.16775827e-002 6.36401027e-002 2.17525847e-002
      2.27938965e-002 2.87330717e-001 -2.32878894e-001 -1.82560310e-001
      7.75504485e-003 1.33713230e-001 7.17407092e-002 7.55524486e-002
      8.00826401e-002 7.25522339e-002 8.53311457e-003 -2.07149237e-001
      -2.16669634e-001 1.73544988e-001 2.38936663e-001 1.93772223e-002
      1.76908523e-001 1.64029405e-001 1.56996325e-001 5.37869781e-002
      -2.92633250e-002 -1.93200558e-001 7.33750090e-002 4.89416718e-002
      -6.18550144e-002 1.65124908e-002 7.22813793e-003 8.12252611e-003
      1.95185974e-001 4.32542376e-002 -1.78347100e-002 -1.41175417e-002
      -1.09505272e-002 -1.33776320e-002 3.29217054e-002 7.41951633e-003
      8.18930566e-002 1.30471334e-001 -2.23456934e-001 -1.57744840e-001
      1.29250377e-001 1.04689986e-001 -1.30693242e-002 8.53336826e-002
      1.58805355e-001 1.69450179e-001 3.10951807e-002 -5.18598743e-002
      1.34248808e-002 3.19581591e-002 3.20004895e-002 1.45847857e-001
      9.21535119e-002 9.80881006e-002 1.52802497e-001 6.16156608e-002</_>
    <_>
      8.92994702e-002 2.10328531e-002 -7.27515072e-002 1.47736192e-001
      1.53695032e-001 7.49633461e-002 3.60740465e-004 -2.21853778e-002
      1.53317928e-001 -5.95537089e-002 -1.51966661e-002 -1.29502919e-002
      -2.11603809e-002 4.34673317e-002 -6.33182190e-003 8.57544392e-002
      7.42728710e-002 5.64096831e-002 -1.54600069e-001 -8.73243064e-002
      -6.59942478e-002 1.06844313e-001 2.01793015e-001 8.91205519e-002
      -7.54390061e-002 -8.59146267e-002 -1.92745715e-001
      -2.20257625e-001 -4.49165441e-002 1.72182731e-002 -2.77288817e-002
      8.85139704e-002 1.54249137e-002 -2.09777057e-002 -7.86060840e-002
      -2.39912316e-001 -3.62380035e-002 5.31454273e-002 -6.48448169e-002
      -8.11668858e-003 -1.02413269e-002 -4.19412693e-003 3.43619362e-002
      1.04394548e-001 9.71348807e-002 1.02823883e-001 2.22763494e-002
      -3.36531624e-002 9.32670534e-002 -3.69135737e-002 1.47162201e-002
      -3.00841220e-002 -6.24346994e-002 1.25075296e-001 -1.30312756e-001
      4.42658700e-002 -1.53693156e-002 3.54883112e-002 -3.41783762e-002
      -7.20876362e-003 -1.82435848e-002 -3.00601497e-002
      -1.31115615e-001 -1.05940096e-001 -5.21845706e-002 7.93234110e-002
      1.94586322e-001 -1.05893075e-001 2.63483543e-002 1.74724888e-002
      -5.28803580e-002 -1.42848775e-001 1.14682265e-001 3.25123854e-002
      9.94120091e-002 7.30954111e-002 -3.12671214e-002 -1.85349416e-002
      -6.62201345e-002 -1.36819154e-001 8.33776295e-002 2.11267725e-001
      1.29683360e-001 5.58655821e-002 3.13343853e-002 -2.96705328e-002
      -5.89829944e-002 -1.08426988e-001 -1.17130920e-001 1.72320530e-001
      -9.97777507e-002 -2.82733999e-002 9.76575464e-002 5.44794388e-002
      -1.15239352e-001 1.95218362e-002 6.75561279e-002 1.70200858e-002
      -1.24003537e-001 4.21027876e-002 -2.52754483e-002 1.84925052e-003
      -1.00071065e-001 1.85974631e-002 3.57583724e-003 2.87782364e-002
      6.72362819e-002 9.83919203e-003</_>
    <_>
      1.72678098e-001 3.81910391e-002 -6.27045780e-002 1.16031893e-001
      1.76763222e-001 7.60059133e-002 -3.79113224e-003 -7.22978935e-002
      1.77855253e-001 -6.46616742e-002 -6.85778484e-002 -5.05404174e-002
      -7.54543394e-003 7.39344880e-002 1.19197406e-002 1.17794767e-001
      1.14955448e-001 4.82040048e-002 -1.13923438e-001 -5.40286452e-002
      -6.23974726e-002 6.63018525e-002 2.27320701e-001 9.56490338e-002
      -5.34698367e-002 -1.16520725e-001 -1.66834220e-001
      -2.47703552e-001 -9.62729752e-003 5.19555695e-002 4.99673113e-002
      1.55831262e-001 3.90856247e-003 -6.68659061e-003 -9.20592174e-002
      -2.69989818e-001 -4.58500348e-002 1.11962013e-001 -1.23329954e-002
      2.56612943e-003 9.67313256e-003 -8.42303038e-003 -1.28998151e-002
      1.74959116e-002 7.34791383e-002 1.74321905e-001 1.76375374e-001
      4.60779741e-002 7.79710338e-002 -9.57572460e-002 -2.18474604e-002
      -1.23585477e-001 -1.87921628e-001 1.73754081e-001 -2.05947816e-001
      1.47704398e-002 3.05995066e-002 6.51967004e-002 4.36271057e-002
      -9.38758836e-004 -7.50112021e-003 -9.36416537e-002
      -1.94987416e-001 -6.09764121e-002 3.30192037e-002 1.41408652e-001
      1.34515867e-001 -1.08229086e-001 6.15662672e-002 3.91597301e-002
      2.44505275e-002 -7.61710182e-002 1.40816107e-001 2.63036508e-002
      6.07365966e-002 2.80098561e-002 -8.90311003e-002 -3.49929295e-002
      -1.08055793e-001 -1.31160766e-001 1.78956270e-001 1.57726169e-001
      4.22509685e-002 1.92548390e-002 -1.65818317e-003 -1.19317519e-002
      -5.20799570e-002 -1.04947165e-001 -6.05654716e-002 1.82202905e-001
      -9.25930142e-002 -4.54951003e-002 1.11381181e-001 2.88339201e-002
      -1.38073966e-001 2.37277672e-002 4.85283919e-002 1.04035623e-001
      -4.60399687e-002 2.09785905e-002 -5.12820184e-002 -1.53741241e-002
      -4.42451537e-002 3.89798321e-002 -2.06009485e-002 -1.25453686e-002
      9.02246311e-002 1.87734570e-002</_>
    <_>
      3.37814182e-001 3.08618546e-001 -5.81774116e-001 -4.18309450e-001
      -4.13688987e-001 -1.29785955e-001 -1.71587035e-001 4.42797482e-001
      -5.87695301e-001 2.19977796e-001 7.38035321e-001 -1.80955797e-001
      -5.16145945e-001 -7.82202840e-001 -3.73923421e-001
      -6.17188990e-001 -2.22340241e-001 1.21755740e-002 -1.06151557e+000
      -2.86089987e-001 -1.20171234e-001 1.36352390e-001 9.20893326e-002
      -5.32941148e-003 1.73410311e-001 1.37587690e+000 -4.69680756e-001
      2.07373295e-002 9.51450169e-002 2.56682672e-002 1.16836041e-001
      -3.64205949e-002 -1.46934047e-001 -1.53581411e-001 6.24799550e-001
      -2.67696977e-002 4.63107377e-001 8.91980231e-002 -8.75455886e-002
      -2.22991213e-001 -3.08405071e-001 -3.27041447e-001
      -3.24386090e-001 -4.62073356e-001 2.54205972e-001 -1.82550237e-001
      -2.88172830e-002 -8.84410515e-002 -9.65007395e-002
      -8.14968571e-002 -1.10228129e-001 1.84740312e-002 7.81061873e-002
      9.94983837e-002 6.99674487e-002 4.66765612e-002 -3.04383691e-003
      -3.08416244e-002 -1.00992031e-001 -1.57101586e-001
      -2.31348589e-001 -3.52848262e-001 -5.49160279e-002
      -1.16463780e-001 6.77838475e-002 -4.25335802e-002 -9.28012431e-002
      -1.60115864e-002 5.38470037e-002 3.47879045e-002 2.32972540e-002
      -5.49160279e-002 -6.50664210e-001 2.18765944e-001 -1.35348678e-001
      -1.76525295e-001 -1.68277130e-001 -1.06559761e-001 1.86053202e-001
      5.31188250e-001 -1.72276601e-001 -5.04537642e-001 4.69270617e-001
      -9.49179679e-002 -1.29598305e-001 -2.55566269e-001 5.96249327e-002
      3.73707592e-001 1.26409566e+000 -2.08325237e-001 -4.47792172e-001
      2.79441029e-001 -2.18432993e-001 -3.55271280e-001 -1.61005467e-001
      -3.18419859e-002 9.79286060e-002 8.10055360e-002 -5.17827570e-001
      -2.71378681e-002 8.72720242e-001 -4.17939350e-002 -2.79689163e-001
      -1.92688942e-001 4.41270061e-002 2.17078142e-002 -3.66460010e-002
      -3.24484348e-001</_>
    <_>
      2.95553207e-002 4.40028943e-002 6.94503635e-002 3.45227383e-002
      -6.97173849e-002 3.96142825e-002 2.13294122e-002 -9.95449722e-002
      -2.99161226e-001 6.26599789e-002 -1.38581291e-001 -9.32372287e-002
      -4.63248603e-002 -9.20352414e-002 -3.49950269e-002
      -7.39854062e-003 1.59756243e-001 6.17040582e-002 -1.00781091e-001
      8.65101293e-002 8.99204314e-002 9.94068608e-002 6.47664145e-002
      2.33573541e-002 1.22238576e-001 -3.82380257e-003 -1.73168182e-001
      -6.07641302e-002 -2.14362219e-001 -1.46185746e-002 2.41679512e-002
      3.50019261e-002 -2.51164101e-002 4.92051058e-002 2.06818819e-001
      3.73052619e-003 9.40501764e-002 -5.77888131e-001 -2.58060664e-001
      -2.57624909e-002 -4.83593196e-002 -2.79155020e-002
      -9.44502186e-003 1.29581809e-001 5.17259419e-001 2.18121275e-001
      -5.50213933e-001 -2.75248468e-001 -3.66016440e-002
      -2.39720605e-002 4.00219336e-002 2.82794144e-002 2.35012591e-001
      6.36301816e-001 -2.18847096e-002 -6.10973239e-001 -1.76977426e-001
      -8.81555025e-003 -1.21767377e-003 -3.05576273e-003
      -4.67327563e-003 1.05321556e-001 2.84265071e-001 1.73645929e-001
      -4.41712618e-001 -1.70006260e-001 -1.13420188e-002 1.10485116e-002
      3.63826714e-002 1.96626503e-002 7.38265216e-002 5.01936138e-001
      -6.86378404e-002 -3.30869913e-001 -2.02321693e-001
      -2.32456438e-002 -2.20096111e-002 -3.75401066e-003 1.00131094e-001
      2.83426493e-001 3.58477890e-001 -3.08296978e-001 -2.45852038e-001
      3.43017392e-002 2.81820688e-002 -9.16378275e-002 -8.55528116e-002
      7.95150697e-002 1.51256159e-001 -3.10964227e-001 2.39013523e-001
      -1.58767283e-001 5.06916456e-002 3.21828714e-003 -4.85190153e-002
      -4.59192842e-002 -2.30864175e-002 -1.37903923e-002 2.36669138e-001
      -4.66085337e-002 2.95056522e-001 2.60544807e-001 9.99797285e-002
      -1.72673613e-002 -1.93809941e-001 -1.70331821e-001
      -2.22840920e-001 -3.61897349e-001</_>
    <_>
      -2.32428506e-001 2.86951572e-001 9.84911993e-002 -2.00016629e-002
      4.93190587e-002 -1.90989494e-001 -5.43699339e-002 9.68345478e-002
      -9.07884061e-001 3.03164899e-001 -2.23959550e-001 -3.74213725e-001
      -2.56812543e-001 -1.77930444e-001 -2.02174783e-001
      -1.22686118e-001 2.80260354e-001 2.79537346e-002 -7.30507433e-001
      2.22953409e-001 2.47777909e-001 1.91293553e-001 2.78811902e-001
      2.77852360e-003 -9.04257521e-002 6.36893213e-001 -2.26338506e-001
      1.30193653e-002 -4.30436283e-001 -3.37970763e-001 -4.90580350e-002
      5.08754104e-002 -4.14313450e-002 -3.52726020e-002 5.12367249e-001
      9.40283090e-002 3.23032796e-001 -6.71802759e-001 -3.83207560e-001
      -1.69361562e-001 -1.34994388e-001 -1.74328417e-001
      -2.39574820e-001 -4.30029690e-001 4.14351225e-001 4.94925648e-001
      -1.48691371e-001 -1.24563195e-001 -1.53878957e-001
      -2.72379428e-001 -2.42486283e-001 -6.16730571e-001
      -6.85363591e-001 5.48346817e-001 3.14262480e-001 -6.75300419e-001
      -4.25575525e-001 -1.67644739e-001 -1.14700995e-001
      -1.76700741e-001 -3.06990176e-001 -4.98843044e-001 4.57680285e-001
      3.08183640e-001 1.22997966e-002 -1.83471572e-002 -1.25363261e-001
      -1.56203806e-001 -1.29520506e-001 -6.34933770e-001
      -1.21784890e+000 3.79598320e-001 -1.05849802e-001 9.20347795e-002
      3.04767843e-002 -1.50666237e-001 -1.75883636e-001 -1.74187377e-001
      -4.71488982e-002 -2.37252489e-001 3.64410281e-001 -5.84485590e-001
      -2.28620499e-001 7.10855201e-002 -2.22746149e-001 2.94129625e-002
      1.03383325e-001 1.91265866e-001 1.31837040e-001 -1.80704400e-001
      -3.00793536e-003 2.51189113e-001 7.66263902e-002 -3.37519199e-002
      8.41713175e-002 1.66108325e-001 5.68556003e-002 -3.60769361e-001
      -1.36524141e-001 -2.17512891e-001 -8.99800733e-002
      -5.18147759e-002 -1.74954757e-002 3.58556926e-001 2.97161937e-001
      2.30767787e-001 5.55225387e-002 -3.81863385e-001</_>
    <_>
      -2.93952614e-001 -1.90619648e-001 2.53436178e-001 1.59539729e-001
      1.55313730e-001 3.45616452e-002 1.56919762e-001 3.79582405e-001
      -4.92051363e-001 3.00429195e-001 -4.26398426e-001 -6.02009594e-002
      4.98086922e-002 -4.19451222e-002 -2.39270791e-001 1.17166452e-002
      1.93049461e-001 1.36872575e-001 -4.77023631e-001 -1.23042330e-001
      1.03685439e-001 2.42329285e-001 2.36288756e-001 5.36639914e-002
      3.51703256e-001 9.05431509e-001 -3.08186084e-001 1.20081110e-002
      1.20106328e-003 2.07310300e-002 1.33415088e-001 6.31680936e-002
      -1.76726624e-001 9.15134400e-002 4.95610535e-001 -5.74066676e-002
      2.23717198e-001 -9.92961407e-001 -2.17569992e-001 5.94132254e-003
      -1.39293715e-001 -2.92874485e-001 -7.35550225e-002
      -4.58565056e-002 3.84428889e-001 8.61113891e-002 -8.42094421e-001
      -5.52385628e-001 -9.59117338e-002 -1.67155996e-001
      -8.62371996e-002 -1.07221864e-002 -1.33988455e-001 3.54624420e-001
      2.19593823e-001 -2.56876469e-001 -8.18186551e-002 8.18593893e-003
      -5.35246283e-002 -1.99625701e-001 -6.55739680e-002
      -1.27853259e-001 2.19593823e-001 2.10896134e-001 -2.65918970e-001
      -2.12308675e-001 7.02960743e-003 -2.46868283e-002 7.44321942e-002
      -6.63648099e-002 -7.48511195e-001 2.12116957e-001 7.61852264e-002
      -1.17916852e-001 -2.43676469e-001 -9.75684971e-002
      -4.24976379e-001 -6.92029074e-002 2.57837549e-002 2.36100823e-001
      2.63265133e-001 -3.74005705e-001 9.01753306e-002 8.91917944e-002
      -2.68316865e-002 -4.68566746e-001 -2.48707891e-001
      -1.40496483e-002 3.42705697e-001 -4.33375686e-001 -8.79186392e-002
      -3.10669597e-002 -2.59329770e-002 7.08524510e-002 -4.34135497e-002
      2.43341222e-001 6.38897531e-003 -5.44873834e-001 -7.03223422e-002
      -2.33389631e-001 3.46643850e-002 1.27228543e-001 7.45989755e-002
      2.14983180e-001 2.31594846e-001 -6.19003251e-002 -3.08643609e-001
      -3.82650405e-001</_>
    <_>
      -5.22179067e-001 1.59340024e-001 7.18698278e-002 -1.20311439e-001
      -4.73676175e-002 1.03769906e-001 4.25990298e-002 2.97317386e-001
      -2.76393682e-001 3.26332101e-003 5.79145610e-001 -1.03054918e-001
      -1.01601288e-001 -7.27722198e-002 -8.29368606e-002
      -3.51908952e-001 -1.14710972e-001 -2.57145222e-002
      -5.27652204e-001 -1.19613625e-001 -6.27537817e-002 4.12107911e-003
      -5.78742698e-002 -3.23597714e-002 2.34580696e-001 6.00109458e-001
      1.39457388e-002 1.58559054e-001 1.69027686e-001 -1.41076818e-001
      -1.04829684e-001 -1.35382518e-001 -2.40834758e-001
      -3.30508769e-001 -2.21735045e-001 2.51743585e-001 6.65502191e-001
      4.91345599e-002 -3.82397413e-001 -1.33167773e-001 -1.33869156e-001
      -3.36804718e-001 -2.33754456e-001 -5.35050869e-001 2.44630814e-001
      3.67677748e-001 -1.21239178e-001 -5.56131244e-001 -2.14845091e-001
      -2.13286459e-001 -2.82830477e-001 -1.93582982e-001
      -3.55437458e-001 3.33189666e-001 8.84107232e-001 1.73076359e-003
      -1.62892416e-001 -1.57213196e-001 -2.20696449e-001
      -4.22191381e-001 -3.86076301e-001 -7.37938643e-001 3.17269325e-001
      2.25186214e-001 2.17760485e-002 -1.27147600e-001 -5.28099872e-002
      -6.93427101e-002 -2.43741870e-001 -1.90069139e-001
      -4.88060325e-001 1.55238971e-001 -6.58382922e-002 6.46767840e-002
      -8.53211209e-002 -1.72479898e-001 -1.00575797e-001 1.03260241e-002
      1.97783504e-002 -6.08212762e-002 2.26836473e-001 -4.62495327e-001
      -5.15184812e-002 5.26793487e-002 5.71563607e-003 -7.19593093e-002
      1.03375047e-001 2.09235534e-001 -9.38933343e-002 1.90119341e-003
      -1.70750573e-001 9.32507068e-002 -3.06776352e-002 -2.86969673e-002
      8.95876586e-002 1.89338207e-001 1.19300149e-001 -1.35691445e-002
      -1.15655035e-001 -2.50743330e-001 -1.66639805e-001
      -2.06766068e-003 -4.15891595e-002 1.32033482e-001 2.26506934e-001
      2.00730458e-001 -2.44729798e-002 -1.83672428e-001</_>
    <_>
      -5.99563837e-001 -2.44361788e-001 2.75820911e-001 7.11501315e-002
      -1.40921474e-001 4.17464040e-002 5.59522286e-002 7.22828507e-002
      -4.70735013e-001 2.72020996e-001 2.90145785e-001 7.65691102e-002
      -3.83381814e-001 -3.11486483e-001 -2.20789775e-001
      -3.75743300e-001 -1.52842373e-001 2.01715663e-001 -6.54976785e-001
      -4.72287178e-001 -1.78538799e-001 -1.20902903e-001 9.74420160e-002
      1.19539328e-001 2.57816374e-001 5.93945563e-001 5.80601282e-002
      2.67277241e-001 -3.71605664e-001 -4.96621996e-001 -4.54410434e-001
      -5.01148760e-001 -2.68166721e-001 -2.82122254e-001 1.27741486e-001
      4.43960786e-001 5.94201863e-001 -2.20816806e-001 -7.00000301e-002
      -1.46926343e-001 -1.91632241e-001 -4.93745178e-001
      -3.55620027e-001 -6.68624341e-001 3.76305729e-001 7.26348348e-003
      -5.35787284e-001 -1.54947028e-001 -1.08512253e-001
      -2.06469506e-001 -3.56187552e-001 -1.89786956e-001
      -2.87799299e-001 2.72925705e-001 9.05175626e-001 -2.56812960e-001
      -2.91867256e-001 -2.76411414e-001 -4.59363788e-001
      -4.75736946e-001 -4.92934436e-001 -1.01277101e+000 5.57081521e-001
      2.18241081e-001 -3.61024380e-001 -3.70544791e-001 -1.96499333e-001
      -1.70625269e-001 -1.96455196e-001 -2.85842776e-001
      -8.99273157e-001 2.52107024e-001 -2.06753433e-001 2.03342084e-003
      -8.51027742e-002 -1.87766865e-001 -3.01862419e-001 9.05144811e-002
      -9.00048167e-002 6.39048666e-002 3.46109346e-002 -3.73688161e-001
      1.31435141e-001 4.78502847e-002 5.25099859e-002 -6.89131990e-002
      3.95395219e-001 3.08315754e-001 1.34464264e-001 -2.77309358e-001
      -9.53469351e-002 2.09889531e-001 -3.17138843e-002 -1.14289984e-001
      4.60904203e-002 1.80427298e-001 -3.98541950e-002 -2.03309193e-001
      -1.44772202e-001 -9.52689722e-003 2.07589194e-001 8.57157260e-002
      1.88883886e-001 3.26217502e-001 1.76465988e-001 -1.18449889e-001
      -3.43806297e-001 -2.52656758e-001</_>
    <_>
      -3.41387978e-003 1.44587159e-001 1.36987060e-001 -6.41049892e-002
      -3.06165636e-001 -5.34736328e-002 2.07022280e-002 1.51424304e-001
      -4.03661169e-002 2.86141206e-002 -1.27963826e-001 -4.83885175e-003
      -8.26340318e-002 -1.42117754e-001 -4.24297564e-002
      -1.65676009e-002 1.47668749e-001 2.64633805e-001 -2.51023591e-001
      -3.41023415e-001 -3.66869494e-002 4.71954681e-002 -1.23225376e-001
      -6.27904087e-002 7.45993331e-002 2.06106931e-001 -3.38316038e-002
      1.72058158e-002 -3.71377647e-001 -1.94885761e-001 3.01091764e-002
      8.38581845e-003 -4.61658090e-003 4.36589234e-002 2.83875376e-001
      2.38676667e-001 -2.91349851e-002 -4.50687110e-001 -4.49453257e-002
      -2.43593343e-002 -2.84932796e-002 -4.26298240e-003
      -3.36415903e-003 8.53937268e-002 4.25918460e-001 -4.96179722e-002
      -4.21153128e-001 -4.87911020e-004 -4.67654364e-003
      -1.37380650e-002 2.82550585e-002 1.29696447e-002 1.17322206e-001
      3.48753959e-001 5.50847873e-002 -4.83299911e-001 -1.08054750e-001
      -4.90075350e-003 -2.39619296e-002 -1.27760945e-002
      -4.56976099e-003 8.16161186e-002 4.24441516e-001 -2.67376434e-002
      -3.87615502e-001 -2.53423173e-002 -3.97373037e-003 1.36373453e-002
      2.60230526e-002 2.10388191e-002 6.15392812e-002 3.81621182e-001
      -2.50638187e-001 -2.31326297e-001 -2.62497142e-002
      -2.01631058e-002 -5.56068197e-002 4.37536575e-002 6.43009469e-002
      1.97901711e-001 1.48988262e-001 -3.16056162e-001 2.49014478e-002
      1.21886691e-003 1.78289041e-002 -2.22837795e-002 8.88110995e-002
      1.59637123e-001 2.31378153e-001 -1.47587001e-001 -2.07322091e-001
      -6.97009489e-002 1.02932509e-002 1.28669292e-002 4.38263863e-002
      6.20437302e-002 7.38114044e-002 6.79255724e-002 2.22061276e-001
      -1.17387161e-001 2.28410020e-001 9.87561047e-002 5.27281128e-002
      1.17120750e-001 9.03603658e-002 8.67500082e-002 5.82848303e-002
      -1.38085857e-002</_>
    <_>
      -4.30300295e-001 4.04924303e-001 3.23097765e-001 1.50515825e-001
      -8.37423727e-002 -1.30451307e-001 -7.13711679e-002 2.59363204e-001
      -7.85656989e-001 1.73794851e-001 5.48889756e-001 2.38056406e-002
      -5.62174283e-002 -1.95465863e-001 -3.98407966e-001
      -1.72461838e-001 -2.54420638e-001 -2.78080292e-002
      -6.37177825e-001 -7.29857981e-002 2.70681060e-003 1.86867356e-001
      8.30430984e-002 -4.15940955e-002 8.68872777e-002 5.69767118e-001
      -1.24577858e-001 1.35363638e-001 -3.87256712e-001 -1.89551353e-001
      -1.23546608e-001 -1.35984853e-001 -2.52366632e-001
      -1.66805804e-001 1.60112798e-001 8.05593506e-002 4.13556844e-001
      -4.80132878e-001 -3.02596807e-001 -3.49290073e-001
      -2.73784757e-001 -2.23482057e-001 -2.32826352e-001
      -4.25019026e-001 3.16046774e-001 3.01394105e-001 -7.42268026e-001
      -6.33644879e-001 -4.20412302e-001 -2.74929792e-001
      -1.08687155e-001 -4.07928944e-001 -3.53498012e-001 5.14258206e-001
      4.63206142e-001 -5.94355881e-001 -3.24669659e-001 -3.58063459e-001
      -2.84815401e-001 -2.61264563e-001 -3.52367848e-001
      -6.12477541e-001 4.39005196e-001 3.33293527e-001 -3.60454649e-001
      -4.08524096e-001 -2.39342257e-001 -1.97138771e-001
      -1.87474057e-001 -5.34204364e-001 -1.14967036e+000 3.75194252e-001
      -1.66894421e-001 -3.04047335e-002 -1.20361023e-001
      -5.85513189e-003 -4.63234149e-002 5.05599007e-002 -4.98164408e-002
      1.73385322e-001 1.09106928e-001 -5.43530941e-001 -7.20628873e-002
      -5.49033321e-002 1.93938807e-001 9.70782563e-002 8.21241215e-002
      1.59887150e-001 1.53232470e-001 -3.26471657e-001 -5.00665046e-002
      9.96247604e-002 4.26186882e-002 6.90001100e-002 3.58045436e-002
      1.27815634e-001 -1.49619341e-001 -5.62714756e-001 -2.11576909e-001
      -2.52183825e-002 3.80169600e-002 -2.94221975e-002 1.63097486e-001
      1.71734422e-001 1.12382270e-001 -3.49956639e-002 -3.21093678e-001
      -3.55232328e-001</_>
    <_>
      -2.04883873e-001 3.21941257e-001 1.81927070e-001 8.11742544e-002
      9.31456126e-003 -1.02775708e-001 -1.01850346e-001 8.98608044e-002
      -8.93484414e-001 1.53261632e-001 2.78121799e-001 -3.96751732e-001
      -1.46815076e-001 -3.43999080e-002 -6.27917424e-002
      -2.68554866e-001 -3.04855049e-001 9.98382643e-002 -4.35674548e-001
      2.88884908e-001 2.20047936e-001 1.38982400e-001 1.33537710e-001
      4.60455865e-002 2.48976238e-002 3.22939545e-001 -1.95302546e-001
      2.53121316e-001 -9.01028886e-002 -1.20015740e-001 4.28838246e-002
      -4.57006209e-002 -1.02960713e-001 -1.85989335e-001 3.71690542e-001
      -4.59985901e-003 3.16263020e-001 -6.00503504e-001 -3.97358418e-001
      -4.38935578e-001 -1.87229425e-001 -1.67605475e-001
      -4.83614773e-001 -1.09992552e+000 2.98806190e-001 4.96854275e-001
      -1.06206328e-001 -3.37085575e-001 -5.61182499e-001
      -6.21190012e-001 -4.92579401e-001 -7.95534670e-001
      -1.01870382e+000 8.40349793e-001 2.35384524e-001 -6.44222260e-001
      -1.86985597e-001 -1.31384090e-001 -1.30009934e-001
      -2.69400924e-001 -2.84056604e-001 -3.53093415e-001 2.39881709e-001
      3.11499476e-001 -1.78130180e-001 -1.61063433e-001 -1.87079027e-001
      -3.03737223e-001 -2.02031359e-001 -3.78899276e-001
      -4.44835156e-001 4.07891363e-001 2.19601616e-002 1.44944713e-001
      -2.83918858e-001 -3.91352117e-001 -4.99877900e-001
      -3.52371991e-001 -4.00714397e-001 3.07595819e-001 9.68547642e-001
      -1.02578986e+000 -4.73035067e-001 -7.82184824e-002
      -1.60596855e-002 -4.95337844e-002 2.22026378e-001 1.02154516e-001
      6.01477027e-001 -3.85667056e-001 -1.96635202e-001 1.18999444e-001
      7.61092380e-002 -2.60730069e-002 -2.15625584e-001 -1.34304399e-002
      -8.42684582e-002 -4.04009297e-002 -1.49127925e-002
      -3.24188232e-001 -2.26011083e-001 3.02552074e-001 3.17185998e-001
      2.19870150e-001 7.16096982e-002 7.75578097e-002 -9.99412984e-002
      -5.75752735e-001</_>
    <_>
      1.11063927e-001 -1.18171476e-001 -1.82990637e-002 7.45561421e-002
      8.96283537e-002 6.98202327e-002 4.87972088e-002 -1.47382572e-001
      -2.94671115e-003 4.86262105e-002 -4.32687044e-001 -7.21965358e-002
      6.00575916e-002 6.75019771e-002 2.61923159e-003 9.04994905e-002
      1.22320674e-001 2.69184690e-002 1.09924026e-001 5.69221042e-002
      6.35168329e-002 2.73238625e-002 4.48096767e-002 -7.32468441e-004
      -1.12142554e-002 -2.58124590e-001 -2.12501138e-002 3.43443602e-002
      -1.36667788e-001 3.89320888e-002 1.21554891e-002 5.05470522e-002
      -8.57840478e-003 6.09176531e-002 5.71528077e-002 3.32790501e-002
      -3.49192470e-002 -6.02314055e-001 -1.43200442e-001 3.70487734e-003
      1.27716316e-003 2.22363360e-002 3.32210995e-002 1.46140203e-001
      4.31759804e-001 1.79187030e-001 -5.70383966e-001 -2.04153389e-001
      -1.59114935e-002 -5.90138882e-003 6.14370182e-002 8.11065175e-003
      7.69903958e-002 5.53252935e-001 -5.77820092e-002 -5.36954284e-001
      -6.77816719e-002 6.63228147e-003 2.89019961e-002 1.72667764e-002
      5.50851375e-002 1.44322053e-001 2.35248581e-001 1.38851672e-001
      -5.32721758e-001 -6.00599051e-002 3.43771651e-002 2.42869202e-002
      8.75772350e-003 9.07663442e-003 4.60088961e-002 4.36058581e-001
      1.53456509e-001 -3.84701520e-001 -1.54070035e-001 9.38205700e-003
      -8.07820261e-003 -5.90419360e-002 3.30201554e-004 6.33583441e-002
      4.13028330e-001 -6.80972449e-003 -1.65725932e-001 6.80517852e-002
      1.40902586e-003 8.14892352e-003 -1.47700965e-001 -1.65522471e-001
      2.34151594e-002 -1.56615078e-001 3.10721725e-001 -2.82365590e-001
      2.06553880e-002 5.03226146e-002 -1.02451304e-002 -1.19713850e-001
      -5.92262484e-002 -3.27516906e-002 3.99781436e-001 6.43671453e-002
      1.46920055e-001 6.53643012e-002 3.98537796e-003 -1.25915874e-002
      -2.38066331e-001 -1.38292685e-001 -1.52253196e-001
      -1.94145352e-001</_>
    <_>
      -3.76716822e-001 7.20902383e-002 9.98372883e-002 2.04271689e-001
      3.81699532e-001 -1.28009170e-001 3.24657597e-002 -9.28577315e-003
      -5.26303530e-001 9.51260701e-002 -8.09611261e-001 -3.66317779e-001
      1.26061976e-001 4.10584360e-001 2.27921810e-002 2.54314780e-001
      5.46619713e-001 5.28144687e-002 -1.06525443e-001 2.47354761e-001
      -3.07239941e-003 2.20486633e-002 1.12587415e-001 -1.31990209e-001
      -2.40125969e-001 2.25796830e-002 1.08765766e-001 1.10993549e-001
      -4.52575445e-001 -3.95536393e-001 -9.79382768e-002 7.46653229e-002
      5.89925088e-002 5.62016331e-002 4.33389038e-001 1.35535479e-001
      -4.77256626e-002 -6.06045127e-001 -1.63457751e-001
      -3.41206905e-003 8.27168599e-002 3.16978730e-002 -4.08669449e-002
      -1.19344905e-001 1.29065469e-001 6.15261555e-001 -1.67750437e-002
      -2.35169334e-003 -1.13093078e-001 -2.42178619e-001
      -2.94034183e-002 -6.74134612e-001 -8.47720742e-001 3.51225495e-001
      2.05086797e-001 -4.95420098e-001 -2.44705230e-001 -6.80465475e-002
      -5.23494184e-002 -3.72740924e-002 -8.35716650e-002
      -2.02832937e-001 4.55059409e-001 3.86436909e-001 -7.16965348e-002
      -3.68861370e-002 -9.76474658e-002 -1.09689280e-001
      -1.28949419e-001 -5.67844868e-001 -1.13597822e+000 4.55493003e-001
      3.01464617e-001 -1.19827967e-002 4.06877585e-002 -2.87144650e-002
      -1.45692557e-001 -1.20715648e-001 -3.45872760e-001
      -5.99298656e-001 3.17019522e-001 -2.39286259e-001 -4.44056451e-001
      9.76470187e-002 -1.99290052e-001 3.00492495e-001 5.04688807e-002
      -1.92435652e-001 -4.40234035e-001 1.65765911e-001 4.86055434e-001
      7.68194050e-002 -1.12417480e-002 8.56521726e-002 8.40441063e-002
      -2.92817242e-002 -1.26932010e-001 -3.71376216e-001 6.00803852e-001
      2.47540399e-002 -5.35131693e-001 -1.18669629e-001 -1.98049359e-002
      3.21357220e-001 1.52951881e-001 7.88732544e-002 2.38651317e-002
      8.91594440e-002</_>
    <_>
      -2.44775862e-001 -2.66892850e-001 1.66673809e-001 2.35438734e-001
      3.48612726e-001 2.58538853e-002 1.76420748e-001 2.40839988e-001
      -1.13899618e-001 1.44925281e-001 -8.38742554e-001 -5.99292852e-002
      1.92455053e-001 2.78593332e-001 -2.68505327e-002 2.96290874e-001
      4.02570039e-001 2.01649055e-001 -6.97796419e-002 -1.11557906e-002
      -7.87674934e-002 4.82291616e-002 1.24883696e-001 -3.92571501e-002
      9.16367397e-002 2.91407734e-001 -1.23586869e-002 -1.23586869e-002
      -5.99438436e-002 -2.26560533e-002 2.20094230e-002 6.70817494e-002
      -2.31974833e-002 9.35405493e-002 3.80561084e-001 -1.23586869e-002
      -1.36961475e-001 -1.01585150e+000 -1.73855871e-001 4.91999723e-002
      -1.24797039e-002 -7.00093508e-002 1.51842371e-001 3.56476128e-001
      2.72926629e-001 1.35488674e-001 -7.83638239e-001 -5.01857281e-001
      -4.52171788e-002 -8.78135487e-002 -1.54233864e-003 7.05506373e-003
      -2.66062677e-001 1.71884924e-001 1.32834509e-001 -2.70841628e-001
      -8.45690221e-002 5.22328494e-003 -1.08375223e-002 4.31791553e-003
      1.02404408e-001 2.13998020e-001 2.67781526e-001 3.28080088e-001
      -3.36123914e-001 -2.55898535e-001 3.93067338e-002 -4.15092036e-002
      -1.76626083e-003 -1.07957631e-001 -8.43626797e-001 2.67781526e-001
      5.07163823e-001 -1.52258560e-001 -1.87886789e-001 1.13945112e-001
      -2.61967152e-001 -1.28523484e-001 -1.27685189e-001
      -2.20874339e-001 3.02012920e-001 4.36241738e-003 -6.78912029e-002
      3.29806022e-002 7.80422539e-002 -1.99503377e-001 -3.78346384e-001
      -4.23287213e-001 -3.86876822e-001 5.98454429e-003 3.23478788e-001
      -2.03220099e-001 -3.54198627e-002 2.42109254e-001 -2.54531410e-002
      3.72922644e-002 -2.03970999e-001 -7.95528889e-001 2.88143098e-001
      -1.03323862e-001 -4.06909734e-001 -5.81818856e-002 1.13985091e-001
      1.70972690e-001 9.06839520e-002 -2.66782075e-001 -5.61453342e-001
      -1.42539442e-001</_>
    <_>
      -6.03389502e-001 1.50040418e-001 -1.48085430e-001 -7.63728470e-002
      2.88818449e-001 1.24015242e-001 8.23455378e-002 9.78795812e-002
      6.50070310e-002 -5.63421883e-002 1.27673015e-001 -7.95841068e-002
      1.39660209e-001 2.55506307e-001 -4.93077636e-002 -1.32414088e-001
      -2.79755116e-001 8.03031847e-002 -1.53333127e-001 5.75533584e-002
      -1.60490036e-001 -2.53748506e-001 -9.00656655e-002 1.96265280e-002
      1.22604601e-001 7.23521560e-002 2.64563262e-001 2.15182945e-001
      1.54245272e-001 -9.20430049e-002 -1.11309774e-001 -6.22218326e-002
      -9.53567959e-003 -3.91686350e-001 -5.55996716e-001 1.94676653e-001
      4.59566236e-001 -2.89525390e-002 -3.45369250e-001 2.95529962e-002
      -2.07000524e-002 -1.75861254e-001 -1.38505399e-001
      -4.36850309e-001 1.69483691e-001 5.29087186e-001 -1.67437240e-001
      -4.65478152e-001 -4.96981144e-002 -1.40491545e-001
      -2.27529079e-001 -2.80377120e-001 -6.04046702e-001 2.57909358e-001
      6.97907746e-001 -3.76832001e-002 -1.18640214e-001 -8.15022457e-003
      -4.21354622e-002 -1.10672735e-001 -2.95149416e-001
      -7.29752481e-001 2.57559836e-001 2.28171408e-001 -5.29506132e-002
      -4.75055091e-002 4.74981144e-002 2.28428245e-002 -1.58619642e-001
      -1.94793940e-001 -7.24075139e-001 2.06179887e-001 1.97213680e-001
      -3.16832751e-001 -7.45845288e-002 -1.22839853e-001
      -4.81563285e-002 -9.68401581e-002 -1.20674677e-001
      -4.70155209e-001 3.21229219e-001 1.39876874e-002 -4.12829697e-001
      -5.98401166e-002 -1.18060872e-001 6.18708283e-002 9.59744677e-002
      -2.63055176e-001 -6.04599476e-001 3.28730881e-001 1.68773189e-001
      -3.83727938e-001 6.81355447e-002 4.51206565e-002 9.76859108e-002
      3.62550020e-002 1.37479622e-002 -1.93287507e-001 1.61608845e-001
      5.44314422e-002 -6.88869834e-001 -1.66052938e-001 -8.96825269e-003
      7.14596063e-002 1.15850784e-001 7.35827163e-002 -6.52820393e-002
      2.35756993e-001</_>
    <_>
      -5.32910526e-001 -2.03102931e-001 2.95630038e-001 2.44300917e-001
      1.29637688e-001 6.50525615e-002 -1.49576890e-003 -9.30767208e-002
      -8.25726464e-002 1.86335713e-001 -3.49713355e-001 8.36367235e-002
      7.00900406e-002 1.09525613e-001 6.87985867e-002 -2.97670197e-002
      -4.81416881e-002 1.25389233e-001 -1.30817741e-001 -2.59570003e-001
      -9.79724079e-002 -4.60267775e-002 -4.43842635e-002
      -6.54334715e-003 -2.75655746e-001 -1.85770661e-001 6.67400479e-001
      3.53065789e-001 -4.65714484e-001 -5.11570513e-001 -1.46225870e-001
      -5.32353222e-001 -9.00054798e-002 -2.43943229e-001
      -4.43538517e-001 3.44517946e-001 1.00148499e-001 -1.30648628e-001
      -6.22509941e-002 1.85861625e-002 2.12690905e-002 -8.59910995e-002
      -6.61216006e-002 -1.89997464e-001 4.34697755e-002 1.40665621e-001
      -3.62044632e-001 -1.62136704e-001 -2.10711136e-002
      -7.11394697e-002 -2.23321825e-001 -2.20102578e-001
      -3.29999298e-001 1.12595335e-001 6.83257639e-001 -1.01912625e-001
      -3.44876736e-001 -4.58279625e-002 -3.12813550e-001
      -1.35476694e-001 -2.73833543e-001 -6.58842087e-001 5.77551425e-001
      2.63710409e-001 -4.21114147e-001 -4.98840481e-001 1.19393310e-002
      -6.37968257e-002 -1.21508062e-001 -5.19898593e-001
      -9.88772869e-001 2.58583128e-001 1.29186273e-001 -2.08679825e-001
      -5.82131781e-002 -9.28015783e-002 -1.24140516e-001 3.96831241e-003
      -1.47220731e-001 -2.44953826e-001 8.81539807e-002 1.09384373e-001
      -5.26343435e-002 2.64092200e-002 1.29165966e-002 4.55666566e-003
      1.29088268e-001 -7.59776309e-002 -5.18953621e-001 5.94393648e-002
      2.65633136e-001 -4.47478205e-001 -1.51292667e-001 7.54618198e-002
      6.78048804e-002 4.71822396e-002 -1.77078664e-001 -4.76800382e-001
      3.45350981e-001 3.62436771e-001 -3.92006516e-001 -3.03649306e-001
      4.90856357e-002 1.69752911e-001 -2.34594494e-002 -2.85058171e-001
      -4.37833130e-001 1.17225915e-001</_>
    <_>
      2.76546646e-002 1.31306678e-001 6.22012615e-002 -2.22140681e-002
      -2.12542608e-001 -4.56795879e-002 5.34656346e-002 8.38303789e-002
      1.16787337e-001 -7.15564191e-003 -3.13302696e-001 2.59303898e-002
      -6.04166090e-003 -5.56034222e-002 -2.47084666e-002 9.15488601e-002
      1.50953308e-001 2.08073586e-001 -9.76660401e-002 -2.56847829e-001
      4.71654013e-002 -2.87174713e-002 -1.58463359e-001 -9.98826325e-002
      -2.12581679e-002 -2.26413067e-002 3.62621285e-002 2.30370779e-002
      -3.19497764e-001 -6.33186102e-002 9.97705385e-003 3.19728851e-002
      1.85322445e-002 9.34664756e-002 2.21452162e-001 2.46263251e-001
      -1.49562553e-001 -5.38097560e-001 -2.11270172e-002 3.11131100e-003
      2.10676827e-002 5.66917174e-002 7.85451680e-002 1.67117059e-001
      3.76438171e-001 -3.37655246e-002 -5.28767586e-001 -5.00117522e-003
      1.18798465e-002 2.32754685e-002 6.46844208e-002 1.69110745e-002
      8.61694664e-002 3.82307649e-001 1.72573365e-002 -5.37489831e-001
      -6.80838898e-002 7.24797323e-003 2.43865624e-002 3.33497301e-002
      1.09589733e-001 2.14456081e-001 4.87125725e-001 1.37664918e-002
      -4.84244287e-001 1.23505862e-002 3.09349932e-002 4.40291911e-002
      1.30690560e-002 3.44138406e-002 6.82258978e-002 4.51168060e-001
      -1.49686396e-001 -3.90568584e-001 -2.00869562e-003
      -1.09051410e-002 -1.11133484e-002 3.25158536e-002 6.64834108e-004
      5.72454259e-002 2.67618001e-001 -1.29112095e-001 7.64259323e-003
      5.99036887e-002 5.09934649e-002 2.19287332e-002 1.19901255e-001
      4.21034992e-002 6.69256896e-002 -1.30735427e-001 -9.20337960e-002
      -2.06936017e-001 1.67843550e-002 9.86823719e-003 3.91334519e-002
      -1.95212109e-004 4.01506340e-003 1.62964761e-002 4.05354172e-001
      -2.94081271e-002 1.12181418e-001 3.12198065e-002 1.79810263e-002
      4.96281236e-002 3.47914882e-002 7.62525275e-002 1.05281875e-001
      1.98615327e-001</_>
    <_>
      -5.49691677e-001 4.20563132e-001 2.75340676e-001 1.49891302e-001
      3.85010302e-001 -3.24231423e-002 1.84252243e-002 3.75450142e-002
      -4.50639457e-001 1.15306363e-001 8.33570678e-003 -7.99730793e-002
      9.41689909e-002 2.98635215e-001 -2.09215119e-001 1.50517806e-001
      4.16477695e-002 -8.08460787e-002 -1.43048316e-001 1.25680387e-001
      -1.70358866e-002 -3.59475054e-002 1.35342658e-001 -1.69415817e-001
      -1.40093118e-001 -2.17310980e-001 1.27782777e-001 9.96613353e-002
      -3.15111637e-001 -1.69600472e-001 -2.67032325e-001 1.68782547e-002
      -5.37329987e-002 -1.71610210e-002 8.39977115e-002 9.54978019e-002
      9.44803935e-003 -5.14689445e-001 -2.23401263e-001 -3.27497303e-001
      -1.51917994e-001 -2.84993406e-002 -9.47571266e-003
      -3.76955196e-002 1.05384685e-001 3.58287215e-001 -8.35272610e-001
      -5.49784601e-001 -4.41252559e-001 -1.44104764e-001
      -4.85548656e-003 -4.33111489e-001 -5.66071332e-001 3.78040761e-001
      3.05091262e-001 -4.66027796e-001 -1.96042776e-001 -3.19958776e-001
      -1.51631922e-001 -8.09745789e-002 -5.71710840e-002
      -3.28468949e-001 4.22426313e-001 4.09427255e-001 -5.65754354e-001
      -2.21489221e-001 -1.52377844e-001 -8.53928551e-002
      -2.84870356e-001 -4.65871572e-001 -1.31036544e+000 4.06060249e-001
      2.27091610e-001 -3.06094050e-001 -1.12135515e-001 1.46114483e-001
      2.18331188e-001 -5.46049438e-002 -2.37126872e-001 -1.33289576e-001
      1.50188923e-001 -1.83659807e-001 -3.64779800e-001 -8.03034008e-002
      2.07802951e-001 6.17771864e-001 -5.32085188e-002 -2.12855905e-001
      -6.10973179e-001 -7.89449215e-002 3.17973524e-001 -3.20106149e-001
      1.57144871e-002 2.03057230e-001 2.05460697e-001 -6.42347634e-002
      -2.34092787e-001 -5.87385416e-001 3.15416276e-001 5.51265106e-002
      -6.20240986e-001 -2.34876692e-001 1.31290499e-002 3.44112158e-001
      6.47275615e-003 -9.77382734e-002 -3.19323570e-001 1.14768051e-001</_>
    <_>
      -1.90045953e-001 1.96796983e-001 2.68586606e-001 2.79267371e-001
      5.37176371e-001 -1.29462540e-001 4.78324443e-002 -3.55968952e-001
      -4.31875676e-001 -3.63947079e-002 -3.23903859e-001
      -7.35473484e-002 8.93670097e-002 5.50090075e-001 1.74150601e-001
      1.57863081e-001 -3.62706989e-001 -1.42911717e-001 2.75514841e-001
      4.05480176e-001 7.36416802e-002 -6.57214299e-002 2.01063693e-001
      -2.24397909e-002 -2.64087394e-002 -5.74436009e-001 1.48479834e-001
      1.34811133e-001 -9.33351833e-003 -4.45029885e-002 -3.16179916e-002
      1.32042810e-001 6.31616823e-003 3.23995315e-002 5.53044155e-002
      2.30993088e-002 -1.03137530e-001 -3.46842766e-001 -2.06389830e-001
      -3.58992636e-001 5.03383540e-002 1.33294344e-001 -1.16660886e-001
      -8.00238729e-001 -5.31809079e-003 3.18826526e-001 -7.72568807e-002
      -1.27262428e-001 -3.74568075e-001 -4.10391867e-001
      -3.14567029e-001 -5.16122639e-001 -1.07209051e+000 5.21403134e-001
      1.56724393e-001 -4.78377938e-001 -1.03206888e-001 -9.89961475e-002
      -1.35588506e-002 -2.02528089e-001 -4.33091037e-002
      -1.34121487e-002 3.09208542e-001 4.92331535e-001 -2.11541399e-001
      -2.22302489e-002 -2.79710274e-002 -2.84076661e-001
      -2.65891910e-001 -4.24820632e-001 -4.82988030e-001 3.57668281e-001
      2.49497980e-001 -2.14684606e-001 -2.04051122e-001 -9.21990797e-002
      -1.28923252e-001 -2.37914234e-001 -3.77850533e-001
      -2.19781339e-001 7.42344737e-001 -4.32522863e-001 -7.43421495e-001
      -1.64049059e-001 -9.56307128e-002 4.45100576e-001 2.68891990e-001
      -3.30571651e-001 -1.84596911e-001 1.60040572e-001 3.46091092e-001
      -3.90516371e-001 5.76594360e-002 1.77858248e-001 -1.76476538e-001
      -1.16801724e-001 -3.28972697e-001 -1.17339715e-001 4.95006919e-001
      -8.54661539e-002 -8.12793970e-001 -4.38916590e-003 8.16536024e-002
      2.07015172e-001 -1.60585251e-002 5.40629774e-002 -7.83997923e-002
      -8.93099084e-002</_>
    <_>
      -5.93914539e-002 -3.33540775e-002 -2.44997099e-001
      -8.97847638e-002 1.44709414e-002 -1.20237172e-002 1.21710403e-002
      2.87799984e-001 9.73794684e-002 6.76571056e-002 1.22913010e-001
      -1.30939752e-001 -1.09072082e-001 -7.43470639e-002
      -4.00792528e-003 -1.17453203e-001 8.40596110e-002 8.65204334e-002
      -4.52559255e-002 -5.82671724e-002 -1.34013668e-001
      -2.27743462e-002 -6.16299026e-002 -7.44265020e-002
      -1.14764296e-001 1.94382071e-001 1.89559206e-001 8.48410558e-003
      1.70083251e-002 -1.45324036e-001 -7.44518489e-002 -6.52080327e-002
      -1.19898496e-002 -1.99152842e-001 -1.22091342e-002 3.99062447e-002
      -9.08952439e-004 4.56009656e-001 1.52363062e-001 -1.08922109e-001
      -6.42464533e-002 -1.11345984e-001 -1.72406971e-001
      -1.86947793e-001 -2.91916847e-001 -2.26709191e-002 6.87538803e-001
      4.33555812e-001 2.33798213e-002 -5.60168400e-002 -3.10665756e-001
      -4.14725661e-001 -3.82003069e-001 -3.81278098e-001 5.15034012e-002
      4.50915843e-001 1.17504112e-001 -9.16607827e-002 -7.03155622e-002
      -1.72274679e-001 -1.89476684e-001 -2.80610681e-001
      -1.88714221e-001 -3.03258121e-001 4.37278569e-001 2.64733732e-001
      -5.07466123e-002 -1.10600963e-001 -2.91185766e-001
      -3.78532410e-001 -5.60445666e-001 -4.74309474e-001 6.41962290e-002
      5.77186346e-001 3.75034988e-001 1.15581192e-001 5.17551899e-002
      -1.39026627e-001 -2.70344108e-001 -3.02613616e-001
      -1.74653500e-001 7.66647831e-002 1.59761369e-001 -4.76821065e-002
      9.57062989e-002 2.05992505e-001 8.12152103e-002 -1.48617566e-001
      -2.84419775e-001 1.83689952e-001 -2.98811466e-001 2.64668941e-001
      6.66586608e-002 2.70553306e-002 1.17799684e-001 2.24713087e-002
      -4.10347730e-002 -2.18102425e-001 -3.04603875e-001
      -3.61465253e-002 -1.97961122e-001 -2.77777553e-001 8.80571455e-003
      2.08397284e-001 2.79353499e-001 1.62413210e-001 1.99167550e-001
      1.91450939e-001</_>
    <_>
      -2.96456069e-001 -3.56976777e-001 1.11377724e-001 1.04575753e-001
      3.13564301e-001 1.27185062e-001 1.76660746e-001 5.98184407e-001
      2.71965057e-001 8.51148516e-002 -2.37163603e-002 5.68586923e-002
      6.25321716e-002 1.71168491e-001 -1.09429630e-002 -1.30258286e-002
      2.36066714e-001 3.59540254e-001 -3.65633190e-001 -5.48382640e-001
      -2.48551115e-001 -7.84266591e-002 5.43740839e-002 -1.97555926e-002
      1.50110811e-001 7.35876322e-001 -3.33763957e-002 -2.37163603e-002
      -2.02828180e-002 6.33477643e-002 -6.58633374e-003 -2.66690664e-002
      -2.68243790e-001 -1.68428019e-001 2.32970640e-001 -2.37163603e-002
      1.14295119e-002 1.54119715e-001 8.34403411e-002 1.38447387e-002
      -2.41357293e-002 -1.02026559e-001 -4.39104028e-002
      -8.07934627e-002 -2.33746141e-001 -1.22492738e-001 1.71010166e-001
      2.02127591e-001 1.77074280e-002 -6.73774183e-002 -7.55735859e-002
      -1.60176441e-001 -3.43861729e-001 -5.65854371e-001 1.51498318e-002
      5.47330141e-001 2.03404367e-001 -3.31697650e-002 -8.12147558e-002
      -2.17234015e-001 -1.17677644e-001 -1.84671074e-001
      -3.88379484e-001 -1.97461948e-001 3.83252561e-001 3.81457992e-002
      -2.74036638e-003 -1.45409768e-002 -8.84166639e-003
      -5.54638691e-002 -4.47063446e-001 -6.63672268e-001 7.77439177e-002
      5.72428763e-001 3.45252514e-001 3.30370963e-002 -1.07958958e-001
      -3.82018499e-002 -1.98976338e-001 -2.86720425e-001
      -2.58509427e-001 2.48693720e-001 4.21595931e-001 5.54291755e-002
      9.63564683e-003 4.41673510e-002 3.01929004e-002 3.98089588e-002
      -3.02785844e-001 -1.15311965e-002 -3.19531173e-001 2.48596519e-001
      -2.28852592e-002 2.77017318e-002 -8.04173946e-003 2.12899804e-001
      -2.82397214e-002 -3.16849709e-001 -5.00249803e-001
      -1.31427303e-001 -2.77183145e-001 -1.25281084e-002
      -4.80057225e-002 9.31702182e-003 2.82783478e-001 -4.67029512e-002
      -1.68585449e-001 8.29223264e-003</_>
    <_>
      -2.68663466e-001 -4.23988095e-003 -6.02067485e-002 1.31185884e-002
      -4.06178506e-003 7.27551952e-002 5.67950569e-002 2.26369753e-001
      1.02196746e-001 -1.34984478e-001 2.81607538e-001 6.10552542e-002
      -1.24245761e-002 1.90682057e-002 2.85542272e-002 -1.32089391e-001
      -7.78859481e-002 -8.60062316e-002 -1.64961740e-001
      -1.19479276e-001 -1.63459480e-001 -8.87309611e-002
      -1.19350880e-001 -2.33060643e-002 1.52735576e-001 2.79018700e-001
      1.77785560e-001 1.42667100e-001 1.74503446e-001 7.49494997e-004
      -1.40627623e-001 -1.50449648e-001 -1.28847644e-001
      -1.39479622e-001 -1.21904798e-001 1.96215287e-001 8.12963769e-002
      4.34094906e-001 1.03609234e-001 -7.93536529e-002 -4.86775450e-002
      -1.20516926e-001 -9.10910666e-002 -2.30848074e-001
      -2.79238045e-001 4.05167369e-003 3.65820706e-001 6.46440387e-002
      -8.87019485e-002 -9.22668129e-002 -1.56858236e-001
      -1.06393173e-001 -2.11459771e-001 -2.88551390e-001 3.33244622e-001
      4.74491507e-001 1.59058422e-001 -1.25468090e-001 -1.58737868e-001
      -2.65397072e-001 -2.23540023e-001 -3.11746806e-001
      -5.35158664e-002 -8.67886320e-002 4.03029233e-001 1.52200401e-001
      1.43331578e-002 -4.01965566e-002 -2.26882964e-001 -1.73711568e-001
      -3.63151520e-001 -3.72835070e-001 2.16541328e-002 3.17032248e-001
      1.95008412e-001 -1.27892746e-002 3.52378339e-002 5.56398975e-003
      -1.41697139e-001 -1.87778801e-001 -1.23031259e-001 2.53958721e-002
      1.78318709e-001 2.82759089e-002 7.42167607e-002 1.74244151e-001
      4.01066840e-002 -7.74929598e-002 -2.54526466e-001 1.37091964e-001
      -2.12692454e-001 1.41518474e-001 2.80717593e-002 4.78980690e-002
      1.54022962e-001 5.14198653e-002 -4.35994640e-002 -1.19930901e-001
      -3.21303248e-001 -1.02415308e-001 -1.81874350e-001
      -1.32181689e-001 -1.03378817e-002 1.16043568e-001 1.57623813e-001
      5.61810322e-002 3.76469903e-002 1.28794014e-001</_>
    <_>
      -1.93171233e-001 -1.77523732e-001 -1.22777350e-001 2.57141273e-002
      3.80335450e-002 1.66438718e-003 1.01501448e-002 1.45528644e-001
      1.79760456e-001 -4.07344848e-002 1.58933669e-001 1.25528738e-001
      -7.15287924e-002 -5.51380739e-002 -6.89870492e-002
      -9.28398073e-002 -1.44010961e-001 1.95355434e-002 -8.78583193e-002
      -2.48840228e-001 -2.18975127e-001 -1.45551786e-001
      -6.02597035e-002 8.07720050e-003 -6.84798695e-003 1.42065823e-001
      1.63368955e-001 1.76935256e-001 2.77691185e-002 -9.89421010e-002
      -1.68138221e-001 -2.45800987e-001 -7.26683140e-002
      -1.23038217e-001 -1.08190119e-001 1.65596172e-001 4.41993140e-002
      4.75450993e-001 2.88882703e-001 -4.52047922e-002 -3.33954021e-002
      -1.45666793e-001 -1.36117175e-001 -2.81614393e-001
      -3.69633347e-001 -1.62871763e-001 3.74640226e-001 3.07326823e-001
      1.95256639e-002 -4.56406884e-002 -1.12921216e-001 -2.40230665e-001
      -3.87411118e-001 -5.52858949e-001 2.43594170e-001 5.01579165e-001
      1.78003415e-001 -1.05666123e-001 -1.63828582e-001 -1.59101576e-001
      -1.87952563e-001 -3.84437680e-001 -1.01519287e-001
      -1.80508196e-001 3.42691302e-001 9.98387262e-002 -4.00608703e-002
      -6.87461272e-002 -9.71267149e-002 -2.03045025e-001
      -3.88213038e-001 -4.60184008e-001 3.27140838e-002 3.68542939e-001
      2.26238534e-001 1.22533850e-002 -6.96355402e-002 1.66011248e-002
      -2.31741324e-001 -3.52437675e-001 -3.13095003e-001 1.97856814e-001
      2.74027437e-001 1.50683224e-002 8.01734850e-002 1.00615866e-001
      1.30541161e-001 -3.61951515e-002 -1.96545824e-001 2.28514880e-001
      -2.37161741e-001 2.04612404e-001 -1.19715109e-002 -9.91894398e-003
      6.41937405e-002 5.49734011e-002 -9.45417657e-002 -1.39137924e-001
      -2.92979658e-001 9.14627090e-002 -9.09012705e-002 -2.14165360e-001
      3.15020196e-002 8.89493227e-002 1.87247247e-001 3.79959531e-002
      7.95015320e-002 2.75250107e-001</_>
    <_>
      4.09832504e-003 3.93303931e-001 1.83816001e-001 -1.39943600e-001
      -5.80683112e-001 -1.94724098e-001 -4.44030687e-002 4.14684236e-001
      3.67224872e-001 -1.13574430e-001 -3.14093642e-002 4.01629023e-002
      -1.16566084e-001 -1.65682346e-001 -5.96098006e-002
      -7.65961856e-002 1.10268384e-001 3.92500699e-001 -4.48728174e-001
      -7.24308729e-001 -1.08750664e-001 -6.35999739e-002
      -3.61290127e-001 -1.22876942e-001 7.05894735e-003 5.35278618e-001
      2.03008801e-001 8.57482606e-004 -4.73313063e-001 -3.13820183e-001
      -2.77457461e-002 -4.58417460e-002 2.50464361e-002 3.14292088e-002
      2.79355913e-001 5.25198460e-001 -2.61476487e-001 1.44518316e-002
      1.75515339e-001 -2.30160318e-002 4.65528145e-002 3.08831260e-002
      -1.93248491e-003 6.28069416e-003 7.60890990e-002 -4.50452179e-001
      1.83504838e-002 4.25561100e-001 4.84544188e-002 3.40766013e-002
      8.54487065e-003 -2.07943656e-002 -5.78372227e-003 -1.71959013e-001
      1.20069414e-001 -5.05288094e-002 -2.64525358e-002 -2.72973944e-002
      -2.25082748e-002 -1.26832556e-002 -1.57604634e-003 5.10049909e-002
      3.54276389e-001 -3.59405398e-001 3.92967835e-002 2.31810868e-001
      1.98954041e-003 3.39420736e-002 -5.93136624e-003 -7.11623952e-003
      1.27809178e-002 -2.62670871e-002 -4.36367571e-001 -8.21113586e-002
      3.31888199e-001 3.41574512e-002 -1.71890408e-002 1.38109624e-001
      -6.56811381e-003 3.23408395e-002 -2.23679423e-001 -2.38587946e-001
      1.69339761e-001 -4.70749289e-002 7.97918364e-002 2.34531239e-001
      3.95590395e-001 2.50359714e-001 1.36314288e-001 -2.35714745e-002
      -6.56683683e-001 1.92129880e-001 1.10978507e-001 5.85167892e-002
      2.44246215e-001 2.13097140e-001 1.03547640e-001 1.12897106e-001
      -9.03033763e-002 -2.28565335e-001 -5.03140427e-002
      -9.13728029e-002 1.09224185e-001 3.89922291e-001 5.64849615e-001
      3.42391551e-001 4.25137579e-001 4.40477401e-001</_>
    <_>
      -2.42807835e-001 -8.01381713e-004 6.15914166e-002 -1.19612627e-002
      2.79825740e-002 -4.28303219e-002 2.21629366e-002 3.13368917e-001
      1.05184905e-001 -2.74955779e-002 4.82254058e-001 1.65359959e-001
      -3.02088298e-002 6.31850436e-002 -6.04603067e-002 -2.20912248e-001
      -3.49702001e-001 -8.91536996e-002 -1.30079806e-001
      -1.84711099e-001 -1.04533717e-001 -5.97155653e-002
      -1.22359075e-001 -1.73204795e-001 -3.15171741e-002 1.39893040e-001
      1.56911194e-001 4.88148555e-002 -2.33046636e-002 -2.04043481e-002
      -1.62841961e-001 -9.22431201e-002 -2.27605663e-002
      -1.65084586e-001 -2.06856236e-001 5.98920286e-002 8.99118111e-002
      4.97968733e-001 1.84996873e-001 -1.40782177e-001 -3.81707326e-002
      -1.21895500e-001 -2.12793216e-001 -2.81877577e-001
      -4.22371626e-001 -1.60229787e-001 3.70461047e-001 1.92946494e-001
      -8.83283392e-002 -6.98867589e-005 -1.64772421e-001
      -3.61452311e-001 -3.48637193e-001 -4.77446318e-001 1.40028313e-001
      3.91059369e-001 1.92787990e-001 -1.58536926e-001 -1.20707870e-001
      -1.77600622e-001 -2.64384538e-001 -3.55410129e-001
      -2.01626390e-001 -2.47953504e-001 3.35703820e-001 1.84216574e-001
      -5.04665822e-002 -7.29895905e-002 -2.16718391e-001
      -3.50813478e-001 -6.36867166e-001 -5.52752435e-001
      -2.32768105e-003 5.08317888e-001 2.96597570e-001 5.57386093e-002
      1.81205124e-001 -1.83822997e-002 -2.65105456e-001 -3.54945719e-001
      -3.61992836e-001 2.06391826e-001 3.91774595e-001 -9.90562513e-003
      3.89709286e-002 2.34001145e-001 1.37624234e-001 -9.91956815e-002
      -1.80996880e-001 1.49596781e-001 -3.39008152e-001 1.60383418e-001
      -4.62845825e-002 -2.41717640e-002 1.71708107e-001 9.12497267e-002
      -6.75271228e-002 -2.88253903e-001 -3.65625322e-001 1.03874803e-001
      -1.99332371e-001 -3.05702388e-001 -3.97108719e-002 7.99170807e-002
      2.61169851e-001 1.01787895e-001 1.07575707e-001 3.17254454e-001</_>
    <_>
      -1.26730278e-001 6.18011579e-002 2.95594446e-002 -1.39744328e-002
      9.70706716e-002 -7.73428567e-003 -9.63999480e-002 1.85608804e-001
      2.29546219e-001 2.14279778e-002 3.89409781e-001 1.14146143e-001
      6.49890900e-002 1.07337080e-001 3.79054854e-003 -1.40538663e-001
      -3.50198805e-001 -1.33368015e-001 7.01138005e-002 -6.62151799e-002
      -8.18737522e-002 -1.03097714e-001 -5.26037291e-002
      -1.03092706e-002 -9.66434702e-002 2.10326687e-002 1.49199456e-001
      1.24107093e-001 2.27769002e-001 1.51125835e-002 -1.36793992e-002
      -9.02099907e-002 -2.37079710e-002 -1.29081398e-001
      -3.03067416e-001 -4.29815762e-002 1.77203827e-002 5.56570530e-001
      3.53333861e-001 -4.02325839e-002 -2.54285764e-002 -1.38159350e-001
      -2.59414077e-001 -5.74018002e-001 -5.98428667e-001
      -1.74955532e-001 6.20227933e-001 2.62161970e-001 -8.69375318e-002
      -1.52918652e-001 -2.47483522e-001 -4.31560993e-001
      -4.85105664e-001 -4.57395315e-001 6.67831823e-002 5.75935423e-001
      3.16130698e-001 -3.43735032e-002 -8.20366442e-002 -2.07855463e-001
      -1.57138929e-001 -3.32973689e-001 -3.78772289e-001
      -2.40638316e-001 3.94496650e-001 2.05458462e-001 -5.67914285e-002
      -1.46968737e-001 -2.18111634e-001 -1.98094517e-001
      -2.54998505e-001 -5.22215128e-001 -2.85464479e-003 3.40763092e-001
      8.83391872e-002 -9.50939059e-002 -1.08196311e-001 -9.67070609e-002
      -3.36364955e-001 -1.78783804e-001 -1.07001670e-001 1.95170701e-001
      2.04031557e-001 -1.62499130e-001 -3.95288356e-002 1.99082866e-001
      2.18635455e-001 1.85416080e-002 -4.87222932e-002 3.11719894e-001
      -4.82143909e-001 1.24097951e-002 -1.10821702e-001 -3.97525802e-002
      1.97321028e-002 3.66783217e-002 3.72805749e-003 5.10216691e-002
      -1.66454822e-001 2.58861892e-002 -4.83381391e-001 -3.31288546e-001
      7.86341131e-002 2.12097973e-001 2.14595765e-001 1.42821923e-001
      1.87972158e-001 4.57362473e-001</_>
    <_>
      -2.55376399e-001 -7.67733872e-001 3.73217911e-001 2.45591715e-001
      2.37376913e-001 3.80713075e-001 3.54922980e-001 6.04126930e-001
      2.46570304e-001 5.40147163e-002 -3.12505186e-001 4.24046367e-001
      2.75127888e-001 6.55888841e-002 -1.79985240e-002 2.14607015e-001
      1.41460404e-001 9.73988995e-002 -9.35504064e-002 -1.96734816e-001
      -6.21570870e-002 8.71618912e-002 8.62410516e-002 1.20172523e-001
      3.79123986e-001 7.69763887e-001 -2.19285771e-001 -1.11442216e-001
      7.14198649e-001 4.25866753e-001 1.61296427e-001 5.66230603e-002
      -2.75737315e-001 3.58172879e-002 1.63080350e-001 -1.20770022e-001
      3.09477141e-003 -9.10473049e-001 -1.16033301e-001 1.44240558e-001
      -2.05033958e-001 -2.60084331e-001 2.08675489e-001 5.87687612e-001
      1.91244587e-001 -2.17613548e-001 -1.42816460e+000 -7.65481234e-001
      1.36376634e-001 -1.99201144e-002 8.06835592e-002 8.09960008e-001
      3.83847296e-001 -8.66738558e-002 -7.99834728e-003 5.41936159e-001
      1.84719399e-001 4.85759303e-002 5.77141577e-003 -1.28070712e-001
      2.48011321e-001 4.51130718e-001 -8.79013538e-002 1.18610986e-001
      -4.51152027e-001 -2.87727147e-001 1.01011045e-001 1.02273440e-002
      2.07910120e-001 7.85754740e-001 2.81919446e-002 -8.20775703e-002
      5.11486590e-001 -3.30037326e-001 -2.71632105e-001 1.52816668e-001
      -3.55556577e-001 -1.82809010e-001 1.69870168e-001 3.94278139e-001
      3.44792366e-001 2.30044082e-001 3.29535007e-001 8.23664740e-002
      3.80736142e-001 -6.46455646e-001 -8.30691695e-001 -1.80905446e-001
      5.98668493e-003 -3.31829309e-001 -6.25589043e-002 -4.66940105e-001
      -7.97665119e-003 1.77821204e-001 -1.33518711e-001 1.14110373e-001
      2.31216595e-001 -5.25817931e-001 -1.59233034e-001 -2.32790280e-002
      9.39821303e-002 2.52953649e-001 2.23170698e-001 -1.05979495e-001
      -3.42250504e-002 -1.82645813e-001 -4.48753715e-001
      -2.74302304e-001</_>
    <_>
      -5.64864695e-001 1.52424574e-001 5.16363084e-002 -6.12869635e-002
      -1.04480989e-001 2.37629786e-001 2.02730551e-001 2.45870695e-001
      5.03037632e-001 -3.98828298e-001 9.23564315e-001 4.20927197e-001
      7.58551955e-002 7.22677037e-002 -2.07667723e-002 -2.61104137e-001
      -5.94963670e-001 -2.90426075e-001 -2.19179422e-001
      -2.30786949e-001 -2.70562857e-001 -4.34552610e-001
      -3.88223261e-001 1.06047116e-001 5.49664259e-001 6.66744292e-001
      3.83759886e-001 3.97622108e-001 7.07887471e-001 2.80179530e-001
      -2.73525923e-001 -4.19253796e-001 -4.58492249e-001
      -5.47429800e-001 -8.14388752e-001 4.42121893e-001 5.01876175e-001
      5.83520293e-001 -5.84024936e-002 -1.27047896e-002 -9.61488336e-002
      -1.77061528e-001 -1.32975057e-001 -4.62243706e-001
      -1.47401646e-001 5.44441901e-002 -1.83855221e-001 -5.75391352e-001
      -9.82834175e-002 -1.36858761e-001 -2.36868691e-002 4.77495492e-001
      1.23257436e-001 -4.41219620e-002 9.54086661e-001 7.92857289e-001
      2.72815704e-001 -1.07477129e-001 -3.37285101e-001 -3.66189003e-001
      -5.51351964e-001 -7.14122951e-001 1.57861412e-001 6.45039082e-002
      2.33962283e-001 3.55381072e-002 1.62022665e-001 4.39915620e-002
      1.55655975e-002 2.82237262e-001 4.99277259e-004 -1.99853942e-001
      -6.87256679e-002 -1.95944563e-001 -7.90105388e-002
      -1.90320946e-002 1.69712976e-001 1.46072447e-001 3.39508712e-001
      1.87381700e-001 9.55330580e-002 -5.69565035e-002 -4.98229638e-002
      -1.40695855e-001 1.61368474e-001 1.19262919e-001 1.20587789e-001
      -3.64162847e-002 -2.25260347e-001 1.23532489e-001 -2.28783488e-001
      -2.37457380e-001 2.27479320e-002 2.06449270e-001 1.91410288e-001
      1.62652969e-001 2.75650799e-001 1.85389295e-001 -3.97874385e-001
      -3.25767308e-001 -2.82648444e-001 -1.61745250e-001 2.32882082e-001
      -6.21729232e-002 2.20101625e-002 -1.51696661e-002 -9.23538879e-002
      -9.98793542e-002</_>
    <_>
      -1.19091995e-001 -5.28605461e-001 1.60171658e-001 1.48026779e-001
      -2.67872632e-001 9.30796415e-002 -3.58491428e-002 -2.10451588e-001
      8.71232271e-001 -5.14776893e-002 3.92677337e-001 8.41222942e-001
      -9.60100219e-002 -4.35055614e-001 -2.08615571e-001
      -3.45188498e-001 -8.33726823e-001 4.04981039e-002 2.94327319e-001
      -5.99642456e-001 -2.96434969e-001 -3.54788184e-001
      -2.88175821e-001 1.43172652e-001 1.02497553e-002 -3.19447875e-001
      5.97957432e-001 7.62053132e-001 3.19084376e-001 1.29587874e-001
      -3.36822689e-001 -1.10556042e+000 -4.63028938e-001
      -4.29832578e-001 -1.11725724e+000 5.17146587e-001 2.89739549e-001
      5.56439221e-001 5.80902100e-001 -2.90137753e-002 -1.22724123e-001
      -2.01766625e-001 -1.54740125e-001 -3.72171819e-001
      -2.51373172e-001 -1.04694581e+000 -6.98834121e-001
      -2.01833807e-002 1.56243131e-001 3.93607646e-001 1.55961305e-001
      5.25512218e-001 2.36101467e-002 -9.29441690e-001 9.93381619e-001
      9.19458747e-001 3.85760248e-001 -8.31000581e-002 -4.52087581e-001
      -8.00335035e-002 -2.85033494e-001 -8.10359716e-001 2.48191714e-001
      -2.09429383e-001 -3.02761406e-001 -4.17568326e-001 8.43561664e-002
      3.16001356e-001 4.83630210e-001 5.62326968e-001 3.02861273e-001
      -3.80814612e-001 -5.00317693e-001 -3.10909152e-001
      -3.26119252e-002 3.84333208e-002 9.38143805e-002 3.84088784e-001
      3.21168214e-001 1.13804944e-001 -6.54889941e-001 3.67651045e-001
      3.16160947e-001 -5.04953414e-002 2.99281210e-001 -2.69930840e-001
      1.85202703e-001 2.61939675e-001 7.61941448e-002 -3.72467265e-002
      -1.30440950e-001 -4.05977160e-001 -4.37396858e-003 1.48081496e-001
      9.08940732e-002 1.74187288e-001 2.73594260e-001 3.09965998e-001
      -2.25880831e-001 2.94448435e-001 2.75387436e-001 -1.68510050e-001
      5.17854393e-001 -1.56085238e-001 -2.53999382e-001 -3.05063099e-001
      -2.54618496e-001 -9.49055795e-003</_>
    <_>
      9.78965759e-002 6.05755076e-002 1.93214729e-001 -6.74749613e-002
      -3.69940311e-001 -3.81909013e-002 1.52802328e-002 7.05145253e-003
      2.29265094e-001 -7.62153417e-002 -1.73319861e-001 1.51259795e-001
      -2.42008474e-002 -1.17728442e-001 -1.83784589e-002 1.87247917e-002
      -2.77175121e-002 2.30379373e-001 -1.24972381e-001 -4.30096537e-001
      -2.98524313e-002 -1.12796668e-002 -1.73475668e-001
      -6.36944361e-003 1.72223479e-001 3.69816758e-002 4.21821959e-002
      5.65973204e-003 -2.28794441e-001 -3.17327008e-002 5.22668064e-002
      2.06786618e-002 2.82024927e-002 1.41241148e-001 1.23423226e-001
      2.76220798e-001 -1.67677581e-001 -3.90208334e-001 7.92591870e-002
      3.70218940e-002 2.10296419e-002 4.70442027e-002 7.76251629e-002
      1.29546702e-001 3.47461313e-001 -2.39714131e-001 -5.37787735e-001
      3.70751172e-002 4.62829247e-002 8.38065371e-002 1.39309421e-001
      2.19275743e-001 2.31720105e-001 2.67021298e-001 1.25755416e-002
      -3.34121168e-001 4.62535471e-002 5.21137640e-002 3.23558524e-002
      5.49640283e-002 1.18077457e-001 2.31806502e-001 3.53174299e-001
      -1.44982174e-001 -4.53576475e-001 1.07784206e-002 5.66531457e-002
      1.07385494e-001 1.42279953e-001 3.10923815e-001 4.32915539e-001
      2.97885358e-001 -2.95987755e-001 -4.78241503e-001 -4.77825217e-002
      -4.55780886e-003 6.07635919e-003 1.38650298e-001 1.30036280e-001
      2.10688069e-001 8.71695653e-002 -1.71236858e-001 -8.79445374e-002
      -8.61324221e-002 -2.13618812e-004 -1.66058838e-002 1.03106715e-001
      1.73161417e-001 2.91173339e-001 -1.32952258e-001 -2.31367320e-001
      -2.07718953e-001 8.64447467e-003 3.24167609e-002 7.64068514e-002
      8.16233158e-002 1.12988338e-001 2.48371363e-001 2.18793273e-001
      -1.97203122e-002 2.90556312e-001 1.83875337e-001 8.73323381e-002
      8.04631934e-002 3.07964422e-002 5.74729592e-002 1.19060084e-001
      1.03068538e-001</_>
    <_>
      -5.39587557e-001 5.21220148e-001 7.23169506e-001 2.04731762e-001
      -3.25318098e-001 4.78570089e-002 -3.27524613e-003 -1.64594091e-002
      2.25628808e-001 -5.93168378e-001 1.76883602e+000 9.41614687e-001
      5.83884478e-001 7.61873648e-002 -4.51571375e-001 -4.59803641e-001
      -1.37661767e+000 -9.33669746e-001 1.68941975e-001 2.20810190e-001
      7.24807978e-002 -2.26367544e-002 -2.36194909e-001 -1.51289953e-002
      2.55021125e-001 -3.79944593e-001 1.55482721e-003 1.83256008e-002
      5.41441917e-001 5.59237063e-001 -3.70677486e-002 -8.11070800e-002
      -2.85369188e-001 -9.47181955e-002 -8.26613665e-001
      -1.57856848e-002 1.87198743e-001 6.01092339e-001 8.43624845e-002
      -3.40048343e-001 -2.36380741e-001 -1.76354721e-001
      -3.86218160e-001 -4.93978560e-001 -2.99359828e-001
      -8.16768944e-001 -1.82678246e+000 -1.41323686e+000
      -7.09663093e-001 7.87989050e-002 4.84317988e-001 4.03999269e-001
      4.03183430e-001 1.37569502e-001 3.25146496e-001 4.59926963e-001
      2.56568879e-001 -3.22495222e-001 -1.38291895e-001 -9.02637318e-002
      -1.80622965e-001 -4.65399362e-002 5.60923293e-002 1.49220213e-001
      -6.03072882e-001 -5.72061121e-001 -2.34186202e-001 1.32109359e-001
      2.41887569e-001 5.96996307e-001 1.02634467e-001 4.33183685e-002
      -5.52574992e-001 -8.13805699e-001 -4.29985374e-001 2.00408548e-002
      3.82280707e-001 1.59179226e-001 1.04174025e-001 4.69752133e-001
      -5.48088372e-001 5.03875971e-001 4.21595611e-002 -8.61289203e-002
      3.62552017e-001 2.55074687e-002 -3.64000350e-001 2.12232880e-002
      4.40590471e-001 -1.49489254e-001 -1.47654027e-001 -5.17175257e-001
      -2.69576967e-001 5.57373092e-002 1.38857841e-001 6.20076843e-002
      1.35663331e-001 1.58492014e-001 -2.36655161e-001 4.31085795e-001
      5.58395833e-002 -1.73879057e-001 4.70323980e-001 -3.02909523e-001
      -2.51285583e-001 -1.69258192e-001 1.30157307e-001 4.02215749e-001</_>
    <_>
      -1.85927078e-001 -4.47289683e-002 3.59857619e-001 2.09195077e-001
      2.30389908e-001 2.60258317e-001 2.67763555e-001 1.04891442e-001
      5.77897429e-001 -6.60415292e-001 9.50119078e-001 7.85950363e-001
      4.83749151e-001 3.28927726e-001 2.54222602e-001 3.77913229e-002
      -1.30257988e+000 -6.95151925e-001 6.33996904e-001 2.57079184e-001
      1.53390616e-001 -2.74969041e-001 -2.28814542e-001 1.12573542e-002
      1.72012627e-001 -7.42058218e-001 2.06397191e-001 2.10038632e-001
      6.96519613e-001 7.55172908e-001 1.50739789e-001 -2.56576747e-001
      -2.09810063e-001 -2.46764988e-001 -1.02311862e+000
      -2.30490640e-001 -2.78628357e-002 8.04055989e-001 4.47968006e-001
      -1.41808867e-001 -4.74330503e-003 1.53545424e-001 -2.52688169e-001
      -1.45265281e+000 -7.70091772e-001 -2.03411043e-001 2.96317361e-004
      -1.47819310e-001 -3.15034419e-001 -3.38732511e-001 7.06137344e-002
      3.10751289e-001 -4.38063413e-001 -8.60751569e-002 -3.63356643e-003
      1.97240654e-002 3.25352818e-001 -1.48432463e-001 -1.25726834e-001
      -1.76953748e-001 7.21166879e-002 -1.20124206e-001 -2.10907459e-001
      2.61549205e-001 -1.96144357e-001 -1.26866803e-001 -2.60107607e-001
      -5.12242317e-001 -1.18922524e-001 6.66407228e-001 1.37295663e+000
      1.89407840e-001 -1.60498619e-001 -4.15508837e-001 -4.47469205e-001
      -1.78477660e-001 -2.15817735e-001 1.55192316e-001 -4.79849279e-002
      5.13365746e-001 4.09095436e-001 -2.68903017e-001 -7.90206641e-002
      -2.26159811e-001 2.41757780e-001 1.33933917e-001 1.16035089e-001
      -3.57617140e-001 2.78715879e-001 -4.13405895e-001 -1.74864024e-001
      -8.76089871e-001 -7.35091195e-002 -1.28227137e-002
      -6.65934741e-001 -3.48571628e-001 -1.76199585e-001 7.97528327e-001
      3.13851714e-001 -2.11853445e-001 -3.43059987e-001 -1.55875847e-001
      3.63876551e-001 -3.11037809e-001 -6.74795628e-001 -4.94146645e-001
      -2.08972424e-001 8.22275728e-002</_>
    <_>
      -1.95191160e-001 5.17423391e-001 -2.06086099e-001 -2.74455696e-001
      -2.13148877e-001 -3.45334373e-002 -7.30884522e-002
      -6.59018606e-002 3.40856940e-001 -2.65087366e-001 8.05361748e-001
      1.19609654e-001 -1.19236447e-001 -7.68418983e-002 -3.38900760e-002
      -3.30544472e-001 -5.01911461e-001 -1.34785041e-001
      -6.65510148e-002 -5.49117103e-002 -1.37554109e-001
      -3.07410896e-001 -3.00064683e-001 -6.34611249e-002
      -4.45031933e-002 -1.04999974e-001 4.86012727e-001 2.57757425e-001
      4.20291424e-002 -8.77967626e-002 -2.21389592e-001 -2.19005480e-001
      -1.64060697e-001 -5.71684718e-001 -8.21726620e-001 3.28892142e-001
      3.29824954e-001 8.65030944e-001 8.08876827e-002 -7.91643634e-002
      -4.45146672e-002 -6.73604012e-002 -2.57356733e-001
      -4.90150124e-001 1.64774507e-002 2.28253618e-001 5.48046291e-001
      -3.21604148e-003 -9.34117287e-002 -7.91968480e-002
      -1.92246005e-001 -1.14394665e-001 6.92341186e-004 7.78463557e-002
      6.00324452e-001 7.50889704e-002 -6.47941381e-002 -6.04540445e-002
      -1.57227144e-001 -2.59887278e-001 -4.56545442e-001
      -7.01839209e-001 9.91801918e-002 -5.82067296e-002 2.31763497e-001
      6.12886017e-003 -1.84106249e-002 -3.14993486e-002 -2.76279300e-001
      -2.84904927e-001 -9.21642035e-002 -3.19047570e-002
      -1.54806286e-001 4.16870229e-002 5.48989736e-002 -6.57552527e-003
      2.27491066e-001 1.13952324e-001 5.38102910e-002 -3.48401479e-002
      -2.78996024e-002 -2.11687735e-003 -2.35676151e-002
      -7.99445361e-002 4.14621234e-002 2.49829784e-001 3.58331174e-001
      -2.07845476e-002 -1.46210074e-001 3.05423886e-001 -5.92231452e-002
      3.46399583e-002 -3.67206186e-002 -8.19429457e-002 8.20087492e-002
      -2.99397912e-002 -3.62998322e-002 2.39782274e-001 -9.33494419e-002
      -9.97910872e-002 -1.20241232e-001 -2.36123562e-001
      -1.16076386e-002 -5.44373095e-002 -5.15949773e-003 1.11468196e-001
      7.71350488e-002 1.95905566e-001</_>
    <_>
      -1.57074228e-001 1.45696610e-001 -1.52846247e-001 -1.92366078e-001
      -3.96799803e-001 -6.80625290e-002 -1.36259794e-001
      -3.88040185e-001 1.98007599e-001 -1.82793424e-001 6.32173002e-001
      1.88329324e-001 -2.37382621e-001 -2.24686339e-001 5.51256724e-002
      -3.20933640e-001 -5.87678730e-001 -1.97836712e-001 2.61320770e-001
      -9.65345353e-002 -2.69635260e-001 -3.61601710e-001
      -3.24231088e-001 -3.48158814e-002 -3.18239480e-001
      -5.18002212e-001 8.31634521e-001 4.07187790e-001 -1.98672384e-001
      -4.94220912e-001 -3.40591699e-001 -6.57051921e-001 6.37855195e-003
      -3.42815578e-001 -8.30667019e-001 4.26892102e-001 8.68336409e-002
      1.10518897e+000 3.52740586e-001 -6.42755106e-002 3.19635123e-002
      9.20465682e-003 -1.65821925e-001 -5.42752981e-001 -4.58837718e-001
      -2.02733934e-001 8.36065590e-001 4.76137102e-001 -1.26892859e-002
      1.04064368e-001 -8.14597234e-002 -6.55627921e-002 4.58597392e-002
      -2.21527159e-001 4.01785731e-001 1.97905526e-001 -1.41501501e-001
      -1.65298626e-001 -3.74081165e-001 -1.05014414e-001
      -2.77376443e-001 -6.95971906e-001 2.30688632e-001 -1.32121503e-001
      -4.21824418e-002 -1.67876497e-001 -1.78226739e-001
      -4.44088355e-002 -1.31264418e-001 -2.38894194e-001 1.28574744e-001
      -4.70581427e-002 -3.28104943e-001 1.56456918e-001 1.62264049e-001
      -2.48156325e-003 3.59122574e-001 2.61220336e-001 -2.89963819e-002
      3.10697267e-003 -3.63209933e-001 -6.43412471e-002 2.93878280e-002
      4.84566465e-002 1.25014752e-001 4.44835484e-001 4.61918890e-001
      1.39867023e-001 -1.12243466e-001 2.28112474e-001 -2.40373947e-002
      -1.72675475e-002 -1.11013643e-001 -1.54302299e-001 1.70650527e-001
      -4.99308482e-002 -4.52240929e-002 4.48763341e-001 8.73558670e-002
      3.81836951e-001 1.48658350e-001 -1.40279487e-001 5.23885675e-002
      9.06143188e-002 -2.17786476e-001 -7.68876821e-002 1.41288802e-001
      4.23964828e-001</_>
    <_>
      1.40603796e-001 4.41838503e-001 9.85660311e-003 -2.32395962e-001
      -5.82811952e-001 -1.57157302e-001 -9.50193852e-002
      -9.62323099e-002 4.85619120e-002 -4.09937687e-002 9.89483949e-003
      -1.04078157e-002 -1.68771222e-001 -2.10134014e-001
      -2.82564033e-002 -3.55225876e-002 -1.00963734e-001 4.84051034e-002
      7.39683285e-002 -1.44045487e-001 -7.82786235e-002 -2.59973649e-002
      -3.01945329e-001 -1.27861500e-001 -7.60834888e-002
      -1.26249656e-001 2.56942689e-001 8.24778229e-002 -2.28095114e-001
      -3.28974366e-001 -2.15199105e-002 1.22472011e-002 1.59228146e-001
      7.94642270e-002 5.10036312e-002 4.06252295e-001 -1.56833902e-001
      -1.08489901e-001 6.31750226e-002 -3.88209410e-002 1.00640357e-002
      6.22173063e-002 2.24710833e-002 3.75729948e-002 1.65997818e-001
      -1.90856695e-001 -1.08489901e-001 1.41179115e-001 1.57543737e-002
      5.86522035e-002 4.96427007e-002 1.00672401e-001 1.90362215e-001
      2.32997879e-001 2.64459569e-002 -3.49340647e-001 -1.26407385e-001
      5.12803998e-003 1.09054474e-002 1.21806979e-001 6.58054203e-002
      1.27846733e-001 5.15849650e-001 -1.39453918e-001 -2.35989809e-001
      1.34568855e-001 -4.03835205e-003 7.70830736e-002 2.04811618e-002
      7.01466277e-002 3.20614725e-001 4.53471124e-001 -3.97470981e-001
      -4.29807752e-001 -8.60394835e-002 -2.04369631e-002 1.54000238e-001
      1.41686276e-001 1.47831991e-001 2.18613282e-001 3.57558243e-002
      -4.20529604e-001 -2.19762683e-001 -2.08232567e-001
      -3.60725075e-002 1.71409279e-001 2.85696298e-001 1.75152808e-001
      2.97461629e-001 1.68866478e-002 -2.80565858e-001 -1.26489118e-001
      -1.60380844e-002 -2.13923752e-002 2.18136936e-001 7.70958560e-003
      1.68992758e-001 3.37268144e-001 3.50206822e-001 1.29532460e-002
      2.72618681e-001 -6.70692846e-002 4.33756225e-003 2.71780699e-001
      8.12742412e-002 2.59275526e-001 4.13165569e-001 3.10291022e-001</_>
    <_>
      -1.88665390e-001 1.02200627e+000 -1.34054855e-001 -2.74491817e-001
      -1.64088815e-001 -9.21297818e-002 -2.03594804e-001
      -4.54311520e-001 -2.15189025e-001 -9.88324881e-002 1.50480163e+000
      1.32782422e-002 -1.84635550e-001 -1.06701575e-001 -1.17578641e-001
      -1.31157517e-001 -8.09989989e-001 -4.10236597e-001 8.22387561e-002
      1.77731123e-002 -2.20969245e-001 -2.26751000e-001 -1.42962798e-001
      -5.18379994e-002 -1.47844240e-001 -7.83440650e-001 2.54182637e-001
      7.88519084e-002 -4.63027328e-001 -2.58225501e-001 -3.61429811e-001
      -1.97642535e-001 6.59363642e-002 -1.04731292e-001 -6.04386985e-001
      7.88519084e-002 1.83986604e-001 1.08445632e+000 7.31365159e-002
      -4.17432189e-001 -6.28594086e-002 1.72173440e-001 -1.55775815e-001
      -5.58743894e-001 -3.48676533e-001 -2.27334514e-001 3.33668023e-001
      1.24067642e-001 -4.28531826e-001 3.74055356e-002 7.71550164e-002
      -1.90643579e-001 1.53669268e-001 2.54629198e-002 2.00059772e-001
      -2.78816462e-001 -2.18995586e-001 -3.64148259e-001
      -2.26766974e-001 -1.41824838e-002 -2.24057734e-001
      -7.74066567e-001 1.56389832e-001 -6.39232770e-002 -1.21175140e-001
      -1.11611001e-001 -2.49136239e-001 -1.78783104e-001
      -3.19154620e-001 -3.42473477e-001 -9.62321367e-003 1.18646465e-001
      -6.59332275e-001 -7.14367181e-002 1.20732315e-001 3.44028957e-002
      6.01095617e-001 1.98803052e-001 3.24771702e-002 2.12805763e-001
      -5.36336064e-001 1.11119144e-001 -2.46842146e-001 -2.33011141e-001
      1.92675412e-001 8.49171519e-001 4.74667430e-001 4.86401729e-002
      -1.68560147e-001 1.86820164e-001 -3.07743624e-002 7.66487643e-002
      9.75915231e-003 -1.02438368e-001 1.30302414e-001 -2.27536589e-001
      -1.84599072e-001 5.20565033e-001 -7.50348046e-002 2.87378699e-001
      1.28671648e-002 -1.77298665e-001 -7.59091824e-002 -3.36442217e-002
      -2.92179197e-001 -3.89229469e-002 1.26498699e-001 6.96996868e-001</_>
    <_>
      2.43465438e-001 6.51433825e-001 -1.52037621e-001 -2.12198883e-001
      -1.56103700e-001 -1.65382400e-001 -1.96239024e-001
      -4.43572819e-001 1.51641350e-002 -3.11492205e-001 8.36167336e-001
      -1.19734434e-002 -1.18966676e-001 3.49484617e-003 1.86080873e-001
      -1.08664863e-001 -6.83444142e-001 -3.26466143e-001 3.63585502e-001
      3.48684400e-001 1.07385278e-001 -2.06755787e-001 -1.70339450e-001
      -5.26300147e-002 -2.90977567e-001 -9.13192511e-001 2.63754934e-001
      9.87407044e-002 -9.68265980e-002 -6.58732727e-002 -5.95077910e-002
      -1.53684303e-001 1.43361032e-001 -1.70657203e-001 -5.27455270e-001
      -1.85198039e-002 -2.03251559e-002 1.02502429e+000 2.13503391e-001
      -2.30390355e-001 8.38000551e-002 1.76720887e-001 -2.02558711e-001
      -9.24039423e-001 -2.98180223e-001 2.62407912e-003 9.77995574e-001
      4.16009098e-001 -1.75836891e-001 -7.70165995e-002 -2.16939136e-001
      -3.23565185e-001 -2.34544143e-001 1.46611959e-001 -1.46534350e-002
      -3.54253799e-001 2.85982266e-002 -1.47509994e-002 -4.90652658e-002
      -1.58042967e-001 -1.62195161e-001 -2.21278116e-001
      -1.46534350e-002 6.53803945e-002 -5.72900008e-003 1.29985794e-001
      -5.61028682e-002 -2.44190335e-001 -3.54319870e-001
      -4.00727570e-001 5.62259197e-001 1.60964340e-001 -3.06427628e-001
      -6.73944131e-003 -1.18321538e-001 -1.22014731e-001 1.65228814e-001
      -8.92436225e-003 -1.95253730e-001 2.15685084e-001 1.35144979e-001
      -1.83744133e-001 -2.34890148e-001 -2.13186935e-001
      -5.75019829e-002 3.65356773e-001 5.88477790e-001 -3.00125498e-003
      2.26774454e-001 2.04796374e-001 2.35866592e-003 -1.22209102e-001
      -1.44470990e-001 -8.90749991e-002 -2.52789885e-001
      -2.90934563e-001 -2.35991195e-001 7.24020422e-001 3.11212540e-001
      4.32475321e-002 -1.97735116e-001 -2.76774526e-001 1.29642546e-001
      -1.48007900e-001 -2.33841375e-001 4.29404490e-002 2.26188034e-001
      1.87206268e-001</_>
    <_>
      7.16482639e-001 -7.22187281e-001 4.75537553e-002 3.75367075e-001
      2.61805784e-002 -2.59859294e-001 -3.29161525e-001 -6.10370398e-001
      1.22382166e-002 6.64724529e-001 -1.13320744e+000 -4.72041629e-002
      -4.86783981e-001 -4.11596298e-001 6.53120130e-002 4.17420268e-002
      4.76428479e-001 2.76280731e-001 6.62434816e-001 5.56880385e-002
      3.07512105e-001 4.93367493e-001 3.66101086e-001 -1.73085127e-002
      -8.71582627e-001 -1.52878094e+000 -2.48849452e-001
      -7.73446560e-002 -4.62408066e-001 -4.63251263e-001
      -1.09714098e-001 -3.76613706e-001 2.36017078e-001 3.47166002e-001
      1.13930024e-001 -6.20152876e-002 -6.36259258e-001 -3.12305629e-001
      5.74581027e-001 -8.19469616e-002 1.80670053e-001 2.12346464e-001
      -2.41748258e-001 5.76534271e-001 1.09910473e-001 -1.20159590e+000
      -5.96122861e-001 1.00258911e+000 4.40893918e-001 4.83049303e-001
      2.49892622e-001 -1.01791203e-001 2.61576831e-001 -5.28977454e-001
      -4.97044742e-001 -1.01128921e-001 -1.36962295e-001 7.24072084e-002
      1.65442944e-001 3.83486450e-001 -6.68046102e-002 2.30305642e-001
      4.36205357e-001 -3.53946596e-001 -5.55157781e-001 -2.64423907e-001
      -7.09873140e-002 1.83832362e-001 4.18405414e-001 -2.67670959e-001
      8.27375203e-002 1.01650152e-002 -4.41380650e-001 -9.44451336e-003
      1.93929106e-001 2.10532159e-001 -6.95089549e-002 7.38719925e-002
      2.46366724e-001 9.99145582e-003 -7.21437573e-001 4.81851250e-001
      4.61912185e-001 1.35560840e-001 4.09257077e-002 -1.66970551e-001
      1.45224035e-002 1.92603052e-001 4.44073617e-001 -4.12494421e-001
      1.62956685e-001 -1.77767888e-001 -1.04433984e-001 -7.55456015e-002
      -9.78134051e-002 4.25907318e-003 -7.18607148e-003 -8.71549267e-003
      3.56194735e-001 5.58859885e-001 4.52109873e-001 -2.33970791e-001
      -6.44451976e-002 1.37540445e-001 -9.11220387e-002 -2.52430379e-001
      -6.55900389e-002 1.09014176e-001</_>
    <_>
      1.75823465e-001 4.41336893e-002 1.27731726e-001 -3.90521809e-002
      -2.26977587e-001 -7.89758936e-002 -2.13229805e-002
      -2.56625637e-002 4.46623564e-002 2.40440033e-002 -2.88921624e-001
      3.24051380e-002 -4.58866581e-002 -9.12322253e-002 -8.47176369e-003
      1.24685578e-001 1.34219512e-001 2.06191078e-001 -3.16938274e-002
      -2.42363513e-001 3.81534658e-002 6.77739531e-002 -5.05154282e-002
      -1.21635627e-002 -2.10860856e-002 -6.10432066e-002
      -4.28734496e-002 -7.49542639e-002 -3.34335983e-001
      -1.24322534e-001 8.53415281e-002 7.55613744e-002 1.29927814e-001
      2.15416506e-001 2.88206905e-001 8.96289125e-002 -2.39608943e-001
      -3.90515178e-001 8.03484395e-002 2.90061273e-002 4.77850474e-002
      1.06056973e-001 8.92438218e-002 2.20013276e-001 2.50781685e-001
      -2.29398698e-001 -3.15136671e-001 1.68056503e-001 8.04196820e-002
      9.76716429e-002 1.36300147e-001 7.94998184e-002 1.96777821e-001
      1.84685275e-001 -2.18405098e-001 -4.09030110e-001 -3.79511453e-002
      6.10163696e-002 8.19223523e-002 1.72108784e-001 1.81810930e-001
      3.25417519e-001 2.34065205e-001 -1.22245178e-001 -3.53355348e-001
      3.10059842e-002 1.55830793e-002 5.91479242e-002 1.55545086e-001
      1.19028710e-001 2.90835917e-001 2.68217444e-001 -2.34093279e-001
      -2.66556561e-001 -1.80062726e-002 2.73014288e-002 -1.88685879e-002
      5.36535755e-002 7.56156445e-002 1.71737939e-001 1.89488400e-002
      -1.26899838e-001 -5.65478727e-002 -7.67472088e-002
      -2.87248865e-002 -1.75430849e-002 7.68002197e-002 1.21744871e-001
      2.55220741e-001 -1.28068522e-001 -1.28827825e-001 -8.74549448e-002
      1.23142656e-002 2.87608132e-002 1.64644700e-002 2.37323232e-002
      4.78109121e-002 1.18846074e-001 2.43002832e-001 1.81977525e-002
      2.22339168e-001 5.86485229e-002 8.16377550e-002 8.08558315e-002
      3.07621565e-002 4.43501249e-002 1.08625576e-001 8.19357634e-002</_>
    <_>
      3.75256032e-001 -3.40640284e-002 3.46874058e-001 2.24033996e-001
      1.12048350e-002 -3.18308413e-001 -1.55289993e-001 -2.96202987e-001
      -5.16504467e-001 1.71098426e-001 -1.99395627e-001 6.56137466e-002
      8.73217285e-002 8.16610232e-002 -1.92812115e-001 3.82103771e-001
      -2.56588683e-002 -1.92319319e-001 3.78640264e-001 3.71506661e-001
      4.31685418e-001 4.89516795e-001 2.40224257e-001 -2.58806348e-001
      -4.65663016e-001 -7.87784755e-001 -5.26450753e-001
      -3.73775333e-001 -7.22770751e-001 -1.15695350e-001 4.55137156e-002
      2.93751657e-001 4.48675722e-001 8.34236562e-001 7.86035836e-001
      -6.05684400e-001 -5.92604816e-001 -6.16106510e-001 1.71174422e-001
      -2.41369352e-001 4.19875868e-002 3.39461863e-001 9.28798765e-002
      5.35315573e-001 -9.91695225e-002 -5.63500285e-001 -8.63137960e-001
      1.68200895e-001 -1.98766127e-001 2.62032479e-001 4.77944553e-001
      -1.65474772e-001 3.23438942e-001 1.36742154e-002 -1.05956984e+000
      -8.29191267e-001 -2.24972606e-001 -2.52887309e-001 1.75082013e-001
      6.15156233e-001 5.78643978e-001 9.50916529e-001 -2.01257411e-002
      -1.10775568e-001 -6.19374752e-001 -1.45208627e-001
      -2.26103291e-001 -1.15202088e-002 1.72798142e-001 -2.02324256e-001
      -5.17621785e-002 2.07395583e-001 -2.32213065e-001 -1.19698510e-001
      -9.02830884e-002 2.28497624e-001 2.20521867e-001 3.66161652e-002
      -2.30482906e-001 2.01984242e-001 -4.95524049e-001 4.24702853e-001
      1.23186536e-001 -1.44916937e-001 1.36899054e-001 4.22542207e-002
      -4.29034472e-001 -1.17915116e-001 3.35430473e-001 -1.48925006e-001
      1.56179160e-001 5.27656898e-002 -1.63531780e-001 2.30021011e-002
      -1.23629801e-001 -1.67973682e-001 -3.40151191e-001
      -1.68133169e-001 2.04630703e-001 5.99267900e-001 3.43303829e-001
      -1.67309642e-002 -8.29357728e-002 -2.76835486e-002
      -3.28500926e-001 -1.53689668e-001 1.48487955e-001 2.77070910e-001</_>
    <_>
      6.00561917e-001 -1.13610700e-001 1.50300860e-001 1.94311574e-001
      2.15035975e-001 -2.11634606e-001 -5.30996658e-002 -1.14499338e-001
      -1.87912241e-001 -1.72266979e-002 -4.94505346e-001
      -9.38074812e-002 1.26732245e-001 1.90250710e-001 2.00626820e-001
      4.70349520e-001 2.28503600e-001 -2.12305754e-001 6.39564574e-001
      4.68187571e-001 3.99141848e-001 2.47627616e-001 2.93315649e-001
      -6.86939359e-002 -5.38655937e-001 -1.05724883e+000
      -3.95012170e-001 -1.72201365e-001 -4.52711910e-001 6.93063438e-002
      2.97882199e-001 3.06158572e-001 3.59310925e-001 6.12161577e-001
      5.75722754e-001 -6.43192291e-001 -6.86509132e-001 -2.74125725e-001
      4.64613527e-001 2.41609197e-003 1.78152293e-001 4.26503509e-001
      8.07853192e-002 -2.15745136e-001 -3.53376001e-001 -6.41548410e-002
      2.52497762e-001 6.93643630e-001 -2.34648362e-002 -4.19771709e-002
      3.19653481e-001 -2.56041080e-001 -5.50831556e-001 -2.14417316e-002
      -1.14960706e+000 -9.05077875e-001 5.05052358e-002 2.74901912e-002
      2.77483881e-001 2.93488860e-001 4.77072775e-001 6.69772923e-001
      -1.76339611e-001 2.56579429e-001 -2.69916296e-001 9.36680138e-002
      -3.07858825e-001 -4.55345869e-001 8.57149884e-002 -1.32513300e-001
      4.58743840e-001 4.01866138e-001 3.48622873e-002 6.51247650e-002
      -1.29960224e-001 1.19561767e-002 -2.68388122e-001 1.66329704e-002
      -3.18102688e-001 4.32115197e-002 1.09885842e-001 -1.06644966e-001
      1.06061012e-001 -1.07060157e-001 7.70351142e-002 6.75446214e-003
      -3.63974199e-002 -2.04113722e-001 3.24879706e-001 -4.52278346e-001
      1.69443265e-001 -1.81914344e-001 -1.21741317e-001 -8.52196291e-002
      -7.33338237e-001 -3.53299022e-001 -3.99491191e-001 1.86219051e-001
      6.73864722e-001 1.79571405e-001 1.14017189e-001 -1.95108458e-001
      2.18882740e-001 -1.77420735e-001 -4.97218430e-001 -3.25769722e-001
      -4.45936397e-002 -1.23153452e-003</_>
    <_>
      8.28742012e-002 2.27253228e-001 1.77324682e-001 -7.59097785e-002
      -2.99392432e-001 -7.14263692e-002 -1.28775090e-002 9.57648829e-002
      5.06176166e-002 -5.39680682e-002 -1.72317594e-001 -8.44289456e-003
      5.55590680e-003 -2.41299216e-002 3.01820952e-002 4.97397296e-002
      1.55330658e-001 2.18087852e-001 -1.89299911e-001 -2.54059911e-001
      3.53183709e-002 8.76456946e-002 -1.15780741e-001 -3.51596251e-002
      6.38180077e-002 9.48321149e-002 -4.79701012e-002 -7.16738701e-002
      -2.74096310e-001 -1.19572140e-001 1.24278560e-001 2.18319803e-001
      1.24706440e-001 1.38218462e-001 3.02809834e-001 1.75553516e-001
      -2.38688305e-001 -4.74542648e-001 -5.01689315e-002 3.40527222e-002
      5.17000183e-002 1.30151451e-001 1.13309897e-001 2.24968672e-001
      3.61283779e-001 -1.24483503e-001 -3.65947038e-001 1.82870831e-002
      2.56648343e-002 5.81153035e-002 1.14345863e-001 1.58164427e-001
      2.65346736e-001 3.73395473e-001 -1.73980072e-001 -4.74914253e-001
      -6.00370355e-002 8.87370110e-002 1.42568424e-001 1.31314203e-001
      1.53663978e-001 3.53423387e-001 2.79955149e-001 -9.87575129e-002
      -3.70110095e-001 6.62092119e-002 6.11049868e-002 1.00896113e-001
      1.07668221e-001 1.91262171e-001 3.63285035e-001 3.76610756e-001
      -2.72067457e-001 -3.59323978e-001 -7.26160184e-002
      -4.04343642e-002 -5.45236133e-002 2.94364709e-002 7.92463124e-002
      2.54901260e-001 1.67851627e-001 -2.57271081e-001 -7.01649114e-002
      -1.15986645e-001 -1.13884784e-001 -2.54912581e-002 7.28444234e-002
      1.16911292e-001 3.17135543e-001 -1.09118260e-001 -2.16647744e-001
      -1.72414035e-001 -2.18217839e-002 2.89408863e-002 5.22495732e-002
      4.56162095e-002 1.24606967e-001 2.13087842e-001 2.90224731e-001
      -1.05434351e-001 1.94994211e-001 6.24911077e-002 1.24872727e-002
      1.20407045e-001 1.06491461e-001 1.45506680e-001 2.05089390e-001
      8.37732926e-002</_>
    <_>
      -3.52507055e-001 9.97040808e-001 5.20764291e-001 7.51505420e-002
      2.59510666e-001 -2.12604195e-001 6.64386665e-003 4.06252235e-001
      -7.94192731e-001 -2.87304342e-001 1.16174757e+000 1.04833931e-001
      5.59377849e-001 5.52329659e-001 -2.43010130e-002 8.85083601e-002
      -6.37295127e-001 -7.64692962e-001 -2.11689532e-001 7.87992716e-001
      3.97935867e-001 3.83463532e-001 1.04645252e-001 -4.05004978e-001
      2.81744123e-001 -3.44956070e-002 -7.18603790e-001 -7.28098869e-001
      -2.20017478e-001 4.92736459e-001 1.19814180e-001 1.09495699e+000
      3.45776290e-001 4.49799150e-001 4.28892463e-001 -6.33394539e-001
      -5.88883571e-002 -6.16178989e-001 -5.97745299e-001
      -2.93476790e-001 -1.04474433e-001 3.76247525e-001 1.91941470e-001
      -2.11367942e-002 -8.72945115e-002 4.78147864e-001 -9.87265289e-001
      -1.02438903e+000 -5.74442267e-001 -2.64704466e-001 1.67760253e-001
      -9.89945680e-002 3.55089337e-001 9.05677021e-001 -7.59945035e-001
      -1.08923459e+000 -2.75981754e-001 -5.20324290e-001 2.40654767e-001
