<?xml version="1.0"?>
<opencv_storage>
<my_svm type_id="opencv-ml-svm">
  <svm_type>C_SVC</svm_type>
  <kernel><type>LINEAR</type></kernel>
  <C>1.</C>
  <term_criteria><epsilon>9.9999999747524271e-007</epsilon>
    <iterations>1000000</iterations></term_criteria>
  <var_all>108</var_all>
  <var_count>108</var_count>
  <class_count>11</class_count>
  <class_labels type_id="opencv-matrix">
    <rows>1</rows>
    <cols>11</cols>
    <dt>i</dt>
    <data>
      -1 0 1 2 3 4 5 6 7 8 9</data></class_labels>
  <sv_total>55</sv_total>
  <support_vectors>
    <_>
      1.75444216e-001 -5.74094383e-003 -1.16317138e-001 1.26553193e-001
      1.59844622e-001 7.59065002e-002 -2.04140805e-002 -1.02922030e-001
      2.54288644e-001 -9.12694037e-002 -1.38528720e-001 -2.70317364e-002
      2.98529048e-003 7.05992654e-002 -1.27981708e-003 1.25036955e-001
      1.51020214e-001 7.42987692e-002 -6.70711324e-002 -1.00861393e-001
      -8.55383053e-002 4.47561592e-002 2.37650812e-001 1.39776006e-001
      -6.97794408e-002 -1.48306087e-001 -1.42247766e-001
      -2.44619504e-001 2.18328908e-002 1.03599511e-001 5.86527213e-002
      1.76501185e-001 3.75887603e-002 3.46478634e-002 -8.28883722e-002
      -2.55358875e-001 -1.48214921e-001 1.54990718e-001 6.46908395e-003
      4.53601032e-002 3.20254415e-002 2.14512721e-002 8.18868056e-002
      1.74068928e-001 1.31636914e-002 6.42936230e-002 2.00274512e-001
      1.00889765e-001 1.32961750e-001 1.54629471e-002 3.60830203e-002
      2.69508082e-003 -8.14226940e-002 1.31636914e-002 -2.85100788e-001
      1.45055532e-001 9.82697234e-002 1.40050009e-001 9.12723914e-002
      8.17569122e-002 8.15516263e-002 1.25771286e-002 -2.83727586e-001
      -1.70570672e-001 4.74803969e-002 1.89420268e-001 2.31404722e-001
      4.26515981e-005 1.41086757e-001 1.35544866e-001 7.16781765e-002
      -2.22470060e-001 1.53885394e-001 1.62054002e-002 1.06374517e-001
      5.98065034e-002 -1.01044793e-002 -3.33993584e-002 -7.19276443e-002
      -1.46114781e-001 6.96031526e-002 2.43214041e-001 4.42565009e-002
      2.80719027e-002 -2.30494775e-002 5.07923681e-003 -5.23078181e-002
      -1.29423961e-001 -8.84366333e-002 2.23573253e-001 -6.93205148e-002
      -4.20008302e-002 1.16257250e-001 7.16147274e-002 -5.63302338e-002
      9.52684227e-003 7.32923597e-002 8.21701586e-002 -1.22055352e-001
      5.07439189e-002 -4.92928885e-002 4.41033719e-003 -3.13800685e-002
      3.61112021e-002 -3.43383639e-003 4.82443161e-003 1.01679653e-001
      8.77334401e-002</_>
    <_>
      1.60249382e-001 7.09931627e-002 -3.83877684e-003 8.82259309e-002
      3.43060717e-002 6.72696307e-002 -5.74968010e-002 -1.34321898e-001
      1.10172778e-001 -9.49344039e-002 1.52761759e-002 -1.20733457e-003
      -6.32610694e-002 -6.41184151e-002 -1.02711120e-003 3.39301862e-002
      1.03936248e-001 6.05479255e-002 -2.17651322e-001 -7.19257295e-002
      -3.34223732e-002 1.14676192e-001 2.75697231e-001 1.91514298e-001
      -1.65710822e-002 -6.93973526e-002 -2.71275550e-001
      -2.80525714e-001 3.65971997e-002 9.32914242e-002 8.72112513e-002
      1.74646437e-001 6.80252612e-002 2.62909383e-002 -7.07273707e-002
      -2.79025465e-001 -7.79501647e-002 1.72707543e-001 2.77419691e-003
      3.14547047e-002 -2.61830445e-003 -2.03689896e-002 4.36905138e-002
      7.67269060e-002 4.76197451e-002 1.58732906e-002 2.10898325e-001
      9.52223614e-002 1.32595971e-001 -5.84998028e-003 -1.54858865e-002
      1.54851601e-002 -7.14497045e-002 1.58732906e-002 -2.26962626e-001
      1.55052260e-001 9.40094665e-002 1.34930462e-001 7.84783661e-002
      6.88666552e-002 4.84422557e-002 -8.91394839e-002 -2.81017989e-001
      -1.88157007e-001 9.08248946e-002 1.81447297e-001 2.20770717e-001
      -1.83509581e-003 1.59913555e-001 1.54785663e-001 7.89021626e-002
      -2.19760463e-001 2.85069440e-002 6.50448278e-002 1.04275219e-001
      6.65928870e-002 -3.90289128e-002 -1.16379708e-002 9.64847114e-003
      -7.31679797e-002 2.77264584e-002 7.54071102e-002 -3.22889276e-002
      9.59173683e-003 1.57703750e-003 -6.50341064e-002 -1.73100699e-002
      1.38840983e-002 -3.24548073e-002 1.70721695e-001 -1.66467145e-001
      1.38472542e-002 1.35124788e-001 7.48916119e-002 -4.97949645e-002
      7.85679892e-002 1.42598987e-001 1.36095852e-001 -1.91115916e-001
      -5.35161905e-002 -6.96921647e-002 3.59273329e-002 6.41980767e-003
      8.52927789e-002 6.93289265e-002 6.42361939e-002 9.95115414e-002
      -3.24207917e-002</_>
    <_>
      2.42883652e-001 6.00371920e-002 -3.72435264e-002 3.99053060e-002
      7.69248903e-002 8.01304877e-002 -1.40508707e-003 -1.21657185e-001
      1.41139135e-001 2.26221494e-002 -1.76192984e-001 -1.03665955e-001
      -8.11366960e-002 1.44521249e-002 -2.05779932e-002 1.11475810e-001
      2.20774367e-001 1.49323851e-001 -7.44764879e-002 1.37019251e-002
      1.71026159e-002 8.19031969e-002 2.27795526e-001 9.54823941e-002
      -7.95787051e-002 -1.37845755e-001 -2.01691046e-001
      -2.58444071e-001 5.21796616e-003 5.25739491e-002 6.06296211e-002
      1.74973398e-001 -1.43746892e-002 -5.64660784e-003 -4.76634502e-002
      -2.66113937e-001 -3.99051607e-002 -1.19703121e-001
      -1.56369045e-001 1.88973900e-002 6.13701344e-003 6.39816560e-003
      7.95344710e-002 2.22938284e-001 3.01815331e-001 1.59344226e-001
      -7.16256276e-002 -5.94219677e-002 7.99201056e-002 -5.02710417e-003
      6.45035431e-002 3.17786634e-002 3.02776601e-002 3.20750326e-001
      -2.39098415e-001 -1.39761537e-001 -5.17565683e-002 1.31353676e-001
      7.37058371e-002 7.70522207e-002 7.69917443e-002 4.57830094e-002
      -9.35326070e-002 -6.13498203e-002 -2.09877878e-001 6.28470853e-002
      1.88870862e-001 -7.84926675e-003 1.86067358e-001 1.77027687e-001
      1.64155334e-001 4.22369801e-002 1.43209830e-001 -1.68083385e-001
      -3.67430076e-002 2.72650830e-002 -1.15620680e-002 -1.20882252e-002
      3.23030911e-002 5.68312313e-003 2.47184366e-001 1.45700976e-001
      -5.91463000e-002 -8.35555233e-003 -1.17410542e-002
      -7.78164715e-002 -8.95716697e-002 -4.67131734e-002 3.45467925e-002
      1.10693291e-001 1.44386869e-002 -1.78903610e-001 5.00448495e-002
      2.44759396e-002 -1.04969114e-001 4.11046930e-002 1.55530840e-001
      1.37443736e-001 4.16489467e-002 7.20332488e-002 3.61607000e-002
      4.87959199e-002 -5.74277155e-002 1.41939484e-002 -1.02805711e-001
      6.94437325e-003 1.57707129e-002 -6.03078231e-002</_>
    <_>
      1.22029841e-001 8.84176269e-002 -6.54338002e-002 9.19092894e-002
      1.56154990e-001 7.72290975e-002 -3.02870926e-002 -1.64432097e-002
      9.86620784e-002 -3.43711600e-002 -6.30264729e-002 -1.06365763e-001
      -7.54745528e-002 3.56710367e-002 1.30640101e-002 1.08645074e-001
      2.57904679e-001 1.06805734e-001 -1.99489027e-001 -7.73523450e-002
      -5.56810871e-002 9.94696096e-002 2.62945145e-001 1.21648401e-001
      -1.50402308e-001 -4.39041965e-002 -2.26463169e-001
      -2.65408784e-001 -8.74569640e-002 -4.08270024e-002 4.19167690e-002
      1.66791320e-001 3.98469418e-002 -1.21090161e-002 2.48383917e-002
      -2.58232266e-001 -7.26340041e-002 8.85758549e-002 -7.17506781e-002
      6.81558205e-003 3.31675843e-003 -9.47635341e-003 3.50047611e-002
      1.75475106e-001 1.28999069e-001 1.38211831e-001 1.95783511e-001
      7.04361498e-002 1.09253198e-001 -4.33931947e-002 -2.33897753e-002
      -9.83878449e-002 -6.22727871e-002 1.31565467e-001 -2.34603241e-001
      -1.68046970e-002 -2.41922624e-002 9.99603122e-002 5.28761484e-002
      3.33809964e-002 -5.66035323e-003 -6.41725063e-002 -1.84944764e-001
      -1.10394493e-001 2.39049103e-002 1.59271643e-001 1.85238883e-001
      -4.93627749e-002 9.27147046e-002 -5.23145981e-002 -8.84115249e-002
      -1.20063215e-001 1.41050354e-001 9.24889594e-002 1.08832553e-001
      5.87614104e-002 -6.66431263e-002 -8.39879587e-002 -8.67753699e-002
      -6.75054640e-002 1.35283321e-001 1.32726833e-001 7.95524120e-002
      2.64995210e-002 1.18510425e-002 -6.57567475e-003 -4.30374630e-002
      -8.19077268e-002 -7.09245875e-002 1.52930483e-001 -7.97596127e-002
      -2.27947775e-002 9.96189788e-002 6.40819445e-002 -6.72927424e-002
      3.09249517e-002 5.83334602e-002 1.29835983e-003 -7.11000413e-002
      -1.96383018e-002 -8.77625570e-002 -1.06452428e-001
      -4.14609723e-002 9.33923572e-002 6.43469468e-002 4.92684506e-002
      4.69474941e-002 1.28146680e-002</_>
    <_>
      8.15154612e-002 -8.16585943e-002 1.57578140e-002 1.87653735e-001
      2.23010540e-001 1.19397834e-001 2.05525160e-002 2.72701774e-003
      1.09603189e-001 -3.67301926e-002 -1.90988287e-001 -5.32524250e-002
      1.90301016e-002 7.65021294e-002 -1.21603338e-002 1.35465130e-001
      2.80693263e-001 1.28802270e-001 -2.63154954e-001 -1.33112714e-001
      -3.47182713e-002 1.34557351e-001 3.14295679e-001 1.72253385e-001
      2.17295140e-002 2.87062917e-002 -3.10674489e-001 -2.88333386e-001
      2.67823301e-002 9.77408960e-002 1.00614689e-001 2.00579315e-001
      -1.24507714e-002 4.38700169e-002 8.00723508e-002 -2.86833137e-001
      -8.33001435e-002 -7.99536556e-002 -9.56730098e-002 4.49833572e-002
      6.55297004e-003 -3.20737176e-002 7.65890926e-002 1.98024347e-001
      1.39443994e-001 1.29228070e-001 -4.09087352e-003 -9.91579052e-003
      1.23982742e-001 -2.50234697e-002 2.10008398e-002 -1.77450068e-002
      -1.32732108e-001 8.66964608e-002 -2.50101805e-001 8.44464004e-002
      5.98245673e-002 1.28406614e-001 7.46251270e-002 2.73655020e-002
      5.49139865e-002 4.23179852e-004 -2.38106072e-001 -1.16867296e-001
      -1.70069169e-002 1.36145785e-001 2.35080779e-001 -9.71559715e-003
      1.59188539e-001 1.53212249e-001 -4.54166792e-002 -1.76848546e-001
      1.66990593e-001 1.61844678e-002 8.69299397e-002 5.50264567e-002
      -1.09103717e-001 -4.93915416e-002 -5.71621954e-002
      -1.23922504e-001 1.35145143e-001 1.53897926e-001 5.92029989e-002
      6.04663044e-002 2.75822612e-003 -8.00813884e-002 -8.14759135e-002
      -5.55387884e-002 -7.73784965e-002 9.40689147e-002 -1.24091104e-001
      -4.68131602e-002 1.43083796e-001 1.09462075e-001 -6.42619729e-002
      8.41907263e-002 1.16214469e-001 -3.78744840e-003 -1.53424352e-001
      -5.63511625e-002 -7.98927993e-002 6.64173812e-002 -9.34789795e-003
      8.59133899e-002 8.70783851e-002 3.08841690e-002 1.57912858e-002
      -9.33923125e-002</_>
    <_>
      7.88704827e-002 9.20671970e-002 -3.27766649e-002 9.39565226e-002
      1.18106231e-001 7.73308948e-002 -3.27379745e-003 -1.30619446e-003
      2.03453064e-001 -9.04763490e-002 1.23309940e-002 -5.05805649e-002
      -6.92937672e-002 2.22541839e-002 -1.11176344e-002 6.47475421e-002
      1.84083849e-001 5.37951291e-002 -2.00952217e-001 -9.33306292e-002
      -1.02563992e-001 2.92536765e-002 1.83936208e-001 1.06350511e-001
      -2.04973947e-002 3.11196968e-003 -1.01113729e-001 -1.68607682e-001
      8.19972083e-002 3.32547538e-002 -9.66142956e-003 9.69494805e-002
      -7.45906606e-002 -1.25899792e-001 -1.20913774e-001
      -1.33069798e-001 6.02667395e-004 1.50814399e-001 -9.89181921e-002
      -2.15823390e-002 -3.72764505e-002 -4.28368561e-002 1.33247543e-002
      9.72758308e-002 9.87558961e-002 2.03736201e-001 1.39859438e-001
      -6.90845251e-002 3.88515331e-002 -7.80474842e-002 -2.10166462e-002
      -8.75899196e-002 -1.19447216e-001 1.37633070e-001 -1.21905822e-002
      1.42610535e-001 2.38248426e-002 7.09259510e-002 -2.08678134e-002
      -8.08445066e-002 -9.19280127e-002 -1.87589273e-001
      -1.43428922e-001 -7.53474385e-002 5.74434958e-002 1.36654124e-001
      2.20866963e-001 -6.72010034e-002 5.74039929e-002 2.73285396e-002
      -8.79453793e-002 -1.75964192e-001 1.68380231e-001 2.78402045e-002
      6.63443208e-002 2.01033540e-002 -4.11100015e-002 -7.60485651e-003
      -7.79138058e-002 -1.40973881e-001 1.65699631e-001 1.61779463e-001
      7.86903054e-002 -1.04149231e-005 8.66891874e-004 -3.25918123e-002
      1.77713223e-002 -9.88896042e-002 -1.22739583e-001 1.89889491e-001
      -1.37259319e-001 -6.08405955e-002 1.11492448e-001 7.02203065e-002
      -4.03754115e-002 7.71793127e-002 1.03525124e-001 6.52061950e-004
      -1.61908105e-001 -6.15707338e-002 -1.31119207e-001
      -3.56416591e-002 -6.02655225e-002 5.15010729e-002 1.01805508e-001
      5.58317788e-002 4.94999252e-002 -1.70106138e-003</_>
    <_>
      1.33601025e-001 -4.53446954e-002 -8.28790739e-002 1.11635372e-001
      1.12220682e-001 1.04404837e-001 -1.18242810e-002 -5.52230664e-002
      2.01106891e-001 -3.63317542e-002 -1.07178107e-001 -2.84814946e-002
      -5.22916913e-002 -2.42177453e-002 2.69745477e-003 6.66504204e-002
      1.78239703e-001 1.41298145e-001 -1.43812940e-001 -1.50338113e-001
      -9.27951783e-002 2.36449391e-002 2.07173347e-001 1.37711242e-001
      -5.70660271e-002 -8.65243450e-002 -1.38508409e-001
      -1.71093494e-001 -1.51521023e-002 3.11792549e-002 -1.31094642e-002
      3.22558060e-002 -9.19160713e-003 -3.35427448e-002 -7.13567957e-002
      -1.56583503e-001 -2.93105301e-002 1.01610340e-001 -1.31409429e-002
      1.17881093e-002 -2.41412073e-002 -2.96930224e-002 1.45357400e-002
      1.11588463e-001 1.12998560e-001 7.29738325e-002 1.15334839e-001
      5.80656677e-002 1.13043383e-001 -1.83612406e-002 -1.39972186e-002
      -5.87418452e-002 -1.09565318e-001 6.04372285e-002 -1.20419502e-001
      8.60462487e-002 4.93318141e-002 7.16360286e-002 -2.64452714e-002
      -8.25544447e-003 -3.00540254e-002 -1.15399182e-001
      -1.52747244e-001 -1.43593058e-001 -1.68261584e-002 1.15380690e-001
      1.77447617e-001 -4.87684645e-002 9.34689343e-002 5.82166091e-002
      -2.89400816e-002 -1.75196528e-001 1.33743063e-001 4.81525585e-002
      1.02212653e-001 5.78263067e-002 -5.14803380e-002 -3.57880108e-002
      -6.76955953e-002 -1.47911787e-001 8.61616880e-002 2.12525055e-001
      7.76949376e-002 5.42775989e-002 3.74806896e-002 -6.17046058e-002
      -3.76483463e-002 -8.13248977e-002 -9.55781117e-002 2.01942801e-001
      -8.32514390e-002 -1.55267222e-002 1.10938959e-001 5.67392744e-002
      -5.81489317e-002 3.11729722e-002 7.17392713e-002 6.14577495e-002
      -1.38726667e-001 5.95186427e-002 -2.57794764e-002 5.87493181e-003
      -1.04375388e-002 2.32634060e-002 1.49442451e-002 1.75913665e-002
      4.70610112e-002 3.52689475e-002</_>
    <_>
      2.05423713e-001 1.22015215e-001 4.26617004e-002 5.64998649e-002
      -6.17389530e-002 4.58276607e-002 -2.44500712e-002 -2.00130716e-002
      2.50426829e-001 -5.07851690e-002 -1.86216533e-001 -3.73496674e-002
      -1.05985314e-001 -7.80079141e-002 -3.15619335e-002 9.67482254e-002
      2.60677993e-001 2.53655165e-001 -1.96442828e-001 -2.24309400e-001
      -6.19219206e-002 8.11630413e-002 1.21985361e-001 9.86874625e-002
      5.39342547e-003 -1.77927483e-002 -1.37964591e-001 -2.59858221e-001
      -1.84048444e-001 -5.22199236e-002 5.74123412e-002 1.33686334e-001
      3.47553939e-002 6.99319839e-002 8.99228826e-002 -9.45889652e-002
      -1.24025024e-001 -1.56459585e-001 -4.80158590e-002 1.72004420e-002
      1.43773397e-002 1.96676962e-002 8.06079581e-002 2.30061054e-001
      3.20079863e-001 -3.11894109e-003 -1.03067435e-001 8.09092969e-002
      1.30841985e-001 1.16775827e-002 6.36401027e-002 2.17525847e-002
      2.27938965e-002 2.87330717e-001 -2.32878894e-001 -1.82560310e-001
      7.75504485e-003 1.33713230e-001 7.17407092e-002 7.55524486e-002
      8.00826401e-002 7.25522339e-002 8.53311457e-003 -2.07149237e-001
      -2.16669634e-001 1.73544988e-001 2.38936663e-001 1.93772223e-002
      1.76908523e-001 1.64029405e-001 1.56996325e-001 5.37869781e-002
      -2.92633250e-002 -1.93200558e-001 7.33750090e-002 4.89416718e-002
      -6.18550144e-002 1.65124908e-002 7.22813793e-003 8.12252611e-003
      1.95185974e-001 4.32542376e-002 -1.78347100e-002 -1.41175417e-002
      -1.09505272e-002 -1.33776320e-002 3.29217054e-002 7.41951633e-003
      8.18930566e-002 1.30471334e-001 -2.23456934e-001 -1.57744840e-001
      1.29250377e-001 1.04689986e-001 -1.30693242e-002 8.53336826e-002
      1.58805355e-001 1.69450179e-001 3.10951807e-002 -5.18598743e-002
      1.34248808e-002 3.19581591e-002 3.20004895e-002 1.45847857e-001
      9.21535119e-002 9.80881006e-002 1.52802497e-001 6.16156608e-002</_>
    <_>
      8.95386264e-002 2.10388601e-002 -7.29732215e-002 1.48412541e-001
      1.52795210e-001 7.46595860e-002 3.04336543e-003 -2.41779760e-002
      1.53102919e-001 -5.99237494e-002 -1.39367161e-002 -1.39399283e-002
      -2.09415276e-002 4.57842238e-002 -9.57104843e-003 9.06968713e-002
      7.33087063e-002 5.57083338e-002 -1.54204428e-001 -8.79630297e-002
      -6.69591576e-002 1.06361054e-001 2.01331213e-001 8.82896334e-002
      -7.34192953e-002 -8.56508464e-002 -1.91409037e-001
      -2.20887139e-001 -4.37794477e-002 1.68305002e-002 -2.82290597e-002
      8.91699642e-002 1.44814998e-002 -2.10236534e-002 -7.95430541e-002
      -2.40588814e-001 -3.63977998e-002 5.47625683e-002 -6.59887716e-002
      -7.64947478e-003 -9.94112343e-003 -5.27800107e-003 3.60726900e-002
      1.02765448e-001 9.38334316e-002 1.04571566e-001 2.25689579e-002
      -3.40878889e-002 9.37015265e-002 -3.77242006e-002 1.43431611e-002
      -2.95158904e-002 -6.25025481e-002 1.23102590e-001 -1.30302936e-001
      4.86582965e-002 -1.58836599e-002 3.52653936e-002 -3.41601968e-002
      -7.28747714e-003 -1.84784252e-002 -2.97977738e-002
      -1.31163850e-001 -1.06201895e-001 -5.02922982e-002 7.87547156e-002
      1.94280073e-001 -1.05815731e-001 2.60976180e-002 1.76964253e-002
      -5.30195050e-002 -1.43059134e-001 1.16212763e-001 3.14487070e-002
      9.90061015e-002 7.38171786e-002 -3.13563980e-002 -1.77862234e-002
      -6.57551363e-002 -1.36658400e-001 8.27712566e-002 2.12214902e-001
      1.29815653e-001 5.55539653e-002 3.20497118e-002 -2.91124023e-002
      -5.83608262e-002 -1.08361088e-001 -1.16723947e-001 1.72043562e-001
      -9.92904454e-002 -2.91474331e-002 9.76233557e-002 5.40942624e-002
      -1.15436487e-001 1.88056100e-002 6.81229457e-002 1.66933872e-002
      -1.24226004e-001 4.20164689e-002 -2.52871960e-002 1.86856755e-003
      -1.00131705e-001 1.84338260e-002 2.57456279e-003 2.87422668e-002
      6.64133728e-002 9.35915299e-003</_>
    <_>
      1.70242578e-001 3.96643244e-002 -5.65070473e-002 1.21897884e-001
      1.80166543e-001 7.53132105e-002 -6.34211348e-003 -7.88619369e-002
      1.76198170e-001 -6.19851910e-002 -6.43340647e-002 -4.28983010e-002
      -4.91142226e-003 8.15513432e-002 1.06595634e-002 1.16097659e-001
      1.04847126e-001 3.69279124e-002 -1.16164692e-001 -5.82018271e-002
      -6.57059848e-002 6.70407638e-002 2.31711447e-001 1.00065805e-001
      -4.52005044e-002 -1.20428227e-001 -1.72961384e-001
      -2.55414158e-001 -1.18183037e-002 5.11020049e-002 4.79853712e-002
      1.67663470e-001 4.17718524e-003 2.78703682e-003 -9.27401558e-002
      -2.70585060e-001 -4.16803062e-002 1.18830718e-001 -1.12922443e-002
      8.42101930e-004 1.27492119e-002 -9.92738735e-003 -1.87808517e-002
      1.50661124e-002 7.28823468e-002 1.71060026e-001 1.72259480e-001
      4.24986891e-002 7.49159753e-002 -9.73573923e-002 -2.32902784e-002
      -1.23696245e-001 -1.84626982e-001 1.81921154e-001 -2.04316124e-001
      1.64950620e-002 2.67835110e-002 5.93299083e-002 4.90818769e-002
      -4.11665859e-003 -1.11684706e-002 -9.03534219e-002
      -1.93448499e-001 -5.72071560e-002 4.13431451e-002 1.38878465e-001
      1.26386508e-001 -1.07675560e-001 5.88676259e-002 3.59346233e-002
      2.46216003e-002 -7.00619146e-002 1.35375425e-001 2.25993749e-002
      5.88107742e-002 2.81451270e-002 -8.72224644e-002 -3.53674442e-002
      -1.02706321e-001 -1.26377732e-001 1.74747884e-001 1.58708945e-001
      4.50702161e-002 1.81439612e-002 -3.66447261e-004 -7.56458845e-003
      -6.05730936e-002 -9.96894762e-002 -5.85365742e-002 1.89697966e-001
      -9.19769406e-002 -4.61776070e-002 1.08773023e-001 2.51392145e-002
      -1.36665508e-001 2.54704934e-002 4.81362529e-002 1.05711460e-001
      -4.23547029e-002 2.72650458e-002 -4.53875028e-002 -1.42720509e-002
      -4.78563756e-002 4.41236421e-002 -2.70661563e-002 -1.10104522e-002
      9.07887742e-002 2.17942949e-002</_>
    <_>
      3.37814182e-001 3.08618546e-001 -5.81774116e-001 -4.18309450e-001
      -4.13688987e-001 -1.29785955e-001 -1.71587035e-001 4.42797482e-001
      -5.87695301e-001 2.19977796e-001 7.38035321e-001 -1.80955797e-001
      -5.16145945e-001 -7.82202840e-001 -3.73923421e-001
      -6.17188990e-001 -2.22340241e-001 1.21755740e-002 -1.06151557e+000
      -2.86089987e-001 -1.20171234e-001 1.36352390e-001 9.20893326e-002
      -5.32941148e-003 1.73410311e-001 1.37587690e+000 -4.69680756e-001
      2.07373295e-002 9.51450169e-002 2.56682672e-002 1.16836041e-001
      -3.64205949e-002 -1.46934047e-001 -1.53581411e-001 6.24799550e-001
      -2.67696977e-002 4.63107377e-001 8.91980231e-002 -8.75455886e-002
      -2.22991213e-001 -3.08405071e-001 -3.27041447e-001
      -3.24386090e-001 -4.62073356e-001 2.54205972e-001 -1.82550237e-001
      -2.88172830e-002 -8.84410515e-002 -9.65007395e-002
      -8.14968571e-002 -1.10228129e-001 1.84740312e-002 7.81061873e-002
      9.94983837e-002 6.99674487e-002 4.66765612e-002 -3.04383691e-003
      -3.08416244e-002 -1.00992031e-001 -1.57101586e-001
      -2.31348589e-001 -3.52848262e-001 -5.49160279e-002
      -1.16463780e-001 6.77838475e-002 -4.25335802e-002 -9.28012431e-002
      -1.60115864e-002 5.38470037e-002 3.47879045e-002 2.32972540e-002
      -5.49160279e-002 -6.50664210e-001 2.18765944e-001 -1.35348678e-001
      -1.76525295e-001 -1.68277130e-001 -1.06559761e-001 1.86053202e-001
      5.31188250e-001 -1.72276601e-001 -5.04537642e-001 4.69270617e-001
      -9.49179679e-002 -1.29598305e-001 -2.55566269e-001 5.96249327e-002
      3.73707592e-001 1.26409566e+000 -2.08325237e-001 -4.47792172e-001
      2.79441029e-001 -2.18432993e-001 -3.55271280e-001 -1.61005467e-001
      -3.18419859e-002 9.79286060e-002 8.10055360e-002 -5.17827570e-001
      -2.71378681e-002 8.72720242e-001 -4.17939350e-002 -2.79689163e-001
      -1.92688942e-001 4.41270061e-002 2.17078142e-002 -3.66460010e-002
      -3.24484348e-001</_>
    <_>
      2.95553207e-002 4.40028943e-002 6.94503635e-002 3.45227383e-002
      -6.97173849e-002 3.96142825e-002 2.13294122e-002 -9.95449722e-002
      -2.99161226e-001 6.26599789e-002 -1.38581291e-001 -9.32372287e-002
      -4.63248603e-002 -9.20352414e-002 -3.49950269e-002
      -7.39854062e-003 1.59756243e-001 6.17040582e-002 -1.00781091e-001
      8.65101293e-002 8.99204314e-002 9.94068608e-002 6.47664145e-002
      2.33573541e-002 1.22238576e-001 -3.82380257e-003 -1.73168182e-001
      -6.07641302e-002 -2.14362219e-001 -1.46185746e-002 2.41679512e-002
      3.50019261e-002 -2.51164101e-002 4.92051058e-002 2.06818819e-001
      3.73052619e-003 9.40501764e-002 -5.77888131e-001 -2.58060664e-001
      -2.57624909e-002 -4.83593196e-002 -2.79155020e-002
      -9.44502186e-003 1.29581809e-001 5.17259419e-001 2.18121275e-001
      -5.50213933e-001 -2.75248468e-001 -3.66016440e-002
      -2.39720605e-002 4.00219336e-002 2.82794144e-002 2.35012591e-001
      6.36301816e-001 -2.18847096e-002 -6.10973239e-001 -1.76977426e-001
      -8.81555025e-003 -1.21767377e-003 -3.05576273e-003
      -4.67327563e-003 1.05321556e-001 2.84265071e-001 1.73645929e-001
      -4.41712618e-001 -1.70006260e-001 -1.13420188e-002 1.10485116e-002
      3.63826714e-002 1.96626503e-002 7.38265216e-002 5.01936138e-001
      -6.86378404e-002 -3.30869913e-001 -2.02321693e-001
      -2.32456438e-002 -2.20096111e-002 -3.75401066e-003 1.00131094e-001
      2.83426493e-001 3.58477890e-001 -3.08296978e-001 -2.45852038e-001
      3.43017392e-002 2.81820688e-002 -9.16378275e-002 -8.55528116e-002
      7.95150697e-002 1.51256159e-001 -3.10964227e-001 2.39013523e-001
      -1.58767283e-001 5.06916456e-002 3.21828714e-003 -4.85190153e-002
      -4.59192842e-002 -2.30864175e-002 -1.37903923e-002 2.36669138e-001
      -4.66085337e-002 2.95056522e-001 2.60544807e-001 9.99797285e-002
      -1.72673613e-002 -1.93809941e-001 -1.70331821e-001
      -2.22840920e-001 -3.61897349e-001</_>
    <_>
      -2.32428506e-001 2.86951572e-001 9.84911993e-002 -2.00016629e-002
      4.93190587e-002 -1.90989494e-001 -5.43699339e-002 9.68345478e-002
      -9.07884061e-001 3.03164899e-001 -2.23959550e-001 -3.74213725e-001
      -2.56812543e-001 -1.77930444e-001 -2.02174783e-001
      -1.22686118e-001 2.80260354e-001 2.79537346e-002 -7.30507433e-001
      2.22953409e-001 2.47777909e-001 1.91293553e-001 2.78811902e-001
      2.77852360e-003 -9.04257521e-002 6.36893213e-001 -2.26338506e-001
      1.30193653e-002 -4.30436283e-001 -3.37970763e-001 -4.90580350e-002
      5.08754104e-002 -4.14313450e-002 -3.52726020e-002 5.12367249e-001
      9.40283090e-002 3.23032796e-001 -6.71802759e-001 -3.83207560e-001
      -1.69361562e-001 -1.34994388e-001 -1.74328417e-001
      -2.39574820e-001 -4.30029690e-001 4.14351225e-001 4.94925648e-001
      -1.48691371e-001 -1.24563195e-001 -1.53878957e-001
      -2.72379428e-001 -2.42486283e-001 -6.16730571e-001
      -6.85363591e-001 5.48346817e-001 3.14262480e-001 -6.75300419e-001
      -4.25575525e-001 -1.67644739e-001 -1.14700995e-001
      -1.76700741e-001 -3.06990176e-001 -4.98843044e-001 4.57680285e-001
      3.08183640e-001 1.22997966e-002 -1.83471572e-002 -1.25363261e-001
      -1.56203806e-001 -1.29520506e-001 -6.34933770e-001
      -1.21784890e+000 3.79598320e-001 -1.05849802e-001 9.20347795e-002
      3.04767843e-002 -1.50666237e-001 -1.75883636e-001 -1.74187377e-001
      -4.71488982e-002 -2.37252489e-001 3.64410281e-001 -5.84485590e-001
      -2.28620499e-001 7.10855201e-002 -2.22746149e-001 2.94129625e-002
      1.03383325e-001 1.91265866e-001 1.31837040e-001 -1.80704400e-001
      -3.00793536e-003 2.51189113e-001 7.66263902e-002 -3.37519199e-002
      8.41713175e-002 1.66108325e-001 5.68556003e-002 -3.60769361e-001
      -1.36524141e-001 -2.17512891e-001 -8.99800733e-002
      -5.18147759e-002 -1.74954757e-002 3.58556926e-001 2.97161937e-001
      2.30767787e-001 5.55225387e-002 -3.81863385e-001</_>
    <_>
      -2.93952614e-001 -1.90619648e-001 2.53436178e-001 1.59539729e-001
      1.55313730e-001 3.45616452e-002 1.56919762e-001 3.79582405e-001
      -4.92051363e-001 3.00429195e-001 -4.26398426e-001 -6.02009594e-002
      4.98086922e-002 -4.19451222e-002 -2.39270791e-001 1.17166452e-002
      1.93049461e-001 1.36872575e-001 -4.77023631e-001 -1.23042330e-001
      1.03685439e-001 2.42329285e-001 2.36288756e-001 5.36639914e-002
      3.51703256e-001 9.05431509e-001 -3.08186084e-001 1.20081110e-002
      1.20106328e-003 2.07310300e-002 1.33415088e-001 6.31680936e-002
      -1.76726624e-001 9.15134400e-002 4.95610535e-001 -5.74066676e-002
      2.23717198e-001 -9.92961407e-001 -2.17569992e-001 5.94132254e-003
      -1.39293715e-001 -2.92874485e-001 -7.35550225e-002
      -4.58565056e-002 3.84428889e-001 8.61113891e-002 -8.42094421e-001
      -5.52385628e-001 -9.59117338e-002 -1.67155996e-001
      -8.62371996e-002 -1.07221864e-002 -1.33988455e-001 3.54624420e-001
      2.19593823e-001 -2.56876469e-001 -8.18186551e-002 8.18593893e-003
      -5.35246283e-002 -1.99625701e-001 -6.55739680e-002
      -1.27853259e-001 2.19593823e-001 2.10896134e-001 -2.65918970e-001
      -2.12308675e-001 7.02960743e-003 -2.46868283e-002 7.44321942e-002
      -6.63648099e-002 -7.48511195e-001 2.12116957e-001 7.61852264e-002
      -1.17916852e-001 -2.43676469e-001 -9.75684971e-002
      -4.24976379e-001 -6.92029074e-002 2.57837549e-002 2.36100823e-001
      2.63265133e-001 -3.74005705e-001 9.01753306e-002 8.91917944e-002
      -2.68316865e-002 -4.68566746e-001 -2.48707891e-001
      -1.40496483e-002 3.42705697e-001 -4.33375686e-001 -8.79186392e-002
      -3.10669597e-002 -2.59329770e-002 7.08524510e-002 -4.34135497e-002
      2.43341222e-001 6.38897531e-003 -5.44873834e-001 -7.03223422e-002
      -2.33389631e-001 3.46643850e-002 1.27228543e-001 7.45989755e-002
      2.14983180e-001 2.31594846e-001 -6.19003251e-002 -3.08643609e-001
      -3.82650405e-001</_>
    <_>
      -5.50700784e-001 1.60951078e-001 1.08545214e-001 -1.20586984e-001
      2.88836323e-002 8.59807059e-002 3.20578218e-002 3.15278947e-001
      -2.87575066e-001 6.95466949e-003 5.98750055e-001 -4.81073484e-002
      -6.80001602e-002 -7.89458007e-002 -9.27135274e-002
      -3.62201989e-001 -1.11744337e-001 -4.20432203e-002
      -5.38568020e-001 -1.64563090e-001 -1.09845169e-001
      -3.61194983e-002 -1.72862504e-002 8.74154922e-003 1.62527919e-001
      5.88275731e-001 1.20935729e-002 1.15463160e-001 1.42547324e-001
      -1.50977820e-001 -3.93618606e-002 -7.82325417e-002
      -1.84251994e-001 -4.44448978e-001 -2.71274537e-001 2.10067898e-001
      6.43013775e-001 6.93195090e-002 -3.44239533e-001 -6.91559985e-002
      -1.39942616e-001 -2.99302608e-001 -2.57590294e-001
      -5.35429955e-001 1.97845593e-001 3.48179311e-001 -1.51185170e-001
      -4.83259857e-001 -1.25856474e-001 -1.71116173e-001
      -2.44402975e-001 -2.31838346e-001 -4.42767859e-001 2.51223117e-001
      8.18086803e-001 -4.04917309e-003 -1.62857220e-001 -6.60516843e-002
      -1.51126251e-001 -3.42783302e-001 -3.84014398e-001
      -8.13464344e-001 2.56786793e-001 1.56458497e-001 -2.13352107e-002
      -1.11879319e-001 -1.82928145e-002 -7.03806281e-002
      -1.57089695e-001 -1.55877247e-001 -5.22203505e-001 1.41567111e-001
      -8.59603733e-002 1.78773776e-002 -7.68317580e-002 -1.23446129e-001
      -8.13504383e-002 3.15098986e-002 5.13525791e-002 -1.05990909e-001
      1.69201121e-001 -4.63256389e-001 -5.03981262e-002 2.50265636e-002
      1.19241616e-002 -8.23043436e-002 1.84589818e-001 1.91883862e-001
      -6.12667874e-002 -3.78838219e-002 -1.75045013e-001 5.98483160e-002
      2.50398349e-002 -2.80260928e-002 5.23466356e-002 1.97799847e-001
      1.54297560e-001 -6.74657747e-002 -7.68826008e-002 -2.17183232e-001
      -1.92452669e-001 2.77697109e-002 -2.87683122e-002 9.27268565e-002
      2.69443482e-001 1.83435634e-001 -4.56781238e-002 -1.79728478e-001</_>
    <_>
      -5.99563837e-001 -2.44361788e-001 2.75820911e-001 7.11501315e-002
      -1.40921474e-001 4.17464040e-002 5.59522286e-002 7.22828507e-002
      -4.70735013e-001 2.72020996e-001 2.90145785e-001 7.65691102e-002
      -3.83381814e-001 -3.11486483e-001 -2.20789775e-001
      -3.75743300e-001 -1.52842373e-001 2.01715663e-001 -6.54976785e-001
      -4.72287178e-001 -1.78538799e-001 -1.20902903e-001 9.74420160e-002
      1.19539328e-001 2.57816374e-001 5.93945563e-001 5.80601282e-002
      2.67277241e-001 -3.71605664e-001 -4.96621996e-001 -4.54410434e-001
      -5.01148760e-001 -2.68166721e-001 -2.82122254e-001 1.27741486e-001
      4.43960786e-001 5.94201863e-001 -2.20816806e-001 -7.00000301e-002
      -1.46926343e-001 -1.91632241e-001 -4.93745178e-001
      -3.55620027e-001 -6.68624341e-001 3.76305729e-001 7.26348348e-003
      -5.35787284e-001 -1.54947028e-001 -1.08512253e-001
      -2.06469506e-001 -3.56187552e-001 -1.89786956e-001
      -2.87799299e-001 2.72925705e-001 9.05175626e-001 -2.56812960e-001
      -2.91867256e-001 -2.76411414e-001 -4.59363788e-001
      -4.75736946e-001 -4.92934436e-001 -1.01277101e+000 5.57081521e-001
      2.18241081e-001 -3.61024380e-001 -3.70544791e-001 -1.96499333e-001
      -1.70625269e-001 -1.96455196e-001 -2.85842776e-001
      -8.99273157e-001 2.52107024e-001 -2.06753433e-001 2.03342084e-003
      -8.51027742e-002 -1.87766865e-001 -3.01862419e-001 9.05144811e-002
      -9.00048167e-002 6.39048666e-002 3.46109346e-002 -3.73688161e-001
      1.31435141e-001 4.78502847e-002 5.25099859e-002 -6.89131990e-002
      3.95395219e-001 3.08315754e-001 1.34464264e-001 -2.77309358e-001
      -9.53469351e-002 2.09889531e-001 -3.17138843e-002 -1.14289984e-001
      4.60904203e-002 1.80427298e-001 -3.98541950e-002 -2.03309193e-001
      -1.44772202e-001 -9.52689722e-003 2.07589194e-001 8.57157260e-002
      1.88883886e-001 3.26217502e-001 1.76465988e-001 -1.18449889e-001
      -3.43806297e-001 -2.52656758e-001</_>
    <_>
      -3.41387978e-003 1.44587159e-001 1.36987060e-001 -6.41049892e-002
      -3.06165636e-001 -5.34736328e-002 2.07022280e-002 1.51424304e-001
      -4.03661169e-002 2.86141206e-002 -1.27963826e-001 -4.83885175e-003
      -8.26340318e-002 -1.42117754e-001 -4.24297564e-002
      -1.65676009e-002 1.47668749e-001 2.64633805e-001 -2.51023591e-001
      -3.41023415e-001 -3.66869494e-002 4.71954681e-002 -1.23225376e-001
      -6.27904087e-002 7.45993331e-002 2.06106931e-001 -3.38316038e-002
      1.72058158e-002 -3.71377647e-001 -1.94885761e-001 3.01091764e-002
      8.38581845e-003 -4.61658090e-003 4.36589234e-002 2.83875376e-001
      2.38676667e-001 -2.91349851e-002 -4.50687110e-001 -4.49453257e-002
      -2.43593343e-002 -2.84932796e-002 -4.26298240e-003
      -3.36415903e-003 8.53937268e-002 4.25918460e-001 -4.96179722e-002
      -4.21153128e-001 -4.87911020e-004 -4.67654364e-003
      -1.37380650e-002 2.82550585e-002 1.29696447e-002 1.17322206e-001
      3.48753959e-001 5.50847873e-002 -4.83299911e-001 -1.08054750e-001
      -4.90075350e-003 -2.39619296e-002 -1.27760945e-002
      -4.56976099e-003 8.16161186e-002 4.24441516e-001 -2.67376434e-002
      -3.87615502e-001 -2.53423173e-002 -3.97373037e-003 1.36373453e-002
      2.60230526e-002 2.10388191e-002 6.15392812e-002 3.81621182e-001
      -2.50638187e-001 -2.31326297e-001 -2.62497142e-002
      -2.01631058e-002 -5.56068197e-002 4.37536575e-002 6.43009469e-002
      1.97901711e-001 1.48988262e-001 -3.16056162e-001 2.49014478e-002
      1.21886691e-003 1.78289041e-002 -2.22837795e-002 8.88110995e-002
      1.59637123e-001 2.31378153e-001 -1.47587001e-001 -2.07322091e-001
      -6.97009489e-002 1.02932509e-002 1.28669292e-002 4.38263863e-002
      6.20437302e-002 7.38114044e-002 6.79255724e-002 2.22061276e-001
      -1.17387161e-001 2.28410020e-001 9.87561047e-002 5.27281128e-002
      1.17120750e-001 9.03603658e-002 8.67500082e-002 5.82848303e-002
      -1.38085857e-002</_>
    <_>
      -4.30300295e-001 4.04924303e-001 3.23097765e-001 1.50515825e-001
      -8.37423727e-002 -1.30451307e-001 -7.13711679e-002 2.59363204e-001
      -7.85656989e-001 1.73794851e-001 5.48889756e-001 2.38056406e-002
      -5.62174283e-002 -1.95465863e-001 -3.98407966e-001
      -1.72461838e-001 -2.54420638e-001 -2.78080292e-002
      -6.37177825e-001 -7.29857981e-002 2.70681060e-003 1.86867356e-001
      8.30430984e-002 -4.15940955e-002 8.68872777e-002 5.69767118e-001
      -1.24577858e-001 1.35363638e-001 -3.87256712e-001 -1.89551353e-001
      -1.23546608e-001 -1.35984853e-001 -2.52366632e-001
      -1.66805804e-001 1.60112798e-001 8.05593506e-002 4.13556844e-001
      -4.80132878e-001 -3.02596807e-001 -3.49290073e-001
      -2.73784757e-001 -2.23482057e-001 -2.32826352e-001
      -4.25019026e-001 3.16046774e-001 3.01394105e-001 -7.42268026e-001
      -6.33644879e-001 -4.20412302e-001 -2.74929792e-001
      -1.08687155e-001 -4.07928944e-001 -3.53498012e-001 5.14258206e-001
      4.63206142e-001 -5.94355881e-001 -3.24669659e-001 -3.58063459e-001
      -2.84815401e-001 -2.61264563e-001 -3.52367848e-001
      -6.12477541e-001 4.39005196e-001 3.33293527e-001 -3.60454649e-001
      -4.08524096e-001 -2.39342257e-001 -1.97138771e-001
      -1.87474057e-001 -5.34204364e-001 -1.14967036e+000 3.75194252e-001
      -1.66894421e-001 -3.04047335e-002 -1.20361023e-001
      -5.85513189e-003 -4.63234149e-002 5.05599007e-002 -4.98164408e-002
      1.73385322e-001 1.09106928e-001 -5.43530941e-001 -7.20628873e-002
      -5.49033321e-002 1.93938807e-001 9.70782563e-002 8.21241215e-002
      1.59887150e-001 1.53232470e-001 -3.26471657e-001 -5.00665046e-002
      9.96247604e-002 4.26186882e-002 6.90001100e-002 3.58045436e-002
      1.27815634e-001 -1.49619341e-001 -5.62714756e-001 -2.11576909e-001
      -2.52183825e-002 3.80169600e-002 -2.94221975e-002 1.63097486e-001
      1.71734422e-001 1.12382270e-001 -3.49956639e-002 -3.21093678e-001
      -3.55232328e-001</_>
    <_>
      -2.80094057e-001 2.64377743e-001 3.12478811e-001 1.56720221e-001
      2.33978555e-002 -9.89637896e-002 -1.83600485e-002 2.21348405e-002
      -9.60797846e-001 1.32172480e-001 3.01837116e-001 -9.50948298e-002
      -1.51732042e-001 4.52947617e-002 -1.64090376e-002 -1.75288826e-001
      -3.59047383e-001 -5.25827222e-002 -5.50545990e-001 2.06691056e-001
      1.78190306e-001 1.24632783e-001 1.54845700e-001 6.60811141e-002
      1.50025189e-001 3.32091779e-001 -3.49213362e-001 -1.40875215e-002
      -1.58663467e-001 -6.64537176e-002 2.38267500e-002 6.58983365e-002
      -6.17038086e-002 -3.83023024e-002 4.25386131e-001 1.41282259e-002
      3.23835313e-001 -4.92290676e-001 -3.27613711e-001 -4.69703764e-001
      -2.51873732e-001 -1.91266090e-001 -4.77007359e-001
      -1.12463558e+000 2.38201141e-001 5.35245597e-001 -5.78833148e-002
      -3.31628025e-001 -5.69718421e-001 -7.34912038e-001
      -6.69240952e-001 -7.22556353e-001 -9.42587495e-001 8.98042977e-001
      2.24086970e-001 -6.88596129e-001 -2.06244051e-001 -1.45156220e-001
      -1.25181690e-001 -2.79241025e-001 -2.60019332e-001
      -1.34593621e-001 2.33903661e-001 3.22452247e-001 -7.22600743e-002
      -1.78791538e-001 -1.99206010e-001 -3.30233723e-001
      -2.81347007e-001 -3.87442291e-001 -4.74395037e-001 3.07865590e-001
      2.62055881e-002 2.00598672e-001 -3.32381099e-001 -4.03133333e-001
      -3.64060402e-001 -3.78509998e-001 -3.21527660e-001 4.59524512e-001
      8.59884024e-001 -8.86067688e-001 -3.44738364e-001 -1.28872544e-001
      -7.98194930e-002 6.43161684e-002 1.09098203e-001 9.78821069e-002
      5.87155819e-001 -2.23967433e-001 -1.52659371e-001 1.43874316e-002
      -2.14947164e-002 -4.33613323e-002 -1.29670888e-001
      -1.96562316e-002 -1.17365271e-001 9.30195302e-003 -2.81019658e-002
      -2.72787541e-001 -1.63617849e-001 1.76712558e-001 1.78851292e-001
      2.50108182e-001 3.17841992e-002 1.45729080e-001 -4.12660018e-002
      -5.50365210e-001</_>
    <_>
      1.11063927e-001 -1.18171476e-001 -1.82990637e-002 7.45561421e-002
      8.96283537e-002 6.98202327e-002 4.87972088e-002 -1.47382572e-001
      -2.94671115e-003 4.86262105e-002 -4.32687044e-001 -7.21965358e-002
      6.00575916e-002 6.75019771e-002 2.61923159e-003 9.04994905e-002
      1.22320674e-001 2.69184690e-002 1.09924026e-001 5.69221042e-002
      6.35168329e-002 2.73238625e-002 4.48096767e-002 -7.32468441e-004
      -1.12142554e-002 -2.58124590e-001 -2.12501138e-002 3.43443602e-002
      -1.36667788e-001 3.89320888e-002 1.21554891e-002 5.05470522e-002
      -8.57840478e-003 6.09176531e-002 5.71528077e-002 3.32790501e-002
      -3.49192470e-002 -6.02314055e-001 -1.43200442e-001 3.70487734e-003
      1.27716316e-003 2.22363360e-002 3.32210995e-002 1.46140203e-001
      4.31759804e-001 1.79187030e-001 -5.70383966e-001 -2.04153389e-001
      -1.59114935e-002 -5.90138882e-003 6.14370182e-002 8.11065175e-003
      7.69903958e-002 5.53252935e-001 -5.77820092e-002 -5.36954284e-001
      -6.77816719e-002 6.63228147e-003 2.89019961e-002 1.72667764e-002
      5.50851375e-002 1.44322053e-001 2.35248581e-001 1.38851672e-001
      -5.32721758e-001 -6.00599051e-002 3.43771651e-002 2.42869202e-002
      8.75772350e-003 9.07663442e-003 4.60088961e-002 4.36058581e-001
      1.53456509e-001 -3.84701520e-001 -1.54070035e-001 9.38205700e-003
      -8.07820261e-003 -5.90419360e-002 3.30201554e-004 6.33583441e-002
      4.13028330e-001 -6.80972449e-003 -1.65725932e-001 6.80517852e-002
      1.40902586e-003 8.14892352e-003 -1.47700965e-001 -1.65522471e-001
      2.34151594e-002 -1.56615078e-001 3.10721725e-001 -2.82365590e-001
      2.06553880e-002 5.03226146e-002 -1.02451304e-002 -1.19713850e-001
      -5.92262484e-002 -3.27516906e-002 3.99781436e-001 6.43671453e-002
      1.46920055e-001 6.53643012e-002 3.98537796e-003 -1.25915874e-002
      -2.38066331e-001 -1.38292685e-001 -1.52253196e-001
      -1.94145352e-001</_>
    <_>
      -3.76716822e-001 7.20902383e-002 9.98372883e-002 2.04271689e-001
      3.81699532e-001 -1.28009170e-001 3.24657597e-002 -9.28577315e-003
      -5.26303530e-001 9.51260701e-002 -8.09611261e-001 -3.66317779e-001
      1.26061976e-001 4.10584360e-001 2.27921810e-002 2.54314780e-001
      5.46619713e-001 5.28144687e-002 -1.06525443e-001 2.47354761e-001
      -3.07239941e-003 2.20486633e-002 1.12587415e-001 -1.31990209e-001
      -2.40125969e-001 2.25796830e-002 1.08765766e-001 1.10993549e-001
      -4.52575445e-001 -3.95536393e-001 -9.79382768e-002 7.46653229e-002
      5.89925088e-002 5.62016331e-002 4.33389038e-001 1.35535479e-001
      -4.77256626e-002 -6.06045127e-001 -1.63457751e-001
      -3.41206905e-003 8.27168599e-002 3.16978730e-002 -4.08669449e-002
      -1.19344905e-001 1.29065469e-001 6.15261555e-001 -1.67750437e-002
      -2.35169334e-003 -1.13093078e-001 -2.42178619e-001
      -2.94034183e-002 -6.74134612e-001 -8.47720742e-001 3.51225495e-001
      2.05086797e-001 -4.95420098e-001 -2.44705230e-001 -6.80465475e-002
      -5.23494184e-002 -3.72740924e-002 -8.35716650e-002
      -2.02832937e-001 4.55059409e-001 3.86436909e-001 -7.16965348e-002
      -3.68861370e-002 -9.76474658e-002 -1.09689280e-001
      -1.28949419e-001 -5.67844868e-001 -1.13597822e+000 4.55493003e-001
      3.01464617e-001 -1.19827967e-002 4.06877585e-002 -2.87144650e-002
      -1.45692557e-001 -1.20715648e-001 -3.45872760e-001
      -5.99298656e-001 3.17019522e-001 -2.39286259e-001 -4.44056451e-001
      9.76470187e-002 -1.99290052e-001 3.00492495e-001 5.04688807e-002
      -1.92435652e-001 -4.40234035e-001 1.65765911e-001 4.86055434e-001
      7.68194050e-002 -1.12417480e-002 8.56521726e-002 8.40441063e-002
      -2.92817242e-002 -1.26932010e-001 -3.71376216e-001 6.00803852e-001
      2.47540399e-002 -5.35131693e-001 -1.18669629e-001 -1.98049359e-002
      3.21357220e-001 1.52951881e-001 7.88732544e-002 2.38651317e-002
      8.91594440e-002</_>
    <_>
      -2.44775862e-001 -2.66892850e-001 1.66673809e-001 2.35438734e-001
      3.48612726e-001 2.58538853e-002 1.76420748e-001 2.40839988e-001
      -1.13899618e-001 1.44925281e-001 -8.38742554e-001 -5.99292852e-002
      1.92455053e-001 2.78593332e-001 -2.68505327e-002 2.96290874e-001
      4.02570039e-001 2.01649055e-001 -6.97796419e-002 -1.11557906e-002
      -7.87674934e-002 4.82291616e-002 1.24883696e-001 -3.92571501e-002
      9.16367397e-002 2.91407734e-001 -1.23586869e-002 -1.23586869e-002
      -5.99438436e-002 -2.26560533e-002 2.20094230e-002 6.70817494e-002
      -2.31974833e-002 9.35405493e-002 3.80561084e-001 -1.23586869e-002
      -1.36961475e-001 -1.01585150e+000 -1.73855871e-001 4.91999723e-002
      -1.24797039e-002 -7.00093508e-002 1.51842371e-001 3.56476128e-001
      2.72926629e-001 1.35488674e-001 -7.83638239e-001 -5.01857281e-001
      -4.52171788e-002 -8.78135487e-002 -1.54233864e-003 7.05506373e-003
      -2.66062677e-001 1.71884924e-001 1.32834509e-001 -2.70841628e-001
      -8.45690221e-002 5.22328494e-003 -1.08375223e-002 4.31791553e-003
      1.02404408e-001 2.13998020e-001 2.67781526e-001 3.28080088e-001
      -3.36123914e-001 -2.55898535e-001 3.93067338e-002 -4.15092036e-002
      -1.76626083e-003 -1.07957631e-001 -8.43626797e-001 2.67781526e-001
      5.07163823e-001 -1.52258560e-001 -1.87886789e-001 1.13945112e-001
      -2.61967152e-001 -1.28523484e-001 -1.27685189e-001
      -2.20874339e-001 3.02012920e-001 4.36241738e-003 -6.78912029e-002
      3.29806022e-002 7.80422539e-002 -1.99503377e-001 -3.78346384e-001
      -4.23287213e-001 -3.86876822e-001 5.98454429e-003 3.23478788e-001
      -2.03220099e-001 -3.54198627e-002 2.42109254e-001 -2.54531410e-002
      3.72922644e-002 -2.03970999e-001 -7.95528889e-001 2.88143098e-001
      -1.03323862e-001 -4.06909734e-001 -5.81818856e-002 1.13985091e-001
      1.70972690e-001 9.06839520e-002 -2.66782075e-001 -5.61453342e-001
      -1.42539442e-001</_>
    <_>
      -6.15497589e-001 1.64244637e-001 -1.44277096e-001 -7.85242543e-002
      3.03559661e-001 1.27213329e-001 8.27829614e-002 1.00326896e-001
      5.91046885e-002 -6.09216429e-002 1.49612114e-001 -6.75383881e-002
      1.47991613e-001 2.49260545e-001 -5.09703271e-002 -1.34769887e-001
      -2.78373957e-001 7.43033364e-002 -1.78847000e-001 6.33047000e-002
      -1.66018233e-001 -2.55956084e-001 -7.89372623e-002 3.65959927e-002
      1.17606983e-001 6.72509298e-002 2.45926365e-001 1.89642280e-001
      1.62368357e-001 -8.80564973e-002 -9.13605839e-002 -4.89210300e-002
      6.05966570e-003 -4.05380666e-001 -5.68181336e-001 1.78498283e-001
      4.50896889e-001 -2.39432976e-002 -3.39274853e-001 4.53265458e-002
      -1.99680068e-002 -1.72793448e-001 -1.41026974e-001
      -4.36354786e-001 1.65726647e-001 5.24126887e-001 -1.73571110e-001
      -4.48240191e-001 -2.75210664e-002 -1.31002709e-001
      -2.23228768e-001 -2.82291204e-001 -6.14391983e-001 2.41959468e-001
      6.79350793e-001 -3.73165756e-002 -1.20140538e-001 1.22349830e-002
      -2.48108599e-002 -9.82638225e-002 -2.91371226e-001
      -7.42573500e-001 2.41815507e-001 2.09945083e-001 -5.70494495e-002
      -4.44729961e-002 5.37879802e-002 2.89626401e-002 -1.44525200e-001
      -1.82940409e-001 -7.31266320e-001 2.04157203e-001 1.81076393e-001
      -3.25093448e-001 -6.95657879e-002 -1.11699171e-001
      -4.40969318e-002 -9.71575975e-002 -1.09917030e-001
      -4.78386194e-001 3.07693899e-001 1.30306417e-002 -4.17381972e-001
      -5.96292838e-002 -1.14271946e-001 6.62517175e-002 1.11513317e-001
      -2.54966289e-001 -6.05234504e-001 3.17535400e-001 1.62473872e-001
      -3.96566838e-001 8.07799697e-002 3.95156741e-002 8.96911174e-002
      3.77556533e-002 2.13310793e-002 -2.02588856e-001 1.62473872e-001
      5.89897074e-002 -7.02950954e-001 -1.62054598e-001 -1.03625283e-002
      6.45165443e-002 1.22220948e-001 7.30940178e-002 -7.70540982e-002
      2.29501978e-001</_>
    <_>
      -5.32910526e-001 -2.03102931e-001 2.95630038e-001 2.44300917e-001
      1.29637688e-001 6.50525615e-002 -1.49576890e-003 -9.30767208e-002
      -8.25726464e-002 1.86335713e-001 -3.49713355e-001 8.36367235e-002
      7.00900406e-002 1.09525613e-001 6.87985867e-002 -2.97670197e-002
      -4.81416881e-002 1.25389233e-001 -1.30817741e-001 -2.59570003e-001
      -9.79724079e-002 -4.60267775e-002 -4.43842635e-002
      -6.54334715e-003 -2.75655746e-001 -1.85770661e-001 6.67400479e-001
      3.53065789e-001 -4.65714484e-001 -5.11570513e-001 -1.46225870e-001
      -5.32353222e-001 -9.00054798e-002 -2.43943229e-001
      -4.43538517e-001 3.44517946e-001 1.00148499e-001 -1.30648628e-001
      -6.22509941e-002 1.85861625e-002 2.12690905e-002 -8.59910995e-002
      -6.61216006e-002 -1.89997464e-001 4.34697755e-002 1.40665621e-001
      -3.62044632e-001 -1.62136704e-001 -2.10711136e-002
      -7.11394697e-002 -2.23321825e-001 -2.20102578e-001
      -3.29999298e-001 1.12595335e-001 6.83257639e-001 -1.01912625e-001
      -3.44876736e-001 -4.58279625e-002 -3.12813550e-001
      -1.35476694e-001 -2.73833543e-001 -6.58842087e-001 5.77551425e-001
      2.63710409e-001 -4.21114147e-001 -4.98840481e-001 1.19393310e-002
      -6.37968257e-002 -1.21508062e-001 -5.19898593e-001
      -9.88772869e-001 2.58583128e-001 1.29186273e-001 -2.08679825e-001
      -5.82131781e-002 -9.28015783e-002 -1.24140516e-001 3.96831241e-003
      -1.47220731e-001 -2.44953826e-001 8.81539807e-002 1.09384373e-001
      -5.26343435e-002 2.64092200e-002 1.29165966e-002 4.55666566e-003
      1.29088268e-001 -7.59776309e-002 -5.18953621e-001 5.94393648e-002
      2.65633136e-001 -4.47478205e-001 -1.51292667e-001 7.54618198e-002
      6.78048804e-002 4.71822396e-002 -1.77078664e-001 -4.76800382e-001
      3.45350981e-001 3.62436771e-001 -3.92006516e-001 -3.03649306e-001
      4.90856357e-002 1.69752911e-001 -2.34594494e-002 -2.85058171e-001
      -4.37833130e-001 1.17225915e-001</_>
    <_>
      2.76546646e-002 1.31306678e-001 6.22012615e-002 -2.22140681e-002
      -2.12542608e-001 -4.56795879e-002 5.34656346e-002 8.38303789e-002
      1.16787337e-001 -7.15564191e-003 -3.13302696e-001 2.59303898e-002
      -6.04166090e-003 -5.56034222e-002 -2.47084666e-002 9.15488601e-002
      1.50953308e-001 2.08073586e-001 -9.76660401e-002 -2.56847829e-001
      4.71654013e-002 -2.87174713e-002 -1.58463359e-001 -9.98826325e-002
      -2.12581679e-002 -2.26413067e-002 3.62621285e-002 2.30370779e-002
      -3.19497764e-001 -6.33186102e-002 9.97705385e-003 3.19728851e-002
      1.85322445e-002 9.34664756e-002 2.21452162e-001 2.46263251e-001
      -1.49562553e-001 -5.38097560e-001 -2.11270172e-002 3.11131100e-003
      2.10676827e-002 5.66917174e-002 7.85451680e-002 1.67117059e-001
      3.76438171e-001 -3.37655246e-002 -5.28767586e-001 -5.00117522e-003
      1.18798465e-002 2.32754685e-002 6.46844208e-002 1.69110745e-002
      8.61694664e-002 3.82307649e-001 1.72573365e-002 -5.37489831e-001
      -6.80838898e-002 7.24797323e-003 2.43865624e-002 3.33497301e-002
      1.09589733e-001 2.14456081e-001 4.87125725e-001 1.37664918e-002
      -4.84244287e-001 1.23505862e-002 3.09349932e-002 4.40291911e-002
      1.30690560e-002 3.44138406e-002 6.82258978e-002 4.51168060e-001
      -1.49686396e-001 -3.90568584e-001 -2.00869562e-003
      -1.09051410e-002 -1.11133484e-002 3.25158536e-002 6.64834108e-004
      5.72454259e-002 2.67618001e-001 -1.29112095e-001 7.64259323e-003
      5.99036887e-002 5.09934649e-002 2.19287332e-002 1.19901255e-001
      4.21034992e-002 6.69256896e-002 -1.30735427e-001 -9.20337960e-002
      -2.06936017e-001 1.67843550e-002 9.86823719e-003 3.91334519e-002
      -1.95212109e-004 4.01506340e-003 1.62964761e-002 4.05354172e-001
      -2.94081271e-002 1.12181418e-001 3.12198065e-002 1.79810263e-002
      4.96281236e-002 3.47914882e-002 7.62525275e-002 1.05281875e-001
      1.98615327e-001</_>
    <_>
      -5.49691677e-001 4.20563132e-001 2.75340676e-001 1.49891302e-001
      3.85010302e-001 -3.24231423e-002 1.84252243e-002 3.75450142e-002
      -4.50639457e-001 1.15306363e-001 8.33570678e-003 -7.99730793e-002
      9.41689909e-002 2.98635215e-001 -2.09215119e-001 1.50517806e-001
      4.16477695e-002 -8.08460787e-002 -1.43048316e-001 1.25680387e-001
      -1.70358866e-002 -3.59475054e-002 1.35342658e-001 -1.69415817e-001
      -1.40093118e-001 -2.17310980e-001 1.27782777e-001 9.96613353e-002
      -3.15111637e-001 -1.69600472e-001 -2.67032325e-001 1.68782547e-002
      -5.37329987e-002 -1.71610210e-002 8.39977115e-002 9.54978019e-002
      9.44803935e-003 -5.14689445e-001 -2.23401263e-001 -3.27497303e-001
      -1.51917994e-001 -2.84993406e-002 -9.47571266e-003
      -3.76955196e-002 1.05384685e-001 3.58287215e-001 -8.35272610e-001
      -5.49784601e-001 -4.41252559e-001 -1.44104764e-001
      -4.85548656e-003 -4.33111489e-001 -5.66071332e-001 3.78040761e-001
      3.05091262e-001 -4.66027796e-001 -1.96042776e-001 -3.19958776e-001
      -1.51631922e-001 -8.09745789e-002 -5.71710840e-002
      -3.28468949e-001 4.22426313e-001 4.09427255e-001 -5.65754354e-001
      -2.21489221e-001 -1.52377844e-001 -8.53928551e-002
      -2.84870356e-001 -4.65871572e-001 -1.31036544e+000 4.06060249e-001
      2.27091610e-001 -3.06094050e-001 -1.12135515e-001 1.46114483e-001
      2.18331188e-001 -5.46049438e-002 -2.37126872e-001 -1.33289576e-001
      1.50188923e-001 -1.83659807e-001 -3.64779800e-001 -8.03034008e-002
      2.07802951e-001 6.17771864e-001 -5.32085188e-002 -2.12855905e-001
      -6.10973179e-001 -7.89449215e-002 3.17973524e-001 -3.20106149e-001
      1.57144871e-002 2.03057230e-001 2.05460697e-001 -6.42347634e-002
      -2.34092787e-001 -5.87385416e-001 3.15416276e-001 5.51265106e-002
      -6.20240986e-001 -2.34876692e-001 1.31290499e-002 3.44112158e-001
      6.47275615e-003 -9.77382734e-002 -3.19323570e-001 1.14768051e-001</_>
    <_>
      -2.08378121e-001 1.92889065e-001 3.02603275e-001 3.08057159e-001
      5.34255564e-001 -1.16075240e-001 6.19376749e-002 -4.01298851e-001
      -4.61438686e-001 9.57070012e-003 -2.83465207e-001 -1.16739338e-002
      8.06730315e-002 5.42600453e-001 1.87430426e-001 1.72118977e-001
      -3.91637713e-001 -1.76772475e-001 2.35167533e-001 3.83863747e-001
      4.82947007e-002 -7.04701096e-002 2.02438861e-001 2.51795352e-003
      2.77958605e-002 -5.83160222e-001 9.77116525e-002 6.74022734e-002
      -2.60669626e-002 -4.53910977e-002 -3.49477716e-002 1.39243349e-001
      3.62274349e-002 8.69873986e-002 6.35715276e-002 1.82027388e-002
      -7.33764619e-002 -3.38335454e-001 -1.91627994e-001
      -3.77812803e-001 2.13451367e-002 1.21845640e-001 -1.22786060e-001
      -8.05601180e-001 1.32080531e-002 2.67713070e-001 -1.03006288e-001
      -1.31596506e-001 -3.68640155e-001 -4.36779320e-001
      -3.40622723e-001 -4.96749490e-001 -1.00975847e+000 5.53164065e-001
      1.50464863e-001 -4.78065699e-001 -1.02812856e-001 -1.03031106e-001
      -2.36047488e-002 -2.13203415e-001 -3.77497897e-002 3.80333625e-002
      3.13990623e-001 4.95774776e-001 -2.13525996e-001 -2.72802599e-002
      -2.23459695e-002 -2.94646710e-001 -2.82330126e-001
      -4.32135552e-001 -4.82440948e-001 3.66219848e-001 1.82400510e-001
      -2.33294800e-001 -2.10233226e-001 -8.58119950e-002
      -1.24681659e-001 -2.54746735e-001 -3.59949082e-001
      -1.34971797e-001 7.18036890e-001 -4.19856578e-001 -7.22894192e-001
      -1.57130107e-001 -9.74576026e-002 4.38794971e-001 2.74077863e-001
      -2.72332877e-001 -1.48311898e-001 1.70230106e-001 3.68894517e-001
      -4.17111397e-001 4.08042595e-002 1.68265492e-001 -1.75763518e-001
      -1.23778909e-001 -3.40805471e-001 -9.11388621e-002 5.38729012e-001
      -5.56945093e-002 -7.94994473e-001 5.90773579e-003 7.87319615e-002
      2.02654392e-001 -2.65022051e-002 5.80625199e-002 -8.71782601e-002
      -9.30223390e-002</_>
    <_>
      -5.93914539e-002 -3.33540775e-002 -2.44997099e-001
      -8.97847638e-002 1.44709414e-002 -1.20237172e-002 1.21710403e-002
      2.87799984e-001 9.73794684e-002 6.76571056e-002 1.22913010e-001
      -1.30939752e-001 -1.09072082e-001 -7.43470639e-002
      -4.00792528e-003 -1.17453203e-001 8.40596110e-002 8.65204334e-002
      -4.52559255e-002 -5.82671724e-002 -1.34013668e-001
      -2.27743462e-002 -6.16299026e-002 -7.44265020e-002
      -1.14764296e-001 1.94382071e-001 1.89559206e-001 8.48410558e-003
      1.70083251e-002 -1.45324036e-001 -7.44518489e-002 -6.52080327e-002
      -1.19898496e-002 -1.99152842e-001 -1.22091342e-002 3.99062447e-002
      -9.08952439e-004 4.56009656e-001 1.52363062e-001 -1.08922109e-001
      -6.42464533e-002 -1.11345984e-001 -1.72406971e-001
      -1.86947793e-001 -2.91916847e-001 -2.26709191e-002 6.87538803e-001
      4.33555812e-001 2.33798213e-002 -5.60168400e-002 -3.10665756e-001
      -4.14725661e-001 -3.82003069e-001 -3.81278098e-001 5.15034012e-002
      4.50915843e-001 1.17504112e-001 -9.16607827e-002 -7.03155622e-002
      -1.72274679e-001 -1.89476684e-001 -2.80610681e-001
      -1.88714221e-001 -3.03258121e-001 4.37278569e-001 2.64733732e-001
      -5.07466123e-002 -1.10600963e-001 -2.91185766e-001
      -3.78532410e-001 -5.60445666e-001 -4.74309474e-001 6.41962290e-002
      5.77186346e-001 3.75034988e-001 1.15581192e-001 5.17551899e-002
      -1.39026627e-001 -2.70344108e-001 -3.02613616e-001
      -1.74653500e-001 7.66647831e-002 1.59761369e-001 -4.76821065e-002
      9.57062989e-002 2.05992505e-001 8.12152103e-002 -1.48617566e-001
      -2.84419775e-001 1.83689952e-001 -2.98811466e-001 2.64668941e-001
      6.66586608e-002 2.70553306e-002 1.17799684e-001 2.24713087e-002
      -4.10347730e-002 -2.18102425e-001 -3.04603875e-001
      -3.61465253e-002 -1.97961122e-001 -2.77777553e-001 8.80571455e-003
      2.08397284e-001 2.79353499e-001 1.62413210e-001 1.99167550e-001
      1.91450939e-001</_>
    <_>
      -2.96456069e-001 -3.56976777e-001 1.11377724e-001 1.04575753e-001
      3.13564301e-001 1.27185062e-001 1.76660746e-001 5.98184407e-001
      2.71965057e-001 8.51148516e-002 -2.37163603e-002 5.68586923e-002
      6.25321716e-002 1.71168491e-001 -1.09429630e-002 -1.30258286e-002
      2.36066714e-001 3.59540254e-001 -3.65633190e-001 -5.48382640e-001
      -2.48551115e-001 -7.84266591e-002 5.43740839e-002 -1.97555926e-002
      1.50110811e-001 7.35876322e-001 -3.33763957e-002 -2.37163603e-002
      -2.02828180e-002 6.33477643e-002 -6.58633374e-003 -2.66690664e-002
      -2.68243790e-001 -1.68428019e-001 2.32970640e-001 -2.37163603e-002
      1.14295119e-002 1.54119715e-001 8.34403411e-002 1.38447387e-002
      -2.41357293e-002 -1.02026559e-001 -4.39104028e-002
      -8.07934627e-002 -2.33746141e-001 -1.22492738e-001 1.71010166e-001
      2.02127591e-001 1.77074280e-002 -6.73774183e-002 -7.55735859e-002
      -1.60176441e-001 -3.43861729e-001 -5.65854371e-001 1.51498318e-002
      5.47330141e-001 2.03404367e-001 -3.31697650e-002 -8.12147558e-002
      -2.17234015e-001 -1.17677644e-001 -1.84671074e-001
      -3.88379484e-001 -1.97461948e-001 3.83252561e-001 3.81457992e-002
      -2.74036638e-003 -1.45409768e-002 -8.84166639e-003
      -5.54638691e-002 -4.47063446e-001 -6.63672268e-001 7.77439177e-002
      5.72428763e-001 3.45252514e-001 3.30370963e-002 -1.07958958e-001
      -3.82018499e-002 -1.98976338e-001 -2.86720425e-001
      -2.58509427e-001 2.48693720e-001 4.21595931e-001 5.54291755e-002
      9.63564683e-003 4.41673510e-002 3.01929004e-002 3.98089588e-002
      -3.02785844e-001 -1.15311965e-002 -3.19531173e-001 2.48596519e-001
      -2.28852592e-002 2.77017318e-002 -8.04173946e-003 2.12899804e-001
      -2.82397214e-002 -3.16849709e-001 -5.00249803e-001
      -1.31427303e-001 -2.77183145e-001 -1.25281084e-002
      -4.80057225e-002 9.31702182e-003 2.82783478e-001 -4.67029512e-002
      -1.68585449e-001 8.29223264e-003</_>
    <_>
      -2.70885408e-001 3.54129039e-002 1.05178710e-002 3.93391645e-004
      3.49872112e-002 4.42170985e-002 4.82944958e-002 2.18113482e-001
      8.03911090e-002 -1.12650089e-001 3.14513713e-001 6.86432719e-002
      -1.51508516e-002 1.85519375e-003 1.40447440e-002 -1.24994025e-001
      -6.09079637e-002 -9.16538388e-002 -1.79779723e-001
      -1.15374804e-001 -1.67637676e-001 -1.01117432e-001
      -8.58099312e-002 2.57437769e-005 9.49486196e-002 2.45655850e-001
      1.58579037e-001 1.15626484e-001 1.77489385e-001 -3.06218322e-002
      -9.68506634e-002 -1.10449314e-001 -9.91638154e-002
      -2.19602615e-001 -1.49024919e-001 1.69200569e-001 1.04639567e-001
      4.24679458e-001 8.53992477e-002 -4.82814722e-002 -6.45705834e-002
      -9.15099680e-002 -1.08739778e-001 -2.17094779e-001
      -2.77315319e-001 -4.68374667e-004 3.26763839e-001 7.87272006e-002
      -5.03403582e-002 -7.70427510e-002 -1.16654843e-001
      -1.48438126e-001 -2.34282687e-001 -3.14310044e-001 3.22209179e-001
      4.51640218e-001 1.15115739e-001 -6.74680993e-002 -1.22392118e-001
      -2.10098773e-001 -2.25981623e-001 -3.56292933e-001
      -3.49600688e-002 -1.09904654e-001 3.80586356e-001 1.43689066e-001
      3.66805233e-002 -5.74182197e-002 -1.45919874e-001 -1.56163245e-001
      -3.51328015e-001 -3.57933491e-001 -7.95388967e-003 2.67329603e-001
      1.80300027e-001 -4.02439898e-003 4.79551069e-002 3.87130342e-002
      -8.56369585e-002 -1.92925856e-001 -1.49630323e-001 2.48710625e-002
      1.60614684e-001 -9.92488675e-003 7.71816596e-002 1.43654183e-001
      1.40018001e-001 -4.14959900e-002 -2.23991007e-001 9.48698521e-002
      -2.33606637e-001 1.16112687e-001 8.23869929e-002 4.51006256e-002
      1.25696555e-001 7.78461024e-002 4.67844075e-003 -1.60038993e-001
      -3.02869916e-001 -1.08710796e-001 -2.24514201e-001
      -1.05830863e-001 5.15897851e-003 8.80040675e-002 2.06332013e-001
      6.15346208e-002 1.24298325e-002 9.40729380e-002</_>
    <_>
      -1.93171233e-001 -1.77523732e-001 -1.22777350e-001 2.57141273e-002
      3.80335450e-002 1.66438718e-003 1.01501448e-002 1.45528644e-001
      1.79760456e-001 -4.07344848e-002 1.58933669e-001 1.25528738e-001
      -7.15287924e-002 -5.51380739e-002 -6.89870492e-002
      -9.28398073e-002 -1.44010961e-001 1.95355434e-002 -8.78583193e-002
      -2.48840228e-001 -2.18975127e-001 -1.45551786e-001
      -6.02597035e-002 8.07720050e-003 -6.84798695e-003 1.42065823e-001
      1.63368955e-001 1.76935256e-001 2.77691185e-002 -9.89421010e-002
      -1.68138221e-001 -2.45800987e-001 -7.26683140e-002
      -1.23038217e-001 -1.08190119e-001 1.65596172e-001 4.41993140e-002
      4.75450993e-001 2.88882703e-001 -4.52047922e-002 -3.33954021e-002
      -1.45666793e-001 -1.36117175e-001 -2.81614393e-001
      -3.69633347e-001 -1.62871763e-001 3.74640226e-001 3.07326823e-001
      1.95256639e-002 -4.56406884e-002 -1.12921216e-001 -2.40230665e-001
      -3.87411118e-001 -5.52858949e-001 2.43594170e-001 5.01579165e-001
      1.78003415e-001 -1.05666123e-001 -1.63828582e-001 -1.59101576e-001
      -1.87952563e-001 -3.84437680e-001 -1.01519287e-001
      -1.80508196e-001 3.42691302e-001 9.98387262e-002 -4.00608703e-002
      -6.87461272e-002 -9.71267149e-002 -2.03045025e-001
      -3.88213038e-001 -4.60184008e-001 3.27140838e-002 3.68542939e-001
      2.26238534e-001 1.22533850e-002 -6.96355402e-002 1.66011248e-002
      -2.31741324e-001 -3.52437675e-001 -3.13095003e-001 1.97856814e-001
      2.74027437e-001 1.50683224e-002 8.01734850e-002 1.00615866e-001
      1.30541161e-001 -3.61951515e-002 -1.96545824e-001 2.28514880e-001
      -2.37161741e-001 2.04612404e-001 -1.19715109e-002 -9.91894398e-003
      6.41937405e-002 5.49734011e-002 -9.45417657e-002 -1.39137924e-001
      -2.92979658e-001 9.14627090e-002 -9.09012705e-002 -2.14165360e-001
      3.15020196e-002 8.89493227e-002 1.87247247e-001 3.79959531e-002
      7.95015320e-002 2.75250107e-001</_>
    <_>
      4.09832504e-003 3.93303931e-001 1.83816001e-001 -1.39943600e-001
      -5.80683112e-001 -1.94724098e-001 -4.44030687e-002 4.14684236e-001
      3.67224872e-001 -1.13574430e-001 -3.14093642e-002 4.01629023e-002
      -1.16566084e-001 -1.65682346e-001 -5.96098006e-002
      -7.65961856e-002 1.10268384e-001 3.92500699e-001 -4.48728174e-001
      -7.24308729e-001 -1.08750664e-001 -6.35999739e-002
      -3.61290127e-001 -1.22876942e-001 7.05894735e-003 5.35278618e-001
      2.03008801e-001 8.57482606e-004 -4.73313063e-001 -3.13820183e-001
      -2.77457461e-002 -4.58417460e-002 2.50464361e-002 3.14292088e-002
      2.79355913e-001 5.25198460e-001 -2.61476487e-001 1.44518316e-002
      1.75515339e-001 -2.30160318e-002 4.65528145e-002 3.08831260e-002
      -1.93248491e-003 6.28069416e-003 7.60890990e-002 -4.50452179e-001
      1.83504838e-002 4.25561100e-001 4.84544188e-002 3.40766013e-002
      8.54487065e-003 -2.07943656e-002 -5.78372227e-003 -1.71959013e-001
      1.20069414e-001 -5.05288094e-002 -2.64525358e-002 -2.72973944e-002
      -2.25082748e-002 -1.26832556e-002 -1.57604634e-003 5.10049909e-002
      3.54276389e-001 -3.59405398e-001 3.92967835e-002 2.31810868e-001
      1.98954041e-003 3.39420736e-002 -5.93136624e-003 -7.11623952e-003
      1.27809178e-002 -2.62670871e-002 -4.36367571e-001 -8.21113586e-002
      3.31888199e-001 3.41574512e-002 -1.71890408e-002 1.38109624e-001
      -6.56811381e-003 3.23408395e-002 -2.23679423e-001 -2.38587946e-001
      1.69339761e-001 -4.70749289e-002 7.97918364e-002 2.34531239e-001
      3.95590395e-001 2.50359714e-001 1.36314288e-001 -2.35714745e-002
      -6.56683683e-001 1.92129880e-001 1.10978507e-001 5.85167892e-002
      2.44246215e-001 2.13097140e-001 1.03547640e-001 1.12897106e-001
      -9.03033763e-002 -2.28565335e-001 -5.03140427e-002
      -9.13728029e-002 1.09224185e-001 3.89922291e-001 5.64849615e-001
      3.42391551e-001 4.25137579e-001 4.40477401e-001</_>
    <_>
      -2.52179801e-001 -1.17302630e-002 5.70322610e-002 -1.07768467e-002
      2.81255879e-002 -2.93749087e-002 4.38544489e-002 3.00554037e-001
      9.42837223e-002 -3.61241177e-002 4.76833701e-001 1.58682585e-001
      -2.43759621e-002 7.90935531e-002 -6.66859075e-002 -1.93310887e-001
      -3.44460875e-001 -9.42414701e-002 -1.39040872e-001
      -1.89523354e-001 -1.09823532e-001 -6.25405535e-002
      -1.27141044e-001 -1.75560445e-001 -1.44570814e-002 1.39807567e-001
      1.52716547e-001 4.47948575e-002 -2.66912654e-002 -3.00669633e-002
      -1.62785858e-001 -8.50336403e-002 -2.42600888e-002
      -1.56632349e-001 -1.99454710e-001 5.59398495e-002 9.12073702e-002
      5.06488681e-001 1.80450454e-001 -1.37336656e-001 -3.23980600e-002
      -1.29155248e-001 -2.10512504e-001 -2.90449589e-001
      -4.29364502e-001 -1.55240759e-001 3.63704413e-001 1.82149023e-001
      -8.83591995e-002 6.53560366e-003 -1.65118858e-001 -3.54274184e-001
      -3.38911265e-001 -4.81220543e-001 1.38683274e-001 4.08968300e-001
      1.86991632e-001 -1.59957409e-001 -1.16194546e-001 -1.80580333e-001
      -2.73541987e-001 -3.56603503e-001 -2.04507232e-001
      -2.43996322e-001 3.47171247e-001 1.80667177e-001 -5.39354049e-002
      -6.71400353e-002 -2.22474441e-001 -3.56628954e-001
      -6.33072734e-001 -5.49076736e-001 2.75446079e-003 4.96702433e-001
      2.87970960e-001 5.77040948e-002 1.82652175e-001 -1.89477205e-002
      -2.62218028e-001 -3.43020350e-001 -3.57632071e-001 2.17689425e-001
      3.99154902e-001 -3.83694703e-003 4.13131118e-002 2.29466364e-001
      1.26306921e-001 -1.06478386e-001 -1.81187198e-001 1.46729037e-001
      -3.34840775e-001 1.45380482e-001 -5.38639650e-002 -2.75052488e-002
      1.74838275e-001 8.38816017e-002 -6.74739853e-002 -2.75023848e-001
      -3.59862715e-001 1.03786357e-001 -1.97826385e-001 -3.08751613e-001
      -4.72747907e-002 7.52007142e-002 2.55530536e-001 1.00482069e-001
      1.05680011e-001 3.22969735e-001</_>
    <_>
      -1.67498693e-001 4.87913936e-002 6.01709075e-002 1.52029553e-002
      1.29519835e-001 6.40930189e-003 -8.64024758e-002 1.81372777e-001
      2.03505158e-001 3.38830203e-002 4.17827725e-001 1.63055345e-001
      7.24998266e-002 1.64080814e-001 -2.70284293e-003 -1.47814333e-001
      -3.77920151e-001 -2.00066864e-001 2.99258865e-002 -1.01426035e-001
      -1.07049920e-001 -1.05624020e-001 -2.55033839e-002 4.57900530e-003
      -3.09483111e-002 5.47670992e-003 1.01761200e-001 4.97284867e-002
      1.91436604e-001 4.13951976e-003 -3.19550410e-002 1.26590813e-003
      -3.76808271e-002 -7.43348524e-002 -2.83903569e-001
      -4.42536399e-002 5.90513796e-002 6.23745501e-001 3.39639634e-001
      -5.11133522e-002 3.44171515e-003 -1.50827691e-001 -2.93450087e-001
      -5.78412533e-001 -5.75385690e-001 -1.81506753e-001 5.79207242e-001
      2.20100865e-001 -9.69320089e-002 -1.32505268e-001 -2.42322385e-001
      -4.09777254e-001 -4.51887190e-001 -3.86153668e-001 6.91180751e-002
      5.54666698e-001 2.71476030e-001 -7.28840232e-002 -3.78339253e-002
      -2.41132110e-001 -1.88224241e-001 -3.00681442e-001
      -3.51616383e-001 -1.97463393e-001 4.24071819e-001 1.67337894e-001
      -1.09260060e-001 -1.36514142e-001 -2.35345677e-001
      -2.18453541e-001 -2.54030734e-001 -4.44450706e-001
      -3.02399006e-002 3.01071733e-001 5.08507714e-002 -6.97863549e-002
      -6.14921860e-002 -8.86204615e-002 -2.81705588e-001
      -1.33153707e-001 -1.42516628e-001 1.90027326e-001 2.34985188e-001
      -1.63429618e-001 -5.52803930e-003 2.31594071e-001 1.46874249e-001
      5.87184578e-002 -4.93715741e-002 3.40344250e-001 -4.47798848e-001
      -1.01652350e-002 -1.61489546e-001 -6.94017708e-002 1.60402488e-002
      4.52335812e-002 -3.64060514e-003 6.45849109e-002 -1.19662084e-001
      1.00040823e-001 -4.12395298e-001 -3.12646657e-001 4.07735333e-002
      2.27604941e-001 1.40007749e-001 1.36584282e-001 1.74360901e-001
      4.60962623e-001</_>
    <_>
      -2.55376399e-001 -7.67733872e-001 3.73217911e-001 2.45591715e-001
      2.37376913e-001 3.80713075e-001 3.54922980e-001 6.04126930e-001
      2.46570304e-001 5.40147163e-002 -3.12505186e-001 4.24046367e-001
      2.75127888e-001 6.55888841e-002 -1.79985240e-002 2.14607015e-001
      1.41460404e-001 9.73988995e-002 -9.35504064e-002 -1.96734816e-001
      -6.21570870e-002 8.71618912e-002 8.62410516e-002 1.20172523e-001
      3.79123986e-001 7.69763887e-001 -2.19285771e-001 -1.11442216e-001
      7.14198649e-001 4.25866753e-001 1.61296427e-001 5.66230603e-002
      -2.75737315e-001 3.58172879e-002 1.63080350e-001 -1.20770022e-001
      3.09477141e-003 -9.10473049e-001 -1.16033301e-001 1.44240558e-001
      -2.05033958e-001 -2.60084331e-001 2.08675489e-001 5.87687612e-001
      1.91244587e-001 -2.17613548e-001 -1.42816460e+000 -7.65481234e-001
      1.36376634e-001 -1.99201144e-002 8.06835592e-002 8.09960008e-001
      3.83847296e-001 -8.66738558e-002 -7.99834728e-003 5.41936159e-001
      1.84719399e-001 4.85759303e-002 5.77141577e-003 -1.28070712e-001
      2.48011321e-001 4.51130718e-001 -8.79013538e-002 1.18610986e-001
      -4.51152027e-001 -2.87727147e-001 1.01011045e-001 1.02273440e-002
      2.07910120e-001 7.85754740e-001 2.81919446e-002 -8.20775703e-002
      5.11486590e-001 -3.30037326e-001 -2.71632105e-001 1.52816668e-001
      -3.55556577e-001 -1.82809010e-001 1.69870168e-001 3.94278139e-001
      3.44792366e-001 2.30044082e-001 3.29535007e-001 8.23664740e-002
      3.80736142e-001 -6.46455646e-001 -8.30691695e-001 -1.80905446e-001
      5.98668493e-003 -3.31829309e-001 -6.25589043e-002 -4.66940105e-001
      -7.97665119e-003 1.77821204e-001 -1.33518711e-001 1.14110373e-001
      2.31216595e-001 -5.25817931e-001 -1.59233034e-001 -2.32790280e-002
      9.39821303e-002 2.52953649e-001 2.23170698e-001 -1.05979495e-001
      -3.42250504e-002 -1.82645813e-001 -4.48753715e-001
      -2.74302304e-001</_>
    <_>
      -5.25534153e-001 2.07812220e-001 1.13275886e-001 -1.01190001e-001
      -2.76261140e-002 1.89405859e-001 1.82398438e-001 2.40470797e-001
      4.93003190e-001 -3.58322859e-001 9.75531220e-001 4.18305874e-001
      9.09382999e-002 1.83376539e-002 -3.87814976e-002 -2.44620025e-001
      -5.48189163e-001 -2.44296834e-001 -2.35873476e-001
      -2.75335312e-001 -2.91278481e-001 -4.26769555e-001
      -3.28309715e-001 1.29573286e-001 4.20704633e-001 5.79158843e-001
      3.43498796e-001 3.05848509e-001 6.26734436e-001 2.17557147e-001
      -1.58472240e-001 -3.28234583e-001 -3.67733657e-001
      -6.91457093e-001 -8.84471893e-001 3.56645495e-001 4.95122582e-001
      6.05472386e-001 -7.24508464e-002 4.85954694e-002 -1.29101828e-001
      -1.66204751e-001 -1.67960942e-001 -4.53158677e-001
      -1.37814015e-001 6.40351251e-002 -1.62392795e-001 -5.06381631e-001
      -6.01828564e-003 -8.58717859e-002 -7.08869025e-002 3.55732381e-001
      1.91043727e-002 -1.11619636e-001 8.74408126e-001 7.43241906e-001
      2.02333882e-001 -1.74407347e-003 -2.40278497e-001 -3.07652026e-001
      -5.54527640e-001 -8.26919794e-001 1.39340490e-001 5.45068048e-002
      1.99321315e-001 -4.14218102e-003 1.71204478e-001 2.64470093e-002
      3.31833288e-002 2.75844604e-001 -6.14808593e-003 -1.78893849e-001
      -6.49178475e-002 -2.25248322e-001 -7.80599415e-002 1.78664494e-002
      1.53323293e-001 1.31104991e-001 3.77907276e-001 1.32367447e-001
      6.18624315e-002 -5.84741086e-002 -7.00204968e-002 -1.61444351e-001
      1.48848996e-001 3.10639497e-002 2.09103659e-001 1.82721931e-002
      -1.94788322e-001 6.23229221e-002 -2.59364843e-001 -2.71788359e-001
      1.01482518e-001 1.72771975e-001 1.32334009e-001 1.60358965e-001
      3.54964137e-001 1.00241259e-001 -3.28159332e-001 -3.23747724e-001
      -3.25118214e-001 -1.09111011e-001 2.18808621e-001 -9.95713025e-002
      1.06382422e-001 4.35883626e-002 -9.62788910e-002 -1.00944929e-001</_>
    <_>
      -1.19091995e-001 -5.28605461e-001 1.60171658e-001 1.48026779e-001
      -2.67872632e-001 9.30796415e-002 -3.58491428e-002 -2.10451588e-001
      8.71232271e-001 -5.14776893e-002 3.92677337e-001 8.41222942e-001
      -9.60100219e-002 -4.35055614e-001 -2.08615571e-001
      -3.45188498e-001 -8.33726823e-001 4.04981039e-002 2.94327319e-001
      -5.99642456e-001 -2.96434969e-001 -3.54788184e-001
      -2.88175821e-001 1.43172652e-001 1.02497553e-002 -3.19447875e-001
      5.97957432e-001 7.62053132e-001 3.19084376e-001 1.29587874e-001
      -3.36822689e-001 -1.10556042e+000 -4.63028938e-001
      -4.29832578e-001 -1.11725724e+000 5.17146587e-001 2.89739549e-001
      5.56439221e-001 5.80902100e-001 -2.90137753e-002 -1.22724123e-001
      -2.01766625e-001 -1.54740125e-001 -3.72171819e-001
      -2.51373172e-001 -1.04694581e+000 -6.98834121e-001
      -2.01833807e-002 1.56243131e-001 3.93607646e-001 1.55961305e-001
      5.25512218e-001 2.36101467e-002 -9.29441690e-001 9.93381619e-001
      9.19458747e-001 3.85760248e-001 -8.31000581e-002 -4.52087581e-001
      -8.00335035e-002 -2.85033494e-001 -8.10359716e-001 2.48191714e-001
      -2.09429383e-001 -3.02761406e-001 -4.17568326e-001 8.43561664e-002
      3.16001356e-001 4.83630210e-001 5.62326968e-001 3.02861273e-001
      -3.80814612e-001 -5.00317693e-001 -3.10909152e-001
      -3.26119252e-002 3.84333208e-002 9.38143805e-002 3.84088784e-001
      3.21168214e-001 1.13804944e-001 -6.54889941e-001 3.67651045e-001
      3.16160947e-001 -5.04953414e-002 2.99281210e-001 -2.69930840e-001
      1.85202703e-001 2.61939675e-001 7.61941448e-002 -3.72467265e-002
      -1.30440950e-001 -4.05977160e-001 -4.37396858e-003 1.48081496e-001
      9.08940732e-002 1.74187288e-001 2.73594260e-001 3.09965998e-001
      -2.25880831e-001 2.94448435e-001 2.75387436e-001 -1.68510050e-001
      5.17854393e-001 -1.56085238e-001 -2.53999382e-001 -3.05063099e-001
      -2.54618496e-001 -9.49055795e-003</_>
    <_>
      9.78965759e-002 6.05755076e-002 1.93214729e-001 -6.74749613e-002
      -3.69940311e-001 -3.81909013e-002 1.52802328e-002 7.05145253e-003
      2.29265094e-001 -7.62153417e-002 -1.73319861e-001 1.51259795e-001
      -2.42008474e-002 -1.17728442e-001 -1.83784589e-002 1.87247917e-002
      -2.77175121e-002 2.30379373e-001 -1.24972381e-001 -4.30096537e-001
      -2.98524313e-002 -1.12796668e-002 -1.73475668e-001
      -6.36944361e-003 1.72223479e-001 3.69816758e-002 4.21821959e-002
      5.65973204e-003 -2.28794441e-001 -3.17327008e-002 5.22668064e-002
      2.06786618e-002 2.82024927e-002 1.41241148e-001 1.23423226e-001
      2.76220798e-001 -1.67677581e-001 -3.90208334e-001 7.92591870e-002
      3.70218940e-002 2.10296419e-002 4.70442027e-002 7.76251629e-002
      1.29546702e-001 3.47461313e-001 -2.39714131e-001 -5.37787735e-001
      3.70751172e-002 4.62829247e-002 8.38065371e-002 1.39309421e-001
      2.19275743e-001 2.31720105e-001 2.67021298e-001 1.25755416e-002
      -3.34121168e-001 4.62535471e-002 5.21137640e-002 3.23558524e-002
      5.49640283e-002 1.18077457e-001 2.31806502e-001 3.53174299e-001
      -1.44982174e-001 -4.53576475e-001 1.07784206e-002 5.66531457e-002
      1.07385494e-001 1.42279953e-001 3.10923815e-001 4.32915539e-001
      2.97885358e-001 -2.95987755e-001 -4.78241503e-001 -4.77825217e-002
      -4.55780886e-003 6.07635919e-003 1.38650298e-001 1.30036280e-001
      2.10688069e-001 8.71695653e-002 -1.71236858e-001 -8.79445374e-002
      -8.61324221e-002 -2.13618812e-004 -1.66058838e-002 1.03106715e-001
      1.73161417e-001 2.91173339e-001 -1.32952258e-001 -2.31367320e-001
      -2.07718953e-001 8.64447467e-003 3.24167609e-002 7.64068514e-002
      8.16233158e-002 1.12988338e-001 2.48371363e-001 2.18793273e-001
      -1.97203122e-002 2.90556312e-001 1.83875337e-001 8.73323381e-002
      8.04631934e-002 3.07964422e-002 5.74729592e-002 1.19060084e-001
      1.03068538e-001</_>
    <_>
      -6.22760594e-001 4.17885959e-001 5.75875461e-001 1.72691196e-001
      -2.60609716e-001 2.05875739e-001 1.33925989e-001 1.02920104e-002
      1.04524933e-001 -5.96139371e-001 1.58460987e+000 8.14560056e-001
      5.83737493e-001 6.85568899e-002 -3.28765392e-001 -3.57901216e-001
      -1.18038166e+000 -8.64278555e-001 5.93817122e-002 2.49389559e-001
      8.30041766e-002 -1.71375703e-002 -2.79154360e-001 -8.84976704e-003
      3.44785959e-001 -3.48020315e-001 -2.44122222e-002 8.26270040e-003
      4.80611861e-001 4.96367037e-001 -5.12433425e-002 -1.05065286e-001
      -2.81477809e-001 -8.78288150e-002 -6.96273983e-001
      -1.96613017e-002 2.45370477e-001 5.69421887e-001 2.55550183e-002
      -3.18909615e-001 -2.08097994e-001 -1.43691957e-001
      -3.73155504e-001 -5.03149331e-001 -2.56076157e-001
      -8.17596316e-001 -1.83260918e+000 -1.39104450e+000
      -6.44030750e-001 1.95930168e-001 4.75572079e-001 4.56265569e-001
      4.60679412e-001 1.18360110e-001 3.20393890e-001 5.62298715e-001
      1.60104439e-001 -3.40454102e-001 -1.25107542e-001 -8.31744969e-002
      -2.13587612e-001 -7.29788691e-002 7.30490610e-002 1.84171155e-001
      -5.36524236e-001 -6.28510475e-001 -2.60138035e-001 1.37958705e-001
      1.81581780e-001 5.77369630e-001 1.17549933e-001 6.60449117e-002
      -6.04434729e-001 -8.28398108e-001 -4.13357377e-001 5.93414344e-002
      4.05167907e-001 1.51807159e-001 1.64165184e-001 5.21064222e-001
      -5.28376102e-001 5.77143610e-001 1.02919184e-001 -2.22245101e-002
      4.17615622e-001 -3.55491899e-002 -3.61584932e-001 -5.05791306e-002
      2.72578329e-001 -1.62233084e-001 -1.45287022e-001 -5.60459912e-001
      -2.72741973e-001 5.21038957e-002 1.16140209e-001 1.18845310e-002
      1.46264285e-001 2.54172385e-001 -2.24143699e-001 3.94695133e-001
      6.53992891e-002 -2.11068168e-001 4.71445620e-001 -3.56165290e-001
      -2.38006517e-001 -1.57343492e-001 1.81027919e-001 4.49800044e-001</_>
    <_>
      -2.68401563e-001 -1.91176031e-002 4.96622682e-001 3.51722628e-001
      2.51144856e-001 2.55926102e-001 2.20709369e-001 -1.35602402e-002
      3.99046898e-001 -5.04569769e-001 9.87380803e-001 9.07622397e-001
      4.50730294e-001 3.52809817e-001 2.92556405e-001 2.01069750e-002
      -1.31863320e+000 -8.37435722e-001 4.48462456e-001 2.44020566e-001
      1.92248836e-001 -2.10932553e-001 -1.27957076e-001 1.54952198e-001
      3.81941199e-001 -8.27008307e-001 1.44077381e-002 -1.62077576e-001
      5.56996763e-001 7.60986030e-001 1.68251261e-001 -4.58979532e-002
      -1.32033452e-001 -7.62756616e-002 -9.08112407e-001
      -2.35793293e-001 1.43243462e-001 8.20437610e-001 2.61269718e-001
      -2.43882835e-001 -1.63063724e-002 7.88651854e-002 -2.51372904e-001
      -1.42209291e+000 -5.87414801e-001 -2.44442999e-001
      -4.37354483e-002 -2.40308166e-001 -2.71221846e-001
      -2.92747378e-001 -1.78320676e-001 3.34973931e-001 -3.73938709e-001
      1.12681314e-001 1.44268339e-002 -2.14777011e-002 1.39300033e-001
      -1.90704405e-001 -3.21977735e-002 -2.79842019e-001 9.71006975e-002
      1.08439840e-001 -1.67201638e-001 3.48416269e-001 -1.67078182e-001
      -2.05315411e-001 -2.52112299e-001 -4.87780720e-001
      -3.18475634e-001 5.13708830e-001 1.15392089e+000 2.33627155e-001
      -2.57564217e-001 -4.21522558e-001 -4.63007152e-001
      -8.47396106e-002 -6.70448840e-002 3.02567314e-002 7.06506521e-002
      6.06716812e-001 3.25804174e-001 -1.59423739e-001 -8.32868216e-004
      -3.17015558e-001 2.59873956e-001 1.90058544e-001 8.43838509e-003
      -2.16107070e-001 2.07039148e-001 -2.16917962e-001 -1.64440438e-001
      -8.91947269e-001 -1.25865757e-001 2.84488872e-002 -5.82334995e-001
      -3.59368265e-001 -2.12970510e-001 7.33314276e-001 2.96149343e-001
      -1.36061221e-001 -2.75172859e-001 -2.19779208e-001 3.96459997e-001
      -2.10896432e-001 -6.76577032e-001 -2.97585309e-001
      -9.94745567e-002 -5.86900152e-002</_>
    <_>
      -2.30295226e-001 5.25560260e-001 -1.43342897e-001 -2.44989678e-001
      -1.39721781e-001 -2.60838773e-002 -6.35645911e-002
      -5.08509241e-002 3.30595911e-001 -2.38017529e-001 8.47362638e-001
      1.40050203e-001 -7.83301964e-002 -6.61995113e-002 -3.41315642e-002
      -3.27407867e-001 -4.85047758e-001 -1.19333945e-001
      -1.28154844e-001 -1.20900944e-001 -1.87901989e-001
      -3.06396008e-001 -2.55355269e-001 -1.59736164e-003
      -5.52877896e-002 -1.10285595e-001 4.25501585e-001 1.74710661e-001
      -3.03388806e-003 -1.12629160e-001 -1.49808109e-001
      -1.70709208e-001 -1.20495021e-001 -6.27354264e-001
      -8.63715827e-001 2.77866781e-001 3.22070956e-001 8.59530509e-001
      7.68069625e-002 -2.21181586e-002 -3.76753807e-002 -5.24450876e-002
      -2.66914099e-001 -4.90150243e-001 3.05189155e-002 2.07639247e-001
      5.23425400e-001 1.72408298e-002 -1.78255104e-002 -6.07278310e-002
      -1.93642810e-001 -1.22501120e-001 -3.82665955e-002 3.29913422e-002
      5.32667935e-001 6.38747513e-002 -8.36709142e-002 1.65976491e-002
      -1.02856666e-001 -2.17879891e-001 -4.51496720e-001
      -7.55072176e-001 5.55449948e-002 -1.01161160e-001 2.12122306e-001
      -2.42656432e-002 1.17245885e-002 -3.58444639e-002 -2.36533701e-001
      -2.37711772e-001 -9.60709304e-002 -4.25327197e-002
      -1.75710320e-001 2.25460529e-002 5.78966103e-002 2.57843081e-002
      2.15426549e-001 1.05274633e-001 1.13896430e-001 -3.55354734e-002
      -5.82871661e-002 -1.90404467e-002 -3.15358192e-002
      -8.54720995e-002 4.60171327e-002 2.36012340e-001 4.22315240e-001
      2.85138339e-002 -1.27880350e-001 2.33244345e-001 -9.19595286e-002
      1.70095302e-002 2.24033874e-002 -6.92265853e-002 5.45902774e-002
      -2.32223235e-002 1.07567133e-002 2.06224471e-001 -9.13480148e-002
      -1.21240437e-001 -1.57695904e-001 -1.79299563e-001
      -4.90252720e-003 -6.76170811e-002 3.72685269e-002 1.03552058e-001
      1.35515761e-002 1.24767207e-001</_>
    <_>
      -1.57074228e-001 1.45696610e-001 -1.52846247e-001 -1.92366078e-001
      -3.96799803e-001 -6.80625290e-002 -1.36259794e-001
      -3.88040185e-001 1.98007599e-001 -1.82793424e-001 6.32173002e-001
      1.88329324e-001 -2.37382621e-001 -2.24686339e-001 5.51256724e-002
      -3.20933640e-001 -5.87678730e-001 -1.97836712e-001 2.61320770e-001
      -9.65345353e-002 -2.69635260e-001 -3.61601710e-001
      -3.24231088e-001 -3.48158814e-002 -3.18239480e-001
      -5.18002212e-001 8.31634521e-001 4.07187790e-001 -1.98672384e-001
      -4.94220912e-001 -3.40591699e-001 -6.57051921e-001 6.37855195e-003
      -3.42815578e-001 -8.30667019e-001 4.26892102e-001 8.68336409e-002
      1.10518897e+000 3.52740586e-001 -6.42755106e-002 3.19635123e-002
      9.20465682e-003 -1.65821925e-001 -5.42752981e-001 -4.58837718e-001
      -2.02733934e-001 8.36065590e-001 4.76137102e-001 -1.26892859e-002
      1.04064368e-001 -8.14597234e-002 -6.55627921e-002 4.58597392e-002
      -2.21527159e-001 4.01785731e-001 1.97905526e-001 -1.41501501e-001
      -1.65298626e-001 -3.74081165e-001 -1.05014414e-001
      -2.77376443e-001 -6.95971906e-001 2.30688632e-001 -1.32121503e-001
      -4.21824418e-002 -1.67876497e-001 -1.78226739e-001
      -4.44088355e-002 -1.31264418e-001 -2.38894194e-001 1.28574744e-001
      -4.70581427e-002 -3.28104943e-001 1.56456918e-001 1.62264049e-001
      -2.48156325e-003 3.59122574e-001 2.61220336e-001 -2.89963819e-002
      3.10697267e-003 -3.63209933e-001 -6.43412471e-002 2.93878280e-002
      4.84566465e-002 1.25014752e-001 4.44835484e-001 4.61918890e-001
      1.39867023e-001 -1.12243466e-001 2.28112474e-001 -2.40373947e-002
      -1.72675475e-002 -1.11013643e-001 -1.54302299e-001 1.70650527e-001
      -4.99308482e-002 -4.52240929e-002 4.48763341e-001 8.73558670e-002
      3.81836951e-001 1.48658350e-001 -1.40279487e-001 5.23885675e-002
      9.06143188e-002 -2.17786476e-001 -7.68876821e-002 1.41288802e-001
      4.23964828e-001</_>
    <_>
      1.40603796e-001 4.41838503e-001 9.85660311e-003 -2.32395962e-001
      -5.82811952e-001 -1.57157302e-001 -9.50193852e-002
      -9.62323099e-002 4.85619120e-002 -4.09937687e-002 9.89483949e-003
      -1.04078157e-002 -1.68771222e-001 -2.10134014e-001
      -2.82564033e-002 -3.55225876e-002 -1.00963734e-001 4.84051034e-002
      7.39683285e-002 -1.44045487e-001 -7.82786235e-002 -2.59973649e-002
      -3.01945329e-001 -1.27861500e-001 -7.60834888e-002
      -1.26249656e-001 2.56942689e-001 8.24778229e-002 -2.28095114e-001
      -3.28974366e-001 -2.15199105e-002 1.22472011e-002 1.59228146e-001
      7.94642270e-002 5.10036312e-002 4.06252295e-001 -1.56833902e-001
      -1.08489901e-001 6.31750226e-002 -3.88209410e-002 1.00640357e-002
      6.22173063e-002 2.24710833e-002 3.75729948e-002 1.65997818e-001
      -1.90856695e-001 -1.08489901e-001 1.41179115e-001 1.57543737e-002
      5.86522035e-002 4.96427007e-002 1.00672401e-001 1.90362215e-001
      2.32997879e-001 2.64459569e-002 -3.49340647e-001 -1.26407385e-001
      5.12803998e-003 1.09054474e-002 1.21806979e-001 6.58054203e-002
      1.27846733e-001 5.15849650e-001 -1.39453918e-001 -2.35989809e-001
      1.34568855e-001 -4.03835205e-003 7.70830736e-002 2.04811618e-002
      7.01466277e-002 3.20614725e-001 4.53471124e-001 -3.97470981e-001
      -4.29807752e-001 -8.60394835e-002 -2.04369631e-002 1.54000238e-001
      1.41686276e-001 1.47831991e-001 2.18613282e-001 3.57558243e-002
      -4.20529604e-001 -2.19762683e-001 -2.08232567e-001
      -3.60725075e-002 1.71409279e-001 2.85696298e-001 1.75152808e-001
      2.97461629e-001 1.68866478e-002 -2.80565858e-001 -1.26489118e-001
      -1.60380844e-002 -2.13923752e-002 2.18136936e-001 7.70958560e-003
      1.68992758e-001 3.37268144e-001 3.50206822e-001 1.29532460e-002
      2.72618681e-001 -6.70692846e-002 4.33756225e-003 2.71780699e-001
      8.12742412e-002 2.59275526e-001 4.13165569e-001 3.10291022e-001</_>
    <_>
      -1.97224155e-001 1.00927258e+000 -1.39668033e-001 -2.72440881e-001
      -1.61748126e-001 -8.38262886e-002 -1.86958238e-001
      -4.53321368e-001 -2.18053535e-001 -1.02504216e-001 1.49880075e+000
      1.25410073e-002 -1.83338657e-001 -9.98297036e-002 -1.20050721e-001
      -1.13210090e-001 -8.05822253e-001 -4.08726871e-001 7.57845491e-002
      1.36351604e-002 -2.23627418e-001 -2.27379307e-001 -1.46427974e-001
      -5.45335971e-002 -1.36977330e-001 -7.79735267e-001 2.53744155e-001
      7.68445358e-002 -4.65185761e-001 -2.60116249e-001 -3.63857388e-001
      -1.98659986e-001 6.13786429e-002 -1.00020640e-001 -5.99261761e-001
      7.68445358e-002 1.83814719e-001 1.08814263e+000 7.24745765e-002
      -4.14758652e-001 -6.23826757e-002 1.69061869e-001 -1.51607960e-001
      -5.63485444e-001 -3.54173720e-001 -2.27460280e-001 3.27800095e-001
      1.18473172e-001 -4.25459951e-001 3.83049846e-002 7.79372528e-002
      -1.81149438e-001 1.59599736e-001 1.99084040e-002 1.99059457e-001
      -2.64837712e-001 -2.21669719e-001 -3.65670174e-001
      -2.29634687e-001 -1.56019982e-002 -2.26833165e-001
      -7.71783829e-001 1.55745134e-001 -6.31991476e-002 -1.12805031e-001
      -1.16837472e-001 -2.49621078e-001 -1.81708127e-001
      -3.21184903e-001 -3.42723191e-001 -8.99269059e-003 1.18116237e-001
      -6.59502566e-001 -7.76124150e-002 1.17617503e-001 3.71101722e-002
      6.00095332e-001 2.01824829e-001 3.78610641e-002 2.16994688e-001
      -5.38690150e-001 1.18605860e-001 -2.39092216e-001 -2.26922601e-001
      1.98606074e-001 8.46235096e-001 4.72973108e-001 4.30043302e-002
      -1.74678296e-001 1.81885511e-001 -2.89086867e-002 6.96113557e-002
      7.59884017e-003 -1.03904955e-001 1.26388490e-001 -2.29232475e-001
      -1.82023406e-001 5.21920502e-001 -7.45266080e-002 2.84997284e-001
      1.25320107e-002 -1.78091958e-001 -7.70965740e-002 -3.96384336e-002
      -2.93651342e-001 -4.20816019e-002 1.23046607e-001 6.98684692e-001</_>
    <_>
      1.44130528e-001 5.84419727e-001 -2.23288033e-002 -9.32746306e-002
      -6.19987510e-002 -1.33866072e-001 -2.19006091e-001
      -4.76393014e-001 -4.79830392e-002 -2.62899697e-001 8.88591111e-001
      4.44503427e-002 -8.30074772e-002 1.09260350e-001 1.89088389e-001
      -1.32063612e-001 -7.06943870e-001 -4.07181352e-001 2.44435593e-001
      2.11957023e-001 6.05125614e-002 -1.62367642e-001 -4.84140515e-002
      6.01244271e-002 -1.69969201e-001 -9.50870931e-001 5.22487015e-002
      -4.37340327e-002 -1.47476912e-001 -7.16900080e-002
      -5.05206808e-002 2.68943235e-002 1.44270778e-001 -4.37758826e-002
      -4.34496135e-001 -4.37340327e-002 2.73476113e-002 1.08025956e+000
      1.33729830e-001 -2.48205677e-001 1.33322746e-001 1.73430681e-001
      -2.29708925e-001 -9.38897908e-001 -2.61463404e-001
      -3.57991867e-002 8.58714402e-001 3.81239355e-001 -1.82123229e-001
      -5.64588867e-002 -2.21573532e-001 -2.81447172e-001
      -2.03095004e-001 1.96662396e-001 -3.37597281e-002 -3.13405693e-001
      -2.74811927e-002 -5.56881130e-002 4.07192372e-002 -1.89869076e-001
      -1.97224841e-001 -1.59848690e-001 -3.39028798e-002 6.99553937e-002
      3.62741314e-002 8.21353570e-002 -9.80855376e-002 -2.14755014e-001
      -3.49945992e-001 -3.98074746e-001 5.68978548e-001 1.91332012e-001
      -3.84870142e-001 -6.51825890e-002 -1.22169442e-001
      -1.13257751e-001 1.80569962e-001 -5.34128919e-002 -1.11359820e-001
      2.98897207e-001 8.71597975e-002 -1.72323287e-001 -1.84565976e-001
      -2.27691531e-001 -7.56338984e-002 4.32648718e-001 5.18814266e-001
      1.29377365e-001 2.52769172e-001 1.98467404e-001 -1.42183127e-002
      -1.48031443e-001 -1.92485124e-001 -9.38983783e-002
      -2.22520024e-001 -2.72762775e-001 -2.11300358e-001 7.49978423e-001
      3.18191707e-001 8.74665380e-002 -1.64102048e-001 -2.56478727e-001
      6.63832128e-002 -7.04167932e-002 -2.70981938e-001 8.14248770e-002
      1.77077636e-001 1.53584674e-001</_>
    <_>
      7.34212995e-001 -6.75930798e-001 2.35407632e-002 3.54009360e-001
      -9.45879966e-002 -2.89763927e-001 -3.53074670e-001
      -6.10619605e-001 3.66295651e-002 5.82346678e-001 -1.14093804e+000
      -1.49783254e-001 -5.49358070e-001 -3.50654006e-001 9.28358287e-002
      5.40294498e-002 4.27686602e-001 2.92421609e-001 7.24145889e-001
      1.50233820e-001 4.04252082e-001 5.55367768e-001 2.97841787e-001
      -9.73223597e-002 -7.57222712e-001 -1.41384232e+000
      -1.33420989e-001 8.37686937e-003 -3.97458196e-001 -3.80988449e-001
      -1.79994792e-001 -4.29708153e-001 1.48269981e-001 5.28164685e-001
      2.14635208e-001 -1.46279493e-002 -6.30184531e-001 -2.87094057e-001
      5.17685711e-001 -1.63807794e-001 1.45941839e-001 2.06469074e-001
      -1.76787823e-001 5.54666758e-001 1.17348805e-001 -1.14320064e+000
      -4.21357453e-001 9.02748823e-001 2.74553359e-001 3.18319321e-001
      2.61535615e-001 3.00306790e-002 4.67190772e-001 -3.39718372e-001
      -4.57675040e-001 -5.89261465e-002 -1.05470739e-001
      -4.05521318e-002 2.18613539e-002 2.63838470e-001 3.37844230e-002
      3.31480622e-001 4.65478897e-001 -2.22588092e-001 -4.28989142e-001
      -1.79549292e-001 -2.22040266e-002 1.23916805e-001 3.08155417e-001
      -2.81415194e-001 1.16423562e-001 -4.71028470e-004 -3.86184335e-001
      1.00907482e-001 1.48369700e-001 1.26459777e-001 -1.25327453e-001
      1.38763085e-001 2.23918632e-001 1.32892296e-001 -6.06030643e-001
      4.76512402e-001 4.78116006e-001 6.96742684e-002 -1.43439267e-002
      -1.51064277e-001 -2.09081247e-002 1.83553219e-001 3.93795252e-001
      -3.95135701e-001 1.21895708e-001 -8.82726833e-002 -2.19937459e-001
      -4.14070627e-003 -6.59357160e-002 3.27823535e-002 -7.29048029e-002
      4.02822569e-002 2.78942704e-001 5.04901826e-001 3.88893753e-001
      -3.14514369e-001 -8.04941729e-002 1.68038115e-001 -1.01238050e-001
      -2.50248760e-001 -5.07926270e-002 8.26431811e-002</_>
    <_>
      1.87882692e-001 3.43199186e-002 9.23762992e-002 -4.15691175e-002
      -2.45891720e-001 -7.27759302e-002 -2.11221371e-002
      -3.05727590e-002 4.03748378e-002 1.54159777e-002 -3.09405088e-001
      1.81359183e-002 -4.97139096e-002 -8.29255432e-002 -2.11034785e-003
      1.21354848e-001 1.20810360e-001 2.03165218e-001 -1.86447483e-002
      -2.24756330e-001 5.48446737e-002 7.75875077e-002 -5.98019101e-002
      -2.66463626e-002 -7.38621643e-003 -5.67999706e-002
      -5.07783592e-002 -6.27396405e-002 -3.28346729e-001
      -9.79520902e-002 6.53576925e-002 5.94437048e-002 1.18935995e-001
      2.62395591e-001 3.00657928e-001 8.58368352e-002 -2.41858885e-001
      -3.92666698e-001 7.74073377e-002 1.05380248e-002 5.21649830e-002
      9.43322480e-002 9.98189896e-002 2.17836007e-001 2.55815506e-001
      -2.18226239e-001 -2.96845257e-001 1.52307168e-001 5.01496159e-002
      8.41616392e-002 1.22622162e-001 1.02665707e-001 2.12075278e-001
      2.03715757e-001 -2.14235023e-001 -4.01867539e-001 -2.51070764e-002
      2.99481805e-002 6.55037686e-002 1.52236253e-001 1.91956937e-001
      3.56275022e-001 2.34994322e-001 -9.60872173e-002 -3.40669990e-001
      2.36872640e-002 -3.16714682e-003 6.41007572e-002 1.22102663e-001
      1.16935268e-001 2.93710381e-001 2.63433576e-001 -2.08230078e-001
      -2.38435492e-001 -8.25064909e-003 1.63252186e-002 -1.74587294e-002
      3.97306830e-002 5.34975454e-002 1.76434919e-001 4.48147543e-002
      -1.20639697e-001 -4.63107415e-002 -5.21761216e-002
      -2.15744376e-002 -1.70214172e-003 2.26178635e-002 1.11060426e-001
      2.44217679e-001 -1.12610869e-001 -1.07490674e-001 -6.44973144e-002
      -1.21784592e-002 2.35526990e-002 2.49282401e-002 9.50178970e-003
      2.17329413e-002 1.31887659e-001 2.35356972e-001 2.35791039e-002
      2.48179287e-001 4.77811769e-002 7.23159686e-002 8.39282721e-002
      -5.42241335e-003 4.00216691e-002 1.14796840e-001 9.15682018e-002</_>
    <_>
      3.84718567e-001 -7.26989284e-002 2.48478174e-001 2.44141400e-001
      -7.95918256e-002 -2.93572515e-001 -1.58346444e-001
      -3.09416860e-001 -4.88622427e-001 1.48443624e-001 -2.66730756e-001
      3.64920124e-002 6.66166320e-002 7.02429637e-002 -1.74927279e-001
      3.92347544e-001 -4.38512117e-002 -1.53108135e-001 4.23393965e-001
      4.01840121e-001 4.55324203e-001 5.19193649e-001 2.09485099e-001
      -2.89047658e-001 -3.54791492e-001 -7.03874886e-001
      -4.85070080e-001 -2.90539443e-001 -6.47422075e-001
      -3.34908739e-002 -5.43460734e-002 2.04257041e-001 3.65403444e-001
      9.77661788e-001 8.46652329e-001 -5.26901007e-001 -6.15504861e-001
      -6.32450640e-001 1.76971272e-001 -2.90442914e-001 4.00374271e-002
      3.14976305e-001 1.69285864e-001 5.24992049e-001 -8.24798197e-002
      -5.17485082e-001 -7.96462655e-001 1.74009368e-001 -2.62135297e-001
      1.72728151e-001 4.40525979e-001 -6.27890006e-002 3.63867581e-001
      8.75647739e-002 -9.87522423e-001 -7.47961760e-001 -1.37203529e-001
      -3.50742012e-001 9.34044346e-002 5.25831163e-001 6.17479384e-001
      1.03438818e+000 1.44599909e-002 -5.89489043e-002 -5.98880410e-001
      -1.08492531e-001 -2.47954875e-001 7.01498473e-003 7.96555355e-002
      -1.70591995e-001 -2.83794291e-002 2.00700969e-001 -1.59374386e-001
      -6.40234128e-002 -3.97150256e-002 1.78149685e-001 1.56206325e-001
      -1.10161025e-002 -2.76347876e-001 2.43792444e-001 -4.15148109e-001
      3.93839806e-001 9.95641798e-002 -1.02557965e-001 1.46033630e-001
      9.80549604e-002 -5.70270002e-001 -1.21475875e-001 3.05784434e-001
      -8.21274519e-002 2.04601079e-001 1.16460033e-001 -2.17361167e-001
      1.92501359e-002 -9.83166620e-002 -1.96122095e-001 -3.61609489e-001
      -8.05461034e-002 1.74186438e-001 5.65190077e-001 4.05226439e-001
      -2.84808856e-002 -7.33618215e-002 4.44752313e-002 -4.22000200e-001
      -1.41309410e-001 1.73217073e-001 2.52041399e-001</_>
    <_>
      4.68170762e-001 -1.18543766e-001 2.25842416e-001 2.62890160e-001
      9.69701484e-002 -1.73721686e-001 -3.88400741e-002 -2.11137265e-001
      -2.13041484e-001 2.63036322e-002 -3.50142747e-001 9.56632867e-002
      1.02707841e-001 2.31686547e-001 2.11987227e-001 4.40441698e-001
      1.12988867e-001 -3.19339991e-001 5.10252774e-001 3.76110256e-001
      3.94859076e-001 2.82837451e-001 2.94274509e-001 -7.33680204e-002
      -2.82924771e-001 -9.54363227e-001 -5.31472087e-001
      -2.82673389e-001 -4.56326276e-001 1.46252111e-001 1.79536059e-001
      3.31601262e-001 3.27726424e-001 8.87943029e-001 6.48536921e-001
      -5.76092958e-001 -5.02931535e-001 -2.24571988e-001 4.41488922e-001
      -9.34336931e-002 1.47380963e-001 3.41443509e-001 8.32505301e-002
      -2.63268650e-001 -2.56271571e-001 -7.55661875e-002 1.68415323e-001
      5.53940177e-001 -9.80788320e-002 -1.39411241e-001 2.17465773e-001
      -9.48895663e-002 -2.88748056e-001 1.94210187e-001 -1.01188743e+000
      -8.68424177e-001 8.24965611e-002 -1.33892655e-001 2.26107776e-001
      1.92151502e-001 4.42010731e-001 8.05858254e-001 -1.57886013e-001
      2.93016016e-001 -1.96704552e-001 1.26092002e-001 -3.41238618e-001
      -4.10047829e-001 -3.98072600e-002 -2.00643569e-001 3.72972071e-001
      4.15697157e-001 -5.75028248e-002 3.21908556e-002 -1.87683642e-001
      -4.82351333e-002 -2.01213524e-001 -1.41340625e-002
      -2.85248399e-001 3.29307020e-001 9.59561244e-002 -8.80274270e-003
      1.83083266e-001 -9.95380953e-002 -1.15885818e-002 9.09353122e-002
      -2.22631454e-001 -1.04792029e-001 3.77027661e-001 -1.99786544e-001
      2.21015781e-001 -2.22647145e-001 -3.04196477e-001 -8.35260749e-002
      -6.03891492e-001 -3.77279013e-001 -4.86961067e-001 3.46327960e-001
      6.71762764e-001 2.58836240e-001 2.10874289e-001 -2.87696481e-001
      1.56478763e-001 -6.05838373e-002 -6.25349164e-001 -3.04446548e-001
      2.50689201e-002 5.50239012e-002</_>
    <_>
      8.28742012e-002 2.27253228e-001 1.77324682e-001 -7.59097785e-002
      -2.99392432e-001 -7.14263692e-002 -1.28775090e-002 9.57648829e-002
      5.06176166e-002 -5.39680682e-002 -1.72317594e-001 -8.44289456e-003
      5.55590680e-003 -2.41299216e-002 3.01820952e-002 4.97397296e-002
      1.55330658e-001 2.18087852e-001 -1.89299911e-001 -2.54059911e-001
      3.53183709e-002 8.76456946e-002 -1.15780741e-001 -3.51596251e-002
      6.38180077e-002 9.48321149e-002 -4.79701012e-002 -7.16738701e-002
      -2.74096310e-001 -1.19572140e-001 1.24278560e-001 2.18319803e-001
      1.24706440e-001 1.38218462e-001 3.02809834e-001 1.75553516e-001
      -2.38688305e-001 -4.74542648e-001 -5.01689315e-002 3.40527222e-002
      5.17000183e-002 1.30151451e-001 1.13309897e-001 2.24968672e-001
      3.61283779e-001 -1.24483503e-001 -3.65947038e-001 1.82870831e-002
      2.56648343e-002 5.81153035e-002 1.14345863e-001 1.58164427e-001
      2.65346736e-001 3.73395473e-001 -1.73980072e-001 -4.74914253e-001
      -6.00370355e-002 8.87370110e-002 1.42568424e-001 1.31314203e-001
      1.53663978e-001 3.53423387e-001 2.79955149e-001 -9.87575129e-002
      -3.70110095e-001 6.62092119e-002 6.11049868e-002 1.00896113e-001
      1.07668221e-001 1.91262171e-001 3.63285035e-001 3.76610756e-001
      -2.72067457e-001 -3.59323978e-001 -7.26160184e-002
      -4.04343642e-002 -5.45236133e-002 2.94364709e-002 7.92463124e-002
      2.54901260e-001 1.67851627e-001 -2.57271081e-001 -7.01649114e-002
      -1.15986645e-001 -1.13884784e-001 -2.54912581e-002 7.28444234e-002
      1.16911292e-001 3.17135543e-001 -1.09118260e-001 -2.16647744e-001
      -1.72414035e-001 -2.18217839e-002 2.89408863e-002 5.22495732e-002
      4.56162095e-002 1.24606967e-001 2.13087842e-001 2.90224731e-001
      -1.05434351e-001 1.94994211e-001 6.24911077e-002 1.24872727e-002
      1.20407045e-001 1.06491461e-001 1.45506680e-001 2.05089390e-001
      8.37732926e-002</_>
    <_>
      -4.59116220e-001 9.33188438e-001 4.55853760e-001 5.44723533e-002
      3.04667860e-001 -1.01937078e-001 9.61209610e-002 3.91012192e-001
      -8.81762862e-001 -3.09034377e-001 1.13207304e+000 6.19373396e-002
      5.10849774e-001 5.83558738e-001 3.76431793e-002 1.09559685e-001
      -5.61769605e-001 -7.34062791e-001 -2.92386353e-001 7.72516966e-001
      3.90046209e-001 3.80314559e-001 3.76933254e-002 -4.03473705e-001
      3.57504636e-001 -3.77444713e-003 -7.52429307e-001 -7.02012062e-001
      -2.42276937e-001 4.44719583e-001 9.95697156e-002 1.05361581e+000
      3.51253957e-001 4.61305737e-001 5.09402514e-001 -6.24931395e-001
      5.65918721e-003 -5.38498759e-001 -5.91459453e-001 -3.05536211e-001
      -7.46364146e-002 3.61410826e-001 1.07452095e-001 -4.17860560e-002
      -4.46726754e-002 4.44160610e-001 -1.01121628e+000 -1.05225396e+000
      -5.73174953e-001 -1.86842442e-001 2.21357256e-001 -5.94579838e-002
      4.07200277e-001 8.56203914e-001 -7.21017301e-001 -9.90698755e-001
      -3.05454254e-001 -5.40517867e-001 2.31859237e-001 1.67952180e-001
