<?xml version="1.0"?>
<opencv_storage>
<my_svm type_id="opencv-ml-svm">
  <svm_type>C_SVC</svm_type>
  <kernel><type>LINEAR</type></kernel>
  <C>1.</C>
  <term_criteria><epsilon>9.9999999747524271e-007</epsilon>
    <iterations>1000000</iterations></term_criteria>
  <var_all>108</var_all>
  <var_count>108</var_count>
  <class_count>11</class_count>
  <class_labels type_id="opencv-matrix">
    <rows>1</rows>
    <cols>11</cols>
    <dt>i</dt>
    <data>
      -1 0 1 2 3 4 5 6 7 8 9</data></class_labels>
  <sv_total>55</sv_total>
  <support_vectors>
    <_>
      1.75444216e-001 -5.74094383e-003 -1.16317138e-001 1.26553193e-001
      1.59844622e-001 7.59065002e-002 -2.04140805e-002 -1.02922030e-001
      2.54288644e-001 -9.12694037e-002 -1.38528720e-001 -2.70317364e-002
      2.98529048e-003 7.05992654e-002 -1.27981708e-003 1.25036955e-001
      1.51020214e-001 7.42987692e-002 -6.70711324e-002 -1.00861393e-001
      -8.55383053e-002 4.47561592e-002 2.37650812e-001 1.39776006e-001
      -6.97794408e-002 -1.48306087e-001 -1.42247766e-001
      -2.44619504e-001 2.18328908e-002 1.03599511e-001 5.86527213e-002
      1.76501185e-001 3.75887603e-002 3.46478634e-002 -8.28883722e-002
      -2.55358875e-001 -1.48214921e-001 1.54990718e-001 6.46908395e-003
      4.53601032e-002 3.20254415e-002 2.14512721e-002 8.18868056e-002
      1.74068928e-001 1.31636914e-002 6.42936230e-002 2.00274512e-001
      1.00889765e-001 1.32961750e-001 1.54629471e-002 3.60830203e-002
      2.69508082e-003 -8.14226940e-002 1.31636914e-002 -2.85100788e-001
      1.45055532e-001 9.82697234e-002 1.40050009e-001 9.12723914e-002
      8.17569122e-002 8.15516263e-002 1.25771286e-002 -2.83727586e-001
      -1.70570672e-001 4.74803969e-002 1.89420268e-001 2.31404722e-001
      4.26515981e-005 1.41086757e-001 1.35544866e-001 7.16781765e-002
      -2.22470060e-001 1.53885394e-001 1.62054002e-002 1.06374517e-001
      5.98065034e-002 -1.01044793e-002 -3.33993584e-002 -7.19276443e-002
      -1.46114781e-001 6.96031526e-002 2.43214041e-001 4.42565009e-002
      2.80719027e-002 -2.30494775e-002 5.07923681e-003 -5.23078181e-002
      -1.29423961e-001 -8.84366333e-002 2.23573253e-001 -6.93205148e-002
      -4.20008302e-002 1.16257250e-001 7.16147274e-002 -5.63302338e-002
      9.52684227e-003 7.32923597e-002 8.21701586e-002 -1.22055352e-001
      5.07439189e-002 -4.92928885e-002 4.41033719e-003 -3.13800685e-002
      3.61112021e-002 -3.43383639e-003 4.82443161e-003 1.01679653e-001
      8.77334401e-002</_>
    <_>
      1.60249382e-001 7.09931627e-002 -3.83877684e-003 8.82259309e-002
      3.43060717e-002 6.72696307e-002 -5.74968010e-002 -1.34321898e-001
      1.10172778e-001 -9.49344039e-002 1.52761759e-002 -1.20733457e-003
      -6.32610694e-002 -6.41184151e-002 -1.02711120e-003 3.39301862e-002
      1.03936248e-001 6.05479255e-002 -2.17651322e-001 -7.19257295e-002
      -3.34223732e-002 1.14676192e-001 2.75697231e-001 1.91514298e-001
      -1.65710822e-002 -6.93973526e-002 -2.71275550e-001
      -2.80525714e-001 3.65971997e-002 9.32914242e-002 8.72112513e-002
      1.74646437e-001 6.80252612e-002 2.62909383e-002 -7.07273707e-002
      -2.79025465e-001 -7.79501647e-002 1.72707543e-001 2.77419691e-003
      3.14547047e-002 -2.61830445e-003 -2.03689896e-002 4.36905138e-002
      7.67269060e-002 4.76197451e-002 1.58732906e-002 2.10898325e-001
      9.52223614e-002 1.32595971e-001 -5.84998028e-003 -1.54858865e-002
      1.54851601e-002 -7.14497045e-002 1.58732906e-002 -2.26962626e-001
      1.55052260e-001 9.40094665e-002 1.34930462e-001 7.84783661e-002
      6.88666552e-002 4.84422557e-002 -8.91394839e-002 -2.81017989e-001
      -1.88157007e-001 9.08248946e-002 1.81447297e-001 2.20770717e-001
      -1.83509581e-003 1.59913555e-001 1.54785663e-001 7.89021626e-002
      -2.19760463e-001 2.85069440e-002 6.50448278e-002 1.04275219e-001
      6.65928870e-002 -3.90289128e-002 -1.16379708e-002 9.64847114e-003
      -7.31679797e-002 2.77264584e-002 7.54071102e-002 -3.22889276e-002
      9.59173683e-003 1.57703750e-003 -6.50341064e-002 -1.73100699e-002
      1.38840983e-002 -3.24548073e-002 1.70721695e-001 -1.66467145e-001
      1.38472542e-002 1.35124788e-001 7.48916119e-002 -4.97949645e-002
      7.85679892e-002 1.42598987e-001 1.36095852e-001 -1.91115916e-001
      -5.35161905e-002 -6.96921647e-002 3.59273329e-002 6.41980767e-003
      8.52927789e-002 6.93289265e-002 6.42361939e-002 9.95115414e-002
      -3.24207917e-002</_>
    <_>
      2.42883652e-001 6.00371920e-002 -3.72435264e-002 3.99053060e-002
      7.69248903e-002 8.01304877e-002 -1.40508707e-003 -1.21657185e-001
      1.41139135e-001 2.26221494e-002 -1.76192984e-001 -1.03665955e-001
      -8.11366960e-002 1.44521249e-002 -2.05779932e-002 1.11475810e-001
      2.20774367e-001 1.49323851e-001 -7.44764879e-002 1.37019251e-002
      1.71026159e-002 8.19031969e-002 2.27795526e-001 9.54823941e-002
      -7.95787051e-002 -1.37845755e-001 -2.01691046e-001
      -2.58444071e-001 5.21796616e-003 5.25739491e-002 6.06296211e-002
      1.74973398e-001 -1.43746892e-002 -5.64660784e-003 -4.76634502e-002
      -2.66113937e-001 -3.99051607e-002 -1.19703121e-001
      -1.56369045e-001 1.88973900e-002 6.13701344e-003 6.39816560e-003
      7.95344710e-002 2.22938284e-001 3.01815331e-001 1.59344226e-001
      -7.16256276e-002 -5.94219677e-002 7.99201056e-002 -5.02710417e-003
      6.45035431e-002 3.17786634e-002 3.02776601e-002 3.20750326e-001
      -2.39098415e-001 -1.39761537e-001 -5.17565683e-002 1.31353676e-001
      7.37058371e-002 7.70522207e-002 7.69917443e-002 4.57830094e-002
      -9.35326070e-002 -6.13498203e-002 -2.09877878e-001 6.28470853e-002
      1.88870862e-001 -7.84926675e-003 1.86067358e-001 1.77027687e-001
      1.64155334e-001 4.22369801e-002 1.43209830e-001 -1.68083385e-001
      -3.67430076e-002 2.72650830e-002 -1.15620680e-002 -1.20882252e-002
      3.23030911e-002 5.68312313e-003 2.47184366e-001 1.45700976e-001
      -5.91463000e-002 -8.35555233e-003 -1.17410542e-002
      -7.78164715e-002 -8.95716697e-002 -4.67131734e-002 3.45467925e-002
      1.10693291e-001 1.44386869e-002 -1.78903610e-001 5.00448495e-002
      2.44759396e-002 -1.04969114e-001 4.11046930e-002 1.55530840e-001
      1.37443736e-001 4.16489467e-002 7.20332488e-002 3.61607000e-002
      4.87959199e-002 -5.74277155e-002 1.41939484e-002 -1.02805711e-001
      6.94437325e-003 1.57707129e-002 -6.03078231e-002</_>
    <_>
      1.22029841e-001 8.84176269e-002 -6.54338002e-002 9.19092894e-002
      1.56154990e-001 7.72290975e-002 -3.02870926e-002 -1.64432097e-002
      9.86620784e-002 -3.43711600e-002 -6.30264729e-002 -1.06365763e-001
      -7.54745528e-002 3.56710367e-002 1.30640101e-002 1.08645074e-001
      2.57904679e-001 1.06805734e-001 -1.99489027e-001 -7.73523450e-002
      -5.56810871e-002 9.94696096e-002 2.62945145e-001 1.21648401e-001
      -1.50402308e-001 -4.39041965e-002 -2.26463169e-001
      -2.65408784e-001 -8.74569640e-002 -4.08270024e-002 4.19167690e-002
      1.66791320e-001 3.98469418e-002 -1.21090161e-002 2.48383917e-002
      -2.58232266e-001 -7.26340041e-002 8.85758549e-002 -7.17506781e-002
      6.81558205e-003 3.31675843e-003 -9.47635341e-003 3.50047611e-002
      1.75475106e-001 1.28999069e-001 1.38211831e-001 1.95783511e-001
      7.04361498e-002 1.09253198e-001 -4.33931947e-002 -2.33897753e-002
      -9.83878449e-002 -6.22727871e-002 1.31565467e-001 -2.34603241e-001
      -1.68046970e-002 -2.41922624e-002 9.99603122e-002 5.28761484e-002
      3.33809964e-002 -5.66035323e-003 -6.41725063e-002 -1.84944764e-001
      -1.10394493e-001 2.39049103e-002 1.59271643e-001 1.85238883e-001
      -4.93627749e-002 9.27147046e-002 -5.23145981e-002 -8.84115249e-002
      -1.20063215e-001 1.41050354e-001 9.24889594e-002 1.08832553e-001
      5.87614104e-002 -6.66431263e-002 -8.39879587e-002 -8.67753699e-002
      -6.75054640e-002 1.35283321e-001 1.32726833e-001 7.95524120e-002
      2.64995210e-002 1.18510425e-002 -6.57567475e-003 -4.30374630e-002
      -8.19077268e-002 -7.09245875e-002 1.52930483e-001 -7.97596127e-002
      -2.27947775e-002 9.96189788e-002 6.40819445e-002 -6.72927424e-002
      3.09249517e-002 5.83334602e-002 1.29835983e-003 -7.11000413e-002
      -1.96383018e-002 -8.77625570e-002 -1.06452428e-001
      -4.14609723e-002 9.33923572e-002 6.43469468e-002 4.92684506e-002
      4.69474941e-002 1.28146680e-002</_>
    <_>
      1.47490546e-001 -1.10969879e-001 -4.95489091e-002 1.85555056e-001
      2.23972321e-001 1.11374915e-001 1.67860240e-002 -1.55330729e-002
      1.94555014e-001 -3.29383761e-002 -2.12290570e-001 -3.87987122e-002
      2.13623866e-002 5.60910404e-002 -9.86166578e-003 1.22208446e-001
      2.57075548e-001 1.46479875e-001 -2.84353316e-001 -1.94478720e-001
      -6.20629489e-002 1.38738051e-001 3.17277461e-001 1.70127422e-001
      1.16980532e-002 -2.36382205e-002 -3.26052904e-001 -3.03711802e-001
      -6.51169277e-004 1.05982207e-001 1.04444444e-001 2.00124204e-001
      6.96458993e-003 4.84556518e-002 5.45651652e-002 -3.02211553e-001
      -9.78685841e-002 -7.13193342e-002 -3.68276276e-002 4.75945659e-002
      -1.01562915e-002 -1.02578960e-002 5.67835681e-002 2.03942478e-001
      1.83894217e-001 5.71123511e-002 -4.14193012e-002 2.53964663e-002
      1.35770574e-001 -3.03517319e-002 1.40564116e-002 4.73397365e-003
      -3.83904949e-002 9.24520195e-002 -2.53348917e-001 5.79525791e-002
      7.14979097e-002 1.42930269e-001 7.49025270e-002 4.44251634e-002
      5.70366718e-002 2.37424690e-002 -2.41353184e-001 -1.48492187e-001
      -1.17536569e-002 1.34105608e-001 2.47412950e-001 -1.33243240e-002
      1.69027925e-001 8.99060965e-002 -4.91003767e-002 -1.80095643e-001
      1.57080278e-001 1.53598962e-002 8.27880949e-002 7.16297776e-002
      -1.54788226e-001 -4.06204574e-002 -2.62140594e-002
      -9.04830471e-002 1.41583368e-001 2.31572717e-001 1.15576304e-001
      4.28903773e-002 1.34484218e-002 -1.40384346e-001 -2.51817256e-002
      -5.05575351e-002 -7.75912330e-002 9.17681083e-002 -1.12856857e-001
      -3.16008665e-002 1.05900444e-001 1.16744265e-001 -8.61693993e-002
      8.46032947e-002 7.01966062e-002 -3.63794155e-002 -1.50796846e-001
      -4.91426811e-002 -5.94469495e-002 -4.88459282e-002 2.00278070e-002
      7.88456425e-002 8.80886987e-002 1.59623809e-002 -4.60604168e-002
      -1.14669293e-001</_>
    <_>
      -1.02206189e-002 9.13275629e-002 -1.83493197e-002 1.55514076e-001
      1.83020309e-001 1.19739972e-001 3.16483411e-003 -4.82329493e-003
      1.69832170e-001 -1.08849511e-001 6.56879917e-002 -1.78134181e-002
      -3.82590177e-003 6.76433668e-002 1.05628967e-002 4.46738526e-002
      1.80445716e-001 2.07528453e-002 -2.84368575e-001 -1.43479645e-001
      -1.40621245e-001 3.95623595e-002 2.15988889e-001 1.66942745e-001
      -3.43225105e-003 -1.49970362e-003 -1.38100937e-001
      -2.24669397e-001 6.11166544e-002 3.20281573e-002 3.50214094e-002
      1.54488817e-001 -2.48161480e-002 -1.61714032e-001 -2.01463953e-001
      -1.66897953e-001 -3.48158963e-002 1.68725550e-001 -1.00373454e-001
      2.00049989e-002 9.97328851e-003 -5.91121353e-002 1.69862658e-002
      8.32411796e-002 9.13490281e-002 1.87928766e-001 1.22225538e-001
      -6.97591677e-002 9.93298143e-002 -3.04202344e-002 -5.74816950e-002
      -6.26025647e-002 -1.65700704e-001 8.37002918e-002 -3.38762254e-002
      1.44796744e-001 1.74949560e-002 1.15931079e-001 5.24955504e-002
      -6.45820349e-002 -9.08345953e-002 -2.12789357e-001
      -1.67260081e-001 -1.05107903e-001 4.64017428e-002 9.85987335e-002
      2.21674219e-001 -1.93075370e-002 4.66264710e-002 6.16936199e-002
      -8.45840946e-002 -1.73622131e-001 1.42463133e-001 -5.56212151e-003
      6.71646968e-002 5.64318225e-002 -2.36390941e-002 -2.79214755e-002
      -4.33847234e-002 -1.72874123e-001 1.26587525e-001 1.16429254e-001
      5.76341152e-002 4.04809937e-002 1.57183819e-002 2.64506787e-002
      2.79878383e-004 -5.47303036e-002 -1.45676121e-001 1.51199639e-001
      -1.37654588e-001 -8.22240934e-002 1.31575972e-001 7.96498433e-002
      -2.48813014e-002 6.93880171e-002 1.21136278e-001 4.12923982e-003
      -1.62303373e-001 -6.36276156e-002 -1.31514475e-001 8.75668542e-004
      -3.91883366e-002 9.41372886e-002 8.11159313e-002 4.24757525e-002
      6.66616531e-003 5.70631167e-003</_>
    <_>
      1.37980029e-001 -4.95436937e-002 -8.25870484e-002 1.00032032e-001
      1.12760320e-001 1.01399086e-001 -1.20592909e-002 -5.31737916e-002
      2.01454505e-001 -3.37506756e-002 -1.15095139e-001 -3.24653685e-002
      -5.91353700e-002 -3.39563154e-002 5.62446099e-003 6.76097423e-002
      1.82086468e-001 1.41529918e-001 -1.32691637e-001 -1.46275833e-001
      -8.30018669e-002 2.41051577e-002 2.04633594e-001 1.27582118e-001
      -5.09740748e-002 -9.64079201e-002 -1.35728031e-001
      -1.70608401e-001 -2.08093412e-002 3.67512256e-002 -1.24584213e-002
      3.42959203e-002 5.40405093e-003 -3.92189845e-002 -7.27372766e-002
      -1.63799018e-001 -1.87300518e-002 9.62911546e-002 -1.42160207e-002
      8.82371701e-003 -2.90809106e-002 -3.31515335e-002 1.67147815e-002
      1.06174313e-001 1.20350957e-001 7.07633793e-002 1.02041751e-001
      5.82240671e-002 1.13576360e-001 -1.46388011e-002 -2.50376798e-002
      -5.32605536e-002 -1.16283484e-001 6.20644614e-002 -1.04909450e-001
      7.77699277e-002 5.50085641e-002 6.57585487e-002 -2.61041522e-002
      -8.40993039e-003 -3.18444334e-002 -1.21537432e-001
      -1.46571100e-001 -1.43031046e-001 -2.70478055e-002 1.37809038e-001
      1.78153843e-001 -4.70020734e-002 6.78703859e-002 6.36201426e-002
      -3.15318480e-002 -1.74634516e-001 1.40262276e-001 2.83506457e-002
      1.02594085e-001 5.92922196e-002 -4.73295078e-002 -3.38136703e-002
      -6.36684075e-002 -1.49540886e-001 7.60391727e-002 2.16842875e-001
      6.79783374e-002 5.04169166e-002 3.05976905e-002 -5.27461991e-002
      -5.60216308e-002 -8.84384140e-002 -9.25354585e-002 1.99966043e-001
      -8.65295008e-002 -6.49136351e-003 1.18049867e-001 5.81920743e-002
      -5.58966473e-002 2.57129967e-002 7.48336986e-002 6.12474829e-002
      -1.40358642e-001 5.57544157e-002 -3.31476554e-002 9.79187340e-003
      -1.88531876e-002 2.10289788e-002 9.03926417e-003 2.99432669e-002
      5.86081594e-002 4.09658290e-002</_>
    <_>
      2.05423713e-001 1.22015215e-001 4.26617004e-002 5.64998649e-002
      -6.17389530e-002 4.58276607e-002 -2.44500712e-002 -2.00130716e-002
      2.50426829e-001 -5.07851690e-002 -1.86216533e-001 -3.73496674e-002
      -1.05985314e-001 -7.80079141e-002 -3.15619335e-002 9.67482254e-002
      2.60677993e-001 2.53655165e-001 -1.96442828e-001 -2.24309400e-001
      -6.19219206e-002 8.11630413e-002 1.21985361e-001 9.86874625e-002
      5.39342547e-003 -1.77927483e-002 -1.37964591e-001 -2.59858221e-001
      -1.84048444e-001 -5.22199236e-002 5.74123412e-002 1.33686334e-001
      3.47553939e-002 6.99319839e-002 8.99228826e-002 -9.45889652e-002
      -1.24025024e-001 -1.56459585e-001 -4.80158590e-002 1.72004420e-002
      1.43773397e-002 1.96676962e-002 8.06079581e-002 2.30061054e-001
      3.20079863e-001 -3.11894109e-003 -1.03067435e-001 8.09092969e-002
      1.30841985e-001 1.16775827e-002 6.36401027e-002 2.17525847e-002
      2.27938965e-002 2.87330717e-001 -2.32878894e-001 -1.82560310e-001
      7.75504485e-003 1.33713230e-001 7.17407092e-002 7.55524486e-002
      8.00826401e-002 7.25522339e-002 8.53311457e-003 -2.07149237e-001
      -2.16669634e-001 1.73544988e-001 2.38936663e-001 1.93772223e-002
      1.76908523e-001 1.64029405e-001 1.56996325e-001 5.37869781e-002
      -2.92633250e-002 -1.93200558e-001 7.33750090e-002 4.89416718e-002
      -6.18550144e-002 1.65124908e-002 7.22813793e-003 8.12252611e-003
      1.95185974e-001 4.32542376e-002 -1.78347100e-002 -1.41175417e-002
      -1.09505272e-002 -1.33776320e-002 3.29217054e-002 7.41951633e-003
      8.18930566e-002 1.30471334e-001 -2.23456934e-001 -1.57744840e-001
      1.29250377e-001 1.04689986e-001 -1.30693242e-002 8.53336826e-002
      1.58805355e-001 1.69450179e-001 3.10951807e-002 -5.18598743e-002
      1.34248808e-002 3.19581591e-002 3.20004895e-002 1.45847857e-001
      9.21535119e-002 9.80881006e-002 1.52802497e-001 6.16156608e-002</_>
    <_>
      6.92208633e-002 7.29551446e-003 -8.20748955e-002 1.41368702e-001
      1.61036804e-001 9.42991897e-002 1.98268052e-002 -1.43388733e-002
      1.40801579e-001 -6.51699677e-002 -2.12643389e-002 -1.57818105e-002
      -2.26788241e-002 4.80357148e-002 1.63032452e-003 9.50101539e-002
      8.88419971e-002 5.66679724e-002 -1.71307042e-001 -8.70407522e-002
      -6.67846575e-002 1.03441581e-001 1.96509257e-001 8.63798261e-002
      -6.45674914e-002 -8.41881111e-002 -2.00291961e-001
      -2.23076537e-001 -5.27217947e-002 1.05101839e-002 -3.02579366e-002
      8.80653486e-002 1.27989529e-002 -1.38067184e-002 -6.54633045e-002
      -2.41503090e-001 -3.22675481e-002 6.47949278e-002 -6.34390339e-002
      -9.54742823e-003 -9.68035217e-003 -8.23527575e-003 2.97601148e-002
      1.00959338e-001 9.75524634e-002 9.58264396e-002 1.47143034e-002
      -4.38439772e-002 8.95487517e-002 -2.85197254e-002 1.69238746e-002
      -1.84946209e-002 -5.12535237e-002 1.21580221e-001 -1.34660378e-001
      5.34020849e-002 -2.13614311e-002 3.14638913e-002 -3.59023213e-002
      -9.31055471e-003 -2.53142565e-002 -3.56089287e-002
      -1.34025931e-001 -1.03315346e-001 -3.94886471e-002 7.44385794e-002
      1.91188410e-001 -1.07680544e-001 2.26210952e-002 1.32267438e-002
      -5.42527325e-002 -1.42389074e-001 1.04239702e-001 2.27843523e-002
      9.11911651e-002 7.34670088e-002 -2.51310859e-002 -1.55524854e-002
      -5.90155609e-002 -1.23662092e-001 8.06290135e-002 2.21182570e-001
      1.39768779e-001 6.46290481e-002 3.80788483e-002 -3.05636618e-002
      -6.43698201e-002 -1.18128121e-001 -1.28684580e-001 1.65793702e-001
      -1.00732632e-001 -4.21056189e-002 9.06062722e-002 5.29326946e-002
      -1.13355622e-001 1.87772829e-002 6.82717711e-002 2.91769765e-002
      -1.24407537e-001 4.12697941e-002 -3.00442353e-002 -5.74544538e-003
      -1.05896585e-001 1.05257556e-002 5.43868542e-003 2.49082148e-002
      6.97762221e-002 2.52950378e-002</_>
    <_>
      2.02102482e-001 2.28918381e-002 -7.79103786e-002 1.14722528e-001
      1.78386793e-001 6.62392080e-002 -9.05451085e-003 -1.00131050e-001
      1.63516656e-001 -6.07084669e-002 -9.81057063e-002 -5.69382161e-002
      -1.19803650e-002 7.97796175e-002 1.01591395e-002 1.14635266e-001
      7.22511485e-002 4.29085307e-002 -8.56686234e-002 -3.40697765e-002
      -6.49193749e-002 7.68428519e-002 2.25113243e-001 7.82503411e-002
      -4.98401672e-002 -1.03077427e-001 -1.64416760e-001
      -2.52619982e-001 7.38268718e-003 4.36702408e-002 4.27567624e-002
      1.60361767e-001 4.16764244e-003 6.99367560e-003 -7.82221556e-002
      -2.64604449e-001 -4.23274785e-002 1.14782885e-001 -1.79837439e-002
      -1.59659591e-002 8.54521804e-003 -6.18179934e-003 -3.25510092e-002
      7.95488060e-003 6.74772561e-002 1.69388220e-001 1.78756595e-001
      4.01604213e-002 6.07470386e-002 -1.13394581e-001 -3.96114103e-002
      -1.41919687e-001 -1.77658632e-001 1.95077300e-001 -2.01194346e-001
      4.64569516e-002 1.30572775e-002 4.22029682e-002 4.07045633e-002
      2.37141959e-002 2.28136429e-003 -6.62710518e-002 -1.90531462e-001
      -7.56677389e-002 5.98747246e-002 1.36020422e-001 1.10683396e-001
      -1.04878522e-001 6.93117008e-002 5.60457185e-002 5.62656932e-002
      -6.36789352e-002 1.30295053e-001 2.85255648e-002 5.02094291e-002
      1.82089079e-002 -9.55343992e-002 -4.89436574e-002 -1.11314669e-001
      -1.42015055e-001 1.89318404e-001 1.67396992e-001 1.88412983e-002
      9.40022431e-003 -1.05074393e-002 -1.65375583e-002 -7.42736533e-002
      -1.18069820e-001 -4.82378677e-002 2.06204131e-001 -9.47677717e-002
      -1.31300697e-002 1.06170133e-001 1.52511299e-002 -1.24745950e-001
      3.33545133e-002 7.30232820e-002 1.15295760e-001 -4.68620434e-002
      3.97424884e-002 -3.37750092e-002 -1.32600153e-002 -6.80459216e-002
      4.81111631e-002 -6.80394936e-003 -4.39202413e-003 1.34037003e-001
      3.51139009e-002</_>
    <_>
      3.37814182e-001 3.08618546e-001 -5.81774116e-001 -4.18309450e-001
      -4.13688987e-001 -1.29785955e-001 -1.71587035e-001 4.42797482e-001
      -5.87695301e-001 2.19977796e-001 7.38035321e-001 -1.80955797e-001
      -5.16145945e-001 -7.82202840e-001 -3.73923421e-001
      -6.17188990e-001 -2.22340241e-001 1.21755740e-002 -1.06151557e+000
      -2.86089987e-001 -1.20171234e-001 1.36352390e-001 9.20893326e-002
      -5.32941148e-003 1.73410311e-001 1.37587690e+000 -4.69680756e-001
      2.07373295e-002 9.51450169e-002 2.56682672e-002 1.16836041e-001
      -3.64205949e-002 -1.46934047e-001 -1.53581411e-001 6.24799550e-001
      -2.67696977e-002 4.63107377e-001 8.91980231e-002 -8.75455886e-002
      -2.22991213e-001 -3.08405071e-001 -3.27041447e-001
      -3.24386090e-001 -4.62073356e-001 2.54205972e-001 -1.82550237e-001
      -2.88172830e-002 -8.84410515e-002 -9.65007395e-002
      -8.14968571e-002 -1.10228129e-001 1.84740312e-002 7.81061873e-002
      9.94983837e-002 6.99674487e-002 4.66765612e-002 -3.04383691e-003
      -3.08416244e-002 -1.00992031e-001 -1.57101586e-001
      -2.31348589e-001 -3.52848262e-001 -5.49160279e-002
      -1.16463780e-001 6.77838475e-002 -4.25335802e-002 -9.28012431e-002
      -1.60115864e-002 5.38470037e-002 3.47879045e-002 2.32972540e-002
      -5.49160279e-002 -6.50664210e-001 2.18765944e-001 -1.35348678e-001
      -1.76525295e-001 -1.68277130e-001 -1.06559761e-001 1.86053202e-001
      5.31188250e-001 -1.72276601e-001 -5.04537642e-001 4.69270617e-001
      -9.49179679e-002 -1.29598305e-001 -2.55566269e-001 5.96249327e-002
      3.73707592e-001 1.26409566e+000 -2.08325237e-001 -4.47792172e-001
      2.79441029e-001 -2.18432993e-001 -3.55271280e-001 -1.61005467e-001
      -3.18419859e-002 9.79286060e-002 8.10055360e-002 -5.17827570e-001
      -2.71378681e-002 8.72720242e-001 -4.17939350e-002 -2.79689163e-001
      -1.92688942e-001 4.41270061e-002 2.17078142e-002 -3.66460010e-002
      -3.24484348e-001</_>
    <_>
      2.95553207e-002 4.40028943e-002 6.94503635e-002 3.45227383e-002
      -6.97173849e-002 3.96142825e-002 2.13294122e-002 -9.95449722e-002
      -2.99161226e-001 6.26599789e-002 -1.38581291e-001 -9.32372287e-002
      -4.63248603e-002 -9.20352414e-002 -3.49950269e-002
      -7.39854062e-003 1.59756243e-001 6.17040582e-002 -1.00781091e-001
      8.65101293e-002 8.99204314e-002 9.94068608e-002 6.47664145e-002
      2.33573541e-002 1.22238576e-001 -3.82380257e-003 -1.73168182e-001
      -6.07641302e-002 -2.14362219e-001 -1.46185746e-002 2.41679512e-002
      3.50019261e-002 -2.51164101e-002 4.92051058e-002 2.06818819e-001
      3.73052619e-003 9.40501764e-002 -5.77888131e-001 -2.58060664e-001
      -2.57624909e-002 -4.83593196e-002 -2.79155020e-002
      -9.44502186e-003 1.29581809e-001 5.17259419e-001 2.18121275e-001
      -5.50213933e-001 -2.75248468e-001 -3.66016440e-002
      -2.39720605e-002 4.00219336e-002 2.82794144e-002 2.35012591e-001
      6.36301816e-001 -2.18847096e-002 -6.10973239e-001 -1.76977426e-001
      -8.81555025e-003 -1.21767377e-003 -3.05576273e-003
      -4.67327563e-003 1.05321556e-001 2.84265071e-001 1.73645929e-001
      -4.41712618e-001 -1.70006260e-001 -1.13420188e-002 1.10485116e-002
      3.63826714e-002 1.96626503e-002 7.38265216e-002 5.01936138e-001
      -6.86378404e-002 -3.30869913e-001 -2.02321693e-001
      -2.32456438e-002 -2.20096111e-002 -3.75401066e-003 1.00131094e-001
      2.83426493e-001 3.58477890e-001 -3.08296978e-001 -2.45852038e-001
      3.43017392e-002 2.81820688e-002 -9.16378275e-002 -8.55528116e-002
      7.95150697e-002 1.51256159e-001 -3.10964227e-001 2.39013523e-001
      -1.58767283e-001 5.06916456e-002 3.21828714e-003 -4.85190153e-002
      -4.59192842e-002 -2.30864175e-002 -1.37903923e-002 2.36669138e-001
      -4.66085337e-002 2.95056522e-001 2.60544807e-001 9.99797285e-002
      -1.72673613e-002 -1.93809941e-001 -1.70331821e-001
      -2.22840920e-001 -3.61897349e-001</_>
    <_>
      -2.32428506e-001 2.86951572e-001 9.84911993e-002 -2.00016629e-002
      4.93190587e-002 -1.90989494e-001 -5.43699339e-002 9.68345478e-002
      -9.07884061e-001 3.03164899e-001 -2.23959550e-001 -3.74213725e-001
      -2.56812543e-001 -1.77930444e-001 -2.02174783e-001
      -1.22686118e-001 2.80260354e-001 2.79537346e-002 -7.30507433e-001
      2.22953409e-001 2.47777909e-001 1.91293553e-001 2.78811902e-001
      2.77852360e-003 -9.04257521e-002 6.36893213e-001 -2.26338506e-001
      1.30193653e-002 -4.30436283e-001 -3.37970763e-001 -4.90580350e-002
      5.08754104e-002 -4.14313450e-002 -3.52726020e-002 5.12367249e-001
      9.40283090e-002 3.23032796e-001 -6.71802759e-001 -3.83207560e-001
      -1.69361562e-001 -1.34994388e-001 -1.74328417e-001
      -2.39574820e-001 -4.30029690e-001 4.14351225e-001 4.94925648e-001
      -1.48691371e-001 -1.24563195e-001 -1.53878957e-001
      -2.72379428e-001 -2.42486283e-001 -6.16730571e-001
      -6.85363591e-001 5.48346817e-001 3.14262480e-001 -6.75300419e-001
      -4.25575525e-001 -1.67644739e-001 -1.14700995e-001
      -1.76700741e-001 -3.06990176e-001 -4.98843044e-001 4.57680285e-001
      3.08183640e-001 1.22997966e-002 -1.83471572e-002 -1.25363261e-001
      -1.56203806e-001 -1.29520506e-001 -6.34933770e-001
      -1.21784890e+000 3.79598320e-001 -1.05849802e-001 9.20347795e-002
      3.04767843e-002 -1.50666237e-001 -1.75883636e-001 -1.74187377e-001
      -4.71488982e-002 -2.37252489e-001 3.64410281e-001 -5.84485590e-001
      -2.28620499e-001 7.10855201e-002 -2.22746149e-001 2.94129625e-002
      1.03383325e-001 1.91265866e-001 1.31837040e-001 -1.80704400e-001
      -3.00793536e-003 2.51189113e-001 7.66263902e-002 -3.37519199e-002
      8.41713175e-002 1.66108325e-001 5.68556003e-002 -3.60769361e-001
      -1.36524141e-001 -2.17512891e-001 -8.99800733e-002
      -5.18147759e-002 -1.74954757e-002 3.58556926e-001 2.97161937e-001
      2.30767787e-001 5.55225387e-002 -3.81863385e-001</_>
    <_>
      -6.97619766e-002 -2.20416069e-001 1.80649042e-001 1.39868155e-001
      1.48598403e-001 1.61211211e-002 7.44510591e-002 2.34900445e-001
      -9.62354392e-002 2.60535300e-001 -3.06447446e-001 -1.12897277e-001
      5.06710671e-002 -3.04567050e-002 -1.34885103e-001 -6.35241792e-002
      1.62034556e-001 3.17902148e-001 -2.86395669e-001 -3.62352222e-001
      6.44512475e-002 2.46481463e-001 2.22986877e-001 3.03890929e-002
      2.50792682e-001 4.90027159e-001 -3.52963567e-001 -3.06733530e-002
      -2.42987290e-001 2.07839836e-003 1.32957324e-001 3.33188921e-002
      -2.31929302e-001 -4.23023105e-003 3.34846795e-001 -1.00380048e-001
      1.94545850e-001 -7.99560010e-001 -2.13578001e-001 4.94055776e-003
      -8.35754052e-002 -1.06580585e-001 -7.51172081e-002
      -2.24606693e-002 5.37780762e-001 -2.43555941e-003 -8.30502987e-001
      -2.35388353e-001 -3.01970933e-002 -1.45693496e-001
      -5.16261831e-002 -4.25468758e-002 1.56080469e-001 3.73702437e-001
      1.72368392e-001 -4.36756581e-001 -1.14463933e-001 6.99113030e-003
      -6.69804811e-002 -1.75685838e-001 -9.18186903e-002
      -1.07355326e-001 1.72368392e-001 1.10820636e-001 -4.05151308e-001
      -2.46458337e-001 1.92994643e-002 -7.66128749e-002 7.20495209e-002
      -1.18036032e-001 -2.90802658e-001 1.64941162e-001 -1.46702304e-001
      -7.71723688e-002 -7.16816559e-002 -6.95680305e-002
      -4.93161023e-001 -5.17909452e-002 1.29783796e-002 2.67752737e-001
      2.21535623e-001 -4.61770855e-002 2.17136160e-001 2.10984927e-002
      -1.40827939e-001 -4.21861649e-001 -3.07231601e-002 9.20514539e-002
      3.08241785e-001 -3.96658659e-001 -9.14172605e-002 -5.18816151e-002
      -4.67054844e-002 7.24076405e-002 -2.00884163e-001 2.10146174e-001
      -7.81233311e-002 -2.63130516e-001 8.65738653e-003 -2.70367861e-001
      8.59257504e-002 6.10839110e-003 4.35572714e-002 4.03029993e-002
      1.88270763e-001 -1.29090890e-001 -3.92290711e-001 -3.03003818e-001</_>
    <_>
      -5.95300257e-001 1.42808229e-001 9.43596661e-002 -1.02683052e-001
      7.94911757e-002 1.05034851e-001 2.43626069e-002 3.27625006e-001
      -3.04122090e-001 4.54132387e-004 5.91126025e-001 -1.55699169e-002
      -9.24194138e-003 -5.42355478e-002 -9.67186391e-002
      -3.95228893e-001 -1.54762238e-001 -2.28734966e-002
      -5.69826126e-001 -1.87139481e-001 -1.21964753e-001
      -4.27128039e-002 1.41154174e-002 4.40771505e-002 1.43844694e-001
      5.95568776e-001 -1.22600049e-002 6.17906749e-002 1.14412278e-001
      -1.21973395e-001 1.45141566e-002 -3.74220200e-002 -1.48116142e-001
      -4.84578788e-001 -3.34120452e-001 1.58892289e-001 6.21712208e-001
      6.85330555e-002 -3.16243827e-001 -1.31607829e-002 -1.13584787e-001
      -3.01007241e-001 -2.69025832e-001 -5.59839010e-001 2.05752209e-001
      3.43113899e-001 -1.77216470e-001 -4.11440194e-001 -5.27800545e-002
      -1.45020485e-001 -2.50012755e-001 -2.00600341e-001
      -4.81411785e-001 2.14361176e-001 7.30539560e-001 -2.04655733e-002
      -1.59108549e-001 -1.15143359e-002 -8.94205794e-002
      -3.09115529e-001 -3.73767853e-001 -8.53395164e-001 1.92809954e-001
      1.00473009e-001 -6.63447306e-002 -1.17349178e-001 -1.01610366e-002
      -3.26664671e-002 -1.45972013e-001 -1.07498832e-001
      -5.46749413e-001 1.39975429e-001 -9.91201401e-002 -9.21839662e-003
      -4.91848290e-002 -9.32397246e-002 -7.65310973e-002 1.14699015e-002
      7.25147054e-002 -1.03880197e-001 1.40656501e-001 -4.82644737e-001
      -4.87094261e-002 4.67842817e-002 5.81547339e-003 -3.57081853e-002
      1.59761846e-001 1.82042748e-001 -2.36358643e-002 -5.57276830e-002
      -1.58559963e-001 3.69955674e-002 3.72669920e-002 -3.53021510e-002
      4.59543839e-002 1.83577105e-001 1.63297459e-001 -5.18100448e-002
      -5.76883256e-002 -1.78520843e-001 -1.77299500e-001 4.51876484e-002
      -3.44202034e-002 9.42957923e-002 2.44281188e-001 1.64677277e-001
      -7.33461305e-002 -1.74182639e-001</_>
    <_>
      -5.45277417e-001 -2.18259588e-001 2.34434262e-001 9.82502922e-002
      -1.94982290e-001 1.95388589e-002 4.45908643e-002 4.84517142e-002
      -3.81628096e-001 2.34038547e-001 2.92187631e-001 9.42461565e-002
      -3.99741054e-001 -3.74087721e-001 -2.54476041e-001
      -3.73873293e-001 -1.81782603e-001 2.54750311e-001 -5.57139337e-001
      -3.95675242e-001 -4.92089801e-002 -7.98716769e-002 3.32915224e-002
      9.33868885e-002 2.83569962e-001 4.11477119e-001 5.63137187e-003
      2.18639508e-001 -2.70786673e-001 -3.14944714e-001 -4.80865806e-001
      -4.67756450e-001 -2.65472949e-001 -3.35159630e-001 6.56086951e-002
      5.12960792e-001 5.97435653e-001 -2.66134202e-001 -3.87919657e-002
      -1.53418317e-001 -1.98172703e-001 -5.33248842e-001
      -3.50696325e-001 -6.70354128e-001 4.06533986e-001 -2.62368713e-002
      -6.06432974e-001 -9.45607275e-002 -1.03319421e-001
      -2.16777667e-001 -3.95413548e-001 -2.00709611e-001
      -3.06270599e-001 2.56884515e-001 9.95982289e-001 -3.44103873e-001
      -1.45035937e-001 -2.97010690e-001 -3.91474098e-001
      -5.39781749e-001 -4.61255014e-001 -1.04708481e+000 5.58692515e-001
      2.04963312e-001 -3.17011535e-001 -1.12517633e-001 -1.94861114e-001
      -1.88230783e-001 -3.43350470e-001 -1.15584448e-001
      -8.13089013e-001 2.30358034e-001 -1.64630830e-001 -3.00265513e-002
      -7.24387169e-002 -1.88327640e-001 -3.49940956e-001 7.40846619e-002
      -1.19627304e-001 -9.84513983e-002 4.29464541e-002 -2.27340966e-001
      6.68366924e-002 4.86087687e-002 5.34879975e-002 -1.53979003e-001
      4.01952833e-001 2.95634329e-001 5.86793087e-002 -2.04295576e-001
      -9.18800533e-002 2.89146006e-001 2.53123492e-002 -1.53654560e-001
      -3.84847783e-002 1.36483625e-001 2.85738427e-002 -1.59680575e-001
      -1.76785529e-001 -7.70907057e-003 1.36052921e-001 1.39266416e-001
      1.88706711e-001 1.50566116e-001 2.15847358e-001 4.33613695e-002
      -2.71976799e-001 -1.59447432e-001</_>
    <_>
      -3.41387978e-003 1.44587159e-001 1.36987060e-001 -6.41049892e-002
      -3.06165636e-001 -5.34736328e-002 2.07022280e-002 1.51424304e-001
      -4.03661169e-002 2.86141206e-002 -1.27963826e-001 -4.83885175e-003
      -8.26340318e-002 -1.42117754e-001 -4.24297564e-002
      -1.65676009e-002 1.47668749e-001 2.64633805e-001 -2.51023591e-001
      -3.41023415e-001 -3.66869494e-002 4.71954681e-002 -1.23225376e-001
      -6.27904087e-002 7.45993331e-002 2.06106931e-001 -3.38316038e-002
      1.72058158e-002 -3.71377647e-001 -1.94885761e-001 3.01091764e-002
      8.38581845e-003 -4.61658090e-003 4.36589234e-002 2.83875376e-001
      2.38676667e-001 -2.91349851e-002 -4.50687110e-001 -4.49453257e-002
      -2.43593343e-002 -2.84932796e-002 -4.26298240e-003
      -3.36415903e-003 8.53937268e-002 4.25918460e-001 -4.96179722e-002
      -4.21153128e-001 -4.87911020e-004 -4.67654364e-003
      -1.37380650e-002 2.82550585e-002 1.29696447e-002 1.17322206e-001
      3.48753959e-001 5.50847873e-002 -4.83299911e-001 -1.08054750e-001
      -4.90075350e-003 -2.39619296e-002 -1.27760945e-002
      -4.56976099e-003 8.16161186e-002 4.24441516e-001 -2.67376434e-002
      -3.87615502e-001 -2.53423173e-002 -3.97373037e-003 1.36373453e-002
      2.60230526e-002 2.10388191e-002 6.15392812e-002 3.81621182e-001
      -2.50638187e-001 -2.31326297e-001 -2.62497142e-002
      -2.01631058e-002 -5.56068197e-002 4.37536575e-002 6.43009469e-002
      1.97901711e-001 1.48988262e-001 -3.16056162e-001 2.49014478e-002
      1.21886691e-003 1.78289041e-002 -2.22837795e-002 8.88110995e-002
      1.59637123e-001 2.31378153e-001 -1.47587001e-001 -2.07322091e-001
      -6.97009489e-002 1.02932509e-002 1.28669292e-002 4.38263863e-002
      6.20437302e-002 7.38114044e-002 6.79255724e-002 2.22061276e-001
      -1.17387161e-001 2.28410020e-001 9.87561047e-002 5.27281128e-002
      1.17120750e-001 9.03603658e-002 8.67500082e-002 5.82848303e-002
      -1.38085857e-002</_>
    <_>
      -5.34061491e-001 3.18338573e-001 2.40968809e-001 8.58159587e-002
      -2.52514817e-002 3.48373502e-002 6.97359070e-002 2.52417386e-001
      -8.44330788e-001 1.48739606e-001 4.33538735e-001 -1.18931150e-002
      -5.30076511e-002 -1.59571156e-001 -2.89163291e-001
      -1.27225876e-001 -2.06462771e-001 -7.87493773e-003
      -7.69376993e-001 -7.03849122e-002 -6.77023688e-003 1.48223430e-001
      2.52324697e-002 -5.76546229e-002 1.93527222e-001 5.79300582e-001
      -1.51403084e-001 1.09145872e-001 -4.41841573e-001 -2.21492216e-001
      -1.12107903e-001 -1.28944129e-001 -2.49107897e-001
      -7.67740011e-002 2.04524159e-001 6.59609511e-002 4.74236399e-001
      -4.03007030e-001 -2.84410805e-001 -3.41105759e-001
      -2.46635512e-001 -2.40261227e-001 -2.82959878e-001
      -4.55278397e-001 3.52370203e-001 2.17898756e-001 -7.91058064e-001
      -6.64121568e-001 -4.29592282e-001 -1.61147892e-001
      -7.54322261e-002 -3.02168936e-001 -2.00810388e-001 4.75923747e-001
      4.12163138e-001 -5.46499610e-001 -3.62075508e-001 -3.66015345e-001
      -2.70012945e-001 -2.67165184e-001 -4.10446346e-001
      -6.99284077e-001 3.77997696e-001 3.41615260e-001 -2.65298009e-001
      -4.34883893e-001 -2.62623787e-001 -1.77487507e-001
      -1.85483783e-001 -5.38064241e-001 -1.07515740e+000 3.60177010e-001
      -2.57097840e-001 -1.39778033e-001 -1.68916270e-001
      -3.25238183e-002 2.37062760e-002 5.99750988e-002 1.02953799e-002
      3.09438586e-001 1.05547301e-001 -4.38463897e-001 -1.99657585e-002
      1.41441002e-002 1.78620428e-001 6.87367320e-002 4.26250622e-002
      7.98486173e-002 1.07284218e-001 -3.09708744e-001 -6.09440170e-002
      -4.85670976e-002 -2.02783886e-002 4.49697487e-002 7.75452629e-002
      1.25426710e-001 -1.42223224e-001 -3.74320954e-001 -2.00274289e-001
      -9.82337724e-003 3.83079909e-002 -6.77994564e-002 1.21145003e-001
      8.87815431e-002 1.18827395e-001 -7.50111267e-002 -2.75015324e-001
      -1.61787167e-001</_>
    <_>
      -1.28676340e-001 1.33501306e-001 1.98867977e-001 1.68510601e-001
      -2.05461327e-002 -7.91553706e-002 -2.12933067e-002
      -1.02399439e-001 -8.94153893e-001 1.48450673e-001 1.38632163e-001
      -1.34457797e-001 -1.63088590e-001 1.24784280e-002 -3.28653422e-003
      -1.38615295e-001 -4.87457782e-001 2.09642798e-002 -3.88188273e-001
      2.62940913e-001 1.43376306e-001 1.48489222e-001 1.00254431e-001
      4.11634408e-002 1.47320330e-001 3.82715791e-001 -3.15258831e-001
      -2.05008406e-002 -1.05514921e-001 -9.41616595e-002
      -1.19818011e-002 2.44410522e-002 -4.09898236e-002 3.72749120e-002
      4.35827702e-001 4.94705029e-002 3.19074035e-001 -5.23338914e-001
      -3.47126365e-001 -5.02439857e-001 -2.75192291e-001
      -1.94487110e-001 -5.13518572e-001 -1.08806825e+000 2.24503681e-001
      5.49893022e-001 -2.54158881e-002 -3.38646859e-001 -6.31266415e-001
      -7.83880413e-001 -7.30323136e-001 -7.76342928e-001
      -8.48053098e-001 9.52103496e-001 2.11581782e-001 -5.43141305e-001
      -2.69189447e-001 -2.08209053e-001 -1.58464193e-001
      -1.49166360e-001 -1.66241571e-001 9.33570601e-003 2.20435709e-001
      2.05535010e-001 7.57394284e-002 -1.88748330e-001 -2.85591811e-001
      -3.08777720e-001 -2.25519195e-001 -2.71060228e-001
      -3.17619115e-001 2.92019337e-001 2.20045447e-002 2.22577959e-001
      -3.13910335e-001 -4.41635132e-001 -3.89639527e-001
      -4.12682056e-001 -3.30780178e-001 3.62006992e-001 9.13899183e-001
      -7.72111893e-001 -4.66721445e-001 -1.54456124e-001
      -3.96307446e-002 -1.08454227e-002 8.81011933e-002 4.51177955e-002
      5.02055943e-001 -1.40919581e-001 -1.59966663e-001 1.65956244e-001
      4.48293053e-002 -8.91618356e-002 -7.19814450e-002 1.23870242e-002
      -1.97474100e-002 1.97377354e-002 -6.26799017e-002 -2.70184129e-001
      -8.84578079e-002 1.69757187e-001 1.79499522e-001 2.30790257e-001
      1.18211314e-001 1.50339246e-001 1.14473775e-001 -4.70763385e-001</_>
    <_>
      1.11063927e-001 -1.18171476e-001 -1.82990637e-002 7.45561421e-002
      8.96283537e-002 6.98202327e-002 4.87972088e-002 -1.47382572e-001
      -2.94671115e-003 4.86262105e-002 -4.32687044e-001 -7.21965358e-002
      6.00575916e-002 6.75019771e-002 2.61923159e-003 9.04994905e-002
      1.22320674e-001 2.69184690e-002 1.09924026e-001 5.69221042e-002
      6.35168329e-002 2.73238625e-002 4.48096767e-002 -7.32468441e-004
      -1.12142554e-002 -2.58124590e-001 -2.12501138e-002 3.43443602e-002
      -1.36667788e-001 3.89320888e-002 1.21554891e-002 5.05470522e-002
      -8.57840478e-003 6.09176531e-002 5.71528077e-002 3.32790501e-002
      -3.49192470e-002 -6.02314055e-001 -1.43200442e-001 3.70487734e-003
      1.27716316e-003 2.22363360e-002 3.32210995e-002 1.46140203e-001
      4.31759804e-001 1.79187030e-001 -5.70383966e-001 -2.04153389e-001
      -1.59114935e-002 -5.90138882e-003 6.14370182e-002 8.11065175e-003
      7.69903958e-002 5.53252935e-001 -5.77820092e-002 -5.36954284e-001
      -6.77816719e-002 6.63228147e-003 2.89019961e-002 1.72667764e-002
      5.50851375e-002 1.44322053e-001 2.35248581e-001 1.38851672e-001
      -5.32721758e-001 -6.00599051e-002 3.43771651e-002 2.42869202e-002
      8.75772350e-003 9.07663442e-003 4.60088961e-002 4.36058581e-001
      1.53456509e-001 -3.84701520e-001 -1.54070035e-001 9.38205700e-003
      -8.07820261e-003 -5.90419360e-002 3.30201554e-004 6.33583441e-002
      4.13028330e-001 -6.80972449e-003 -1.65725932e-001 6.80517852e-002
      1.40902586e-003 8.14892352e-003 -1.47700965e-001 -1.65522471e-001
      2.34151594e-002 -1.56615078e-001 3.10721725e-001 -2.82365590e-001
      2.06553880e-002 5.03226146e-002 -1.02451304e-002 -1.19713850e-001
      -5.92262484e-002 -3.27516906e-002 3.99781436e-001 6.43671453e-002
      1.46920055e-001 6.53643012e-002 3.98537796e-003 -1.25915874e-002
      -2.38066331e-001 -1.38292685e-001 -1.52253196e-001
      -1.94145352e-001</_>
    <_>
      -3.76716822e-001 7.20902383e-002 9.98372883e-002 2.04271689e-001
      3.81699532e-001 -1.28009170e-001 3.24657597e-002 -9.28577315e-003
      -5.26303530e-001 9.51260701e-002 -8.09611261e-001 -3.66317779e-001
      1.26061976e-001 4.10584360e-001 2.27921810e-002 2.54314780e-001
      5.46619713e-001 5.28144687e-002 -1.06525443e-001 2.47354761e-001
      -3.07239941e-003 2.20486633e-002 1.12587415e-001 -1.31990209e-001
      -2.40125969e-001 2.25796830e-002 1.08765766e-001 1.10993549e-001
      -4.52575445e-001 -3.95536393e-001 -9.79382768e-002 7.46653229e-002
      5.89925088e-002 5.62016331e-002 4.33389038e-001 1.35535479e-001
      -4.77256626e-002 -6.06045127e-001 -1.63457751e-001
      -3.41206905e-003 8.27168599e-002 3.16978730e-002 -4.08669449e-002
      -1.19344905e-001 1.29065469e-001 6.15261555e-001 -1.67750437e-002
      -2.35169334e-003 -1.13093078e-001 -2.42178619e-001
      -2.94034183e-002 -6.74134612e-001 -8.47720742e-001 3.51225495e-001
      2.05086797e-001 -4.95420098e-001 -2.44705230e-001 -6.80465475e-002
      -5.23494184e-002 -3.72740924e-002 -8.35716650e-002
      -2.02832937e-001 4.55059409e-001 3.86436909e-001 -7.16965348e-002
      -3.68861370e-002 -9.76474658e-002 -1.09689280e-001
      -1.28949419e-001 -5.67844868e-001 -1.13597822e+000 4.55493003e-001
      3.01464617e-001 -1.19827967e-002 4.06877585e-002 -2.87144650e-002
      -1.45692557e-001 -1.20715648e-001 -3.45872760e-001
      -5.99298656e-001 3.17019522e-001 -2.39286259e-001 -4.44056451e-001
      9.76470187e-002 -1.99290052e-001 3.00492495e-001 5.04688807e-002
      -1.92435652e-001 -4.40234035e-001 1.65765911e-001 4.86055434e-001
      7.68194050e-002 -1.12417480e-002 8.56521726e-002 8.40441063e-002
      -2.92817242e-002 -1.26932010e-001 -3.71376216e-001 6.00803852e-001
      2.47540399e-002 -5.35131693e-001 -1.18669629e-001 -1.98049359e-002
      3.21357220e-001 1.52951881e-001 7.88732544e-002 2.38651317e-002
      8.91594440e-002</_>
    <_>
      -8.26701000e-002 -3.01748574e-001 1.10302299e-001 2.24081233e-001
      2.63304323e-001 2.16548033e-002 1.02048002e-001 1.02696180e-001
      1.53593242e-001 1.72104269e-001 -6.04401052e-001 -1.19795650e-001
      1.96600795e-001 2.47358590e-001 1.51654035e-002 2.05037713e-001
      2.71206826e-001 3.70987207e-001 -4.33132984e-003 -2.54032075e-001
      -5.58330528e-002 5.22690453e-002 6.99186623e-002 -3.16359289e-002
      5.48831895e-002 4.54119556e-002 -3.40612829e-002 -3.40612829e-002
      -2.74128675e-001 -6.35337234e-002 1.73625462e-002 3.20351683e-002
      -7.80751854e-002 2.67391149e-002 1.91650927e-001 -3.40612829e-002
      -9.96692628e-002 -7.36720443e-001 -1.58530369e-001 4.31700014e-002
      3.08835227e-002 5.92962094e-002 1.15196183e-001 2.78128326e-001
      3.77259761e-001 3.05144750e-002 -7.31967092e-001 -1.73321515e-001
      -1.71794519e-002 -7.96085522e-002 -9.36086010e-003
      -1.07595325e-002 4.19291295e-002 2.16014102e-001 1.10274024e-001
      -4.20834988e-001 -1.11270517e-001 1.03350240e-003 -1.76834874e-002
      3.45975603e-003 6.51400685e-002 1.58436701e-001 2.04980627e-001
      2.04980627e-001 -4.51946795e-001 -2.45060205e-001 1.45526985e-002
      -8.51598457e-002 -1.34410150e-002 -1.35896415e-001
      -3.91019076e-001 2.04980627e-001 2.84400523e-001 -1.56716660e-001
      -2.06110924e-002 1.20698866e-002 -3.85284603e-001 -1.11770742e-001
      -1.05597690e-001 -6.23290315e-002 2.62347311e-001 3.06147337e-001
      1.11159265e-001 1.12505013e-003 -9.39126164e-002 -3.68167609e-001
      -2.02226520e-001 -2.38067195e-001 -2.13610575e-001
      -7.76668265e-002 2.84170836e-001 -1.91737562e-001 -4.26728725e-002
      1.64916888e-001 -1.59343481e-001 2.82937922e-002 -2.06959978e-001
      -4.59529042e-001 2.36358583e-001 -2.09631659e-002 -1.96049273e-001
      -7.49765709e-002 9.96457860e-002 -5.15790582e-002 2.85733603e-002
      -2.67046928e-001 -5.62979579e-001 -9.71413925e-002</_>
    <_>
      -6.15497589e-001 1.64244637e-001 -1.44277096e-001 -7.85242543e-002
      3.03559661e-001 1.27213329e-001 8.27829614e-002 1.00326896e-001
      5.91046885e-002 -6.09216429e-002 1.49612114e-001 -6.75383881e-002
      1.47991613e-001 2.49260545e-001 -5.09703271e-002 -1.34769887e-001
      -2.78373957e-001 7.43033364e-002 -1.78847000e-001 6.33047000e-002
      -1.66018233e-001 -2.55956084e-001 -7.89372623e-002 3.65959927e-002
      1.17606983e-001 6.72509298e-002 2.45926365e-001 1.89642280e-001
      1.62368357e-001 -8.80564973e-002 -9.13605839e-002 -4.89210300e-002
      6.05966570e-003 -4.05380666e-001 -5.68181336e-001 1.78498283e-001
      4.50896889e-001 -2.39432976e-002 -3.39274853e-001 4.53265458e-002
      -1.99680068e-002 -1.72793448e-001 -1.41026974e-001
      -4.36354786e-001 1.65726647e-001 5.24126887e-001 -1.73571110e-001
      -4.48240191e-001 -2.75210664e-002 -1.31002709e-001
      -2.23228768e-001 -2.82291204e-001 -6.14391983e-001 2.41959468e-001
      6.79350793e-001 -3.73165756e-002 -1.20140538e-001 1.22349830e-002
      -2.48108599e-002 -9.82638225e-002 -2.91371226e-001
      -7.42573500e-001 2.41815507e-001 2.09945083e-001 -5.70494495e-002
      -4.44729961e-002 5.37879802e-002 2.89626401e-002 -1.44525200e-001
      -1.82940409e-001 -7.31266320e-001 2.04157203e-001 1.81076393e-001
      -3.25093448e-001 -6.95657879e-002 -1.11699171e-001
      -4.40969318e-002 -9.71575975e-002 -1.09917030e-001
      -4.78386194e-001 3.07693899e-001 1.30306417e-002 -4.17381972e-001
      -5.96292838e-002 -1.14271946e-001 6.62517175e-002 1.11513317e-001
      -2.54966289e-001 -6.05234504e-001 3.17535400e-001 1.62473872e-001
      -3.96566838e-001 8.07799697e-002 3.95156741e-002 8.96911174e-002
      3.77556533e-002 2.13310793e-002 -2.02588856e-001 1.62473872e-001
      5.89897074e-002 -7.02950954e-001 -1.62054598e-001 -1.03625283e-002
      6.45165443e-002 1.22220948e-001 7.30940178e-002 -7.70540982e-002
      2.29501978e-001</_>
    <_>
      -4.28808391e-001 -1.84405506e-001 2.40157917e-001 1.95452914e-001
      5.23778200e-002 -9.72952414e-003 -4.43880334e-002 -4.54708003e-002
      2.86353026e-002 1.46991700e-001 -3.30148041e-001 8.16520602e-002
      3.05033829e-002 2.47700904e-002 -2.65083928e-002 -1.16745181e-001
      -6.67248070e-002 2.72653162e-001 6.61059991e-002 -2.27634683e-001
      1.02583677e-001 1.14091695e-003 -1.32248521e-001 -1.16866700e-001
      -1.41868934e-001 -3.47663254e-001 5.65038681e-001 3.38825017e-001
      -2.96201169e-001 -2.30542392e-001 -1.73942968e-001
      -3.92833531e-001 -1.16025731e-001 -4.01219904e-001
      -4.28167850e-001 4.49660152e-001 1.77721858e-001 -2.06603691e-001
      -1.09356213e-002 9.08820052e-003 -1.32644949e-002 -1.74947768e-001
      -1.26456365e-001 -2.50943512e-001 1.22853749e-001 1.60518378e-001
      -4.37584788e-001 -3.36506031e-002 -2.04647258e-002
      -8.84503052e-002 -3.11264366e-001 -2.37927392e-001
      -3.76892775e-001 1.29785925e-001 7.68235445e-001 -2.19318107e-001
      -9.49972123e-002 -6.94166049e-002 -1.79299355e-001
      -2.85205483e-001 -2.88754106e-001 -6.91755533e-001 5.14881730e-001
      2.04160109e-001 -3.67457271e-001 2.01156898e-003 9.36768111e-003
      -7.87355974e-002 -4.63131875e-001 -2.22792596e-001
      -7.98457325e-001 2.02871412e-001 2.02471957e-001 -2.12537497e-001
      -5.16185947e-002 -1.14577286e-001 -1.50600910e-001
      -3.13405581e-002 -1.70056090e-001 -3.51219445e-001 1.20375216e-001
      2.22482815e-001 -7.75289536e-002 -8.20549391e-003 -5.28254136e-002
      -9.27608237e-002 9.08039585e-002 -7.59052709e-002 -4.21171099e-001
      1.35600388e-001 2.09184393e-001 -1.70023859e-001 -2.62475573e-002
      -2.03610789e-002 -7.34179094e-003 -5.82445785e-002
      -4.30087000e-002 -2.85708994e-001 2.60571927e-001 2.68621892e-001
      -2.96663761e-001 -1.35687009e-001 -1.87083036e-002
      -1.23960331e-001 4.71673943e-002 5.60611673e-002 -2.13272274e-001
      1.81406617e-001</_>
    <_>
      2.76546646e-002 1.31306678e-001 6.22012615e-002 -2.22140681e-002
      -2.12542608e-001 -4.56795879e-002 5.34656346e-002 8.38303789e-002
      1.16787337e-001 -7.15564191e-003 -3.13302696e-001 2.59303898e-002
      -6.04166090e-003 -5.56034222e-002 -2.47084666e-002 9.15488601e-002
      1.50953308e-001 2.08073586e-001 -9.76660401e-002 -2.56847829e-001
      4.71654013e-002 -2.87174713e-002 -1.58463359e-001 -9.98826325e-002
      -2.12581679e-002 -2.26413067e-002 3.62621285e-002 2.30370779e-002
      -3.19497764e-001 -6.33186102e-002 9.97705385e-003 3.19728851e-002
      1.85322445e-002 9.34664756e-002 2.21452162e-001 2.46263251e-001
      -1.49562553e-001 -5.38097560e-001 -2.11270172e-002 3.11131100e-003
      2.10676827e-002 5.66917174e-002 7.85451680e-002 1.67117059e-001
      3.76438171e-001 -3.37655246e-002 -5.28767586e-001 -5.00117522e-003
      1.18798465e-002 2.32754685e-002 6.46844208e-002 1.69110745e-002
      8.61694664e-002 3.82307649e-001 1.72573365e-002 -5.37489831e-001
      -6.80838898e-002 7.24797323e-003 2.43865624e-002 3.33497301e-002
      1.09589733e-001 2.14456081e-001 4.87125725e-001 1.37664918e-002
      -4.84244287e-001 1.23505862e-002 3.09349932e-002 4.40291911e-002
      1.30690560e-002 3.44138406e-002 6.82258978e-002 4.51168060e-001
      -1.49686396e-001 -3.90568584e-001 -2.00869562e-003
      -1.09051410e-002 -1.11133484e-002 3.25158536e-002 6.64834108e-004
      5.72454259e-002 2.67618001e-001 -1.29112095e-001 7.64259323e-003
      5.99036887e-002 5.09934649e-002 2.19287332e-002 1.19901255e-001
      4.21034992e-002 6.69256896e-002 -1.30735427e-001 -9.20337960e-002
      -2.06936017e-001 1.67843550e-002 9.86823719e-003 3.91334519e-002
      -1.95212109e-004 4.01506340e-003 1.62964761e-002 4.05354172e-001
      -2.94081271e-002 1.12181418e-001 3.12198065e-002 1.79810263e-002
      4.96281236e-002 3.47914882e-002 7.62525275e-002 1.05281875e-001
      1.98615327e-001</_>
    <_>
      -6.99327588e-001 3.31610620e-001 2.50538737e-001 8.11099261e-002
      4.30685341e-001 1.32826537e-001 1.40209571e-001 1.02730885e-001
      -5.39862096e-001 9.12954956e-002 -4.00737971e-002 -1.14133835e-001
      8.70736316e-002 3.25201660e-001 -1.09610908e-001 1.71228081e-001
      1.75833702e-001 -4.06071432e-002 -3.04874748e-001 9.37677026e-002
      -4.53603640e-002 -7.15184212e-002 6.22304380e-002 -1.85802028e-001
      -5.70304692e-002 -1.46421060e-001 5.74628562e-002 8.99370015e-002
      -3.79518956e-001 -2.33827472e-001 -2.61965632e-001 1.07966671e-002
      -5.21828271e-002 2.80438196e-002 2.01882496e-001 8.99370015e-002
      7.43079260e-002 -4.51158375e-001 -2.26553813e-001 -3.40774447e-001
      -1.47778139e-001 -4.75078598e-002 -7.17811286e-002
      -2.48646904e-002 1.60411015e-001 3.20181519e-001 -8.69127989e-001
      -5.86480379e-001 -4.77960318e-001 -6.56707734e-002 3.57075967e-002
      -3.62614214e-001 -4.86015379e-001 3.44486266e-001 2.86174476e-001
      -4.21565443e-001 -2.42888406e-001 -3.31483513e-001
      -1.54101416e-001 -1.00981347e-001 -1.22287527e-001
      -4.06785518e-001 4.03029770e-001 4.16469991e-001 -5.12014925e-001
      -2.33500168e-001 -1.72081932e-001 -8.00995901e-002
      -2.94249713e-001 -4.84368593e-001 -1.30235350e+000 4.00537908e-001
      1.89697653e-001 -3.32048655e-001 -1.63397878e-001 1.54607952e-001
      2.78871626e-001 -3.38260047e-002 -1.85394734e-001 -1.41778234e-002
      1.60678923e-001 -1.07221596e-001 -2.75753081e-001 -3.06931958e-002
      2.57033437e-001 5.93512177e-001 -1.41910255e-001 -2.33222634e-001
      -6.66296124e-001 -8.42559114e-002 3.09345841e-001 -4.06054378e-001
      -6.72932193e-002 2.00207338e-001 2.23122507e-001 -6.27219826e-002
      -2.22024739e-001 -4.30686533e-001 3.20124507e-001 9.58853960e-002
      -6.20975792e-001 -2.46317640e-001 -6.68384805e-002 2.69111782e-001
      1.66444271e-003 -1.10355899e-001 -2.94786066e-001 2.47259453e-001</_>
    <_>
      8.62449184e-002 2.63345018e-002 1.69983298e-001 2.98129976e-001
      4.45265710e-001 -1.62630230e-001 8.94889794e-003 -4.84256446e-001
      -3.65666747e-001 6.99354485e-002 -4.86783594e-001 -6.80333078e-002
      1.13096364e-001 4.68174577e-001 6.57425150e-002 7.54893571e-002
      -5.58600783e-001 -1.34289756e-001 3.86531621e-001 3.81776810e-001
      1.70950308e-001 1.33113591e-002 1.48050457e-001 -8.62553939e-002
      -4.54087295e-002 -4.25484449e-001 1.43473700e-001 1.11889355e-001
      4.44231778e-002 -3.57980877e-002 -4.54347767e-002 6.11838400e-002
      -4.81149927e-002 6.46122843e-002 7.61035681e-002 5.00656404e-002
      -1.55518216e-003 -4.09707338e-001 -2.32239410e-001
      -3.71768296e-001 -3.95246521e-002 7.09896535e-002 -2.46586248e-001
      -7.04617441e-001 5.45681193e-002 2.20014378e-001 -1.36282697e-001
      -1.53594866e-001 -3.87772709e-001 -5.08417368e-001
      -3.83526593e-001 -5.67916751e-001 -7.66144097e-001 6.49848700e-001
      7.74306953e-002 -2.39909559e-001 -1.70664072e-001 -1.57259867e-001
      -1.14564084e-001 -6.74090981e-002 2.92719454e-002 2.10990340e-001
      2.60134816e-001 2.23607898e-001 -1.31024137e-001 -4.80880924e-002
      -9.51342508e-002 -2.21289754e-001 -1.45826504e-001
      -2.15940863e-001 -1.59951836e-001 3.11200708e-001 1.72731280e-001
      -1.60965219e-001 -2.14891106e-001 -1.48359820e-001
      -1.94809258e-001 -3.30234855e-001 -3.75855625e-001
      -1.80628151e-001 8.00320566e-001 -2.70966649e-001 -7.12192237e-001
      -1.94311127e-001 -1.63680270e-001 3.43321502e-001 1.75039455e-001
      -3.13829154e-001 1.14333287e-001 3.16776246e-001 2.54984111e-001
      -1.94236577e-001 -8.67081247e-003 3.45315896e-002 -2.46987566e-002
      -5.64962290e-002 -1.13429390e-001 1.39489525e-003 4.34743762e-001
      -2.80460250e-002 -5.16622066e-001 2.78957989e-002 -5.39320521e-002
      2.79561609e-001 9.38991308e-002 1.33157805e-001 2.56209999e-001
      -1.40744885e-002</_>
    <_>
      -5.93914539e-002 -3.33540775e-002 -2.44997099e-001
      -8.97847638e-002 1.44709414e-002 -1.20237172e-002 1.21710403e-002
      2.87799984e-001 9.73794684e-002 6.76571056e-002 1.22913010e-001
      -1.30939752e-001 -1.09072082e-001 -7.43470639e-002
      -4.00792528e-003 -1.17453203e-001 8.40596110e-002 8.65204334e-002
      -4.52559255e-002 -5.82671724e-002 -1.34013668e-001
      -2.27743462e-002 -6.16299026e-002 -7.44265020e-002
      -1.14764296e-001 1.94382071e-001 1.89559206e-001 8.48410558e-003
      1.70083251e-002 -1.45324036e-001 -7.44518489e-002 -6.52080327e-002
      -1.19898496e-002 -1.99152842e-001 -1.22091342e-002 3.99062447e-002
      -9.08952439e-004 4.56009656e-001 1.52363062e-001 -1.08922109e-001
      -6.42464533e-002 -1.11345984e-001 -1.72406971e-001
      -1.86947793e-001 -2.91916847e-001 -2.26709191e-002 6.87538803e-001
      4.33555812e-001 2.33798213e-002 -5.60168400e-002 -3.10665756e-001
      -4.14725661e-001 -3.82003069e-001 -3.81278098e-001 5.15034012e-002
      4.50915843e-001 1.17504112e-001 -9.16607827e-002 -7.03155622e-002
      -1.72274679e-001 -1.89476684e-001 -2.80610681e-001
      -1.88714221e-001 -3.03258121e-001 4.37278569e-001 2.64733732e-001
      -5.07466123e-002 -1.10600963e-001 -2.91185766e-001
      -3.78532410e-001 -5.60445666e-001 -4.74309474e-001 6.41962290e-002
      5.77186346e-001 3.75034988e-001 1.15581192e-001 5.17551899e-002
      -1.39026627e-001 -2.70344108e-001 -3.02613616e-001
      -1.74653500e-001 7.66647831e-002 1.59761369e-001 -4.76821065e-002
      9.57062989e-002 2.05992505e-001 8.12152103e-002 -1.48617566e-001
      -2.84419775e-001 1.83689952e-001 -2.98811466e-001 2.64668941e-001
      6.66586608e-002 2.70553306e-002 1.17799684e-001 2.24713087e-002
      -4.10347730e-002 -2.18102425e-001 -3.04603875e-001
      -3.61465253e-002 -1.97961122e-001 -2.77777553e-001 8.80571455e-003
      2.08397284e-001 2.79353499e-001 1.62413210e-001 1.99167550e-001
      1.91450939e-001</_>
    <_>
      -1.40556857e-001 -3.33976954e-001 6.19028602e-003 9.54973400e-002
      2.98253000e-001 1.00602053e-001 1.40947178e-001 5.11879444e-001
      3.69805634e-001 8.53024647e-002 -4.76859212e-002 6.53483719e-002
      6.72190264e-002 1.40496641e-001 -2.97736283e-002 -3.13116051e-002
      1.59198895e-001 3.38106513e-001 -3.65099728e-001 -5.87831140e-001
      -2.88843930e-001 -7.05669969e-002 6.80507198e-002 -6.00276189e-003
      1.26017436e-001 6.18134141e-001 -6.60086498e-002 -4.76859212e-002
      -4.15558219e-002 7.94562250e-002 3.49335132e-005 -1.18890693e-002
      -2.28681549e-001 -1.45762891e-001 2.05742016e-001 -4.76859212e-002
      -3.70374545e-002 1.78236336e-001 1.80490613e-001 2.03919206e-002
      -4.66046892e-002 -9.03588533e-002 -7.21489489e-002
      -5.33570163e-002 -1.61003336e-001 -2.80099988e-001 1.51132166e-001
      2.28748694e-001 1.52491443e-002 -8.77794400e-002 -1.07163601e-001
      -8.55345577e-002 -1.39667973e-001 -5.14138520e-001
      -1.31318476e-002 4.89779532e-001 2.17198595e-001 2.42017675e-004
      -7.20019713e-002 -1.93862900e-001 -1.06002420e-001
      -1.00156710e-001 -3.75714004e-001 -2.62392998e-001 4.13296878e-001
      4.44056168e-002 1.82044115e-002 2.67296936e-003 -6.94055110e-003
      -1.54153541e-001 -4.21082079e-001 -6.44842744e-001 8.36349577e-002
      5.78328073e-001 3.09207290e-001 2.33566593e-002 -1.65014908e-001
      -2.29248181e-002 -1.17930278e-001 -2.03213468e-001
      -2.34180540e-001 3.49992812e-001 4.86611485e-001 2.57711057e-002
      3.34492661e-002 -7.16761127e-002 1.13332339e-001 2.75356378e-002
      -3.02161425e-001 -1.78806894e-002 -2.85151750e-001 2.99372703e-001
      -8.04393142e-002 2.90732700e-002 2.83192866e-003 1.96087718e-001
      -9.60081220e-002 -3.71256530e-001 -4.74807650e-001
      -1.25571862e-001 -2.44246751e-001 -1.73507705e-001
      -3.65219545e-003 1.23939505e-002 2.59683818e-001 -6.15547933e-002
      -2.92012393e-001 -6.80664256e-002</_>
    <_>
      -3.40029478e-001 4.83866632e-002 3.16906571e-002 1.01854689e-002
      9.60922465e-002 7.27749541e-002 5.37839979e-002 2.35219836e-001
      6.14230596e-002 -8.96165147e-002 3.59272540e-001 7.04175010e-002
      3.67255062e-002 3.97399589e-002 1.84618775e-002 -1.47414684e-001
      -7.54040256e-002 -5.36042489e-002 -2.48262122e-001
      -1.36742622e-001 -1.55964598e-001 -1.10143587e-001
      -5.14376238e-002 3.00325565e-002 7.16121942e-002 2.48758793e-001
      1.15193509e-001 3.20588052e-002 1.54392838e-001 -2.43517999e-002
      -3.55516002e-002 -5.87911420e-002 -7.30965808e-002
      -2.68795133e-001 -2.28337184e-001 1.04533039e-001 1.32053047e-001
      4.25598353e-001 4.04128209e-002 8.02559685e-003 -2.82975920e-002
      -9.84472632e-002 -1.16959132e-001 -2.27852896e-001
      -2.24736124e-001 2.06333622e-002 3.06995094e-001 9.43082944e-002
      8.50732625e-003 -4.60823923e-002 -1.22596815e-001 -1.10832565e-001
      -2.52251446e-001 -3.24082941e-001 2.55121559e-001 4.16130930e-001
      5.08622602e-002 -4.47361730e-003 -5.20657301e-002 -1.78850681e-001
      -2.15270221e-001 -3.77346009e-001 -7.79311433e-002
      -1.44069865e-001 3.47046971e-001 7.87420943e-002 2.57835481e-002
      -1.59440190e-002 -1.32504568e-001 -8.32999945e-002
      -3.40026498e-001 -3.32033277e-001 -2.02660691e-002 2.34005392e-001
      1.86443761e-001 1.11035109e-002 5.38061447e-002 3.39460261e-002
      -3.16675939e-002 -1.80968896e-001 -1.69787169e-001 1.81556698e-002
      1.55740187e-001 2.75142882e-002 6.87633082e-002 1.87223196e-001
      1.59552142e-001 1.31681291e-002 -1.97455466e-001 7.29498491e-002
      -2.22880542e-001 9.29567367e-002 8.78359005e-002 1.16040930e-002
      1.01843104e-001 7.96345994e-002 3.31755355e-002 -1.36201099e-001
      -2.96670258e-001 -9.44117680e-002 -2.29764491e-001
      -8.53196308e-002 -1.19798183e-002 9.01174322e-002 1.92062572e-001
      5.98441251e-002 -2.23647468e-002 8.38904157e-002</_>
    <_>
      -1.97835684e-001 -1.90043494e-001 -1.45177633e-001 1.50004942e-002
      2.75559109e-002 9.87389311e-003 1.05185993e-002 1.36397049e-001
      1.80105448e-001 -4.98263463e-002 1.36293694e-001 1.05726510e-001
      -7.48986229e-002 -5.66317737e-002 -6.67971149e-002
      -1.16895810e-001 -1.54929474e-001 5.44387214e-002 -5.55422083e-002
      -2.25265875e-001 -2.10425973e-001 -1.70063660e-001
      -5.64357303e-002 2.25441996e-002 -6.66460255e-003 1.26587451e-001
      1.57781154e-001 1.88382059e-001 2.88407858e-002 -9.50669050e-002
      -1.87173083e-001 -2.11703777e-001 -4.84868027e-002
      -1.46809354e-001 -1.07007317e-001 1.92847654e-001 4.68699746e-002
      4.50728327e-001 2.91549623e-001 -3.90655436e-002 -4.37082648e-002
      -1.51426896e-001 -1.43271521e-001 -3.08633655e-001
      -3.64015013e-001 -1.67957008e-001 3.37202400e-001 3.21779013e-001
      1.65620334e-002 -6.51917532e-002 -1.30265161e-001 -2.30633616e-001
      -4.01187152e-001 -5.43535054e-001 2.68970519e-001 4.75329548e-001
      1.98796451e-001 -1.14369445e-001 -1.65545329e-001 -1.53030291e-001
      -1.85143292e-001 -3.96942258e-001 -1.01268157e-001
      -1.67470038e-001 3.35153610e-001 1.55525371e-001 -5.60956709e-002
      -1.03793807e-001 -1.10667199e-001 -1.84839860e-001
      -3.63221020e-001 -4.52059388e-001 4.00940068e-002 3.51956993e-001
      2.29451165e-001 9.56645980e-003 -8.38012323e-002 1.39703136e-002
      -2.35225841e-001 -3.74068469e-001 -3.13782126e-001 1.98701203e-001
      2.42145687e-001 2.34127790e-002 7.89432004e-002 7.71973953e-002
      1.14010625e-001 -4.58253399e-002 -2.14202151e-001 2.27457926e-001
      -2.29204208e-001 2.36593112e-001 9.35986824e-003 -1.78439524e-002
      4.98990268e-002 4.21892963e-002 -9.23357084e-002 -1.24378324e-001
      -2.89165378e-001 8.86015669e-002 -9.53589231e-002 -1.87526703e-001
      4.63862792e-002 6.90297037e-002 1.62166238e-001 6.68701902e-002
      1.10365331e-001 3.04943115e-001</_>
    <_>
      4.09832504e-003 3.93303931e-001 1.83816001e-001 -1.39943600e-001
      -5.80683112e-001 -1.94724098e-001 -4.44030687e-002 4.14684236e-001
      3.67224872e-001 -1.13574430e-001 -3.14093642e-002 4.01629023e-002
      -1.16566084e-001 -1.65682346e-001 -5.96098006e-002
      -7.65961856e-002 1.10268384e-001 3.92500699e-001 -4.48728174e-001
      -7.24308729e-001 -1.08750664e-001 -6.35999739e-002
      -3.61290127e-001 -1.22876942e-001 7.05894735e-003 5.35278618e-001
      2.03008801e-001 8.57482606e-004 -4.73313063e-001 -3.13820183e-001
      -2.77457461e-002 -4.58417460e-002 2.50464361e-002 3.14292088e-002
      2.79355913e-001 5.25198460e-001 -2.61476487e-001 1.44518316e-002
      1.75515339e-001 -2.30160318e-002 4.65528145e-002 3.08831260e-002
      -1.93248491e-003 6.28069416e-003 7.60890990e-002 -4.50452179e-001
      1.83504838e-002 4.25561100e-001 4.84544188e-002 3.40766013e-002
      8.54487065e-003 -2.07943656e-002 -5.78372227e-003 -1.71959013e-001
      1.20069414e-001 -5.05288094e-002 -2.64525358e-002 -2.72973944e-002
      -2.25082748e-002 -1.26832556e-002 -1.57604634e-003 5.10049909e-002
      3.54276389e-001 -3.59405398e-001 3.92967835e-002 2.31810868e-001
      1.98954041e-003 3.39420736e-002 -5.93136624e-003 -7.11623952e-003
      1.27809178e-002 -2.62670871e-002 -4.36367571e-001 -8.21113586e-002
      3.31888199e-001 3.41574512e-002 -1.71890408e-002 1.38109624e-001
      -6.56811381e-003 3.23408395e-002 -2.23679423e-001 -2.38587946e-001
      1.69339761e-001 -4.70749289e-002 7.97918364e-002 2.34531239e-001
      3.95590395e-001 2.50359714e-001 1.36314288e-001 -2.35714745e-002
      -6.56683683e-001 1.92129880e-001 1.10978507e-001 5.85167892e-002
      2.44246215e-001 2.13097140e-001 1.03547640e-001 1.12897106e-001
      -9.03033763e-002 -2.28565335e-001 -5.03140427e-002
      -9.13728029e-002 1.09224185e-001 3.89922291e-001 5.64849615e-001
      3.42391551e-001 4.25137579e-001 4.40477401e-001</_>
    <_>
      -3.36921841e-001 -7.34366328e-002 2.07210630e-002 -2.36511808e-002
      5.89779057e-002 5.81801534e-002 9.86254439e-002 3.22472274e-001
      5.53041212e-002 -7.54704177e-002 4.33206648e-001 1.53007165e-001
      4.64118272e-003 8.79807398e-002 -5.83939767e-003 -1.69717163e-001
      -2.73025900e-001 -9.99282897e-002 -2.16632739e-001
      -1.87631220e-001 -1.26088664e-001 -7.18835965e-002
      -1.53323337e-001 -1.69616833e-001 1.08227450e-002 1.65911704e-001
      1.03129037e-001 3.82590555e-002 -6.77406341e-002 -6.48306161e-002
      -1.48458108e-001 -9.76471528e-002 -8.87919962e-003
      -1.16517179e-001 -1.33317932e-001 5.03440946e-002 9.92790535e-002
      5.37798345e-001 1.99710637e-001 -1.32391766e-001 -2.04197969e-002
      -1.32087708e-001 -2.36508906e-001 -2.93209285e-001
      -3.99471343e-001 -1.75663486e-001 3.31743598e-001 1.49498820e-001
      -9.97328907e-002 5.33048883e-002 -1.45322770e-001 -3.11382562e-001
      -2.87544131e-001 -4.72714663e-001 1.36113390e-001 4.05574292e-001
      1.65804565e-001 -1.67879105e-001 -1.14347443e-001 -1.91069782e-001
      -2.97615826e-001 -3.74364108e-001 -2.22733974e-001
      -2.25148410e-001 3.76460522e-001 1.66189656e-001 -5.99293225e-002
      -6.30712509e-002 -2.44408846e-001 -3.83025736e-001
      -6.19486928e-001 -5.35870612e-001 -2.37329099e-002 4.74968880e-001
      2.51176298e-001 5.86967953e-002 1.93959013e-001 -2.84631327e-002
      -2.45554879e-001 -2.69873738e-001 -3.40735972e-001 2.46713519e-001
      4.42063481e-001 3.41930799e-002 5.39985746e-002 1.94976330e-001
      5.09773605e-002 -1.37319863e-001 -2.11021096e-001 1.55588984e-001
      -3.28824788e-001 1.11800052e-001 -9.64129269e-002 -2.29536667e-002
      1.80698216e-001 6.41579852e-002 -8.26866925e-002 -1.90253198e-001
      -3.44194382e-001 1.14897296e-001 -1.87903687e-001 -3.13724726e-001
      -9.14003477e-002 3.30130048e-002 2.46048465e-001 8.90577585e-002
      1.23591207e-001 3.76469731e-001</_>
    <_>
      -2.56494004e-002 -2.02328153e-002 -1.20143164e-002 5.98878413e-003
      1.13930866e-001 -2.32885741e-002 -1.16803281e-001 6.33829087e-002
      1.71057448e-001 2.43333746e-002 2.68111706e-001 1.24847971e-001
      6.87279105e-002 1.44019127e-001 -9.64447949e-003 -1.61789060e-001
      -5.04964232e-001 -2.06351250e-001 1.70146495e-001 -1.31636159e-002
      -1.07013740e-001 -5.45182750e-002 -3.56750786e-002
      -5.97122945e-002 -4.67592888e-002 2.15723794e-002 1.34954453e-001
      6.84500784e-002 2.52402157e-001 -1.45190232e-003 -4.54510823e-002
      -2.33342517e-002 -1.58759542e-002 -4.30060551e-002
      -2.57795185e-001 -2.18710769e-002 3.29983644e-002 5.56119680e-001
      3.42271358e-001 -9.39694867e-002 -1.62579939e-002 -1.41464919e-001
      -3.49252611e-001 -5.75137615e-001 -5.77895820e-001
      -1.98773101e-001 5.44300258e-001 2.31027648e-001 -1.31494373e-001
      -1.99405178e-001 -2.95546770e-001 -4.82261717e-001
      -3.97875369e-001 -2.99327046e-001 5.89989573e-002 6.45067215e-001
      2.49092728e-001 -1.37797400e-001 -6.55363202e-002 -1.32676199e-001
      -1.36095390e-001 -2.11983085e-001 -3.23501736e-001
      -2.99103022e-001 4.60016012e-001 1.77632928e-001 -1.57768860e-001
      -1.18054487e-001 -2.01580361e-001 -1.44518167e-001
      -1.29694834e-001 -4.11511064e-001 -5.50066568e-002 2.94708222e-001
      4.09856699e-002 -1.04611352e-001 -1.04957841e-001 -1.41740382e-001
      -3.14070970e-001 -1.89365357e-001 -6.18236549e-002 2.35638842e-001
      1.23075269e-001 -2.00299546e-001 -3.71754766e-002 1.91732243e-001
      5.65924086e-002 -2.78278664e-002 -7.72859016e-003 4.02705073e-001
      -4.54428554e-001 8.92621502e-002 -1.46273583e-001 -8.76156539e-002
      8.33515376e-002 6.14417195e-002 7.88156763e-002 8.82403329e-002
      -1.10835776e-001 1.56368583e-001 -3.41789186e-001 -3.15172702e-001
      -1.19088003e-002 2.50600934e-001 1.92574084e-001 1.20467581e-001
      3.01386505e-001 5.21845818e-001</_>
    <_>
      1.18724339e-001 -4.86209482e-001 1.76475510e-001 2.27161214e-001
      1.89275488e-001 2.13700190e-001 1.73326284e-001 2.75431156e-001
      4.99682546e-001 1.14476748e-001 -3.06945533e-001 6.86840340e-002
      2.74701744e-001 1.28794879e-001 2.67264079e-002 1.34031042e-001
      1.57916769e-001 3.16113293e-001 -1.37205675e-001 -4.47255790e-001
      -1.05034806e-001 7.33588114e-002 1.16371743e-001 1.76760048e-001
      2.35734656e-001 4.47233021e-001 -2.72317141e-001 -1.52081117e-001
      1.03561044e-001 2.40352660e-001 1.49227738e-001 4.20176685e-002
      -2.14876771e-001 2.39919238e-002 8.55576247e-002 -1.65082425e-001
      -7.73424134e-002 -6.10097289e-001 -1.91563383e-001 6.48703575e-002
      2.28303019e-002 2.35016625e-002 1.88869566e-001 2.77462244e-001
      3.21322799e-001 -4.89819348e-001 -9.15327072e-001 -1.95099235e-001
      2.09602509e-002 5.74832000e-002 1.94724441e-001 6.15033090e-001
      4.86987680e-001 -3.75933573e-002 -6.20394014e-002 1.88426688e-001
      3.90930884e-002 4.03976478e-002 2.30899863e-002 -1.05189057e-002
      3.52552056e-001 3.59862983e-001 -1.03275187e-001 -8.10634568e-002
      -4.20204133e-001 -2.12616846e-001 4.07025591e-002 1.03226583e-002
      2.89380610e-001 5.64142585e-001 2.33874276e-001 -1.12959117e-001
      4.05719392e-002 -4.74275239e-002 -1.99984945e-002 -2.79153287e-002
      -4.55841482e-001 -8.05187076e-002 2.84149647e-001 2.96572238e-001
      1.35951012e-001 4.38751221e-001 3.15453827e-001 1.01307593e-002
      -9.57546681e-002 -6.02168798e-001 -2.90735930e-001 1.13858499e-001
      2.35713527e-001 -1.90962642e-001 2.09435937e-003 -8.30308497e-002
      5.23410551e-002 1.54881164e-001 -1.98515207e-001 3.63161601e-002
      1.05920225e-001 -1.04626559e-001 -9.91165638e-002 -6.94551691e-002
      1.38432384e-001 2.26718456e-001 1.51430383e-001 -9.62368026e-002
      -1.52067974e-001 -2.67552942e-001 -4.81074482e-001
      -4.68633056e-001</_>
    <_>
      -5.94642162e-001 2.24719062e-001 8.74417350e-002 -6.43147379e-002
      8.06733221e-002 2.60139525e-001 1.63051814e-001 2.42517948e-001
      4.48206782e-001 -3.32873523e-001 1.04209149e+000 3.79954964e-001
      2.34168440e-001 3.63648236e-002 -3.92344855e-002 -3.03829283e-001
      -5.66344619e-001 -1.88712254e-001 -3.09357941e-001
      -2.83663541e-001 -3.08854371e-001 -3.91683787e-001
      -2.44660079e-001 2.04177067e-001 3.22222561e-001 4.91358161e-001
      2.52226412e-001 1.13339961e-001 5.24738848e-001 1.99987099e-001
      -1.88071176e-003 -2.04245552e-001 -2.58620054e-001
      -8.11568797e-001 -1.03832781e+000 2.07967266e-001 4.72698152e-001
      5.76010287e-001 -1.55830890e-001 1.54774413e-001 -7.28442967e-002
      -2.38218933e-001 -1.90007359e-001 -4.44444299e-001
      -3.17874737e-002 7.92586654e-002 -1.64178133e-001 -4.21551853e-001
      1.43464968e-001 -1.59508213e-002 -1.46147013e-001 3.75357777e-001
      -3.83936465e-002 -1.21258646e-001 6.69262111e-001 6.45949662e-001
      7.41997734e-002 1.06023416e-001 -6.86720833e-002 -2.96628326e-001
      -4.90325481e-001 -8.07109356e-001 3.17074694e-002 -4.57729772e-002
      9.06925574e-002 -1.26968563e-001 1.35829449e-001 1.02683395e-001
      -5.95446751e-002 3.81612003e-001 -4.76081111e-003 -1.40018389e-001
      -6.35185987e-002 -2.42792189e-001 9.45242029e-003 7.70656168e-002
      1.16784021e-001 5.97608499e-002 4.07975614e-001 1.06272735e-001
      9.78654772e-002 -5.05893677e-002 -8.54778886e-002 -4.78863642e-002
      1.35406569e-001 1.03437982e-001 1.19537346e-001 5.35827279e-002
      -1.63452417e-001 3.04314215e-002 -2.37798318e-001 -3.30326796e-001
      1.66557610e-001 1.33138791e-001 9.89830047e-002 1.13657527e-001
      4.00634825e-001 1.10660657e-001 -2.88390607e-001 -2.87123650e-001
      -2.81342208e-001 -7.80929923e-002 2.02399343e-001 -4.67700139e-002
      6.27955347e-002 5.98856285e-002 -1.41766042e-001 -9.23497751e-002</_>
    <_>
      -1.87977254e-001 -4.01146948e-001 1.45159721e-001 1.16229333e-001
      -2.55511075e-001 6.05100840e-002 -6.74227029e-002 -1.72770873e-001
      7.01963902e-001 -5.69561981e-002 3.58224928e-001 7.99201608e-001
      -1.86037272e-001 -4.25321192e-001 -2.44930640e-001
      -3.75813514e-001 -7.52070427e-001 7.50460401e-002 3.48529220e-001
      -4.55296487e-001 -1.29618824e-001 -3.29035759e-001
      -2.78759092e-001 7.95776471e-002 -1.89264547e-002 -4.30865437e-001
      3.73441994e-001 7.57217407e-001 3.12894195e-001 1.56479537e-001
      -4.09211367e-001 -8.87859702e-001 -3.60544354e-001
      -5.04877865e-001 -9.26950097e-001 5.75362623e-001 3.13228190e-001
      4.30046737e-001 6.23489082e-001 -2.31259950e-002 -1.18310899e-001
      -2.25678176e-001 -1.82044297e-001 -3.95641923e-001
      -2.45329723e-001 -1.02083182e+000 -8.17272067e-001 6.13543093e-002
      1.56003743e-001 3.46460700e-001 1.07432313e-001 4.29772019e-001
      -3.74793634e-002 -8.98896754e-001 1.10089338e+000 6.24144256e-001
      5.09353101e-001 -8.88954699e-002 -3.30141842e-001 -7.22425282e-002
      -3.51784438e-001 -8.33443463e-001 2.69550323e-001 -1.61851749e-001
      -2.26957694e-001 3.78293842e-002 8.32874477e-002 2.51770705e-001
      2.78585464e-001 5.09196699e-001 2.09888101e-001 -3.14369857e-001
      -5.05659521e-001 -3.49533796e-001 -4.99572381e-002 1.29091386e-002
      5.59237078e-002 3.09273869e-001 2.45854646e-001 7.78825805e-002
      -6.57773256e-001 2.85182655e-001 2.60629117e-001 -4.86140884e-002
      2.33391136e-001 -3.18669379e-001 1.91360429e-001 2.02909380e-001
      1.57271065e-002 -5.62613346e-002 -6.10569455e-002 -2.61381626e-001
      6.12046607e-002 8.61787871e-002 4.55019586e-002 8.03305432e-002
      2.70315021e-001 3.28388244e-001 -1.22268274e-001 1.95817173e-001
      1.80989444e-001 -1.96104586e-001 3.97997111e-001 -3.15722466e-001
      -1.72101527e-001 -6.99130818e-002 -1.59917966e-001 1.51532650e-001</_>
    <_>
      9.78965759e-002 6.05755076e-002 1.93214729e-001 -6.74749613e-002
      -3.69940311e-001 -3.81909013e-002 1.52802328e-002 7.05145253e-003
      2.29265094e-001 -7.62153417e-002 -1.73319861e-001 1.51259795e-001
      -2.42008474e-002 -1.17728442e-001 -1.83784589e-002 1.87247917e-002
      -2.77175121e-002 2.30379373e-001 -1.24972381e-001 -4.30096537e-001
      -2.98524313e-002 -1.12796668e-002 -1.73475668e-001
      -6.36944361e-003 1.72223479e-001 3.69816758e-002 4.21821959e-002
      5.65973204e-003 -2.28794441e-001 -3.17327008e-002 5.22668064e-002
      2.06786618e-002 2.82024927e-002 1.41241148e-001 1.23423226e-001
      2.76220798e-001 -1.67677581e-001 -3.90208334e-001 7.92591870e-002
      3.70218940e-002 2.10296419e-002 4.70442027e-002 7.76251629e-002
      1.29546702e-001 3.47461313e-001 -2.39714131e-001 -5.37787735e-001
      3.70751172e-002 4.62829247e-002 8.38065371e-002 1.39309421e-001
      2.19275743e-001 2.31720105e-001 2.67021298e-001 1.25755416e-002
      -3.34121168e-001 4.62535471e-002 5.21137640e-002 3.23558524e-002
      5.49640283e-002 1.18077457e-001 2.31806502e-001 3.53174299e-001
      -1.44982174e-001 -4.53576475e-001 1.07784206e-002 5.66531457e-002
      1.07385494e-001 1.42279953e-001 3.10923815e-001 4.32915539e-001
      2.97885358e-001 -2.95987755e-001 -4.78241503e-001 -4.77825217e-002
      -4.55780886e-003 6.07635919e-003 1.38650298e-001 1.30036280e-001
      2.10688069e-001 8.71695653e-002 -1.71236858e-001 -8.79445374e-002
      -8.61324221e-002 -2.13618812e-004 -1.66058838e-002 1.03106715e-001
      1.73161417e-001 2.91173339e-001 -1.32952258e-001 -2.31367320e-001
      -2.07718953e-001 8.64447467e-003 3.24167609e-002 7.64068514e-002
      8.16233158e-002 1.12988338e-001 2.48371363e-001 2.18793273e-001
      -1.97203122e-002 2.90556312e-001 1.83875337e-001 8.73323381e-002
      8.04631934e-002 3.07964422e-002 5.74729592e-002 1.19060084e-001
      1.03068538e-001</_>
    <_>
      -6.64469898e-001 2.90322751e-001 4.21900511e-001 1.27204075e-001
      -1.20129883e-001 3.17490816e-001 2.12850139e-001 5.51932380e-002
      1.06890341e-002 -5.59362590e-001 1.40267193e+000 6.87140703e-001
      5.43741167e-001 1.33911178e-001 -1.45636350e-001 -3.18754375e-001
      -1.04748321e+000 -7.98562944e-001 -3.59068923e-002 2.36633465e-001
      7.86122382e-002 -1.32288300e-002 -2.65733093e-001 -2.79635079e-002
      3.73784661e-001 -3.31118762e-001 -7.26839304e-002 4.47982177e-003
      3.73087943e-001 4.23800498e-001 -6.32527024e-002 -9.44142565e-002
      -2.67513722e-001 -5.65884113e-002 -5.99742115e-001
      -2.08082367e-002 3.12278450e-001 4.91151333e-001 -2.58208793e-002
      -2.85145760e-001 -1.58515975e-001 -1.17624573e-001
      -3.54394346e-001 -4.84401107e-001 -1.88833028e-001
      -8.60890269e-001 -1.85408854e+000 -1.33007264e+000
      -5.54610491e-001 3.02453488e-001 4.20607120e-001 5.61404347e-001
      4.77879792e-001 9.78100523e-002 3.23646277e-001 6.20471179e-001
      9.75744128e-002 -3.44469339e-001 -1.33592814e-001 -1.11831903e-001
      -2.32925668e-001 -1.04459815e-001 1.03335559e-001 2.07562834e-001
      -5.60075641e-001 -6.48067415e-001 -2.62429386e-001 1.32554919e-001
      1.03580795e-001 5.28831005e-001 1.45963058e-001 7.67287016e-002
      -6.81593359e-001 -8.16952467e-001 -4.09062773e-001 8.65148753e-002
      4.48497891e-001 1.48014680e-001 2.44887725e-001 5.43390512e-001
      -4.86770660e-001 6.58466876e-001 1.94273040e-001 -5.47475256e-002
      4.58206296e-001 -6.76780147e-003 -3.94946635e-001 -1.11819327e-001
      1.08071439e-001 -1.28770754e-001 -1.51021421e-001 -6.05844200e-001
      -3.43262762e-001 4.13586162e-002 1.10580847e-001 -6.33537711e-004
      1.83145240e-001 3.57779622e-001 -2.11595312e-001 3.99191022e-001
      8.32186937e-002 -2.55776912e-001 4.40091550e-001 -3.60072315e-001
      -2.18894348e-001 -1.41571119e-001 2.37696901e-001 5.02816498e-001</_>
    <_>
      -1.72812656e-001 -2.43821576e-001 3.59232128e-001 1.75421521e-001
      2.72457123e-001 2.75969595e-001 2.30950624e-001 -2.32326612e-001
      3.76203358e-002 -4.32610363e-001 4.65003163e-001 8.51518333e-001
      3.10655266e-001 3.03927481e-001 1.76578388e-001 -9.75026377e-003
      -1.44353449e+000 -7.28910565e-001 6.08665526e-001 2.64315069e-001
      1.75791889e-001 -1.77698001e-001 -8.58478621e-002 -1.58112291e-002
      2.64607430e-001 -5.99583983e-001 -3.60312760e-002 -2.05051862e-002
      4.20932353e-001 4.46535796e-001 4.89899935e-003 -1.19677298e-001
      -1.06189296e-001 4.75701541e-002 -5.30988038e-001 -9.42209065e-002
      9.33592096e-002 6.15610123e-001 3.44563752e-001 -2.32516170e-001
      -5.82879819e-002 -5.50122634e-002 -4.25682366e-001
      -1.11557317e+000 -6.25854313e-001 -3.04074943e-001 1.24237034e-002
      -2.31354401e-001 -4.87592518e-001 -3.38381648e-001
      -3.78486425e-001 8.02473575e-002 4.82673794e-002 2.40626261e-001
      1.21713514e-002 -6.50537610e-002 -1.17881633e-002 -2.88792193e-001
      -1.70800105e-001 5.18784709e-002 1.89841762e-001 4.55934465e-001
      -1.28356114e-001 4.66189757e-002 4.16032560e-002 -1.76010683e-001
      -4.11234826e-001 -2.93616086e-001 2.26543620e-002 5.73802114e-001
      1.30942535e+000 9.92385149e-002 -2.32866675e-001 -2.48753741e-001
      -4.48930830e-001 -2.88051218e-001 -9.81533453e-002
      -2.26376817e-001 -6.47168839e-003 5.21320343e-001 3.50273758e-001
      -3.27524613e-003 -7.81123638e-002 -2.23922223e-001 1.82895422e-001
      9.80896503e-002 -2.06388801e-001 -2.41762012e-001 2.07311124e-001
      -1.27579629e-001 -1.25176474e-001 -7.24494457e-001
      -1.43386349e-001 -1.80461571e-001 -1.92806110e-001
      -1.51446044e-001 6.52423222e-003 6.59854591e-001 3.37660253e-001
      -2.91384626e-002 -2.14870274e-001 -4.16718513e-001 1.03105366e-001
      -3.59830745e-002 -4.55053866e-001 -2.17779130e-001 1.21224314e-001
      3.34479779e-001</_>
    <_>
      -3.62571448e-001 4.64101046e-001 7.32750073e-002 -1.47075579e-001
      -9.29376632e-002 -1.53535856e-002 -5.56372013e-003 4.02835943e-002
      -8.83306116e-002 -1.84811532e-001 6.51668727e-001 1.39663711e-001
      -5.90243712e-002 -1.89577751e-002 -5.75867333e-002
      -1.71150953e-001 -2.15921611e-001 -2.89783001e-001
      -5.36547229e-002 1.91922069e-001 -7.06027746e-002 -2.37989798e-001
      -2.03415766e-001 -1.68366656e-002 -1.03640165e-002 3.65945138e-002
      2.93784022e-001 1.44617349e-001 1.61833689e-001 -7.95244798e-002
      -1.25465363e-001 -9.96825024e-002 -1.32111013e-001
      -4.94074225e-001 -5.60673237e-001 2.39431590e-001 1.95746392e-001
      5.92756987e-001 6.58503873e-003 -1.34802936e-003 -3.44762020e-002
      -9.68164653e-002 -1.70688182e-001 -2.91209459e-001
      -1.58346966e-001 4.03425604e-001 4.26548898e-001 -5.26134707e-002
      2.19055116e-002 -8.19965228e-002 -1.21723458e-001 -1.30889893e-001
      -2.95549124e-001 -6.76636249e-002 3.47586185e-001 1.90045297e-001
      -6.96329996e-002 -1.38771385e-002 -6.35043681e-002
      -1.88769579e-001 -3.67512435e-001 -5.97204089e-001 3.01990453e-002
      -1.95306093e-002 2.11801901e-001 1.52798798e-002 -4.84617800e-003
      -1.83183495e-002 -1.76587075e-001 -3.29951160e-002
      -2.11265057e-001 -2.65379660e-002 -7.94562250e-002
      -3.26441191e-002 4.42145243e-002 6.74932897e-002 2.78880328e-001
      7.49388486e-002 2.58170012e-002 -9.81695727e-002 -5.26549481e-002
      -2.26400360e-001 -1.89690769e-001 -5.57259433e-002 8.29250515e-002
      3.51627409e-001 2.04607293e-001 -3.95971676e-003 -1.02984793e-001
      7.42071420e-002 -1.27323821e-001 -4.15570475e-002 9.79787931e-002
      -5.25633581e-002 1.20318323e-001 1.96185801e-002 1.37414545e-001
      1.68461189e-001 -1.04724847e-001 -9.67917293e-002 -1.94410130e-001
      3.55351791e-002 -6.51341602e-002 -8.84308200e-003 8.01162645e-002
      1.61046803e-001 1.89970821e-001 1.29316613e-001</_>
    <_>
      -2.29981601e-001 1.65300995e-001 -1.10616758e-001 -1.56525463e-001
      -2.77853221e-001 -1.06324553e-001 -9.10056084e-002
      -1.98394820e-001 -1.00906111e-001 -2.30485708e-001 3.40265930e-001
      2.01705694e-001 -1.83609024e-001 -1.70830876e-001 -2.91696507e-002
      -1.61557123e-001 -3.33923280e-001 -3.11637759e-001 3.77495527e-001
      2.58750796e-001 -3.95883024e-002 -2.93179959e-001 -3.18274289e-001
      -1.37771055e-001 -1.34925678e-001 -3.71584833e-001 6.87415719e-001
      3.03800464e-001 1.89039350e-001 -2.18735769e-001 -3.20546776e-001
      -4.74726290e-001 6.76909909e-002 -2.75033832e-001 -4.43399727e-001
      4.50932443e-001 1.19724050e-002 6.86443686e-001 3.13458055e-001
      -6.15476258e-002 -1.96410604e-002 -9.81999040e-002
      -8.84160623e-002 -3.48391443e-001 -5.17236471e-001
      -6.07871497e-003 5.60489714e-001 2.80699253e-001 -2.79733371e-002
      7.62713552e-002 -5.69477342e-002 -1.14240408e-001 -2.62663096e-001
      -2.01582223e-001 4.20005172e-001 2.29586855e-001 3.42480280e-002
      -2.15460062e-001 -2.71933109e-001 -1.33672163e-001
      -1.95414096e-001 -5.11300087e-001 2.78909773e-001 -4.36424336e-004
      7.44458213e-002 2.23877281e-001 -1.95000380e-001 -4.10738029e-002
      -3.59903723e-001 1.03246514e-002 -1.74510077e-001 -8.86045396e-003
      -8.50471109e-002 1.25658186e-002 4.31592874e-002 8.60849395e-003
      4.38215703e-001 1.76854625e-001 -8.97829309e-002 -2.22806603e-001
      -2.46348500e-001 -1.81558490e-001 -1.83618948e-001 2.55025318e-003
      1.18715301e-001 4.49281961e-001 1.42752111e-001 -2.48115994e-002
      -2.35549182e-001 2.29238823e-001 -1.99095299e-003 6.68690726e-002
      6.83013946e-002 -1.71835795e-001 2.68611968e-001 -1.14481665e-001
      1.17533639e-001 2.18098953e-001 4.90214117e-002 3.25024009e-001
      4.11242805e-002 6.19586743e-002 4.08780910e-002 1.42177641e-002
      -1.45556375e-001 2.16658205e-001 3.37099224e-001 4.44673181e-001</_>
    <_>
      5.54484464e-002 4.40200716e-001 6.99090660e-002 -2.15429276e-001
      -5.68252385e-001 -1.48866713e-001 -8.45011473e-002
      -8.23344961e-002 -2.53559407e-002 -4.40458022e-002 2.62244157e-002
      -1.18467798e-002 -1.55638680e-001 -1.93172365e-001
      -2.42078472e-002 -2.07741577e-002 -7.41278604e-002 4.11676727e-002
      9.13941413e-002 -9.85944718e-002 -6.73071444e-002 -1.98801365e-002
      -2.96360821e-001 -1.30084977e-001 -6.02862127e-002
      -8.19017515e-002 2.78846532e-001 1.04781635e-001 -1.99266210e-001
      -3.36515456e-001 -2.25550886e-002 2.97825085e-003 1.42560288e-001
      7.34161958e-002 7.15476274e-002 4.18666422e-001 -1.42966926e-001
      -1.22920088e-001 1.93967782e-002 -3.79777402e-002 1.72253866e-002
      5.62851392e-002 3.77238318e-002 2.19549630e-002 1.27061188e-001
      -1.00117683e-001 -1.00117683e-001 1.28911600e-001 1.41962599e-002
      5.36902249e-002 6.16343506e-002 5.90974875e-002 8.98723081e-002
      2.10695297e-001 2.13903971e-002 -3.22837114e-001 -1.27910852e-001
      -1.08120730e-002 2.84367218e-003 1.17791519e-001 5.98474406e-002
      8.08313787e-002 5.11112332e-001 -1.00117683e-001 -2.39257261e-001
      1.40220284e-001 -1.12354858e-002 7.45687410e-002 1.50697194e-002
      1.23748846e-001 3.07291985e-001 4.51123685e-001 -3.86160105e-001
      -4.22056735e-001 -7.64537826e-002 -3.26819643e-002 1.55507132e-001
      1.20083481e-001 1.02674082e-001 1.84040502e-001 3.67256850e-002
      -4.64005560e-001 -2.46157646e-001 -1.91575646e-001
      -5.53241260e-002 2.10679829e-001 2.32268855e-001 1.76999003e-001
      3.09215307e-001 3.92289273e-002 -2.93236792e-001 -1.50522113e-001
      1.76342782e-002 -2.17043441e-002 2.22642109e-001 7.13899732e-003
      2.12977186e-001 3.79345924e-001 3.33482504e-001 7.72949494e-003
      2.46764809e-001 2.16012914e-002 -1.41079668e-002 2.60084212e-001
      8.80498067e-002 2.66957372e-001 4.75959122e-001 3.30300987e-001</_>
    <_>
      -3.42659771e-001 4.78779197e-001 -6.47249026e-003 -1.32932007e-001
      -1.42526343e-001 -5.67905530e-002 -2.88358144e-002
      -7.18712807e-002 -5.12487173e-001 -1.15330681e-001 8.84199381e-001
      1.60784125e-001 -1.15418673e-001 -9.74354334e-003 4.31943983e-002
      -4.94659431e-002 -6.11710429e-001 -7.10940599e-001 1.65397957e-001
      4.61905807e-001 -5.17591983e-002 -2.12735519e-001 -2.75542051e-001
      -1.65046096e-001 -1.49075344e-001 -4.00620610e-001 3.59913737e-001
      1.57811433e-001 1.68577075e-001 -1.58384874e-001 -3.19090635e-001
      -1.78871408e-001 1.22447215e-001 -1.24598496e-001 -5.40875435e-001
      1.57811433e-001 2.19147027e-001 6.10316992e-001 5.99734783e-002
      -1.47790462e-001 -3.99911916e-003 1.54275587e-002 -6.27882630e-002
      -3.74073297e-001 -6.55493438e-001 1.58264533e-001 3.14399570e-001
      -5.86239733e-002 -1.15049332e-001 6.18595257e-002 2.19935998e-002
      -5.01570962e-002 -6.89792037e-002 -1.47683606e-001 2.06821978e-001
      8.98976624e-002 -2.02721909e-001 -3.60150784e-001 -1.82427287e-001
      -1.92068927e-002 -2.36551359e-001 -3.63579899e-001 1.68876320e-001
      1.30844772e-001 3.36286761e-002 -5.40465266e-002 -2.64181733e-001
      -1.40068144e-001 -2.71118999e-001 -2.56464958e-001
      -2.24358484e-001 1.14970177e-001 -1.56085253e-001 -2.32692938e-002
      1.21886544e-002 6.56736195e-002 6.40437186e-001 2.10167676e-001
      4.57880348e-002 -1.13261968e-001 -2.64996082e-001 -1.81566447e-001
      -1.99861880e-002 1.45884417e-002 1.66742355e-001 6.81456447e-001
      2.92945057e-001 -9.59039256e-002 -1.94478646e-001 8.26531947e-002
      -4.69859764e-002 -8.90484378e-002 -3.75134759e-002
      -1.32749975e-001 3.09540719e-001 -1.37165636e-001 -3.93110923e-002
      5.46722002e-002 -2.71554720e-002 4.42215413e-001 -4.19930182e-002
      -1.27552703e-001 -8.90128985e-002 4.98799086e-002 -1.39138445e-001
      8.00032988e-002 2.18462706e-001 5.22216439e-001</_>
    <_>
      -9.78040323e-003 3.04791957e-001 2.09327973e-002 -1.21707618e-001
      -1.06536165e-001 -7.48961270e-002 -1.50917485e-001
      -2.93380618e-001 -3.16619784e-001 -2.57057905e-001 3.10922414e-001
      1.28527492e-001 -5.42617664e-002 3.64840887e-002 7.00355619e-002
      -7.62165189e-002 -5.30986428e-001 -4.37512219e-001 3.25676829e-001
      5.56796193e-001 2.01426104e-001 -7.14720786e-002 -1.25977471e-001
      -6.90913349e-002 -1.50980905e-001 -3.66155416e-001 2.11580887e-001
      7.31342658e-002 1.65745884e-001 2.02539610e-003 -7.73888081e-002
      -4.73727770e-002 9.95176435e-002 -1.54439593e-002 -2.27105677e-001
      7.03633800e-002 6.21611364e-002 5.22296488e-001 1.10466398e-001
      -1.33626074e-001 1.36594474e-002 -3.10558509e-002 -2.15823680e-001
      -5.36911607e-001 -3.60632002e-001 1.91012233e-001 5.52811146e-001
      4.96303998e-002 -1.47425652e-001 -8.54536220e-002 -1.75693125e-001
      -3.39663327e-001 -3.42376679e-001 1.53626442e-001 3.69480588e-002
      2.10078713e-002 -3.41598913e-002 -1.24885544e-001 -4.82460111e-002
      -9.28152073e-003 -4.98232991e-002 -4.08251137e-002 5.05588725e-002
      5.97595312e-002 1.48809105e-001 5.68503216e-002 -1.85898185e-001
      -5.75080551e-002 -1.65847763e-001 -1.54139362e-002 3.02475691e-001
      1.98273137e-001 -1.65632650e-001 -9.29447562e-002 -1.39965862e-001
      -7.43100941e-002 2.13574663e-001 -7.14994594e-002 -2.10845128e-001
      -6.91872612e-002 8.87688994e-002 -2.70832449e-001 -3.76348644e-001
      -9.01979581e-002 2.59779505e-002 3.14152807e-001 1.64370425e-002
      -1.14767730e-001 8.76809433e-002 3.06463927e-001 -3.94643471e-002
      -5.56003749e-002 -6.69061393e-002 -1.78231195e-001 7.32534304e-002
      -8.11463073e-002 1.00219183e-001 4.44980264e-001 2.45099947e-001
      1.30793408e-001 -9.77714211e-002 -4.93217912e-003 -1.63454898e-002
      1.02285691e-001 -4.86305021e-002 1.79193437e-001 5.34828305e-001
      3.57494354e-001</_>
    <_>
      6.85215712e-001 -7.56494045e-001 -5.04608750e-002 1.67299286e-001
      -2.09373832e-001 -3.10530901e-001 -3.11987460e-001
      -5.13628006e-001 1.60663068e-001 4.46845800e-001 -1.25095034e+000
      -3.51912558e-001 -6.28940344e-001 -3.92090470e-001 1.18105255e-001
      -4.30809036e-002 4.77122724e-001 3.96452993e-001 9.50138032e-001
      2.00217605e-001 5.44943035e-001 4.46053296e-001 1.94374636e-001
      -1.61713839e-001 -5.64678073e-001 -1.51985908e+000
      -6.45372346e-002 1.48892283e-001 -2.49356747e-001 -3.33309799e-001
      -4.04761374e-001 -4.64781940e-001 2.30010390e-001 4.11096185e-001
      2.80837744e-001 2.71781713e-001 -5.57199717e-001 -3.18000317e-001
      4.28915590e-001 -2.11045727e-001 4.29711267e-002 2.14829504e-001
      -1.86844513e-001 4.84794229e-001 7.54821002e-002 -1.14883351e+000
      -3.66350204e-001 8.65993142e-001 1.08709760e-001 1.66654572e-001
      3.05638820e-001 4.13838625e-002 5.63267410e-001 -2.33551785e-001
      -2.21780449e-001 -1.10692285e-001 1.26290470e-002 -1.46483332e-001
      -7.02183694e-002 2.07265571e-001 4.51303013e-002 1.65478498e-001
      5.30353785e-001 -1.39006376e-001 -3.78480941e-001 2.01257139e-001
      2.67412583e-003 -1.51350852e-002 1.55703530e-001 -1.78377137e-001
      1.46518320e-001 -1.57195218e-002 -3.75341147e-001 2.15332106e-001
      1.57629907e-001 7.80452322e-003 -1.75491929e-001 1.86251208e-001
      1.29050061e-001 8.69385377e-002 -5.93993902e-001 5.63247204e-001
      4.57263768e-001 5.09279259e-002 -2.61582229e-002 -2.64160395e-001
      1.41756281e-001 -3.66377570e-002 2.58429050e-001 -4.04335350e-001
      8.05212706e-002 1.33458272e-001 -1.66887298e-001 -5.88462725e-002
      -1.09110698e-001 1.45840375e-002 -5.73349111e-002 1.93101153e-001
      2.53137082e-001 3.91537607e-001 2.35486001e-001 -1.76525325e-001
      -9.41864401e-002 1.43072233e-002 2.54305918e-002 -9.16661844e-002
      1.75145924e-001 1.32022977e-001</_>
    <_>
      2.38921717e-001 4.15416025e-002 7.10014701e-002 -6.35122359e-002
      -2.78255969e-001 -1.02412447e-001 -2.49218903e-002
      -3.47880572e-002 4.76173125e-002 1.83063783e-002 -3.28334332e-001
      3.45977489e-003 -9.02813524e-002 -1.09600715e-001 -1.48731275e-002
      1.25984669e-001 1.22602031e-001 1.83709547e-001 3.83843258e-002
      -2.02898726e-001 6.59368485e-002 6.77364245e-002 -8.39677975e-002
      -6.74054772e-002 -2.04229746e-002 -5.26774079e-002
      -3.64732519e-002 -1.12430882e-002 -3.16637784e-001
      -8.71964842e-002 2.72826981e-002 3.08918003e-002 8.97837803e-002
      2.73011565e-001 3.24530572e-001 1.04401380e-001 -2.26226971e-001
      -3.93606544e-001 7.04577342e-002 -2.40913574e-002 3.12471669e-002
      9.54167843e-002 1.03778571e-001 2.20789820e-001 2.36553609e-001
      -2.08828419e-001 -2.79684186e-001 1.11444823e-001 5.66448225e-003
      6.72159642e-002 1.25045672e-001 8.37575346e-002 2.14967117e-001
      2.24076554e-001 -1.70154542e-001 -3.89175057e-001 -1.06449984e-002
      -2.36998266e-003 3.36678661e-002 1.38252139e-001 1.87657788e-001
      3.69035095e-001 2.67672211e-001 -5.63755631e-002 -3.23923588e-001
      2.84277089e-002 -9.86612961e-003 4.06908765e-002 1.16084650e-001
      8.74016061e-002 2.98336148e-001 2.64265686e-001 -1.85267955e-001
      -2.16818616e-001 -1.49725154e-002 4.01193369e-003 -7.25821732e-003
      5.14930412e-002 3.34038772e-002 1.67950630e-001 8.02718997e-002
      -1.16772927e-001 -4.01536524e-002 -5.19891866e-002
      -1.21679176e-002 -2.16862224e-002 2.47485172e-002 9.16071832e-002
      2.29611784e-001 -1.03029914e-001 -1.02076404e-001 -5.05433455e-002
      -2.27175932e-002 2.35333368e-002 2.38048714e-002 1.27304429e-002
      8.06354266e-003 1.20292455e-001 2.42661163e-001 4.59811045e-003
      2.47482404e-001 3.80327031e-002 6.42076433e-002 7.01101199e-002
      1.16532246e-004 4.41011600e-002 1.38755649e-001 1.08963303e-001</_>
    <_>
      3.42078060e-001 -1.65803760e-001 2.10458905e-001 9.14227813e-002
      -9.86145064e-002 -1.47437081e-001 -5.47320656e-002
      -2.11812451e-001 -5.78851461e-001 1.11598998e-001 -3.75592381e-001
      -5.07066734e-002 -8.77211317e-002 2.79648732e-002 4.45032306e-003
      4.43507910e-001 1.51110455e-001 -1.28104195e-001 3.16674471e-001
      3.67528886e-001 4.59474325e-001 3.72526348e-001 1.83162421e-001
      -3.51727724e-001 -1.87420830e-001 -5.04677117e-001
      -4.48833108e-001 -1.54587716e-001 -5.90811789e-001 1.34897965e-003
      -1.67289287e-001 1.62912652e-001 2.75297970e-001 1.09689438e+000
      1.09257114e+000 -4.07350630e-001 -4.47212815e-001 -5.73199153e-001
      1.80577606e-001 -3.65094244e-001 -2.79932097e-002 3.43043774e-001
      1.75513208e-001 4.74067241e-001 -1.06822595e-001 -5.71528018e-001
      -7.40744352e-001 1.10318050e-001 -4.08847809e-001 1.93463579e-001
      4.99890834e-001 2.63547953e-002 5.22478461e-001 1.80818632e-001
      -9.15338576e-001 -6.87409401e-001 -1.08649284e-001
      -4.72119004e-001 7.22895004e-003 4.94580567e-001 5.85561097e-001
      9.00487065e-001 5.49748773e-003 7.03940764e-002 -4.74445224e-001
      -4.16484550e-002 -2.58815974e-001 -1.22736413e-002 1.01974972e-001
      -1.79569930e-001 2.80912984e-002 1.80838332e-001 -1.81356445e-001
      -3.99213694e-002 -1.12309203e-001 6.58806637e-002 1.76701531e-001
      7.84022436e-002 -1.85186774e-001 3.85032594e-001 -3.29791367e-001
      4.54853386e-001 1.90764889e-001 -1.01681963e-001 1.74605235e-001
      -1.75530743e-002 -4.71833318e-001 -1.90351993e-001 1.79384336e-001
      -1.60921738e-002 1.96475238e-001 1.03714004e-001 -2.68837988e-001
      6.46461025e-002 1.94071755e-002 -1.89216480e-001 -4.14627224e-001
      3.32735889e-002 1.28301606e-001 5.49108565e-001 3.88042718e-001
      -5.45117147e-002 -5.64594455e-002 -4.80837822e-002
      -3.52925152e-001 -1.81963950e-001 1.57428861e-001 3.64735484e-001</_>
    <_>
      6.54934049e-001 -2.31024116e-001 1.14335276e-001 1.26380607e-001
      4.30616662e-002 -1.32347405e-001 -4.13834751e-002 -3.68917048e-001
      -3.09368730e-001 1.34547995e-002 -6.62565768e-001 -3.49287018e-002
      -4.96412255e-002 1.72896042e-001 1.87438130e-001 4.81287301e-001
      -1.34882018e-001 -2.09984034e-001 7.10012853e-001 6.46234632e-001
      2.93711096e-001 2.76372343e-001 1.01839148e-001 -1.06738776e-001
      -1.93830356e-001 -7.00411558e-001 -2.19914362e-001
      -2.82791644e-001 -2.09746465e-001 -1.46864355e-002 4.21108380e-002
      1.36938766e-001 1.60760954e-001 6.83583796e-001 6.35121286e-001
      -2.16062531e-001 -5.67762196e-001 -2.90963113e-001 2.60273963e-001
      -2.31671184e-001 7.70987123e-002 1.40652686e-001 1.96667593e-002
      -7.76470974e-002 -2.99879193e-001 -3.69147677e-003 8.51197168e-002
      3.96984547e-001 -3.06346864e-001 -2.40571201e-001 -1.38103485e-001
      -2.15887621e-001 4.61127330e-003 2.83210754e-001 -6.90538466e-001
      -4.72929507e-001 -1.70437872e-001 -2.01337069e-001 1.00355381e-002
      1.12572625e-001 4.52937365e-001 1.00637305e+000 1.07922649e-003
      1.19027726e-001 -5.21339625e-002 -3.40299755e-002 -3.71151775e-001
      -2.75726587e-001 -4.13061641e-002 -1.84012875e-002 5.36089659e-001
      2.40048498e-001 4.27834690e-002 3.59637477e-002 -1.86466008e-001
      -1.46918982e-001 -2.09434167e-001 -2.49141410e-001
      -2.75067896e-001 1.43613830e-001 2.48941690e-001 1.30768582e-001
      -3.15938070e-002 -1.97678939e-001 8.01601037e-002 -4.69653718e-002
      -3.32690209e-001 -1.73163593e-001 2.37741023e-001 -9.81035456e-002
      7.69781768e-002 -5.44599518e-002 -1.61367491e-001 -1.79280683e-001
      -2.64034897e-001 -1.72507510e-001 -1.41575918e-001 1.81556776e-001
      4.86980319e-001 1.80913776e-001 1.73444062e-001 -2.00899839e-001
      2.88096741e-002 -6.50847256e-002 -2.89587677e-001 -7.96800777e-002
      2.54224211e-001 1.78264499e-001</_>
    <_>
      8.84276256e-002 2.34189063e-001 1.86693206e-001 -6.94059357e-002
      -2.86469311e-001 -7.01259673e-002 -1.08225225e-002 9.12193656e-002
      4.15780358e-002 -4.47914042e-002 -1.49747223e-001 1.19523029e-003
      8.21534917e-003 -1.63012072e-002 3.14150527e-002 6.70964569e-002
      1.53591171e-001 1.86941177e-001 -2.19101399e-001 -2.63473481e-001
      1.14500364e-002 9.59168673e-002 -1.03607185e-001 -2.73424909e-002
      5.23029044e-002 1.28086016e-001 -5.03239930e-002 -7.58548081e-002
      -2.80986756e-001 -1.40002996e-001 1.37144908e-001 2.01766744e-001
      1.10249482e-001 1.71053305e-001 3.05044383e-001 1.41363636e-001
      -2.39586383e-001 -4.50631171e-001 -5.43233529e-002 2.99787708e-002
      5.72634451e-002 1.39231980e-001 1.15566753e-001 2.39578724e-001
      3.57706904e-001 -1.21437162e-001 -3.32857937e-001 5.34341321e-004
      2.64021941e-002 6.75004646e-002 1.38264656e-001 1.51214406e-001
      2.72173047e-001 3.63440156e-001 -2.11453587e-001 -4.47246075e-001
      -8.65151957e-002 9.55749899e-002 1.35458097e-001 1.44556969e-001
      1.57617286e-001 3.64269316e-001 2.69438416e-001 -1.04754955e-001
      -3.56945723e-001 1.53102179e-003 6.98255077e-002 1.18730538e-001
      1.65357843e-001 1.57418072e-001 3.51429731e-001 3.70220780e-001
      -2.80907184e-001 -3.48313540e-001 -7.89558664e-002
      -3.61329317e-002 -4.54662517e-002 3.63764353e-002 8.33078399e-002
      2.68434197e-001 1.63543299e-001 -2.65117824e-001 -5.05304374e-002
      -1.23065777e-001 -1.09820649e-001 -5.82760014e-003 7.81675801e-002
      1.18104443e-001 3.35744768e-001 -1.06492639e-001 -2.23099709e-001
      -2.11797431e-001 -4.31504324e-002 4.31601442e-002 6.32851869e-002
      6.61358535e-002 1.14693046e-001 1.95043549e-001 2.85944015e-001
      -9.94898453e-002 1.94459304e-001 2.66433172e-002 1.78856533e-002
      1.64846003e-001 1.08017586e-001 9.94026512e-002 1.84946761e-001
      6.32940233e-002</_>
    <_>
      -3.77964288e-001 6.87638700e-001 3.89170706e-001 9.66470875e-003
      3.49511832e-001 9.96373892e-002 1.99879348e-001 3.41811270e-001
      -7.91376650e-001 -2.03225821e-001 9.24656034e-001 1.78914249e-001
      4.30567026e-001 5.63035488e-001 1.84546128e-001 2.14550972e-001
      -5.17396033e-001 -7.35437751e-001 -5.48925996e-001 5.47709227e-001
      2.00075120e-001 4.51136023e-001 -1.74838305e-002 -3.25736493e-001
      2.29534775e-001 4.37356085e-001 -5.26279271e-001 -7.82502294e-001
      -5.11632740e-001 1.90897062e-001 3.21094334e-001 6.40019953e-001
      2.25536019e-001 7.40175128e-001 6.35452867e-001 -8.23167443e-001
      1.14056692e-001 -2.49179259e-001 -4.81579065e-001 -2.80726194e-001
      -4.74455580e-003 3.52332890e-001 4.69417199e-002 -4.08762507e-002
      -2.45008469e-002 3.30168635e-001 -5.51765680e-001 -1.07330549e+000
      -4.75883961e-001 -2.58348472e-002 3.22654158e-001 9.25433822e-003
      5.16431212e-001 7.73468196e-001 -1.00225174e+000 -6.94175422e-001
      -6.01740479e-001 -3.75232816e-001 1.51434084e-002 1.77565128e-001
      3.00278634e-001 1.07845521e+000 -1.36958331e-001 3.43274474e-001
