<?xml version="1.0"?>
<opencv_storage>
<my_svm type_id="opencv-ml-svm">
  <svm_type>C_SVC</svm_type>
  <kernel><type>LINEAR</type></kernel>
  <C>1.</C>
  <term_criteria><epsilon>9.9999999747524271e-007</epsilon>
    <iterations>1000000</iterations></term_criteria>
  <var_all>108</var_all>
  <var_count>108</var_count>
  <class_count>10</class_count>
  <class_labels type_id="opencv-matrix">
    <rows>1</rows>
    <cols>10</cols>
    <dt>i</dt>
    <data>
      0 1 2 3 4 5 6 7 8 9</data></class_labels>
  <sv_total>45</sv_total>
  <support_vectors>
    <_>
      8.30370963e-001 4.50568646e-001 -6.37732625e-001 -2.19792038e-001
      -6.43218458e-002 -9.65241715e-003 5.70733957e-002 2.92351805e-002
      -3.83117169e-001 1.86198413e-001 4.58021134e-001 -6.15006089e-001
      -6.36594236e-001 -6.69389844e-001 -3.20639491e-001
      -9.10782665e-002 -3.76667738e-001 -1.90692633e-001
      -8.33573520e-001 -3.25340070e-002 -2.86731441e-002
      -1.24712105e-005 2.20016986e-001 3.42424899e-001 5.01588047e-001
      1.05076003e+000 -2.06669077e-001 -3.29177491e-002 1.77308202e-001
      1.35050062e-002 -2.08480507e-001 -1.20720468e-001 -2.15187017e-002
      7.07453117e-002 6.51455641e-001 6.15406670e-002 1.78243890e-001
      -6.38599619e-002 -1.69269055e-001 -2.41162300e-001
      -2.97538310e-001 -1.16293646e-001 -4.98215146e-002
      -2.25612625e-001 9.40327123e-002 2.70056259e-002 -3.14326100e-002
      -1.00929886e-002 -1.34000713e-002 3.23772454e-003 -4.96228132e-003
      1.41651677e-002 1.02427408e-001 7.04365820e-002 -5.98867983e-002
      -1.19757163e-003 -2.13429071e-002 -1.07098982e-001
      -9.56088826e-002 -3.17223854e-002 -1.65729728e-002 1.18037416e-002
      -5.98867983e-002 -5.98867983e-002 1.11292936e-001 1.74965281e-002
      1.01355016e-002 3.60899419e-003 9.88522731e-003 1.79314930e-002
      1.70803759e-002 -5.98867983e-002 -2.83557773e-001 5.43374047e-002
      3.80117027e-003 -9.31125600e-003 1.34973722e-002 -1.61567107e-002
      3.38997431e-002 3.28578949e-001 -4.20999303e-002 -7.39341795e-001
      1.20395757e-001 2.66416539e-002 -1.21310679e-002 -7.65418857e-002
      -2.42278427e-002 1.47041723e-001 1.05423558e+000 -2.75356658e-002
      -1.64158911e-001 2.86590487e-001 -2.61390600e-002 -6.08375371e-002
      -2.24192943e-002 -4.09917198e-002 -2.86017060e-002 7.60345683e-002
      -2.83794373e-001 -1.55024037e-001 9.11477447e-001 5.98764271e-002
      2.55572535e-002 -3.68848085e-001 -1.98089629e-001 2.20268920e-001
      1.92881256e-001 -4.01249498e-001</_>
    <_>
      7.01361448e-002 5.74722663e-002 -1.13783497e-002 2.04232689e-002
      1.95421074e-002 1.21684363e-002 -5.01573198e-002 -1.22127589e-002
      -8.13843403e-003 9.02432799e-002 -6.10319488e-002 -1.86017632e-001
      -2.14126427e-002 -9.84663367e-002 -2.37410367e-002
      -9.27972868e-002 -2.25485675e-002 1.26992047e-001 -3.30469310e-002
      4.07000370e-002 2.94651706e-002 4.95687947e-002 1.36625275e-001
      6.12333380e-002 3.59075852e-002 2.18358207e-002 -7.72296488e-002
      -6.90319315e-002 -1.34079501e-001 -7.99833983e-002 2.42448575e-003
      2.44344734e-002 4.45759948e-003 -1.20424531e-001 9.59082395e-002
      3.02084517e-002 2.78471261e-001 -2.94086456e-001 -2.83285946e-001
      -1.38474610e-002 -3.99650782e-002 -1.09164361e-002
      -3.71318460e-002 -1.58321261e-002 3.54906678e-001 3.42126757e-001
      -3.95988822e-001 -4.48139876e-001 -1.22632114e-002 7.75175318e-002
      3.20586264e-002 1.09780550e-001 2.05850571e-001 4.32978123e-001
      6.16620183e-002 -4.40849543e-001 -2.56124556e-001 -5.12117869e-004
      -2.32834648e-003 1.93629926e-003 -2.25339420e-002 1.85482223e-002
      2.13774532e-001 1.63860902e-001 -1.55901447e-001 -3.67326289e-001
      4.50752350e-003 4.31814045e-002 7.70026026e-003 3.66803743e-002
      2.92548239e-002 3.95663887e-001 -8.17885995e-003 -3.11190963e-001
      -3.30037981e-001 -3.84559557e-002 1.10680602e-001 7.33948424e-002
      2.20731094e-001 2.87603825e-001 2.13721871e-001 -2.01544732e-001
      -2.68085003e-001 -1.57859296e-001 -6.78956956e-002 6.65373961e-003
      1.60094917e-001 2.27601692e-001 1.52478635e-001 1.81696787e-002
      1.93124890e-001 -4.93583530e-002 -9.79797542e-002 -4.72839214e-002
      4.15201075e-002 -6.06311746e-002 2.09271465e-003 -2.22457703e-002
      6.55319467e-002 -3.33527103e-002 8.30456391e-002 1.67688698e-001
      -2.34025642e-002 7.42159458e-003 -9.33172703e-002 -1.69198379e-001
      -1.24489173e-001 -7.34366477e-002</_>
    <_>
      1.90199167e-001 3.07282597e-001 1.13204323e-001 4.18243706e-002
      1.00706369e-001 1.40590305e-002 -2.21619874e-001 -2.78096259e-001
      -1.08899437e-001 1.52702838e-001 9.65204537e-002 -4.59812075e-001
      -3.24900776e-001 -6.07378408e-002 -1.47513270e-001
      -3.13082188e-001 -2.73792505e-001 1.63271815e-001 -1.78493157e-001
      -3.78439203e-002 4.06810939e-002 9.22334641e-002 2.96744794e-001
      2.04345331e-001 1.69503465e-001 1.37454033e-001 -1.23883367e-001
      -1.40320193e-002 -3.62712115e-001 -3.40027422e-001
      -2.27586478e-001 -1.53845977e-002 -7.72677958e-002
      -6.22092485e-002 1.67931825e-001 1.19106129e-001 4.22187597e-001
      -4.14238662e-001 -4.72555935e-001 -1.83476016e-001
      -1.63583577e-001 -2.55136967e-001 -3.39684784e-001
      -2.97438651e-001 4.86208409e-001 5.07719159e-001 -2.85109997e-001
      -3.13078642e-001 -9.33525041e-002 -2.32639343e-001
      -3.14024448e-001 -5.56095839e-001 -1.44436091e-001 5.60779750e-001
      3.13884318e-001 -5.89106917e-001 -3.74493331e-001 -1.39047012e-001
      -2.10017920e-001 -2.94888109e-001 -3.94760221e-001
      -3.16152006e-001 2.96601355e-001 4.38912719e-001 6.31654188e-002
      -1.77718967e-001 -3.99888009e-002 -2.06764802e-001
      -2.82513231e-001 -4.88768876e-001 -5.56807756e-001 2.84675092e-001
      -6.01754524e-003 -2.05170661e-001 -1.69995457e-001
      -6.34440184e-002 -2.03252994e-002 -1.32808819e-001
      -1.36760756e-001 3.35461199e-002 3.25276464e-001 -2.94441849e-001
      -2.74221718e-001 -2.54312158e-001 -8.34065974e-002 1.21566176e-001
      1.01504423e-001 -6.11036643e-002 2.49856114e-001 -4.70306873e-002
      2.94075124e-002 1.83840424e-001 1.39249727e-001 -2.23764423e-002
      1.31806076e-001 -4.82175052e-002 -2.83553898e-002 -2.48950005e-001
      -1.94807351e-001 -1.53073460e-001 4.94367406e-002 2.93003104e-004
      1.79959372e-001 2.74346799e-001 1.28320619e-001 1.23072371e-001
      1.81951504e-002 -1.95650458e-001</_>
    <_>
      2.76892513e-001 -5.01935184e-002 2.00367607e-002 4.31951135e-002
      1.46994710e-001 7.30375946e-002 1.47599140e-002 1.66628696e-002
      -2.96718646e-002 1.73117563e-001 -2.66535640e-001 -5.26346982e-001
      -8.19934458e-002 -2.65062302e-001 -4.97058481e-002 1.93874771e-003
      -4.16852527e-006 1.91820487e-001 -4.34253633e-001 -2.70475477e-001
      1.12146303e-001 1.18795574e-001 3.54174912e-001 3.05651695e-001
      3.43657523e-001 5.58842540e-001 -2.01276571e-001 -6.68551773e-002
      -1.46951705e-001 -1.18097253e-001 -7.89735466e-004
      -1.77476510e-001 -3.98917012e-002 8.45281854e-002 5.06024182e-001
      2.19511781e-002 1.55559614e-001 -6.72980189e-001 -4.06243652e-001
      -8.69386047e-002 -2.01266333e-001 -5.09407260e-002
      -5.57600670e-002 -4.08925861e-002 4.46200222e-001 1.02450758e-001
      -6.83758616e-001 -3.16237509e-001 -2.45972976e-001
      -2.60591030e-001 -1.15991876e-001 -3.22699994e-002 1.17470630e-001
      4.26393896e-001 1.04492374e-001 -2.38825411e-001 -1.67118371e-001
      -5.31303287e-002 -1.36870012e-001 -6.52020201e-002
      -5.50147742e-002 -4.87231649e-002 1.45311981e-001 1.08194955e-001
      -9.43820924e-002 -1.96967244e-001 -8.68122056e-002
      -7.42442459e-002 -1.12086959e-001 -2.01388791e-001
      -2.13991880e-001 1.40600771e-001 -1.12178922e-001 -1.90615445e-001
      -1.47706151e-001 -3.02197844e-001 -3.90602827e-001
      -1.21570237e-001 -2.74203457e-002 2.59947687e-001 1.73771158e-001
      -2.63227016e-001 -1.55505583e-001 -4.46199626e-002
      -1.65696815e-001 -1.68650895e-001 -5.68168759e-002 6.96639046e-002
      3.59198630e-001 -6.31245524e-002 -1.34565420e-002 -3.51017006e-002
      -1.55778572e-001 -3.75015773e-002 1.05280615e-002 -4.72680144e-002
      -1.34315118e-001 -1.54258117e-001 -1.14123389e-001
      -1.34049550e-001 3.14179063e-002 8.56376588e-002 2.18032762e-001
      8.96127746e-002 -1.33093372e-001 -5.06402329e-002 -5.60848862e-002
      -2.45214820e-001</_>
    <_>
      -2.34030157e-001 3.89005393e-002 2.42498636e-001 4.03936803e-002
      4.28197794e-002 3.39017175e-002 3.81553508e-002 1.10699758e-002
      -1.46573469e-001 8.29020664e-002 2.56228149e-001 -1.88798141e-002
      -2.32424706e-001 -8.26915354e-002 -1.64440259e-001
      -2.45549262e-001 -8.39342326e-002 -2.51988391e-003
      -9.82322097e-002 -2.37862039e-002 -2.55354196e-002
      -1.75779268e-001 -9.04706866e-002 -8.70569348e-002 2.38573208e-001
      4.53538358e-001 2.63794214e-002 2.44088784e-001 4.98434901e-002
      -1.13348193e-001 -2.98803598e-001 -2.26463780e-001
      -4.05604422e-001 -2.93116361e-001 1.19169548e-001 4.06805903e-001
      4.45784420e-001 -6.41622543e-002 -2.46881619e-001 -2.41275743e-001
      -1.74003661e-001 -1.96627989e-001 -2.58301944e-001
      -2.28161350e-001 3.03885281e-001 4.11071151e-001 -2.10748136e-001
      -2.11202472e-001 -1.90006480e-001 -1.55753240e-001
      -2.53526032e-001 -2.09483132e-001 -4.86471616e-002 3.33509922e-001
      5.19072950e-001 -6.95849955e-002 -1.39267743e-001 -1.68188140e-001
      -1.82180971e-001 -2.55068690e-001 -5.29775560e-001
      -3.40036094e-001 3.24073702e-001 1.89522430e-001 -8.34912956e-002
      -1.48242071e-001 -1.17576905e-001 -4.20697480e-002
      -1.16052233e-001 -2.60067016e-001 -3.98734242e-001 2.34632224e-001
      6.08867109e-002 -1.08729579e-001 -1.10416360e-001 -1.08797796e-001
      4.42888662e-002 -1.64896116e-001 -6.75647799e-003 3.54412869e-002
      1.79648384e-001 -2.64949743e-002 -1.03575867e-002 -9.57968682e-002
      -9.48701724e-002 4.21319976e-002 6.79849088e-002 -2.66787410e-003
      5.59398308e-002 -5.77281378e-002 4.70670462e-002 -3.34936976e-002
      -2.88850479e-002 -4.68609147e-002 8.59986022e-002 -2.03034356e-002
      -5.15598245e-002 -5.62501624e-002 -5.33570303e-003
      -5.57551086e-002 -1.30125154e-002 -8.29458144e-003 1.15916997e-001
      2.00145006e-001 6.88266978e-002 1.47837843e-003 -4.33752313e-002
      -5.10517359e-002</_>
    <_>
      -2.25391723e-002 -4.51415703e-002 5.52573055e-002 4.82728332e-002
      1.91527724e-001 1.11902751e-001 -2.86995098e-002 2.42440011e-002
      -3.30450349e-002 1.70212239e-002 7.76432082e-002 -3.94073017e-002
      -2.88516819e-001 -8.06632042e-002 -1.74306452e-001
      -2.21091807e-001 3.65902786e-003 2.97069222e-001 3.11767794e-002
      -1.04366601e-001 -1.40900567e-001 -1.13788299e-001 3.42394859e-002
      6.47697300e-002 -7.10986033e-002 7.45616332e-002 4.88204248e-002
      4.49066758e-001 -7.28114620e-002 -2.68045425e-001 -4.86510873e-001
      -4.57802206e-001 -6.05431378e-001 -3.39745581e-001 3.17500010e-002
      6.63103580e-001 2.55021840e-001 -4.40035075e-001 -1.85920224e-001
      -2.19809905e-001 -1.13073386e-001 -1.80271298e-001
      -1.68856606e-001 -2.72889454e-002 4.23494399e-001 1.80837885e-001
      -4.46835876e-001 -1.68657035e-001 -8.35105330e-002 4.82949056e-002
      -8.00106227e-002 -1.21568628e-001 5.26042432e-002 1.99234039e-001
      5.93993545e-001 -3.20898950e-001 -2.54340559e-001 -3.90546352e-001
      -3.38025659e-001 -5.06962061e-001 -6.64942861e-001
      -5.64777851e-001 4.94389862e-001 2.35289738e-001 -1.28084362e-001
      -2.58343935e-001 -1.72286600e-001 -5.30503020e-002
      -2.03508958e-001 -2.87723720e-001 -4.37318265e-001 1.92286685e-001
      2.94001941e-002 2.41696043e-003 -6.17682963e-005 -4.42123488e-002
      1.26488045e-001 -1.41658217e-001 -1.29730459e-002 8.45565125e-002
      1.07022144e-001 -5.13463393e-002 2.45446786e-002 7.98632652e-002
      3.44443843e-002 1.76450785e-003 1.39397621e-001 2.18191426e-002
      5.23971394e-002 -8.30736682e-002 -6.19610306e-003 2.04084744e-003
      -3.46539207e-002 -2.46946484e-001 2.79870555e-002 -1.38441697e-001
      -6.71713278e-002 -9.04295295e-002 -1.09379031e-001
      -1.03151932e-001 1.34663388e-001 -1.08964508e-002 9.22391713e-002
      1.16001844e-001 -1.53805073e-002 6.40554726e-002 -5.64090535e-002
      -1.45711407e-001</_>
    <_>
      1.45902470e-001 2.30630681e-001 1.59404472e-001 -4.92492877e-002
      -2.22853705e-001 -7.24597722e-002 -7.09396675e-002
      -1.15082562e-001 -1.08186074e-001 3.84715721e-002 -5.64464331e-002
      -2.06370056e-002 -6.30711913e-002 -9.86719504e-002
      -1.05664462e-001 -6.74083829e-002 -2.11233981e-002 1.69289336e-001
      -2.48843879e-001 -1.81694567e-001 -6.50525047e-003
      -7.38992915e-002 -1.22378260e-001 1.96730047e-001 2.61736214e-001
      3.51144075e-001 4.85497303e-002 -1.49958640e-001 -3.46037537e-001
      -2.03030050e-001 -6.32900521e-002 -7.61007965e-002 1.25340577e-002
      1.21792726e-001 3.63992721e-001 3.72342646e-001 1.21539406e-001
      -4.26750153e-001 -3.09160985e-002 -1.09396502e-002
      -7.95049779e-003 -2.19888743e-002 -2.27676164e-002 2.97367410e-003
      3.94697607e-001 -1.61830299e-002 -5.34480929e-001 -1.15430597e-002
      -6.93851430e-003 2.63902135e-002 1.90789360e-004 -6.63805462e-004
      6.37085810e-002 2.98172265e-001 -1.02821048e-002 -5.56804895e-001
      -1.01819478e-001 -7.77664129e-003 -3.46035673e-003
      -1.62297057e-003 -5.55536826e-005 1.14218093e-001 4.78420138e-001
      -1.02821048e-002 -4.51255292e-001 -2.87620761e-002
      -6.74020033e-003 4.96803075e-002 1.20252101e-002 -2.41777184e-003
      9.16927995e-004 3.20613146e-001 -1.65954486e-001 -2.58195281e-001
      3.10671772e-003 -7.73177994e-003 6.23617284e-002 -4.15421044e-003
      3.81951667e-002 1.66778401e-001 2.49760784e-002 -3.69739592e-001
      -2.26228654e-001 1.49593921e-002 -2.49998774e-002 -3.38049792e-002
      4.19897288e-002 8.36332291e-002 3.12603265e-001 -1.33964017e-001
      -5.80228567e-002 -1.88055620e-001 6.15731552e-002 -4.94260527e-003
      7.36976117e-002 -2.20737606e-003 -1.14099281e-002 2.68687010e-002
      2.13539694e-002 -1.76308393e-001 1.94572598e-001 1.24128915e-001
      1.27614096e-001 8.35047439e-002 4.18042392e-003 4.57411781e-002
      1.77173227e-001 -4.60442193e-002</_>
    <_>
      -5.35368919e-004 1.03325695e-001 5.86479753e-002 3.58509645e-002
      1.64185971e-001 1.03266174e-002 -4.15655710e-002 -1.13505714e-001
      -1.63674131e-001 1.98791072e-001 1.74078405e-001 -1.14286900e-001
      -1.98986590e-001 -8.30129012e-002 -2.58083224e-001
      -2.47029036e-001 -3.94748688e-001 -3.63625139e-002
      -1.38835758e-001 -2.39790417e-002 -3.05126309e-002 8.07805639e-003
      2.77673513e-001 6.82844147e-002 1.64922904e-002 1.33454964e-001
      4.25727060e-003 1.99126396e-002 -3.71990830e-001 -3.64658982e-001
      -2.43149176e-001 -1.50870040e-001 -2.74217099e-001
      -1.89801589e-001 9.34175178e-002 1.51282102e-001 4.74757701e-001
      -2.88672954e-001 -2.88566858e-001 -2.39406541e-001
      -2.10075572e-001 -2.26876199e-001 -3.03245723e-001
      -4.72940147e-001 4.38994080e-001 2.31545404e-001 -6.73458815e-001
      -4.00339216e-001 -2.41555646e-001 -9.01350453e-002
      -1.48445532e-001 -1.15161411e-001 4.11377884e-002 4.82453853e-001
      4.55595523e-001 -4.46595550e-001 -3.62353593e-001 -3.14423442e-001
      -3.83045584e-001 -3.45406741e-001 -4.54633296e-001
      -3.00260484e-001 3.48594576e-001 4.44501787e-001 -9.33929309e-002
      -3.18680078e-001 -2.44403735e-001 -2.94141948e-001
      -3.05996925e-001 -4.66663182e-001 -5.34827709e-001 2.75615662e-001
      -1.50985256e-001 -4.16662186e-001 -1.27976164e-001
      -1.31644815e-001 7.29314014e-002 -8.66964906e-002 1.42854795e-001
      1.22490950e-001 2.51957446e-001 -1.52681783e-001 -5.65362610e-002
      -1.04499292e-002 -2.79982165e-002 1.19489245e-002 1.76852331e-001
      5.70733845e-002 1.38596058e-001 -8.63852799e-002 6.44909963e-002
      -3.86277065e-002 6.27571195e-002 -1.08893201e-001 9.86112878e-002
      -3.54390927e-002 -2.64293309e-002 -2.55267292e-001
      -1.44232005e-001 -1.53402582e-001 4.65834476e-002 -4.26252931e-002
      2.25148410e-001 3.67668383e-002 1.31319880e-001 8.63199309e-002
      -9.38780084e-002 -1.15847372e-001</_>
    <_>
      1.20109439e-001 6.49354160e-002 1.71228513e-001 2.89288536e-002
      1.44215196e-001 7.29623251e-003 -8.67761672e-002 -2.24810112e-002
      9.76740941e-003 2.19170265e-002 -7.47395828e-002 -4.00971062e-002
      -1.09435968e-001 5.94255812e-002 -1.54210795e-002 -1.19690090e-001
      -2.71494716e-001 -8.08847975e-003 6.01405390e-002 -7.27006719e-002
      -1.50445074e-001 -3.17743681e-002 3.10908735e-001 -4.70842514e-003
      1.02706142e-002 1.20894358e-001 2.05729857e-001 1.39524862e-002
      -3.35330248e-001 -1.02813184e-001 -6.65755197e-002 1.43377939e-002
      -7.39591047e-002 -1.46675915e-001 -5.89192007e-003 3.25333364e-002
      3.94556284e-001 -3.02065551e-001 -1.51259169e-001 -6.00969084e-002
      -8.22991431e-002 -2.02553913e-001 -2.52373874e-001
      -7.74740458e-001 3.46583873e-001 8.39859545e-001 -1.37862846e-001
      -2.51053810e-001 -2.58277565e-001 -2.47374818e-001
      -4.75963175e-001 -6.61117554e-001 -3.08616310e-001 5.16856968e-001
      2.57600963e-001 -8.38313103e-001 -2.28040308e-001 -9.13063809e-002
      -1.02274433e-001 -1.37475893e-001 -2.07032144e-001
      -5.93506873e-001 2.57600963e-001 4.65807498e-001 -1.63620576e-001
      -2.10485891e-001 -3.28882128e-001 -3.73210490e-001
      -5.14279366e-001 -4.77745801e-001 -4.27127123e-001 3.94302666e-001
      7.15391338e-002 -2.12865368e-001 -1.96835741e-001 -3.80145639e-001
      -8.46354514e-002 -1.31080523e-001 -1.84313104e-001 7.12039694e-002
      5.04885852e-001 -3.83438498e-001 -3.86321843e-001 -3.58227760e-001
      -1.60993487e-001 1.61633387e-001 2.24882722e-001 1.34903312e-001
      -4.71467376e-002 -2.20962197e-001 -3.13036628e-002
      -4.66109905e-003 2.23035693e-001 -1.59294873e-001 5.06066568e-002
      -1.77615136e-001 -1.67010084e-001 -1.35806739e-001 1.32393390e-001
      -4.64201987e-001 -2.74124354e-001 -5.39257266e-002 2.59906173e-001
      2.78414160e-001 1.15385965e-001 -8.00589100e-002 -2.76021451e-001
      -2.15657413e-001</_>
    <_>
      -7.14114234e-002 -8.98460150e-002 8.70222226e-002 3.26963104e-002
      -2.41920426e-002 1.22964997e-002 -5.48296161e-002 -1.51327541e-002
      -4.44214717e-002 9.52430964e-002 -1.48789570e-001 -2.22485811e-002
      1.05611257e-001 2.16483567e-002 4.87285815e-002 -4.86835614e-002
      4.15172279e-002 8.94728377e-002 1.06320389e-001 3.10520269e-002
      1.08092614e-001 1.26392732e-003 4.08182815e-002 -9.33631975e-003
      -1.54805616e-001 -1.72260627e-001 4.90218960e-002 3.45169678e-002
      -1.42223507e-001 4.22157943e-002 1.03584453e-002 4.76358645e-003
      3.25843394e-002 -1.00882471e-001 -5.87219000e-002 4.80872691e-002
      2.34027386e-001 -2.43097425e-001 -2.78205294e-002 5.18020280e-002
      1.43195055e-002 1.72238387e-002 -5.85466716e-003 3.50452662e-002
      2.07530454e-001 2.81628489e-001 -3.58283252e-001 -2.92696029e-001
      -8.06204684e-004 -3.11009586e-003 1.51328382e-003 5.44533925e-003
      2.58369055e-002 2.83909768e-001 1.02964036e-001 -3.65136623e-001
      -1.29096538e-001 1.65381059e-002 7.82594550e-003 2.13802271e-002
      -6.91290596e-004 4.74586571e-003 2.25969315e-001 1.63224995e-001
      -3.61646116e-001 -3.41202021e-001 -1.88801587e-002
      -4.72399555e-002 -1.93547215e-002 -3.63231916e-003 1.03327772e-002
      3.21802050e-001 1.66563168e-001 -2.88825244e-001 -2.32170314e-001
      -1.89248696e-002 -3.89793213e-003 2.43231794e-003 3.82688344e-002
      3.81857678e-002 2.66488284e-001 -1.71423275e-002 -2.18171909e-001
      -1.09676756e-001 -5.33929020e-002 -1.00066319e-001
      -2.71420684e-002 2.80424897e-002 1.21977450e-002 2.19722793e-001
      2.20655829e-001 -2.56004304e-001 -1.69311315e-001 -5.88969328e-002
      -8.60876665e-002 -8.09130073e-002 -2.69574728e-002
      -1.07324058e-002 2.93876857e-001 1.73420891e-001 -5.37717417e-002
      5.29013015e-003 -7.85270855e-002 -2.64419653e-002 -1.05761118e-001
      -7.46384934e-002 -3.54504474e-002 1.44395784e-001</_>
    <_>
      -1.23551510e-001 -3.12728621e-002 2.95140088e-001 4.98334393e-002
      -2.49174405e-002 -1.17410362e-001 -2.36570179e-001
      -2.48769984e-001 -1.80423647e-001 7.70433918e-002 -2.05024391e-001
      -1.07513934e-001 2.11478099e-002 1.58081099e-001 5.40006980e-002
      -1.78600550e-001 -1.19351551e-001 1.37237888e-002 2.17471316e-001
      5.86536042e-002 3.06011736e-001 1.35709748e-001 1.46786690e-001
      -5.70989177e-002 -9.63500440e-002 -3.31295222e-001
      -1.68469141e-003 5.50555512e-002 -2.15450883e-001 1.64187397e-003
      6.16646633e-002 8.50415882e-003 6.62489980e-002 -7.96363279e-002
      -2.03598022e-001 1.23108968e-001 1.68194294e-001 -3.03553194e-001
      -1.95631728e-001 7.27365613e-002 1.27347976e-001 -8.43762159e-002
      -1.58280596e-001 -5.91350347e-002 1.36011243e-001 2.90791512e-001
      -1.65286973e-001 -1.06042720e-001 -9.75384563e-003
      -9.31094438e-002 -3.63840461e-001 -4.49680746e-001
      -3.61045271e-001 2.17674315e-001 2.37799942e-001 -3.86789769e-001
      -1.16009153e-001 9.33532789e-002 8.98445118e-003 -1.11254938e-001
      -1.75103813e-001 -1.60679415e-001 2.58598536e-001 3.51610094e-001
      -2.25217044e-001 -7.95411989e-002 6.06491137e-003 -1.49494827e-001
      -3.03411156e-001 -3.54398400e-001 -5.15543878e-001 2.11676955e-001
      3.50335926e-001 -1.86622038e-001 -1.04353726e-001 -5.66453226e-002
      -1.39108568e-001 -1.65351212e-001 -2.62727946e-001
      -3.37431461e-001 2.44784579e-001 1.62833765e-001 -3.27344775e-001
      -3.45886797e-001 -6.32674769e-002 -6.40671551e-002
      -2.23849285e-002 -2.93680161e-001 -2.20948532e-001 2.53688693e-001
      2.30269551e-001 -2.58442640e-001 1.09264161e-002 5.29100299e-002
      8.78172554e-003 -7.53461644e-002 -1.07837625e-001 -4.60187227e-001
      2.67215580e-001 1.65926248e-001 -4.36089784e-001 -2.96921879e-001
      1.49373442e-001 1.19060710e-001 7.69243911e-002 -1.62079036e-002
      -7.26830885e-002 1.89910397e-001</_>
    <_>
      -1.60070658e-001 -3.43605757e-001 1.34044543e-001 1.47514790e-001
      9.38493907e-002 7.42127970e-002 2.90650036e-002 4.31720121e-003
      -3.47473361e-002 1.53189808e-001 -3.94474924e-001 -1.32611826e-001
      2.37145886e-001 -3.00059300e-002 1.16104841e-001 5.31835295e-002
      1.19620577e-001 1.87841997e-001 -8.94882306e-002 -2.60206193e-001
      2.41744190e-001 1.41564891e-001 2.85513848e-001 7.15623572e-002
      5.69637977e-002 2.09267307e-002 -5.79659119e-002 -4.04674709e-002
      -1.66469455e-001 1.72290608e-001 6.65887445e-002 -1.67598993e-001
      4.71418314e-002 2.10734028e-002 9.99031961e-003 4.31421772e-003
      9.30363089e-002 -6.19773865e-001 -2.01573178e-001 9.79153439e-002
      1.74668003e-002 4.13935483e-002 -1.97891556e-002 9.60922018e-002
      3.40732992e-001 1.19994029e-001 -6.93611860e-001 -3.18812877e-001
      -3.51637572e-001 -2.96440095e-001 -1.71263188e-001
      -1.83600083e-001 -5.00529930e-002 4.58177090e-001 1.74440607e-001
      -3.25253487e-001 -3.52574177e-002 7.54973441e-002 -7.29155634e-003
      3.93452048e-002 -4.72828895e-002 -3.33913267e-002 1.78616464e-001
      1.77364886e-001 -4.85218525e-001 -3.25502694e-001 -1.67036340e-001
      -1.64269313e-001 -1.92468390e-001 -2.52204955e-001
      -2.50180721e-001 1.94678307e-001 3.52167040e-001 -2.01616675e-001
      -2.01216757e-001 -4.28548545e-001 -5.39768398e-001
      -2.33210430e-001 -2.58816332e-001 -9.50450972e-002 2.68165201e-001
      2.24182680e-001 -1.51443541e-001 -7.60549232e-002 -1.51912346e-001
      -2.67847300e-001 -2.04648376e-001 -2.24826112e-001
      -6.41762316e-002 2.57546127e-001 2.77546257e-001 -3.85250837e-001
      -3.32697272e-001 -1.28922135e-001 -2.87233710e-001
      -1.66067138e-001 -2.54276365e-001 -2.67970711e-001 2.87000179e-001
      2.36981183e-001 -3.04405570e-001 -1.84933513e-001 -2.15062429e-003
      -6.39826208e-002 -1.92380175e-001 -2.59621382e-001
      -2.75453418e-001 9.27850530e-002</_>
    <_>
      -2.29684651e-001 -8.66857246e-002 2.42825523e-001 6.15995154e-002
      -6.08671270e-002 -3.79060730e-002 1.65863091e-003 -4.94091213e-003
      -8.71201828e-002 5.70249371e-003 3.52028273e-002 1.47404477e-001
      7.13752881e-002 3.09141297e-002 -9.42437798e-002 -7.27927461e-002
      -2.54866667e-002 1.83571801e-002 6.52522147e-002 4.31769602e-002
      1.20093547e-001 -1.03671260e-001 -1.36888906e-001 -1.49638504e-001
      -8.24607089e-002 2.65541524e-002 1.37146264e-001 2.37033427e-001
      6.48150891e-002 1.11862250e-001 -1.81571856e-001 -2.07619235e-001
      -2.97107249e-001 -2.51816094e-001 -1.80663943e-001 2.34407604e-001
      1.27059683e-001 -4.90460657e-002 -2.59539541e-002 4.91991937e-002
      1.32606151e-002 -1.00249134e-001 -8.65392983e-002 -8.66984800e-002
      1.32776603e-001 2.95564204e-001 -1.50067016e-001 -1.49355069e-001
      -7.31822252e-002 -1.74926177e-001 -1.38745621e-001
      -1.45540014e-001 -1.80296719e-001 1.78011253e-001 4.17847872e-001
      -2.14228667e-002 -2.96378508e-002 -7.62454048e-002
      -1.32880002e-001 -2.17061028e-001 -3.45521271e-001
      -3.03297937e-001 2.61881471e-001 2.55553782e-001 -1.66427910e-001
      -1.16256535e-001 -4.11487557e-002 -1.09526612e-001
      -1.46480784e-001 -2.56071419e-001 -3.74190420e-001 8.32004324e-002
      3.42926890e-001 -1.12703897e-001 -1.07270494e-001 -7.11514726e-002
      -1.30893275e-001 -1.15633845e-001 -1.09062180e-001
      -1.75854310e-001 2.56970614e-001 1.96360439e-001 -6.12554811e-002
      -1.52912006e-001 -1.09426044e-001 1.65487695e-002 -8.19182545e-002
      -2.44953915e-001 -2.29188800e-001 1.46666780e-001 1.57450184e-001
      -1.90791860e-001 -7.70989805e-002 2.73249298e-002 2.44805105e-002
      -2.42807940e-002 -4.53918837e-002 -2.06353679e-001 1.22066677e-001
      1.06422514e-001 -3.04651976e-001 -1.49129912e-001 -7.05245510e-003
      1.30537793e-001 1.55355586e-002 -7.47033060e-002 -1.31189361e-001
      1.10718362e-001</_>
    <_>
      -7.91670606e-002 -1.42225340e-001 2.39584167e-002 5.06311990e-002
      -3.32485922e-002 7.96371978e-003 -1.69075765e-002 -1.62928493e-003
      1.00076105e-002 -8.43969584e-002 -1.31130800e-001 7.16979876e-002
      1.41799256e-001 7.25030005e-002 2.16966849e-002 -1.46652001e-003
      1.10864406e-002 9.54854414e-002 2.56677985e-001 1.83279008e-001
      8.72197002e-002 -1.06779654e-002 1.62155628e-002 -1.09467871e-001
      -3.43058735e-001 -3.31244618e-001 2.21398249e-001 2.50204295e-001
      -1.02136545e-001 9.07170400e-002 -2.18664274e-001 -1.74767077e-001
      -2.28609622e-001 -2.08919019e-001 -3.25897962e-001 2.53743440e-001
      4.32297066e-002 -1.87396929e-001 1.20102756e-001 8.49603266e-002
      2.09403075e-002 -9.10155699e-002 -2.87462696e-002 1.91684142e-002
      1.32517308e-001 1.07297175e-001 -3.48282486e-001 -1.50691733e-001
      3.02858762e-002 -2.37991139e-002 -1.63247243e-001 -1.15743317e-001
      -9.80975777e-002 9.28610042e-002 4.31154907e-001 -1.34391800e-001
      -5.70975021e-002 -2.18460426e-001 -1.39093950e-001
      -2.63368905e-001 -3.23292434e-001 -3.57159019e-001 4.24060702e-001
      3.33411783e-001 -2.69278944e-001 -2.47434124e-001 -6.84366450e-002
      -1.28409192e-001 -2.96430528e-001 -3.58081281e-001
      -4.21720892e-001 1.41720891e-001 1.35371163e-001 -2.30326906e-001
      -6.19443282e-002 7.63402926e-003 7.20743230e-003 -3.64536457e-002
      -6.38971627e-002 -1.98086441e-001 5.41777201e-002 1.98192522e-001
      -1.15769900e-001 -4.17540520e-002 -1.38868461e-003 3.70185636e-002
      -8.67407944e-004 -1.71009213e-001 -3.70376527e-001 1.14692606e-001
      1.79809123e-001 -2.62416601e-001 -6.64096698e-002 1.06105991e-002
      -2.67137084e-002 -7.28001595e-002 -8.51733461e-002
      -3.87075037e-001 1.85352966e-001 1.37761250e-001 -3.40464741e-001
      -8.27619433e-002 3.01869656e-003 5.82716465e-002 -2.03139354e-002
      -9.58515480e-002 -2.03784078e-001 1.34881377e-001</_>
    <_>
      -1.50148258e-001 1.74471989e-001 3.78499061e-001 -8.74150246e-002
      -3.08115840e-001 -1.54289708e-001 -8.66784230e-002
      -1.65817872e-001 -1.12522997e-001 3.10668796e-002 -2.26164520e-001
      2.31446922e-001 1.21606275e-001 4.31818701e-002 1.94804333e-002
      -4.65331227e-002 3.38318609e-002 2.09806308e-001 -5.01949042e-002
      -9.95537564e-002 2.05328867e-001 -1.05349489e-001 -1.47479460e-001
      -4.47852723e-002 4.71436381e-002 9.15867090e-003 2.91506708e-001
      -8.60462263e-002 -3.69838119e-001 -2.29272638e-002 1.19758788e-002
      -3.06471996e-002 9.05246958e-002 2.18377262e-002 3.03860921e-002
      4.40897495e-001 4.36896272e-002 -4.64422882e-001 1.90704390e-001
      1.44982815e-001 1.49679944e-001 5.61958067e-002 7.94181507e-003
      1.05277263e-001 3.26758981e-001 -7.02829361e-002 -6.28932893e-001
      4.08266336e-002 3.66932824e-002 6.48679659e-002 -3.87725583e-003
      1.18592605e-002 4.09107506e-002 2.37694323e-001 7.75861181e-003
      -5.98962069e-001 -1.67348441e-002 1.17949814e-001 1.07580818e-001
      9.77711827e-002 1.14337783e-002 9.25336182e-002 5.70984244e-001
      7.75861181e-003 -6.43942952e-001 -3.07757501e-002 2.29822341e-002
      6.56494722e-002 1.08812246e-002 8.79848283e-003 2.64325775e-002
      3.72352302e-001 -7.41648898e-002 -3.50991279e-001 -2.39817295e-002
      4.38874634e-003 -2.37487778e-002 -9.86093003e-003 -6.03570091e-003
      3.59420590e-002 4.87928502e-002 -1.40154943e-001 -2.70427883e-001
      -3.98779176e-002 -7.11369887e-002 -1.37794986e-001
      -6.17170446e-002 -6.23329133e-002 7.99630862e-003 2.92304251e-002
      5.10232635e-002 -4.03063715e-001 6.99963234e-003 3.09348907e-002
      5.90053834e-002 1.29660629e-002 1.86796254e-003 1.77493654e-002
      2.45917708e-001 -1.77605655e-002 -2.38938004e-001 9.50905681e-003
      6.86143618e-003 8.56075212e-002 8.87568202e-003 -1.89599004e-002
      5.68063259e-002 1.63058713e-001</_>
    <_>
      -2.44107693e-001 -8.13349560e-002 1.78679168e-001 4.55016308e-002
      1.07533395e-001 -5.20357713e-002 -4.36021164e-002 -1.41110182e-001
      -1.82526425e-001 5.25954291e-002 -1.67558014e-001 1.50403857e-001
      1.16850644e-001 1.80092156e-001 3.50174718e-002 -1.26263916e-001
      -1.69422179e-001 -6.60624728e-002 1.66571334e-001 1.24521166e-001
      1.57039091e-001 -4.41869125e-002 1.50726184e-001 -1.16641112e-001
      -2.58879930e-001 -3.16901684e-001 1.41857043e-001 8.13191012e-002
      -2.73996264e-001 2.09318679e-002 -8.29944573e-003 -3.30613106e-002
      -2.46738549e-002 -1.75849944e-001 -1.94884479e-001 8.50263014e-002
      2.45538905e-001 -1.44205242e-001 2.91396771e-003 2.95302421e-002
      7.72578344e-002 -9.22681019e-002 -1.54310539e-001 -2.33656168e-001
      1.85139775e-001 1.98576689e-001 -4.60643858e-001 -2.00446516e-001
      -1.35706618e-001 5.22102648e-003 -2.05491915e-001 -1.72025427e-001
      -3.32916349e-001 3.08168620e-001 2.50365376e-001 -3.82780045e-001
      -8.99681151e-002 2.43013296e-002 -9.67982113e-002 -1.02182485e-001
      -2.71198094e-001 -2.24213451e-001 2.66091496e-001 3.53861064e-001
      -3.82326394e-001 -1.96784616e-001 -1.61017925e-001
      -2.01821461e-001 -2.81646013e-001 -3.45584929e-001
      -5.15888095e-001 2.07376495e-001 1.93653107e-001 -3.76056254e-001
      -9.97237340e-002 -8.58750492e-002 -8.49501882e-003
      -8.41179192e-002 -7.62182921e-002 -2.54994154e-001 1.97917223e-001
      9.95488316e-002 -2.17158720e-001 -9.70083252e-002 -8.90452638e-002
      8.72628763e-002 -8.26188326e-002 -1.61049500e-001 -2.76788205e-001
      1.67681232e-001 2.46615469e-001 -3.10522616e-001 -5.58398664e-002
      -1.95163079e-002 -2.30232012e-002 -5.87711707e-002
      -7.37332776e-002 -4.39893425e-001 2.56605387e-001 2.08454266e-001
      -3.88809294e-001 -1.12505622e-001 6.69593588e-002 8.83385167e-002
      -1.64700691e-002 -3.81059311e-002 -2.29781359e-001 1.47553965e-001</_>
    <_>
      -1.09952234e-001 -1.32851347e-001 6.88717440e-002 1.03204258e-001
      6.68011233e-002 8.57617892e-003 -1.02341779e-001 -5.26185185e-002
      6.55251715e-005 4.39866446e-002 -2.42754772e-001 6.48637041e-002
      2.00763673e-001 2.24868029e-001 8.25804770e-002 -4.47736904e-002
      -3.22861671e-002 -2.04350706e-002 2.97282815e-001 8.15239549e-003
      2.35627666e-002 1.62866041e-002 3.49033475e-002 -3.14518809e-002
      -3.00743788e-001 -2.59380311e-001 2.75713503e-001 2.80031674e-002
      -1.51933819e-001 6.89240992e-002 6.13548122e-002 2.81979721e-002
      2.89270352e-003 -1.65402398e-001 -2.77697086e-001 2.80031674e-002
      1.26515955e-001 -1.02959760e-001 1.45719526e-003 1.11689210e-001
      1.05733119e-001 -6.44716574e-003 -9.30629000e-002 -2.22415939e-001
      8.61563385e-002 3.28102767e-001 -1.23648740e-001 -1.03177376e-001
      -6.63380250e-002 -1.08741999e-001 -1.64179102e-001
      -3.73575747e-001 -3.74539614e-001 2.11001933e-001 1.41583502e-001
      -3.31483066e-001 -2.96938326e-003 7.17161596e-002 4.14051190e-002
      6.04709191e-003 -8.96713510e-002 -2.27728829e-001 1.41583502e-001
      2.47606233e-001 -3.96523386e-001 -1.57514736e-001 -1.09182313e-001
      -2.34300330e-001 -1.81903929e-001 -2.55521387e-001
      -2.99600720e-001 1.87848926e-001 3.02490592e-001 -1.60742104e-001
      -1.44492403e-001 -1.19450770e-001 -8.73315260e-002
      -8.44817683e-002 -2.62577415e-001 -2.48620927e-001 2.68689662e-001
      9.93002653e-002 -2.23206848e-001 -2.31443822e-001 -7.39564151e-002
      7.83769712e-002 -5.09161968e-003 -1.97562352e-001 -2.40053058e-001
      1.07215539e-001 2.68962473e-001 -2.90600419e-001 -1.03106603e-001
      -3.29179056e-002 -1.11726560e-001 -1.06440999e-001
      -1.52695134e-001 -1.90163895e-001 3.57178748e-001 1.13603853e-001
      -3.23985606e-001 -1.99841589e-001 6.95153996e-002 5.69671951e-002
      3.46896960e-003 -1.46412164e-001 -1.83213517e-001 1.79367870e-001</_>
    <_>
      -1.10529937e-001 4.84167086e-003 7.23569766e-002 1.53887942e-002
      8.36379379e-002 4.01659124e-002 -6.34213611e-002 -8.40478614e-002
      -5.32689579e-002 -9.27525684e-002 2.01320350e-001 4.19514701e-002
      -1.58743620e-001 6.89841136e-002 -5.26023135e-002 -5.68309017e-002
      7.65438899e-002 -2.33558882e-002 -1.09294370e-001 -1.50472179e-001
      -1.04236446e-001 -9.54694208e-003 3.01515777e-002 4.92677689e-002
      5.21536730e-002 1.33316204e-001 -4.23540846e-002 -1.68012287e-002
      -9.57142562e-002 -1.89605802e-001 -7.06443265e-002
      -6.79439902e-002 -1.59731377e-002 -6.80646673e-002 5.42712696e-002
      -4.08744365e-002 -1.82166070e-001 3.13582718e-001 1.94793865e-001
      -1.58062443e-001 -1.08358942e-001 -1.95657015e-001
      -2.06038982e-001 -1.32127360e-001 -1.64794490e-001
      -3.51535887e-001 5.16059101e-001 5.24472296e-001 -1.03271432e-001
      -1.12294465e-001 -3.16014647e-001 -2.68218547e-001
      -3.33373189e-001 -3.00801605e-001 -3.22248936e-002 4.06537026e-001
      8.78819749e-002 -6.65657967e-002 -1.29719645e-001 -1.70399249e-001
      -3.05325240e-001 -2.18047991e-001 -1.78381860e-001
      -2.61777759e-001 3.10179234e-001 4.33213532e-001 3.84034254e-002
      -6.27015159e-002 -3.43009084e-001 -4.91761476e-001
      -5.65082073e-001 -4.66872841e-001 7.48397969e-003 4.09756929e-001
      2.11457804e-001 -1.24306120e-001 6.77858815e-002 -2.02851057e-001
      -2.45017454e-001 -2.72881240e-001 -1.14346124e-001 2.98309773e-001
      3.15813988e-001 -9.50700343e-002 -7.77198374e-002 6.22100383e-002
      -1.87065139e-001 -4.25700784e-001 -3.04183513e-001
      -1.85950577e-001 -3.64931732e-001 9.79072750e-002 1.79318249e-001
      1.45879373e-001 1.79910839e-001 -4.09721658e-002 -1.42542645e-001
      -2.05837145e-001 -3.77863795e-001 -2.69724033e-003
      -9.97238532e-002 -2.79372185e-001 2.44530991e-001 3.09029788e-001
      1.45637587e-001 -3.03492956e-002 2.34083552e-002 -1.65567309e-001</_>
    <_>
      1.83090940e-001 -5.84455505e-002 1.38958037e-001 1.37180477e-001
      1.67909086e-001 1.32777199e-001 1.14715375e-001 2.19011486e-001
      1.24744341e-001 3.42985429e-002 -9.40903723e-002 -2.07781315e-001
      -2.23605358e-003 1.41356871e-001 1.30547602e-002 4.12462614e-002
      1.26891509e-001 5.27681597e-002 -3.16781998e-002 -5.54118335e-001
      -1.49653897e-001 6.29018620e-002 -8.53142515e-002 1.80132493e-001
      4.22722757e-001 5.47871292e-001 1.17254250e-001 -1.82240307e-001
      -1.22417763e-001 -1.14620648e-001 -8.70628953e-002
      -3.07246327e-001 -9.82133299e-002 8.84011909e-002 1.54810384e-001
      -1.21106647e-001 -2.99613923e-001 8.73208512e-003 1.35240749e-001
      -1.28585964e-001 -7.17817759e-003 -2.83943191e-002
      -5.88648906e-003 -2.14427318e-002 -1.00374497e-001
      -5.00699818e-001 2.33396098e-001 5.01385033e-001 -1.98117957e-001
      -1.91607371e-001 -1.37058198e-001 -9.83154401e-002
      -1.15296371e-001 -2.79883236e-001 -2.78644890e-001 2.42505968e-001
      2.81797349e-001 -1.79991171e-001 -1.36979327e-001 -8.50384459e-002
      -5.01893945e-002 -6.28005862e-002 -4.92834538e-001
      -4.40272272e-001 1.96386099e-001 4.19046760e-001 -6.76010326e-002
      -8.18368569e-002 -4.85006236e-002 -8.33245590e-002
      -1.28281713e-001 -5.58304548e-001 -4.80074212e-002 4.12192225e-001
      4.02113348e-001 -1.36355221e-001 -1.91811651e-001 -2.45426685e-001
      -1.73035070e-001 -1.42710835e-001 -3.03892791e-001 1.85607597e-001
      2.20136106e-001 -2.69888677e-002 -1.33455485e-001 1.25374720e-001
      -2.06710827e-002 -1.37472689e-001 -1.25802606e-001
      -2.99596220e-001 -3.17126244e-001 2.99603611e-001 1.61631122e-001
      1.91790074e-001 9.15978625e-002 -4.68651913e-002 -3.98676023e-002
      -1.12035885e-001 -3.44713062e-001 -2.55448163e-001 1.55002043e-001
      3.01684439e-002 3.19191724e-001 1.15002848e-001 -5.40757435e-004
      -6.46784157e-002 -3.45986605e-001 -3.23380053e-001</_>
    <_>
      -1.94346040e-001 6.78005889e-002 1.94931820e-001 3.86075675e-002
      -5.88097423e-002 -5.92518747e-002 7.49591226e-003 2.10998654e-002
      -7.27943555e-002 -2.87461784e-002 2.25266844e-001 1.54493853e-001
      -9.78512093e-002 -4.13534045e-002 -1.33361191e-001
      -1.02166265e-001 2.97524650e-002 -1.07877009e-001 -9.23805088e-002
      1.18001539e-004 1.21210665e-001 -5.79091385e-002 -1.14324920e-001
      -7.45125711e-002 2.10544452e-001 2.25865453e-001 4.18385267e-002
      1.13713309e-001 2.49623641e-001 1.84442118e-001 -1.87795445e-001
      -2.31138960e-001 -2.69283324e-001 -4.31375615e-002 1.31606059e-002
      2.19714388e-001 -2.27580536e-002 2.40384951e-001 1.20390892e-001
      -1.00014046e-001 -1.10033132e-001 -1.16833597e-001
      -9.77390260e-002 -1.26898319e-001 -1.18574500e-001
      -6.30617514e-002 3.04203004e-001 2.27684394e-001 -1.59320846e-001
      -2.02261865e-001 -1.47962898e-001 -2.13175237e-001
      -3.07628632e-001 -1.34624362e-001 1.59292310e-001 5.01601577e-001
      3.14269453e-001 -1.35402724e-001 -1.79325461e-001 -2.69139290e-001
      -3.41949433e-001 -1.91022024e-001 -4.02126089e-003
      -6.82403296e-002 1.87834531e-001 2.32219338e-001 -6.09162599e-002
      -9.44081098e-002 -1.62356690e-001 -2.14316770e-001
      -3.96397471e-001 -2.59771138e-001 1.09824508e-001 3.02583843e-001
      2.02809125e-001 -1.35015115e-001 -1.01482309e-001 -1.74841210e-001
      -3.01263899e-001 -2.85628945e-001 -1.10450888e-003 2.33192489e-001
      3.03258568e-001 8.80925804e-002 -1.32143214e-001 7.40914047e-003
      -1.64910153e-001 -2.83903718e-001 -1.77329659e-001 9.41624399e-003
      -1.38276055e-001 9.44615901e-002 1.11659504e-001 3.22815180e-002
      4.11057509e-002 1.89075470e-002 -8.06134045e-002 -1.42727658e-001
      -9.22307223e-002 -6.33697212e-003 -7.74883255e-002
      -1.81941941e-001 4.93522696e-002 1.52853996e-001 1.37949705e-001
      -1.09903365e-002 -4.57149297e-002 -7.08342716e-003</_>
    <_>
      -4.16468494e-002 -7.70202558e-003 -1.08714933e-002 3.59776733e-003
      5.00082634e-002 -2.79842447e-002 -1.35181565e-003 4.36964482e-002
      -3.15850601e-003 -6.65050149e-002 8.42575505e-002 7.44522437e-002
      -1.38965592e-001 2.18091365e-002 -1.20271333e-001 1.09802755e-002
      9.69041511e-002 -6.66152015e-002 2.03763414e-002 7.49774463e-003
      -2.41718236e-002 4.52423580e-002 2.37289444e-002 -4.02050503e-002
      3.08907335e-003 -6.88001290e-002 8.97438303e-002 1.16913907e-001
      1.63892537e-001 7.50311017e-002 -2.56803274e-001 -1.98964745e-001
      -2.29083195e-001 -1.79940034e-002 -7.55058527e-002 2.49155775e-001
      -1.54197201e-001 8.64059180e-002 1.48010269e-001 -1.29525423e-001
      -6.92275539e-002 -1.49604321e-001 -3.47581804e-002 8.02870467e-003
      -1.61462307e-001 -3.06985319e-001 2.10328057e-001 3.64580929e-001
      -2.72536185e-002 -4.66395356e-002 -1.19207062e-001
      -1.13820419e-001 -2.35726267e-001 -3.43018770e-001 1.41316712e-001
      4.67016757e-001 2.48587281e-001 -2.52364010e-001 -1.63755581e-001
      -3.42334658e-001 -3.18576932e-001 -2.79187799e-001 2.75697783e-002
      -1.51224598e-001 2.41304830e-001 3.02778900e-001 -2.36970838e-002
      1.54719921e-002 -2.52052158e-001 -2.88668036e-001 -4.00670141e-001
      -3.68727535e-001 -7.29112551e-002 3.01803768e-001 3.74217391e-001
      4.92356671e-003 5.14874384e-002 -5.74840419e-002 -2.33416229e-001
      -3.00672382e-001 -2.19437912e-001 2.08663300e-001 2.88023204e-001
      1.57260105e-001 1.77061018e-002 9.65508968e-002 -5.96622005e-002
      -2.96921313e-001 -2.56811023e-001 -7.74736777e-002
      -2.97905475e-001 1.08334951e-001 1.79424107e-001 9.21485350e-002
      1.29213735e-001 2.29468336e-003 -6.93356469e-002 -2.40813643e-001
      -2.37728149e-001 -8.30884501e-002 -7.49698579e-002
      -5.16781919e-002 8.35946277e-002 1.40273631e-001 5.28506003e-002
      -3.73314768e-002 -1.34265780e-001 -8.28853175e-002</_>
    <_>
      1.91332668e-001 3.82627457e-001 2.99915791e-001 -1.48847222e-001
      -4.13256884e-001 -1.57558158e-001 8.56149644e-002 3.66356149e-002
      4.61404845e-002 2.75991186e-002 -1.12320274e-001 -1.73226178e-001
      -6.25990182e-002 8.17323162e-004 2.85347514e-002 1.19408935e-001
      1.14403509e-001 7.19781891e-002 -1.01563521e-001 -2.17206076e-001
      -1.93099417e-002 6.17776141e-002 -2.71002680e-001 -2.55028848e-002
      3.92742157e-001 3.72719049e-001 1.43939123e-001 -8.25981200e-002
      -1.31629467e-001 -4.11285967e-001 -3.66613152e-003 4.35674898e-002
      2.78275479e-002 2.40387008e-001 2.30457649e-001 3.41803670e-001
      -3.42849702e-001 -1.65432230e-001 -3.47307436e-002 6.76783323e-002
      6.06810302e-002 6.09062761e-002 3.00908200e-002 5.70539534e-002
      1.04241939e-002 -5.93922496e-001 6.78451136e-002 5.35983205e-001
      3.99319604e-002 -3.25579173e-003 2.37384625e-002 9.95853730e-003
      -1.58949487e-003 -8.73178542e-002 -6.97142482e-002 6.78451136e-002
      1.05614343e-003 -9.54559352e-003 1.81295965e-002 2.87741749e-003
      2.16863547e-002 2.48562433e-002 1.20814629e-001 -4.68103737e-001
      7.48946071e-002 5.67519367e-001 -3.07013630e-003 5.00248335e-002
      4.67689671e-002 -1.42053748e-002 -4.71583940e-002 -1.30076110e-001
      -3.06287557e-001 5.11694513e-003 3.94430995e-001 1.27899460e-002
      2.72598062e-002 1.79420859e-002 9.26138833e-003 3.15838191e-003
      -1.57515645e-001 -1.57476619e-001 -6.64034188e-002
      -8.27384070e-002 -1.12336539e-001 8.75647292e-002 7.12263733e-002
      -1.30841546e-002 8.83180872e-002 -1.31397292e-001 -4.21526164e-001
      1.82750821e-002 3.90765935e-001 2.12170243e-001 2.31559634e-001
      1.89220697e-001 5.89617863e-002 -6.42476752e-002 -2.32946843e-001
      -4.28514093e-001 -3.57642025e-002 4.25270014e-003 3.41952384e-001
      3.22718382e-001 2.68947721e-001 5.28175049e-002 -3.38754095e-002
      -1.10314302e-001</_>
    <_>
      -3.32049765e-002 -2.04487331e-003 7.65707716e-002 8.07711110e-002
      -6.35561049e-002 -3.79316285e-002 1.29536279e-002 -3.25509980e-002
      3.13816895e-003 3.42960171e-002 1.99700743e-001 1.50929928e-001
      -6.75897077e-002 -2.85142157e-002 -1.44019008e-001
      -1.85473979e-001 -2.18906462e-001 -1.36444271e-001 4.81680036e-002
      -6.51163980e-002 -2.07295045e-002 3.60514186e-002 -2.51014866e-002
      -3.73674259e-002 6.56866133e-002 5.34584932e-003 3.56037430e-002
      -7.21312985e-002 2.29985407e-003 -7.96378925e-002 -5.79949766e-002
      -1.46854863e-001 -1.12328604e-001 1.66583788e-002 -4.07019928e-002
      1.02737769e-001 -5.52348383e-002 4.23122585e-001 2.86746264e-001
      -2.07629919e-001 -1.70589983e-001 -2.27401108e-001
      -2.97765940e-001 -2.40102470e-001 -2.22819299e-001
      -2.79762179e-001 3.76035154e-001 3.71882498e-001 -1.62760645e-001
      -1.56053782e-001 -2.05256686e-001 -4.06402826e-001
      -4.27870870e-001 -3.19575578e-001 -7.80784264e-002 4.58054692e-001
      2.08097592e-001 -1.62077680e-001 -2.66602784e-001 -2.73492098e-001
      -4.01336730e-001 -2.86941051e-001 -9.77537408e-002
      -1.64767861e-001 3.97860110e-001 4.14690018e-001 -5.73230535e-002
      -1.59287050e-001 -3.17135274e-001 -5.49600542e-001
      -5.62166512e-001 -4.54448611e-001 -1.34864599e-001 3.70635182e-001
      3.43520343e-001 1.88174974e-002 1.47766639e-002 -1.19362466e-001
      -3.92471462e-001 -2.89085507e-001 -2.29293868e-001 2.00365096e-001
      4.14016038e-001 2.41473421e-001 -4.01436090e-002 2.77289804e-002
      -2.16184512e-001 -4.77085292e-001 -2.75422662e-001
      -1.37265354e-001 -2.82676607e-001 3.41963582e-002 2.18010604e-001
      1.05078638e-001 7.22280741e-002 6.68591931e-002 -1.09727681e-001
      -2.75035352e-001 -2.72928894e-001 -6.92077652e-002
      -7.41411671e-002 -2.29488954e-001 1.97743937e-001 1.40440926e-001
      1.53842464e-001 6.84677660e-002 -5.10842130e-002 -6.91720769e-002</_>
    <_>
      -2.21226066e-002 5.29684201e-002 2.33623125e-002 2.81410683e-002
      -2.83882394e-002 -4.86518182e-002 -9.32145417e-002
      -5.79873174e-002 1.95989739e-002 -8.72649997e-002 2.01327708e-002
      2.19824538e-001 -1.95988044e-002 5.58201522e-002 -5.88542297e-002
      -7.11551830e-002 -1.92050099e-001 -1.18053854e-001 5.60968332e-002
      -1.42951997e-003 3.93606611e-002 5.49529903e-002 -1.83063895e-002
      -1.67061016e-002 5.96404017e-004 1.63635481e-002 8.41834173e-002
      7.95719214e-003 7.06524923e-002 2.06750631e-001 3.30272093e-002
      -2.09859535e-002 -6.61372244e-002 -2.24841312e-002
      -8.78133625e-002 -9.44388658e-003 -8.56835470e-002 2.79126018e-001
      3.62334102e-001 -3.07959206e-002 -8.35907236e-002 -1.48489431e-001
      -2.52250135e-001 -3.62461418e-001 -2.65630245e-001
      -1.92969739e-002 5.32145560e-001 4.18343186e-001 -2.43860334e-001
      -3.30042332e-001 -4.36704248e-001 -5.63214839e-001
      -4.52320039e-001 -1.80948898e-001 -5.09191081e-002 2.58525223e-001
      2.74872571e-001 -3.90912183e-002 -7.70467520e-002 -1.13467962e-001
      -1.29417405e-001 -1.66115150e-001 -7.69817457e-002
      -1.69391349e-001 2.26699069e-001 3.34269166e-001 -1.89892292e-001
      -1.81775063e-001 -2.64504522e-001 -2.64340222e-001
      -2.67156959e-001 -3.43238324e-001 1.09952420e-001 3.61917734e-001
      3.17818314e-001 -1.63804263e-001 -1.94243729e-001 -2.97228575e-001
      -5.39257228e-001 -3.61688972e-001 -3.24248485e-002 3.81301731e-001
      2.45351419e-001 2.48582405e-003 2.02186336e-003 -4.41285148e-002
      -2.22428232e-001 -4.92270172e-001 -3.13140273e-001 1.31332886e-003
      -2.73975521e-001 -1.67788491e-002 9.62016061e-002 3.57346460e-002
      -4.53603528e-002 3.89815383e-002 -5.16459979e-002 -1.18431389e-001
      -1.98193252e-001 -4.69110012e-002 -2.30252936e-001
      -2.34097496e-001 2.52108514e-001 1.92794159e-001 2.15005115e-001
      1.69581264e-001 9.52198580e-002 1.19255099e-003</_>
    <_>
      1.83693886e-001 -2.71116287e-001 -2.81472355e-001 3.23197126e-001
      1.98479027e-001 2.63051987e-001 1.96066543e-001 2.35950157e-001
      1.93341091e-001 -3.01909400e-004 -2.97517240e-001 -2.02377439e-001
      4.05225784e-001 -1.96469605e-001 1.50388584e-001 3.43400300e-001
      2.83656836e-001 3.29020768e-002 -3.45608115e-001 -3.73443067e-001
      -3.67574394e-001 1.24539554e-001 2.25547925e-001 3.61985266e-001
      5.19338727e-001 7.08659947e-001 -3.35519403e-001 -1.98869914e-001
      1.76529214e-001 4.17081952e-001 1.39580354e-001 -2.57212222e-001
      -6.39638910e-003 3.97343129e-001 5.09830058e-001 -2.29605049e-001
      -2.62552381e-001 -4.57243204e-001 -2.03393474e-001 1.19764144e-002
      -1.00696124e-001 2.74346262e-001 3.24488103e-001 2.14524120e-001
      4.32101004e-002 -1.27353325e-001 -6.63221300e-001 -2.58759946e-001
      -6.04520500e-001 -3.73691052e-001 3.07835102e-001 3.80623162e-001
      3.13476622e-001 1.49941176e-001 -2.30471358e-001 1.41371876e-001
      4.14409906e-001 -8.70906115e-002 -2.17736373e-003 3.46843421e-001
      3.09896648e-001 2.30066791e-001 -2.24371493e-001 -2.47905955e-001
      -2.29838967e-001 -2.41985954e-002 -3.26841265e-001
      -4.00549397e-002 5.37893414e-001 4.31057185e-001 4.06409413e-001
      -1.45807965e-002 -1.48830250e-001 -1.69965494e-002 9.67267230e-002
      -4.18986648e-001 -4.81148005e-001 -7.89550692e-002 1.84045792e-001
      3.15572768e-001 -3.49809021e-001 -2.05672249e-001 5.48285283e-002
      2.29034707e-001 -8.55494067e-002 -2.18777865e-001 7.65065663e-003
      7.42936015e-001 5.56713581e-001 -1.39601052e-001 -8.78086984e-002
      -5.90283275e-002 -2.37897411e-001 -1.88737378e-001
      -4.54245150e-001 4.74424995e-002 -3.36177014e-002 5.70739657e-002
      -2.08688393e-001 -3.68246809e-002 3.35664928e-001 4.08675343e-001
      -1.35361001e-001 -9.27897394e-002 -4.94629323e-001
      -1.02726251e-001 -2.26379320e-001 -2.55315274e-001</_>
    <_>
      -7.46461749e-001 -2.50817686e-001 5.29246688e-001 1.73821226e-001
      -3.07537079e-001 1.13953827e-002 2.42455691e-001 2.44665653e-001
      -8.25568736e-002 -2.99871504e-001 6.89982437e-003 6.91024363e-001
      1.48433924e-001 -9.32062566e-002 -3.66325006e-002 -1.38393208e-001
      3.46043450e-003 -4.22715098e-001 -9.19024274e-003 1.84087232e-001
      1.51602671e-001 -6.16039038e-001 -6.70022190e-001 -4.02882427e-001
      5.67692041e-001 7.14939773e-001 4.80983138e-001 6.56358480e-001
      7.57522881e-001 7.09170341e-001 -3.55410725e-001 -7.82862961e-001
      -7.33991683e-001 -3.98406804e-001 2.47968454e-002 8.22293341e-001
      -6.21532928e-003 4.46409844e-002 -1.22834831e-001 -1.26008078e-001
      -7.39899129e-002 1.03490360e-001 -1.72826499e-002 7.04220496e-003
      -1.58551201e-001 1.68143138e-001 -3.14148426e-001 -3.63017380e-001
      -3.79448831e-001 -3.35234255e-002 1.21098608e-002 1.20522469e-001
      4.68534157e-002 2.70611793e-003 6.31980777e-001 4.79483396e-001
      6.67548180e-001 7.23565221e-002 -8.90676081e-002 3.97425964e-002
      -4.70241010e-001 -3.77853602e-001 2.92486399e-001 -7.95106962e-002
      -3.17492217e-001 2.86741164e-002 5.05917892e-002 3.33510607e-001
      4.43356335e-001 -7.23150820e-002 -1.27674669e-001 -5.47818765e-002
      1.33299142e-001 -1.50527075e-001 -9.08978283e-002 -1.06518917e-001
      -2.16160100e-002 2.01229821e-003 1.03266306e-001 -2.00575322e-001
      -9.01566446e-002 6.91105500e-002 8.22992548e-002 9.36796889e-002
      -1.71069622e-001 3.38870212e-002 1.25536844e-002 -4.64286618e-002
      -2.66823351e-001 -4.58150730e-002 -1.37269616e-001
      -3.41212273e-001 -1.16359055e-001 3.23440313e-001 2.38723323e-001
      3.17896336e-001 -8.83968249e-002 1.02909893e-001 6.44790828e-002
      -4.90139537e-002 -3.23619217e-001 -4.73305359e-002 9.49050337e-002
      1.76284954e-001 4.80975471e-002 -1.20520696e-001 -2.07029313e-001
      1.12295315e-001</_>
    <_>
      -1.48076281e-001 -4.93682891e-001 -1.79860771e-001 3.13645750e-001
      1.83100879e-001 1.08376719e-001 2.38248810e-001 4.03414816e-001
      2.08243310e-001 -2.03003019e-001 -3.10027391e-001 4.80784029e-001
      -1.15421645e-001 1.79389700e-001 -3.43134627e-002 2.30905861e-002
      3.50035369e-001 1.66532874e-001 2.29634210e-001 -3.55256721e-002
      -2.21945345e-001 -2.15037853e-001 -2.83837914e-001
      -5.57993464e-002 -3.99337292e-001 -1.73828691e-001 3.67528796e-001
      8.64825130e-001 4.90681112e-001 5.68843901e-001 -5.36615193e-001
      -6.37508512e-001 -9.95482624e-001 -5.59564471e-001
      -1.22719966e-001 9.88377452e-001 -1.53211698e-001 -2.16811299e-001
      2.61581331e-001 -1.62001625e-001 6.77010417e-002 6.34963997e-003
      6.07194453e-002 2.64015108e-001 -3.88204828e-002 -6.16361439e-001
      -8.61716390e-001 -1.48246333e-001 1.65539369e-001 3.85492444e-001
      4.38501388e-001 4.68455464e-001 7.08359778e-002 -6.93202674e-001
      6.35622025e-001 6.33747578e-001 7.45904386e-001 -2.45281830e-001
      -1.49778709e-001 -4.48415399e-001 -8.64964724e-001
      -6.88387752e-001 6.92355514e-001 -1.35411784e-001 -1.73325673e-001
      2.15812624e-001 1.95463598e-001 5.41114092e-001 3.81844461e-001
      -3.81671712e-002 -1.11274622e-001 -5.36731064e-001
      -2.89252251e-001 -2.75688946e-001 1.45775855e-001 2.43335262e-001
      3.13596219e-001 3.33627313e-001 2.47814208e-001 -1.82222679e-001
      -6.99519157e-001 1.34509742e-001 3.16939086e-001 2.95901060e-001
      5.14135063e-002 1.31637543e-001 1.25705764e-001 -1.26210088e-002
      -1.74569473e-001 -4.57985774e-002 -2.90654987e-001
      -4.09028888e-001 -1.00676417e-001 1.47294506e-001 1.93940073e-001
      2.22957566e-001 4.11405563e-002 -6.30920306e-002 -1.75444305e-001
      -2.57656813e-001 8.58682245e-002 -6.46049157e-003 -4.18809950e-002
      6.74980432e-002 -5.84874079e-002 1.41939417e-001 -4.78561893e-002
      5.76186925e-002</_>
    <_>
      -2.00703815e-002 1.55882910e-001 1.58848226e-001 -1.21280231e-001
      -2.73027450e-001 -5.22820465e-002 1.67829767e-001 7.65891746e-002
      -9.82408598e-003 1.01181410e-001 -9.19300541e-002 1.14693560e-001
      2.23689731e-002 -9.35909003e-002 -7.34206960e-002 1.40615225e-001
      1.78035721e-001 2.25257084e-001 -1.94795221e-001 -2.28295594e-001
      -1.16204314e-001 -1.55950829e-001 -3.30166727e-001 2.43472327e-002
      2.76203901e-001 2.88738549e-001 1.13173030e-001 -1.18407510e-001
      -2.33359054e-001 -1.90014169e-001 -9.93072148e-003
      -6.08284883e-002 -9.65124555e-003 2.34019488e-001 3.24031204e-001
      3.31060439e-001 -1.68604758e-002 -1.69963002e-001 2.24539801e-001
      1.01743400e-001 7.05457926e-002 5.98321483e-002 1.27812266e-001
      1.57740518e-001 2.34718859e-001 -2.55817741e-001 -4.48011130e-001
      1.30072325e-001 8.21016505e-002 6.94611520e-002 2.30718121e-001
      3.08841854e-001 3.13396007e-001 1.12449139e-001 -1.27330542e-001
      -2.70665556e-001 7.01290509e-003 5.06390035e-002 6.41457513e-002
      8.22349340e-002 1.19138099e-001 2.30796680e-001 3.66402447e-001
      -2.37181962e-001 -3.86591315e-001 4.53442298e-002 4.94393636e-004
      1.26179725e-001 2.79999435e-001 3.07756841e-001 4.60848242e-001
      1.88667431e-001 -3.22614670e-001 -2.61005223e-001 1.18786432e-001
      7.75549114e-002 2.54212115e-002 1.33393243e-001 1.86375961e-001
      2.86334991e-001 -5.05976938e-002 -2.96135664e-001 6.49394467e-003
      2.11440027e-001 -5.99941351e-002 -8.33676532e-002 9.10753664e-003
      2.37079605e-001 2.06165716e-001 -4.22952399e-002 -1.94317535e-001
      -2.81831324e-001 2.94802170e-002 -3.09608947e-003 2.99509168e-002
      1.79892600e-001 1.91026285e-001 3.69768977e-001 8.44387114e-002
      -2.43507057e-001 1.64014965e-001 1.91663206e-001 -7.31804669e-002
      -2.13436540e-002 5.87463006e-002 1.42578110e-001 1.04302503e-001
      2.84292828e-002</_>
    <_>
      -5.86574435e-001 -4.33770642e-002 2.67317221e-002 4.06495422e-001
      -8.43725204e-002 -2.69071043e-001 6.08120143e-001 2.78369606e-001
      -5.39629638e-001 -1.27095416e-001 5.00441074e-001 1.29029763e+000
      6.65130734e-001 -3.67163196e-002 -8.08501840e-001 -6.11628532e-001
      -1.28017187e+000 -1.45298302e+000 -1.41257212e-001
      -1.00599244e-001 1.26614526e-001 -1.93120344e-004 2.41477210e-002
      -2.72885054e-001 1.58457518e-001 -4.41322237e-001 1.82520628e-001
      -5.17108776e-002 -2.13207573e-001 6.11958385e-001 6.28908500e-002
      -3.12803358e-001 -4.62107122e-001 -5.65435961e-002
      -8.82885084e-002 1.20263889e-001 6.25925124e-001 4.86413568e-001
      4.97604281e-001 -4.18710411e-001 -4.25844133e-001 -3.11962128e-001
      -5.07020354e-001 -7.24579334e-001 -2.29810223e-001
      -3.16702008e-001 -2.01996303e+000 -1.57573152e+000
      -9.38139737e-001 -2.14224860e-001 7.97605872e-001 6.74450457e-001
      2.75595754e-001 -5.19989021e-002 3.92071158e-001 7.76186213e-002
      6.56534433e-001 -3.54460597e-001 -3.53397220e-001 6.78856671e-002
      -3.73858772e-002 -2.37196609e-001 2.71870852e-001 2.12558284e-001
      -2.24441066e-001 -5.27911603e-001 -4.79325712e-001 2.14314222e-001
      6.13125563e-001 -2.02264830e-001 1.57195196e-001 -2.39249423e-001
      -5.13071358e-001 -8.55011284e-001 -2.80011415e-001
      -1.09296806e-001 -9.39279273e-002 2.67559201e-001 3.90886545e-001
      7.40685463e-002 -7.46087253e-001 1.91825047e-001 5.32299697e-001
      1.02893209e+000 -1.96276963e-001 -1.37724176e-001 -1.28797218e-001
      7.89845362e-002 7.68163875e-002 -1.65305048e-001 -3.67742330e-002
      -2.60725617e-001 -9.25224423e-002 -1.97424337e-001 8.46062303e-002
      4.53701764e-001 -1.04388170e-001 -1.78373769e-001 -3.92943956e-002
      -2.82242417e-001 4.36287105e-001 4.70929742e-002 -9.61724445e-002
      -3.28298777e-001 1.33975685e-001 3.94567221e-001 -1.00468151e-001
      -2.92976014e-002</_>
    <_>
      -2.64039189e-001 -1.56304598e-001 -7.23306984e-002
      -1.41366497e-002 -3.36890817e-002 5.11578210e-002 3.41989905e-001
      5.77547610e-001 1.07791528e-001 -3.31421912e-001 -1.45525992e-001
      9.72603977e-001 8.98727715e-001 3.84950072e-001 2.42007554e-001
      1.16626263e-001 -4.31028545e-001 -7.37033784e-001 3.62654179e-001
      5.81084229e-002 6.16420060e-003 -2.76454631e-002 -1.24192476e-001
      -3.25701565e-001 -2.73490578e-001 -6.80216476e-002 4.85065430e-001
      1.72676612e-002 4.95424718e-001 1.09313679e+000 6.58145070e-001
      1.64708793e-001 3.16672102e-002 -2.05637112e-001 -5.78207672e-001
      -3.04865986e-001 1.41393855e-001 2.76090950e-001 9.64512646e-001
      5.35791039e-001 2.47125402e-001 2.58598238e-001 -3.53392094e-001
      -1.15285373e+000 -6.51237786e-001 8.50994706e-001 1.26602292e-001
      -1.98985841e-002 -3.89450073e-001 -3.95379364e-001
      -3.13223243e-001 -4.19733614e-001 -2.89542943e-001 2.66267747e-001
      -2.32342914e-001 -3.00566405e-001 6.32342577e-001 2.58103430e-001
      3.03759813e-001 4.98938709e-001 4.92069066e-001 -2.27384329e-001
      -9.93266851e-002 4.56090644e-002 -4.87978756e-001 -4.53735501e-001
      -7.28458941e-001 -6.01682723e-001 -4.15491015e-002 5.01498938e-001
      9.22043025e-001 4.25251037e-001 3.02650392e-001 -3.89893018e-002
      -1.22059762e-001 -3.64379942e-001 -3.95138413e-001
      -1.76903844e-001 -3.61719489e-001 1.61611170e-001 3.89010519e-001
      1.39491305e-001 1.74700394e-002 -5.80239557e-002 -5.14437035e-002
      -3.34746414e-003 3.23842287e-001 -7.54634142e-002 -3.55801463e-001
      1.73954349e-002 1.23129440e-002 -4.46258277e-001 -4.18040514e-001
      -2.40549728e-001 -5.27356863e-001 -4.54862118e-002 6.56012073e-002
      5.21503806e-001 6.55515254e-001 -2.01630473e-001 -5.46570301e-001
      -1.75569147e-001 5.84330969e-002 -1.09642901e-001 1.92594677e-001
      -1.94175601e-001 -4.66205150e-001 1.76752463e-001</_>
    <_>
      -3.03821474e-001 1.41713783e-001 2.78697819e-001 -7.88735449e-002
      -1.60650760e-001 -5.07206582e-002 -2.35004423e-004 3.91406065e-004
      -6.62873015e-002 -9.04535055e-002 2.92372197e-001 4.02226746e-001
      -7.24379644e-002 8.08695331e-002 -7.22018555e-002 -1.50374517e-001
      -8.72981995e-002 -1.95606291e-001 1.96233273e-001 2.76643366e-001
      8.11823532e-002 -2.96403587e-001 -3.91786307e-001 -3.24833602e-001
      -8.50924924e-002 8.69635865e-002 4.40826923e-001 2.92712033e-001
      2.19993532e-001 7.42165074e-002 -3.60681176e-001 -2.36721411e-001
      -3.94576937e-001 -4.04277176e-001 -1.38180941e-001 3.64227086e-001
      8.61414596e-002 3.76454145e-001 1.97220221e-001 -2.16164682e-002
      2.89568445e-003 -1.04485281e-001 -1.01723611e-001 -1.11917838e-001
      -8.31178278e-002 1.49661586e-001 1.42465889e-001 -9.75198299e-002
      8.95259231e-002 3.62179056e-002 -2.92633716e-002 -7.01298937e-002
      -1.52748376e-001 -2.85684336e-002 4.34935838e-001 2.53091335e-001
      2.79524755e-002 -1.69095382e-001 -2.01584160e-001 -3.23655427e-001
      -4.23050463e-001 -2.12592751e-001 3.25145036e-001 2.43597567e-001
      -7.47864787e-003 -6.07399717e-002 -1.27997221e-002
      -5.73027655e-002 -1.20250978e-001 -1.70412436e-001
      -2.14627728e-001 1.62295625e-001 1.26636341e-001 -8.69073719e-002
      -1.17331259e-001 9.13574845e-002 1.86189890e-001 1.20362137e-002
      -8.60966742e-002 -1.82433411e-001 2.10714549e-001 1.29909813e-001
      4.49465439e-002 -6.33716881e-002 2.05318909e-002 1.30695939e-001
      -6.07608967e-002 -2.70288765e-001 -2.85182029e-001 1.14692405e-001
      8.38716850e-002 -8.50479677e-002 7.23457651e-006 3.77800688e-002
      1.53730422e-001 1.17722504e-001 1.48691498e-002 -5.02443500e-002
      1.57603905e-001 9.16803032e-002 -1.95542827e-001 -1.60721093e-001
      1.15605211e-002 6.51157647e-002 2.04155385e-001 -1.60816498e-002
      1.34423999e-002 2.14160651e-001</_>
    <_>
      -5.29252850e-002 1.33938015e-001 -4.95034456e-002 -1.13660783e-001
      -1.15315020e-001 -6.01169057e-002 -3.79689969e-002 1.43902376e-003
      3.74922305e-002 -1.49293751e-001 1.20417856e-001 3.50523055e-001
      -1.80846438e-001 8.97940472e-002 -9.21000540e-002 -1.20513596e-001
      -2.92930473e-002 6.95350254e-003 4.03589487e-001 3.37219834e-001
      -9.16352049e-002 -2.01313674e-001 -2.00011566e-001
      -2.87627131e-001 -4.91495460e-001 -3.51830035e-001 4.37821567e-001
      4.32894588e-001 8.28604549e-002 7.49154133e-004 -4.22456235e-001
      -1.48629755e-001 -3.68842244e-001 -4.12393540e-001
      -4.14204270e-001 4.44866270e-001 6.28062291e-003 2.43698552e-001
      2.59583622e-001 -7.82094002e-002 1.27253979e-002 -1.41289875e-001
      -7.68728703e-002 -1.40558602e-002 -7.69400224e-002
      -3.24708596e-002 1.02263995e-001 4.86475229e-002 2.68206567e-001
      2.40835443e-001 6.63500419e-003 -2.59613693e-002 -1.48458794e-001
      -2.11893007e-001 4.13539082e-001 1.92853063e-001 -1.44725973e-002
      -2.82947809e-001 -1.68637753e-001 -3.50550711e-001
      -4.46894348e-001 -4.23408836e-001 3.66121441e-001 1.71649233e-001
      6.43927902e-002 -6.40909970e-002 5.67325838e-002 7.66484290e-002
      -1.75509080e-001 -1.92386463e-001 -3.08143288e-001 3.73629690e-003
      -9.03767571e-002 -8.65924209e-002 6.57397509e-002 2.66297638e-001
      4.43504006e-001 1.34547934e-001 -2.02120692e-002 -2.04495162e-001
      -6.62214383e-002 1.00458987e-001 1.83266681e-002 5.67143485e-002
      2.05504015e-001 2.20357433e-001 -1.54207321e-002 -1.88140407e-001
      -3.39904517e-001 5.67124039e-002 -4.92111314e-003 -8.74119028e-002
      7.59994686e-002 2.61054039e-002 1.91428676e-001 9.11086649e-002
      6.83569461e-002 -1.28505245e-001 9.44982618e-002 3.04988567e-002
      -1.29579768e-001 -7.24249557e-002 -3.72065231e-002 4.02503014e-002
      1.09430932e-001 1.00000143e-001 2.23207343e-002 2.03630388e-001</_>
    <_>
      1.42472936e-002 4.59622622e-001 2.73050535e-002 -4.11448091e-001
      -7.01533318e-001 -2.07294896e-001 -1.66707158e-001
      -2.03889683e-001 -1.09203815e-001 7.73445070e-002 -3.30561660e-002
      2.66059309e-001 -1.52162224e-001 1.09860795e-002 -2.10396517e-002
      -1.02648325e-001 -8.45286399e-002 4.23725806e-002 1.40932724e-002
      8.75179097e-002 -1.42948121e-001 -1.80455506e-001 -4.79335308e-001
      -9.13156047e-002 1.08536910e-002 -7.64479414e-002 3.30018699e-001
      1.03320092e-001 -9.76126343e-002 -3.33339572e-001 -3.49331349e-002
      3.06718111e-001 1.03100054e-001 4.61574905e-002 -2.38934369e-003
      5.68033278e-001 -1.66115180e-001 -1.25266597e-001 3.85451466e-001
      3.54462899e-002 9.15925130e-002 9.14354157e-003 -9.72638465e-003
      1.73497330e-002 1.88380945e-002 -1.28407538e-001 -1.25266597e-001
      3.90316457e-001 1.62814423e-001 1.37007728e-001 2.18320694e-002
      1.25897005e-001 1.02976359e-001 6.86033629e-003 8.10027048e-002
      -4.27302688e-001 3.42191197e-002 7.17619434e-002 1.67843834e-001
      5.52340485e-002 3.00903097e-002 6.27911240e-002 5.12224495e-001
      -1.02945194e-001 -2.89511502e-001 3.67488891e-001 1.63586244e-001
      1.80219978e-001 8.74429345e-002 1.34131134e-001 1.95260644e-001
      3.05331171e-001 -2.88856089e-001 -2.62886852e-001 1.22052066e-001
      2.27966994e-001 4.72391009e-001 1.52063563e-001 2.08841845e-001
      2.00500235e-001 -1.14831448e-001 -7.01773584e-001 -4.02956724e-001
      -1.11458130e-001 1.20910676e-002 2.76050419e-001 1.76893413e-001
      2.19459400e-001 1.48107275e-001 -1.32948279e-001 -2.75473088e-001
      -1.86317086e-001 3.49687606e-001 1.89574867e-001 3.78104091e-001
      2.59649485e-001 1.62831128e-001 1.18147224e-001 -1.04447812e-001
      -3.25525761e-001 -2.98685040e-002 7.41667002e-002 -3.25046293e-002
      3.22246522e-001 3.35996687e-001 2.53677130e-001 3.23527575e-001
      2.78548658e-001</_>
    <_>
      -1.94317415e-001 4.16387141e-001 2.13214308e-001 -1.64455712e-001
      -1.41586810e-001 -2.11363360e-001 -1.77342221e-001
      -3.44895840e-001 -2.89548665e-001 -5.26899658e-002 3.16340327e-001
      6.30271614e-001 -1.33882865e-001 1.49054334e-001 -9.77284387e-002
      -4.06082362e-001 -5.72962403e-001 -2.88120180e-001 3.60358894e-001
      5.74213028e-001 1.11574739e-001 -1.80194005e-001 -2.96089668e-002
      -3.89594644e-001 -5.30574739e-001 -5.72237253e-001 4.30104613e-001
      2.19324842e-001 -1.70162991e-001 -8.79010335e-002 -1.60550430e-001
      3.90989594e-002 -1.16251349e-001 -4.44222003e-001 -4.87931013e-001
      2.34889418e-001 3.53596419e-001 5.16742826e-001 3.62100989e-001
      -8.34280699e-002 -3.31842788e-002 -2.09152326e-001
      -3.30793977e-001 -4.54146683e-001 1.40694138e-002 1.40631348e-001
      8.72626156e-002 -4.85656708e-002 2.67634273e-001 3.16835880e-001
      -5.27194515e-002 -1.47289291e-001 -4.77276653e-001
      -5.59877641e-002 2.65001059e-001 -7.24733248e-002 -1.08511321e-001
      -7.01854900e-002 -2.11788446e-001 -2.34422982e-001
      -4.18186724e-001 -4.18142825e-001 2.56505519e-001 2.63622135e-001
      1.03369631e-001 -2.91037653e-003 -1.57216694e-002 -3.86862010e-002
      -1.71741620e-001 -2.85721719e-001 -3.88369650e-001 7.75076970e-002
      -1.01331100e-001 -3.07213664e-001 -4.93903458e-002 2.68509477e-001
      5.57221472e-001 1.26728132e-001 -3.34592871e-002 -3.26794684e-001
      1.07819512e-001 7.30566010e-002 -1.13393225e-001 1.11188535e-002
      5.05707189e-002 2.76570499e-001 -3.17219868e-002 -2.54967928e-001
      -2.61815637e-001 2.21673340e-001 7.42718428e-002 -4.30949777e-002
      1.81253433e-001 -7.48980567e-002 2.64606982e-001 1.62122279e-001
      9.46736187e-002 -1.82012215e-001 1.83363751e-001 1.39546499e-001
      -1.99349836e-001 -5.23169190e-002 2.50052530e-002 3.43407653e-002
      3.50570738e-001 2.46134341e-001 2.67392248e-001 2.18676016e-001</_>
    <_>
      -7.99006894e-002 2.05449820e-001 9.07209516e-002 -6.17920905e-002
      -5.18614165e-002 -9.96766388e-002 -1.84482768e-001
      -1.45905420e-001 -4.12514620e-002 -9.96948630e-002 1.18000790e-001
      6.01201773e-001 8.65896642e-002 3.29740465e-001 2.47310139e-002
      -1.75239906e-001 -3.72108787e-001 -3.43861967e-001 4.58078980e-001
      3.21761310e-001 -2.63101663e-002 -1.39529899e-001 -8.37012306e-002
      -2.30183318e-001 -5.48283279e-001 -4.52083200e-001 5.19788146e-001
      5.50228283e-002 -7.95796663e-002 1.65082350e-001 2.21438315e-002
      2.51487970e-001 1.33412713e-002 -2.97059625e-001 -5.85628211e-001
      6.84895441e-002 1.74629360e-001 5.06706893e-001 4.36030120e-001
      1.45471647e-001 1.61218613e-001 -6.02828525e-002 -2.57766038e-001
      -5.21042645e-001 -1.41183242e-001 2.97424346e-001 4.52801406e-001
      1.21603064e-001 2.57174850e-001 2.12200671e-001 -2.63689235e-002
      -4.05171037e-001 -4.25117403e-001 -8.72372389e-002 5.71271703e-002
      -1.13988757e-001 4.72889282e-002 7.79173076e-002 1.29252985e-001
      -4.78229038e-002 -1.38067350e-001 -2.89852679e-001 9.74196792e-002
      1.05520658e-001 -5.96650392e-002 -8.20873305e-002 -5.42177893e-002
      -3.06641553e-002 -1.36473730e-001 -1.13780908e-001
      -6.76759779e-002 7.93874338e-002 1.36632219e-001 -1.31088987e-001
      -9.54711586e-002 9.41997096e-002 2.87497252e-001 1.32210687e-001
      -2.75991976e-001 -3.19471389e-001 2.77691126e-001 1.73378855e-001
      -1.36588976e-001 -1.43447086e-001 1.51566016e-002 1.82173371e-001
      2.68528163e-002 -2.82447457e-001 -3.14389080e-001 1.64979473e-001
      1.83447137e-001 -1.82861030e-001 -9.42547247e-002 -7.20571950e-002
      4.17135321e-002 7.80123547e-002 -8.28471221e-003 6.59590960e-002
      4.04721498e-001 1.73803106e-001 -2.84388155e-001 -2.74087787e-001
      -3.34239751e-002 -3.69719863e-002 1.96481168e-001 2.72125397e-002
      5.05248271e-002 3.08950365e-001</_>
    <_>
      9.21272159e-001 -1.84613302e-001 -8.32750142e-001 -1.12092793e-001
      5.37423134e-001 1.49950415e-001 -3.44710499e-001 -1.07572600e-001
      3.53292584e-001 1.78821608e-001 -6.11147463e-001 -5.16284168e-001
      -4.55710888e-001 3.30743790e-001 1.66418374e-001 2.36021698e-001
      2.18761742e-001 7.19580650e-001 5.21528840e-001 1.62799358e-001
      6.54988810e-002 7.34268725e-001 5.39427042e-001 2.69444823e-001
      -1.36223447e+000 -1.41426909e+000 4.58428971e-002 1.13133043e-001
      -1.27492309e-001 -7.22245723e-002 -6.62104115e-002 1.46195173e-001
      1.01724260e-001 -1.24910641e-002 -3.84459317e-001 1.50547400e-001
      -3.12160313e-001 -6.76772654e-001 -2.57370295e-003
      -1.86636075e-001 1.24171190e-001 1.16392247e-001 3.47387135e-001
      3.38143259e-001 3.66804272e-001 -1.30135190e+000 -8.39296997e-001
      3.92067760e-001 6.15277290e-001 5.76371372e-001 5.73513150e-001
      5.81611574e-001 9.61553678e-002 -8.18761051e-001 -2.02176832e-002
      -1.22927263e-001 -1.92229927e-001 -2.73175985e-001
      -1.84117168e-001 -3.03679556e-001 1.30803451e-001 1.86328411e-001
      2.41697207e-001 -1.15095332e-001 -1.38520569e-001 1.12574026e-001
      1.01498902e-001 1.24752624e-002 -1.49640739e-001 1.46586612e-001
      1.27886310e-001 -9.65952128e-002 -4.55682606e-001 -2.03078270e-001
      3.07573467e-001 4.56083804e-001 3.29102397e-001 2.73509085e-001
      -4.92748506e-002 -6.96370378e-002 -7.61499166e-001 6.94556087e-002
      1.55439928e-001 2.24860609e-001 4.94157970e-001 -1.06161304e-001
      -1.75642669e-001 -2.01042801e-001 1.11954175e-001 2.09806226e-002
      -1.32874921e-001 -9.14379135e-002 -7.37753361e-002
      -4.15054662e-003 -1.48439199e-001 -1.53986409e-001
      -1.10899759e-002 -1.07417062e-001 -2.78394848e-001 2.34060228e-001
      2.51877874e-001 1.05624653e-001 -3.52657549e-002 -4.76433933e-001
      -3.53326261e-001 1.46375343e-001 1.44094229e-001 1.29537895e-001</_>
    <_>
      1.54634923e-001 1.49729356e-001 5.77739365e-002 -7.79557899e-002
      -1.23780310e-001 -4.27857749e-002 -3.03441100e-002
      -9.44049656e-002 -3.66909057e-002 1.69196818e-002 -2.00602651e-001
      -6.47274032e-002 2.09666435e-002 -3.38175818e-002 6.56601638e-002
      8.59899968e-002 -2.30954378e-003 1.56606585e-001 -5.30620106e-003
      -1.15472183e-001 -2.87241265e-002 5.62404729e-002 -6.38512745e-002
      1.23852327e-001 7.78137818e-002 -2.09690314e-002 -6.83025420e-002
      -2.03668863e-001 -3.25266153e-001 -2.01918796e-001 1.58415735e-001
      1.10112041e-001 2.51776963e-001 2.95758605e-001 1.03923030e-001
      1.78683233e-002 -1.00837514e-001 -2.66333014e-001 1.76696703e-002
      8.71879086e-002 8.09490308e-002 1.36926889e-001 1.21291645e-001
      1.11987852e-001 1.28592476e-001 -2.62407362e-001 -1.89705595e-001
      1.63339972e-001 1.19784422e-001 1.45992905e-001 1.08595192e-001
      1.58680350e-001 1.92921564e-001 1.38963629e-002 -3.19757015e-001
      -3.72955054e-001 -1.26755401e-001 9.63123441e-002 1.36540756e-001
      2.16723785e-001 3.08118105e-001 2.50140339e-001 1.24075264e-001
      -1.96591020e-001 -1.46096796e-001 5.66704012e-002 4.93255705e-002
      1.16564415e-001 1.29294246e-001 2.05193967e-001 3.16302240e-001
      1.28857613e-001 -3.18386108e-001 -1.00207068e-001 1.44169539e-001
      1.06283143e-001 7.50622228e-002 1.00880176e-001 1.36848152e-001
      2.20017493e-001 -1.51920334e-001 -3.01793516e-001 -1.04895979e-001
      9.88063961e-002 9.61091667e-002 -1.20876459e-002 8.75483528e-002
      1.98988304e-001 1.61370039e-001 -1.12185650e-001 -9.69188884e-002
      -9.40941125e-002 1.27705485e-001 3.34502496e-002 3.04753724e-002
      2.69955229e-002 5.45608029e-002 1.77762225e-001 -1.17865866e-002
      -1.88076571e-001 1.19721159e-001 1.97225139e-001 6.00963905e-002
      3.45371179e-002 -1.23345144e-002 6.46273270e-002 1.09931350e-001
      -1.03115715e-001</_>
    <_>
      6.15812123e-001 1.15078583e-001 -4.76874709e-001 -1.18793748e-001
      2.96762377e-001 -9.55583900e-002 -2.72187561e-001 -3.29146087e-001
      -1.19186357e-001 1.80450648e-001 -6.49486333e-002 -1.94113523e-001
      1.62054747e-001 1.81670025e-001 -7.17463419e-002 -2.87222534e-001
      -6.32264912e-001 -4.25430350e-002 -8.13978259e-003 3.08160186e-002
      4.83673029e-002 5.91958284e-001 7.46859908e-001 2.67465442e-001
      -6.47373438e-001 -9.30673897e-001 -3.64072531e-001
      -8.15202951e-001 -9.44381475e-001 -6.24751210e-001 4.20450121e-001
      5.68459868e-001 8.41897547e-001 3.19173604e-001 -2.44373709e-001
      -8.30425024e-001 -1.18783070e-002 -4.08756316e-001
      -5.97001985e-002 -7.84087852e-002 4.93191853e-002 1.18664298e-002
      -1.18345857e-001 -1.17376439e-001 1.77763715e-001 -6.31385088e-001
      -5.98985672e-001 -2.59417534e-001 4.28810008e-002 3.16773087e-001
      4.81134564e-001 1.08393423e-001 3.05216789e-001 -3.16376984e-001
      -4.98982668e-001 -6.89951718e-001 -5.94567120e-001
      -1.78367272e-001 -2.58322377e-002 1.97568297e-001 5.94421983e-001
      3.99990827e-001 -1.36011913e-001 4.05137837e-002 2.38850281e-001
      -9.50988457e-002 -2.65505344e-001 2.25860216e-002 -1.65558726e-001
      -1.90045446e-001 2.87384689e-001 -1.70482010e-001 -4.22477335e-001
      -1.29233405e-001 -6.18762486e-002 -3.59764759e-004 2.43969709e-001
      2.19037265e-001 -4.24818359e-002 8.66151750e-002 -4.77246225e-001
      2.93209236e-002 4.14520018e-002 9.33539048e-002 -4.65243915e-003
      -7.46090859e-002 -8.67621526e-002 -1.21196371e-003 3.54486406e-001
      8.68371204e-002 -4.82564699e-003 2.72501558e-001 -5.41437976e-002
      -3.85658592e-001 2.86774319e-002 -2.35271469e-001 -1.63276076e-001
      6.88642487e-002 -2.88109809e-001 1.16503961e-001 5.41737974e-001
      1.17582560e-001 -1.51284754e-001 -4.40484285e-001 -1.62478924e-001
      1.86098605e-001 3.13800365e-001 3.46434638e-002</_>
    <_>
      4.80403244e-001 8.72593299e-002 -4.06093240e-001 -5.46011962e-002
      5.92437536e-002 1.48481838e-002 -1.38442129e-001 3.71707603e-002
      1.42970800e-001 -2.59933863e-002 -2.16705993e-001 -2.34206349e-001
      3.30126762e-001 2.15925649e-001 1.65474445e-001 1.69720098e-001
      -2.93166816e-001 1.12773724e-001 6.35245144e-002 5.21267531e-003
      4.82843257e-002 5.58001399e-001 4.04750615e-001 2.05165505e-001
      -4.78665471e-001 -6.81127191e-001 -1.31769165e-001
      -4.33824450e-001 -5.11338890e-001 4.04900201e-002 7.31507897e-001
      5.80480218e-001 7.30885983e-001 1.96778685e-001 -4.82128531e-001
      -6.55193269e-001 -6.35671243e-002 -3.99275906e-002 3.32695812e-001
      4.11810786e-001 2.70480752e-001 9.95791778e-002 -1.63323805e-001
      -4.78128850e-001 -1.42019317e-001 2.52278298e-001 2.75208563e-001
      1.83620304e-001 6.40015304e-002 3.92813608e-002 -8.75927135e-002
      -4.04676139e-001 -9.15161669e-002 1.97135597e-001 -5.99490285e-001
      -7.12077200e-001 -1.64721057e-001 3.02575499e-001 3.80313933e-001
      2.96477288e-001 5.52989602e-001 -7.12371171e-002 -3.14228803e-001
      1.10507526e-001 5.57350367e-002 -1.85714573e-001 -3.35218966e-001
      -2.18745232e-001 -2.41382957e-001 5.76051958e-002 2.78831780e-001
      2.30937183e-001 3.71837169e-002 9.77068208e-004 2.02243938e-003
      -1.17778420e-001 -1.07694566e-001 1.68766696e-002 -6.69518113e-002
      1.30261570e-001 1.04028538e-001 -2.40976606e-002 -1.76623613e-001
      -1.28061585e-002 6.28718436e-002 4.85840738e-002 1.20255589e-001
      -7.56198838e-002 -2.78379582e-003 -1.09589398e-001 1.66568637e-001
      -7.44612068e-002 2.22506523e-002 -2.67712176e-001 -1.32848188e-001
      -4.46333773e-002 7.80943483e-002 -4.64051738e-002 4.59227078e-002
      1.14929937e-002 -2.58932412e-001 -2.92311683e-002 -1.84935983e-002
      -5.28735444e-002 5.11844195e-002 6.41753972e-002 -9.66915116e-002
      -3.90838971e-003</_>
    <_>
      4.06390913e-002 2.66317725e-001 2.38003194e-001 -1.46167040e-001
      -2.36456156e-001 -1.11012079e-001 -2.33634710e-002
      -1.24229647e-001 -6.77520037e-002 8.69569033e-002 -1.03681795e-001
      1.66857224e-002 4.54845987e-002 -8.59939381e-002 4.56427298e-002
      -1.24177188e-002 -5.38880900e-002 1.42957434e-001 -2.16390371e-001
      -1.51469886e-001 8.92284885e-002 -6.21528737e-002 -1.99462906e-001
      7.06926361e-002 3.17329019e-001 2.84937143e-001 -5.66773787e-002
      -2.92777568e-001 -1.90404505e-001 -1.63974226e-001 2.37722576e-001
      7.57314637e-002 2.53816605e-001 2.42267758e-001 3.07597458e-001
      4.68646251e-002 -7.53172860e-002 -2.15065643e-001 7.44684637e-002
      1.22652262e-001 6.77584782e-002 1.55779794e-001 7.04339519e-002
      5.21763228e-002 1.71850517e-001 -1.72162697e-001 -1.53374434e-001
      1.36334717e-001 4.91353832e-002 7.18844682e-002 9.60849673e-002
      8.48385468e-002 1.39976144e-001 1.32695720e-001 -3.82669777e-001
      -3.78641129e-001 -1.12333894e-003 2.72969723e-001 1.45838156e-001
      2.65255332e-001 3.37217450e-001 3.90593588e-001 9.91467834e-002
      -2.29852900e-001 -2.29379788e-001 1.63524970e-001 8.47117454e-002
      1.17012203e-001 2.50464946e-001 2.38007754e-001 3.93331409e-001
      1.65084004e-001 -1.76825300e-001 -1.44725576e-001 2.30770223e-002
      -1.32408729e-002 1.13094822e-002 -1.78543739e-002 4.53381687e-002
      2.58128583e-001 5.53702889e-003 -3.30212891e-001 -1.08845614e-001
      -1.21873142e-002 -8.48307610e-002 -1.32148303e-002
      -5.43539785e-002 1.64185107e-001 2.79498667e-001 -4.62561734e-002
      -8.69619697e-002 -1.16998620e-001 5.62231094e-002 -1.05003808e-002
      5.07869534e-002 3.72638367e-002 2.72816010e-002 2.48335063e-001
      3.51396427e-002 -1.67683125e-001 1.66302234e-001 8.90428945e-002
      5.17617865e-003 7.00390711e-002 2.07310566e-003 9.65527743e-002
      2.38994122e-001 3.65298917e-003</_>
    <_>
      -1.79033518e-001 2.19807431e-001 1.89318478e-001 -2.23495930e-001
      -5.85042052e-002 -8.04393142e-002 9.78251472e-002 -3.20240676e-001
      -2.66612440e-001 2.46372640e-001 6.32120967e-001 3.18897128e-001
      7.31041551e-001 2.40366042e-001 -2.87072718e-001 -1.87777951e-001
      -1.48242545e+000 -9.06916201e-001 -4.30539161e-001
      -9.95768979e-003 3.70804876e-001 -4.57039811e-002 2.21399039e-001
      -2.06181541e-001 3.39554846e-001 1.08738229e-001 -5.21466851e-001
      -1.05616796e+000 -7.73695230e-001 -4.79135156e-001 5.29118419e-001
      6.25832915e-001 7.49155164e-001 7.43746161e-001 2.39144951e-001
      -1.44039524e+000 5.43680370e-001 3.42273384e-001 -2.05327123e-001
      1.97600886e-001 1.88743081e-002 -1.45413680e-002 -2.34933168e-001
      -1.02365184e+000 -6.50117621e-002 3.37399244e-001 -2.65464246e-001
      -7.17287660e-001 -4.76736307e-001 -2.03872740e-001 9.01875421e-002
      -4.25224677e-002 2.12636635e-001 2.53169388e-001 -4.05151784e-001
      -5.74068487e-001 -5.22085905e-001 -3.02145556e-002
      -1.64611161e-001 3.82534176e-001 9.36482728e-001 7.69717455e-001
      -4.63429809e-001 1.36621118e-001 -1.36383995e-001 -5.09580851e-001
      -5.63336372e-001 -4.42167640e-001 -1.57880440e-001
      -1.84451401e-001 2.54389793e-001 2.91734964e-001 -1.37252912e-001
      -2.86972046e-001 -3.24014068e-001 -1.90250084e-001
      -6.42265379e-002 -1.40820995e-001 -7.90973380e-002 3.11000764e-001
      5.80061749e-002 -6.38710409e-002 9.73271765e-003 1.37305543e-001
      1.48533098e-002 -2.85704494e-001 -1.47223800e-001 4.03524600e-002
      4.29030836e-001 1.03750385e-001 3.94954920e-001 2.24779263e-001
      -1.41569272e-001 -1.96551844e-001 -1.65163010e-001
      -2.00138301e-001 -2.05785841e-001 1.81360438e-001 1.35776684e-001
      3.09346288e-001 3.63658249e-001 1.59075931e-002 -3.36846663e-003
      -4.77186620e-001 -2.63200611e-001 -8.42479318e-002 5.02258241e-002
      1.04072787e-001</_>
    <_>
      7.24844933e-002 1.23148844e-001 8.79201666e-002 -6.06827140e-002
      -1.85779914e-001 2.39808229e-003 -2.88548172e-002 -2.36027073e-002
      -2.41641533e-002 -5.67708723e-002 -8.66568387e-002
      -3.70857939e-002 4.09657180e-001 2.84307357e-002 2.15307727e-001
      1.20886400e-001 -2.89628655e-001 -4.18408334e-001 8.87586083e-003
      4.52788100e-002 8.26891214e-002 2.30005190e-001 7.71867335e-002
      -8.68145451e-002 5.08088246e-002 8.44030268e-003 7.99027830e-002
      -4.40175623e-001 -1.42295152e-001 1.98265895e-001 7.32822895e-001
      4.09493476e-001 6.45084083e-001 1.87836453e-001 -1.07662298e-001
      -7.24707127e-001 5.61256818e-002 2.68866271e-001 1.99932531e-001
      3.39589894e-001 9.94025543e-002 1.65500015e-001 -7.05934167e-002
      -6.62450254e-001 -2.86653101e-001 6.67967439e-001 5.70858657e-001
      5.32584861e-002 -1.16863132e-001 -2.41388068e-001 -3.26858521e-001
      -5.31191289e-001 -2.39024371e-001 3.18861693e-001 -5.27814984e-001
      -5.10568321e-001 9.76881608e-002 4.87354517e-001 3.54254812e-001
      6.12468541e-001 6.06305718e-001 1.20447695e-001 -5.57281494e-001
      1.34008780e-001 -1.05944462e-001 -8.65479559e-002 -2.23758355e-001
      -3.37360501e-001 -1.47759512e-001 5.67389354e-002 2.42129788e-001
      3.01882505e-001 2.07421556e-001 5.96694089e-002 -1.97175652e-001
      -3.37240815e-001 -2.22950459e-001 -2.15064764e-001
      -2.84457058e-001 1.02331512e-001 3.88278693e-001 -1.30912572e-001
      -2.27237895e-001 -2.66359955e-001 -1.80056512e-001
      -1.26448423e-001 3.84823754e-002 -3.78575246e-003 -7.23899901e-002
      -1.24807864e-001 1.42859980e-001 3.78950313e-002 -4.28392086e-003
      -8.75100791e-002 -1.69219866e-001 -1.45673528e-002
      -4.61176410e-002 1.75657406e-001 2.97887027e-001 -6.30659088e-002
      -4.05284345e-001 -4.19639163e-002 5.22640124e-002 -9.79163498e-002
      1.85527295e-001 -9.89759490e-002 -1.83873266e-001 3.69119421e-002</_>
    <_>
      -1.65486798e-001 -1.79814026e-001 -1.52075976e-001 1.24203183e-001
      3.73444676e-001 4.22831178e-002 2.50176322e-002 3.59371416e-002
      -3.21728215e-002 -9.67932865e-002 1.71793461e-001 5.31041436e-002
      -1.51569378e-002 1.48300156e-001 8.83278437e-003 -6.65140450e-002
      -2.13438213e-001 -3.20469081e-001 7.94448480e-002 2.34066606e-001
      4.47990298e-002 5.69919869e-002 4.06191885e-001 -8.13409090e-002
      -3.04118276e-001 -3.27564955e-001 -8.90190378e-002 1.17075972e-001
      1.58950090e-001 1.45056710e-001 -2.95290574e-002 1.20732479e-001
      -9.07905474e-002 -1.93666056e-001 -2.78838843e-001
      -3.12743634e-001 1.72309354e-001 3.88538986e-001 -4.63849418e-002
      -1.66886598e-001 -6.40150830e-002 -1.45937979e-001
      -1.77437708e-001 -3.34021628e-001 -2.22129613e-001 2.85738319e-001
      2.31816337e-001 -2.00165853e-001 -1.82813451e-001 -4.94513884e-002
      -1.67115539e-001 -1.76470861e-001 -2.98606455e-001
      -1.95996021e-003 1.74720764e-001 2.65630245e-001 -2.31282767e-002
      -1.48828328e-001 -1.19021751e-001 -1.76718980e-001
      -2.65097857e-001 -3.14462066e-001 -3.12193066e-001 3.31803173e-001
      2.88759649e-001 -1.31217271e-001 -1.94335148e-001 -2.02859610e-001
      -2.64082193e-001 -3.10641676e-001 -4.79892164e-001
      -1.86864808e-001 2.75631189e-001 9.02363956e-002 -8.32910016e-002
      -8.12875479e-002 -1.16817923e-002 -6.43827245e-002
      -7.73482099e-002 -2.12628007e-001 8.15267488e-002 2.89915949e-001
      7.58191869e-002 8.66201799e-003 6.11085771e-003 6.82866499e-002
      -2.48302054e-002 -1.19232319e-001 -2.31670484e-001 9.20471027e-002
      1.62555039e-001 1.57519892e-001 -9.90277827e-002 -7.97720775e-002
      -6.02240451e-002 -5.99549264e-002 -6.09791763e-002
      -3.60880762e-001 4.77000885e-003 2.17568800e-001 -1.79452747e-001
      -1.33754253e-001 -2.23096237e-002 -5.66376299e-002
      -6.35520592e-002 -3.70248817e-002 -2.02889770e-001 5.40140783e-003</_>
    <_>
      -2.71845702e-002 -1.56736821e-001 -2.15869486e-001 1.09602846e-001
      2.36842245e-001 5.75961471e-002 -7.06329793e-002 2.27276813e-002
      9.08181518e-002 -8.57982785e-002 3.69102433e-002 3.15043442e-002
      8.41671899e-002 1.25022739e-001 5.96634522e-002 -3.38589028e-002
      -1.59588173e-001 -2.25403175e-001 1.93281263e-001 1.95042610e-001
      7.31230201e-003 1.38972610e-001 2.46432945e-001 -2.28127651e-002
      -3.25531334e-001 -2.98930973e-001 2.51580626e-002 6.19992055e-002
      2.17764154e-001 2.51659930e-001 6.27169460e-002 9.63553265e-002
      -1.99220143e-002 -1.70056477e-001 -2.95254469e-001
      -2.86280513e-001 8.92945975e-002 2.60433495e-001 2.50247847e-002
      -2.12705564e-002 -3.18203717e-002 -5.26462458e-002
      -1.24305591e-001 -2.51667500e-001 -2.05191612e-001 3.41507852e-001
      3.26011837e-001 -9.14415047e-002 -1.09005384e-001 -1.69491157e-001
      -1.59230083e-001 -3.36043298e-001 -2.94400632e-001
      -2.28684153e-002 9.13886726e-002 1.58137918e-001 9.70709324e-002
      -4.14029956e-002 -1.22772371e-002 -2.80465093e-002
      -7.09783584e-002 -2.13888496e-001 -3.07481676e-001 1.82151079e-001
      1.14070281e-001 -7.93629065e-002 -1.08377934e-001 -2.41069287e-001
      -1.35892645e-001 -1.71815082e-001 -2.08923236e-001
      -1.36375129e-001 3.08671027e-001 1.64071336e-001 -1.34192556e-001
      -1.13222770e-001 -1.02692872e-001 -9.76236165e-002
      -2.53084838e-001 -2.14792147e-001 1.11608639e-001 2.80470312e-001
      -1.15885744e-002 -1.76075548e-001 -2.00558621e-002 3.05707995e-002
      6.40290091e-003 -2.08934486e-001 -1.82983726e-001 9.53979194e-002
      1.61018372e-001 8.59012827e-002 -1.28259182e-001 -8.58624727e-002
      -1.52679384e-001 -9.72410962e-002 -1.01773761e-001
      -1.15116134e-001 9.95286033e-002 1.38205677e-001 -1.37230843e-001
      -1.74293384e-001 -4.01379168e-002 -6.69260174e-002
      -2.69728061e-003 -8.91317949e-002 -9.44149643e-002 1.11952439e-001</_>
    <_>
      -1.03022285e-001 -1.50004521e-001 -9.07398015e-002 1.46814123e-001
      1.19098581e-001 2.55815804e-001 -1.50713101e-001 6.80678412e-002
      2.28750557e-001 -4.74333256e-001 -3.50972265e-001 3.76404196e-001
      6.67433679e-001 5.96415222e-001 5.93135476e-001 3.89658213e-001
      7.60470554e-002 -9.91958454e-002 1.27941892e-001 -4.42370325e-002
      -1.36805668e-001 1.47282958e-001 -1.22616157e-001 1.24345034e-001
      -2.05704197e-001 -6.15691766e-003 9.69986767e-002 -1.35698870e-001
      4.54472989e-001 8.94532442e-001 5.85533559e-001 4.40790117e-001
      4.22320426e-001 4.60870564e-002 -3.81756276e-001 -3.74071628e-001
      -2.54112929e-001 6.92621693e-002 5.28991401e-001 7.00850129e-001
      4.39308405e-001 2.22393543e-001 -1.12590872e-001 -4.85655189e-001
      -3.46095622e-001 1.07054794e+000 1.37021959e+000 6.93356156e-001
      -9.16669145e-002 -5.52860796e-001 -6.07828796e-001
      -1.07051778e+000 -3.85683417e-001 2.68384337e-001 -3.63194793e-001
      -3.35260808e-001 3.05445552e-001 4.04269725e-001 5.96718192e-001
      2.84800202e-001 6.72725439e-001 1.66753232e-001 -9.72712114e-002
      -1.52836531e-001 -2.86736131e-001 -1.52047798e-001
      -4.41211104e-001 -3.89651299e-001 -9.66625586e-002 6.00936234e-001
      8.76266241e-001 3.61544222e-001 7.65415490e-001 7.41858661e-001
      1.38278589e-001 -3.27482224e-001 -5.19188285e-001 -2.38196462e-001
      -9.27070260e-001 -2.91158199e-001 5.33903301e-001 2.89150119e-001
      -3.61909330e-001 -5.79140842e-001 1.14968807e-001 -5.98058142e-002
      1.65242344e-001 -1.93998665e-001 -2.44078845e-001 1.52371883e-001
      1.37993082e-001 -2.10775003e-001 -2.95632422e-001 -1.91284463e-001
      -4.84049648e-001 -2.60725826e-001 -1.38346227e-002 6.45899832e-001
      5.91187894e-001 2.53442556e-001 -4.56625819e-001 -1.71042562e-001
      1.53891966e-002 1.89001802e-002 -1.82253107e-001 -1.97261602e-001
      -1.63256936e-002 3.48500580e-001</_></support_vectors>
  <decision_functions>
    <_>
      <sv_count>1</sv_count>
      <rho>-3.5279321530640721e-002</rho>
      <alpha>
        1.</alpha>
      <index>
        0</index></_>
    <_>
      <sv_count>1</sv_count>
      <rho>-1.0008938336703060e-002</rho>
      <alpha>
        1.</alpha>
      <index>
        1</index></_>
    <_>
      <sv_count>1</sv_count>
      <rho>3.5513304172953786e-001</rho>
      <alpha>
        1.</alpha>
      <index>
        2</index></_>
    <_>
      <sv_count>1</sv_count>
      <rho>-2.2207165812325322e-001</rho>
      <alpha>
        1.</alpha>
      <index>
        3</index></_>
    <_>
      <sv_count>1</sv_count>
      <rho>1.9157953980424719e-001</rho>
      <alpha>
        1.</alpha>
      <index>
        4</index></_>
    <_>
      <sv_count>1</sv_count>
      <rho>-2.8305525033274510e-002</rho>
      <alpha>
        1.</alpha>
      <index>
        5</index></_>
    <_>
      <sv_count>1</sv_count>
      <rho>-1.5547705392064579e-001</rho>
      <alpha>
        1.</alpha>
      <index>
        6</index></_>
    <_>
      <sv_count>1</sv_count>
      <rho>1.0474226929203406e-001</rho>
      <alpha>
        1.</alpha>
      <index>
        7</index></_>
    <_>
      <sv_count>1</sv_count>
      <rho>-4.6571457990855401e-002</rho>
      <alpha>
        1.</alpha>
      <index>
        8</index></_>
    <_>
      <sv_count>1</sv_count>
      <rho>4.1407994809623035e-003</rho>
      <alpha>
        1.</alpha>
      <index>
        9</index></_>
    <_>
      <sv_count>1</sv_count>
      <rho>1.1506394000271389e-001</rho>
      <alpha>
        1.</alpha>
      <index>
        10</index></_>
    <_>
      <sv_count>1</sv_count>
      <rho>-1.9409740096801997e-001</rho>
      <alpha>
        1.</alpha>
      <index>
        11</index></_>
    <_>
      <sv_count>1</sv_count>
      <rho>-9.2020473488365392e-003</rho>
      <alpha>
        1.</alpha>
      <index>
        12</index></_>
    <_>
      <sv_count>1</sv_count>
      <rho>-1.0812375048750150e-001</rho>
      <alpha>
        1.</alpha>
      <index>
        13</index></_>
    <_>
      <sv_count>1</sv_count>
      <rho>-1.4740861467525926e-001</rho>
      <alpha>
        1.</alpha>
      <index>
        14</index></_>
    <_>
      <sv_count>1</sv_count>
      <rho>3.3336425777429686e-002</rho>
      <alpha>
        1.</alpha>
      <index>
        15</index></_>
    <_>
      <sv_count>1</sv_count>
      <rho>-5.8013241810551654e-002</rho>
      <alpha>
        1.</alpha>
      <index>
        16</index></_>
    <_>
      <sv_count>1</sv_count>
      <rho>3.8456143149216394e-002</rho>
      <alpha>
        1.</alpha>
      <index>
        17</index></_>
    <_>
      <sv_count>1</sv_count>
      <rho>-1.0555526447781446e-001</rho>
      <alpha>
        1.</alpha>
      <index>
        18</index></_>
    <_>
      <sv_count>1</sv_count>
      <rho>1.2916167306447326e-001</rho>
      <alpha>
        1.</alpha>
      <index>
        19</index></_>
    <_>
      <sv_count>1</sv_count>
      <rho>-1.0207106979459614e-003</rho>
      <alpha>
        1.</alpha>
      <index>
        20</index></_>
    <_>
      <sv_count>1</sv_count>
      <rho>-1.5137417482163609e-001</rho>
      <alpha>
        1.</alpha>
      <index>
        21</index></_>
    <_>
      <sv_count>1</sv_count>
      <rho>8.1898008681175527e-002</rho>
      <alpha>
        1.</alpha>
      <index>
        22</index></_>
    <_>
      <sv_count>1</sv_count>
      <rho>-2.5472661818056002e-002</rho>
      <alpha>
        1.</alpha>
      <index>
        23</index></_>
    <_>
      <sv_count>1</sv_count>
      <rho>-4.6765592900854297e-001</rho>
      <alpha>
        1.</alpha>
      <index>
        24</index></_>
    <_>
      <sv_count>1</sv_count>
      <rho>-2.9376345212104110e-001</rho>
      <alpha>
        1.</alpha>
      <index>
        25</index></_>
    <_>
      <sv_count>1</sv_count>
      <rho>-6.9565688595616104e-001</rho>
      <alpha>
        1.</alpha>
      <index>
        26</index></_>
    <_>
      <sv_count>1</sv_count>
      <rho>-2.1525345876856489e-001</rho>
      <alpha>
        1.</alpha>
      <index>
        27</index></_>
    <_>
      <sv_count>1</sv_count>
      <rho>-7.4995926821166614e-001</rho>
      <alpha>
        1.</alpha>
      <index>
        28</index></_>
    <_>
      <sv_count>1</sv_count>
      <rho>-4.9563145760306987e-001</rho>
      <alpha>
        1.</alpha>
      <index>
        29</index></_>
    <_>
      <sv_count>1</sv_count>
      <rho>2.1413783591107524e-001</rho>
      <alpha>
        1.</alpha>
      <index>
        30</index></_>
    <_>
      <sv_count>1</sv_count>
      <rho>7.3512106674058303e-002</rho>
      <alpha>
        1.</alpha>
      <index>
        31</index></_>
    <_>
      <sv_count>1</sv_count>
      <rho>-9.3447256183420799e-002</rho>
      <alpha>
        1.</alpha>
      <index>
        32</index></_>
    <_>
      <sv_count>1</sv_count>
      <rho>5.5107927333035733e-001</rho>
      <alpha>
        1.</alpha>
      <index>
        33</index></_>
    <_>
      <sv_count>1</sv_count>
      <rho>2.4632210126797727e-001</rho>
      <alpha>
        1.</alpha>
      <index>
        34</index></_>
    <_>
      <sv_count>1</sv_count>
      <rho>-5.6341008086653432e-001</rho>
      <alpha>
        1.</alpha>
      <index>
        35</index></_>
    <_>
      <sv_count>1</sv_count>
      <rho>-1.4024956182267315e-001</rho>
      <alpha>
        1.</alpha>
      <index>
        36</index></_>
    <_>
      <sv_count>1</sv_count>
      <rho>-2.7822355891527673e-001</rho>
      <alpha>
        1.</alpha>
      <index>
        37</index></_>
    <_>
      <sv_count>1</sv_count>
      <rho>-1.5834909257752172e-001</rho>
      <alpha>
        1.</alpha>
      <index>
        38</index></_>
    <_>
      <sv_count>1</sv_count>
      <rho>-6.9779523133450580e-002</rho>
      <alpha>
        1.</alpha>
      <index>
        39</index></_>
    <_>
      <sv_count>1</sv_count>
      <rho>7.1005873185668922e-002</rho>
      <alpha>
        1.</alpha>
      <index>
        40</index></_>
    <_>
      <sv_count>1</sv_count>
      <rho>-6.0903889934328853e-002</rho>
      <alpha>
        1.</alpha>
      <index>
        41</index></_>
    <_>
      <sv_count>1</sv_count>
      <rho>2.4781217241035827e-001</rho>
      <alpha>
        1.</alpha>
      <index>
        42</index></_>
    <_>
      <sv_count>1</sv_count>
      <rho>7.4958219833886328e-002</rho>
      <alpha>
        1.</alpha>
      <index>
        43</index></_>
    <_>
      <sv_count>1</sv_count>
      <rho>-4.4268146210314826e-003</rho>
      <alpha>
        1.</alpha>
      <index>
        44</index></_></decision_functions></my_svm>
</opencv_storage>
