<?xml version="1.0"?>
<opencv_storage>
<my_svm type_id="opencv-ml-svm">
  <svm_type>C_SVC</svm_type>
  <kernel><type>LINEAR</type></kernel>
  <C>1.</C>
  <term_criteria><epsilon>9.9999999747524271e-007</epsilon>
    <iterations>1000000</iterations></term_criteria>
  <var_all>108</var_all>
  <var_count>108</var_count>
  <class_count>10</class_count>
  <class_labels type_id="opencv-matrix">
    <rows>1</rows>
    <cols>10</cols>
    <dt>i</dt>
    <data>
      0 1 2 3 4 5 6 7 8 9</data></class_labels>
  <sv_total>45</sv_total>
  <support_vectors>
    <_>
      8.30371141e-001 4.50568140e-001 -6.37731612e-001 -2.19791830e-001
      -6.43226504e-002 -9.65244509e-003 5.70737235e-002 2.92352028e-002
      -3.83117259e-001 1.86199203e-001 4.58021641e-001 -6.15006864e-001
      -6.36593103e-001 -6.69389904e-001 -3.20638955e-001
      -9.10782292e-002 -3.76667351e-001 -1.90692335e-001
      -8.33574712e-001 -3.25344838e-002 -2.86730491e-002
      -1.22505753e-005 2.20015883e-001 3.42425287e-001 5.01589239e-001
      1.05075955e+000 -2.06670910e-001 -3.29178199e-002 1.77308798e-001
      1.35050714e-002 -2.08479911e-001 -1.20720394e-001 -2.15181019e-002
      7.07458034e-002 6.51457429e-001 6.15404285e-002 1.78244382e-001
      -6.38601556e-002 -1.69270560e-001 -2.41162047e-001
      -2.97538519e-001 -1.16293788e-001 -4.98215668e-002
      -2.25612506e-001 9.40329581e-002 2.70054061e-002 -3.14327627e-002
      -1.00935418e-002 -1.34001523e-002 3.23739904e-003 -4.96247644e-003
      1.41653642e-002 1.02427252e-001 7.04363436e-002 -5.98866977e-002
      -1.19733147e-003 -2.13429574e-002 -1.07098959e-001
      -9.56091285e-002 -3.17225158e-002 -1.65729932e-002 1.18041411e-002
      -5.98866977e-002 -5.98866977e-002 1.11292742e-001 1.74966659e-002
      1.01355361e-002 3.60852014e-003 9.88510996e-003 1.79316308e-002
      1.70804206e-002 -5.98866977e-002 -2.83556432e-001 5.43373190e-002
      3.80107900e-003 -9.31118988e-003 1.34971216e-002 -1.61565579e-002
      3.38998735e-002 3.28578413e-001 -4.20997553e-002 -7.39341617e-001
      1.20396011e-001 2.66416948e-002 -1.21313175e-002 -7.65417963e-002
      -2.42277514e-002 1.47041425e-001 1.05423570e+000 -2.75356974e-002
      -1.64159164e-001 2.86590338e-001 -2.61392277e-002 -6.08373135e-002
      -2.24193931e-002 -4.09915037e-002 -2.86013782e-002 7.60345161e-002
      -2.83794075e-001 -1.55023724e-001 9.11476672e-001 5.98769896e-002
      2.55570132e-002 -3.68847430e-001 -1.98088884e-001 2.20268473e-001
      1.92881942e-001 -4.01249617e-001</_>
    <_>
      7.01360628e-002 5.74722104e-002 -1.13784065e-002 2.04233527e-002
      1.95422191e-002 1.21685481e-002 -5.01573235e-002 -1.22126956e-002
      -8.13843403e-003 9.02432576e-002 -6.10319227e-002 -1.86017722e-001
      -2.14125663e-002 -9.84663069e-002 -2.37409454e-002
      -9.27973092e-002 -2.25484967e-002 1.26991987e-001 -3.30469124e-002
      4.07000296e-002 2.94651482e-002 4.95689027e-002 1.36625364e-001
      6.12333901e-002 3.59075405e-002 2.18358207e-002 -7.72296488e-002
      -6.90320581e-002 -1.34079561e-001 -7.99835250e-002 2.42454698e-003
      2.44345162e-002 4.45766654e-003 -1.20424502e-001 9.59081575e-002
      3.02084554e-002 2.78471291e-001 -2.94086426e-001 -2.83285975e-001
      -1.38474442e-002 -3.99650745e-002 -1.09164091e-002
      -3.71318720e-002 -1.58321317e-002 3.54906708e-001 3.42126787e-001
      -3.95988822e-001 -4.48139936e-001 -1.22632096e-002 7.75175691e-002
      3.20586413e-002 1.09780513e-001 2.05850631e-001 4.32978183e-001
      6.16621114e-002 -4.40849602e-001 -2.56124556e-001 -5.12104889e-004
      -2.32830131e-003 1.93631148e-003 -2.25339532e-002 1.85482241e-002
      2.13774577e-001 1.63860828e-001 -1.55901447e-001 -3.67326379e-001
      4.50754212e-003 4.31813784e-002 7.70026864e-003 3.66803445e-002
      2.92548258e-002 3.95663917e-001 -8.17890465e-003 -3.11190873e-001
      -3.30038041e-001 -3.84559408e-002 1.10680670e-001 7.33948350e-002
      2.20731094e-001 2.87604004e-001 2.13721842e-001 -2.01544821e-001
      -2.68085033e-001 -1.57859221e-001 -6.78956807e-002 6.65393984e-003
      1.60094947e-001 2.27601811e-001 1.52478740e-001 1.81696210e-002
      1.93124980e-001 -4.93581109e-002 -9.79797915e-002 -4.72838990e-002
      4.15201522e-002 -6.06311671e-002 2.09268043e-003 -2.22457312e-002
      6.55318946e-002 -3.33527178e-002 8.30457285e-002 1.67688891e-001
      -2.34025307e-002 7.42169796e-003 -9.33172628e-002 -1.69198439e-001
      -1.24489188e-001 -7.34367371e-002</_>
    <_>
      1.53161272e-001 2.71755368e-001 1.03545308e-001 3.70745696e-002
      1.14860840e-001 3.84753919e-003 -1.80606112e-001 -2.16671169e-001
      -1.46548420e-001 2.09799290e-001 1.02652401e-001 -4.14387167e-001
      -3.44869077e-001 -1.52091861e-001 -1.63141176e-001
      -3.47667664e-001 -2.96169162e-001 1.34225518e-001 -1.47582769e-001
      -5.71037158e-002 -3.73976771e-003 8.52776915e-002 3.64607930e-001
      1.82462215e-001 1.00989088e-001 8.49962607e-002 -6.78304061e-002
      -2.31921822e-002 -3.82489771e-001 -4.07933652e-001
      -2.09542930e-001 1.49955684e-002 -1.16844542e-001 -1.96394920e-002
      9.48922485e-002 1.74505964e-001 4.84321773e-001 -4.12513137e-001
      -4.33724225e-001 -1.61813959e-001 -2.46900067e-001
      -2.69410461e-001 -3.79464149e-001 -3.07352990e-001 4.91866201e-001
      4.66196507e-001 -2.84453750e-001 -3.12861443e-001 -7.64359385e-002
      -2.16594994e-001 -2.93098509e-001 -5.39638996e-001
      -1.71682805e-001 4.59839910e-001 3.27586144e-001 -6.27842605e-001
      -4.58975703e-001 -1.28834561e-001 -1.88043818e-001
      -3.00926328e-001 -3.48500788e-001 -3.14230472e-001 3.35848987e-001
      4.10293251e-001 -1.28592066e-002 -1.90233395e-001 -6.80411607e-002
      -2.12809652e-001 -3.30643684e-001 -5.11730015e-001
      -5.62219560e-001 2.62007385e-001 -1.48181440e-002 -1.73532769e-001
      -1.74660191e-001 -7.52131119e-002 -5.43300025e-002
      -1.43355325e-001 -1.06217936e-001 -4.53893393e-002 3.34973782e-001
      -3.45150769e-001 -2.09413171e-001 -2.39246681e-001
      -1.06314436e-001 1.06000364e-001 1.08305730e-001 -4.03308235e-002
      2.87734121e-001 5.16178552e-004 3.81269343e-002 2.05114335e-001
      2.08986863e-001 -3.05367764e-002 1.11985832e-001 -2.74211564e-003
      -4.22569960e-002 -3.01940650e-001 -1.88939184e-001
      -2.40782931e-001 1.12760924e-002 -2.50452776e-002 1.86515540e-001
      2.96136439e-001 1.83932155e-001 1.28609881e-001 -1.26675338e-001
      -2.12078825e-001</_>
    <_>
      2.76892662e-001 -5.01935072e-002 2.00365335e-002 4.31952626e-002
      1.46994755e-001 7.30376467e-002 1.47598991e-002 1.66628808e-002
      -2.96717342e-002 1.73117653e-001 -2.66536057e-001 -5.26347101e-001
      -8.19934905e-002 -2.65062124e-001 -4.97059673e-002 1.93874829e-003
      -4.14726310e-006 1.91820711e-001 -4.34253156e-001 -2.70475596e-001
      1.12146214e-001 1.18795693e-001 3.54174733e-001 3.05651695e-001
      3.43657166e-001 5.58842480e-001 -2.01275930e-001 -6.68552220e-002
      -1.46952242e-001 -1.18097588e-001 -7.89791986e-004
      -1.77476555e-001 -3.98919582e-002 8.45280737e-002 5.06023645e-001
      2.19512712e-002 1.55559823e-001 -6.72980309e-001 -4.06243742e-001
      -8.69387090e-002 -2.01266229e-001 -5.09408899e-002
      -5.57599403e-002 -4.08926494e-002 4.46200609e-001 1.02450840e-001
      -6.83758676e-001 -3.16237658e-001 -2.45973095e-001
      -2.60591000e-001 -1.15992032e-001 -3.22701484e-002 1.17470548e-001
      4.26394016e-001 1.04492418e-001 -2.38825813e-001 -1.67118564e-001
      -5.31304479e-002 -1.36869937e-001 -6.52021468e-002
      -5.50146848e-002 -4.87232618e-002 1.45312086e-001 1.08195066e-001
      -9.43828449e-002 -1.96967483e-001 -8.68123546e-002
      -7.42444992e-002 -1.12087242e-001 -2.01388538e-001
      -2.13991970e-001 1.40600860e-001 -1.12179197e-001 -1.90615356e-001
      -1.47706300e-001 -3.02197814e-001 -3.90603006e-001
      -1.21570252e-001 -2.74205636e-002 2.59947628e-001 1.73771083e-001
      -2.63227582e-001 -1.55505434e-001 -4.46200185e-002
      -1.65696681e-001 -1.68651477e-001 -5.68161681e-002 6.96637481e-002
      3.59199196e-001 -6.31245524e-002 -1.34563623e-002 -3.51020508e-002
      -1.55778617e-001 -3.75016555e-002 1.05276126e-002 -4.72682938e-002
      -1.34315118e-001 -1.54257879e-001 -1.14123486e-001
      -1.34049475e-001 3.14185247e-002 8.56377259e-002 2.18033552e-001
      8.96124542e-002 -1.33092538e-001 -5.06402664e-002 -5.60836010e-002
      -2.45214894e-001</_>
    <_>
      -2.34029830e-001 3.89005356e-002 2.42498979e-001 4.03932147e-002
      4.28199917e-002 3.39015238e-002 3.81551087e-002 1.10698789e-002
      -1.46573499e-001 8.29020292e-002 2.56227732e-001 -1.88798569e-002
      -2.32424915e-001 -8.26916471e-002 -1.64440185e-001
      -2.45549336e-001 -8.39344636e-002 -2.51957984e-003
      -9.82320532e-002 -2.37860791e-002 -2.55351905e-002
      -1.75779611e-001 -9.04703811e-002 -8.70576054e-002 2.38573119e-001
      4.53538358e-001 2.63792984e-002 2.44089052e-001 4.98433672e-002
      -1.13348238e-001 -2.98803806e-001 -2.26464108e-001
      -4.05604750e-001 -2.93117136e-001 1.19169556e-001 4.06806082e-001
      4.45784539e-001 -6.41625598e-002 -2.46881634e-001 -2.41276026e-001
      -1.74003735e-001 -1.96627855e-001 -2.58302063e-001
      -2.28161350e-001 3.03885102e-001 4.11071002e-001 -2.10748002e-001
      -2.11202309e-001 -1.90006480e-001 -1.55753151e-001
      -2.53526151e-001 -2.09482759e-001 -4.86477986e-002 3.33509862e-001
      5.19072950e-001 -6.95850179e-002 -1.39267802e-001 -1.68188378e-001
      -1.82181180e-001 -2.55068630e-001 -5.29775679e-001
      -3.40036124e-001 3.24073702e-001 1.89522266e-001 -8.34908113e-002
      -1.48242086e-001 -1.17577031e-001 -4.20694463e-002
      -1.16052188e-001 -2.60066867e-001 -3.98734152e-001 2.34632313e-001
      6.08866252e-002 -1.08729407e-001 -1.10416338e-001 -1.08797841e-001
      4.42890264e-002 -1.64895862e-001 -6.75640255e-003 3.54410745e-002
      1.79647982e-001 -2.64950097e-002 -1.03574991e-002 -9.57969874e-002
      -9.48701724e-002 4.21318486e-002 6.79855049e-002 -2.66792183e-003
      5.59389479e-002 -5.77285700e-002 4.70663495e-002 -3.34937200e-002
      -2.88854744e-002 -4.68609333e-002 8.59989673e-002 -2.03033816e-002
      -5.15595824e-002 -5.62502183e-002 -5.33566670e-003
      -5.57549708e-002 -1.30132101e-002 -8.29454418e-003 1.15917459e-001
      2.00144827e-001 6.88266829e-002 1.47838064e-003 -4.33753803e-002
      -5.10517806e-002</_>
    <_>
      -2.25392245e-002 -4.51416112e-002 5.52571863e-002 4.82731275e-002
      1.91527605e-001 1.11902826e-001 -2.86995359e-002 2.42439862e-002
      -3.30450274e-002 1.70211401e-002 7.76432082e-002 -3.94073240e-002
      -2.88516760e-001 -8.06628242e-002 -1.74306482e-001
      -2.21091762e-001 3.65903345e-003 2.97068924e-001 3.11767161e-002
      -1.04366571e-001 -1.40900522e-001 -1.13788068e-001 3.42391729e-002
      6.47702813e-002 -7.10986182e-002 7.45616034e-002 4.88203838e-002
      4.49066460e-001 -7.28115365e-002 -2.68045247e-001 -4.86510932e-001
      -4.57802087e-001 -6.05431139e-001 -3.39745760e-001 3.17501985e-002
      6.63103640e-001 2.55021691e-001 -4.40034837e-001 -1.85920149e-001
      -2.19809800e-001 -1.13073237e-001 -1.80271298e-001
      -1.68856502e-001 -2.72890087e-002 4.23494279e-001 1.80837706e-001
      -4.46835697e-001 -1.68656915e-001 -8.35104883e-002 4.82947566e-002
      -8.00106376e-002 -1.21568710e-001 5.26041947e-002 1.99234068e-001
      5.93993187e-001 -3.20898920e-001 -2.54340470e-001 -3.90546381e-001
      -3.38025540e-001 -5.06962061e-001 -6.64942622e-001
      -5.64777672e-001 4.94390070e-001 2.35289723e-001 -1.28084391e-001
      -2.58344114e-001 -1.72286510e-001 -5.30503429e-002
      -2.03509077e-001 -2.87723690e-001 -4.37318236e-001 1.92286655e-001
      2.94002146e-002 2.41686753e-003 -6.17506303e-005 -4.42123339e-002
      1.26487747e-001 -1.41658083e-001 -1.29730431e-002 8.45565572e-002
      1.07022107e-001 -5.13464250e-002 2.45446116e-002 7.98631161e-002
      3.44444886e-002 1.76446210e-003 1.39397904e-001 2.18191966e-002
      5.23973070e-002 -8.30738842e-002 -6.19577896e-003 2.04095570e-003
      -3.46541665e-002 -2.46946320e-001 2.79867444e-002 -1.38441637e-001
      -6.71713501e-002 -9.04296190e-002 -1.09378956e-001
      -1.03151880e-001 1.34663284e-001 -1.08964294e-002 9.22394618e-002
      1.16001748e-001 -1.53801888e-002 6.40554130e-002 -5.64091168e-002
      -1.45711511e-001</_>
    <_>
      1.45902693e-001 2.30630696e-001 1.59404472e-001 -4.92489524e-002
      -2.22853884e-001 -7.24599957e-002 -7.09395632e-002
      -1.15082450e-001 -1.08185962e-001 3.84714305e-002 -5.64465448e-002
      -2.06367429e-002 -6.30709901e-002 -9.86720175e-002
      -1.05664358e-001 -6.74081817e-002 -2.11232770e-002 1.69289529e-001
      -2.48844013e-001 -1.81695029e-001 -6.50499389e-003
      -7.38989934e-002 -1.22378498e-001 1.96729466e-001 2.61736155e-001
      3.51143926e-001 4.85499576e-002 -1.49958491e-001 -3.46037716e-001
      -2.03029260e-001 -6.32899180e-002 -7.61007667e-002 1.25339953e-002
      1.21792629e-001 3.63992393e-001 3.72342557e-001 1.21539257e-001
      -4.26749885e-001 -3.09159867e-002 -1.09396148e-002
      -7.95046799e-003 -2.19888054e-002 -2.27675438e-002 2.97368807e-003
      3.94697607e-001 -1.61831323e-002 -5.34480691e-001 -1.15430346e-002
      -6.93848869e-003 2.63902098e-002 1.90838502e-004 -6.63816754e-004
      6.37085065e-002 2.98172295e-001 -1.02822138e-002 -5.56804955e-001
      -1.01819128e-001 -7.77664920e-003 -3.46031366e-003
      -1.62296614e-003 -5.55497718e-005 1.14217937e-001 4.78420019e-001
      -1.02822138e-002 -4.51255441e-001 -2.87619866e-002
      -6.74019754e-003 4.96802516e-002 1.20251952e-002 -2.41777371e-003
      9.16934048e-004 3.20613116e-001 -1.65954456e-001 -2.58194983e-001
      3.10675823e-003 -7.73172081e-003 6.23617545e-002 -4.15410614e-003
      3.81951928e-002 1.66778311e-001 2.49763653e-002 -3.69739532e-001
      -2.26228133e-001 1.49593009e-002 -2.49996427e-002 -3.38047519e-002
      4.19900008e-002 8.36331323e-002 3.12603474e-001 -1.33964151e-001
      -5.80229387e-002 -1.88055530e-001 6.15731962e-002 -4.94252983e-003
      7.36976117e-002 -2.20732554e-003 -1.14098545e-002 2.68686432e-002
      2.13542562e-002 -1.76308408e-001 1.94572806e-001 1.24128819e-001
      1.27614230e-001 8.35047290e-002 4.18061484e-003 4.57410514e-002
      1.77172959e-001 -4.60445061e-002</_>
    <_>
      -5.35245286e-004 1.03325970e-001 5.86479604e-002 3.58509608e-002
      1.64185897e-001 1.03266826e-002 -4.15659547e-002 -1.13505810e-001
      -1.63674027e-001 1.98791012e-001 1.74077898e-001 -1.14286758e-001
      -1.98986784e-001 -8.30133483e-002 -2.58083105e-001
      -2.47029215e-001 -3.94748360e-001 -3.63624692e-002
      -1.38835639e-001 -2.39790753e-002 -3.05126179e-002 8.07798561e-003
      2.77673632e-001 6.82846457e-002 1.64924096e-002 1.33455068e-001
      4.25746152e-003 1.99126154e-002 -3.71990591e-001 -3.64658743e-001
      -2.43149295e-001 -1.50870100e-001 -2.74216831e-001
      -1.89802513e-001 9.34176520e-002 1.51282012e-001 4.74757552e-001
      -2.88672954e-001 -2.88566649e-001 -2.39406496e-001
      -2.10075676e-001 -2.26875931e-001 -3.03245723e-001
      -4.72939789e-001 4.38993812e-001 2.31545523e-001 -6.73458397e-001
      -4.00339276e-001 -2.41555303e-001 -9.01350826e-002
      -1.48445457e-001 -1.15161054e-001 4.11371477e-002 4.82453674e-001
      4.55595434e-001 -4.46595043e-001 -3.62353563e-001 -3.14423263e-001
      -3.83045584e-001 -3.45406353e-001 -4.54633236e-001
      -3.00260156e-001 3.48594338e-001 4.44501847e-001 -9.33920965e-002
      -3.18680137e-001 -2.44403124e-001 -2.94141769e-001
      -3.05996776e-001 -4.66663212e-001 -5.34827828e-001 2.75615543e-001
      -1.50985315e-001 -4.16662186e-001 -1.27976343e-001
      -1.31644636e-001 7.29314685e-002 -8.66962820e-002 1.42854780e-001
      1.22490555e-001 2.51957625e-001 -1.52681828e-001 -5.65365255e-002
      -1.04502281e-002 -2.79979222e-002 1.19487019e-002 1.76852897e-001
      5.70732318e-002 1.38595313e-001 -8.63854587e-002 6.44910112e-002
      -3.86276208e-002 6.27566800e-002 -1.08892821e-001 9.86116081e-002
      -3.54393832e-002 -2.64293905e-002 -2.55267620e-001
      -1.44231752e-001 -1.53402731e-001 4.65833396e-002 -4.26253043e-002
      2.25148872e-001 3.67665365e-002 1.31319880e-001 8.63196254e-002
      -9.38776881e-002 -1.15846694e-001</_>
    <_>
      1.20109513e-001 6.49349689e-002 1.71229184e-001 2.89283749e-002
      1.44215554e-001 7.29606580e-003 -8.67763013e-002 -2.24809833e-002
      9.76746064e-003 2.19173990e-002 -7.47392550e-002 -4.00969982e-002
      -1.09436005e-001 5.94261549e-002 -1.54210096e-002 -1.19690135e-001
      -2.71494299e-001 -8.08887184e-003 6.01407252e-002 -7.27003291e-002
      -1.50444806e-001 -3.17745693e-002 3.10908973e-001 -4.70842747e-003
      1.02704838e-002 1.20894253e-001 2.05729604e-001 1.39519479e-002
      -3.35329890e-001 -1.02813199e-001 -6.65755123e-002 1.43380566e-002
      -7.39590675e-002 -1.46675646e-001 -5.89186419e-003 3.25333886e-002
      3.94556195e-001 -3.02065581e-001 -1.51259288e-001 -6.00968190e-002
      -8.22986588e-002 -2.02554002e-001 -2.52373934e-001
      -7.74740577e-001 3.46583635e-001 8.39859664e-001 -1.37863010e-001
      -2.51053631e-001 -2.58277714e-001 -2.47374803e-001
      -4.75963235e-001 -6.61117435e-001 -3.08616638e-001 5.16857326e-001
      2.57600874e-001 -8.38313162e-001 -2.28040472e-001 -9.13063213e-002
      -1.02274232e-001 -1.37475953e-001 -2.07032293e-001
      -5.93506038e-001 2.57600874e-001 4.65807170e-001 -1.63620606e-001
      -2.10485578e-001 -3.28882307e-001 -3.73210728e-001
      -5.14279306e-001 -4.77746099e-001 -4.27126795e-001 3.94302636e-001
      7.15391487e-002 -2.12865487e-001 -1.96835548e-001 -3.80145699e-001
      -8.46359208e-002 -1.31080106e-001 -1.84313163e-001 7.12036863e-002
      5.04885912e-001 -3.83438438e-001 -3.86321813e-001 -3.58227879e-001
      -1.60993218e-001 1.61633193e-001 2.24882111e-001 1.34903714e-001
      -4.71474454e-002 -2.20961958e-001 -3.13043147e-002
      -4.66146227e-003 2.23035857e-001 -1.59294799e-001 5.06068096e-002
      -1.77614838e-001 -1.67010263e-001 -1.35806412e-001 1.32393554e-001
      -4.64202076e-001 -2.74124742e-001 -5.39258011e-002 2.59906292e-001
      2.78414518e-001 1.15385711e-001 -8.00587460e-002 -2.76021212e-001
      -2.15657100e-001</_>
    <_>
      -7.14113116e-002 -8.98460150e-002 8.70222151e-002 3.26962955e-002
      -2.41922401e-002 1.22964634e-002 -5.48296049e-002 -1.51329096e-002
      -4.44212817e-002 9.52430740e-002 -1.48789719e-001 -2.22488139e-002
      1.05611347e-001 2.16482431e-002 4.87286560e-002 -4.86834459e-002
      4.15171534e-002 8.94731060e-002 1.06320545e-001 3.10523473e-002
      1.08092688e-001 1.26400741e-003 4.08181436e-002 -9.33643337e-003
      -1.54805630e-001 -1.72260523e-001 4.90221381e-002 3.45171243e-002
      -1.42223462e-001 4.22156192e-002 1.03584593e-002 4.76358598e-003
      3.25842723e-002 -1.00882694e-001 -5.87219670e-002 4.80873436e-002
      2.34027371e-001 -2.43097559e-001 -2.78209075e-002 5.18020689e-002
      1.43194953e-002 1.72238741e-002 -5.85464668e-003 3.50452624e-002
      2.07530603e-001 2.81628549e-001 -3.58283192e-001 -2.92696327e-001
      -8.06243392e-004 -3.11017479e-003 1.51329977e-003 5.44533692e-003
      2.58369092e-002 2.83909887e-001 1.02964170e-001 -3.65136564e-001
      -1.29096746e-001 1.65381115e-002 7.82595947e-003 2.13802177e-002
      -6.91319932e-004 4.74578887e-003 2.25969329e-001 1.63224936e-001
      -3.61646056e-001 -3.41201961e-001 -1.88802611e-002
      -4.72401567e-002 -1.93546526e-002 -3.63232195e-003 1.03327474e-002
      3.21802080e-001 1.66563481e-001 -2.88825244e-001 -2.32170701e-001
      -1.89249944e-002 -3.89826857e-003 2.43223715e-003 3.82688940e-002
      3.81857455e-002 2.66488314e-001 -1.71418712e-002 -2.18171626e-001
      -1.09676950e-001 -5.33930995e-002 -1.00066341e-001
      -2.71422248e-002 2.80426256e-002 1.21979630e-002 2.19722971e-001
      2.20656186e-001 -2.56004274e-001 -1.69311434e-001 -5.88970110e-002
      -8.60879868e-002 -8.09129849e-002 -2.69574355e-002
      -1.07325371e-002 2.93876886e-001 1.73421100e-001 -5.37716076e-002
      5.28994529e-003 -7.85269216e-002 -2.64417659e-002 -1.05761245e-001
      -7.46385455e-002 -3.54506746e-002 1.44395635e-001</_>
    <_>
      -1.38826206e-001 -4.21777256e-002 2.74029940e-001 6.71841130e-002
      -8.43378343e-003 -1.02471262e-001 -2.24183246e-001
      -2.33265311e-001 -1.79776385e-001 8.83559585e-002 -2.08607808e-001
      -6.98126927e-002 3.83858457e-002 1.30071968e-001 6.37395829e-002
      -1.98323414e-001 -1.29177660e-001 -1.03235384e-003 2.49826670e-001
      6.57157376e-002 2.69661844e-001 1.22397371e-001 1.69380024e-001
      -7.73401931e-002 -1.50386065e-001 -3.51252198e-001 5.02902493e-002
      5.69537804e-002 -2.27098629e-001 -8.97386484e-003 4.12083901e-002
      1.43020377e-002 5.42931929e-002 -9.54878628e-002 -2.47691110e-001
      1.47691667e-001 1.80280894e-001 -3.03790718e-001 -1.50798202e-001
      7.29728565e-002 9.47072804e-002 -6.45885020e-002 -1.75734818e-001
      -5.81417084e-002 1.25466689e-001 2.72926152e-001 -1.84261203e-001
      -1.22353911e-001 -2.31998097e-002 -7.67858848e-002
      -3.20949495e-001 -4.17516410e-001 -3.56611937e-001 1.87931925e-001
      2.37461567e-001 -4.08814698e-001 -1.39404967e-001 6.95503280e-002
      -3.14270408e-004 -1.04633972e-001 -1.71263069e-001
      -1.53817594e-001 2.78454930e-001 3.35477680e-001 -2.49816075e-001
      -8.81748423e-002 -2.04683095e-002 -1.53565973e-001
      -3.25977594e-001 -3.61900300e-001 -5.25893390e-001 2.12303042e-001
      3.43195975e-001 -1.88490510e-001 -1.29518524e-001 -6.86281994e-002
      -1.15467273e-001 -1.45273089e-001 -2.49175861e-001
      -3.65327567e-001 2.41577968e-001 1.44485474e-001 -3.05903256e-001
      -3.31561983e-001 -6.09847009e-002 -3.31727527e-002
      -1.13647301e-002 -3.00367713e-001 -2.45917365e-001 2.62737662e-001
      2.47132659e-001 -2.57813692e-001 8.74735694e-003 3.73827666e-002
      1.18648307e-002 -7.86363259e-002 -1.17232114e-001 -4.82763499e-001
      2.58746952e-001 1.61785334e-001 -4.47580725e-001 -3.00221562e-001
      1.19815856e-001 1.41794354e-001 7.63783902e-002 -5.89573160e-002
      -1.28523707e-001 2.09592894e-001</_>
    <_>
      -1.60070717e-001 -3.43605876e-001 1.34044096e-001 1.47514582e-001
      9.38493535e-002 7.42123947e-002 2.90648621e-002 4.31688456e-003
      -3.47471312e-002 1.53189942e-001 -3.94475460e-001 -1.32611558e-001
      2.37145558e-001 -3.00061721e-002 1.16103999e-001 5.31841852e-002
      1.19619571e-001 1.87842190e-001 -8.94884467e-002 -2.60206699e-001
      2.41744235e-001 1.41565293e-001 2.85513967e-001 7.15617090e-002
      5.69638610e-002 2.09261011e-002 -5.79654127e-002 -4.04672883e-002
      -1.66469350e-001 1.72291696e-001 6.65890202e-002 -1.67598978e-001
      4.71412987e-002 2.10742168e-002 9.98955034e-003 4.31442074e-003
      9.30364206e-002 -6.19773984e-001 -2.01573610e-001 9.79159996e-002
      1.74669325e-002 4.13933806e-002 -1.97886582e-002 9.60918516e-002
      3.40732545e-001 1.19993106e-001 -6.93612278e-001 -3.18812937e-001
      -3.51636857e-001 -2.96439856e-001 -1.71262875e-001
      -1.83601007e-001 -5.00519350e-002 4.58176434e-001 1.74440697e-001
      -3.25253487e-001 -3.52568664e-002 7.54982308e-002 -7.29133934e-003
      3.93452682e-002 -4.72823977e-002 -3.33914682e-002 1.78616568e-001
      1.77364886e-001 -4.85219210e-001 -3.25502753e-001 -1.67035997e-001
      -1.64269179e-001 -1.92468464e-001 -2.52205491e-001
      -2.50179559e-001 1.94678307e-001 3.52167338e-001 -2.01617464e-001
      -2.01216668e-001 -4.28548127e-001 -5.39768696e-001
      -2.33210549e-001 -2.58817285e-001 -9.50434878e-002 2.68164724e-001
      2.24182025e-001 -1.51443750e-001 -7.60551766e-002 -1.51911885e-001
      -2.67847180e-001 -2.04648152e-001 -2.24826440e-001
      -6.41758740e-002 2.57545918e-001 2.77546704e-001 -3.85251611e-001
      -3.32697362e-001 -1.28922015e-001 -2.87234455e-001
      -1.66067094e-001 -2.54276603e-001 -2.67969728e-001 2.87000597e-001
      2.36981869e-001 -3.04404557e-001 -1.84933901e-001 -2.15056911e-003
      -6.39821514e-002 -1.92379847e-001 -2.59621710e-001
      -2.75454253e-001 9.27852839e-002</_>
    <_>
      -2.29684636e-001 -8.66857469e-002 2.42825538e-001 6.15995377e-002
      -6.08671457e-002 -3.79060321e-002 1.65865803e-003 -4.94091399e-003
      -8.71201605e-002 5.70246298e-003 3.52028161e-002 1.47404492e-001
      7.13753328e-002 3.09141129e-002 -9.42438319e-002 -7.27926642e-002
      -2.54866704e-002 1.83571819e-002 6.52522072e-002 4.31769453e-002
      1.20093554e-001 -1.03671253e-001 -1.36888877e-001 -1.49638444e-001
      -8.24606493e-002 2.65541207e-002 1.37146264e-001 2.37033397e-001
      6.48151115e-002 1.11862190e-001 -1.81571856e-001 -2.07619339e-001
      -2.97107279e-001 -2.51816064e-001 -1.80663943e-001 2.34407574e-001
      1.27059639e-001 -4.90460396e-002 -2.59539615e-002 4.91992831e-002
      1.32606169e-002 -1.00249149e-001 -8.65392834e-002 -8.66984427e-002
      1.32776588e-001 2.95564234e-001 -1.50066942e-001 -1.49355069e-001
      -7.31821656e-002 -1.74926251e-001 -1.38745636e-001
      -1.45540059e-001 -1.80296659e-001 1.78011239e-001 4.17847842e-001
      -2.14228686e-002 -2.96378862e-002 -7.62453973e-002
      -1.32880062e-001 -2.17061043e-001 -3.45521271e-001
      -3.03297937e-001 2.61881471e-001 2.55553722e-001 -1.66427821e-001
      -1.16256535e-001 -4.11487371e-002 -1.09526642e-001
      -1.46480814e-001 -2.56071508e-001 -3.74190450e-001 8.32003653e-002
      3.42926949e-001 -1.12703823e-001 -1.07270487e-001 -7.11514130e-002
      -1.30893305e-001 -1.15633801e-001 -1.09062210e-001
      -1.75854281e-001 2.56970674e-001 1.96360499e-001 -6.12554699e-002
      -1.52912006e-001 -1.09426014e-001 1.65487472e-002 -8.19182172e-002
      -2.44953975e-001 -2.29188845e-001 1.46666855e-001 1.57450244e-001
      -1.90791890e-001 -7.70990103e-002 2.73249466e-002 2.44804751e-002
      -2.42807791e-002 -4.53918912e-002 -2.06353649e-001 1.22066647e-001
      1.06422521e-001 -3.04651946e-001 -1.49129912e-001 -7.05245370e-003
      1.30537778e-001 1.55355474e-002 -7.47033209e-002 -1.31189346e-001
      1.10718422e-001</_>
    <_>
      -7.91670978e-002 -1.42225370e-001 2.39584632e-002 5.06312847e-002
      -3.32485810e-002 7.96374213e-003 -1.69077236e-002 -1.62939786e-003
      1.00075901e-002 -8.43969062e-002 -1.31130874e-001 7.16978759e-002
      1.41798988e-001 7.25028813e-002 2.16965377e-002 -1.46675075e-003
      1.10863680e-002 9.54855382e-002 2.56677985e-001 1.83278844e-001
      8.72197971e-002 -1.06778312e-002 1.62156317e-002 -1.09467655e-001
      -3.43058676e-001 -3.31244558e-001 2.21398100e-001 2.50204235e-001
      -1.02136351e-001 9.07169506e-002 -2.18664289e-001 -1.74767345e-001
      -2.28609338e-001 -2.08919197e-001 -3.25897962e-001 2.53743380e-001
      4.32298966e-002 -1.87396795e-001 1.20102331e-001 8.49604085e-002
      2.09403820e-002 -9.10157412e-002 -2.87465174e-002 1.91683583e-002
      1.32517606e-001 1.07297055e-001 -3.48282605e-001 -1.50691822e-001
      3.02860197e-002 -2.37991121e-002 -1.63247183e-001 -1.15743406e-001
      -9.80976298e-002 9.28611457e-002 4.31155026e-001 -1.34391621e-001
      -5.70975542e-002 -2.18460023e-001 -1.39093921e-001
      -2.63368666e-001 -3.23292524e-001 -3.57159048e-001 4.24060643e-001
      3.33411664e-001 -2.69278795e-001 -2.47433960e-001 -6.84364364e-002
      -1.28409058e-001 -2.96430320e-001 -3.58081400e-001
      -4.21720892e-001 1.41720861e-001 1.35371044e-001 -2.30326980e-001
      -6.19443469e-002 7.63404835e-003 7.20732659e-003 -3.64535339e-002
      -6.38970807e-002 -1.98086619e-001 5.41777238e-002 1.98192582e-001
      -1.15770064e-001 -4.17542644e-002 -1.38857262e-003 3.70183438e-002
      -8.67264171e-004 -1.71009377e-001 -3.70376557e-001 1.14692628e-001
      1.79809079e-001 -2.62416810e-001 -6.64095357e-002 1.06107388e-002
      -2.67136358e-002 -7.27999955e-002 -8.51731971e-002
      -3.87074798e-001 1.85352921e-001 1.37761116e-001 -3.40464830e-001
      -8.27622786e-002 3.01900110e-003 5.82715161e-002 -2.03137528e-002
      -9.58515406e-002 -2.03784063e-001 1.34881616e-001</_>
    <_>
      -1.50148496e-001 1.74472004e-001 3.78499359e-001 -8.74150768e-002
      -3.08115661e-001 -1.54289603e-001 -8.66784081e-002
      -1.65817752e-001 -1.12522781e-001 3.10669523e-002 -2.26164624e-001
      2.31446594e-001 1.21606559e-001 4.31818217e-002 1.94803905e-002
      -4.65330593e-002 3.38320173e-002 2.09806398e-001 -5.01952879e-002
      -9.95540544e-002 2.05329359e-001 -1.05349220e-001 -1.47479787e-001
      -4.47851233e-002 4.71436605e-002 9.15869698e-003 2.91507095e-001
      -8.60462636e-002 -3.69838357e-001 -2.29276922e-002 1.19763957e-002
      -3.06475256e-002 9.05244499e-002 2.18377449e-002 3.03861890e-002
      4.40897495e-001 4.36899066e-002 -4.64422792e-001 1.90703943e-001
      1.44983605e-001 1.49679214e-001 5.61954938e-002 7.94174988e-003
      1.05277322e-001 3.26758832e-001 -7.02826008e-002 -6.28932655e-001
      4.08266671e-002 3.66938002e-002 6.48676753e-002 -3.87728214e-003
      1.18591124e-002 4.09106985e-002 2.37694651e-001 7.75851961e-003
      -5.98962128e-001 -1.67356357e-002 1.17950715e-001 1.07579798e-001
      9.77707654e-002 1.14337318e-002 9.25337076e-002 5.70984066e-001
      7.75851961e-003 -6.43942833e-001 -3.07758246e-002 2.29827538e-002
      6.56489953e-002 1.08811436e-002 8.79841112e-003 2.64325794e-002
      3.72352153e-001 -7.41645247e-002 -3.50991189e-001 -2.39817332e-002
      4.38875146e-003 -2.37484835e-002 -9.86090954e-003 -6.03565574e-003
      3.59419398e-002 4.87929806e-002 -1.40155032e-001 -2.70427972e-001
      -3.98778617e-002 -7.11370856e-002 -1.37794897e-001
      -6.17169701e-002 -6.23327307e-002 7.99619872e-003 2.92299315e-002
      5.10233305e-002 -4.03063446e-001 6.99965050e-003 3.09349094e-002
      5.90055250e-002 1.29660675e-002 1.86799187e-003 1.77493356e-002
      2.45917737e-001 -1.77605972e-002 -2.38938034e-001 9.50919837e-003
      6.86149951e-003 8.56073946e-002 8.87570251e-003 -1.89598314e-002
      5.68062849e-002 1.63058743e-001</_>
    <_>
      -2.28095785e-001 -1.22914053e-001 1.35776877e-001 6.03397638e-002
      8.95870775e-002 -1.23546310e-002 -5.30715287e-002 -7.04578087e-002
      -1.15755752e-001 7.16061890e-002 -1.32178679e-001 1.26096174e-001
      1.50292426e-001 1.45342067e-001 2.51979046e-002 -1.23914331e-001
      -1.26755178e-001 -5.89207821e-002 2.00610653e-001 8.06308463e-002
      1.08671486e-001 -6.81173056e-002 1.67110994e-001 -1.04038112e-001
      -3.31261873e-001 -2.77388126e-001 1.64098233e-001 7.78919905e-002
      -2.88215935e-001 -3.74250934e-002 -3.05005647e-002
      -2.02449318e-002 -5.10150976e-002 -2.23595366e-001
      -2.54925489e-001 8.84568691e-002 2.23373175e-001 -1.13780059e-001
      2.59285439e-002 7.93073699e-002 4.67200018e-002 -6.08324371e-002
      -1.64968193e-001 -2.64298469e-001 1.37595370e-001 1.41200840e-001
      -4.83927965e-001 -2.04275474e-001 -1.22350410e-001
      -1.04401540e-002 -1.03194237e-001 -1.54318184e-001
      -2.68866837e-001 2.92577237e-001 2.47558534e-001 -3.40949416e-001
      -9.12061706e-002 -8.50526057e-003 -1.14944451e-001
      -1.16110049e-001 -2.86606193e-001 -2.17024073e-001 2.30448782e-001
      3.24248910e-001 -4.32928056e-001 -2.35305697e-001 -2.14138299e-001
      -2.35951662e-001 -2.62936175e-001 -2.90271252e-001
      -4.68478024e-001 2.25126669e-001 2.05234066e-001 -3.93860996e-001
      -1.49094895e-001 -1.15183033e-001 -2.40921099e-002
      -5.29674217e-002 -6.45861328e-002 -1.59269184e-001 2.02699229e-001
      1.13639608e-001 -7.81702548e-002 -1.14845410e-001 -6.12972341e-002
      5.32499254e-002 -8.45300630e-002 -1.56993389e-001 -2.62434334e-001
      1.62034065e-001 2.32419670e-001 -4.00804639e-001 -1.04463860e-001
      -5.89687414e-002 -5.81391389e-003 -4.58842069e-002
      -4.44740094e-002 -3.64415139e-001 2.81379938e-001 2.05452800e-001
      -3.56976599e-001 -1.55922562e-001 4.91683967e-002 7.55674466e-002
      4.74999862e-004 -3.25860418e-002 -2.49724597e-001 1.99709058e-001</_>
    <_>
      -1.09952383e-001 -1.32851571e-001 6.88717663e-002 1.03204302e-001
      6.68011457e-002 8.57629068e-003 -1.02341838e-001 -5.26184551e-002
      6.54033065e-005 4.39867005e-002 -2.42754579e-001 6.48637637e-002
      2.00763538e-001 2.24867865e-001 8.25805441e-002 -4.47739512e-002
      -3.22861560e-002 -2.04354580e-002 2.97283232e-001 8.15243088e-003
      2.35629156e-002 1.62867177e-002 3.49036269e-002 -3.14517245e-002
      -3.00743818e-001 -2.59380162e-001 2.75713742e-001 2.80031376e-002
      -1.51933223e-001 6.89241365e-002 6.13547824e-002 2.81975362e-002
      2.89300061e-003 -1.65402591e-001 -2.77697295e-001 2.80031376e-002
      1.26516104e-001 -1.02959529e-001 1.45707640e-003 1.11689329e-001
      1.05733052e-001 -6.44724676e-003 -9.30630788e-002 -2.22416088e-001
      8.61564279e-002 3.28102887e-001 -1.23648815e-001 -1.03177369e-001
      -6.63379505e-002 -1.08741835e-001 -1.64179146e-001
      -3.73575807e-001 -3.74539703e-001 2.11001903e-001 1.41583368e-001
      -3.31482917e-001 -2.96962424e-003 7.17164800e-002 4.14050631e-002
      6.04723254e-003 -8.96713659e-002 -2.27728680e-001 1.41583368e-001
      2.47605950e-001 -3.96523207e-001 -1.57514781e-001 -1.09182261e-001
      -2.34299883e-001 -1.81904048e-001 -2.55521357e-001
      -2.99600422e-001 1.87848791e-001 3.02490622e-001 -1.60742208e-001
      -1.44492269e-001 -1.19450882e-001 -8.73316228e-002
      -8.44816789e-002 -2.62577325e-001 -2.48620942e-001 2.68689811e-001
      9.93002579e-002 -2.23207176e-001 -2.31443733e-001 -7.39562362e-002
      7.83768222e-002 -5.09157078e-003 -1.97561994e-001 -2.40053281e-001
      1.07215695e-001 2.68962353e-001 -2.90600479e-001 -1.03106394e-001
      -3.29179801e-002 -1.11726403e-001 -1.06440932e-001
      -1.52695060e-001 -1.90163746e-001 3.57178777e-001 1.13603659e-001
      -3.23985636e-001 -1.99841648e-001 6.95158020e-002 5.69674224e-002
      3.46897799e-003 -1.46411940e-001 -1.83213413e-001 1.79367796e-001</_>
    <_>
      -1.10529855e-001 4.84139007e-003 7.23570585e-002 1.53889805e-002
      8.36378634e-002 4.01659198e-002 -6.34213835e-002 -8.40478316e-002
      -5.32689281e-002 -9.27525014e-002 2.01320186e-001 4.19515036e-002
      -1.58743560e-001 6.89840540e-002 -5.26022278e-002 -5.68308644e-002
      7.65439123e-002 -2.33557541e-002 -1.09294415e-001 -1.50472060e-001
      -1.04236297e-001 -9.54687409e-003 3.01516093e-002 4.92677800e-002
      5.21537140e-002 1.33316219e-001 -4.23542708e-002 -1.68012939e-002
      -9.57143307e-002 -1.89605847e-001 -7.06442669e-002
      -6.79439381e-002 -1.59730352e-002 -6.80645108e-002 5.42712621e-002
      -4.08744514e-002 -1.82166025e-001 3.13582540e-001 1.94793642e-001
      -1.58062488e-001 -1.08358942e-001 -1.95656985e-001
      -2.06038848e-001 -1.32127285e-001 -1.64794371e-001
      -3.51535946e-001 5.16059041e-001 5.24472356e-001 -1.03271395e-001
      -1.12294443e-001 -3.16014767e-001 -2.68218547e-001
      -3.33373249e-001 -3.00801754e-001 -3.22250277e-002 4.06536847e-001
      8.78818184e-002 -6.65658042e-002 -1.29719615e-001 -1.70399189e-001
      -3.05325210e-001 -2.18047932e-001 -1.78381696e-001
      -2.61777729e-001 3.10179263e-001 4.33213651e-001 3.84034552e-002
      -6.27015010e-002 -3.43009204e-001 -4.91761655e-001
      -5.65082192e-001 -4.66872901e-001 7.48386048e-003 4.09756869e-001
      2.11458012e-001 -1.24305993e-001 6.77858144e-002 -2.02851087e-001
      -2.45017454e-001 -2.72881389e-001 -1.14346206e-001 2.98309803e-001
      3.15813929e-001 -9.50699747e-002 -7.77197331e-002 6.22099936e-002
      -1.87065244e-001 -4.25700992e-001 -3.04183662e-001
      -1.85950637e-001 -3.64931822e-001 9.79072377e-002 1.79318488e-001
      1.45879462e-001 1.79910794e-001 -4.09723185e-002 -1.42542630e-001
      -2.05837280e-001 -3.77863973e-001 -2.69728946e-003
      -9.97240841e-002 -2.79372126e-001 2.44531035e-001 3.09029818e-001
      1.45637572e-001 -3.03493217e-002 2.34083198e-002 -1.65567353e-001</_>
    <_>
      1.83090970e-001 -5.84454983e-002 1.38957724e-001 1.37180552e-001
      1.67909086e-001 1.32777035e-001 1.14715315e-001 2.19011635e-001
      1.24744281e-001 3.42986770e-002 -9.40901935e-002 -2.07781509e-001
      -2.23588711e-003 1.41356722e-001 1.30546363e-002 4.12459783e-002
      1.26891539e-001 5.27680442e-002 -3.16782817e-002 -5.54118752e-001
      -1.49654061e-001 6.29018992e-002 -8.53139013e-002 1.80132359e-001
      4.22722489e-001 5.47871351e-001 1.17254093e-001 -1.82240292e-001
      -1.22417539e-001 -1.14620849e-001 -8.70627910e-002
      -3.07246476e-001 -9.82133672e-002 8.84009525e-002 1.54810339e-001
      -1.21106565e-001 -2.99613923e-001 8.73227976e-003 1.35240719e-001
      -1.28585845e-001 -7.17821252e-003 -2.83943452e-002
      -5.88654727e-003 -2.14427449e-002 -1.00374594e-001
      -5.00699580e-001 2.33396009e-001 5.01385331e-001 -1.98118061e-001
      -1.91607386e-001 -1.37058318e-001 -9.83155742e-002
      -1.15296356e-001 -2.79883087e-001 -2.78644651e-001 2.42505908e-001
      2.81797260e-001 -1.79990947e-001 -1.36979401e-001 -8.50383937e-002
      -5.01894802e-002 -6.28005862e-002 -4.92834747e-001
      -4.40272301e-001 1.96386114e-001 4.19046879e-001 -6.76011518e-002
      -8.18367526e-002 -4.85007614e-002 -8.33246633e-002
      -1.28281698e-001 -5.58304667e-001 -4.80072908e-002 4.12192225e-001
      4.02113795e-001 -1.36355400e-001 -1.91811219e-001 -2.45426804e-001
      -1.73035324e-001 -1.42710701e-001 -3.03892434e-001 1.85607374e-001
      2.20135763e-001 -2.69889887e-002 -1.33455426e-001 1.25374794e-001
      -2.06712075e-002 -1.37473017e-001 -1.25802740e-001
      -2.99596399e-001 -3.17126364e-001 2.99603701e-001 1.61631420e-001
      1.91789791e-001 9.15984511e-002 -4.68651839e-002 -3.98676880e-002
      -1.12035796e-001 -3.44712913e-001 -2.55448282e-001 1.55001894e-001
      3.01688556e-002 3.19191575e-001 1.15002923e-001 -5.40493696e-004
      -6.46786094e-002 -3.45986217e-001 -3.23379666e-001</_>
    <_>
      -1.94346055e-001 6.78006113e-002 1.94931835e-001 3.86075675e-002
      -5.88097312e-002 -5.92518337e-002 7.49591831e-003 2.10998431e-002
      -7.27943182e-002 -2.87461318e-002 2.25266844e-001 1.54493868e-001
      -9.78511870e-002 -4.13534418e-002 -1.33361205e-001
      -1.02166235e-001 2.97525022e-002 -1.07877024e-001 -9.23804939e-002
      1.17958887e-004 1.21210709e-001 -5.79091720e-002 -1.14324920e-001
      -7.45124817e-002 2.10544482e-001 2.25865364e-001 4.18385155e-002
      1.13713332e-001 2.49623671e-001 1.84442177e-001 -1.87795445e-001
      -2.31139019e-001 -2.69283354e-001 -4.31375243e-002 1.31606003e-002
      2.19714373e-001 -2.27580387e-002 2.40384981e-001 1.20390803e-001
      -1.00013979e-001 -1.10033147e-001 -1.16833545e-001
      -9.77390036e-002 -1.26898229e-001 -1.18574485e-001
      -6.30617291e-002 3.04202944e-001 2.27684289e-001 -1.59320816e-001
      -2.02261835e-001 -1.47962868e-001 -2.13175252e-001
      -3.07628602e-001 -1.34624317e-001 1.59292296e-001 5.01601577e-001
      3.14269483e-001 -1.35402709e-001 -1.79325551e-001 -2.69139290e-001
      -3.41949373e-001 -1.91021979e-001 -4.02123993e-003
      -6.82403818e-002 1.87834501e-001 2.32219234e-001 -6.09162971e-002
      -9.44081172e-002 -1.62356690e-001 -2.14316800e-001
      -3.96397442e-001 -2.59771109e-001 1.09824501e-001 3.02583784e-001
      2.02809080e-001 -1.35015115e-001 -1.01482250e-001 -1.74841180e-001
      -3.01263899e-001 -2.85628915e-001 -1.10447605e-003 2.33192489e-001
      3.03258508e-001 8.80925134e-002 -1.32143214e-001 7.40909949e-003
      -1.64910227e-001 -2.83903778e-001 -1.77329659e-001 9.41620953e-003
      -1.38276026e-001 9.44615453e-002 1.11659482e-001 3.22814472e-002
      4.11057808e-002 1.89075191e-002 -8.06134418e-002 -1.42727688e-001
      -9.22307521e-002 -6.33694278e-003 -7.74882659e-002
      -1.81941897e-001 4.93522659e-002 1.52853981e-001 1.37949631e-001
      -1.09904660e-002 -4.57149930e-002 -7.08348909e-003</_>
    <_>
      -4.16470394e-002 -7.70172244e-003 -1.08713144e-002 3.59797059e-003
      5.00083342e-002 -2.79843789e-002 -1.35172007e-003 4.36964035e-002
      -3.15865339e-003 -6.65056258e-002 8.42576623e-002 7.44522586e-002
      -1.38965532e-001 2.18091644e-002 -1.20271266e-001 1.09802280e-002
      9.69040394e-002 -6.66154101e-002 2.03761086e-002 7.49814278e-003
      -2.41718199e-002 4.52425852e-002 2.37291530e-002 -4.02053148e-002
      3.08932853e-003 -6.88002780e-002 8.97437856e-002 1.16913617e-001
      1.63892567e-001 7.50311911e-002 -2.56803304e-001 -1.98964939e-001
      -2.29083255e-001 -1.79938357e-002 -7.55055770e-002 2.49155685e-001
      -1.54197499e-001 8.64059776e-002 1.48010150e-001 -1.29525423e-001
      -6.92275241e-002 -1.49604246e-001 -3.47584747e-002 8.02840665e-003
      -1.61462128e-001 -3.06985170e-001 2.10328162e-001 3.64580780e-001
      -2.72534601e-002 -4.66394573e-002 -1.19207136e-001
      -1.13820516e-001 -2.35726282e-001 -3.43018413e-001 1.41316310e-001
      4.67016786e-001 2.48587459e-001 -2.52364010e-001 -1.63755670e-001
      -3.42334658e-001 -3.18576723e-001 -2.79187858e-001 2.75699645e-002
      -1.51224494e-001 2.41304755e-001 3.02778810e-001 -2.36969329e-002
      1.54719958e-002 -2.52052128e-001 -2.88668096e-001 -4.00670081e-001
      -3.68727356e-001 -7.29111731e-002 3.01803827e-001 3.74217391e-001
      4.92372876e-003 5.14875874e-002 -5.74840195e-002 -2.33416334e-001
      -3.00672263e-001 -2.19437584e-001 2.08662972e-001 2.88023144e-001
      1.57260165e-001 1.77059993e-002 9.65510309e-002 -5.96619993e-002
      -2.96921253e-001 -2.56810933e-001 -7.74736032e-002
      -2.97905117e-001 1.08334936e-001 1.79424077e-001 9.21486095e-002
      1.29213691e-001 2.29472388e-003 -6.93356842e-002 -2.40813658e-001
      -2.37727985e-001 -8.30881596e-002 -7.49703348e-002
      -5.16781807e-002 8.35940689e-002 1.40273467e-001 5.28508276e-002
      -3.73314135e-002 -1.34265736e-001 -8.28854591e-002</_>
    <_>
      1.91332534e-001 3.82627994e-001 2.99915880e-001 -1.48846790e-001
      -4.13257837e-001 -1.57557711e-001 8.56151506e-002 3.66350599e-002
      4.61401753e-002 2.75984742e-002 -1.12320140e-001 -1.73226595e-001
      -6.25993609e-002 8.17020889e-004 2.85352338e-002 1.19409606e-001
      1.14403091e-001 7.19773173e-002 -1.01564363e-001 -2.17205226e-001
      -1.93098858e-002 6.17778115e-002 -2.71002740e-001 -2.55030654e-002
      3.92742515e-001 3.72719109e-001 1.43939912e-001 -8.25979039e-002
      -1.31629407e-001 -4.11285847e-001 -3.66612850e-003 4.35675792e-002
      2.78276056e-002 2.40387037e-001 2.30457276e-001 3.41804057e-001
      -3.42850566e-001 -1.65432438e-001 -3.47311012e-002 6.76784441e-002
      6.06809258e-002 6.09058589e-002 3.00912615e-002 5.70539273e-002
      1.04237348e-002 -5.93922555e-001 6.78452551e-002 5.35983145e-001
      3.99320424e-002 -3.25613492e-003 2.37382669e-002 9.95878223e-003
      -1.58945809e-003 -8.73183459e-002 -6.97141662e-002 6.78452551e-002
      1.05553214e-003 -9.54579189e-003 1.81298219e-002 2.87736347e-003
      2.16862094e-002 2.48559024e-002 1.20814778e-001 -4.68103439e-001
      7.48948008e-002 5.67519128e-001 -3.07024620e-003 5.00251837e-002
      4.67689633e-002 -1.42052649e-002 -4.71585803e-002 -1.30076066e-001
      -3.06287438e-001 5.11693070e-003 3.94431114e-001 1.27902748e-002
      2.72589549e-002 1.79423820e-002 9.26087704e-003 3.15877562e-003
      -1.57516196e-001 -1.57476649e-001 -6.64036721e-002
      -8.27386230e-002 -1.12335853e-001 8.75632912e-002 7.12269694e-002
      -1.30849620e-002 8.83202702e-002 -1.31397560e-001 -4.21526015e-001
      1.82752740e-002 3.90766293e-001 2.12170184e-001 2.31560111e-001
      1.89221054e-001 5.89613169e-002 -6.42477497e-002 -2.32946768e-001
      -4.28514183e-001 -3.57638337e-002 4.25285613e-003 3.41953427e-001
      3.22718382e-001 2.68948764e-001 5.28159402e-002 -3.38743851e-002
      -1.10313959e-001</_>
    <_>
      -3.32052298e-002 -2.04507913e-003 7.65707418e-002 8.07714015e-002
      -6.35560378e-002 -3.79314162e-002 1.29536875e-002 -3.25509608e-002
      3.13816150e-003 3.42959240e-002 1.99700698e-001 1.50930136e-001
      -6.75895587e-002 -2.85145137e-002 -1.44018903e-001
      -1.85473904e-001 -2.18906328e-001 -1.36444345e-001 4.81679551e-002
      -6.51165992e-002 -2.07296666e-002 3.60514261e-002 -2.51013208e-002
      -3.73672768e-002 6.56867251e-002 5.34565747e-003 3.56037319e-002
      -7.21312612e-002 2.29987223e-003 -7.96377137e-002 -5.79950251e-002
      -1.46854997e-001 -1.12328641e-001 1.66585632e-002 -4.07019854e-002
      1.02737635e-001 -5.52346893e-002 4.23122525e-001 2.86746383e-001
      -2.07629740e-001 -1.70590267e-001 -2.27400959e-001
      -2.97765791e-001 -2.40102440e-001 -2.22819239e-001
      -2.79761970e-001 3.76034975e-001 3.71882796e-001 -1.62760615e-001
      -1.56053990e-001 -2.05256715e-001 -4.06402707e-001
      -4.27871138e-001 -3.19575667e-001 -7.80783445e-002 4.58054692e-001
      2.08097890e-001 -1.62077636e-001 -2.66603023e-001 -2.73491949e-001
      -4.01336610e-001 -2.86941051e-001 -9.77541283e-002
      -1.64767742e-001 3.97859693e-001 4.14690048e-001 -5.73230982e-002
      -1.59287274e-001 -3.17135304e-001 -5.49600184e-001
      -5.62166333e-001 -4.54448849e-001 -1.34864554e-001 3.70634943e-001
      3.43520403e-001 1.88175756e-002 1.47766154e-002 -1.19362473e-001
      -3.92471403e-001 -2.89085478e-001 -2.29293644e-001 2.00364798e-001
      4.14015651e-001 2.41473272e-001 -4.01435979e-002 2.77290922e-002
      -2.16184422e-001 -4.77085233e-001 -2.75422633e-001
      -1.37265369e-001 -2.82676429e-001 3.41962911e-002 2.18010813e-001
      1.05078548e-001 7.22280070e-002 6.68591708e-002 -1.09727189e-001
      -2.75035203e-001 -2.72929072e-001 -6.92080483e-002
      -7.41412267e-002 -2.29488716e-001 1.97743997e-001 1.40441000e-001
      1.53842852e-001 6.84679225e-002 -5.10845482e-002 -6.91724718e-002</_>
    <_>
      -2.21226290e-002 5.29684611e-002 2.33622491e-002 2.81412266e-002
      -2.83883885e-002 -4.86518517e-002 -9.32146013e-002
      -5.79872504e-002 1.95989050e-002 -8.72649774e-002 2.01327670e-002
      2.19824359e-001 -1.95987299e-002 5.58200888e-002 -5.88543117e-002
      -7.11552650e-002 -1.92050084e-001 -1.18053891e-001 5.60967810e-002
      -1.42946781e-003 3.93607281e-002 5.49531318e-002 -1.83064528e-002
      -1.67059172e-002 5.96345053e-004 1.63634196e-002 8.41833279e-002
      7.95739982e-003 7.06525519e-002 2.06750676e-001 3.30272280e-002
      -2.09859945e-002 -6.61373287e-002 -2.24842429e-002
      -8.78133699e-002 -9.44396853e-003 -8.56835991e-002 2.79126048e-001
      3.62334043e-001 -3.07958722e-002 -8.35907012e-002 -1.48489460e-001
      -2.52250105e-001 -3.62461358e-001 -2.65630186e-001
      -1.92968938e-002 5.32145560e-001 4.18343067e-001 -2.43860573e-001
      -3.30042094e-001 -4.36704338e-001 -5.63214839e-001
      -4.52320218e-001 -1.80948853e-001 -5.09190299e-002 2.58525282e-001
      2.74872571e-001 -3.90912816e-002 -7.70467296e-002 -1.13468044e-001
      -1.29417345e-001 -1.66115254e-001 -7.69815296e-002
      -1.69391289e-001 2.26699069e-001 3.34269017e-001 -1.89892635e-001
      -1.81774810e-001 -2.64504701e-001 -2.64340252e-001
      -2.67157137e-001 -3.43238205e-001 1.09952405e-001 3.61917585e-001
      3.17818284e-001 -1.63804740e-001 -1.94243371e-001 -2.97228754e-001
      -5.39257050e-001 -3.61689359e-001 -3.24248187e-002 3.81301761e-001
      2.45351389e-001 2.48566526e-003 2.02173344e-003 -4.41283807e-002
      -2.22428292e-001 -4.92270291e-001 -3.13140720e-001 1.31327659e-003
      -2.73975462e-001 -1.67788919e-002 9.62014720e-002 3.57343256e-002
      -4.53599580e-002 3.89814191e-002 -5.16461805e-002 -1.18431747e-001
      -1.98193416e-001 -4.69111577e-002 -2.30252907e-001
      -2.34097391e-001 2.52108425e-001 1.92794368e-001 2.15004981e-001
      1.69581071e-001 9.52197313e-002 1.19229546e-003</_>
    <_>
      1.83693722e-001 -2.71116048e-001 -2.81472445e-001 3.23197097e-001
      1.98479116e-001 2.63052016e-001 1.96066529e-001 2.35950112e-001
      1.93341061e-001 -3.02108849e-004 -2.97517031e-001 -2.02377215e-001
      4.05225843e-001 -1.96469784e-001 1.50388509e-001 3.43400210e-001
      2.83656746e-001 3.29017006e-002 -3.45608175e-001 -3.73443067e-001
      -3.67574215e-001 1.24539450e-001 2.25548074e-001 3.61985415e-001
      5.19338429e-001 7.08659887e-001 -3.35519701e-001 -1.98869765e-001
      1.76529527e-001 4.17082250e-001 1.39580250e-001 -2.57211924e-001
      -6.39630947e-003 3.97342980e-001 5.09830058e-001 -2.29605317e-001
      -2.62552410e-001 -4.57243085e-001 -2.03393370e-001 1.19763734e-002
      -1.00696214e-001 2.74346232e-001 3.24487895e-001 2.14523971e-001
      4.32098359e-002 -1.27353057e-001 -6.63221121e-001 -2.58760124e-001
      -6.04520619e-001 -3.73690903e-001 3.07835102e-001 3.80622953e-001
      3.13476563e-001 1.49941191e-001 -2.30471164e-001 1.41372144e-001
      4.14410025e-001 -8.70905817e-002 -2.17726384e-003 3.46843541e-001
      3.09896559e-001 2.30066597e-001 -2.24371731e-001 -2.47905582e-001
      -2.29839072e-001 -2.41987705e-002 -3.26841414e-001
      -4.00547646e-002 5.37893534e-001 4.31057036e-001 4.06409293e-001
      -1.45806028e-002 -1.48830190e-001 -1.69964284e-002 9.67265964e-002
      -4.18986589e-001 -4.81148094e-001 -7.89550692e-002 1.84045702e-001
      3.15572917e-001 -3.49809200e-001 -2.05672294e-001 5.48286512e-002
      2.29034677e-001 -8.55491981e-002 -2.18777925e-001 7.65060401e-003
      7.42936194e-001 5.56713879e-001 -1.39601201e-001 -8.78086761e-002
      -5.90283461e-002 -2.37897426e-001 -1.88737318e-001
      -4.54245150e-001 4.74426523e-002 -3.36177163e-002 5.70739955e-002
      -2.08688319e-001 -3.68250906e-002 3.35664839e-001 4.08675432e-001
      -1.35361195e-001 -9.27899033e-002 -4.94629264e-001
      -1.02725916e-001 -2.26379320e-001 -2.55315244e-001</_>
    <_>
      -7.45871842e-001 -2.50712156e-001 5.29569089e-001 1.73242345e-001
      -3.08041632e-001 1.12908985e-002 2.42103875e-001 2.44416669e-001
      -8.22968706e-002 -3.00364584e-001 7.13937636e-003 6.90355957e-001
      1.48385927e-001 -9.22376961e-002 -3.65094878e-002 -1.37583271e-001
      3.82535323e-003 -4.22731757e-001 -8.96381866e-003 1.84727624e-001
      1.52289420e-001 -6.16255522e-001 -6.71180069e-001 -4.02669311e-001
      5.67945063e-001 7.15653896e-001 4.80701119e-001 6.56445920e-001
      7.57575870e-001 7.09271431e-001 -3.55911285e-001 -7.83156276e-001
      -7.33716130e-001 -3.98900211e-001 2.55689099e-002 8.21062207e-001
      -6.73891744e-003 4.44647707e-002 -1.23205937e-001 -1.26066059e-001
      -7.33333007e-002 1.03252798e-001 -1.63572747e-002 6.86913170e-003
      -1.58378452e-001 1.68754950e-001 -3.13882560e-001 -3.62789243e-001
      -3.79540086e-001 -3.40991877e-002 1.13056535e-002 1.20217621e-001
      4.65273447e-002 3.50123062e-003 6.32428646e-001 4.80069250e-001
      6.67986155e-001 7.22441748e-002 -8.90175477e-002 3.98013070e-002
      -4.70639706e-001 -3.78300607e-001 2.91899741e-001 -7.88926333e-002
      -3.17695886e-001 2.84026861e-002 5.10638356e-002 3.33747238e-001
      4.43614721e-001 -7.25085884e-002 -1.27731130e-001 -5.41291684e-002
      1.33756369e-001 -1.50828406e-001 -9.05659050e-002 -1.06610321e-001
      -2.18841862e-002 9.95551469e-004 1.03354633e-001 -1.99873701e-001
      -8.98339823e-002 6.96163699e-002 8.16085562e-002 9.28710699e-002
      -1.70992881e-001 3.40601206e-002 1.17394608e-002 -4.62554879e-002
      -2.66801745e-001 -4.58688140e-002 -1.37465850e-001
      -3.41418654e-001 -1.16378911e-001 3.23856324e-001 2.38923222e-001
      3.17362309e-001 -8.89694169e-002 1.03254914e-001 6.44289553e-002
      -4.88028675e-002 -3.23641390e-001 -4.71275561e-002 9.57286954e-002
      1.76851243e-001 4.71218750e-002 -1.19736485e-001 -2.05992296e-001
      1.11709371e-001</_>
    <_>
      -7.04362541e-002 -4.78082478e-001 -1.79346725e-001 2.59245217e-001
      1.63306102e-001 8.78895372e-002 2.56712437e-001 3.94590557e-001
      2.49014139e-001 -2.49462634e-001 -2.98092812e-001 4.23936576e-001
      -1.05363727e-001 2.98392177e-001 -5.02561554e-002 1.20850757e-001
      4.19649273e-001 1.72642708e-001 2.14909941e-001 1.45130139e-002
      -1.66433796e-001 -2.64007479e-001 -3.28408241e-001
      -5.26717119e-002 -3.80811542e-001 -1.44111574e-001 3.66971374e-001
      8.72712970e-001 4.68634307e-001 6.01217985e-001 -5.89969754e-001
      -6.56370401e-001 -9.70252633e-001 -5.96519232e-001
      -1.21555358e-001 9.24898386e-001 -1.79665312e-001 -2.67321169e-001
      2.21491262e-001 -1.67436376e-001 1.32842675e-001 -3.93440239e-002
      1.47462949e-001 2.72941619e-001 -5.40174730e-002 -5.88519990e-001
      -8.85355473e-001 -1.12714864e-001 2.12069944e-001 3.53566825e-001
      3.80833954e-001 4.35625225e-001 8.16563964e-002 -6.36525691e-001
      6.50681376e-001 6.55220151e-001 8.00130785e-001 -2.59074897e-001
      -1.18093580e-001 -4.17344838e-001 -8.87672484e-001
      -7.41202056e-001 7.02143252e-001 -8.59070793e-002 -1.78726479e-001
      1.37473136e-001 2.70698041e-001 5.51306605e-001 4.02199298e-001
      -6.14737794e-002 -8.53201225e-002 -5.05204320e-001
      -2.98687190e-001 -3.44823956e-001 1.84561908e-001 2.88771302e-001
      3.07676405e-001 3.03794771e-001 2.62385070e-001 -1.24623850e-001
      -7.16091692e-001 1.84384122e-001 2.61474639e-001 2.53580689e-001
      3.12813409e-002 1.30834490e-001 4.43818793e-002 -2.61139777e-003
      -1.71534672e-001 -7.28761628e-002 -3.19900095e-001
      -4.37414378e-001 -1.48550034e-001 2.02329144e-001 1.87663183e-001
      1.94165245e-001 3.52738239e-002 3.66080669e-003 -1.63779899e-001
      -2.20879391e-001 1.16766922e-001 3.22683603e-002 2.08391845e-002
      7.44586959e-002 -1.27784476e-001 2.31167927e-001 1.34526519e-002
      1.14560472e-002</_>
    <_>
      -1.38930166e-002 1.56797379e-001 1.61891907e-001 -1.27590165e-001
      -2.78080702e-001 -5.20590954e-002 1.64791837e-001 7.30974823e-002
      -8.68613087e-003 1.01963632e-001 -9.18363929e-002 1.10001698e-001
      1.92574691e-002 -8.67568403e-002 -7.50914663e-002 1.43958271e-001
      1.80546030e-001 2.29623809e-001 -1.97192922e-001 -2.27311566e-001
      -1.08473569e-001 -1.58460319e-001 -3.38768512e-001 2.97959335e-002
      2.81123996e-001 2.94166446e-001 1.07386865e-001 -1.17079534e-001
      -2.33142719e-001 -1.87072247e-001 -1.20435543e-002
      -6.20187744e-002 -5.41386846e-003 2.30831534e-001 3.29647720e-001
      3.22666228e-001 -1.65368523e-002 -1.76048100e-001 2.21539944e-001
      9.95788202e-002 7.38446265e-002 5.65343089e-002 1.33016303e-001
      1.56757116e-001 2.40624830e-001 -2.52376825e-001 -4.46440130e-001
      1.35413602e-001 8.40021074e-002 6.71368986e-002 2.22577140e-001
      3.03274959e-001 3.10861379e-001 1.20639473e-001 -1.28126010e-001
      -2.69231677e-001 1.29010007e-002 5.24649285e-002 6.81058690e-002
      8.54985788e-002 1.19655579e-001 2.28780195e-001 3.62727642e-001
      -2.36066416e-001 -3.88155967e-001 4.39738333e-002 9.08571947e-003
      1.31177127e-001 2.83013850e-001 3.05257440e-001 4.61328417e-001
      1.90714881e-001 -3.19003791e-001 -2.61745155e-001 1.22365646e-001
      7.76375607e-002 2.24922225e-002 1.24092460e-001 1.84025869e-001
      2.93965936e-001 -4.86574359e-002 -2.91041791e-001 2.49231071e-003
      2.06450135e-001 -6.16974644e-002 -8.41214061e-002 -1.08052976e-003
      2.38360465e-001 2.09303066e-001 -4.54961024e-002 -1.93492115e-001
      -2.80460149e-001 2.99154483e-002 2.49670679e-003 2.97932606e-002
      1.70923874e-001 1.83658913e-001 3.74552101e-001 8.58040601e-002
      -2.37074137e-001 1.66668251e-001 1.96566269e-001 -6.27615973e-002
      -2.23742761e-002 5.03783710e-002 1.48242578e-001 1.13299213e-001
      2.27960534e-002</_>
    <_>
      -5.16405761e-001 -6.44516721e-002 -1.04937758e-002 2.75094062e-001
      -1.60034537e-001 -2.55287826e-001 6.13198757e-001 4.02456522e-001
      -4.09876019e-001 -1.52389854e-001 6.11609161e-001 1.26956034e+000
      6.68616474e-001 -7.42977932e-002 -7.94093072e-001 -5.72014749e-001
      -1.25105941e+000 -1.47571504e+000 -1.49531662e-002
      -6.53554350e-002 1.79660246e-001 -1.20309092e-001 -2.93972250e-002
      -2.92096794e-001 2.45211441e-002 -4.10397947e-001 1.58513874e-001
      -4.55428697e-002 -2.31902763e-001 6.06815994e-001 4.92523164e-002
      -3.09565902e-001 -4.67922449e-001 -1.02518611e-001
      -1.76036119e-001 3.99291292e-002 6.28687561e-001 5.27375758e-001
      4.39537913e-001 -2.93259621e-001 -4.28697735e-001 -2.15865791e-001
      -4.65845704e-001 -8.03921402e-001 -1.95375860e-001
      -3.31966311e-001 -2.09347034e+000 -1.55178964e+000
      -8.34950984e-001 -2.39061132e-001 9.11088645e-001 5.68109453e-001
      3.03380787e-001 2.94391382e-002 4.07975942e-001 8.23503882e-002
      6.64039254e-001 -2.58208036e-001 -3.57859582e-001 1.18392050e-001
      -1.47779703e-001 -2.65968770e-001 2.05241412e-001 2.24145338e-001
      -3.54324758e-001 -6.52298331e-001 -4.57353950e-001 1.70888379e-001
      6.87880039e-001 -1.91472217e-001 1.75889537e-001 -1.57045871e-001
      -5.20316839e-001 -9.87185955e-001 -2.95675218e-001
      -7.81926140e-002 -1.00158580e-001 3.32266629e-001 3.71806324e-001
      2.62462527e-001 -7.67898738e-001 2.51345128e-001 6.08364642e-001
      9.34483707e-001 -1.16457753e-001 -1.67522222e-001 -2.57195979e-001
      4.60790843e-002 1.47787482e-002 -1.60281599e-001 -4.12039496e-002
      -4.81470674e-001 -1.93349376e-001 -1.99468151e-001 1.11101925e-001
      4.53848094e-001 -1.71973452e-001 -1.15083031e-001 6.98202197e-003
      -2.57118165e-001 5.02260625e-001 -1.45939281e-002 -6.38132319e-002
      -2.85962343e-001 5.23702167e-002 4.48321402e-001 -3.84755582e-002
      8.97630528e-002</_>
    <_>
      -2.05503657e-001 -1.76079661e-001 -5.72352856e-002
      -5.34779727e-002 -5.47177009e-002 4.50070985e-002 3.27428877e-001
      5.59496939e-001 1.11044414e-001 -3.34948182e-001 -1.19701780e-001
      9.28805709e-001 9.02851045e-001 4.40817863e-001 2.36745715e-001
      1.62246808e-001 -3.77619177e-001 -7.43332684e-001 3.92252713e-001
      1.32995009e-001 8.11501816e-002 -5.27366921e-002 -1.88873768e-001
      -2.93591797e-001 -2.61983782e-001 -4.46452536e-002 4.26192194e-001
      1.91183048e-004 4.69984263e-001 1.10958302e+000 6.66883826e-001
      1.22289762e-001 8.35989788e-002 -2.28500634e-001 -5.53882957e-001
      -3.99807215e-001 1.50025845e-001 2.45303750e-001 8.96229267e-001
      5.10563374e-001 2.69191325e-001 2.33257025e-001 -3.02001923e-001
      -1.14448369e+000 -6.07039690e-001 8.78284514e-001 1.52419671e-001
      1.78199373e-002 -4.12912220e-001 -4.17387009e-001 -3.33803326e-001
      -4.58412439e-001 -3.15819979e-001 3.13209504e-001 -2.31189504e-001
      -2.96711087e-001 6.43222570e-001 2.85530478e-001 2.95993656e-001
      5.18100739e-001 5.12459695e-001 -2.03712165e-001 -1.18687175e-001
      6.39946610e-002 -5.01328349e-001 -4.67705309e-001 -7.06738472e-001
      -6.12733245e-001 -1.04387272e-002 4.75647718e-001 9.52113271e-001
      4.44313645e-001 3.19501072e-001 -6.09030984e-002 -9.13937911e-002
      -3.62025738e-001 -3.91845375e-001 -1.81492180e-001
      -3.61740559e-001 1.45924017e-001 4.03594673e-001 1.38405144e-001
      -3.35416906e-002 -1.03496782e-001 -7.64383525e-002 7.05877505e-003
      2.92549014e-001 -5.77306822e-002 -3.36326301e-001 2.24689930e-003
      9.63869877e-003 -4.68385994e-001 -4.10832644e-001 -2.43146643e-001
      -5.35475552e-001 -1.03239045e-001 2.87136696e-002 5.61402559e-001
      6.95225716e-001 -1.61809072e-001 -5.30435145e-001 -1.63403109e-001
      9.96533856e-002 -1.39647052e-001 1.09166667e-001 -1.53727293e-001
      -3.73646379e-001 1.41132325e-001</_>
    <_>
      -3.03821266e-001 1.41713649e-001 2.78697759e-001 -7.88735524e-002
      -1.60650641e-001 -5.07205129e-002 -2.35100553e-004 3.91325069e-004
      -6.62873536e-002 -9.04533193e-002 2.92372048e-001 4.02226597e-001
      -7.24379644e-002 8.08696821e-002 -7.22017139e-002 -1.50374427e-001
      -8.72984007e-002 -1.95606261e-001 1.96233571e-001 2.76643217e-001
      8.11821893e-002 -2.96403855e-001 -3.91786218e-001 -3.24833244e-001
      -8.50924924e-002 8.69636461e-002 4.40827042e-001 2.92712092e-001
      2.19993353e-001 7.42165148e-002 -3.60681146e-001 -2.36721218e-001
      -3.94576877e-001 -4.04276937e-001 -1.38181075e-001 3.64227176e-001
      8.61415416e-002 3.76453996e-001 1.97220296e-001 -2.16165427e-002
      2.89577967e-003 -1.04485244e-001 -1.01723462e-001 -1.11917980e-001
      -8.31176639e-002 1.49661377e-001 1.42465785e-001 -9.75194648e-002
      8.95257965e-002 3.62181701e-002 -2.92633381e-002 -7.01298341e-002
      -1.52748227e-001 -2.85683461e-002 4.34935659e-001 2.53091156e-001
      2.79525984e-002 -1.69095635e-001 -2.01583996e-001 -3.23655516e-001
      -4.23050195e-001 -2.12592691e-001 3.25145155e-001 2.43597373e-001
      -7.47870142e-003 -6.07396215e-002 -1.28000667e-002
      -5.73025756e-002 -1.20251209e-001 -1.70412168e-001
      -2.14627638e-001 1.62295565e-001 1.26636162e-001 -8.69074613e-002
      -1.17331289e-001 9.13576558e-002 1.86189845e-001 1.20365638e-002
      -8.60966444e-002 -1.82433411e-001 2.10714325e-001 1.29909605e-001
      4.49465252e-002 -6.33717701e-002 2.05320735e-002 1.30696103e-001
      -6.07601590e-002 -2.70288587e-001 -2.85182267e-001 1.14692248e-001
      8.38716030e-002 -8.50481763e-002 7.12243764e-006 3.77800502e-002
      1.53730780e-001 1.17722452e-001 1.48689672e-002 -5.02441600e-002
      1.57603487e-001 9.16806385e-002 -1.95542797e-001 -1.60720959e-001
      1.15605155e-002 6.51161894e-002 2.04156041e-001 -1.60819292e-002
      1.34429066e-002 2.14160427e-001</_>
    <_>
      -5.29252328e-002 1.33938029e-001 -4.95034009e-002 -1.13660976e-001
      -1.15315095e-001 -6.01169430e-002 -3.79689746e-002 1.43909443e-003
      3.74921970e-002 -1.49293572e-001 1.20417826e-001 3.50523114e-001
      -1.80846512e-001 8.97941291e-002 -9.21001509e-002 -1.20513625e-001
      -2.92930081e-002 6.95346296e-003 4.03589606e-001 3.37219894e-001
      -9.16352421e-002 -2.01313823e-001 -2.00011879e-001
      -2.87627339e-001 -4.91495609e-001 -3.51829976e-001 4.37821746e-001
      4.32894677e-001 8.28604996e-002 7.49123516e-004 -4.22456324e-001
      -1.48629665e-001 -3.68842632e-001 -4.12393659e-001
      -4.14204299e-001 4.44866538e-001 6.28072210e-003 2.43698493e-001
      2.59583682e-001 -7.82094151e-002 1.27253849e-002 -1.41289830e-001
      -7.68727735e-002 -1.40558202e-002 -7.69400522e-002
      -3.24707553e-002 1.02264039e-001 4.86475006e-002 2.68206567e-001
      2.40835562e-001 6.63507590e-003 -2.59612538e-002 -1.48458868e-001
      -2.11892992e-001 4.13539141e-001 1.92853019e-001 -1.44725405e-002
      -2.82947868e-001 -1.68637678e-001 -3.50550860e-001
      -4.46894407e-001 -4.23408777e-001 3.66121501e-001 1.71649262e-001
      6.43925890e-002 -6.40910864e-002 5.67325577e-002 7.66485035e-002
      -1.75509155e-001 -1.92386284e-001 -3.08143258e-001 3.73634277e-003
      -9.03767124e-002 -8.65923837e-002 6.57396764e-002 2.66297638e-001
      4.43504155e-001 1.34547949e-001 -2.02121940e-002 -2.04495192e-001
      -6.62212744e-002 1.00459166e-001 1.83269270e-002 5.67143746e-002
      2.05503806e-001 2.20357388e-001 -1.54210627e-002 -1.88140437e-001
      -3.39904517e-001 5.67126460e-002 -4.92114900e-003 -8.74118656e-002
      7.59992227e-002 2.61052847e-002 1.91428661e-001 9.11085904e-002
      6.83569908e-002 -1.28505111e-001 9.44984183e-002 3.04990988e-002
      -1.29579678e-001 -7.24248663e-002 -3.72068286e-002 4.02500890e-002
      1.09430768e-001 1.00000165e-001 2.23208070e-002 2.03630507e-001</_>
    <_>
      1.42472116e-002 4.59622741e-001 2.73051504e-002 -4.11448151e-001
      -7.01533198e-001 -2.07294911e-001 -1.66707143e-001
      -2.03889802e-001 -1.09203815e-001 7.73443952e-002 -3.30562703e-002
      2.66059428e-001 -1.52162254e-001 1.09861689e-002 -2.10396294e-002
      -1.02648385e-001 -8.45287368e-002 4.23727073e-002 1.40933236e-002
      8.75179693e-002 -1.42948106e-001 -1.80455580e-001 -4.79335397e-001
      -9.13156122e-002 1.08537618e-002 -7.64478147e-002 3.30018938e-001
      1.03320017e-001 -9.76128206e-002 -3.33339840e-001 -3.49331833e-002
      3.06718081e-001 1.03100009e-001 4.61574420e-002 -2.38944078e-003
      5.68033576e-001 -1.66115254e-001 -1.25266701e-001 3.85451615e-001
      3.54462638e-002 9.15925503e-002 9.14358161e-003 -9.72639769e-003
      1.73497275e-002 1.88381914e-002 -1.28407642e-001 -1.25266701e-001
      3.90316635e-001 1.62814379e-001 1.37007788e-001 2.18320973e-002
      1.25897005e-001 1.02976359e-001 6.86027436e-003 8.10024813e-002
      -4.27302986e-001 3.42190824e-002 7.17618987e-002 1.67843834e-001
      5.52340746e-002 3.00902966e-002 6.27911389e-002 5.12224674e-001
      -1.02945343e-001 -2.89511561e-001 3.67489010e-001 1.63586035e-001
      1.80220023e-001 8.74430016e-002 1.34131268e-001 1.95260838e-001
      3.05331141e-001 -2.88856208e-001 -2.62886822e-001 1.22052208e-001
      2.27966949e-001 4.72391069e-001 1.52063653e-001 2.08841756e-001
      2.00500205e-001 -1.14831500e-001 -7.01773286e-001 -4.02956456e-001
      -1.11457989e-001 1.20909428e-002 2.76050478e-001 1.76893130e-001
      2.19459310e-001 1.48107305e-001 -1.32947981e-001 -2.75472999e-001
      -1.86317265e-001 3.49687725e-001 1.89574555e-001 3.78104061e-001
      2.59649515e-001 1.62831247e-001 1.18147455e-001 -1.04447678e-001
      -3.25525731e-001 -2.98683625e-002 7.41667897e-002 -3.25049646e-002
      3.22246224e-001 3.35996479e-001 2.53677130e-001 3.23527664e-001
      2.78548628e-001</_>
    <_>
      -2.34215289e-001 3.52186680e-001 1.32964775e-001 -1.96814492e-001
      -1.65048763e-001 -1.63289025e-001 -1.73233658e-001
      -2.10440442e-001 -1.85389951e-001 -6.34662509e-002 3.89542788e-001
      6.29191041e-001 -1.09467931e-001 7.56952912e-002 -1.31960750e-001
      -3.90953869e-001 -5.12138963e-001 -2.88960546e-001 3.48212659e-001
      4.91248548e-001 8.40967447e-002 -2.07107887e-001 1.74837019e-002
      -3.90671283e-001 -6.41175330e-001 -5.15791178e-001 4.41942126e-001
      1.98560581e-001 -1.31838575e-001 -1.55644909e-001 -1.65827513e-001
      3.62309925e-002 -1.21469602e-001 -5.01911461e-001 -5.70560277e-001
      2.30377406e-001 2.50106931e-001 5.73113501e-001 3.67264301e-001
      3.76615743e-003 -4.04680967e-002 -1.63337454e-001 -3.32012594e-001
      -5.03540933e-001 -6.97182268e-002 1.53426602e-002 1.39371185e-002
      -5.75339235e-002 2.20174372e-001 2.83343852e-001 5.42440712e-002
      -1.24988288e-001 -3.35286409e-001 -7.21356720e-002 2.90328741e-001
      5.98350400e-003 -1.33102953e-001 -6.82609603e-002 -2.33103111e-001
      -2.27951244e-001 -4.44649339e-001 -3.54956537e-001 2.30197325e-001
      2.53761530e-001 1.15387617e-002 -5.51714376e-002 -1.47298500e-001
      -1.28229693e-001 -1.83496520e-001 -2.24001005e-001
      -3.63961875e-001 1.41135111e-001 -1.00305870e-001 -3.37087870e-001
      -1.04298413e-001 1.76301613e-001 4.90102261e-001 1.32435083e-001
      -3.58710140e-002 -1.37707442e-001 9.32602510e-002 8.27793330e-002
      9.76027995e-002 6.27395976e-003 1.24447428e-001 1.70395792e-001
      -5.93705438e-002 -2.33126730e-001 -2.51413673e-001 1.59721434e-001
      9.38507542e-002 -1.85006201e-001 8.55883211e-002 -1.48249969e-001
      2.35270217e-001 1.70801029e-001 9.90200415e-002 -9.85639021e-002
      2.17579633e-001 1.89910546e-001 -1.98598668e-001 -1.68711409e-001
      -1.33776609e-002 -4.26908657e-002 3.20749372e-001 2.29488611e-001
      1.34813368e-001 3.29486459e-001</_>
    <_>
      -7.98998699e-002 2.05449313e-001 9.07211155e-002 -6.17919378e-002
      -5.18614724e-002 -9.96761918e-002 -1.84482858e-001
      -1.45905375e-001 -4.12513874e-002 -9.96942967e-002 1.18000366e-001
      6.01201832e-001 8.65895301e-002 3.29739153e-001 2.47316509e-002
      -1.75239816e-001 -3.72109681e-001 -3.43861550e-001 4.58079100e-001
      3.21761429e-001 -2.63102651e-002 -1.39529869e-001 -8.37010518e-002
      -2.30182901e-001 -5.48283696e-001 -4.52083319e-001 5.19787788e-001
      5.50228655e-002 -7.95795768e-002 1.65082365e-001 2.21438669e-002
      2.51486808e-001 1.33416941e-002 -2.97059655e-001 -5.85628748e-001
      6.84896186e-002 1.74629495e-001 5.06706953e-001 4.36029255e-001
      1.45471916e-001 1.61217809e-001 -6.02824986e-002 -2.57765740e-001
      -5.21043658e-001 -1.41183004e-001 2.97424644e-001 4.52801675e-001
      1.21602781e-001 2.57175505e-001 2.12199315e-001 -2.63687167e-002
      -4.05171424e-001 -4.25117165e-001 -8.72375891e-002 5.71273044e-002
      -1.13988742e-001 4.72884737e-002 7.79175088e-002 1.29252464e-001
      -4.78224605e-002 -1.38067096e-001 -2.89852917e-001 9.74202827e-002
      1.05520904e-001 -5.96653670e-002 -8.20872188e-002 -5.42176254e-002
      -3.06641813e-002 -1.36472866e-001 -1.13781586e-001
      -6.76752329e-002 7.93877095e-002 1.36632994e-001 -1.31088495e-001
      -9.54707488e-002 9.42003950e-002 2.87495732e-001 1.32211775e-001
      -2.75992334e-001 -3.19471240e-001 2.77689964e-001 1.73380077e-001
      -1.36587813e-001 -1.43447384e-001 1.51566099e-002 1.82173133e-001
      2.68536936e-002 -2.82447845e-001 -3.14389288e-001 1.64978102e-001
      1.83447406e-001 -1.82862118e-001 -9.42543447e-002 -7.20574707e-002
      4.17134687e-002 7.80129209e-002 -8.28542281e-003 6.59593344e-002
      4.04721379e-001 1.73803195e-001 -2.84387827e-001 -2.74086565e-001
      -3.34257074e-002 -3.69720645e-002 1.96481243e-001 2.72121225e-002
      5.05251288e-002 3.08950394e-001</_>
    <_>
      9.21272814e-001 -1.84612289e-001 -8.32751155e-001 -1.12091534e-001
      5.37422597e-001 1.49950817e-001 -3.44710678e-001 -1.07572466e-001
      3.53292555e-001 1.78821966e-001 -6.11146748e-001 -5.16285658e-001
      -4.55709785e-001 3.30743134e-001 1.66416377e-001 2.36021772e-001
      2.18762413e-001 7.19580770e-001 5.21529257e-001 1.62799940e-001
      6.54976070e-002 7.34269261e-001 5.39426863e-001 2.69445270e-001
      -1.36223435e+000 -1.41426849e+000 4.58435267e-002 1.13134705e-001
      -1.27492577e-001 -7.22262710e-002 -6.62095919e-002 1.46195129e-001
      1.01722099e-001 -1.24912420e-002 -3.84459317e-001 1.50548771e-001
      -3.12160522e-001 -6.76772058e-001 -2.57432042e-003
      -1.86635017e-001 1.24171659e-001 1.16391167e-001 3.47387403e-001
      3.38144034e-001 3.66805226e-001 -1.30135238e+000 -8.39295030e-001
      3.92068803e-001 6.15277588e-001 5.76370776e-001 5.73513746e-001
      5.81611395e-001 9.61562395e-002 -8.18761647e-001 -2.02172231e-002
      -1.22927278e-001 -1.92230001e-001 -2.73175359e-001
      -1.84117645e-001 -3.03680301e-001 1.30803511e-001 1.86328456e-001
      2.41696730e-001 -1.15094863e-001 -1.38521761e-001 1.12575211e-001
      1.01499021e-001 1.24739232e-002 -1.49640501e-001 1.46587491e-001
      1.27886310e-001 -9.65959132e-002 -4.55681860e-001 -2.03078747e-001
      3.07574511e-001 4.56085086e-001 3.29102397e-001 2.73509771e-001
      -4.92747761e-002 -6.96377382e-002 -7.61499286e-001 6.94559366e-002
      1.55439064e-001 2.24860817e-001 4.94159520e-001 -1.06160961e-001
      -1.75642043e-001 -2.01042652e-001 1.11953013e-001 2.09813938e-002
      -1.32872999e-001 -9.14378986e-002 -7.37748295e-002
      -4.14985605e-003 -1.48440108e-001 -1.53985843e-001
      -1.10902125e-002 -1.07416779e-001 -2.78394580e-001 2.34060019e-001
      2.51876891e-001 1.05624348e-001 -3.52659822e-002 -4.76435721e-001
      -3.53325903e-001 1.46374479e-001 1.44094720e-001 1.29537821e-001</_>
    <_>
      1.54634640e-001 1.49729192e-001 5.77740259e-002 -7.79556632e-002
      -1.23780139e-001 -4.27855365e-002 -3.03440038e-002
      -9.44047198e-002 -3.66909280e-002 1.69194471e-002 -2.00602695e-001
      -6.47275895e-002 2.09666174e-002 -3.38173620e-002 6.56605512e-002
      8.59901309e-002 -2.30950536e-003 1.56606376e-001 -5.30603202e-003
      -1.15472145e-001 -2.87242085e-002 5.62407151e-002 -6.38512522e-002
      1.23852223e-001 7.78136402e-002 -2.09688097e-002 -6.83025792e-002
      -2.03668863e-001 -3.25266004e-001 -2.01918885e-001 1.58415779e-001
      1.10112302e-001 2.51776993e-001 2.95758575e-001 1.03923082e-001
      1.78682450e-002 -1.00837685e-001 -2.66333014e-001 1.76694002e-002
      8.71878713e-002 8.09491575e-002 1.36927098e-001 1.21291786e-001
      1.11987770e-001 1.28592342e-001 -2.62407273e-001 -1.89705595e-001
      1.63339734e-001 1.19784296e-001 1.45992786e-001 1.08595237e-001
      1.58680454e-001 1.92921594e-001 1.38964737e-002 -3.19756806e-001
      -3.72954905e-001 -1.26755744e-001 9.63121653e-002 1.36540711e-001
      2.16723740e-001 3.08118016e-001 2.50140339e-001 1.24075226e-001
      -1.96590737e-001 -1.46096691e-001 5.66700250e-002 4.93253693e-002
      1.16564184e-001 1.29294097e-001 2.05193982e-001 3.16302121e-001
      1.28857791e-001 -3.18385899e-001 -1.00207180e-001 1.44169420e-001
      1.06283017e-001 7.50622079e-002 1.00880131e-001 1.36848167e-001
      2.20017418e-001 -1.51920065e-001 -3.01793486e-001 -1.04896203e-001
      9.88062993e-002 9.61090699e-002 -1.20875556e-002 8.75485092e-002
      1.98988289e-001 1.61369801e-001 -1.12185553e-001 -9.69187468e-002
      -9.40939635e-002 1.27705440e-001 3.34501937e-002 3.04752719e-002
      2.69955080e-002 5.45607693e-002 1.77762017e-001 -1.17865428e-002
      -1.88076571e-001 1.19721055e-001 1.97224960e-001 6.00964762e-002
      3.45370881e-002 -1.23343989e-002 6.46272600e-002 1.09931126e-001
      -1.03115670e-001</_>
    <_>
      6.15812898e-001 1.15078382e-001 -4.76874858e-001 -1.18791044e-001
      2.96760947e-001 -9.55577716e-002 -2.72187859e-001 -3.29146326e-001
      -1.19186744e-001 1.80453315e-001 -6.49496168e-002 -1.94114149e-001
      1.62055656e-001 1.81670219e-001 -7.17462376e-002 -2.87221849e-001
      -6.32264793e-001 -4.25450727e-002 -8.14165175e-003 3.08164340e-002
      4.83658575e-002 5.91959596e-001 7.46858835e-001 2.67466217e-001
      -6.47373796e-001 -9.30676162e-001 -3.64072680e-001
      -8.15204322e-001 -9.44379926e-001 -6.24750078e-001 4.20450509e-001
      5.68460405e-001 8.41897428e-001 3.19173813e-001 -2.44374603e-001
      -8.30423653e-001 -1.18775265e-002 -4.08756942e-001
      -5.97011372e-002 -7.84072131e-002 4.93191779e-002 1.18660489e-002
      -1.18345246e-001 -1.17376171e-001 1.77762643e-001 -6.31384313e-001
      -5.98985255e-001 -2.59416670e-001 4.28826623e-002 3.16772342e-001
      4.81134027e-001 1.08393878e-001 3.05215359e-001 -3.16376030e-001
      -4.98983264e-001 -6.89952016e-001 -5.94566762e-001
      -1.78366587e-001 -2.58322023e-002 1.97567895e-001 5.94422519e-001
      3.99991065e-001 -1.36010662e-001 4.05134447e-002 2.38850564e-001
      -9.50989276e-002 -2.65503705e-001 2.25855559e-002 -1.65558919e-001
      -1.90045848e-001 2.87384808e-001 -1.70482099e-001 -4.22477752e-001
      -1.29233271e-001 -6.18758574e-002 -3.58666002e-004 2.43969992e-001
      2.19037876e-001 -4.24815044e-002 8.66151825e-002 -4.77244020e-001
      2.93208007e-002 4.14522029e-002 9.33538228e-002 -4.65155905e-003
      -7.46107772e-002 -8.67614374e-002 -1.21128152e-003 3.54485512e-001
      8.68370682e-002 -4.82579786e-003 2.72502393e-001 -5.41440360e-002
      -3.85657132e-001 2.86760814e-002 -2.35272199e-001 -1.63275510e-001
      6.88643679e-002 -2.88110167e-001 1.16504230e-001 5.41738272e-001
      1.17583118e-001 -1.51284084e-001 -4.40485626e-001 -1.62478864e-001
      1.86097577e-001 3.13800186e-001 3.46428603e-002</_>
    <_>
      4.80403244e-001 8.72592032e-002 -4.06093419e-001 -5.46017401e-002
      5.92437200e-002 1.48483329e-002 -1.38442114e-001 3.71706858e-002
      1.42970800e-001 -2.59933807e-002 -2.16706380e-001 -2.34206259e-001
      3.30126733e-001 2.15925455e-001 1.65474772e-001 1.69719994e-001
      -2.93166846e-001 1.12774111e-001 6.35245964e-002 5.21248532e-003
      4.82842028e-002 5.58001339e-001 4.04750913e-001 2.05165714e-001
      -4.78665411e-001 -6.81126714e-001 -1.31769270e-001
      -4.33823735e-001 -5.11339009e-001 4.04898971e-002 7.31507719e-001
      5.80480039e-001 7.30886281e-001 1.96778849e-001 -4.82128501e-001
      -6.55193686e-001 -6.35667518e-002 -3.99279930e-002 3.32695812e-001
      4.11810756e-001 2.70480543e-001 9.95794609e-002 -1.63323611e-001
      -4.78128880e-001 -1.42019093e-001 2.52278298e-001 2.75208622e-001
      1.83620244e-001 6.40021488e-002 3.92811932e-002 -8.75931233e-002
      -4.04676080e-001 -9.15157646e-002 1.97135448e-001 -5.99490225e-001
      -7.12077200e-001 -1.64720923e-001 3.02575529e-001 3.80313754e-001
      2.96477526e-001 5.52989662e-001 -7.12369010e-002 -3.14228952e-001
      1.10507280e-001 5.57352118e-002 -1.85714632e-001 -3.35217923e-001
      -2.18745261e-001 -2.41383135e-001 5.76053821e-002 2.78831959e-001
      2.30937168e-001 3.71834859e-002 9.77193587e-004 2.02230224e-003
      -1.17777586e-001 -1.07695006e-001 1.68764405e-002 -6.69525340e-002
      1.30262405e-001 1.04028709e-001 -2.40981914e-002 -1.76623583e-001
      -1.28063168e-002 6.28718585e-002 4.85841781e-002 1.20256171e-001
      -7.56200626e-002 -2.78281071e-003 -1.09588981e-001 1.66568503e-001
      -7.44612068e-002 2.22501270e-002 -2.67711043e-001 -1.32848561e-001
      -4.46338467e-002 7.80939832e-002 -4.64047901e-002 4.59229462e-002
      1.14926118e-002 -2.58932322e-001 -2.92311888e-002 -1.84932668e-002
      -5.28733879e-002 5.11843041e-002 6.41749650e-002 -9.66916159e-002
      -3.90803395e-003</_>
    <_>
      4.06390280e-002 2.66318113e-001 2.38003269e-001 -1.46167070e-001
      -2.36455724e-001 -1.11012086e-001 -2.33631246e-002
      -1.24229439e-001 -6.77519590e-002 8.69566575e-002 -1.03682026e-001
      1.66854244e-002 4.54845354e-002 -8.59943479e-002 4.56431173e-002
      -1.24175064e-002 -5.38879707e-002 1.42957106e-001 -2.16390282e-001
      -1.51469961e-001 8.92285556e-002 -6.21530823e-002 -1.99463144e-001
      7.06924349e-002 3.17328990e-001 2.84936875e-001 -5.66771701e-002
      -2.92777449e-001 -1.90404519e-001 -1.63975045e-001 2.37722725e-001
      7.57313296e-002 2.53816843e-001 2.42267638e-001 3.07597607e-001
      4.68647182e-002 -7.53172636e-002 -2.15065911e-001 7.44682401e-002
      1.22652151e-001 6.77582771e-002 1.55779958e-001 7.04339519e-002
      5.21763861e-002 1.71850339e-001 -1.72162771e-001 -1.53374612e-001
      1.36334449e-001 4.91353199e-002 7.18845278e-002 9.60850120e-002
      8.48387629e-002 1.39976442e-001 1.32695332e-001 -3.82669538e-001
      -3.78641188e-001 -1.12397387e-003 2.72969633e-001 1.45837843e-001
      2.65255392e-001 3.37217331e-001 3.90593708e-001 9.91469696e-002
      -2.29852825e-001 -2.29379758e-001 1.63524687e-001 8.47116560e-002
      1.17012292e-001 2.50465006e-001 2.38007665e-001 3.93331409e-001
      1.65083945e-001 -1.76825508e-001 -1.44725382e-001 2.30769776e-002
      -1.32407192e-002 1.13097178e-002 -1.78543739e-002 4.53383066e-002
      2.58128613e-001 5.53650316e-003 -3.30212563e-001 -1.08845517e-001
      -1.21871475e-002 -8.48302990e-002 -1.32144531e-002
      -5.43541834e-002 1.64184898e-001 2.79498279e-001 -4.62559573e-002
      -8.69620070e-002 -1.16998889e-001 5.62230125e-002 -1.05001591e-002
      5.07873632e-002 3.72637734e-002 2.72816103e-002 2.48334929e-001
      3.51393968e-002 -1.67683035e-001 1.66301548e-001 8.90425816e-002
      5.17603569e-003 7.00391605e-002 2.07268749e-003 9.65523571e-002
      2.38993779e-001 3.65337497e-003</_>
    <_>
      -1.78557709e-001 2.20245287e-001 1.88614100e-001 -2.23724604e-001
      -5.96576780e-002 -8.02147761e-002 9.73319933e-002 -3.19675803e-001
      -2.65574276e-001 2.47335479e-001 6.32847726e-001 3.19099158e-001
      7.31318235e-001 2.39696309e-001 -2.87729621e-001 -1.87973261e-001
      -1.48224378e+000 -9.06921923e-001 -4.29574311e-001
      -1.09769236e-002 3.70379150e-001 -4.59674969e-002 2.21048310e-001
      -2.06306010e-001 3.38116825e-001 1.08167395e-001 -5.20684302e-001
      -1.05659616e+000 -7.73781955e-001 -4.79355901e-001 5.28553545e-001
      6.26654565e-001 7.47955680e-001 7.42957413e-001 2.36978352e-001
      -1.44081104e+000 5.42884052e-001 3.43056232e-001 -2.05537602e-001
      1.98414326e-001 1.87345874e-002 -1.47197908e-002 -2.34340817e-001
      -1.02397323e+000 -6.59041777e-002 3.36796701e-001 -2.66072750e-001
      -7.16949522e-001 -4.76944894e-001 -2.04241276e-001 9.11124125e-002
      -4.25230898e-002 2.13957429e-001 2.52851486e-001 -4.04799014e-001
      -5.72771311e-001 -5.21951675e-001 -3.11653279e-002
      -1.64223939e-001 3.81743073e-001 9.36070561e-001 7.69989848e-001
      -4.63540554e-001 1.37167260e-001 -1.37206197e-001 -5.10226607e-001
      -5.64223051e-001 -4.42688197e-001 -1.58409640e-001
      -1.83633626e-001 2.54594445e-001 2.91712850e-001 -1.37388900e-001
      -2.87637413e-001 -3.24142426e-001 -1.90890163e-001
      -6.45465702e-002 -1.40459582e-001 -7.88003057e-002 3.12510937e-001
      5.79365939e-002 -6.38116524e-002 1.14651145e-002 1.37435570e-001
      1.50113860e-002 -2.86669374e-001 -1.47698507e-001 4.08844911e-002
      4.28296775e-001 1.03179775e-001 3.95847172e-001 2.23684788e-001
      -1.41497880e-001 -1.97317809e-001 -1.64923847e-001
      -2.00131968e-001 -2.05459148e-001 1.82518169e-001 1.36030063e-001
      3.09119016e-001 3.63961011e-001 1.57264881e-002 -4.34006192e-003
      -4.77213293e-001 -2.62330025e-001 -8.43241587e-002 4.97138835e-002
      1.05003104e-001</_>
    <_>
      7.24850520e-002 1.23148911e-001 8.79204273e-002 -6.06829859e-002
      -1.85779929e-001 2.39795819e-003 -2.88546123e-002 -2.36024987e-002
      -2.41640937e-002 -5.67709357e-002 -8.66572261e-002
      -3.70854884e-002 4.09656972e-001 2.84308195e-002 2.15308055e-001
      1.20886318e-001 -2.89628625e-001 -4.18408066e-001 8.87575652e-003
      4.52789851e-002 8.26894417e-002 2.30005026e-001 7.71870241e-002
      -8.68143067e-002 5.08087985e-002 8.44078511e-003 7.99027830e-002
      -4.40175742e-001 -1.42295122e-001 1.98265806e-001 7.32822359e-001
      4.09493625e-001 6.45084143e-001 1.87836081e-001 -1.07662112e-001
      -7.24707305e-001 5.61256856e-002 2.68865913e-001 1.99932709e-001
      3.39589506e-001 9.94025767e-002 1.65499970e-001 -7.05932826e-002
      -6.62450314e-001 -2.86653012e-001 6.67967439e-001 5.70858955e-001
      5.32582887e-002 -1.16863310e-001 -2.41387919e-001 -3.26858819e-001
      -5.31191230e-001 -2.39024326e-001 3.18861783e-001 -5.27815163e-001
      -5.10568142e-001 9.76880118e-002 4.87354159e-001 3.54255021e-001
      6.12467945e-001 6.06305778e-001 1.20447583e-001 -5.57281137e-001
      1.34008735e-001 -1.05943806e-001 -8.65480378e-002 -2.23758474e-001
      -3.37359905e-001 -1.47759989e-001 5.67386448e-002 2.42129549e-001
      3.01882505e-001 2.07421482e-001 5.96697554e-002 -1.97175711e-001
      -3.37240726e-001 -2.22950518e-001 -2.15064600e-001
      -2.84457088e-001 1.02331512e-001 3.88278812e-001 -1.30912617e-001
      -2.27237627e-001 -2.66360044e-001 -1.80056453e-001
      -1.26448363e-001 3.84820439e-002 -3.78599344e-003 -7.23895058e-002
      -1.24807760e-001 1.42860025e-001 3.78949940e-002 -4.28431900e-003
      -8.75100568e-002 -1.69219822e-001 -1.45673966e-002
      -4.61180136e-002 1.75657064e-001 2.97886848e-001 -6.30658194e-002
      -4.05283689e-001 -4.19643447e-002 5.22641651e-002 -9.79161933e-002
      1.85526967e-001 -9.89759341e-002 -1.83872864e-001 3.69119607e-002</_>
    <_>
      -1.63317665e-001 -2.12763399e-001 -1.84123486e-001 1.21166721e-001
      3.27732712e-001 7.64814541e-002 1.22034959e-002 8.30235258e-002
      9.45317838e-003 -8.63182098e-002 2.11664423e-001 5.95231801e-002
      2.15574112e-002 1.19053118e-001 5.06886933e-003 -8.30606222e-002
      -2.11557761e-001 -3.17685604e-001 1.04567304e-001 2.12188050e-001
      3.46810110e-002 5.34489080e-002 3.95694554e-001 -8.36251304e-002
      -3.71661603e-001 -3.10112715e-001 -7.01817274e-002 1.26488164e-001
      1.56716704e-001 1.29986703e-001 -2.97929607e-002 9.16024894e-002
      -1.05645120e-001 -2.24860489e-001 -3.13511908e-001
      -3.05178672e-001 1.50247261e-001 4.03343201e-001 -5.14513366e-002
      -1.19945146e-001 -7.47429058e-002 -1.16677567e-001
      -1.86051145e-001 -3.42760116e-001 -2.34897003e-001 2.26411790e-001
      1.88359559e-001 -2.12044656e-001 -1.64767846e-001 -5.00919446e-002
      -9.07044485e-002 -1.67626292e-001 -2.41530463e-001
      -6.92637637e-003 1.96432129e-001 2.83734739e-001 -2.14343760e-002
      -1.50475115e-001 -1.53101087e-001 -1.86581448e-001
      -2.86207080e-001 -2.90453255e-001 -2.97810882e-001 3.11633050e-001
      2.39624605e-001 -1.44322678e-001 -2.11380750e-001 -2.26036459e-001
      -2.52070278e-001 -3.02905202e-001 -4.55902785e-001
      -1.68723673e-001 2.57150501e-001 6.59925565e-002 -1.03460059e-001
      -8.28043222e-002 -1.61640067e-002 -3.11945044e-002
      -9.04380232e-002 -1.73064023e-001 6.04442656e-002 3.03221524e-001
      1.60966054e-001 3.97757534e-003 2.54680421e-002 4.28944640e-002
      -3.19027714e-002 -1.40086859e-001 -2.41750062e-001 7.25435689e-002
      1.67276859e-001 9.93427038e-002 -1.31884530e-001 -9.09493938e-002
      -6.53049871e-002 -5.19563183e-002 -6.87531531e-002
      -3.32878500e-001 2.72004306e-002 2.37610132e-001 -1.48372963e-001
      -1.67486981e-001 -4.04838622e-002 -7.73742273e-002
      -6.34418651e-002 -4.77975123e-002 -2.19600573e-001 6.52936995e-002</_>
    <_>
      -2.71846801e-002 -1.56736925e-001 -2.15869352e-001 1.09602891e-001
      2.36842364e-001 5.75960800e-002 -7.06328824e-002 2.27274802e-002
      9.08180773e-002 -8.57983157e-002 3.69103663e-002 3.15046608e-002
      8.41672346e-002 1.25022694e-001 5.96633293e-002 -3.38587500e-002
      -1.59588262e-001 -2.25403279e-001 1.93281323e-001 1.95042610e-001
      7.31228152e-003 1.38972491e-001 2.46432900e-001 -2.28127595e-002
      -3.25531304e-001 -2.98931032e-001 2.51579396e-002 6.19992204e-002
      2.17763856e-001 2.51660019e-001 6.27169237e-002 9.63551775e-002
      -1.99220516e-002 -1.70056090e-001 -2.95254499e-001
      -2.86280513e-001 8.92947242e-002 2.60433644e-001 2.50249617e-002
      -2.12705564e-002 -3.18204537e-002 -5.26464023e-002
      -1.24305546e-001 -2.51667410e-001 -2.05191657e-001 3.41507882e-001
      3.26011926e-001 -9.14414227e-002 -1.09005474e-001 -1.69491246e-001
      -1.59230143e-001 -3.36043268e-001 -2.94400513e-001
      -2.28685737e-002 9.13886353e-002 1.58137783e-001 9.70710665e-002
      -4.14030030e-002 -1.22773070e-002 -2.80465186e-002
      -7.09783584e-002 -2.13888243e-001 -3.07481706e-001 1.82151139e-001
      1.14070326e-001 -7.93628022e-002 -1.08377963e-001 -2.41069436e-001
      -1.35892704e-001 -1.71815246e-001 -2.08923206e-001
      -1.36375144e-001 3.08671027e-001 1.64071336e-001 -1.34192467e-001
      -1.13222905e-001 -1.02692895e-001 -9.76236463e-002
      -2.53084868e-001 -2.14792192e-001 1.11608528e-001 2.80470252e-001
      -1.15884207e-002 -1.76075399e-001 -2.00557709e-002 3.05708107e-002
      6.40283991e-003 -2.08934486e-001 -1.82983711e-001 9.53978375e-002
      1.61018357e-001 8.59012455e-002 -1.28259063e-001 -8.58625546e-002
      -1.52679414e-001 -9.72412154e-002 -1.01773806e-001
      -1.15116067e-001 9.95287895e-002 1.38205871e-001 -1.37230888e-001
      -1.74293369e-001 -4.01380025e-002 -6.69260025e-002
      -2.69733765e-003 -8.91318768e-002 -9.44150537e-002 1.11952588e-001</_>
    <_>
      -1.08909771e-001 -1.58586591e-001 -6.93773106e-002 1.57955185e-001
      1.22882567e-001 2.49557793e-001 -1.53834999e-001 5.70284016e-002
      2.08178416e-001 -4.77939218e-001 -3.68013740e-001 3.67271960e-001
      6.63140118e-001 6.08017027e-001 6.02789104e-001 3.91557544e-001
      8.96277428e-002 -9.77526605e-002 1.03321768e-001 -4.22426686e-002
      -1.31387129e-001 1.58351138e-001 -1.33755639e-001 1.37081742e-001
      -1.74346358e-001 -2.18776450e-003 8.17375854e-002 -1.42892972e-001
      4.42535251e-001 9.01921034e-001 5.97268045e-001 4.30391192e-001
      4.31176603e-001 6.26952499e-002 -3.50588113e-001 -3.79123986e-001
      -2.38445088e-001 6.14232421e-002 5.27849913e-001 6.91518605e-001
      4.31664199e-001 2.22015664e-001 -1.15036845e-001 -4.73785818e-001
      -3.36150974e-001 1.09792471e+000 1.39577878e+000 6.93913817e-001
      -8.25182274e-002 -5.51418841e-001 -6.35564983e-001
      -1.07233608e+000 -4.04445857e-001 2.83382684e-001 -3.75878751e-001
      -3.56741607e-001 3.02558273e-001 4.14811552e-001 5.91099083e-001
      2.92620182e-001 6.77917361e-001 1.57862648e-001 -8.31698254e-002
      -1.48718700e-001 -2.63095677e-001 -1.38163313e-001
      -4.24872130e-001 -3.79671007e-001 -1.08535118e-001 5.94418228e-001
      8.64987016e-001 3.65330875e-001 7.68215060e-001 7.46461451e-001
      1.45626694e-001 -3.23031783e-001 -5.18929362e-001 -2.50109911e-001
      -9.23992097e-001 -3.18957269e-001 5.44519126e-001 2.83949316e-001
      -3.90498728e-001 -5.80924332e-001 1.13414019e-001 -4.37145904e-002
      1.67985544e-001 -1.77993104e-001 -2.33878225e-001 1.57081187e-001
      1.44069076e-001 -1.80717126e-001 -2.93720901e-001 -1.83409736e-001
      -4.87857014e-001 -2.62524247e-001 -1.38167301e-002 6.27865434e-001
      5.93166053e-001 2.53352046e-001 -4.76054609e-001 -1.44685030e-001
      3.04216128e-002 3.69433537e-002 -1.78297102e-001 -1.95359126e-001
      -1.12408809e-002 3.34680885e-001</_></support_vectors>
  <decision_functions>
    <_>
      <sv_count>1</sv_count>
      <rho>-3.5278765252110308e-002</rho>
      <alpha>
        1.</alpha>
      <index>
        0</index></_>
    <_>
      <sv_count>1</sv_count>
      <rho>-1.0008710149154944e-002</rho>
      <alpha>
        1.</alpha>
      <index>
        1</index></_>
    <_>
      <sv_count>1</sv_count>
      <rho>2.7962982942288489e-001</rho>
      <alpha>
        1.</alpha>
      <index>
        2</index></_>
    <_>
      <sv_count>1</sv_count>
      <rho>-2.2207161405570791e-001</rho>
      <alpha>
        1.</alpha>
      <index>
        3</index></_>
    <_>
      <sv_count>1</sv_count>
      <rho>1.9157877870924667e-001</rho>
      <alpha>
        1.</alpha>
      <index>
        4</index></_>
    <_>
      <sv_count>1</sv_count>
      <rho>-2.8305294865089800e-002</rho>
      <alpha>
        1.</alpha>
      <index>
        5</index></_>
    <_>
      <sv_count>1</sv_count>
      <rho>-1.5547706979333839e-001</rho>
      <alpha>
        1.</alpha>
      <index>
        6</index></_>
    <_>
      <sv_count>1</sv_count>
      <rho>1.0474231237673719e-001</rho>
      <alpha>
        1.</alpha>
      <index>
        7</index></_>
    <_>
      <sv_count>1</sv_count>
      <rho>-4.6571610087201669e-002</rho>
      <alpha>
        1.</alpha>
      <index>
        8</index></_>
    <_>
      <sv_count>1</sv_count>
      <rho>4.1409542638857419e-003</rho>
      <alpha>
        1.</alpha>
      <index>
        9</index></_>
    <_>
      <sv_count>1</sv_count>
      <rho>1.1254392532244303e-001</rho>
      <alpha>
        1.</alpha>
      <index>
        10</index></_>
    <_>
      <sv_count>1</sv_count>
      <rho>-1.9409741543229142e-001</rho>
      <alpha>
        1.</alpha>
      <index>
        11</index></_>
    <_>
      <sv_count>1</sv_count>
      <rho>-9.2020599248850542e-003</rho>
      <alpha>
        1.</alpha>
      <index>
        12</index></_>
    <_>
      <sv_count>1</sv_count>
      <rho>-1.0812387987183411e-001</rho>
      <alpha>
        1.</alpha>
      <index>
        13</index></_>
    <_>
      <sv_count>1</sv_count>
      <rho>-1.4740862938678684e-001</rho>
      <alpha>
        1.</alpha>
      <index>
        14</index></_>
    <_>
      <sv_count>1</sv_count>
      <rho>-3.1760349832693900e-002</rho>
      <alpha>
        1.</alpha>
      <index>
        15</index></_>
    <_>
      <sv_count>1</sv_count>
      <rho>-5.8013195488080538e-002</rho>
      <alpha>
        1.</alpha>
      <index>
        16</index></_>
    <_>
      <sv_count>1</sv_count>
      <rho>3.8455861530548863e-002</rho>
      <alpha>
        1.</alpha>
      <index>
        17</index></_>
    <_>
      <sv_count>1</sv_count>
      <rho>-1.0555485650157446e-001</rho>
      <alpha>
        1.</alpha>
      <index>
        18</index></_>
    <_>
      <sv_count>1</sv_count>
      <rho>1.2916156127246078e-001</rho>
      <alpha>
        1.</alpha>
      <index>
        19</index></_>
    <_>
      <sv_count>1</sv_count>
      <rho>-1.0205607025132737e-003</rho>
      <alpha>
        1.</alpha>
      <index>
        20</index></_>
    <_>
      <sv_count>1</sv_count>
      <rho>-1.5137421049871502e-001</rho>
      <alpha>
        1.</alpha>
      <index>
        21</index></_>
    <_>
      <sv_count>1</sv_count>
      <rho>8.1898216760414838e-002</rho>
      <alpha>
        1.</alpha>
      <index>
        22</index></_>
    <_>
      <sv_count>1</sv_count>
      <rho>-2.5473005103978492e-002</rho>
      <alpha>
        1.</alpha>
      <index>
        23</index></_>
    <_>
      <sv_count>1</sv_count>
      <rho>-4.6765549765150016e-001</rho>
      <alpha>
        1.</alpha>
      <index>
        24</index></_>
    <_>
      <sv_count>1</sv_count>
      <rho>-2.9370662003192116e-001</rho>
      <alpha>
        1.</alpha>
      <index>
        25</index></_>
    <_>
      <sv_count>1</sv_count>
      <rho>-6.6783801035606138e-001</rho>
      <alpha>
        1.</alpha>
      <index>
        26</index></_>
    <_>
      <sv_count>1</sv_count>
      <rho>-2.1080842909937650e-001</rho>
      <alpha>
        1.</alpha>
      <index>
        27</index></_>
    <_>
      <sv_count>1</sv_count>
      <rho>-8.6973956938261499e-001</rho>
      <alpha>
        1.</alpha>
      <index>
        28</index></_>
    <_>
      <sv_count>1</sv_count>
      <rho>-5.0786862786212816e-001</rho>
      <alpha>
        1.</alpha>
      <index>
        29</index></_>
    <_>
      <sv_count>1</sv_count>
      <rho>2.1413827448971764e-001</rho>
      <alpha>
        1.</alpha>
      <index>
        30</index></_>
    <_>
      <sv_count>1</sv_count>
      <rho>7.3512096206158839e-002</rho>
      <alpha>
        1.</alpha>
      <index>
        31</index></_>
    <_>
      <sv_count>1</sv_count>
      <rho>-9.3447441353096794e-002</rho>
      <alpha>
        1.</alpha>
      <index>
        32</index></_>
    <_>
      <sv_count>1</sv_count>
      <rho>3.3793623964776337e-001</rho>
      <alpha>
        1.</alpha>
      <index>
        33</index></_>
    <_>
      <sv_count>1</sv_count>
      <rho>2.4632163786870853e-001</rho>
      <alpha>
        1.</alpha>
      <index>
        34</index></_>
    <_>
      <sv_count>1</sv_count>
      <rho>-5.6340967640359996e-001</rho>
      <alpha>
        1.</alpha>
      <index>
        35</index></_>
    <_>
      <sv_count>1</sv_count>
      <rho>-1.4024940786492673e-001</rho>
      <alpha>
        1.</alpha>
      <index>
        36</index></_>
    <_>
      <sv_count>1</sv_count>
      <rho>-2.7822209719512564e-001</rho>
      <alpha>
        1.</alpha>
      <index>
        37</index></_>
    <_>
      <sv_count>1</sv_count>
      <rho>-1.5834848606155147e-001</rho>
      <alpha>
        1.</alpha>
      <index>
        38</index></_>
    <_>
      <sv_count>1</sv_count>
      <rho>-6.9780216945440801e-002</rho>
      <alpha>
        1.</alpha>
      <index>
        39</index></_>
    <_>
      <sv_count>1</sv_count>
      <rho>6.9424670919958506e-002</rho>
      <alpha>
        1.</alpha>
      <index>
        40</index></_>
    <_>
      <sv_count>1</sv_count>
      <rho>-6.0903769863013935e-002</rho>
      <alpha>
        1.</alpha>
      <index>
        41</index></_>
    <_>
      <sv_count>1</sv_count>
      <rho>1.9541328758064888e-001</rho>
      <alpha>
        1.</alpha>
      <index>
        42</index></_>
    <_>
      <sv_count>1</sv_count>
      <rho>7.4958300474235379e-002</rho>
      <alpha>
        1.</alpha>
      <index>
        43</index></_>
    <_>
      <sv_count>1</sv_count>
      <rho>4.1560203627553582e-002</rho>
      <alpha>
        1.</alpha>
      <index>
        44</index></_></decision_functions></my_svm>
</opencv_storage>
