<?xml version="1.0"?>
<opencv_storage>
<my_svm type_id="opencv-ml-svm">
  <svm_type>C_SVC</svm_type>
  <kernel><type>LINEAR</type></kernel>
  <C>1.</C>
  <term_criteria><epsilon>9.9999999747524271e-007</epsilon>
    <iterations>1000000</iterations></term_criteria>
  <var_all>108</var_all>
  <var_count>108</var_count>
  <class_count>10</class_count>
  <class_labels type_id="opencv-matrix">
    <rows>1</rows>
    <cols>10</cols>
    <dt>i</dt>
    <data>
      0 1 2 3 4 5 6 7 8 9</data></class_labels>
  <sv_total>45</sv_total>
  <support_vectors>
    <_>
      1.32191464e-001 2.50441939e-001 -3.46885741e-001 -2.47316938e-002
      -1.45844504e-001 -3.11715505e-003 2.94612229e-001 2.29091480e-001
      -4.46907371e-001 3.13865900e-001 2.59733319e-001 -7.63246000e-001
      -3.95936519e-001 -4.02265221e-001 -4.59906757e-001
      -1.04675665e-001 -9.92484614e-002 -3.02625671e-002
      -6.07224882e-001 6.01983890e-002 -9.31073502e-002 -2.53585845e-001
      5.94072267e-002 1.04184218e-001 8.41679633e-001 9.84529197e-001
      -6.05790913e-001 -2.16524024e-002 3.15264873e-002 -3.16107661e-001
      -1.42274663e-001 -3.24043781e-002 -1.50021181e-001 1.28263474e-001
      7.56992996e-001 9.87573154e-003 4.87392783e-001 6.04391918e-002
      -2.68461347e-001 -2.90965289e-001 -3.75497252e-001
      -2.85310596e-001 -1.47890255e-001 -1.89638540e-001 2.47160032e-001
      -3.77235934e-002 -1.86803997e-001 -3.41534093e-002
      -5.06830066e-002 -3.45483832e-002 -1.29265916e-002 1.24415252e-002
      -1.05482172e-002 3.59302536e-002 -8.43984336e-002 -2.39504740e-001
      -7.78833032e-002 -6.50028512e-002 -1.14638612e-001
      -1.29219994e-001 -1.36841521e-001 1.62073329e-001 3.61269116e-002
      3.59302536e-002 -1.76202223e-001 -5.26385494e-002 -9.03770514e-003
      -9.55144614e-002 -2.42496990e-002 -1.09046072e-001
      -2.05517307e-001 3.59302536e-002 -5.13422728e-001 3.58321108e-002
      3.88534530e-003 -7.17585161e-003 6.54537007e-002 -6.80400357e-002
      1.09177567e-001 5.41611791e-001 -2.84423381e-001 -4.84211951e-001
      4.46975410e-001 2.80934185e-001 -1.18561983e-001 -1.41847357e-001
      -1.49196818e-001 4.88220185e-001 1.18725014e+000 -3.85953709e-002
      -2.84423381e-001 4.70797747e-001 -7.83427730e-002 7.79562891e-002
      -1.32507160e-002 -1.99606612e-001 -1.38063669e-001
      -1.22842817e-002 -3.41384381e-001 -4.28296357e-001 1.19536638e+000
      5.41458189e-001 1.94742996e-002 -3.81879985e-001 -4.28822368e-001
      -9.04143676e-002 3.98141980e-001 -6.12099349e-001</_>
    <_>
      9.63448733e-003 6.68981746e-002 1.96257427e-001 -3.97921689e-002
      2.06189267e-002 -1.92658246e-001 6.97775409e-002 1.65404268e-002
      -1.67278290e-001 1.13480628e-001 2.81022415e-002 -7.65829161e-002
      -7.70686418e-002 -1.58809006e-001 -1.69772804e-001 5.43398708e-002
      -4.23091725e-002 -2.66127085e-004 -1.80563405e-001
      -5.36616407e-002 2.14630868e-002 -9.02209580e-002 -1.48933753e-002
      -2.01256916e-001 2.12855756e-001 1.15941025e-001 -1.57328948e-001
      -1.80479556e-001 -2.42250666e-001 -5.44761494e-002
      -7.43861571e-002 -1.17140748e-001 -9.96191353e-002 1.17402069e-001
      1.14723854e-001 3.96522358e-002 3.12854588e-001 -1.95484221e-001
      -3.17158967e-001 -1.34463727e-001 -2.61672974e-001
      -1.13420412e-001 -3.78865562e-002 7.38499090e-002 5.32556057e-001
      2.33652249e-001 -3.99466991e-001 -5.32176614e-001 -2.84385264e-001
      -3.07557762e-001 -9.23332497e-002 5.73171489e-002 2.37854257e-001
      6.23271406e-001 -5.56513034e-002 -4.61716652e-001 -3.25006902e-001
      -1.47420824e-001 -2.63358355e-001 -6.16482981e-002 4.08951938e-003
      1.91292703e-001 1.58042401e-001 2.20553458e-001 -1.11635387e-001
      -5.58183730e-001 -2.85142154e-001 -2.63938904e-001
      -1.09336749e-001 -5.12309298e-002 -1.14122868e-001 4.33589309e-001
      -5.39590344e-002 -2.80320525e-001 -4.94935602e-001
      -2.59687304e-001 -8.30820650e-002 4.55208495e-002 2.58606285e-001
      4.48303074e-001 3.29722911e-001 -3.52392763e-001 -1.87441722e-001
      -1.57412410e-001 -2.12555006e-001 3.44970822e-002 2.15858594e-001
      3.61284792e-001 3.24688107e-001 -2.30526507e-001 2.24919185e-001
      5.31855226e-002 -3.13730031e-001 -2.01092482e-001 -1.48859799e-001
      -7.74649978e-002 -7.76691362e-002 -1.13698199e-001 1.31243631e-001
      -1.72540888e-001 2.14570433e-001 2.70407736e-001 -8.06084797e-002
      -1.57242268e-001 -3.35853850e-003 -2.57472247e-001
      -1.42813742e-001 -2.54204482e-001</_>
    <_>
      2.26906445e-002 2.41571605e-001 1.40196355e-002 -7.10709114e-003
      2.68038332e-001 5.83376642e-003 -1.43620878e-001 -2.18908936e-001
      -2.09624484e-001 1.24335490e-001 -5.97995764e-004 -3.29597145e-001
      -5.63615441e-001 -1.28288224e-001 -1.24464221e-001
      -4.87342626e-002 4.70726080e-002 -4.53463420e-002 -1.82854801e-001
      1.55241922e-001 1.48311719e-001 1.55032143e-001 2.07943618e-001
      1.99106470e-001 6.07891008e-002 3.53498943e-002 -3.29848468e-001
      -4.26864117e-001 -4.86510307e-001 -3.99411649e-001
      -1.46949232e-001 -4.41563837e-002 5.25373332e-002 2.80982316e-001
      2.39327878e-001 9.52139348e-002 5.34127593e-001 -3.72786134e-001
      -6.23036146e-001 -3.89400899e-001 -1.84575275e-001
      -2.53833652e-001 -2.96434581e-001 -2.44461391e-002 5.42460322e-001
      4.73701268e-001 -2.28912860e-001 -2.46641159e-001 -1.94042295e-001
      -1.73330158e-001 -6.86189830e-001 -8.28026593e-001
      -4.82691646e-001 4.97018665e-001 5.16094454e-002 -9.26384628e-001
      -5.28663874e-001 -1.50114357e-001 -1.03599548e-001
      -1.73055530e-001 -1.81584015e-001 1.01112641e-001 3.33144307e-001
      3.51374924e-001 3.03032398e-001 -3.62898968e-002 -4.12436128e-002
      -1.57759488e-001 -4.70188081e-001 -6.71867371e-001
      -1.16252053e+000 3.12456936e-001 -7.88564757e-002 -1.35330096e-001
      -5.32009406e-003 -1.69899225e-001 3.19712772e-003 -2.99203157e-001
      -2.11716384e-001 -1.99540909e-002 2.52327323e-001 -1.49603397e-001
      -3.16183358e-001 -7.33267367e-002 -1.68057129e-001 1.64055675e-001
      7.15308171e-003 -1.29759133e-001 1.62154943e-001 2.85598412e-002
      5.96831320e-003 1.17988110e-001 1.49404600e-001 -1.17099863e-002
      5.31018861e-002 -1.34948432e-001 -1.91433266e-001 -4.74895686e-001
      -4.94856626e-001 -7.23877177e-002 -3.41475159e-002 1.03578269e-001
      4.13044915e-002 2.66218483e-001 2.25368410e-001 -4.70142923e-002
      3.20650399e-001 2.86645461e-002</_>
    <_>
      5.71782440e-002 8.08144920e-003 8.84216577e-002 -2.99557690e-002
      1.76803395e-001 3.04061850e-003 1.48512349e-001 1.24761201e-001
      -3.05726081e-001 1.33068964e-001 -1.40254796e-001 -4.96342540e-001
      -1.38310716e-001 -2.11647376e-001 -1.51385322e-001 4.78195138e-002
      1.85794160e-001 1.58141658e-001 -4.35379773e-001 -4.13248092e-002
      -1.48772541e-002 -6.17203712e-002 1.14740551e-001 3.96396555e-002
      4.59735066e-001 6.71856046e-001 -3.73758405e-001 -1.63978279e-001
      -4.30872031e-002 -2.16499895e-001 -1.02890730e-001
      -2.33509496e-001 -1.30325958e-001 2.35936806e-001 6.33492529e-001
      2.32835338e-002 2.68622935e-001 -4.37506020e-001 -4.60031539e-001
      -2.28297159e-001 -3.36998343e-001 -1.10426798e-001
      -4.08965722e-002 8.12382698e-002 4.91294205e-001 1.01055495e-001
      -6.10848248e-001 -3.60645026e-001 -3.97043347e-001
      -3.61995816e-001 -7.11772889e-002 -3.33132446e-002
      -4.41985466e-002 3.04020166e-001 4.43924144e-002 -2.01576352e-001
      -1.43907607e-001 -1.00884609e-001 -2.85098165e-001
      -1.08509906e-001 1.90082937e-002 2.57453263e-001 2.10922807e-001
      1.74966976e-001 6.70097768e-002 -1.27770886e-001 -1.52038977e-001
      -2.97243446e-001 -1.28130272e-001 -2.87208885e-001
      -6.42802060e-001 2.04380453e-001 8.92309025e-002 -1.00002982e-001
      -1.74679682e-001 -3.32888156e-001 -4.51644629e-001
      -2.41398394e-001 1.21021345e-002 4.08573180e-001 2.16163307e-001
      -2.54565567e-001 -9.52434465e-002 1.64842770e-001 -8.71942267e-002
      -1.97825506e-001 -1.19219303e-001 2.40336835e-001 4.92611259e-001
      -1.29980996e-001 7.44921565e-002 8.49469677e-002 -1.29344955e-001
      -5.37400469e-002 -2.39648387e-001 -1.27647474e-001
      -2.60227680e-001 -3.47967893e-001 -7.15985820e-002
      -2.99870342e-001 1.74992383e-001 2.72188783e-001 1.63371652e-001
      9.87743400e-003 8.83528888e-002 6.37358055e-002 1.47833765e-001
      -5.69553554e-001</_>
    <_>
      -4.28363204e-001 -1.59198642e-001 1.33070230e-001 -1.29357278e-002
      -4.10429947e-002 -2.11368361e-003 1.72967955e-001 4.62169424e-002
      -2.13473409e-001 1.07309029e-001 3.94180566e-001 2.65515000e-001
      -1.10267796e-001 -1.23977304e-001 -2.13623881e-001 2.69374773e-002
      1.64620683e-001 -1.34443477e-001 -2.72319227e-001 -2.23644465e-001
      -1.26248047e-001 -2.90761739e-001 -3.43881577e-001
      -4.56649251e-002 2.92085677e-001 4.15214360e-001 -6.47292584e-002
      7.89122954e-002 -7.33420849e-002 -1.58322066e-001 -4.01077121e-001
      -5.35574496e-001 -4.59332436e-001 -1.62878990e-001 1.22748330e-001
      6.37361825e-001 3.29209954e-001 1.42256051e-001 -1.62496790e-001
      -2.26702288e-001 -3.37697238e-001 -2.57669270e-001
      -2.84193993e-001 -1.50310127e-002 3.43039215e-001 3.67806405e-001
      -2.60805577e-001 -4.26609516e-001 -2.96487212e-001
      -3.77315015e-001 -2.58378804e-001 -3.79993230e-001
      -1.42933309e-001 2.97213674e-001 4.52533215e-001 -6.10443801e-002
      -1.37748465e-001 -1.83170557e-001 -4.18617070e-001
      -3.84894192e-001 -7.55350113e-001 -2.23615915e-001 4.97055501e-001
      1.85874194e-001 1.28566906e-001 -1.56375363e-001 -7.53248855e-002
      -1.72658861e-001 -1.23151928e-001 -6.10980630e-001
      -6.55415833e-001 1.78775683e-001 7.54713500e-003 -1.33042246e-001
      -8.06178302e-002 -5.26915677e-002 -2.60562096e-002
      -1.66821122e-001 -5.58333620e-002 -3.97567563e-002 2.36029834e-001
      3.38709056e-002 -7.14109018e-002 1.94357671e-002 -2.64439210e-002
      2.77202129e-001 -1.02048114e-001 -6.34640828e-002 -4.98569757e-002
      -1.50627578e-002 8.89183674e-003 -4.04185876e-002 -6.67208135e-002
      5.93707301e-002 2.58101895e-002 -3.80816273e-002 -1.25252128e-001
      -1.70978099e-001 -2.68733978e-001 -1.10176012e-001 4.53880150e-003
      -7.11645856e-002 8.64464883e-003 1.03404947e-001 -3.73976268e-002
      -1.15619779e-001 -8.88340920e-002 -5.34171499e-002</_>
    <_>
      -1.71083346e-001 -1.04321279e-001 3.86041924e-002 2.62853116e-001
      3.73976439e-001 7.84617364e-002 -6.87541217e-002 -1.04971156e-001
      -6.74856305e-002 1.86293796e-001 2.95970112e-001 -8.87034237e-002
      -1.57766417e-001 -1.90376475e-001 -2.72290826e-001
      -1.44150347e-001 2.04661459e-001 1.90144822e-001 -2.74415314e-001
      -2.02794269e-001 -8.07094947e-002 -6.67747781e-002 1.02958031e-001
      5.00059985e-002 2.84296032e-002 4.10872042e-001 -2.82853842e-001
      -9.88626704e-002 -1.18256859e-001 -3.80630702e-001
      -5.30097663e-001 -6.73506021e-001 -5.90026259e-001
      -3.35371345e-001 2.68983215e-001 5.56423724e-001 5.03669560e-001
      1.47823815e-003 -1.62977636e-001 -2.57979006e-001 -4.70254213e-001
      -3.73726279e-001 -3.76004726e-001 -1.85742266e-002 5.85842788e-001
      2.78202027e-001 -5.63502491e-001 -9.06035751e-002 -9.11933854e-002
      -2.05053240e-001 -2.08105028e-001 -2.21567392e-001
      -2.29712382e-001 2.46544465e-001 5.38402736e-001 -3.82622659e-001
      -2.34841168e-001 -3.56484026e-001 -6.70057595e-001
      -5.49016356e-001 -1.00767243e+000 -3.56560230e-001 7.22225487e-001
      2.66536653e-001 9.68355127e-003 -7.20905587e-002 -7.79884160e-002
      -3.22020024e-001 -3.53151321e-001 -7.85021186e-001
      -1.31911480e+000 2.46544465e-001 1.48696406e-002 -3.58331092e-002
      1.28016859e-001 5.65847680e-002 1.06873259e-001 -5.52394614e-003
      3.78791173e-003 5.87042719e-002 1.16623063e-002 -5.39746508e-002
      1.61803067e-001 1.57714501e-001 7.58154765e-002 2.52776057e-001
      8.12036842e-002 -3.89255174e-002 -1.35193989e-001 1.53594330e-001
      1.35632098e-001 3.01576346e-001 8.08928907e-002 -7.21065141e-003
      -2.10154623e-001 -1.90240428e-001 -3.02955866e-001
      -3.07266444e-001 -3.36233884e-001 6.60963450e-003 3.75924975e-001
      1.67701185e-001 1.48019716e-002 -1.30237967e-001 -1.32587329e-001
      -2.55866706e-001 -7.22448900e-002 -3.07525039e-001</_>
    <_>
      -3.04177310e-002 3.16520303e-001 3.40514630e-001 -9.86894593e-002
      -2.58451849e-001 -1.49383754e-001 9.09485519e-002 1.30597591e-001
      -2.00236477e-002 9.42491293e-002 2.90081620e-001 -2.59540323e-002
      -1.79035231e-001 -1.28922418e-001 -1.18267506e-001 1.29216790e-001
      2.11891308e-001 2.61324197e-001 -3.04225862e-001 -3.08335632e-001
      9.38208401e-002 -1.02764428e-001 -2.01571524e-001 2.85958461e-002
      3.39772612e-001 3.29599053e-001 8.87150615e-002 -2.66742945e-001
      -3.63533556e-001 -3.87884408e-001 -2.99082994e-001
      -2.32561007e-001 8.07611272e-003 2.73767024e-001 4.61821735e-001
      2.91115254e-001 1.92625463e-001 -9.62790996e-002 -1.77484125e-001
      -1.54215321e-001 -1.47665471e-001 -2.77727935e-002 2.75882334e-002
      1.44167662e-001 3.61939728e-001 1.32681325e-001 -5.84156156e-001
      -1.34409294e-001 -1.67414844e-001 -1.07842319e-001
      -1.14937164e-002 -2.59801894e-002 7.54794255e-002 3.66577327e-001
      -7.63276890e-002 -5.32173336e-001 -3.62363428e-001
      -2.53994554e-001 -2.37135395e-001 -2.07727179e-002 3.03873662e-002
      2.95733690e-001 3.62061381e-001 1.03850178e-001 -4.68894452e-001
      -2.71627694e-001 -2.34686911e-001 -1.16798051e-001
      -4.34225723e-002 -7.59435520e-002 -9.35428217e-002 3.03967655e-001
      -1.05756335e-001 -4.15555149e-001 -6.29597157e-002
      -8.83483589e-002 6.88389093e-002 -8.25713854e-003 5.07553108e-002
      3.26678336e-001 9.19175297e-002 -4.25918251e-001 -2.67919421e-001
      1.54990464e-001 -1.29498333e-001 5.46181910e-002 9.08461362e-002
      1.68294400e-001 4.59326208e-001 -9.58648324e-002 -8.70068371e-002
      -1.32820666e-001 -1.27978653e-001 -8.13708305e-002 2.56824046e-002
      -1.18794572e-002 -1.89175718e-002 -2.53296625e-002 3.69013585e-002
      -1.53111115e-001 2.17618212e-001 2.31848806e-001 2.28180606e-002
      1.04393885e-001 8.07987824e-002 7.25092813e-002 2.40300447e-001
      -1.17841728e-001</_>
    <_>
      1.03387542e-001 2.62325734e-001 5.50953932e-002 6.26568422e-002
      3.07145447e-001 -4.05390784e-002 8.56990516e-002 -5.56470528e-002
      -1.71107173e-001 1.26759470e-001 2.32007101e-001 -6.58463165e-002
      -9.12158266e-002 1.13288783e-001 -1.76667958e-001 -1.23081550e-001
      -3.58308792e-001 -1.90020159e-001 -2.55588859e-001 7.75240734e-002
      4.72458601e-002 5.09207807e-002 7.73000391e-003 1.70949385e-001
      8.48931745e-002 1.25798851e-001 -1.36156902e-001 -3.47606808e-001
      -3.69656622e-001 -3.89187694e-001 -2.15708494e-001
      -2.09598467e-001 -1.17755137e-001 -1.13802664e-001 2.16597334e-001
      1.07057668e-001 5.43752730e-001 -1.00202724e-001 -4.06090498e-001
      -2.61800289e-001 -2.46493638e-001 -3.30083907e-001
      -2.87217528e-001 -3.30404133e-001 4.49280947e-001 4.39728320e-001
      -7.95244873e-001 -7.39628375e-001 -3.80694240e-001
      -3.00808102e-001 -3.12409729e-001 -2.73484856e-001
      -1.78626090e-001 5.66599607e-001 1.27000228e-001 -8.47209752e-001
      -5.33808172e-001 -3.10650349e-001 -3.78873825e-001
      -3.32945943e-001 -3.38190019e-001 -1.92785468e-002 4.49386328e-001
      3.71678025e-001 6.53175414e-002 -4.03648585e-001 -2.23577484e-001
      -4.09556061e-001 -2.88460523e-001 -7.16070414e-001
      -9.94035304e-001 3.81290466e-001 -1.95942059e-001 -3.90577912e-001
      -1.44384816e-001 -9.28854942e-002 8.03677365e-002 5.87195577e-003
      -1.90482493e-002 -4.86347750e-002 1.76382348e-001 -9.49734375e-002
      8.84537213e-003 1.68726981e-001 2.05337275e-002 2.47412220e-001
      1.23873696e-001 -1.37514234e-001 1.84389632e-002 -2.01403517e-002
      5.06512076e-002 1.36777848e-001 -4.76355478e-002 -3.30976862e-003
      -1.61845479e-002 -2.27230173e-002 -3.46874416e-001
      -6.04385495e-001 -3.67215812e-001 -1.08896226e-001 2.64344476e-002
      6.17431030e-002 1.22228913e-001 5.67411780e-002 8.48836303e-002
      -2.22746179e-001 1.52719170e-001 -1.46639377e-001</_>
    <_>
      2.66033798e-001 9.86091048e-002 5.29490877e-003 1.06279284e-001
      3.36781405e-002 2.91460156e-001 -1.22554220e-001 1.75000355e-002
      1.10233970e-001 6.49264976e-002 -2.55701244e-002 1.84483215e-001
      -1.16269633e-001 2.54733056e-001 1.19217947e-001 -1.83289703e-002
      -1.17010854e-001 -1.90127090e-001 2.81153440e-001 -2.33625825e-002
      -5.66580556e-002 2.89246794e-002 2.93774366e-001 1.98633179e-001
      -1.68962464e-001 -6.36522621e-002 2.90887296e-001 -4.51904088e-001
      -1.56356264e-002 -3.68931657e-003 -5.00569828e-002 8.38583112e-002
      2.98855547e-002 -2.77414083e-001 2.36627944e-002 2.36627944e-002
      4.65104461e-001 4.67360243e-002 -8.43062028e-002 -1.07321084e-001
      -2.87792571e-002 -3.24489951e-001 -5.03741503e-001
      -8.09371054e-001 2.17614561e-001 9.55314755e-001 -7.23640397e-002
      -3.16202641e-001 -4.27055269e-001 -6.41587079e-001
      -9.04240429e-001 -1.35120606e+000 -1.04588461e+000 6.26661181e-001
      -4.05558310e-002 -7.25956738e-001 -2.24914476e-001
      -1.56648755e-001 -6.61706626e-002 -1.21058926e-001
      -2.52180070e-001 2.39536315e-002 2.59388387e-001 4.29133952e-001
      2.69446760e-001 -1.32302254e-001 -3.16292554e-001 -4.00455147e-001
      -5.66543043e-001 -5.69320261e-001 -4.72725391e-001 4.95106369e-001
      9.94346738e-002 -1.65146217e-001 -2.40223661e-001 -5.58726609e-001
      -6.64541006e-001 -3.07275891e-001 -4.10399646e-001 5.60807846e-002
      7.36696064e-001 -1.93100512e-001 -4.68173891e-001 -5.36594428e-002
      -3.95249903e-001 -1.12609342e-001 5.22483706e-001 -9.41461697e-002
      3.50668468e-002 1.69848144e-001 -3.93863544e-002 1.65569976e-001
      8.29937980e-002 -1.69387072e-001 7.63324276e-002 -3.27085257e-001
      -1.79460078e-001 -2.17941865e-001 -1.83180675e-001
      -3.89139116e-001 -2.05131575e-001 2.85765547e-002 -4.62910384e-002
      1.21763878e-001 2.09684983e-001 -1.64197579e-001 -1.02916397e-001
      -1.07144117e-001</_>
    <_>
      7.32692145e-003 -2.25442685e-002 7.00298697e-002 1.05262762e-002
      1.46794934e-002 -1.51760608e-001 -3.85539122e-002 -6.84670359e-002
      -6.37488440e-002 -8.21038634e-002 -1.52186021e-001 4.77443524e-002
      2.09007472e-001 1.16301011e-002 -2.90946420e-002 1.15735509e-001
      1.10643864e-001 -7.30921477e-002 -3.89423072e-002 1.64776564e-001
      1.41050249e-001 1.52207345e-001 3.63746956e-002 -2.99631953e-001
      -2.57448226e-001 -3.06155026e-001 -3.24443579e-002
      -1.41806722e-001 -6.12235591e-002 7.22340941e-002 7.47948214e-002
      -7.85558820e-002 -5.09254038e-002 4.98496331e-002 -7.25146607e-002
      -3.95796821e-002 1.23577937e-001 -9.99974906e-002 -7.98541158e-002
      1.05230324e-001 -3.30423862e-002 -1.54130999e-002 9.13395584e-002
      1.97127491e-001 2.65999347e-001 2.63771683e-001 -2.58022964e-001
      -4.55263525e-001 -1.31048843e-001 -2.45125175e-001
      -7.51568750e-002 -1.67230405e-002 1.05796218e-001 4.32124197e-001
      1.02222606e-003 -2.22200945e-001 -2.31145263e-001 -4.99021970e-002
      -2.27346584e-001 -8.88193306e-003 1.16751641e-001 9.93639678e-002
      1.43440962e-001 1.45301849e-001 -3.81417364e-001 -5.48210979e-001
      -2.40104303e-001 -2.85997480e-001 -1.03784241e-001 1.02133984e-002
      9.98402089e-002 3.21098357e-001 1.99065015e-001 -3.39452356e-001
      -5.08725703e-001 -1.84743673e-001 -2.11054713e-001
      -2.55767331e-002 -3.78982686e-002 3.61643024e-002 4.13805276e-001
      1.23838419e-002 -2.99633831e-001 -3.05143118e-001 -1.85686529e-001
      -1.89085290e-001 1.40767276e-001 6.97223246e-002 3.38660032e-002
      1.33695036e-001 3.30096453e-001 -2.37278625e-001 -4.73104954e-001
      -2.98765153e-001 -3.10199201e-001 -3.35124508e-002 2.16973685e-002
      3.79251689e-002 5.02338767e-001 1.04320437e-001 -8.12513903e-002
      -1.56061262e-001 -3.83903146e-001 -4.20887843e-002 1.38943985e-001
      8.22562799e-002 -9.23516154e-002 2.83814847e-001</_>
    <_>
      -5.27617373e-002 1.70554724e-002 1.37669772e-001 -8.86939019e-002
      1.21449940e-001 -1.15950711e-001 -3.33521128e-001 -2.01864034e-001
      -1.24161460e-001 -1.20376021e-001 -2.64494091e-001 1.31147102e-001
      -2.51224674e-002 9.09338892e-002 9.02151391e-002 -4.64427620e-002
      1.71281368e-001 -1.49886876e-001 1.61779344e-001 2.34616995e-001
      3.14423293e-001 2.35759184e-001 2.57930011e-001 -1.05306402e-001
      -4.72184807e-001 -4.75564808e-001 -9.70911160e-002
      -1.40401572e-001 -5.48619591e-002 8.38565081e-003 2.67311409e-002
      1.23304576e-001 1.42283022e-001 1.06294833e-001 -1.23672508e-001
      -1.10821202e-002 7.90638179e-002 -3.64156693e-001 -2.74473399e-001
      9.52656195e-002 1.10004827e-001 -6.43038610e-003 -9.81777068e-003
      1.77374884e-001 1.09099902e-001 3.50688636e-001 -1.74367968e-002
      -1.71560362e-001 -7.30599184e-003 -9.05013233e-002
      -3.81818682e-001 -5.05969644e-001 -4.11862701e-001 2.80033290e-001
      1.49090499e-001 -3.79134923e-001 -3.78265828e-001 3.53732258e-002
      -2.42563188e-002 -2.47184616e-002 3.86817977e-002 -9.13486481e-002
      2.52609223e-001 2.60393471e-001 -1.66597530e-001 -1.17647104e-001
      4.11930792e-002 -1.49540693e-001 -3.68072808e-001 -4.68518972e-001
      -5.43413460e-001 2.28955641e-001 4.23919261e-001 -1.02663189e-001
      -1.20893873e-001 -6.92688227e-002 -1.14376381e-001
      -2.12117761e-001 -3.20951432e-001 -5.28899550e-001 3.14538777e-001
      1.98086828e-001 -4.11430985e-001 -4.49750960e-001 -6.89725801e-002
      -2.72544101e-002 -7.18294084e-003 -3.46252114e-001
      -3.82771850e-001 2.00904503e-001 2.61860490e-001 -1.65374130e-001
      -3.12321503e-002 -1.29283806e-002 -2.98926681e-002
      -2.17995495e-002 -7.17543662e-002 -3.99866819e-001 2.36111745e-001
      1.24780707e-001 -5.66174686e-001 -4.80194837e-001 -7.38630369e-002
      3.92727107e-001 2.93456763e-001 1.55882433e-001 -1.26325130e-001
      3.54469776e-001</_>
    <_>
      -1.85336158e-001 -1.67911321e-001 3.84817451e-001 2.34269485e-001
      2.01285020e-001 -5.75178443e-003 -1.62117463e-002 -1.39133818e-002
      -1.63330764e-001 -5.60004339e-002 -3.51746708e-001
      -1.18013814e-001 3.32914025e-001 -2.56244447e-002 9.08847600e-002
      1.41585872e-001 2.53068864e-001 -7.89962988e-003 -3.00735503e-001
      8.15553218e-002 8.18269476e-002 2.00736761e-001 9.14514959e-002
      -1.75926521e-001 8.80241171e-002 -6.11828314e-003 -2.01218754e-001
      -2.28397191e-001 2.67642327e-002 5.72632477e-002 3.78227513e-003
      -1.09730847e-001 -3.77170183e-002 3.62743586e-001 1.36454150e-001
      -5.98337464e-002 -1.22685768e-002 -4.05836731e-001
      -3.43613267e-001 1.06399931e-001 -1.07011475e-001 6.87160641e-002
      9.74907130e-002 2.51386374e-001 3.11895847e-001 1.88421994e-001
      -7.30818689e-001 -4.65219259e-001 -4.19410735e-001
      -4.07638192e-001 -6.39314875e-002 -2.69951761e-001
      -2.07540393e-001 1.98468164e-001 1.67858258e-001 -1.49872238e-002
      -3.46481521e-003 7.33789131e-002 -2.19357535e-001 2.98718959e-002
      1.84066519e-001 2.08225131e-001 2.41010845e-001 2.31691793e-001
      -1.90085545e-001 -2.20860675e-001 -2.04056919e-001
      -3.72995496e-001 -1.33709013e-001 -2.75405675e-001
      -5.33870518e-001 2.31424496e-001 5.17305374e-001 -3.06940794e-001
      -3.03431541e-001 -5.57321429e-001 -9.37949777e-001
      -3.68499726e-001 -4.96087492e-001 -3.21976066e-001 4.69198495e-001
      5.65353692e-001 -3.73168558e-001 -1.21969372e-001 -1.89170942e-001
      -4.33866292e-001 -8.16521645e-002 -2.02967823e-001
      -2.51547724e-001 3.43433052e-001 4.89626527e-001 -4.65401053e-001
      -2.87533164e-001 -3.20185244e-001 -6.01581097e-001
      -1.50159732e-001 -3.10639501e-001 -5.83823502e-001 5.57138801e-001
      2.88127005e-001 -6.03619099e-001 -1.50689051e-001 -1.28054708e-001
      7.92731792e-002 3.07774365e-001 1.00268155e-001 -3.34432513e-001
      1.28693476e-001</_>
    <_>
      -2.92926908e-001 -8.30757394e-002 2.29544595e-001 -2.94801015e-002
      5.01583926e-002 -1.12824835e-001 -3.33224759e-002 -3.92090157e-003
      -9.12594497e-002 -2.76474357e-001 6.52242228e-002 2.40695015e-001
      1.27842665e-001 6.58292845e-002 -8.20468962e-002 -8.06927215e-003
      1.59322292e-001 -2.61239171e-001 -1.19166389e-001 -1.56221427e-002
      1.36942551e-001 1.11042179e-001 -6.27408326e-002 -2.64537394e-001
      -4.89316322e-002 -8.07217136e-002 -9.21790600e-002 1.03852570e-001
      7.33768493e-002 6.32337704e-002 -1.75471798e-001 -2.85217404e-001
      -3.27091694e-001 -1.79241657e-001 -3.98573838e-002 1.93188310e-001
      3.39862294e-002 7.90975150e-003 2.30821129e-002 -5.02554281e-003
      8.47329386e-003 -1.26514211e-001 -1.56672478e-001 9.27199647e-002
      7.42565095e-002 3.10927868e-001 -7.80503526e-002 -2.61281669e-001
      -2.73166656e-001 -2.75503039e-001 -2.34578460e-001
      -3.05533201e-001 -1.91013649e-001 1.98821887e-001 4.55598712e-001
      1.87450066e-001 -6.99644908e-002 -1.29959926e-001 -2.90121317e-001
      -3.22741121e-001 -4.46189672e-001 -2.71296412e-001 3.64865154e-001
      1.81093678e-001 5.98182343e-002 -1.59018278e-001 -8.61381590e-002
      -1.56558558e-001 -2.56463259e-001 -3.62829477e-001
      -3.53056759e-001 1.89676985e-001 3.34472537e-001 -1.49874851e-001
      -1.89365670e-001 -1.50617555e-001 -2.08213672e-001
      -1.73721835e-001 -2.53137410e-001 -3.67649615e-001 2.73600131e-001
      2.80041575e-001 -2.03853339e-001 -2.87504852e-001 -7.76301622e-002
      1.90520268e-002 -2.77100075e-002 -3.08180302e-001 -4.75759566e-001
      1.38041720e-001 1.79712176e-001 -1.94615960e-001 -3.17716539e-001
      -6.22978657e-002 -6.09279796e-002 1.28997862e-002 -5.05087664e-003
      -9.87707153e-002 1.60945460e-001 1.44364074e-001 -4.52035278e-001
      -5.57389855e-001 -1.81431711e-001 3.07233214e-001 2.66038477e-001
      1.56405330e-001 -1.35481551e-001 2.71116972e-001</_>
    <_>
      -5.74844219e-002 -1.79977864e-001 1.48571432e-001 1.45577133e-001
      1.58799767e-001 -1.30423710e-001 -2.19330505e-001 -3.59209217e-002
      5.76502606e-002 -3.25465411e-001 -1.59629717e-001 1.22163817e-001
      2.04929307e-001 1.79596581e-002 8.92941607e-004 -1.42756877e-002
      4.43621814e-001 -2.04279050e-002 1.32300211e-002 1.36921600e-001
      3.73634815e-001 2.78395385e-001 1.22388102e-001 -3.02663416e-001
      -5.42903543e-001 -1.81480885e-001 1.05145946e-001 -2.41439957e-002
      -1.22019025e-002 1.38811231e-001 -2.42663205e-001 -4.73907143e-001
      -2.80448139e-001 -4.14400846e-001 -1.04651116e-001 1.54586300e-001
      -1.26329362e-001 -1.77157789e-001 9.39820707e-002 1.57660678e-001
      -6.48026094e-002 -5.63384518e-002 -9.37807485e-002 2.90276021e-001
      1.36623919e-001 1.85702354e-001 -1.33458838e-001 9.80786863e-004
      2.33292039e-002 -1.46273181e-001 -1.32222548e-001 -2.07005635e-001
      -1.70920476e-001 1.16067074e-001 4.14513111e-001 -9.20708254e-002
      -4.65329476e-002 -1.33730814e-001 -4.63007450e-001
      -2.02594712e-001 -5.28833985e-001 -5.38261652e-001 5.37863135e-001
      1.53531820e-001 -7.55811930e-002 -2.01312639e-002 -3.62991286e-003
      -2.80859053e-001 -2.70159274e-001 -5.09143412e-001
      -7.32584774e-001 1.53531820e-001 3.44014138e-001 7.46743083e-002
      2.23633032e-002 -1.32898055e-002 -3.40861315e-003 5.73693998e-002
      -2.15544313e-001 -5.45138776e-001 1.50662631e-001 3.93117845e-001
      -3.28034014e-002 -1.61966383e-001 5.02205081e-002 1.05073839e-001
      1.70781821e-001 -5.28577447e-001 -8.37762654e-001 2.12987050e-001
      3.38488489e-001 -4.59576026e-002 -3.75218093e-002 -9.59464386e-002
      -2.57494330e-001 2.09479891e-002 -5.62845096e-002 -2.62901276e-001
      2.78798997e-001 2.58754998e-001 -3.55711907e-001 -6.23131633e-001
      -7.80581310e-002 1.62824109e-001 3.02932441e-001 9.60078239e-002
      -2.27184802e-001 2.99849719e-001</_>
    <_>
      -1.35949522e-001 5.34388781e-001 4.95254129e-001 5.89140225e-003
      -3.13257068e-001 -3.40968609e-001 -1.14054345e-001 9.23866685e-003
      9.64176469e-003 -1.45493791e-001 4.00566459e-002 2.52426803e-001
      2.08794892e-001 8.35189875e-003 -7.22476840e-002 1.01842746e-001
      1.76485494e-001 2.14630410e-001 -2.31737524e-001 -1.06686957e-001
      2.51846939e-001 1.96645275e-001 -1.34160072e-001 -3.26853693e-001
      -7.84370303e-002 -1.43954143e-001 2.47656330e-001 -4.46034938e-001
      -4.31869864e-001 -2.29494378e-001 -1.13224387e-002
      -2.34181568e-001 -7.53842294e-002 1.45128563e-001 5.11420472e-003
      2.57289141e-001 5.44958934e-002 -1.49925053e-001 -2.53705345e-002
      3.23965371e-001 1.84469223e-001 1.23831190e-001 1.38979390e-001
      2.30330408e-001 2.96142131e-001 4.31468412e-002 -6.80326164e-001
      -1.18129954e-001 -1.01399822e-002 2.90408358e-002 4.81995605e-002
      1.13256238e-002 7.62199759e-002 3.13149780e-001 -1.12737389e-002
      -5.98313212e-001 -3.01589876e-001 6.65708706e-002 -1.31447002e-001
      9.79370475e-002 7.57077262e-002 1.71424076e-001 5.15558600e-001
      2.47811228e-002 -6.02617502e-001 -3.32622439e-001 -1.25213221e-001
      -2.77175233e-002 -1.94658451e-002 -7.38815293e-002 6.51517510e-002
      3.75318855e-001 -1.63996786e-001 -6.93086684e-001 -9.25771147e-002
      -1.02490090e-001 3.26638408e-002 -3.36054596e-003 1.59827843e-002
      -4.05939408e-002 1.73259988e-001 -1.46249890e-001 -7.12846041e-001
      -2.04440415e-001 -2.18866840e-001 -1.26850829e-002 2.94292301e-001
      1.28809482e-001 -9.80596021e-002 1.09599195e-001 4.27410491e-002
      -4.78596449e-001 -2.31155306e-001 -1.08105116e-001 8.68120231e-003
      3.26670967e-002 6.83206841e-002 9.25744139e-003 3.99189293e-001
      -1.26610890e-001 -6.06207609e-001 -2.51311004e-001
      -1.75697550e-001 2.95340300e-001 4.16978657e-001 2.49540582e-001
      2.00173669e-002 2.35716268e-001</_>
    <_>
      -2.73877699e-002 -3.89647260e-002 1.79210324e-002 -8.42335895e-002
      2.27794811e-001 -6.55099005e-002 -9.04032737e-002 9.19659249e-003
      -5.82995415e-002 -2.35784605e-001 -1.39822990e-001 1.20345116e-001
      1.12470753e-001 3.42615783e-001 7.41820112e-002 3.81753594e-003
      -2.07996760e-002 -2.90644467e-001 -4.64590546e-003 2.70687282e-001
      2.95954645e-001 1.47632822e-001 2.13737458e-001 -1.10969335e-001
      -4.66270506e-001 -3.07187736e-001 4.28086184e-002 -9.04178247e-002
      -6.59401855e-003 -2.91520264e-003 -8.80726725e-002 8.76870975e-002
      2.77346727e-002 -2.12765902e-001 -2.78037656e-002 5.20680798e-003
      4.89030359e-003 -6.08121417e-002 -1.10247217e-001 1.26800165e-001
      1.65559232e-001 -8.11534673e-002 -2.76974626e-002 -1.50155216e-001
      -2.48721428e-002 2.66078651e-001 -5.10504782e-001 -4.71926451e-001
      -1.54003382e-001 -1.74994171e-001 -1.63427591e-001
      -1.42258137e-001 -2.44868189e-001 3.28347474e-001 1.99658543e-001
      -3.28118175e-001 -2.86989152e-001 -1.00086942e-001
      -1.60064697e-001 -1.83931142e-001 -1.04935355e-001
      -2.20763326e-001 3.26631933e-001 3.32014233e-001 -2.70713896e-001
      -3.35563093e-001 -1.99402541e-001 -3.62619549e-001
      -2.87291139e-001 -3.98822814e-001 -5.71202457e-001 2.85475552e-001
      2.64937252e-001 -4.36130583e-001 -2.59093761e-001 -9.00311917e-002
      -5.10343239e-002 6.44237474e-002 -2.24694148e-001 -4.86303449e-001
      2.93912500e-001 2.42539108e-001 -1.95128322e-001 -2.56141603e-001
      -1.57246906e-002 5.16117848e-002 6.59770891e-002 -4.55231369e-001
      -6.47452295e-001 1.63272038e-001 3.05896431e-001 -3.02459925e-001
      -2.32073858e-001 -6.63838387e-002 -5.60850650e-002 1.25382230e-001
      -7.89053291e-002 -4.44958389e-001 3.05896431e-001 1.60993814e-001
      -5.71197271e-001 -5.69405973e-001 -5.17532416e-002 3.31904560e-001
      3.02561313e-001 8.38921964e-002 -2.01460063e-001 3.29458624e-001</_>
    <_>
      5.97694777e-002 -1.15284979e-001 8.66091549e-002 1.24617815e-001
      -4.01566848e-002 8.35296139e-002 -3.26276302e-001 -2.40169719e-001
      1.49679258e-001 -2.18398049e-001 -1.09290250e-001 3.42783034e-001
      2.60226667e-001 3.80962789e-001 2.49652296e-001 3.33678164e-002
      -3.86698666e-005 -1.61908358e-001 2.35470831e-001 2.90014502e-002
      1.51206851e-001 2.54761964e-001 1.84430048e-001 9.21694969e-004
      -5.24315953e-001 -4.58101600e-001 2.12086305e-001 -1.16504133e-001
      8.69031772e-002 1.78557858e-001 8.81209970e-002 1.63813204e-001
      1.29578739e-001 -2.36681297e-001 -1.52893990e-001 -2.27457564e-002
      -1.02689885e-001 1.30575433e-001 1.25331163e-001 1.31863758e-001
      2.55550236e-001 9.16448534e-002 3.59812602e-002 -9.17708874e-002
      -9.71883386e-002 3.08961660e-001 1.80727065e-001 8.22626241e-003
      -4.75984216e-002 -2.27464691e-001 -1.07986994e-001
      -5.55428922e-001 -5.06739914e-001 9.94452834e-002 9.09101889e-002
      2.19560601e-002 -2.38279849e-002 -5.10283597e-002 -1.52632846e-002
      -7.68995844e-003 -3.54220308e-002 -1.42704964e-001 1.15435041e-001
      2.67198563e-001 -2.98706349e-002 -1.04368463e-001 -1.67671904e-001
      -2.23872930e-001 -2.30499014e-001 -2.86392003e-001
      -9.49223042e-002 1.91408575e-001 4.38272148e-001 -1.02600977e-001
      -5.68374172e-002 -6.92196041e-002 -4.73185122e-001
      -1.32596903e-002 -5.87381244e-001 -3.69752049e-001 5.19415855e-001
      9.57170203e-002 -4.50541377e-001 -2.61646569e-001 -7.89636970e-002
      -1.22284591e-001 8.68286639e-002 -4.44087744e-001 -3.30387652e-001
      3.99326652e-001 4.12860096e-001 -2.25400865e-001 -1.15547262e-001
      -1.60105467e-001 -2.00915188e-001 -2.70955991e-002
      -6.12552054e-002 2.25822348e-002 4.07164127e-001 9.37371403e-002
      -4.43712413e-001 -4.60962385e-001 -2.35887215e-001 3.34755868e-001
      3.00986469e-001 2.15865314e-001 -5.59343323e-002 3.11548859e-001</_>
    <_>
      1.74524993e-001 3.27104069e-002 -9.67678875e-002 -1.60864100e-001
      1.02185026e-001 8.87694284e-002 -9.74350274e-002 -5.16297780e-002
      9.70940143e-002 7.05087557e-002 -1.48112327e-002 -2.45144904e-001
      -2.22792760e-001 1.09026641e-001 1.49276778e-001 -1.65409788e-001
      5.56777008e-002 7.05377832e-002 2.89799839e-001 1.16147630e-001
      5.06849661e-002 4.92909811e-002 3.77865322e-002 4.85542491e-002
      -1.45435572e-001 2.65569729e-003 1.29727840e-001 9.27739814e-002
      -6.95174560e-002 -2.43444338e-001 -1.72047883e-001
      -2.61557288e-002 1.14199169e-001 -2.37758428e-001 -1.88105777e-002
      1.77165680e-002 -9.48941857e-002 -1.44687057e-001 -1.33383915e-001
      -9.94496047e-002 1.12651668e-001 -2.43472354e-003 -1.21854700e-001
      -1.10330291e-001 -1.79589704e-001 4.45826631e-003 4.47631031e-001
      4.95391071e-001 1.59301296e-001 2.00394601e-001 -3.47537756e-001
      -4.53544319e-001 -4.10150170e-001 -2.38303483e-001 1.60899699e-001
      3.99209559e-002 -9.00932550e-002 -1.06882304e-001 3.46226953e-002
      -1.08186893e-001 -2.86606610e-001 -1.95681691e-001 2.53236177e-003
      -1.59248859e-002 4.10005838e-001 6.03170872e-001 2.65418947e-001
      1.19759686e-001 -3.96405786e-001 -5.62094748e-001 -6.47899508e-001
      -2.25673467e-001 1.38270780e-001 4.56652313e-001 5.08039832e-001
      1.33428290e-001 2.67065227e-001 -1.76646844e-001 -4.04626787e-001
      -4.92754161e-001 -1.77078262e-001 2.45807558e-001 6.82676360e-002
      5.99355847e-002 1.97528526e-001 3.68515760e-001 -2.28654236e-001
      -5.51479042e-001 -4.78194743e-001 -9.47632454e-003
      -2.79214650e-001 1.56683862e-001 4.50517565e-001 2.78871447e-001
      3.31606179e-001 -1.30345136e-001 -2.26493478e-001 -3.76452118e-001
      -5.31380832e-001 2.04447120e-001 -3.64904612e-001 -2.79240012e-001
      2.04478830e-001 3.85858834e-001 3.28686275e-002 -9.77251008e-002
      8.14720690e-002 -5.18604778e-002</_>
    <_>
      6.83043897e-002 -1.81048825e-001 1.32086366e-001 5.01042157e-002
      3.72017682e-001 2.65304863e-001 2.14944676e-001 2.34789714e-001
      2.04616562e-001 2.22637892e-001 -1.09883845e-001 -4.04607624e-001
      -6.83291927e-002 1.91230208e-001 9.39248204e-002 9.16254446e-002
      3.05680603e-001 2.38706499e-001 -2.31122747e-001 -6.30490661e-001
      -1.97747260e-001 -8.31038654e-002 -6.97514489e-002 2.64377326e-001
      6.07584059e-001 6.69625938e-001 6.07604980e-002 -5.36583439e-002
      -1.71125263e-001 -2.03465715e-001 -1.59840226e-001
      -1.35523528e-001 -9.98958796e-002 1.65080026e-001 4.10691559e-001
      -2.10687280e-001 -1.24101572e-001 -1.25045389e-001
      -1.45560786e-001 -1.38103962e-001 1.82055250e-001 3.76331396e-002
      7.07317144e-002 2.84396335e-002 -1.19132347e-001 -4.51490998e-001
      1.95016667e-001 3.50565523e-001 -2.02742964e-002 3.13126594e-002
      -1.39777094e-001 -7.54593536e-002 -2.51373589e-001
      -4.92389053e-001 -2.49201488e-002 2.81519890e-001 3.98822963e-001
      -1.03654638e-001 7.54250064e-002 -1.20972611e-001 -1.18885860e-002
      2.66015213e-002 -3.88846427e-001 -2.14072555e-001 3.87264758e-001
      6.00921273e-001 1.98870108e-001 1.93843469e-001 -1.74167499e-001
      -2.26359695e-001 -4.10651147e-001 -5.54421902e-001
      -5.04370667e-002 6.90701246e-001 6.03808165e-001 -8.78616329e-003
      -4.03319210e-001 -3.27846497e-001 -2.55037010e-001
      -3.48550200e-001 -3.80143166e-001 3.13983947e-001 4.93143588e-001
      3.50774854e-001 1.02147767e-002 3.63190286e-002 -1.03083566e-001
      -2.13876694e-001 -1.80646807e-001 -1.01576403e-001
      -2.68820316e-001 3.25870335e-001 2.66424090e-001 3.13588411e-001
      -8.67795385e-003 -1.24577604e-001 -2.01585189e-001
      -3.73836607e-001 -4.86525834e-001 -1.39826372e-001 2.72905231e-002
      -2.47341525e-002 3.50770414e-001 8.14131200e-002 1.46387964e-001
      -6.28283545e-002 -3.72806728e-001 -5.39938092e-001</_>
    <_>
      -2.90419430e-001 8.78790393e-003 1.22675307e-001 -1.20331101e-001
      7.78290555e-002 5.74026816e-002 9.12831500e-002 1.65796325e-001
      -2.19348446e-002 -1.19826548e-001 1.26399517e-001 9.55372378e-002
      -1.40543565e-001 2.39949711e-002 -8.16333368e-002 -5.77444062e-002
      2.25176603e-001 -1.40158415e-001 -9.76738259e-002 -7.27682784e-002
      1.06187686e-002 -9.59803388e-002 -1.60980701e-001 7.27663189e-002
      2.44651064e-001 3.09049875e-001 9.91679430e-002 2.37075761e-001
      8.86180475e-002 -4.49839197e-002 -2.43435457e-001 -3.37055057e-001
      -3.29960555e-001 -2.40059912e-001 2.81027317e-001 2.25057140e-001
      3.78206838e-003 8.89947414e-002 1.19351536e-001 -2.39778832e-002
      1.43920248e-002 -1.44727051e-001 -2.03177512e-001 -1.66389138e-001
      -1.26418218e-001 1.54115736e-001 3.66197139e-001 1.95800126e-001
      -1.10744848e-003 -3.15133594e-002 -2.27501035e-001
      -2.95213163e-001 -4.68756109e-001 -2.70489484e-001 4.02500212e-001
      2.88790882e-001 1.58409197e-002 -5.86456507e-002 -1.20195180e-001
      -3.85529220e-001 -5.15692651e-001 -2.16714337e-001 3.15735221e-001
      7.22853020e-002 3.16200942e-001 3.64815950e-001 1.99960276e-001
      2.01389655e-001 -2.23422065e-001 -4.11915064e-001 -5.25932729e-001
      -1.32896796e-001 1.03116035e-001 3.34994256e-001 2.95421362e-001
      7.69605264e-002 6.94758520e-002 -1.09530464e-001 -3.13125908e-001
      -4.58593518e-001 -1.35646492e-001 1.84573770e-001 1.47330314e-001
      1.72016680e-001 1.30731255e-001 1.23391993e-001 -1.12996377e-001
      -4.63488609e-001 -4.60199237e-001 -2.27050111e-002
      -2.16886491e-001 7.54264221e-002 1.96266830e-001 1.89828426e-001
      2.36801177e-001 6.88435361e-002 -1.46053448e-001 -2.97352374e-001
      -2.98216045e-001 1.72359988e-001 -2.63506413e-001 -1.29567817e-001
      8.34237263e-002 1.48888692e-001 6.67858347e-002 -1.27152994e-001
      -1.70066401e-001 -5.46268225e-002</_>
    <_>
      1.13051478e-002 -1.03023909e-001 -5.80878146e-002 3.38587873e-002
      1.14849821e-001 7.51189217e-002 -1.40968319e-002 2.85242144e-002
      1.57492280e-001 -9.53007638e-002 2.49613263e-002 -2.01299451e-002
      -7.76544586e-002 1.07291587e-001 9.69178323e-003 -9.34144184e-002
      1.47557706e-001 7.71064535e-002 9.15226787e-002 -5.30528463e-002
      -6.43463060e-002 4.06697765e-002 9.54133086e-003 8.79007131e-002
      -2.03162506e-002 -1.27099147e-002 1.60728484e-001 2.75604606e-001
      5.64866550e-002 -4.64822054e-002 -2.07270250e-001 -1.96678430e-001
      -3.07492554e-001 -1.66984662e-001 3.77009995e-002 2.61580050e-001
      -1.57158569e-001 1.13125267e-002 2.84067523e-002 -5.24518266e-002
      1.22416608e-001 -9.87892449e-002 -1.58091769e-001 -2.00134423e-002
      -2.16647595e-001 -1.97515830e-001 1.54268175e-001 3.50482494e-001
      1.82424933e-001 2.21868709e-001 -8.29837322e-002 -1.65051833e-001
      -2.91027784e-001 -4.52579767e-001 4.46702659e-001 2.79545128e-001
      2.16186956e-001 -1.10809758e-001 -7.90340267e-003 -3.45057189e-001
      -4.61422831e-001 -3.10131937e-001 2.13450819e-001 -1.07351393e-002
      2.95051575e-001 4.66804415e-001 2.94793934e-001 1.79817274e-001
      -2.15543300e-001 -3.85012865e-001 -4.78795201e-001
      -2.72786111e-001 -1.58662058e-003 3.80961388e-001 4.75779772e-001
      2.01958343e-001 1.91163614e-001 3.04471590e-002 -2.77007937e-001
      -4.23395783e-001 -3.94485056e-001 3.25593144e-001 2.72970140e-001
      2.02796951e-001 1.81231111e-001 1.99017793e-001 -7.03926831e-002
      -3.90707254e-001 -4.44706023e-001 1.05236530e-001 -1.91584349e-001
      1.12610281e-001 3.17091346e-001 3.20590138e-001 1.78926617e-001
      2.46385839e-002 -8.94781724e-002 -2.03212723e-001 -3.31452012e-001
      1.27000645e-001 -2.01401368e-001 -6.12991080e-002 2.46789828e-001
      1.56551823e-001 1.09909318e-001 -9.73477140e-002 -1.61847100e-001
      -3.91748734e-002</_>
    <_>
      5.40105216e-002 7.27974772e-001 5.65334439e-001 -2.20610440e-001
      -7.51054764e-001 -2.44990915e-001 -4.00683433e-002 4.87304516e-002
      -2.33312510e-002 1.03738397e-001 4.00264412e-001 1.01681314e-001
      -2.68099755e-001 -3.04836512e-001 -2.80559212e-001
      -8.31536800e-002 1.80206001e-001 1.12145633e-001 -1.04620017e-001
      2.52310812e-001 3.54750663e-001 6.51673973e-003 -3.77823889e-001
      -6.63916171e-002 3.53365660e-001 5.15235782e-001 1.83591887e-001
      -1.26175568e-001 -3.01983535e-001 -4.28198069e-001
      -3.84278715e-001 -3.42362612e-001 -1.47458494e-001 1.39399599e-002
      5.28428018e-001 1.70205534e-001 -3.42821591e-002 -1.21649377e-001
      -1.02240555e-001 9.11941454e-002 3.40438783e-001 -1.79176927e-002
      2.20338367e-002 8.67177248e-002 4.70942967e-002 -5.10785937e-001
      -2.86854152e-002 3.93159837e-001 1.80473804e-001 3.25763822e-001
      -3.26403975e-002 -8.14125451e-005 -1.08279981e-001
      -1.88733727e-001 6.01118654e-002 -8.84743929e-002 -4.93781358e-001
      -1.95259094e-001 1.22311160e-001 -1.41059840e-003 -8.60114321e-002
      1.25132084e-001 2.24416077e-001 -2.89664537e-001 3.57652269e-002
      2.56704956e-001 1.35767743e-001 3.17680895e-001 -3.04770619e-002
      -1.22917503e-001 -2.93904189e-002 -2.52084196e-001
      -6.17119372e-001 -9.44658965e-002 5.62958539e-001 2.26159781e-001
      2.45110050e-001 5.51809836e-003 7.02484250e-002 -2.86646951e-002
      -3.22945684e-001 -3.70841593e-001 -1.44784316e-001 1.99754924e-001
      2.12846145e-001 2.71365970e-001 1.82141557e-001 7.87023604e-002
      -6.26082346e-002 -2.24136487e-001 -6.08462095e-001
      -6.39373809e-002 4.85756755e-001 3.54461432e-001 4.17440265e-001
      1.12743482e-001 1.79139614e-001 8.49965140e-002 -4.29280758e-001
      -2.64604419e-001 -2.70069599e-001 1.40454561e-001 5.87262809e-001
      5.85881174e-001 4.15942550e-001 3.48073214e-001 1.38262779e-001
      -2.82094389e-001</_>
    <_>
      7.88847730e-002 1.23449862e-001 -4.62858267e-002 -7.57585987e-002
      2.20099941e-001 1.13773547e-001 5.69156930e-002 3.26817594e-002
      1.25068322e-001 8.47729817e-002 4.89469841e-002 -2.42545418e-002
      -7.74852410e-002 1.53655395e-001 -3.42855882e-003 -2.66559780e-001
      -1.94051236e-001 -2.22411916e-001 1.65513679e-001 1.14261203e-001
      -5.40745482e-002 2.78249681e-002 7.98010156e-002 1.52890310e-001
      -2.51615979e-002 -6.64118156e-002 2.00589329e-001 1.08547352e-001
      -8.87859389e-002 -9.79663581e-002 -1.59536064e-001
      -1.91787273e-001 -1.54092818e-001 -2.22393334e-001 1.37274237e-002
      8.35428759e-002 -4.96799909e-002 2.09580570e-001 2.34740078e-001
      -5.38996346e-002 1.09908216e-001 -1.14594445e-001 -2.71557719e-001
      -4.49700207e-001 -4.58315015e-001 -1.73224986e-001 1.12264790e-001
      3.00022095e-001 7.37388134e-002 1.00431532e-001 -2.77058691e-001
      -2.41758704e-001 -5.11523306e-001 -4.22685206e-001 3.01609069e-001
      8.19296464e-002 4.03568357e-001 -1.99903384e-001 -2.42149279e-001
      -3.08579266e-001 -4.92230475e-001 -3.10181081e-001 2.17677262e-002
      1.55413702e-001 3.81465375e-001 6.82419419e-001 1.09532893e-001
      -1.48368105e-001 -5.22736847e-001 -5.63218236e-001
      -6.08829618e-001 -2.17369482e-001 1.42373573e-002 3.34355354e-001
      4.73839909e-001 1.45724148e-001 2.29678065e-001 -9.71269086e-002
      -3.50982755e-001 -6.48154378e-001 -3.63560259e-001 4.72239345e-001
      3.70743960e-001 3.27516735e-001 4.92582954e-002 2.79104501e-001
      -1.83162272e-001 -7.22537518e-001 -6.81979060e-001 9.27869454e-002
      -2.13700712e-001 9.08273458e-002 3.42971534e-001 2.61279553e-001
      2.23416880e-001 -7.08062127e-002 -3.19783658e-001 -4.95826811e-001
      -2.95876592e-001 2.16888428e-001 -3.28962147e-001 -3.09148699e-001
      6.72796294e-002 2.26990923e-001 1.76308841e-001 -1.59172103e-001
      -7.90237188e-002 9.37187970e-002</_>
    <_>
      -4.02313434e-002 -3.51832658e-002 -6.64604083e-002 9.58056375e-002
      2.82238603e-001 2.36712724e-001 -1.22868061e-001 -8.16416293e-002
      2.04042643e-001 -8.02488476e-002 -6.10424131e-002 1.22031875e-001
      1.38395622e-001 4.23456162e-001 2.06799313e-001 -1.20886005e-001
      -1.45219713e-001 -1.10737681e-001 1.46274671e-001 5.11974432e-002
      2.03855783e-002 1.10477872e-001 1.96906000e-001 2.47568682e-001
      -2.80835062e-001 -1.99146673e-001 1.60065621e-001 4.74368073e-002
      8.83175582e-002 -5.09579889e-002 7.09703341e-002 1.20618023e-001
      1.61912695e-001 -1.71695158e-001 -1.61286652e-001 -7.68215880e-002
      3.34581770e-002 1.72164991e-001 2.81591296e-001 1.39338881e-001
      2.85110325e-001 -1.70775935e-001 -2.09048972e-001 -6.26468539e-001
      -4.67485458e-001 3.20041090e-001 5.65128863e-001 3.22308928e-001
      -1.42115848e-002 -6.61475933e-004 -5.96640110e-001
      -6.29838109e-001 -8.19774926e-001 -3.16877723e-001 1.95612669e-001
      1.09513007e-001 1.87435001e-001 1.03812188e-001 1.86862841e-001
      -5.20637222e-002 -1.45731166e-001 -2.00202599e-001
      -5.25486805e-002 -2.71852035e-002 1.16700716e-001 5.28492928e-001
      1.00074105e-001 3.13111581e-002 -3.36649239e-001 -3.28726351e-001
      -1.43661082e-001 -2.47382328e-001 1.75862715e-001 4.51025754e-001
      2.42501184e-001 -1.19094796e-001 1.12022996e-001 -1.97340369e-001
      -5.49820900e-001 -7.45360196e-001 8.72616544e-002 4.57165629e-001
      1.41803235e-001 -3.74092720e-002 -1.36188846e-002 1.16981260e-001
      -1.22882418e-001 -5.87810457e-001 -5.97927690e-001 3.25886965e-001
      -3.87414038e-001 -1.05912976e-001 2.45780781e-001 6.42622560e-002
      2.22513825e-001 -5.41682206e-002 -9.21593606e-002 -7.13373125e-002
      -2.30688542e-001 3.10005337e-001 -2.89767414e-001 -4.03370559e-001
      3.07293646e-002 3.04658443e-001 1.47159889e-001 2.10066617e-001
      1.40685514e-001 3.89763355e-001</_>
    <_>
      -1.80592880e-001 -3.47317219e-001 3.38054836e-001 1.73967749e-001
      2.75381595e-001 1.88332826e-001 3.47802967e-001 2.24691093e-001
      -2.04547763e-001 6.59190193e-002 -6.49826452e-002 1.09649613e-001
      2.21725777e-001 6.29114583e-002 8.23229104e-002 2.85403252e-001
      2.95699090e-001 3.21723521e-002 -7.36075044e-001 -5.17516732e-001
      -1.31956995e-001 -4.56538349e-002 1.99689269e-001 1.63725168e-001
      8.01948726e-001 7.41442680e-001 -5.07052720e-001 -2.15137169e-001
      2.51322359e-001 2.51787096e-001 -9.89025161e-002 -2.56643742e-002
      -2.94531696e-002 3.93748909e-001 7.31631994e-001 -1.90362215e-001
      -2.16149420e-001 -4.51872274e-002 -6.69394284e-002 2.33926978e-002
      7.47137843e-003 1.29220530e-001 2.54948735e-001 2.02936113e-001
      1.40255600e-001 -2.78784692e-001 -5.48707068e-001 -4.24500734e-001
      -2.02409610e-001 -1.79392770e-001 4.07275140e-001 6.52226985e-001
      3.63228410e-001 -5.76410219e-002 -1.00962758e-001 4.98849064e-001
      3.50243151e-001 -3.01424991e-002 1.37913357e-002 9.83504355e-002
      2.20739111e-001 5.46859980e-001 -1.48937076e-001 -1.22564100e-001
      7.08519369e-002 -1.35589615e-001 -1.83791220e-001 -8.76392126e-002
      3.56322289e-001 3.96309495e-001 1.40114233e-001 -4.33949493e-002
      -5.54161146e-002 6.55326843e-002 -3.19214799e-002 -1.66580960e-001
      -5.59102535e-001 -1.87613383e-001 3.10928792e-001 4.05702978e-001
      7.37004429e-002 -2.97567755e-001 2.02742949e-001 3.21723044e-001
      9.67484117e-002 -1.88138381e-001 -4.33584861e-002 6.30443096e-001
      5.85483611e-001 -1.56257689e-001 1.33808732e-001 6.52236119e-002
      -1.11537479e-001 -1.54205531e-001 -3.16196263e-001
      -8.34084377e-002 -2.43814960e-002 -1.64261267e-001 9.15302783e-002
      -3.10297608e-001 1.94824815e-001 2.61822164e-001 -2.82704104e-002
      -1.64633080e-001 -3.20838485e-003 1.03389427e-001 -2.06754684e-001
      -6.79717183e-001</_>
    <_>
      -6.42746150e-001 -2.01782808e-001 3.60840023e-001 -2.45080352e-001
      -2.30292961e-001 -1.26515538e-001 3.28462660e-001 2.92701274e-001
      -2.14283779e-001 -4.61400419e-001 1.43019244e-001 5.75998068e-001
      -1.11349290e-002 -3.19780521e-002 -1.93519473e-001 8.00461024e-002
      2.70874530e-001 -4.95582104e-001 -4.68103588e-001 -4.49057251e-001
      -2.39851668e-001 -5.63499510e-001 -6.22265100e-001
      -3.02386358e-002 1.03562713e+000 7.94076204e-001 7.33517408e-002
      4.76435781e-001 4.66841698e-001 4.20842618e-001 -4.78651464e-001
      -9.20389533e-001 -6.40371203e-001 -3.66640598e-001 3.35263044e-001
      5.66550255e-001 -1.28166541e-001 2.10957542e-001 3.22967052e-001
      -2.29289178e-002 -1.56825289e-001 -2.46992499e-001
      -2.47095078e-001 -2.39581436e-001 -7.31475651e-002 2.13798940e-001
      -1.98634207e-001 -5.04884601e-001 -4.61978525e-001
      -1.92864060e-001 -1.27506431e-003 8.90646204e-002 -1.42788053e-001
      7.47599155e-002 9.63619173e-001 9.98901248e-001 6.00294828e-001
      1.21555649e-001 -2.97711015e-001 -3.79807413e-001 -8.83976460e-001
      -2.32324421e-001 2.08124235e-001 -1.95011482e-001 -2.88015306e-002
      -2.16885284e-001 9.98495519e-002 2.40249321e-001 3.08187157e-001
      -1.32441565e-001 1.28146810e-002 -1.44085705e-001 7.56467134e-002
      -2.22272009e-001 -2.20554650e-001 -1.61514610e-001 9.41488668e-002
      5.83831258e-002 9.40146018e-003 1.46191254e-001 2.48076320e-001
      -2.68525034e-001 -2.06897244e-001 -2.76206404e-001
      -7.49537721e-002 6.39185384e-002 1.98910117e-001 4.99059781e-002
      -8.82357061e-002 -8.83129761e-002 -2.20591292e-001 1.17865108e-001
      -1.42649278e-001 2.80443519e-001 3.96134764e-001 2.97249138e-001
      3.72111946e-002 2.94798166e-001 -4.30931933e-002 -5.28163135e-001
      -2.12418243e-001 -1.38418093e-001 2.76848227e-001 6.62481189e-002
      -3.96274328e-002 -2.49109849e-001 -2.92538255e-001
      -3.23874205e-001</_>
    <_>
      -2.60295626e-002 7.66258407e-003 -1.26495972e-001 1.30052179e-001
      1.52661085e-001 6.83813542e-002 3.13399643e-001 4.00845319e-001
      2.51753837e-001 -2.35562995e-001 -3.47379409e-002 6.78271428e-002
      3.54207903e-001 -1.34716123e-001 -1.43059134e-001 -8.56723040e-002
      1.34341910e-001 2.24800572e-001 2.62239184e-002 -3.13292891e-002
      -3.35047007e-001 -8.38015601e-002 -1.73583791e-001
      -1.87190443e-001 3.81710716e-002 1.42396659e-001 2.20365241e-001
      7.22813904e-001 5.66334963e-001 3.87944043e-001 -1.50893524e-001
      -1.00346255e+000 -1.14031887e+000 -8.76908720e-001
      -2.74342984e-001 6.48160577e-001 -2.41323441e-001 -1.96674705e-001
      3.93352747e-001 9.67077464e-002 -5.76538546e-003 -2.93509841e-001
      -1.61386207e-001 7.53634050e-002 1.00425174e-002 -8.09949696e-001
      -8.89194489e-001 -1.69270635e-001 2.01519772e-001 3.09485167e-001
      5.36904752e-001 6.59657955e-001 2.37593293e-001 -7.81531751e-001
      1.14741027e+000 1.02247655e+000 1.00066054e+000 1.50543422e-001
      -4.41467315e-001 -5.96265197e-001 -9.05085087e-001
      -8.94136131e-001 5.89809954e-001 -1.36231273e-001 -1.34676605e-001
      2.21044689e-001 3.13900232e-001 3.75498921e-001 4.35158312e-001
      2.01428905e-001 4.11715964e-003 -4.97316957e-001 -5.71235418e-001
      -1.32326707e-001 1.09814867e-001 3.10111135e-001 2.90278822e-001
      5.54726958e-001 5.07458031e-001 -1.84860244e-001 -9.98404026e-001
      1.59964994e-001 5.42192459e-001 1.09368458e-001 1.64379433e-001
      2.42746189e-001 2.36424789e-001 -1.54594406e-002 -1.89827174e-001
      -1.61772460e-001 -2.71445513e-001 3.45042255e-003 2.32774802e-002
      3.90194774e-001 1.45914152e-001 2.80288786e-001 1.90368786e-001
      2.64773844e-003 -1.17348172e-001 -1.20970987e-001 1.11255616e-001
      -9.54811722e-002 2.06117302e-001 -3.34919132e-002 -1.41441584e-001
      -9.64336917e-002 -2.23120093e-001 -1.30534321e-001</_>
    <_>
      -1.47392347e-001 3.54443878e-001 3.64204615e-001 -3.00540663e-002
      -3.68486941e-001 -1.00155972e-001 2.54001349e-001 1.96810797e-001
      2.90174759e-003 1.14453696e-001 4.31438178e-001 1.42042547e-001
      -9.64680538e-002 -2.02301994e-001 -2.26220071e-001 2.09817588e-001
      1.57262698e-001 1.10236615e-001 -3.77858341e-001 -1.33003235e-001
      -5.45199625e-002 -1.32299885e-001 -3.90249223e-001
      -1.11266181e-001 4.08558398e-001 3.30265939e-001 1.72327802e-001
      -1.61295578e-001 -2.42238611e-001 -2.71887064e-001
      -3.10097545e-001 -2.86389828e-001 -3.20574552e-001 2.60709614e-001
      3.31856042e-001 2.37966269e-001 1.73846453e-001 2.17551768e-001
      1.46823019e-001 1.34569947e-002 7.38081932e-002 4.77548018e-002
      1.22163743e-001 9.54261720e-002 1.56443223e-001 -1.48321137e-001
      -3.52962494e-001 -8.73992220e-002 3.01025379e-002 1.34857267e-001
      3.68151635e-001 3.86785269e-001 2.24173278e-001 3.69035080e-002
      -1.19151056e-001 -1.61272720e-001 -2.43627429e-001
      -2.35561296e-001 -1.25867110e-002 1.90701708e-002 2.49130558e-002
      2.76934236e-001 2.68475324e-001 -1.33076400e-001 -4.16723371e-001
      -4.33095485e-001 -1.04706384e-001 1.70224190e-001 3.57713461e-001
      2.13151738e-001 5.15198290e-001 1.01939358e-001 -4.19316560e-001
      -4.09689188e-001 -1.37577849e-002 9.50063542e-002 1.28723174e-001
      2.51609862e-001 3.24084163e-001 3.00046146e-001 -6.59485459e-002
      -4.47850943e-001 -2.88675517e-001 1.86693579e-001 4.53945324e-002
      2.14827918e-002 2.93630987e-001 5.28586328e-001 3.31239343e-001
      -7.45155364e-002 -1.75693795e-001 -2.46316195e-001
      -1.78401202e-001 2.85019204e-002 5.85104227e-002 2.65293002e-001
      2.65169621e-001 3.80708784e-001 1.26351714e-001 -3.09089035e-001
      4.55984809e-002 2.57577509e-001 1.52990624e-001 9.82604083e-003
      2.10811734e-001 2.00789303e-001 1.99182238e-002 -1.32972479e-001</_>
    <_>
      -4.87451851e-002 1.24140672e-001 4.76560056e-001 4.01869953e-001
      3.03299725e-001 -5.10823317e-002 1.22299403e-001 2.89631248e-001
      1.30613418e-002 -5.40824048e-002 4.75847870e-001 1.21157587e+000
      9.77644026e-001 5.35594583e-001 -3.71122807e-001 -6.95492029e-001
      -1.82354200e+000 -1.09853566e+000 -1.45272911e-001
      -3.61694023e-002 1.46646142e-001 8.59925151e-002 1.06393382e-001
      3.02624494e-001 4.08529565e-002 -1.81260839e-001 1.75026745e-001
      5.00077568e-003 -1.10585667e-001 1.44746900e-001 1.04750060e-001
      -1.84901461e-001 -5.48006713e-001 -4.24484044e-001
      -1.04760714e-001 7.73796290e-002 7.95100272e-001 7.59565592e-001
      5.79088748e-001 -1.47045180e-001 -2.51452416e-001 -4.74711001e-001
      -4.89032447e-001 -1.30687332e+000 -4.65229839e-001
      -1.59327805e-001 -2.05416775e+000 -1.98002875e+000
      -9.99021053e-001 -4.62007225e-001 6.76522017e-001 1.01548779e+000
      5.75473487e-001 -1.37586698e-001 2.24546507e-001 7.89483041e-002
      8.79654810e-002 -3.04992199e-001 -4.18009222e-001 -3.95962834e-001
      -2.32559845e-001 1.09859124e-001 8.36563557e-002 3.89779061e-001
      -8.34210068e-002 -4.87594098e-001 -6.11397684e-001
      -1.58666432e-001 4.75220859e-001 -1.22579135e-001 4.22863871e-001
      7.90596381e-002 -7.26603508e-001 -7.75362432e-001 -6.52853191e-001
      4.09739884e-003 7.40602165e-002 6.63267016e-001 7.55861938e-001
      2.52482332e-002 -5.81890106e-001 1.16261773e-001 6.75629139e-001
      -1.04110781e-002 -2.21358731e-001 3.41885239e-002 -2.13385262e-002
      1.38306230e-001 6.10625111e-002 2.86316782e-001 -6.93732202e-002
      9.40619037e-002 -3.20801586e-001 1.61848944e-002 -4.28097509e-003
      3.82896543e-001 -6.07488491e-002 -4.80713457e-001 3.36359650e-001
      -2.78930366e-001 6.85644289e-003 -2.80327648e-001 -1.46937415e-001
      -4.64504614e-004 -1.56713992e-001 4.36673373e-001 4.71972115e-002
      -1.22312702e-001</_>
    <_>
      -8.35984573e-002 -3.86021256e-001 -1.97201833e-001 1.21504299e-001
      1.18007802e-003 3.62423420e-001 1.09679975e-001 3.69005948e-001
      2.65339077e-001 -2.83121496e-001 2.44751468e-001 8.80514264e-001
      9.07501340e-001 6.37663960e-001 4.14951265e-001 -7.59988353e-002
      -4.65526134e-001 -6.24152184e-001 2.11750686e-001 -1.90031663e-001
      -3.37836266e-001 -4.72549349e-002 -1.54033557e-001 1.46128565e-001
      -2.35111356e-001 -1.94281757e-001 4.10099000e-001 2.14922186e-002
      6.61744177e-001 8.52931321e-001 4.33701038e-001 1.49202114e-002
      1.06643833e-001 -4.83459383e-001 -5.19401670e-001 -1.35574475e-001
      -1.21095583e-001 8.34338844e-001 9.61732209e-001 6.55799210e-001
      4.53411788e-001 1.16744958e-001 1.54667236e-002 -1.04710472e+000
      -9.07639682e-001 4.63503510e-001 3.46331596e-001 -3.93729769e-002
      -2.32334495e-001 -3.03417712e-001 6.12588339e-002 -1.32653937e-001
      -4.00949210e-001 -5.74028380e-002 9.71314758e-002 3.11119258e-001
      8.14854145e-001 2.95920849e-001 1.66835979e-001 2.28000790e-001
      3.17769200e-001 4.21639904e-002 -3.69718283e-001 3.20185274e-002
      -9.31109011e-001 -5.13402283e-001 -4.44864810e-001
      -6.90266192e-001 -3.71248368e-003 6.85384035e-001 1.45317948e+000
      1.46668196e-001 3.44074905e-001 1.16760850e-001 -3.00932914e-001
      -4.64999914e-001 -4.54484254e-001 1.28400311e-001 -1.37235239e-001
      8.84683132e-002 5.98709702e-001 7.34615251e-002 4.82990919e-003
      -1.65408999e-001 -1.84349731e-001 -1.95084587e-001 3.12943876e-001
      1.39469758e-001 -2.84116119e-001 2.35401616e-001 4.03524339e-001
      -2.88418680e-001 -4.85805511e-001 -2.72166580e-001
      -4.42705154e-001 -1.02282383e-001 -4.52788174e-002 8.24420571e-001
      9.49899316e-001 -2.88683504e-001 1.82628110e-002 -2.06049398e-001
      -8.80165026e-002 -1.80546939e-001 -7.24229217e-002
      -2.20944941e-001 -3.21712017e-001 -2.20959000e-002</_>
    <_>
      -2.58269876e-001 1.62731126e-001 6.56724870e-002 -2.74791211e-001
      -1.16124906e-001 -1.30916089e-001 4.59605828e-003 1.23916395e-001
      -7.33831385e-003 -1.27084479e-001 2.68345445e-001 3.61770689e-001
      -4.13317140e-003 1.05430737e-001 -1.00211598e-001 -3.79469544e-002
      6.17004074e-002 -3.29434067e-001 2.33424842e-001 3.49201378e-003
      -1.99798513e-002 -2.63953835e-001 -5.13767421e-001
      -2.66375899e-001 -8.16353261e-002 6.42035380e-002 4.55157369e-001
      2.74263263e-001 5.85106313e-002 5.28714024e-002 -3.14340621e-001
      -4.31326985e-001 -5.15155673e-001 -5.14026165e-001
      -1.53221667e-001 3.03791016e-001 9.21634734e-002 1.80794105e-001
      2.59450853e-001 3.69872302e-002 -2.81368643e-002 -1.85350716e-001
      -2.74440914e-001 -2.16553390e-001 -1.10231854e-001 5.62911987e-001
      3.10761809e-001 -7.61943310e-002 -9.03329253e-002 -9.56307501e-002
      -2.75863111e-001 -2.56937295e-001 -3.78098130e-001 1.27753451e-001
      4.44549382e-001 1.95706591e-001 -2.13375270e-001 -2.17578933e-001
      -3.39588732e-001 -5.92079461e-001 -7.31104016e-001
      -5.13528645e-001 4.55040753e-001 3.73001099e-001 -1.97220296e-002
      -2.62841523e-001 3.17594260e-002 7.53518790e-002 -3.17125946e-001
      -3.16726923e-001 -3.02206188e-001 2.05152050e-001 3.29784214e-001
      -1.51858374e-001 -1.46161169e-001 5.13839275e-002 4.16306317e-001
      5.49141318e-002 -1.34298086e-001 -2.89137483e-001 7.45346844e-002
      1.12802060e-002 -1.01544045e-001 -1.80570960e-001 6.16505407e-002
      2.93120772e-001 1.13255309e-003 -5.19830346e-001 -5.93055367e-001
      -1.51805550e-001 -1.03017758e-003 -1.35713503e-001
      -1.75815284e-001 1.35866344e-001 4.34296906e-001 1.95418790e-001
      6.06956370e-002 -1.45251289e-001 2.29691155e-003 1.97498947e-001
      -2.78430104e-001 -2.73237377e-001 -2.38337368e-002 1.34193897e-001
      5.55530265e-002 -3.52710009e-001 -3.06966871e-001 3.40818673e-001</_>
    <_>
      3.95733230e-002 7.83215165e-002 -2.07273185e-001 4.71564122e-002
      -5.34130447e-003 -1.49664387e-001 -1.00954413e-001
      -5.59039451e-002 2.43162006e-001 -8.31272900e-002 1.49218425e-001
      2.96341302e-003 6.18135072e-002 -6.70639519e-003 -1.90862462e-001
      -1.64810151e-001 -6.20607175e-002 1.25640556e-001 4.85459536e-001
      2.47073069e-001 3.15255076e-002 3.23700048e-002 -1.29932180e-001
      -3.36684942e-001 -5.32896042e-001 -3.78863037e-001 4.55678612e-001
      3.18133146e-001 -6.86266124e-002 1.16726775e-002 -1.78491384e-001
      -4.07361120e-001 -5.02227187e-001 -7.57854462e-001
      -6.05025113e-001 3.02651525e-001 4.97668236e-002 9.61836427e-002
      2.18031257e-001 7.38341436e-002 -3.82940210e-002 -2.15111151e-001
      -2.00878248e-001 -5.94631694e-002 -3.22624110e-002 8.01025406e-002
      1.93787411e-001 3.00820112e-001 3.06359053e-001 1.75042421e-001
      -6.56143799e-002 -7.25520924e-002 -1.19874939e-001
      -1.67967185e-001 4.07831401e-001 -1.01826146e-001 5.93189187e-002
      -1.83785185e-001 -2.62238503e-001 -3.50524068e-001
      -7.39304125e-001 -7.50860274e-001 3.29070807e-001 6.97621703e-002
      -4.12614569e-002 7.88572207e-002 1.81338161e-001 4.84678820e-002
      -1.81420714e-001 -3.10376406e-001 -2.58725166e-001
      -8.43016207e-002 -8.47539082e-002 1.04031973e-001 2.02966765e-001
      3.43197048e-001 6.91818655e-001 3.32608968e-001 -3.70838568e-002
      -3.76249194e-001 -4.00149852e-001 1.98760435e-001 2.14127019e-001
      -1.48637304e-002 1.09651163e-001 5.46117961e-001 1.10003978e-001
      -4.29447562e-001 -6.78706288e-001 8.57648998e-003 -7.21088424e-002
      8.88467729e-002 9.60156992e-002 1.83469474e-001 1.68411419e-001
      1.31999612e-001 2.95411274e-002 4.27022725e-002 -1.77962959e-001
      1.28568470e-001 6.01129867e-002 -2.69088358e-001 -2.90333629e-002
      6.92701638e-002 -1.48904277e-002 -2.11335048e-001 -1.63587406e-001
      4.88382220e-001</_>
    <_>
      6.43958747e-002 6.42198324e-001 1.66581422e-001 -2.39395559e-001
      -7.45921493e-001 -3.25231493e-001 -8.87373537e-002
      -1.81381982e-002 2.17308536e-001 -1.19807273e-001 3.44200492e-001
      3.19935620e-001 -2.28772730e-001 -2.74939418e-001 -1.31696597e-001
      -3.31836939e-002 -4.26479355e-002 1.97494030e-001 1.17896840e-001
      9.10570193e-003 3.05650383e-002 -1.37952091e-002 -3.71342957e-001
      -2.67327666e-001 -2.60287784e-002 -1.11330643e-001 5.63297451e-001
      -2.23352015e-003 -3.08707565e-001 -3.79233956e-001
      -2.78618485e-001 -6.61066324e-002 -1.57591999e-001
      -5.22200465e-002 -1.17244676e-001 5.20551980e-001 -8.27782676e-002
      4.70601134e-002 2.42179796e-001 2.04941314e-002 4.39462513e-002
      4.96626906e-002 1.88668128e-002 -3.62648480e-002 3.15006562e-002
      3.33165191e-002 -1.49942815e-001 1.80525407e-001 2.36880809e-001
      1.87409192e-001 5.82188256e-002 7.41410181e-002 1.10286117e-001
      1.36443689e-001 -3.02603468e-002 -5.57981372e-001 -2.91532665e-001
      -2.17506066e-001 3.71773541e-002 2.67271418e-002 -6.16832264e-002
      -5.51973507e-002 4.12370116e-001 -4.77339178e-002 -4.20209140e-001
      -4.39863689e-002 -3.39468643e-002 2.28377521e-001 1.03970125e-001
      5.92762753e-002 3.42057824e-001 2.40281776e-001 -3.15232515e-001
      -2.93488830e-001 6.79769963e-002 2.93731809e-001 6.88659787e-001
      2.80256510e-001 2.96479464e-001 2.41355166e-001 -5.30281067e-002
      -7.84463882e-001 -5.69574237e-001 -8.40043128e-002 2.32591890e-002
      3.60387623e-001 4.28783357e-001 2.41153792e-001 5.75951897e-002
      -2.54520565e-001 -4.13524479e-001 -8.14908743e-002 1.25102073e-001
      1.36720106e-001 4.93459076e-001 3.57050896e-001 3.98242354e-001
      3.58207047e-001 3.08329836e-002 -3.91557395e-001 -1.48071691e-001
      1.10131770e-001 3.89020629e-002 3.88605297e-001 4.04930800e-001
      2.97628194e-001 4.15146738e-001 1.49961665e-001</_>
    <_>
      -2.03425735e-002 4.23107594e-001 -1.66715980e-001 -1.27780050e-001
      2.88903490e-002 -1.58939689e-001 -1.62280664e-001 -1.91079363e-001
      4.68274690e-002 -5.05040586e-002 3.61910492e-001 1.68620989e-001
      1.57859758e-001 1.51242122e-001 -2.39706963e-001 -4.36200351e-001
      -6.83926463e-001 -2.71931827e-001 5.00904322e-001 4.85826582e-001
      7.12413117e-002 -4.54235449e-002 6.33253753e-002 -2.33949900e-001
      -7.25633025e-001 -7.03853011e-001 4.47022408e-001 2.19219446e-001
      -2.08790332e-001 -3.09807390e-001 1.30792350e-001 1.49937402e-002
      -2.93813080e-001 -5.19903183e-001 -5.14353037e-001 2.13277280e-001
      2.74619430e-001 4.60077107e-001 2.19851598e-001 6.85628355e-002
      -3.56691107e-002 -3.10067445e-001 -3.70613843e-001
      -6.19735777e-001 -3.50990206e-001 2.31819406e-001 1.42520992e-003
      -9.82619822e-002 7.45118484e-002 1.20060407e-001 -1.21595323e-001
      -1.62182733e-001 -2.89173752e-001 5.00909723e-002 2.36898616e-001
      -3.10727566e-001 -2.59850055e-001 -1.27559721e-001
      -1.62626669e-001 -4.26969409e-001 -5.41413248e-001
      -5.98045826e-001 2.25334778e-001 3.08265477e-001 -1.59218922e-001
      -1.11112460e-001 -1.57579646e-001 -4.83271144e-002
      -3.27909291e-001 -2.29816779e-001 -6.69683069e-002 1.30813897e-001
      -7.62393549e-002 -3.48890454e-001 -1.50844827e-001 2.64988065e-001
      6.42219305e-001 3.57766986e-001 -2.77810860e-002 -4.12099212e-001
      -1.55726194e-001 1.75552800e-001 9.49822087e-003 -1.87186256e-001
      -1.17243357e-001 3.31779897e-001 -8.47706944e-002 -3.56085032e-001
      -7.02839911e-001 1.98383436e-001 -8.65268037e-002 -1.52606696e-001
      -5.64138293e-002 1.13330223e-001 3.17337871e-001 1.67026117e-001
      1.79112256e-001 1.33643806e-001 1.18651874e-001 1.19011603e-001
      -1.37788698e-001 -2.85293251e-001 -7.33487234e-002 1.54276028e-001
      -8.84760991e-002 1.31232617e-002 6.94050416e-002 7.37941563e-001</_>
    <_>
      1.31340235e-001 5.12891337e-002 -1.53490514e-001 2.04053824e-003
      -1.02196738e-001 2.61155199e-002 -1.94505736e-001 -2.05599576e-001
      2.63414145e-001 -1.14563778e-001 1.21253766e-001 4.22680080e-001
      2.09264547e-001 3.13727707e-001 1.11535296e-001 -8.28283653e-002
      -4.54277575e-001 -3.12216550e-001 6.02271199e-001 1.13843612e-001
      -6.35196716e-002 -2.06971914e-002 7.94730261e-002 -8.24710429e-002
      -6.20399773e-001 -5.78327715e-001 4.56913620e-001 5.43953963e-002
      3.44384126e-002 1.71330661e-001 1.96044117e-001 3.27567369e-001
      1.46712840e-001 -3.81958961e-001 -7.87810266e-001 2.41571255e-002
      8.05882141e-002 3.74115497e-001 4.10100609e-001 2.03646570e-001
      2.39023760e-001 -6.91685900e-002 -1.35056511e-001 -6.88555419e-001
      -2.89028436e-001 5.26766300e-001 4.85310555e-001 2.90678740e-001
      1.51434660e-001 2.73041986e-002 -1.95582628e-001 -4.99655843e-001
      -5.53418636e-001 7.16758072e-002 -1.19895919e-003 -1.40172899e-001
      5.18383533e-002 7.80049190e-002 2.06941187e-001 -9.75426566e-003
      -1.44367978e-001 -3.88019145e-001 -2.08996963e-002 1.97961077e-001
      -1.83958247e-001 -7.62898475e-002 -6.36125635e-003 1.91431548e-002
      -2.10706770e-001 -1.27202064e-001 2.90577918e-001 9.70513821e-002
      2.79346168e-001 -9.93655473e-002 -4.77739014e-002 6.30086660e-002
      1.23220265e-001 2.06180871e-001 -3.07726800e-001 -4.05226141e-001
      2.55038351e-001 1.89471558e-001 -2.34034792e-001 -2.35339820e-001
      -6.79369420e-002 3.44590247e-002 4.08689789e-002 -3.96382272e-001
      -3.85569662e-001 1.99245825e-001 8.18336084e-002 -1.13588460e-001
      -1.75266027e-001 4.96255420e-003 4.23730016e-002 6.53777970e-003
      6.05236255e-002 2.94940889e-001 2.57579803e-001 2.50762433e-001
      -1.88441247e-001 -4.10483420e-001 -5.76241687e-002
      -5.58201456e-003 -1.07837334e-001 -1.91702485e-001
      -5.45516349e-002 5.20258367e-001</_>
    <_>
      8.26876104e-001 -3.37618649e-001 -6.45074427e-001 6.75994754e-002
      7.31626987e-001 5.61911128e-002 -3.61505598e-001 -4.87611026e-001
      5.70688307e-001 3.38003397e-001 -5.01301467e-001 -7.94762313e-001
      -1.50999591e-001 2.55046189e-001 3.48452508e-001 -1.19309448e-001
      -1.05980083e-001 8.66531432e-001 6.73336983e-001 3.84626836e-001
      -1.93712693e-002 5.46823859e-001 1.07358491e+000 -6.04296215e-002
      -1.67231393e+000 -1.29188728e+000 1.20960012e-001 2.73847720e-003
      -1.41159827e-002 3.52483243e-002 4.77898598e-001 6.37068927e-001
      2.29105949e-001 -4.29554563e-003 -3.47838998e-001 -3.50269288e-001
      -2.26106104e-002 -4.92986947e-001 -9.08302888e-002
      -1.31373659e-001 1.66422203e-001 1.75329059e-001 5.68357781e-002
      4.01628047e-001 2.40253180e-001 -9.50400233e-001 -4.55759555e-001
      5.62329173e-001 6.95511699e-001 8.52423131e-001 5.67929327e-001
      2.62126356e-001 3.21999222e-001 -7.10711598e-001 -1.77677542e-001
      -5.36634564e-001 -4.29549441e-002 -4.83571440e-002 2.01832265e-001
      5.49440868e-002 1.61954731e-001 1.36487350e-001 3.44973952e-001
      1.14385352e-001 -9.71373022e-002 1.67654201e-001 1.47259962e-002
      1.31333798e-001 2.61236839e-002 -3.17177400e-002 -3.87883969e-002
      -7.85319284e-002 -3.44339043e-001 2.96134949e-001 3.71416211e-001
      4.87860560e-001 3.66948247e-001 5.04324734e-001 1.96620241e-001
      3.38607691e-002 -9.65466440e-001 1.55679777e-001 3.83195490e-001
      2.69829214e-001 3.17043930e-001 -4.60379273e-002 6.64703622e-002
      2.36413717e-001 2.57687792e-002 1.29598036e-001 1.99791506e-001
      1.77312315e-001 8.11814070e-002 1.57141954e-001 -1.37996137e-001
      -2.16948792e-001 -1.74192443e-001 -1.16018310e-001 9.90423262e-002
      3.24506760e-001 3.96088630e-001 2.30697498e-001 -8.90526995e-002
      -1.48880497e-001 -4.09459174e-001 1.37720585e-001 2.60975480e-001
      -1.25297830e-002</_>
    <_>
      3.13621581e-001 3.62268716e-001 6.34898469e-002 1.26170367e-001
      -3.39908898e-001 -4.61180694e-002 3.02827768e-002 -5.11461683e-002
      1.03761315e-001 2.55727053e-001 2.26812795e-001 -1.54013857e-001
      -6.95549510e-003 -9.20964032e-002 -3.99956740e-002 3.79506573e-002
      -1.23300783e-001 3.43366385e-001 8.31680745e-002 2.07557023e-001
      -1.49486847e-002 1.03879623e-001 -1.79546699e-001 -7.80113637e-002
      4.98448946e-002 -1.44584686e-001 1.85217589e-001 -3.80105913e-001
      -3.27360630e-001 -4.52239513e-001 -2.72350609e-002
      -4.97070067e-002 1.18326217e-001 2.87967622e-001 -7.47106448e-002
      2.67161354e-002 1.05540738e-001 9.68556702e-002 -2.16640830e-001
      2.35809088e-002 2.13145629e-001 1.69391513e-001 2.56654382e-001
      8.00136253e-002 1.38264850e-001 -2.44476825e-001 -2.35343903e-001
      9.29988399e-002 2.18360245e-001 3.10190052e-001 2.44085133e-001
      3.02202553e-001 2.14438856e-001 4.62786481e-002 -4.62992787e-001
      -4.63390857e-001 -3.36135983e-001 -1.65627345e-001 1.59949824e-001
      3.23612392e-001 4.37552631e-001 3.60886186e-001 -9.70110744e-002
      -2.64841169e-001 -3.79705220e-001 -2.49426603e-001
      -7.74803907e-002 1.08275957e-001 2.33328938e-001 2.32260123e-001
      4.19669628e-001 -6.86331987e-002 -4.87046540e-001 -2.79568166e-001
      1.46114409e-001 1.09678745e-001 2.37652928e-001 2.08035365e-001
      3.29679430e-001 2.92926162e-001 -8.34590122e-002 -4.91606474e-001
      -2.82950848e-001 1.04476787e-001 1.65526420e-002 2.14509606e-001
      2.81970650e-001 4.53809232e-001 4.52286482e-001 -3.13083716e-002
      -2.53948063e-001 -1.08555831e-001 2.21240092e-002 3.78767997e-002
      7.39469975e-002 6.14086837e-002 2.09758401e-001 1.76588476e-001
      -3.22441268e-003 -3.37185591e-001 6.78706244e-002 2.76362270e-001
      2.25816861e-001 1.48597941e-001 1.20974325e-001 1.70149848e-001
      1.99633569e-001 -2.08896115e-001</_>
    <_>
      6.73398852e-001 1.89192876e-001 -3.20174187e-001 1.49336949e-001
      3.34989965e-001 4.14394997e-002 -2.67772913e-001 -3.22942346e-001
      5.03425859e-002 4.40567404e-001 -1.73645064e-001 -4.44458097e-001
      2.98298538e-001 2.65336990e-001 1.28753960e-001 -3.05498749e-001
      -8.03942323e-001 6.44542873e-002 2.99100131e-001 4.72228467e-001
      5.17423004e-002 5.00062704e-001 6.89029098e-001 1.20761216e-001
      -8.86161387e-001 -1.06661797e+000 1.39689654e-001 -5.33756256e-001
      -6.16521776e-001 -3.29474181e-001 6.85828745e-001 6.73749030e-001
      7.78715730e-001 1.58816308e-001 -3.52543652e-001 -4.93387699e-001
      2.52958119e-001 -1.88769698e-001 -2.01540738e-001 8.07349458e-002
      1.91380426e-001 5.73423654e-002 4.35066447e-002 -3.28129321e-001
      -1.54093176e-001 -4.17312324e-001 -7.13438034e-001
      -3.69748384e-001 8.38915780e-002 3.29094261e-001 2.43321195e-001
      3.92320275e-001 5.18471777e-001 1.53281298e-002 -8.50115180e-001
      -9.48353708e-001 -1.80864811e-001 1.77074205e-002 2.03921586e-001
      4.77788687e-001 7.53229678e-001 2.54274100e-001 -3.53256732e-001
      1.08113755e-002 -1.71744227e-002 -2.92818975e-002 -2.90686816e-001
      -2.28572026e-001 -1.23449955e-002 1.97103649e-001 3.54588449e-001
      1.89905301e-001 -3.98156881e-001 -2.52569497e-001 -1.44776493e-001
      6.75897002e-002 1.65698081e-001 1.72633991e-001 2.91064769e-001
      2.08817646e-002 -3.30277383e-001 1.80580348e-001 1.97031513e-001
      1.34317473e-001 -6.47349879e-002 -1.69126224e-002 -2.23277688e-001
      5.41025326e-002 1.13463275e-001 5.64050823e-002 1.17773928e-001
      3.81889753e-002 1.20494649e-001 -1.45454869e-001 -2.51608640e-001
      -1.71299815e-001 -1.23039626e-001 -3.23855728e-002 1.67507589e-001
      2.09719718e-001 1.19991213e-001 -5.92035837e-002 -2.06411421e-001
      -4.07226421e-002 -2.19441146e-001 1.55284256e-001 3.87236148e-001
      2.02936515e-001</_>
    <_>
      5.02136171e-001 7.96182081e-002 -3.12993914e-001 1.49035593e-002
      2.67386407e-001 1.28811136e-001 -2.50492334e-001 -6.69533759e-002
      2.62180537e-001 -1.27912862e-002 -6.64341450e-002 -1.62981451e-001
      2.16426760e-001 3.86401117e-001 3.61455351e-001 -4.39334549e-002
      -5.01873791e-001 2.09241793e-001 3.46203625e-001 2.25118890e-001
      3.35284472e-002 3.38246346e-001 7.31140077e-001 1.65610939e-001
      -7.29941666e-001 -6.70589328e-001 -5.84927499e-002
      -2.75077969e-001 -1.59624785e-001 1.30346969e-001 5.30941248e-001
      8.29055369e-001 8.74413252e-001 1.50887519e-001 -6.29499614e-001
      -5.42610466e-001 5.00382781e-002 1.27238214e-001 2.97529936e-001
      3.33462238e-001 3.93597901e-001 2.66014129e-001 1.49420574e-002
      -5.30278563e-001 -3.11331481e-001 1.73605785e-001 3.49588335e-001
      3.54627669e-001 1.90226763e-001 2.73366600e-001 1.12314753e-001
      -3.85409474e-001 -2.18962431e-001 -1.24406435e-001
      -5.12443483e-001 -5.39311945e-001 7.10861608e-002 2.03865379e-001
      4.37801540e-001 5.18638730e-001 5.77357709e-001 1.86646193e-001
      -3.85537237e-001 3.20758760e-001 -1.29559487e-001 -2.15302005e-001
      -4.34322953e-001 -4.35222745e-001 -1.43556535e-001 6.59782141e-002
      6.75472319e-001 4.29540992e-001 1.02329604e-001 1.89405844e-001
      -1.98731050e-002 -1.40787005e-001 -6.93808049e-002 2.27954164e-002
      -1.29125491e-001 -7.74066970e-002 7.04982085e-003 1.98386252e-001
      1.00527920e-001 -6.44096825e-003 -2.13209987e-002 -9.22301263e-002
      2.02150241e-001 -1.88043632e-003 -1.20903127e-001 1.32332519e-001
      5.55200160e-001 -3.53680030e-002 1.30034434e-002 -5.00194132e-001
      -4.32543367e-001 -2.48316646e-001 -1.27880290e-001 2.62023836e-001
      3.84331375e-001 1.59076437e-001 1.94858149e-001 2.63710059e-002
      -1.61845699e-001 -1.07571445e-001 -7.38694593e-002 1.21315934e-001
      8.36373344e-002 1.93305001e-001</_>
    <_>
      -8.16571489e-002 5.59330344e-001 4.80316758e-001 -1.85456082e-001
      -4.52447206e-001 -1.46340907e-001 3.83456722e-002 9.67652351e-002
      -1.29565641e-001 2.18266502e-001 4.13523138e-001 1.71552692e-002
      -1.83635175e-001 -8.82274508e-002 -5.66895604e-002 2.16052067e-002
      -1.96456276e-002 9.53615010e-002 -2.14477718e-001 -2.84690019e-002
      1.77569449e-001 -6.13923855e-002 -3.35653007e-001 -5.84777407e-002
      4.64420497e-001 3.22874457e-001 1.92724988e-002 -3.20215881e-001
      -2.33995229e-001 -3.52024704e-001 -5.09024709e-002
      -5.39416745e-002 4.72306721e-002 3.36100757e-001 3.38845998e-001
      1.06001087e-001 1.83946311e-001 8.87108147e-002 -1.97388530e-001
      -2.26945654e-002 1.46041438e-001 2.16225803e-001 1.03152670e-001
      -3.95619497e-003 2.32621968e-001 2.62020659e-002 -1.67358056e-001
      -7.71498978e-002 -9.41074193e-002 8.82236212e-002 1.99717492e-001
      1.21526748e-001 2.16501616e-002 2.95544446e-001 -4.35177267e-001
      -4.40143824e-001 -3.59091043e-001 -2.13353373e-002 1.20271139e-001
      2.80690759e-001 3.59042585e-001 6.08722746e-001 1.05286296e-002
      -1.75615162e-001 -3.95254493e-001 -3.05214226e-001
      -1.49015576e-001 7.64926076e-002 3.07937175e-001 2.38127038e-001
      5.44564605e-001 1.86638281e-001 -1.60192668e-001 -3.76192391e-001
      -6.06051870e-002 -6.91691712e-002 5.14618978e-002 3.72628146e-003
      1.18875809e-001 3.24142337e-001 1.79133475e-001 -5.25048792e-001
      -5.68147600e-001 -4.86464016e-002 -5.38398810e-002 3.70221622e-002
      5.21460399e-002 4.59529728e-001 5.90693712e-001 -9.00675058e-002
      -1.55325517e-001 -2.16679156e-001 -1.45494327e-001
      -4.31416668e-002 8.74332264e-002 7.53717199e-002 9.57228690e-002
      3.08355838e-001 9.48803201e-002 -2.05947176e-001 -4.64478089e-003
      2.21780539e-001 9.69782248e-002 1.93403199e-001 9.28487554e-002
      1.75797418e-001 3.63653004e-001 -1.75713167e-001</_>
    <_>
      -2.32114866e-002 2.58726120e-001 4.42616314e-001 -6.86055645e-002
      6.27374351e-002 1.55354217e-001 4.78368923e-002 -1.00028537e-001
      -4.37686801e-001 1.37465969e-001 2.31293961e-001 4.69000757e-001
      1.35739580e-001 5.01588762e-001 2.51295835e-001 -2.64705479e-001
      -1.37920856e+000 -9.64122891e-001 -1.04071528e-001 2.04461902e-001
      3.44436288e-001 9.05531347e-002 1.53637841e-001 3.84188831e-001
      1.25370234e-001 -1.85238466e-001 -4.69817333e-002 -7.87379265e-001
      -7.74660170e-001 -3.74232352e-001 3.42208147e-001 7.56656706e-001
      1.12953317e+000 4.75636303e-001 1.08159229e-001 -7.74259388e-001
      3.60308498e-001 3.16404670e-001 -6.22480661e-002 6.68371171e-002
      1.32930651e-001 2.54720479e-001 3.66481729e-002 -1.11628592e+000
      -3.28850657e-001 2.20079958e-001 -3.97613049e-001 -8.98246288e-001
      -6.42387390e-001 -4.29815114e-001 9.31512639e-002 2.75329649e-001
      4.36118305e-001 4.74198639e-001 -1.25807548e+000 -1.29275310e+000
      -5.90033591e-001 -3.82485203e-002 1.10782541e-001 6.07040644e-001
      1.11723113e+000 7.39290059e-001 -5.83909452e-001 1.06210746e-001
      -1.83481023e-001 -4.26339209e-001 -6.44174278e-001
      -5.40775180e-001 -6.63466081e-002 -5.69893643e-002 2.27245107e-001
      4.81206954e-001 -2.27941290e-001 -4.02376354e-001 -5.92915595e-001
      -3.83604944e-001 -1.76256567e-001 -1.80144310e-001
      -6.13443330e-002 1.03730291e-001 3.88404518e-001 3.14670652e-002
      1.79896839e-002 1.11548565e-002 -2.74085253e-001 1.65651869e-002
      -5.21304309e-001 -1.36069492e-001 1.84619322e-001 1.21696785e-001
      2.99138695e-001 -1.47623152e-001 -4.43714231e-001 -3.48643959e-001
      -1.87661464e-003 -4.13202457e-002 -2.79141545e-001
      -1.06605612e-001 2.84818053e-001 1.99417174e-001 -3.05177510e-001
      -2.55530119e-001 -2.11904675e-001 5.53254262e-002 -4.88010943e-002
      -6.81838840e-002 2.87543327e-001 3.74385715e-001</_>
    <_>
      1.80288479e-001 1.73254341e-001 -4.41815332e-002 -1.37310848e-001
      -8.92939493e-002 1.85825899e-001 -9.89811271e-002 1.49844661e-002
      -3.52886245e-002 -1.10298917e-001 3.63695547e-002 1.69320673e-001
      8.62951670e-003 3.89530927e-001 4.67839181e-001 1.50347844e-001
      -4.00733203e-001 -4.72997546e-001 1.60253078e-001 1.21230647e-001
      6.12233914e-002 1.68291152e-001 1.36846468e-001 2.85342127e-001
      -4.64335606e-002 -2.73270369e-001 9.73835140e-002 -3.70138288e-001
      -5.07007949e-002 1.97073504e-001 2.91151106e-001 5.24008512e-001
      9.35476840e-001 1.96500614e-001 -2.42895126e-001 -6.81904078e-001
      1.23355389e-001 3.80424410e-001 2.80708671e-001 2.33174354e-001
      3.25266868e-001 3.14828873e-001 1.76708668e-001 -7.71970868e-001
      -5.53607345e-001 6.38004243e-001 5.67901254e-001 2.03231961e-001
      -2.08295196e-001 -1.53893128e-001 -2.30894089e-001
      -6.28543139e-001 -4.43667024e-001 1.46495089e-001 -4.63297606e-001
      -3.27633858e-001 -1.35616278e-002 1.44600227e-001 3.40474933e-001
      4.96733189e-001 6.53022766e-001 2.92976588e-001 -4.82774019e-001
      2.74286449e-001 -2.64010370e-001 -3.62612337e-001 -5.01312256e-001
      -4.99362797e-001 -2.68442154e-001 2.32665882e-001 7.20856726e-001
      4.22180921e-001 1.43545091e-001 -1.36807943e-002 -1.26598269e-001
      -3.79309148e-001 -3.27095836e-001 -2.93305337e-001
      -3.79216135e-001 6.78685382e-002 7.17082798e-001 -1.86663762e-001
      -4.02291834e-001 -1.33545280e-001 -1.85734078e-001
      -9.03651863e-002 4.25623432e-002 1.97727922e-002 5.19342795e-002
      1.28779104e-002 4.86686498e-001 -1.95667252e-001 -9.63438824e-002
      -5.00527799e-001 -2.68158138e-001 -1.42649874e-001
      -5.10292649e-002 3.47569674e-001 4.66147631e-001 -2.89216310e-001
      -8.55391026e-002 -3.08094337e-003 -2.25430176e-001 9.57193673e-002
      1.56686485e-001 -2.31104344e-002 9.13051516e-003 1.38520012e-002</_>
    <_>
      -3.16147064e-003 -3.84009212e-001 -4.31390196e-001 4.88119684e-002
      5.96900105e-001 1.48919627e-001 -1.61653832e-001 -1.70928031e-001
      -1.78382900e-002 -1.61456063e-001 -3.89588594e-001 8.26832186e-003
      3.09694290e-001 4.03158695e-001 1.76876307e-001 -2.66485631e-001
      -3.66452008e-001 -4.01713401e-001 2.69702196e-001 1.64427996e-001
      -1.20441936e-001 5.31604216e-002 5.23518682e-001 1.85272634e-001
      -5.31606138e-001 -4.85301435e-001 -1.04103759e-001 2.12941766e-001
      1.70080259e-001 3.24757546e-001 3.43569070e-001 3.30836236e-001
      2.09694281e-001 -3.04107726e-001 -2.73906350e-001 -2.54515588e-001
      -4.79441360e-002 -1.30915549e-002 1.66913226e-001 6.45883679e-002
      -3.29308212e-002 -1.64410099e-001 -2.66178757e-001
      -3.60171139e-001 -3.72686118e-001 1.23013750e-001 -6.35196120e-002
      -8.81971717e-002 -1.37124017e-001 -1.62419885e-001
      -2.22620368e-001 -1.67539835e-001 -1.68383226e-001
      -4.66229990e-002 1.62685335e-001 1.66785985e-001 4.07095224e-001
      1.82592079e-001 -1.25846073e-001 -1.81750372e-001 -2.91299343e-001
      -2.88321257e-001 -2.39144295e-001 2.46356457e-001 3.27378541e-001
      3.77909243e-001 -1.43781807e-002 -3.64656776e-001 -2.80694902e-001
      -2.77205855e-001 -4.56480116e-001 -2.56295167e-002 2.87016779e-001
      1.46497339e-001 -3.61155532e-002 -5.61292395e-002 -1.06240138e-001
      -7.46551156e-002 -2.05135852e-001 -3.97855878e-001
      -4.44016568e-002 4.79575634e-001 4.25785571e-001 -2.03238167e-002
      -1.13837488e-001 -9.59034711e-002 -3.05964142e-001
      -4.94115502e-001 -4.76414859e-001 1.39633581e-001 2.28415981e-001
      1.59499437e-001 7.57580325e-002 -7.60352015e-002 -1.70356810e-001
      -9.33584571e-002 -2.13409066e-001 -4.17379498e-001 1.82531048e-002
      3.23537886e-001 -3.92587744e-002 -3.35851818e-001 -2.75218189e-001
      -1.87237009e-001 -1.60740778e-001 -1.51435733e-001
      -1.49352893e-001 3.19251716e-001</_>
    <_>
      -2.05868334e-002 -2.92692184e-001 -2.96885729e-001 1.05766073e-001
      3.22360814e-001 1.38528436e-001 -1.99106961e-001 -1.77861691e-001
      2.57634744e-002 -1.44709945e-001 -1.99840859e-001 1.22369796e-001
      2.30851069e-001 3.09129745e-001 1.54206917e-001 -1.09785527e-001
      -2.63224006e-001 -2.38062128e-001 2.66463727e-001 1.08563967e-001
      -1.95410810e-002 1.03595451e-001 3.24784160e-001 1.39805347e-001
      -3.69796425e-001 -3.66796911e-001 -5.07344529e-002 8.27632919e-002
      2.68026859e-001 3.65031064e-001 3.23300064e-001 2.78087139e-001
      1.36004075e-001 -1.73041180e-001 -3.46596390e-001 -1.93019226e-001
      -7.05810338e-002 1.45131141e-001 1.80723682e-001 1.38722315e-001
      6.35341480e-002 -7.29506984e-002 -6.03433251e-002 -2.58508801e-001
      -2.83469260e-001 2.06074938e-001 3.66877109e-001 2.75560487e-002
      -1.09975077e-002 -1.23860642e-001 -2.26594716e-001
      -3.70728701e-001 -3.67329657e-001 -1.34928420e-001 2.53683347e-002
      1.72911525e-001 3.68618608e-001 2.49581426e-001 1.10720575e-001
      -1.01619516e-003 1.16302492e-002 -1.88671231e-001 -2.20882431e-001
      8.15095827e-002 1.71362758e-001 2.17503518e-001 4.13550325e-002
      -1.61161199e-001 -1.22855991e-001 -4.05065194e-002
      -9.65503752e-002 -8.18697736e-002 2.69737631e-001 3.28252703e-001
      -9.97848138e-002 -1.08268678e-001 -2.14474335e-001
      -1.18281953e-001 -3.74731481e-001 -3.02157611e-001 1.42634958e-001
      3.32153648e-001 1.76726907e-001 -1.55263931e-001 -8.70752409e-002
      -1.81586951e-001 -1.42191574e-001 -3.84282112e-001
      -2.63930202e-001 2.43280351e-001 1.75031096e-001 5.94136007e-002
      -5.01272529e-002 -7.33401105e-002 -1.36978015e-001
      -1.17572509e-001 -1.25838697e-001 -3.75209153e-002 9.90368649e-002
      1.78765491e-001 -5.15445173e-002 -1.74739882e-001 -1.61662623e-001
      -1.10304475e-001 -7.62834102e-002 -1.27475128e-001
      -9.88350287e-002 2.92866826e-001</_>
    <_>
      -1.57476708e-001 -4.52346265e-001 -3.17556381e-001 2.25262925e-001
      1.31076694e-001 3.20525497e-001 -5.80380335e-002 -8.50626528e-002
      3.20592448e-002 -2.40725681e-001 1.26888910e-002 4.06406581e-001
      5.03522635e-001 5.30157149e-001 6.41291082e-001 2.27705464e-001
      1.17391735e-001 -5.98203763e-002 -4.64363210e-002 -2.16933459e-001
      -1.86396971e-001 1.28999978e-001 4.52551283e-002 1.23169951e-001
      -1.87775791e-001 -2.30136126e-001 -1.08328536e-001
      -9.54641327e-002 7.35811830e-001 8.39635193e-001 5.16217887e-001
      3.71181518e-001 5.20630479e-001 -9.85236317e-002 -4.66988325e-001
      -2.93779820e-001 -5.70075586e-002 4.00432885e-001 5.75072050e-001
      6.25929177e-001 5.68714440e-001 2.11406335e-001 -2.16676950e-001
      -5.50560713e-001 -4.72387105e-001 8.33834767e-001 1.39734721e+000
      9.07077730e-001 1.99475229e-001 -1.60834938e-001 -3.48334402e-001
      -1.02641070e+000 -8.57645214e-001 9.94668901e-002 -1.02455139e-001
      3.09737325e-001 5.68299890e-001 4.01000112e-001 5.01306415e-001
      2.65923768e-001 4.78244692e-001 8.97039548e-002 -3.19091856e-001
      -1.92547038e-001 -6.93681955e-001 -2.91526139e-001
      -1.16471894e-001 -3.06995034e-001 2.81758029e-002 6.89658105e-001
      1.28119075e+000 1.06564239e-001 7.66034484e-001 6.34550631e-001
      -2.95246933e-002 -3.60655665e-001 -5.68711877e-001
      -2.38164186e-001 -8.52070808e-001 -1.46679997e-001 6.20934546e-001
      1.69485852e-001 -3.63798320e-001 -3.39951634e-001 3.56081873e-003
      -3.12915117e-001 1.40298143e-001 -8.44492242e-002 -7.14108497e-002
      1.83787808e-001 2.92017937e-001 -2.79796928e-001 -3.14920694e-001
      -2.73684919e-001 -4.59446430e-001 -1.64416626e-001 3.75122465e-002
      1.12881446e+000 9.01800811e-001 6.75808117e-002 1.48112908e-001
      -1.45141006e-001 -1.31431609e-001 -2.88795203e-001
      -1.49897769e-001 -1.44194677e-001 -2.60715216e-001 2.80601114e-001</_></support_vectors>
  <decision_functions>
    <_>
      <sv_count>1</sv_count>
      <rho>1.6629083836969389e-002</rho>
      <alpha>
        1.</alpha>
      <index>
        0</index></_>
    <_>
      <sv_count>1</sv_count>
      <rho>-1.1009779429284366e-001</rho>
      <alpha>
        1.</alpha>
      <index>
        1</index></_>
    <_>
      <sv_count>1</sv_count>
      <rho>-2.8868615561733690e-001</rho>
      <alpha>
        1.</alpha>
      <index>
        2</index></_>
    <_>
      <sv_count>1</sv_count>
      <rho>-9.3345495094478717e-002</rho>
      <alpha>
        1.</alpha>
      <index>
        3</index></_>
    <_>
      <sv_count>1</sv_count>
      <rho>-3.1593962405069820e-001</rho>
      <alpha>
        1.</alpha>
      <index>
        4</index></_>
    <_>
      <sv_count>1</sv_count>
      <rho>1.0685324799173640e-001</rho>
      <alpha>
        1.</alpha>
      <index>
        5</index></_>
    <_>
      <sv_count>1</sv_count>
      <rho>4.5084829253550181e-002</rho>
      <alpha>
        1.</alpha>
      <index>
        6</index></_>
    <_>
      <sv_count>1</sv_count>
      <rho>-2.6914087031849476e-001</rho>
      <alpha>
        1.</alpha>
      <index>
        7</index></_>
    <_>
      <sv_count>1</sv_count>
      <rho>-2.2250219937811994e-001</rho>
      <alpha>
        1.</alpha>
      <index>
        8</index></_>
    <_>
      <sv_count>1</sv_count>
      <rho>-1.4963743818046937e-001</rho>
      <alpha>
        1.</alpha>
      <index>
        9</index></_>
    <_>
      <sv_count>1</sv_count>
      <rho>-1.2309907118695669e-001</rho>
      <alpha>
        1.</alpha>
      <index>
        10</index></_>
    <_>
      <sv_count>1</sv_count>
      <rho>-4.1313899871787831e-002</rho>
      <alpha>
        1.</alpha>
      <index>
        11</index></_>
    <_>
      <sv_count>1</sv_count>
      <rho>-2.0424437568854550e-001</rho>
      <alpha>
        1.</alpha>
      <index>
        12</index></_>
    <_>
      <sv_count>1</sv_count>
      <rho>2.4715301171227499e-002</rho>
      <alpha>
        1.</alpha>
      <index>
        13</index></_>
    <_>
      <sv_count>1</sv_count>
      <rho>-3.4172716618204407e-001</rho>
      <alpha>
        1.</alpha>
      <index>
        14</index></_>
    <_>
      <sv_count>1</sv_count>
      <rho>-1.9837416410896763e-001</rho>
      <alpha>
        1.</alpha>
      <index>
        15</index></_>
    <_>
      <sv_count>1</sv_count>
      <rho>1.2713299905764730e-001</rho>
      <alpha>
        1.</alpha>
      <index>
        16</index></_>
    <_>
      <sv_count>1</sv_count>
      <rho>-8.4365348307483171e-002</rho>
      <alpha>
        1.</alpha>
      <index>
        17</index></_>
    <_>
      <sv_count>1</sv_count>
      <rho>-3.0711293981762630e-002</rho>
      <alpha>
        1.</alpha>
      <index>
        18</index></_>
    <_>
      <sv_count>1</sv_count>
      <rho>-1.3868051642928893e-003</rho>
      <alpha>
        1.</alpha>
      <index>
        19</index></_>
    <_>
      <sv_count>1</sv_count>
      <rho>1.6796947419211020e-001</rho>
      <alpha>
        1.</alpha>
      <index>
        20</index></_>
    <_>
      <sv_count>1</sv_count>
      <rho>-3.3704709460430970e-001</rho>
      <alpha>
        1.</alpha>
      <index>
        21</index></_>
    <_>
      <sv_count>1</sv_count>
      <rho>1.4857370083363183e-002</rho>
      <alpha>
        1.</alpha>
      <index>
        22</index></_>
    <_>
      <sv_count>1</sv_count>
      <rho>-5.7609442439068598e-002</rho>
      <alpha>
        1.</alpha>
      <index>
        23</index></_>
    <_>
      <sv_count>1</sv_count>
      <rho>1.9331979545312067e-001</rho>
      <alpha>
        1.</alpha>
      <index>
        24</index></_>
    <_>
      <sv_count>1</sv_count>
      <rho>-4.3744905238135862e-001</rho>
      <alpha>
        1.</alpha>
      <index>
        25</index></_>
    <_>
      <sv_count>1</sv_count>
      <rho>-4.2953132050661769e-001</rho>
      <alpha>
        1.</alpha>
      <index>
        26</index></_>
    <_>
      <sv_count>1</sv_count>
      <rho>-1.4977695406894288e-002</rho>
      <alpha>
        1.</alpha>
      <index>
        27</index></_>
    <_>
      <sv_count>1</sv_count>
      <rho>-5.5714454959323101e-001</rho>
      <alpha>
        1.</alpha>
      <index>
        28</index></_>
    <_>
      <sv_count>1</sv_count>
      <rho>2.1190255438027897e-001</rho>
      <alpha>
        1.</alpha>
      <index>
        29</index></_>
    <_>
      <sv_count>1</sv_count>
      <rho>-4.1282883542475285e-001</rho>
      <alpha>
        1.</alpha>
      <index>
        30</index></_>
    <_>
      <sv_count>1</sv_count>
      <rho>-2.6857751247411793e-001</rho>
      <alpha>
        1.</alpha>
      <index>
        31</index></_>
    <_>
      <sv_count>1</sv_count>
      <rho>-1.8721251710799758e-001</rho>
      <alpha>
        1.</alpha>
      <index>
        32</index></_>
    <_>
      <sv_count>1</sv_count>
      <rho>-1.3526938653477202e-001</rho>
      <alpha>
        1.</alpha>
      <index>
        33</index></_>
    <_>
      <sv_count>1</sv_count>
      <rho>-3.7226592015048972e-002</rho>
      <alpha>
        1.</alpha>
      <index>
        34</index></_>
    <_>
      <sv_count>1</sv_count>
      <rho>6.6162781140398441e-001</rho>
      <alpha>
        1.</alpha>
      <index>
        35</index></_>
    <_>
      <sv_count>1</sv_count>
      <rho>-1.8915664604920737e-001</rho>
      <alpha>
        1.</alpha>
      <index>
        36</index></_>
    <_>
      <sv_count>1</sv_count>
      <rho>1.0091813116226010e-001</rho>
      <alpha>
        1.</alpha>
      <index>
        37</index></_>
    <_>
      <sv_count>1</sv_count>
      <rho>5.0860907790823340e-001</rho>
      <alpha>
        1.</alpha>
      <index>
        38</index></_>
    <_>
      <sv_count>1</sv_count>
      <rho>4.7042231827129390e-002</rho>
      <alpha>
        1.</alpha>
      <index>
        39</index></_>
    <_>
      <sv_count>1</sv_count>
      <rho>-3.8179570382666567e-001</rho>
      <alpha>
        1.</alpha>
      <index>
        40</index></_>
    <_>
      <sv_count>1</sv_count>
      <rho>1.0797822059766313e-001</rho>
      <alpha>
        1.</alpha>
      <index>
        41</index></_>
    <_>
      <sv_count>1</sv_count>
      <rho>-6.2200487657815863e-003</rho>
      <alpha>
        1.</alpha>
      <index>
        42</index></_>
    <_>
      <sv_count>1</sv_count>
      <rho>4.6802872957513432e-002</rho>
      <alpha>
        1.</alpha>
      <index>
        43</index></_>
    <_>
      <sv_count>1</sv_count>
      <rho>3.9113991365862860e-001</rho>
      <alpha>
        1.</alpha>
      <index>
        44</index></_></decision_functions></my_svm>
</opencv_storage>
