<?xml version="1.0"?>
<opencv_storage>
<my_svm type_id="opencv-ml-svm">
  <svm_type>C_SVC</svm_type>
  <kernel><type>LINEAR</type></kernel>
  <C>1.</C>
  <term_criteria><epsilon>9.9999999747524271e-007</epsilon>
    <iterations>1000000</iterations></term_criteria>
  <var_all>108</var_all>
  <var_count>108</var_count>
  <class_count>10</class_count>
  <class_labels type_id="opencv-matrix">
    <rows>1</rows>
    <cols>10</cols>
    <dt>i</dt>
    <data>
      0 1 2 3 4 5 6 7 8 9</data></class_labels>
  <sv_total>45</sv_total>
  <support_vectors>
    <_>
      1.32191464e-001 2.50441939e-001 -3.46885741e-001 -2.47316938e-002
      -1.45844504e-001 -3.11715505e-003 2.94612229e-001 2.29091480e-001
      -4.46907371e-001 3.13865900e-001 2.59733319e-001 -7.63246000e-001
      -3.95936519e-001 -4.02265221e-001 -4.59906757e-001
      -1.04675665e-001 -9.92484614e-002 -3.02625671e-002
      -6.07224882e-001 6.01983890e-002 -9.31073502e-002 -2.53585845e-001
      5.94072267e-002 1.04184218e-001 8.41679633e-001 9.84529197e-001
      -6.05790913e-001 -2.16524024e-002 3.15264873e-002 -3.16107661e-001
      -1.42274663e-001 -3.24043781e-002 -1.50021181e-001 1.28263474e-001
      7.56992996e-001 9.87573154e-003 4.87392783e-001 6.04391918e-002
      -2.68461347e-001 -2.90965289e-001 -3.75497252e-001
      -2.85310596e-001 -1.47890255e-001 -1.89638540e-001 2.47160032e-001
      -3.77235934e-002 -1.86803997e-001 -3.41534093e-002
      -5.06830066e-002 -3.45483832e-002 -1.29265916e-002 1.24415252e-002
      -1.05482172e-002 3.59302536e-002 -8.43984336e-002 -2.39504740e-001
      -7.78833032e-002 -6.50028512e-002 -1.14638612e-001
      -1.29219994e-001 -1.36841521e-001 1.62073329e-001 3.61269116e-002
      3.59302536e-002 -1.76202223e-001 -5.26385494e-002 -9.03770514e-003
      -9.55144614e-002 -2.42496990e-002 -1.09046072e-001
      -2.05517307e-001 3.59302536e-002 -5.13422728e-001 3.58321108e-002
      3.88534530e-003 -7.17585161e-003 6.54537007e-002 -6.80400357e-002
      1.09177567e-001 5.41611791e-001 -2.84423381e-001 -4.84211951e-001
      4.46975410e-001 2.80934185e-001 -1.18561983e-001 -1.41847357e-001
      -1.49196818e-001 4.88220185e-001 1.18725014e+000 -3.85953709e-002
      -2.84423381e-001 4.70797747e-001 -7.83427730e-002 7.79562891e-002
      -1.32507160e-002 -1.99606612e-001 -1.38063669e-001
      -1.22842817e-002 -3.41384381e-001 -4.28296357e-001 1.19536638e+000
      5.41458189e-001 1.94742996e-002 -3.81879985e-001 -4.28822368e-001
      -9.04143676e-002 3.98141980e-001 -6.12099349e-001</_>
    <_>
      2.60678260e-003 -1.36140846e-002 1.46282062e-001 -1.55248335e-002
      2.26878263e-002 -1.77699804e-001 1.09884426e-001 7.65679404e-003
      -1.54799864e-001 1.15800507e-001 7.48735592e-002 -1.50071494e-002
      -2.81298701e-002 -1.15868792e-001 -1.49168879e-001 1.23083226e-001
      -1.37952836e-002 -7.99498409e-002 -1.86551020e-001
      -1.77319217e-002 9.26980656e-003 -6.59115762e-002 -6.57454655e-002
      -1.96706995e-001 1.43301085e-001 9.92627218e-002 -1.55414149e-001
      -2.76093453e-001 -1.99349284e-001 -4.23533358e-002
      -4.14468646e-002 -9.96062830e-002 -9.09053013e-002 1.83422893e-001
      1.13433108e-001 3.68059054e-002 2.92948753e-001 -1.44462749e-001
      -2.74815619e-001 -1.17633671e-001 -2.28117272e-001
      -1.00298874e-001 5.46219153e-003 1.10284075e-001 5.15728056e-001
      2.31978908e-001 -3.81157875e-001 -4.97499287e-001 -2.88095742e-001
      -3.22310716e-001 -9.87543762e-002 -6.30805502e-003 1.99592233e-001
      6.03627622e-001 -8.70855153e-002 -4.46376562e-001 -2.81843036e-001
      -1.35101140e-001 -2.45762482e-001 -5.94510324e-002 3.16781253e-002
      3.01620543e-001 1.47730395e-001 2.12143660e-001 -1.44623742e-001
      -5.91494322e-001 -2.99266785e-001 -3.17891717e-001
      -1.15456924e-001 -9.87003520e-002 -1.18571907e-001 4.21325892e-001
      -1.80128347e-002 -2.34138444e-001 -4.33933824e-001
      -2.62459159e-001 -1.15353934e-001 -4.18881094e-003 1.86559871e-001
      4.17905033e-001 3.68435264e-001 -2.79417068e-001 -1.25139520e-001
      -7.86614418e-002 -2.03922644e-001 1.90114453e-002 1.47670850e-001
      3.54570121e-001 3.71798784e-001 -1.58946142e-001 3.35410118e-001
      7.29916468e-002 -3.58540088e-001 -2.55893648e-001 -2.66649514e-001
      -9.29000154e-002 -1.33243158e-001 -6.87820762e-002 1.62345886e-001
      -1.00572705e-001 3.18442434e-001 2.62829483e-001 -1.82161003e-001
      -1.56411275e-001 -3.76733509e-003 -2.42051885e-001
      -6.39961660e-002 -2.46905118e-001</_>
    <_>
      3.10768727e-002 2.31349394e-001 -7.26062432e-003 -5.35274448e-004
      2.45820776e-001 9.69490875e-003 -1.36591807e-001 -2.11408049e-001
      -2.03383341e-001 1.27567366e-001 3.12495511e-002 -3.27749640e-001
      -5.62962830e-001 -1.24973692e-001 -1.21686757e-001
      -5.07087260e-002 3.16749923e-002 -6.03612773e-002 -1.78293794e-001
      1.51821807e-001 1.46785378e-001 1.63879737e-001 1.69337407e-001
      2.08354935e-001 3.27106118e-002 3.72038931e-002 -2.99386024e-001
      -4.23685431e-001 -4.72055137e-001 -3.87426317e-001
      -1.48774818e-001 -3.84026803e-002 5.82097061e-002 2.87957668e-001
      2.38459334e-001 8.54562595e-002 5.40565014e-001 -3.68335783e-001
      -6.15838528e-001 -3.88749063e-001 -1.83860689e-001
      -2.52379060e-001 -2.91041404e-001 -4.00240384e-002 5.27665317e-001
      4.75030899e-001 -2.33760193e-001 -2.43527949e-001 -1.97894722e-001
      -1.91320255e-001 -6.63229227e-001 -8.60659480e-001
      -4.78164822e-001 4.89328563e-001 5.42761087e-002 -9.13380027e-001
      -5.07139802e-001 -1.50663033e-001 -9.35760140e-002
      -1.68820977e-001 -1.55694783e-001 7.36942440e-002 3.29727143e-001
      3.54915828e-001 2.62833208e-001 -6.10506646e-002 -5.24677336e-002
      -1.79706857e-001 -4.52966213e-001 -6.70572400e-001
      -1.14858723e+000 3.12150121e-001 -6.07314073e-002 -1.38388395e-001
      1.00381747e-002 -1.72246173e-001 -2.47907024e-002 -2.96765685e-001
      -2.37484097e-001 -1.12475706e-002 2.71393985e-001 -1.39328599e-001
      -3.11424732e-001 -5.07342443e-002 -1.64579421e-001 1.40830651e-001
      -1.38045959e-002 -1.16970971e-001 2.09069639e-001 4.68148850e-002
      5.34958616e-002 1.26343846e-001 1.60200357e-001 -3.98552790e-002
      -3.30255192e-004 -1.23678684e-001 -1.97925329e-001
      -4.55266863e-001 -4.72252339e-001 -6.38570637e-002 1.27295954e-002
      1.05034031e-001 7.24939443e-003 2.40653172e-001 2.27373108e-001
      -1.97354443e-002 3.19820166e-001 2.22589858e-002</_>
    <_>
      4.41868976e-002 -4.07511070e-002 4.44912910e-002 -1.79168209e-002
      1.47156790e-001 1.08233755e-002 1.61747128e-001 1.05387524e-001
      -3.18118989e-001 1.44591004e-001 -1.53914511e-001 -4.59471911e-001
      -1.11090869e-001 -2.12868229e-001 -1.42895713e-001 6.66128173e-002
      1.80473953e-001 1.08041897e-001 -4.05616462e-001 -2.40711551e-002
      -1.48469545e-002 -4.35171872e-002 6.69222325e-002 4.90949564e-002
      4.08521831e-001 6.66647851e-001 -3.52012426e-001 -2.10997313e-001
      -3.03244628e-002 -1.93419337e-001 -7.32456297e-002
      -2.17403263e-001 -1.10349298e-001 2.60278344e-001 5.84204257e-001
      2.19558813e-002 2.69819707e-001 -4.26860064e-001 -4.48579639e-001
      -2.25155428e-001 -3.19695204e-001 -1.08619280e-001
      -3.42242084e-002 8.85628015e-002 4.86844718e-001 1.06929772e-001
      -6.25626028e-001 -3.60860646e-001 -4.13765818e-001
      -3.69664907e-001 -7.77487159e-002 -7.36213550e-002
      -5.29651828e-002 3.04370075e-001 3.37205417e-002 -1.98251233e-001
      -1.25162601e-001 -9.09402072e-002 -2.58728117e-001
      -1.03555739e-001 3.03675141e-002 3.10761124e-001 2.03275815e-001
      1.76646143e-001 6.30388409e-002 -1.56128347e-001 -1.56823978e-001
      -3.17484021e-001 -1.23554319e-001 -3.12547296e-001
      -6.55118346e-001 1.98417872e-001 8.50754231e-002 -9.86509696e-002
      -1.51370049e-001 -3.37113410e-001 -4.59138632e-001
      -2.76620090e-001 -8.70820507e-003 4.22956347e-001 2.42721289e-001
      -2.66918361e-001 -1.12603866e-001 1.83152720e-001 -7.55308419e-002
      -1.95485994e-001 -1.52295083e-001 2.58562714e-001 5.25634944e-001
      -1.14606410e-001 1.43259525e-001 9.09371227e-002 -1.60461307e-001
      -6.94908425e-002 -2.86736071e-001 -1.22576125e-001
      -2.75312334e-001 -3.26603383e-001 -6.98601902e-002
      -2.92066991e-001 2.19670579e-001 2.72311658e-001 1.35491014e-001
      2.60105096e-002 1.15036525e-001 9.99691784e-002 1.85737476e-001
      -5.72115242e-001</_>
    <_>
      -4.27646816e-001 -1.63833931e-001 1.30559728e-001 -1.12407906e-002
      -4.62941453e-002 -1.72841363e-003 1.74672559e-001 4.32898775e-002
      -2.13380128e-001 1.08326115e-001 3.91494781e-001 2.72597551e-001
      -1.07968517e-001 -1.26818344e-001 -2.13792488e-001 3.04329693e-002
      1.64429352e-001 -1.39274254e-001 -2.68719971e-001 -2.22198710e-001
      -1.25614122e-001 -2.88681537e-001 -3.51121455e-001
      -4.54187840e-002 2.87359476e-001 4.16338712e-001 -5.87793887e-002
      7.06032515e-002 -7.35778287e-002 -1.56436056e-001 -3.98959637e-001
      -5.36084116e-001 -4.58429515e-001 -1.57981575e-001 1.18050307e-001
      6.37667775e-001 3.27962339e-001 1.44120574e-001 -1.58048093e-001
      -2.25824177e-001 -3.35999340e-001 -2.57895976e-001
      -2.83170462e-001 -1.31576927e-002 3.42383564e-001 3.67815822e-001
      -2.59932339e-001 -4.25443321e-001 -2.98406959e-001
      -3.78097147e-001 -2.58994251e-001 -3.86132330e-001
      -1.44387171e-001 2.96388745e-001 4.50313538e-001 -6.17332496e-002
      -1.36657834e-001 -1.82555974e-001 -4.16588694e-001
      -3.85113031e-001 -7.52388060e-001 -2.14688227e-001 4.96903092e-001
      1.86309278e-001 1.28805920e-001 -1.60601571e-001 -7.70293772e-002
      -1.76984534e-001 -1.23653829e-001 -6.14424109e-001
      -6.54080331e-001 1.79122493e-001 6.65735686e-003 -1.31698653e-001
      -7.74238035e-002 -5.34004271e-002 -2.86919344e-002
      -1.70572117e-001 -5.76129407e-002 -3.87156419e-002 2.40280777e-001
      3.29489261e-002 -7.26714507e-002 1.97189432e-002 -2.43583899e-002
      2.74022669e-001 -1.04401499e-001 -6.04726374e-002 -4.63931859e-002
      -9.93974786e-003 1.96059048e-002 -3.82162184e-002 -6.99643418e-002
      5.57582900e-002 1.61945783e-002 -3.88452820e-002 -1.28067613e-001
      -1.66453615e-001 -2.66970694e-001 -1.08373925e-001 1.47701083e-002
      -7.10814074e-002 5.50463609e-003 1.02066487e-001 -3.50773074e-002
      -1.09718949e-001 -8.30526799e-002 -5.44883162e-002</_>
    <_>
      -1.57013580e-001 -1.23138793e-001 -1.41016382e-003 2.72627652e-001
      3.47617239e-001 8.15766379e-002 -7.70193413e-002 -1.13345273e-001
      -6.88693970e-002 1.91910341e-001 2.83239186e-001 -7.73565173e-002
      -1.42880797e-001 -1.97272524e-001 -2.54970998e-001
      -1.34340480e-001 2.02980906e-001 1.69934556e-001 -2.45390967e-001
      -1.97829157e-001 -6.37134388e-002 -5.23255169e-002 6.50848299e-002
      7.60980546e-002 -2.63464153e-002 3.91229451e-001 -2.49604434e-001
      -1.35230809e-001 -1.22144401e-001 -3.69636863e-001
      -5.25138915e-001 -6.71661198e-001 -5.38723409e-001
      -3.13528746e-001 2.33302087e-001 5.34889877e-001 5.07004797e-001
      2.24409420e-002 -1.46691188e-001 -2.51684397e-001 -4.81804579e-001
      -3.60372484e-001 -3.61358613e-001 -1.62678659e-002 5.75720668e-001
      2.81941861e-001 -5.70359707e-001 -8.40306357e-002 -9.06685069e-002
      -2.25481659e-001 -2.07560346e-001 -2.57358700e-001
      -2.48574331e-001 2.48842999e-001 5.12642622e-001 -3.79213750e-001
      -2.25255162e-001 -3.58294010e-001 -6.66858137e-001
      -5.17514408e-001 -9.83831942e-001 -3.23198617e-001 7.09316909e-001
      2.65047818e-001 -3.77168842e-002 -1.07009947e-001 -8.64810273e-002
      -3.47376615e-001 -3.44133049e-001 -7.88389325e-001
      -1.29841757e+000 2.48842999e-001 2.42149998e-002 -3.68291363e-002
      1.29538596e-001 5.88027239e-002 8.43855515e-002 -3.16744335e-002
      -2.52637994e-002 6.54138848e-002 3.25679556e-002 -6.05334193e-002
      1.62148550e-001 1.70295626e-001 7.81399384e-002 2.34250158e-001
      4.34356295e-002 -2.42911261e-002 -9.70955715e-002 1.82024226e-001
      1.88108176e-001 3.20829540e-001 4.70860302e-002 -2.86027975e-002
      -2.64742970e-001 -1.96194872e-001 -3.08814734e-001
      -2.81833261e-001 -2.95950294e-001 1.74412653e-002 4.41055000e-001
      1.69398069e-001 -6.86254259e-003 -1.33399144e-001 -1.34248689e-001
      -2.10069850e-001 -3.22750174e-002 -3.19643170e-001</_>
    <_>
      -3.06438282e-002 3.15457284e-001 3.37458670e-001 -9.74201709e-002
      -2.57704407e-001 -1.47133216e-001 9.30240005e-002 1.30468473e-001
      -1.87942870e-002 9.38273445e-002 2.93548614e-001 -2.23809499e-002
      -1.78806260e-001 -1.28834903e-001 -1.16487674e-001 1.28554314e-001
      2.12271184e-001 2.58431941e-001 -3.04414153e-001 -3.06627005e-001
      9.52807888e-002 -1.01056635e-001 -2.04284474e-001 3.28322984e-002
      3.34185779e-001 3.29732835e-001 9.16100517e-002 -2.70818830e-001
      -3.59962285e-001 -3.86796236e-001 -2.98566222e-001
      -2.32919559e-001 9.56445094e-003 2.72115707e-001 4.62289155e-001
      2.91788638e-001 1.92681015e-001 -9.29721817e-002 -1.76350623e-001
      -1.54284999e-001 -1.47098109e-001 -2.71255691e-002 2.77500171e-002
      1.44977048e-001 3.62868577e-001 1.34091184e-001 -5.84219158e-001
      -1.35454893e-001 -1.67845026e-001 -1.08617231e-001
      -1.18455123e-002 -2.85868477e-002 7.70271048e-002 3.66749287e-001
      -7.67250285e-002 -5.31781971e-001 -3.61605257e-001
      -2.53989607e-001 -2.36986473e-001 -2.06176490e-002 2.95267440e-002
      3.00434321e-001 3.62891674e-001 1.03536427e-001 -4.70398158e-001
      -2.76722878e-001 -2.36126900e-001 -1.20065972e-001
      -4.37834449e-002 -7.75763765e-002 -9.28790793e-002 3.04306298e-001
      -1.02249525e-001 -4.13732857e-001 -6.24747612e-002
      -8.83513018e-002 6.65917993e-002 -1.17779477e-002 4.86209467e-002
      3.27715009e-001 9.42747146e-002 -4.23920393e-001 -2.65871078e-001
      1.59103125e-001 -1.28989518e-001 5.42481169e-002 8.65138397e-002
      1.69810548e-001 4.65191573e-001 -9.39540416e-002 -8.11030045e-002
      -1.29886404e-001 -1.32875174e-001 -8.51259530e-002 1.81716550e-002
      -1.37866447e-002 -2.02267896e-002 -2.10758392e-002 3.77391689e-002
      -1.49137124e-001 2.23905236e-001 2.31047928e-001 1.63215101e-002
      1.04333162e-001 7.96242207e-002 7.43435845e-002 2.46478334e-001
      -1.17768295e-001</_>
    <_>
      9.77943465e-002 2.51494616e-001 4.18455675e-002 4.34151031e-002
      2.94184297e-001 -4.00597677e-002 1.00224897e-001 -4.71274294e-002
      -1.68272987e-001 1.21858075e-001 2.44265497e-001 -5.75951263e-002
      -9.72442627e-002 1.23685949e-001 -1.78107619e-001 -1.28317282e-001
      -3.38751495e-001 -2.04365417e-001 -2.62775064e-001 9.72541794e-002
      5.67216203e-002 5.19959629e-002 -1.78797860e-002 1.58873007e-001
      6.42642528e-002 1.24633908e-001 -1.38737619e-001 -3.45396817e-001
      -3.46908808e-001 -3.96698952e-001 -2.11174235e-001
      -1.94850594e-001 -1.14253812e-001 -1.11488000e-001 2.14185804e-001
      1.04379795e-001 5.41083515e-001 -7.38140941e-002 -4.03956831e-001
      -2.69370884e-001 -2.33247533e-001 -3.37268949e-001
      -2.90968686e-001 -3.23603123e-001 4.37609613e-001 4.39703941e-001
      -7.85141826e-001 -7.26743340e-001 -3.98959130e-001
      -2.90039867e-001 -3.09252053e-001 -2.91969240e-001
      -1.94183499e-001 5.50942242e-001 1.19549327e-001 -8.40008795e-001
      -5.37536979e-001 -3.11768949e-001 -3.57863814e-001
      -3.30235869e-001 -3.37759793e-001 4.14890004e-003 4.48681474e-001
      3.75078350e-001 4.64756712e-002 -4.10641193e-001 -2.41420031e-001
      -4.04086977e-001 -2.79201537e-001 -7.23548114e-001
      -1.00259352e+000 3.73507261e-001 -1.75936699e-001 -3.77935708e-001
      -1.26851067e-001 -9.56477597e-002 7.46972114e-002 -5.48029551e-003
      -2.79496089e-002 -4.48450111e-002 1.67929158e-001 -9.79540199e-002
      1.44069698e-002 1.90666005e-001 2.49869768e-002 2.44716972e-001
      9.28792059e-002 -1.25578880e-001 3.28836851e-002 -1.19226789e-002
      7.77275115e-002 1.35089904e-001 -4.59468700e-002 -1.57043654e-002
      -4.31010462e-002 -2.54393425e-002 -3.43777120e-001
      -5.88969588e-001 -3.54811639e-001 -1.06417298e-001 5.51046096e-002
      6.17535748e-002 1.13405719e-001 5.26910052e-002 7.94435591e-002
      -2.06469327e-001 1.75898194e-001 -1.31936610e-001</_>
    <_>
      1.82193115e-001 2.64578182e-002 -6.47594081e-003 1.79867640e-001
      -5.43914400e-002 2.29860455e-001 -7.04631880e-002 3.42947170e-002
      7.92607740e-002 2.99644656e-002 1.81610346e-001 2.19532281e-001
      -5.59095331e-002 1.79293066e-001 9.47188586e-002 -5.89926541e-003
      -7.73951784e-002 -2.25794375e-001 2.21566111e-001 -8.22941884e-002
      2.56514046e-002 1.06226675e-001 7.45992884e-002 2.44086921e-001
      -2.50937253e-001 1.84366647e-002 3.38296533e-001 -4.42447037e-001
      -3.43901739e-002 1.30211553e-002 5.44225285e-003 8.24099705e-002
      7.81998634e-002 -2.66733974e-001 8.32006335e-003 2.01462395e-002
      4.79652494e-001 -6.53462997e-003 -6.99728876e-002 -9.48628336e-002
      -8.04229360e-003 -2.69611806e-001 -3.69296104e-001
      -7.58801043e-001 1.93494186e-001 9.66395736e-001 -1.08456545e-001
      -3.18193376e-001 -4.79932278e-001 -6.96503997e-001
      -8.02445054e-001 -1.37714040e+000 -9.75432754e-001 5.39043307e-001
      -6.31478336e-003 -6.12683535e-001 -1.88488573e-001
      -1.15054883e-001 -2.39716880e-002 -8.97929668e-002
      -1.63451761e-001 1.37223974e-001 2.41874993e-001 3.13582808e-001
      2.08112791e-001 -2.81936198e-001 -3.12496722e-001 -4.15286809e-001
      -4.52030599e-001 -5.44656456e-001 -3.19328099e-001 3.94491971e-001
      3.46960306e-001 1.14363767e-002 -1.40471980e-001 -4.87054944e-001
      -7.96370864e-001 -3.40372205e-001 -5.08470714e-001 1.84206322e-001
      8.05767119e-001 -1.71955943e-001 -3.48773718e-001 1.18344612e-001
      -2.80800015e-001 -1.77521050e-001 3.71588200e-001 -4.39036749e-002
      2.94463485e-001 2.10157096e-001 1.75781414e-001 2.33337134e-001
      -3.48061137e-002 -2.18246594e-001 -2.40694061e-001
      -2.51821280e-001 -2.31728613e-001 -4.49091755e-002
      -1.33119807e-001 -1.80559158e-001 8.67430121e-002 -1.23855527e-002
      -1.98317900e-001 1.40652493e-001 2.08574608e-001 -4.73073795e-002
      1.23962322e-002 -1.04050741e-001</_>
    <_>
      1.58435125e-002 -1.37124937e-002 8.01138207e-002 1.61211297e-003
      8.41691159e-003 -1.52191550e-001 -3.64316590e-002 -6.95501789e-002
      -5.87888360e-002 -7.91026130e-002 -1.47108376e-001 5.08499518e-002
      2.14759201e-001 8.04701075e-003 -3.23698819e-002 1.16483979e-001
      1.14966869e-001 -7.35769346e-002 -3.39030549e-002 1.70951590e-001
      1.43949136e-001 1.44243225e-001 3.05065457e-002 -3.00180316e-001
      -2.52996206e-001 -3.04346353e-001 -2.45000720e-002
      -1.40543684e-001 -5.66880740e-002 6.89626634e-002 7.14810118e-002
      -8.30009356e-002 -5.13983294e-002 5.42990156e-002 -6.53337538e-002
      -3.41354348e-002 1.18494943e-001 -1.03539772e-001 -7.98583552e-002
      1.05761170e-001 -3.03091239e-002 -1.79347675e-002 9.08195153e-002
      1.99936464e-001 2.65088916e-001 2.63272941e-001 -2.56390750e-001
      -4.56392556e-001 -1.31469041e-001 -2.46135592e-001
      -7.57521465e-002 -1.54543351e-002 1.09446414e-001 4.32967991e-001
      -2.97983340e-003 -2.19023839e-001 -2.33972654e-001
      -5.41123524e-002 -2.28643611e-001 -9.70437285e-003 1.20676398e-001
      1.04642145e-001 1.43634886e-001 1.44758284e-001 -3.76292855e-001
      -5.47957122e-001 -2.40018100e-001 -2.85181910e-001
      -1.04420230e-001 1.39722656e-002 1.07658602e-001 3.20675671e-001
      2.03404754e-001 -3.39639693e-001 -5.09499669e-001 -1.84229329e-001
      -2.11573273e-001 -2.30949651e-002 -3.87978256e-002 3.88890319e-002
      4.21086788e-001 1.36537487e-002 -2.99519658e-001 -3.03653240e-001
      -1.81472182e-001 -2.00799271e-001 1.31783694e-001 6.74253926e-002
      3.62231359e-002 1.42709360e-001 3.31192613e-001 -2.32808337e-001
      -4.70889688e-001 -2.97586709e-001 -3.08601737e-001
      -2.77981944e-002 2.53191628e-002 4.40078676e-002 5.06148398e-001
      1.05877124e-001 -7.61602223e-002 -1.52053669e-001 -3.79956603e-001
      -4.59384993e-002 1.37391195e-001 8.43008906e-002 -8.97218660e-002
      2.92431355e-001</_>
    <_>
      -5.27617373e-002 1.70554724e-002 1.37669772e-001 -8.86939019e-002
      1.21449940e-001 -1.15950711e-001 -3.33521128e-001 -2.01864034e-001
      -1.24161460e-001 -1.20376021e-001 -2.64494091e-001 1.31147102e-001
      -2.51224674e-002 9.09338892e-002 9.02151391e-002 -4.64427620e-002
      1.71281368e-001 -1.49886876e-001 1.61779344e-001 2.34616995e-001
      3.14423293e-001 2.35759184e-001 2.57930011e-001 -1.05306402e-001
      -4.72184807e-001 -4.75564808e-001 -9.70911160e-002
      -1.40401572e-001 -5.48619591e-002 8.38565081e-003 2.67311409e-002
      1.23304576e-001 1.42283022e-001 1.06294833e-001 -1.23672508e-001
      -1.10821202e-002 7.90638179e-002 -3.64156693e-001 -2.74473399e-001
      9.52656195e-002 1.10004827e-001 -6.43038610e-003 -9.81777068e-003
      1.77374884e-001 1.09099902e-001 3.50688636e-001 -1.74367968e-002
      -1.71560362e-001 -7.30599184e-003 -9.05013233e-002
      -3.81818682e-001 -5.05969644e-001 -4.11862701e-001 2.80033290e-001
      1.49090499e-001 -3.79134923e-001 -3.78265828e-001 3.53732258e-002
      -2.42563188e-002 -2.47184616e-002 3.86817977e-002 -9.13486481e-002
      2.52609223e-001 2.60393471e-001 -1.66597530e-001 -1.17647104e-001
      4.11930792e-002 -1.49540693e-001 -3.68072808e-001 -4.68518972e-001
      -5.43413460e-001 2.28955641e-001 4.23919261e-001 -1.02663189e-001
      -1.20893873e-001 -6.92688227e-002 -1.14376381e-001
      -2.12117761e-001 -3.20951432e-001 -5.28899550e-001 3.14538777e-001
      1.98086828e-001 -4.11430985e-001 -4.49750960e-001 -6.89725801e-002
      -2.72544101e-002 -7.18294084e-003 -3.46252114e-001
      -3.82771850e-001 2.00904503e-001 2.61860490e-001 -1.65374130e-001
      -3.12321503e-002 -1.29283806e-002 -2.98926681e-002
      -2.17995495e-002 -7.17543662e-002 -3.99866819e-001 2.36111745e-001
      1.24780707e-001 -5.66174686e-001 -4.80194837e-001 -7.38630369e-002
      3.92727107e-001 2.93456763e-001 1.55882433e-001 -1.26325130e-001
      3.54469776e-001</_>
    <_>
      -1.78354681e-001 -1.64850131e-001 3.95651639e-001 2.27266401e-001
      1.88590914e-001 -5.08339237e-003 -1.39781805e-002 -1.36370100e-002
      -1.57964423e-001 -5.01905233e-002 -3.46584648e-001
      -1.09810799e-001 3.34615707e-001 -3.64908166e-002 8.68388638e-002
      1.41990289e-001 2.54274100e-001 -5.56745706e-003 -2.96297550e-001
      8.16508904e-002 8.49772692e-002 1.91027835e-001 8.15714598e-002
      -1.72866851e-001 9.09134448e-002 -1.25862483e-003 -1.93654910e-001
      -2.23641008e-001 3.11205294e-002 6.16288781e-002 1.57244247e-003
      -1.13689780e-001 -3.80663536e-002 3.67436051e-001 1.40167281e-001
      -5.26903495e-002 -1.53468298e-002 -4.05450612e-001
      -3.41521621e-001 1.07041016e-001 -1.09517477e-001 6.61545023e-002
      9.69572142e-002 2.52772331e-001 3.13338637e-001 1.88887239e-001
      -7.30667472e-001 -4.64724720e-001 -4.18475062e-001
      -4.07967955e-001 -6.33883849e-002 -2.68748134e-001
      -2.05658376e-001 2.01068655e-001 1.65856615e-001 -1.40162017e-002
      -4.68442217e-003 7.25246295e-002 -2.19007820e-001 2.89280955e-002
      1.86608136e-001 2.09332168e-001 2.40169704e-001 2.30852455e-001
      -1.89097509e-001 -2.19756752e-001 -2.02953130e-001
      -3.71834755e-001 -1.33648664e-001 -2.74043530e-001
      -5.32105327e-001 2.30585158e-001 5.21579802e-001 -3.06699753e-001
      -3.03402007e-001 -5.56047142e-001 -9.37043846e-001
      -3.65288526e-001 -4.95143503e-001 -3.19988906e-001 4.74946409e-001
      5.68999171e-001 -3.73070776e-001 -1.19836956e-001 -1.84779823e-001
      -4.39959228e-001 -8.84562656e-002 -2.05319077e-001
      -2.49739632e-001 3.49000663e-001 4.91077751e-001 -4.62494314e-001
      -2.86152720e-001 -3.18185598e-001 -5.98549187e-001
      -1.46321476e-001 -3.08530420e-001 -5.81223965e-001 5.58412433e-001
      2.92206794e-001 -6.00179195e-001 -1.48780227e-001 -1.22613803e-001
      7.87788555e-002 3.03561866e-001 9.91672799e-002 -3.34358990e-001
      1.31956950e-001</_>
    <_>
      -2.60960966e-001 -7.58330449e-002 2.67313242e-001 -4.47336994e-002
      -1.16109417e-003 -1.06502853e-001 -2.95476243e-002
      -5.28265955e-003 -7.16630965e-002 -2.52670944e-001 8.24729204e-002
      2.63926148e-001 1.43143445e-001 2.86573283e-002 -8.87521356e-002
      -9.72622726e-003 1.64775938e-001 -2.47670993e-001 -1.07061639e-001
      -1.15973391e-002 1.53705090e-001 7.82067552e-002 -1.07237674e-001
      -2.51101345e-001 -3.44930775e-002 -6.38317242e-002
      -6.34353012e-002 1.07084982e-001 7.65335336e-002 7.42662922e-002
      -1.76981479e-001 -2.96558321e-001 -3.11609864e-001
      -1.59158558e-001 -7.26680271e-003 2.09633052e-001 1.67599954e-002
      -7.20632961e-004 3.65902074e-002 -5.28072356e-004 4.20956686e-003
      -1.34901971e-001 -1.59830615e-001 8.74640048e-002 7.38994777e-002
      3.04622591e-001 -7.84403309e-002 -2.55780727e-001 -2.75159925e-001
      -2.84627467e-001 -2.38841116e-001 -3.00869524e-001
      -1.83261469e-001 2.04096362e-001 4.37770754e-001 1.89521223e-001
      -7.09531158e-002 -1.37888938e-001 -2.85289794e-001
      -3.21384966e-001 -4.27765012e-001 -2.58941889e-001 3.59128952e-001
      1.82995677e-001 6.67364225e-002 -1.56720817e-001 -8.93407091e-002
      -1.55975088e-001 -2.59146750e-001 -3.46756160e-001
      -3.44233811e-001 1.90149084e-001 3.53848249e-001 -1.48964331e-001
      -1.86888129e-001 -1.48403928e-001 -2.13766307e-001
      -1.68464541e-001 -2.53448427e-001 -3.46272260e-001 3.05357724e-001
      2.78306335e-001 -1.94352806e-001 -2.77532309e-001 -5.89738451e-002
      -2.59170253e-002 -6.53972998e-002 -3.26828510e-001
      -4.64471310e-001 1.59729794e-001 1.94942817e-001 -1.80501029e-001
      -3.08548063e-001 -5.69265746e-002 -5.14978021e-002 2.28172336e-002
      1.72503502e-003 -9.10863131e-002 1.74764082e-001 1.62591532e-001
      -4.27250892e-001 -5.32043874e-001 -1.58782601e-001 2.90208459e-001
      2.34126553e-001 1.49410933e-001 -1.30020320e-001 2.85903007e-001</_>
    <_>
      -3.10367420e-002 -1.68746144e-001 1.74897313e-001 1.15351476e-001
      1.13253273e-001 -1.21880449e-001 -2.08121449e-001 -2.48443205e-002
      7.96355456e-002 -2.96957016e-001 -1.34740949e-001 1.45326778e-001
      2.07843244e-001 -3.74837071e-002 -1.85093265e-002 -7.11452728e-003
      4.63394880e-001 -2.97258724e-003 3.00523080e-002 1.42433569e-001
      3.96108657e-001 2.33159736e-001 8.71644989e-002 -2.75333315e-001
      -5.33169389e-001 -1.56115308e-001 1.28412321e-001 -1.65613666e-002
      4.84391814e-003 1.54253319e-001 -2.52736807e-001 -4.97969806e-001
      -2.62295634e-001 -3.92184824e-001 -7.10766092e-002 1.73219204e-001
      -1.45228624e-001 -1.85684577e-001 1.14500597e-001 1.57973513e-001
      -8.72612298e-002 -6.46726936e-002 -9.12953317e-002 2.88606852e-001
      1.33192375e-001 1.75299630e-001 -1.52995586e-001 1.38117643e-002
      2.47753821e-002 -1.55895144e-001 -1.24053322e-001 -1.91689432e-001
      -1.60047323e-001 1.21309645e-001 3.99335653e-001 -8.59619528e-002
      -3.75386775e-002 -1.40150636e-001 -4.60828662e-001
      -1.89727172e-001 -5.12423158e-001 -5.27705073e-001 5.22448123e-001
      1.51109576e-001 -6.20932654e-002 -1.21524911e-002 -4.60838852e-003
      -2.72512287e-001 -2.65295178e-001 -4.90189403e-001
      -7.13661790e-001 1.47541359e-001 3.56276065e-001 6.10571280e-002
      2.52629481e-002 -8.32893047e-003 2.80127395e-004 6.80751652e-002
      -1.98576525e-001 -5.28828740e-001 1.85033619e-001 3.90332878e-001
      -3.74706797e-002 -1.45549595e-001 6.08042553e-002 5.43556288e-002
      1.17216237e-001 -5.42517960e-001 -8.39122474e-001 2.29192197e-001
      3.50202322e-001 -3.79917882e-002 -1.34017337e-002 -8.84845480e-002
      -2.36464962e-001 3.40422317e-002 -4.14940119e-002 -2.46012688e-001
      2.90739477e-001 2.59308308e-001 -3.47807825e-001 -5.90510070e-001
      -5.73741980e-002 1.36741251e-001 2.49314055e-001 8.65514502e-002
      -2.15220094e-001 3.19351017e-001</_>
    <_>
      -7.29378462e-002 5.30561090e-001 5.69220781e-001 -6.44057319e-002
      -4.37320322e-001 -3.03177357e-001 -7.40167648e-002 4.07264531e-002
      5.35362922e-002 -1.10002927e-001 1.05462179e-001 3.11140746e-001
      2.15649381e-001 -1.05769262e-001 -1.06910713e-001 1.12213522e-001
      1.97265491e-001 2.17253193e-001 -1.86887473e-001 -7.00580329e-002
      2.99111426e-001 1.25238299e-001 -1.85197949e-001 -2.61865705e-001
      -4.21047546e-002 -6.41104653e-002 2.85359383e-001 -4.10116166e-001
      -3.67852688e-001 -1.84778005e-001 -2.05243863e-002
      -2.76921540e-001 -7.85165802e-002 1.81498602e-001 6.31323606e-002
      3.08154315e-001 3.79559095e-003 -1.76741257e-001 -3.05556739e-003
      3.25800359e-001 1.57170579e-001 9.92090702e-002 1.28795356e-001
      2.27811649e-001 2.87050039e-001 4.85277623e-002 -6.77331567e-001
      -1.24662720e-001 -1.41796311e-002 1.31860636e-002 4.99494635e-002
      1.31840063e-002 8.03108960e-002 3.31813037e-001 -1.43565936e-002
      -5.53451419e-001 -2.97027230e-001 5.27714863e-002 -1.36112869e-001
      9.11115557e-002 9.43784118e-002 1.66582435e-001 5.04738688e-001
      3.05595994e-002 -5.44080198e-001 -3.27554613e-001 -1.26643687e-001
      -2.96793655e-002 -2.18914505e-002 -7.22854361e-002 6.53860122e-002
      3.60691577e-001 -9.30198357e-002 -6.79258049e-001 -1.01727024e-001
      -9.89878476e-002 2.31379811e-002 1.53067587e-002 1.42535204e-002
      -3.22827995e-002 2.44719714e-001 -9.61253792e-002 -7.26557314e-001
      -1.79405019e-001 -2.12014139e-001 -1.35497227e-001 2.01970488e-001
      1.01165600e-001 -1.12487115e-001 1.48598716e-001 8.39581415e-002
      -4.15387958e-001 -2.17957243e-001 -9.97964218e-002 2.21464578e-002
      6.20731376e-002 8.52321982e-002 2.46889014e-002 4.17849749e-001
      -6.60548881e-002 -5.62228262e-001 -1.98231921e-001
      -1.32723242e-001 2.42672622e-001 3.36816728e-001 2.54001111e-001
      3.05727962e-002 2.81677723e-001</_>
    <_>
      -2.73877699e-002 -3.89647260e-002 1.79210324e-002 -8.42335895e-002
      2.27794811e-001 -6.55099005e-002 -9.04032737e-002 9.19659249e-003
      -5.82995415e-002 -2.35784605e-001 -1.39822990e-001 1.20345116e-001
      1.12470753e-001 3.42615783e-001 7.41820112e-002 3.81753594e-003
      -2.07996760e-002 -2.90644467e-001 -4.64590546e-003 2.70687282e-001
      2.95954645e-001 1.47632822e-001 2.13737458e-001 -1.10969335e-001
      -4.66270506e-001 -3.07187736e-001 4.28086184e-002 -9.04178247e-002
      -6.59401855e-003 -2.91520264e-003 -8.80726725e-002 8.76870975e-002
      2.77346727e-002 -2.12765902e-001 -2.78037656e-002 5.20680798e-003
      4.89030359e-003 -6.08121417e-002 -1.10247217e-001 1.26800165e-001
      1.65559232e-001 -8.11534673e-002 -2.76974626e-002 -1.50155216e-001
      -2.48721428e-002 2.66078651e-001 -5.10504782e-001 -4.71926451e-001
      -1.54003382e-001 -1.74994171e-001 -1.63427591e-001
      -1.42258137e-001 -2.44868189e-001 3.28347474e-001 1.99658543e-001
      -3.28118175e-001 -2.86989152e-001 -1.00086942e-001
      -1.60064697e-001 -1.83931142e-001 -1.04935355e-001
      -2.20763326e-001 3.26631933e-001 3.32014233e-001 -2.70713896e-001
      -3.35563093e-001 -1.99402541e-001 -3.62619549e-001
      -2.87291139e-001 -3.98822814e-001 -5.71202457e-001 2.85475552e-001
      2.64937252e-001 -4.36130583e-001 -2.59093761e-001 -9.00311917e-002
      -5.10343239e-002 6.44237474e-002 -2.24694148e-001 -4.86303449e-001
      2.93912500e-001 2.42539108e-001 -1.95128322e-001 -2.56141603e-001
      -1.57246906e-002 5.16117848e-002 6.59770891e-002 -4.55231369e-001
      -6.47452295e-001 1.63272038e-001 3.05896431e-001 -3.02459925e-001
      -2.32073858e-001 -6.63838387e-002 -5.60850650e-002 1.25382230e-001
      -7.89053291e-002 -4.44958389e-001 3.05896431e-001 1.60993814e-001
      -5.71197271e-001 -5.69405973e-001 -5.17532416e-002 3.31904560e-001
      3.02561313e-001 8.38921964e-002 -2.01460063e-001 3.29458624e-001</_>
    <_>
      5.97694777e-002 -1.15284979e-001 8.66091549e-002 1.24617815e-001
      -4.01566848e-002 8.35296139e-002 -3.26276302e-001 -2.40169719e-001
      1.49679258e-001 -2.18398049e-001 -1.09290250e-001 3.42783034e-001
      2.60226667e-001 3.80962789e-001 2.49652296e-001 3.33678164e-002
      -3.86698666e-005 -1.61908358e-001 2.35470831e-001 2.90014502e-002
      1.51206851e-001 2.54761964e-001 1.84430048e-001 9.21694969e-004
      -5.24315953e-001 -4.58101600e-001 2.12086305e-001 -1.16504133e-001
      8.69031772e-002 1.78557858e-001 8.81209970e-002 1.63813204e-001
      1.29578739e-001 -2.36681297e-001 -1.52893990e-001 -2.27457564e-002
      -1.02689885e-001 1.30575433e-001 1.25331163e-001 1.31863758e-001
      2.55550236e-001 9.16448534e-002 3.59812602e-002 -9.17708874e-002
      -9.71883386e-002 3.08961660e-001 1.80727065e-001 8.22626241e-003
      -4.75984216e-002 -2.27464691e-001 -1.07986994e-001
      -5.55428922e-001 -5.06739914e-001 9.94452834e-002 9.09101889e-002
      2.19560601e-002 -2.38279849e-002 -5.10283597e-002 -1.52632846e-002
      -7.68995844e-003 -3.54220308e-002 -1.42704964e-001 1.15435041e-001
      2.67198563e-001 -2.98706349e-002 -1.04368463e-001 -1.67671904e-001
      -2.23872930e-001 -2.30499014e-001 -2.86392003e-001
      -9.49223042e-002 1.91408575e-001 4.38272148e-001 -1.02600977e-001
      -5.68374172e-002 -6.92196041e-002 -4.73185122e-001
      -1.32596903e-002 -5.87381244e-001 -3.69752049e-001 5.19415855e-001
      9.57170203e-002 -4.50541377e-001 -2.61646569e-001 -7.89636970e-002
      -1.22284591e-001 8.68286639e-002 -4.44087744e-001 -3.30387652e-001
      3.99326652e-001 4.12860096e-001 -2.25400865e-001 -1.15547262e-001
      -1.60105467e-001 -2.00915188e-001 -2.70955991e-002
      -6.12552054e-002 2.25822348e-002 4.07164127e-001 9.37371403e-002
      -4.43712413e-001 -4.60962385e-001 -2.35887215e-001 3.34755868e-001
      3.00986469e-001 2.15865314e-001 -5.59343323e-002 3.11548859e-001</_>
    <_>
      1.74524993e-001 3.27104069e-002 -9.67678875e-002 -1.60864100e-001
      1.02185026e-001 8.87694284e-002 -9.74350274e-002 -5.16297780e-002
      9.70940143e-002 7.05087557e-002 -1.48112327e-002 -2.45144904e-001
      -2.22792760e-001 1.09026641e-001 1.49276778e-001 -1.65409788e-001
      5.56777008e-002 7.05377832e-002 2.89799839e-001 1.16147630e-001
      5.06849661e-002 4.92909811e-002 3.77865322e-002 4.85542491e-002
      -1.45435572e-001 2.65569729e-003 1.29727840e-001 9.27739814e-002
      -6.95174560e-002 -2.43444338e-001 -1.72047883e-001
      -2.61557288e-002 1.14199169e-001 -2.37758428e-001 -1.88105777e-002
      1.77165680e-002 -9.48941857e-002 -1.44687057e-001 -1.33383915e-001
      -9.94496047e-002 1.12651668e-001 -2.43472354e-003 -1.21854700e-001
      -1.10330291e-001 -1.79589704e-001 4.45826631e-003 4.47631031e-001
      4.95391071e-001 1.59301296e-001 2.00394601e-001 -3.47537756e-001
      -4.53544319e-001 -4.10150170e-001 -2.38303483e-001 1.60899699e-001
      3.99209559e-002 -9.00932550e-002 -1.06882304e-001 3.46226953e-002
      -1.08186893e-001 -2.86606610e-001 -1.95681691e-001 2.53236177e-003
      -1.59248859e-002 4.10005838e-001 6.03170872e-001 2.65418947e-001
      1.19759686e-001 -3.96405786e-001 -5.62094748e-001 -6.47899508e-001
      -2.25673467e-001 1.38270780e-001 4.56652313e-001 5.08039832e-001
      1.33428290e-001 2.67065227e-001 -1.76646844e-001 -4.04626787e-001
      -4.92754161e-001 -1.77078262e-001 2.45807558e-001 6.82676360e-002
      5.99355847e-002 1.97528526e-001 3.68515760e-001 -2.28654236e-001
      -5.51479042e-001 -4.78194743e-001 -9.47632454e-003
      -2.79214650e-001 1.56683862e-001 4.50517565e-001 2.78871447e-001
      3.31606179e-001 -1.30345136e-001 -2.26493478e-001 -3.76452118e-001
      -5.31380832e-001 2.04447120e-001 -3.64904612e-001 -2.79240012e-001
      2.04478830e-001 3.85858834e-001 3.28686275e-002 -9.77251008e-002
      8.14720690e-002 -5.18604778e-002</_>
    <_>
      6.83043897e-002 -1.81048825e-001 1.32086366e-001 5.01042157e-002
      3.72017682e-001 2.65304863e-001 2.14944676e-001 2.34789714e-001
      2.04616562e-001 2.22637892e-001 -1.09883845e-001 -4.04607624e-001
      -6.83291927e-002 1.91230208e-001 9.39248204e-002 9.16254446e-002
      3.05680603e-001 2.38706499e-001 -2.31122747e-001 -6.30490661e-001
      -1.97747260e-001 -8.31038654e-002 -6.97514489e-002 2.64377326e-001
      6.07584059e-001 6.69625938e-001 6.07604980e-002 -5.36583439e-002
      -1.71125263e-001 -2.03465715e-001 -1.59840226e-001
      -1.35523528e-001 -9.98958796e-002 1.65080026e-001 4.10691559e-001
      -2.10687280e-001 -1.24101572e-001 -1.25045389e-001
      -1.45560786e-001 -1.38103962e-001 1.82055250e-001 3.76331396e-002
      7.07317144e-002 2.84396335e-002 -1.19132347e-001 -4.51490998e-001
      1.95016667e-001 3.50565523e-001 -2.02742964e-002 3.13126594e-002
      -1.39777094e-001 -7.54593536e-002 -2.51373589e-001
      -4.92389053e-001 -2.49201488e-002 2.81519890e-001 3.98822963e-001
      -1.03654638e-001 7.54250064e-002 -1.20972611e-001 -1.18885860e-002
      2.66015213e-002 -3.88846427e-001 -2.14072555e-001 3.87264758e-001
      6.00921273e-001 1.98870108e-001 1.93843469e-001 -1.74167499e-001
      -2.26359695e-001 -4.10651147e-001 -5.54421902e-001
      -5.04370667e-002 6.90701246e-001 6.03808165e-001 -8.78616329e-003
      -4.03319210e-001 -3.27846497e-001 -2.55037010e-001
      -3.48550200e-001 -3.80143166e-001 3.13983947e-001 4.93143588e-001
      3.50774854e-001 1.02147767e-002 3.63190286e-002 -1.03083566e-001
      -2.13876694e-001 -1.80646807e-001 -1.01576403e-001
      -2.68820316e-001 3.25870335e-001 2.66424090e-001 3.13588411e-001
      -8.67795385e-003 -1.24577604e-001 -2.01585189e-001
      -3.73836607e-001 -4.86525834e-001 -1.39826372e-001 2.72905231e-002
      -2.47341525e-002 3.50770414e-001 8.14131200e-002 1.46387964e-001
      -6.28283545e-002 -3.72806728e-001 -5.39938092e-001</_>
    <_>
      -2.90419430e-001 8.78790393e-003 1.22675307e-001 -1.20331101e-001
      7.78290555e-002 5.74026816e-002 9.12831500e-002 1.65796325e-001
      -2.19348446e-002 -1.19826548e-001 1.26399517e-001 9.55372378e-002
      -1.40543565e-001 2.39949711e-002 -8.16333368e-002 -5.77444062e-002
      2.25176603e-001 -1.40158415e-001 -9.76738259e-002 -7.27682784e-002
      1.06187686e-002 -9.59803388e-002 -1.60980701e-001 7.27663189e-002
      2.44651064e-001 3.09049875e-001 9.91679430e-002 2.37075761e-001
      8.86180475e-002 -4.49839197e-002 -2.43435457e-001 -3.37055057e-001
      -3.29960555e-001 -2.40059912e-001 2.81027317e-001 2.25057140e-001
      3.78206838e-003 8.89947414e-002 1.19351536e-001 -2.39778832e-002
      1.43920248e-002 -1.44727051e-001 -2.03177512e-001 -1.66389138e-001
      -1.26418218e-001 1.54115736e-001 3.66197139e-001 1.95800126e-001
      -1.10744848e-003 -3.15133594e-002 -2.27501035e-001
      -2.95213163e-001 -4.68756109e-001 -2.70489484e-001 4.02500212e-001
      2.88790882e-001 1.58409197e-002 -5.86456507e-002 -1.20195180e-001
      -3.85529220e-001 -5.15692651e-001 -2.16714337e-001 3.15735221e-001
      7.22853020e-002 3.16200942e-001 3.64815950e-001 1.99960276e-001
      2.01389655e-001 -2.23422065e-001 -4.11915064e-001 -5.25932729e-001
      -1.32896796e-001 1.03116035e-001 3.34994256e-001 2.95421362e-001
      7.69605264e-002 6.94758520e-002 -1.09530464e-001 -3.13125908e-001
      -4.58593518e-001 -1.35646492e-001 1.84573770e-001 1.47330314e-001
      1.72016680e-001 1.30731255e-001 1.23391993e-001 -1.12996377e-001
      -4.63488609e-001 -4.60199237e-001 -2.27050111e-002
      -2.16886491e-001 7.54264221e-002 1.96266830e-001 1.89828426e-001
      2.36801177e-001 6.88435361e-002 -1.46053448e-001 -2.97352374e-001
      -2.98216045e-001 1.72359988e-001 -2.63506413e-001 -1.29567817e-001
      8.34237263e-002 1.48888692e-001 6.67858347e-002 -1.27152994e-001
      -1.70066401e-001 -5.46268225e-002</_>
    <_>
      1.13051478e-002 -1.03023909e-001 -5.80878146e-002 3.38587873e-002
      1.14849821e-001 7.51189217e-002 -1.40968319e-002 2.85242144e-002
      1.57492280e-001 -9.53007638e-002 2.49613263e-002 -2.01299451e-002
      -7.76544586e-002 1.07291587e-001 9.69178323e-003 -9.34144184e-002
      1.47557706e-001 7.71064535e-002 9.15226787e-002 -5.30528463e-002
      -6.43463060e-002 4.06697765e-002 9.54133086e-003 8.79007131e-002
      -2.03162506e-002 -1.27099147e-002 1.60728484e-001 2.75604606e-001
      5.64866550e-002 -4.64822054e-002 -2.07270250e-001 -1.96678430e-001
      -3.07492554e-001 -1.66984662e-001 3.77009995e-002 2.61580050e-001
      -1.57158569e-001 1.13125267e-002 2.84067523e-002 -5.24518266e-002
      1.22416608e-001 -9.87892449e-002 -1.58091769e-001 -2.00134423e-002
      -2.16647595e-001 -1.97515830e-001 1.54268175e-001 3.50482494e-001
      1.82424933e-001 2.21868709e-001 -8.29837322e-002 -1.65051833e-001
      -2.91027784e-001 -4.52579767e-001 4.46702659e-001 2.79545128e-001
      2.16186956e-001 -1.10809758e-001 -7.90340267e-003 -3.45057189e-001
      -4.61422831e-001 -3.10131937e-001 2.13450819e-001 -1.07351393e-002
      2.95051575e-001 4.66804415e-001 2.94793934e-001 1.79817274e-001
      -2.15543300e-001 -3.85012865e-001 -4.78795201e-001
      -2.72786111e-001 -1.58662058e-003 3.80961388e-001 4.75779772e-001
      2.01958343e-001 1.91163614e-001 3.04471590e-002 -2.77007937e-001
      -4.23395783e-001 -3.94485056e-001 3.25593144e-001 2.72970140e-001
      2.02796951e-001 1.81231111e-001 1.99017793e-001 -7.03926831e-002
      -3.90707254e-001 -4.44706023e-001 1.05236530e-001 -1.91584349e-001
      1.12610281e-001 3.17091346e-001 3.20590138e-001 1.78926617e-001
      2.46385839e-002 -8.94781724e-002 -2.03212723e-001 -3.31452012e-001
      1.27000645e-001 -2.01401368e-001 -6.12991080e-002 2.46789828e-001
      1.56551823e-001 1.09909318e-001 -9.73477140e-002 -1.61847100e-001
      -3.91748734e-002</_>
    <_>
      5.40105216e-002 7.27974772e-001 5.65334439e-001 -2.20610440e-001
      -7.51054764e-001 -2.44990915e-001 -4.00683433e-002 4.87304516e-002
      -2.33312510e-002 1.03738397e-001 4.00264412e-001 1.01681314e-001
      -2.68099755e-001 -3.04836512e-001 -2.80559212e-001
      -8.31536800e-002 1.80206001e-001 1.12145633e-001 -1.04620017e-001
      2.52310812e-001 3.54750663e-001 6.51673973e-003 -3.77823889e-001
      -6.63916171e-002 3.53365660e-001 5.15235782e-001 1.83591887e-001
      -1.26175568e-001 -3.01983535e-001 -4.28198069e-001
      -3.84278715e-001 -3.42362612e-001 -1.47458494e-001 1.39399599e-002
      5.28428018e-001 1.70205534e-001 -3.42821591e-002 -1.21649377e-001
      -1.02240555e-001 9.11941454e-002 3.40438783e-001 -1.79176927e-002
      2.20338367e-002 8.67177248e-002 4.70942967e-002 -5.10785937e-001
      -2.86854152e-002 3.93159837e-001 1.80473804e-001 3.25763822e-001
      -3.26403975e-002 -8.14125451e-005 -1.08279981e-001
      -1.88733727e-001 6.01118654e-002 -8.84743929e-002 -4.93781358e-001
      -1.95259094e-001 1.22311160e-001 -1.41059840e-003 -8.60114321e-002
      1.25132084e-001 2.24416077e-001 -2.89664537e-001 3.57652269e-002
      2.56704956e-001 1.35767743e-001 3.17680895e-001 -3.04770619e-002
      -1.22917503e-001 -2.93904189e-002 -2.52084196e-001
      -6.17119372e-001 -9.44658965e-002 5.62958539e-001 2.26159781e-001
      2.45110050e-001 5.51809836e-003 7.02484250e-002 -2.86646951e-002
      -3.22945684e-001 -3.70841593e-001 -1.44784316e-001 1.99754924e-001
      2.12846145e-001 2.71365970e-001 1.82141557e-001 7.87023604e-002
      -6.26082346e-002 -2.24136487e-001 -6.08462095e-001
      -6.39373809e-002 4.85756755e-001 3.54461432e-001 4.17440265e-001
      1.12743482e-001 1.79139614e-001 8.49965140e-002 -4.29280758e-001
      -2.64604419e-001 -2.70069599e-001 1.40454561e-001 5.87262809e-001
      5.85881174e-001 4.15942550e-001 3.48073214e-001 1.38262779e-001
      -2.82094389e-001</_>
    <_>
      7.88847730e-002 1.23449862e-001 -4.62858267e-002 -7.57585987e-002
      2.20099941e-001 1.13773547e-001 5.69156930e-002 3.26817594e-002
      1.25068322e-001 8.47729817e-002 4.89469841e-002 -2.42545418e-002
      -7.74852410e-002 1.53655395e-001 -3.42855882e-003 -2.66559780e-001
      -1.94051236e-001 -2.22411916e-001 1.65513679e-001 1.14261203e-001
      -5.40745482e-002 2.78249681e-002 7.98010156e-002 1.52890310e-001
      -2.51615979e-002 -6.64118156e-002 2.00589329e-001 1.08547352e-001
      -8.87859389e-002 -9.79663581e-002 -1.59536064e-001
      -1.91787273e-001 -1.54092818e-001 -2.22393334e-001 1.37274237e-002
      8.35428759e-002 -4.96799909e-002 2.09580570e-001 2.34740078e-001
      -5.38996346e-002 1.09908216e-001 -1.14594445e-001 -2.71557719e-001
      -4.49700207e-001 -4.58315015e-001 -1.73224986e-001 1.12264790e-001
      3.00022095e-001 7.37388134e-002 1.00431532e-001 -2.77058691e-001
      -2.41758704e-001 -5.11523306e-001 -4.22685206e-001 3.01609069e-001
      8.19296464e-002 4.03568357e-001 -1.99903384e-001 -2.42149279e-001
      -3.08579266e-001 -4.92230475e-001 -3.10181081e-001 2.17677262e-002
      1.55413702e-001 3.81465375e-001 6.82419419e-001 1.09532893e-001
      -1.48368105e-001 -5.22736847e-001 -5.63218236e-001
      -6.08829618e-001 -2.17369482e-001 1.42373573e-002 3.34355354e-001
      4.73839909e-001 1.45724148e-001 2.29678065e-001 -9.71269086e-002
      -3.50982755e-001 -6.48154378e-001 -3.63560259e-001 4.72239345e-001
      3.70743960e-001 3.27516735e-001 4.92582954e-002 2.79104501e-001
      -1.83162272e-001 -7.22537518e-001 -6.81979060e-001 9.27869454e-002
      -2.13700712e-001 9.08273458e-002 3.42971534e-001 2.61279553e-001
      2.23416880e-001 -7.08062127e-002 -3.19783658e-001 -4.95826811e-001
      -2.95876592e-001 2.16888428e-001 -3.28962147e-001 -3.09148699e-001
      6.72796294e-002 2.26990923e-001 1.76308841e-001 -1.59172103e-001
      -7.90237188e-002 9.37187970e-002</_>
    <_>
      -4.02313434e-002 -3.51832658e-002 -6.64604083e-002 9.58056375e-002
      2.82238603e-001 2.36712724e-001 -1.22868061e-001 -8.16416293e-002
      2.04042643e-001 -8.02488476e-002 -6.10424131e-002 1.22031875e-001
      1.38395622e-001 4.23456162e-001 2.06799313e-001 -1.20886005e-001
      -1.45219713e-001 -1.10737681e-001 1.46274671e-001 5.11974432e-002
      2.03855783e-002 1.10477872e-001 1.96906000e-001 2.47568682e-001
      -2.80835062e-001 -1.99146673e-001 1.60065621e-001 4.74368073e-002
      8.83175582e-002 -5.09579889e-002 7.09703341e-002 1.20618023e-001
      1.61912695e-001 -1.71695158e-001 -1.61286652e-001 -7.68215880e-002
      3.34581770e-002 1.72164991e-001 2.81591296e-001 1.39338881e-001
      2.85110325e-001 -1.70775935e-001 -2.09048972e-001 -6.26468539e-001
      -4.67485458e-001 3.20041090e-001 5.65128863e-001 3.22308928e-001
      -1.42115848e-002 -6.61475933e-004 -5.96640110e-001
      -6.29838109e-001 -8.19774926e-001 -3.16877723e-001 1.95612669e-001
      1.09513007e-001 1.87435001e-001 1.03812188e-001 1.86862841e-001
      -5.20637222e-002 -1.45731166e-001 -2.00202599e-001
      -5.25486805e-002 -2.71852035e-002 1.16700716e-001 5.28492928e-001
      1.00074105e-001 3.13111581e-002 -3.36649239e-001 -3.28726351e-001
      -1.43661082e-001 -2.47382328e-001 1.75862715e-001 4.51025754e-001
      2.42501184e-001 -1.19094796e-001 1.12022996e-001 -1.97340369e-001
      -5.49820900e-001 -7.45360196e-001 8.72616544e-002 4.57165629e-001
      1.41803235e-001 -3.74092720e-002 -1.36188846e-002 1.16981260e-001
      -1.22882418e-001 -5.87810457e-001 -5.97927690e-001 3.25886965e-001
      -3.87414038e-001 -1.05912976e-001 2.45780781e-001 6.42622560e-002
      2.22513825e-001 -5.41682206e-002 -9.21593606e-002 -7.13373125e-002
      -2.30688542e-001 3.10005337e-001 -2.89767414e-001 -4.03370559e-001
      3.07293646e-002 3.04658443e-001 1.47159889e-001 2.10066617e-001
      1.40685514e-001 3.89763355e-001</_>
    <_>
      -1.80592880e-001 -3.47317219e-001 3.38054836e-001 1.73967749e-001
      2.75381595e-001 1.88332826e-001 3.47802967e-001 2.24691093e-001
      -2.04547763e-001 6.59190193e-002 -6.49826452e-002 1.09649613e-001
      2.21725777e-001 6.29114583e-002 8.23229104e-002 2.85403252e-001
      2.95699090e-001 3.21723521e-002 -7.36075044e-001 -5.17516732e-001
      -1.31956995e-001 -4.56538349e-002 1.99689269e-001 1.63725168e-001
      8.01948726e-001 7.41442680e-001 -5.07052720e-001 -2.15137169e-001
      2.51322359e-001 2.51787096e-001 -9.89025161e-002 -2.56643742e-002
      -2.94531696e-002 3.93748909e-001 7.31631994e-001 -1.90362215e-001
      -2.16149420e-001 -4.51872274e-002 -6.69394284e-002 2.33926978e-002
      7.47137843e-003 1.29220530e-001 2.54948735e-001 2.02936113e-001
      1.40255600e-001 -2.78784692e-001 -5.48707068e-001 -4.24500734e-001
      -2.02409610e-001 -1.79392770e-001 4.07275140e-001 6.52226985e-001
      3.63228410e-001 -5.76410219e-002 -1.00962758e-001 4.98849064e-001
      3.50243151e-001 -3.01424991e-002 1.37913357e-002 9.83504355e-002
      2.20739111e-001 5.46859980e-001 -1.48937076e-001 -1.22564100e-001
      7.08519369e-002 -1.35589615e-001 -1.83791220e-001 -8.76392126e-002
      3.56322289e-001 3.96309495e-001 1.40114233e-001 -4.33949493e-002
      -5.54161146e-002 6.55326843e-002 -3.19214799e-002 -1.66580960e-001
      -5.59102535e-001 -1.87613383e-001 3.10928792e-001 4.05702978e-001
      7.37004429e-002 -2.97567755e-001 2.02742949e-001 3.21723044e-001
      9.67484117e-002 -1.88138381e-001 -4.33584861e-002 6.30443096e-001
      5.85483611e-001 -1.56257689e-001 1.33808732e-001 6.52236119e-002
      -1.11537479e-001 -1.54205531e-001 -3.16196263e-001
      -8.34084377e-002 -2.43814960e-002 -1.64261267e-001 9.15302783e-002
      -3.10297608e-001 1.94824815e-001 2.61822164e-001 -2.82704104e-002
      -1.64633080e-001 -3.20838485e-003 1.03389427e-001 -2.06754684e-001
      -6.79717183e-001</_>
    <_>
      -6.42746150e-001 -2.01782808e-001 3.60840023e-001 -2.45080352e-001
      -2.30292961e-001 -1.26515538e-001 3.28462660e-001 2.92701274e-001
      -2.14283779e-001 -4.61400419e-001 1.43019244e-001 5.75998068e-001
      -1.11349290e-002 -3.19780521e-002 -1.93519473e-001 8.00461024e-002
      2.70874530e-001 -4.95582104e-001 -4.68103588e-001 -4.49057251e-001
      -2.39851668e-001 -5.63499510e-001 -6.22265100e-001
      -3.02386358e-002 1.03562713e+000 7.94076204e-001 7.33517408e-002
      4.76435781e-001 4.66841698e-001 4.20842618e-001 -4.78651464e-001
      -9.20389533e-001 -6.40371203e-001 -3.66640598e-001 3.35263044e-001
      5.66550255e-001 -1.28166541e-001 2.10957542e-001 3.22967052e-001
      -2.29289178e-002 -1.56825289e-001 -2.46992499e-001
      -2.47095078e-001 -2.39581436e-001 -7.31475651e-002 2.13798940e-001
      -1.98634207e-001 -5.04884601e-001 -4.61978525e-001
      -1.92864060e-001 -1.27506431e-003 8.90646204e-002 -1.42788053e-001
      7.47599155e-002 9.63619173e-001 9.98901248e-001 6.00294828e-001
      1.21555649e-001 -2.97711015e-001 -3.79807413e-001 -8.83976460e-001
      -2.32324421e-001 2.08124235e-001 -1.95011482e-001 -2.88015306e-002
      -2.16885284e-001 9.98495519e-002 2.40249321e-001 3.08187157e-001
      -1.32441565e-001 1.28146810e-002 -1.44085705e-001 7.56467134e-002
      -2.22272009e-001 -2.20554650e-001 -1.61514610e-001 9.41488668e-002
      5.83831258e-002 9.40146018e-003 1.46191254e-001 2.48076320e-001
      -2.68525034e-001 -2.06897244e-001 -2.76206404e-001
      -7.49537721e-002 6.39185384e-002 1.98910117e-001 4.99059781e-002
      -8.82357061e-002 -8.83129761e-002 -2.20591292e-001 1.17865108e-001
      -1.42649278e-001 2.80443519e-001 3.96134764e-001 2.97249138e-001
      3.72111946e-002 2.94798166e-001 -4.30931933e-002 -5.28163135e-001
      -2.12418243e-001 -1.38418093e-001 2.76848227e-001 6.62481189e-002
      -3.96274328e-002 -2.49109849e-001 -2.92538255e-001
      -3.23874205e-001</_>
    <_>
      -2.60295626e-002 7.66258407e-003 -1.26495972e-001 1.30052179e-001
      1.52661085e-001 6.83813542e-002 3.13399643e-001 4.00845319e-001
      2.51753837e-001 -2.35562995e-001 -3.47379409e-002 6.78271428e-002
      3.54207903e-001 -1.34716123e-001 -1.43059134e-001 -8.56723040e-002
      1.34341910e-001 2.24800572e-001 2.62239184e-002 -3.13292891e-002
      -3.35047007e-001 -8.38015601e-002 -1.73583791e-001
      -1.87190443e-001 3.81710716e-002 1.42396659e-001 2.20365241e-001
      7.22813904e-001 5.66334963e-001 3.87944043e-001 -1.50893524e-001
      -1.00346255e+000 -1.14031887e+000 -8.76908720e-001
      -2.74342984e-001 6.48160577e-001 -2.41323441e-001 -1.96674705e-001
      3.93352747e-001 9.67077464e-002 -5.76538546e-003 -2.93509841e-001
      -1.61386207e-001 7.53634050e-002 1.00425174e-002 -8.09949696e-001
      -8.89194489e-001 -1.69270635e-001 2.01519772e-001 3.09485167e-001
      5.36904752e-001 6.59657955e-001 2.37593293e-001 -7.81531751e-001
      1.14741027e+000 1.02247655e+000 1.00066054e+000 1.50543422e-001
      -4.41467315e-001 -5.96265197e-001 -9.05085087e-001
      -8.94136131e-001 5.89809954e-001 -1.36231273e-001 -1.34676605e-001
      2.21044689e-001 3.13900232e-001 3.75498921e-001 4.35158312e-001
      2.01428905e-001 4.11715964e-003 -4.97316957e-001 -5.71235418e-001
      -1.32326707e-001 1.09814867e-001 3.10111135e-001 2.90278822e-001
      5.54726958e-001 5.07458031e-001 -1.84860244e-001 -9.98404026e-001
      1.59964994e-001 5.42192459e-001 1.09368458e-001 1.64379433e-001
      2.42746189e-001 2.36424789e-001 -1.54594406e-002 -1.89827174e-001
      -1.61772460e-001 -2.71445513e-001 3.45042255e-003 2.32774802e-002
      3.90194774e-001 1.45914152e-001 2.80288786e-001 1.90368786e-001
      2.64773844e-003 -1.17348172e-001 -1.20970987e-001 1.11255616e-001
      -9.54811722e-002 2.06117302e-001 -3.34919132e-002 -1.41441584e-001
      -9.64336917e-002 -2.23120093e-001 -1.30534321e-001</_>
    <_>
      -1.47392347e-001 3.54443878e-001 3.64204615e-001 -3.00540663e-002
      -3.68486941e-001 -1.00155972e-001 2.54001349e-001 1.96810797e-001
      2.90174759e-003 1.14453696e-001 4.31438178e-001 1.42042547e-001
      -9.64680538e-002 -2.02301994e-001 -2.26220071e-001 2.09817588e-001
      1.57262698e-001 1.10236615e-001 -3.77858341e-001 -1.33003235e-001
      -5.45199625e-002 -1.32299885e-001 -3.90249223e-001
      -1.11266181e-001 4.08558398e-001 3.30265939e-001 1.72327802e-001
      -1.61295578e-001 -2.42238611e-001 -2.71887064e-001
      -3.10097545e-001 -2.86389828e-001 -3.20574552e-001 2.60709614e-001
      3.31856042e-001 2.37966269e-001 1.73846453e-001 2.17551768e-001
      1.46823019e-001 1.34569947e-002 7.38081932e-002 4.77548018e-002
      1.22163743e-001 9.54261720e-002 1.56443223e-001 -1.48321137e-001
      -3.52962494e-001 -8.73992220e-002 3.01025379e-002 1.34857267e-001
      3.68151635e-001 3.86785269e-001 2.24173278e-001 3.69035080e-002
      -1.19151056e-001 -1.61272720e-001 -2.43627429e-001
      -2.35561296e-001 -1.25867110e-002 1.90701708e-002 2.49130558e-002
      2.76934236e-001 2.68475324e-001 -1.33076400e-001 -4.16723371e-001
      -4.33095485e-001 -1.04706384e-001 1.70224190e-001 3.57713461e-001
      2.13151738e-001 5.15198290e-001 1.01939358e-001 -4.19316560e-001
      -4.09689188e-001 -1.37577849e-002 9.50063542e-002 1.28723174e-001
      2.51609862e-001 3.24084163e-001 3.00046146e-001 -6.59485459e-002
      -4.47850943e-001 -2.88675517e-001 1.86693579e-001 4.53945324e-002
      2.14827918e-002 2.93630987e-001 5.28586328e-001 3.31239343e-001
      -7.45155364e-002 -1.75693795e-001 -2.46316195e-001
      -1.78401202e-001 2.85019204e-002 5.85104227e-002 2.65293002e-001
      2.65169621e-001 3.80708784e-001 1.26351714e-001 -3.09089035e-001
      4.55984809e-002 2.57577509e-001 1.52990624e-001 9.82604083e-003
      2.10811734e-001 2.00789303e-001 1.99182238e-002 -1.32972479e-001</_>
    <_>
      -4.87451851e-002 1.24140672e-001 4.76560056e-001 4.01869953e-001
      3.03299725e-001 -5.10823317e-002 1.22299403e-001 2.89631248e-001
      1.30613418e-002 -5.40824048e-002 4.75847870e-001 1.21157587e+000
      9.77644026e-001 5.35594583e-001 -3.71122807e-001 -6.95492029e-001
      -1.82354200e+000 -1.09853566e+000 -1.45272911e-001
      -3.61694023e-002 1.46646142e-001 8.59925151e-002 1.06393382e-001
      3.02624494e-001 4.08529565e-002 -1.81260839e-001 1.75026745e-001
      5.00077568e-003 -1.10585667e-001 1.44746900e-001 1.04750060e-001
      -1.84901461e-001 -5.48006713e-001 -4.24484044e-001
      -1.04760714e-001 7.73796290e-002 7.95100272e-001 7.59565592e-001
      5.79088748e-001 -1.47045180e-001 -2.51452416e-001 -4.74711001e-001
      -4.89032447e-001 -1.30687332e+000 -4.65229839e-001
      -1.59327805e-001 -2.05416775e+000 -1.98002875e+000
      -9.99021053e-001 -4.62007225e-001 6.76522017e-001 1.01548779e+000
      5.75473487e-001 -1.37586698e-001 2.24546507e-001 7.89483041e-002
      8.79654810e-002 -3.04992199e-001 -4.18009222e-001 -3.95962834e-001
      -2.32559845e-001 1.09859124e-001 8.36563557e-002 3.89779061e-001
      -8.34210068e-002 -4.87594098e-001 -6.11397684e-001
      -1.58666432e-001 4.75220859e-001 -1.22579135e-001 4.22863871e-001
      7.90596381e-002 -7.26603508e-001 -7.75362432e-001 -6.52853191e-001
      4.09739884e-003 7.40602165e-002 6.63267016e-001 7.55861938e-001
      2.52482332e-002 -5.81890106e-001 1.16261773e-001 6.75629139e-001
      -1.04110781e-002 -2.21358731e-001 3.41885239e-002 -2.13385262e-002
      1.38306230e-001 6.10625111e-002 2.86316782e-001 -6.93732202e-002
      9.40619037e-002 -3.20801586e-001 1.61848944e-002 -4.28097509e-003
      3.82896543e-001 -6.07488491e-002 -4.80713457e-001 3.36359650e-001
      -2.78930366e-001 6.85644289e-003 -2.80327648e-001 -1.46937415e-001
      -4.64504614e-004 -1.56713992e-001 4.36673373e-001 4.71972115e-002
      -1.22312702e-001</_>
    <_>
      -8.35984573e-002 -3.86021256e-001 -1.97201833e-001 1.21504299e-001
      1.18007802e-003 3.62423420e-001 1.09679975e-001 3.69005948e-001
      2.65339077e-001 -2.83121496e-001 2.44751468e-001 8.80514264e-001
      9.07501340e-001 6.37663960e-001 4.14951265e-001 -7.59988353e-002
      -4.65526134e-001 -6.24152184e-001 2.11750686e-001 -1.90031663e-001
      -3.37836266e-001 -4.72549349e-002 -1.54033557e-001 1.46128565e-001
      -2.35111356e-001 -1.94281757e-001 4.10099000e-001 2.14922186e-002
      6.61744177e-001 8.52931321e-001 4.33701038e-001 1.49202114e-002
      1.06643833e-001 -4.83459383e-001 -5.19401670e-001 -1.35574475e-001
      -1.21095583e-001 8.34338844e-001 9.61732209e-001 6.55799210e-001
      4.53411788e-001 1.16744958e-001 1.54667236e-002 -1.04710472e+000
      -9.07639682e-001 4.63503510e-001 3.46331596e-001 -3.93729769e-002
      -2.32334495e-001 -3.03417712e-001 6.12588339e-002 -1.32653937e-001
      -4.00949210e-001 -5.74028380e-002 9.71314758e-002 3.11119258e-001
      8.14854145e-001 2.95920849e-001 1.66835979e-001 2.28000790e-001
      3.17769200e-001 4.21639904e-002 -3.69718283e-001 3.20185274e-002
      -9.31109011e-001 -5.13402283e-001 -4.44864810e-001
      -6.90266192e-001 -3.71248368e-003 6.85384035e-001 1.45317948e+000
      1.46668196e-001 3.44074905e-001 1.16760850e-001 -3.00932914e-001
      -4.64999914e-001 -4.54484254e-001 1.28400311e-001 -1.37235239e-001
      8.84683132e-002 5.98709702e-001 7.34615251e-002 4.82990919e-003
      -1.65408999e-001 -1.84349731e-001 -1.95084587e-001 3.12943876e-001
      1.39469758e-001 -2.84116119e-001 2.35401616e-001 4.03524339e-001
      -2.88418680e-001 -4.85805511e-001 -2.72166580e-001
      -4.42705154e-001 -1.02282383e-001 -4.52788174e-002 8.24420571e-001
      9.49899316e-001 -2.88683504e-001 1.82628110e-002 -2.06049398e-001
      -8.80165026e-002 -1.80546939e-001 -7.24229217e-002
      -2.20944941e-001 -3.21712017e-001 -2.20959000e-002</_>
    <_>
      -2.58269876e-001 1.62731126e-001 6.56724870e-002 -2.74791211e-001
      -1.16124906e-001 -1.30916089e-001 4.59605828e-003 1.23916395e-001
      -7.33831385e-003 -1.27084479e-001 2.68345445e-001 3.61770689e-001
      -4.13317140e-003 1.05430737e-001 -1.00211598e-001 -3.79469544e-002
      6.17004074e-002 -3.29434067e-001 2.33424842e-001 3.49201378e-003
      -1.99798513e-002 -2.63953835e-001 -5.13767421e-001
      -2.66375899e-001 -8.16353261e-002 6.42035380e-002 4.55157369e-001
      2.74263263e-001 5.85106313e-002 5.28714024e-002 -3.14340621e-001
      -4.31326985e-001 -5.15155673e-001 -5.14026165e-001
      -1.53221667e-001 3.03791016e-001 9.21634734e-002 1.80794105e-001
      2.59450853e-001 3.69872302e-002 -2.81368643e-002 -1.85350716e-001
      -2.74440914e-001 -2.16553390e-001 -1.10231854e-001 5.62911987e-001
      3.10761809e-001 -7.61943310e-002 -9.03329253e-002 -9.56307501e-002
      -2.75863111e-001 -2.56937295e-001 -3.78098130e-001 1.27753451e-001
      4.44549382e-001 1.95706591e-001 -2.13375270e-001 -2.17578933e-001
      -3.39588732e-001 -5.92079461e-001 -7.31104016e-001
      -5.13528645e-001 4.55040753e-001 3.73001099e-001 -1.97220296e-002
      -2.62841523e-001 3.17594260e-002 7.53518790e-002 -3.17125946e-001
      -3.16726923e-001 -3.02206188e-001 2.05152050e-001 3.29784214e-001
      -1.51858374e-001 -1.46161169e-001 5.13839275e-002 4.16306317e-001
      5.49141318e-002 -1.34298086e-001 -2.89137483e-001 7.45346844e-002
      1.12802060e-002 -1.01544045e-001 -1.80570960e-001 6.16505407e-002
      2.93120772e-001 1.13255309e-003 -5.19830346e-001 -5.93055367e-001
      -1.51805550e-001 -1.03017758e-003 -1.35713503e-001
      -1.75815284e-001 1.35866344e-001 4.34296906e-001 1.95418790e-001
      6.06956370e-002 -1.45251289e-001 2.29691155e-003 1.97498947e-001
      -2.78430104e-001 -2.73237377e-001 -2.38337368e-002 1.34193897e-001
      5.55530265e-002 -3.52710009e-001 -3.06966871e-001 3.40818673e-001</_>
    <_>
      3.95733230e-002 7.83215165e-002 -2.07273185e-001 4.71564122e-002
      -5.34130447e-003 -1.49664387e-001 -1.00954413e-001
      -5.59039451e-002 2.43162006e-001 -8.31272900e-002 1.49218425e-001
      2.96341302e-003 6.18135072e-002 -6.70639519e-003 -1.90862462e-001
      -1.64810151e-001 -6.20607175e-002 1.25640556e-001 4.85459536e-001
      2.47073069e-001 3.15255076e-002 3.23700048e-002 -1.29932180e-001
      -3.36684942e-001 -5.32896042e-001 -3.78863037e-001 4.55678612e-001
      3.18133146e-001 -6.86266124e-002 1.16726775e-002 -1.78491384e-001
      -4.07361120e-001 -5.02227187e-001 -7.57854462e-001
      -6.05025113e-001 3.02651525e-001 4.97668236e-002 9.61836427e-002
      2.18031257e-001 7.38341436e-002 -3.82940210e-002 -2.15111151e-001
      -2.00878248e-001 -5.94631694e-002 -3.22624110e-002 8.01025406e-002
      1.93787411e-001 3.00820112e-001 3.06359053e-001 1.75042421e-001
      -6.56143799e-002 -7.25520924e-002 -1.19874939e-001
      -1.67967185e-001 4.07831401e-001 -1.01826146e-001 5.93189187e-002
      -1.83785185e-001 -2.62238503e-001 -3.50524068e-001
      -7.39304125e-001 -7.50860274e-001 3.29070807e-001 6.97621703e-002
      -4.12614569e-002 7.88572207e-002 1.81338161e-001 4.84678820e-002
      -1.81420714e-001 -3.10376406e-001 -2.58725166e-001
      -8.43016207e-002 -8.47539082e-002 1.04031973e-001 2.02966765e-001
      3.43197048e-001 6.91818655e-001 3.32608968e-001 -3.70838568e-002
      -3.76249194e-001 -4.00149852e-001 1.98760435e-001 2.14127019e-001
      -1.48637304e-002 1.09651163e-001 5.46117961e-001 1.10003978e-001
      -4.29447562e-001 -6.78706288e-001 8.57648998e-003 -7.21088424e-002
      8.88467729e-002 9.60156992e-002 1.83469474e-001 1.68411419e-001
      1.31999612e-001 2.95411274e-002 4.27022725e-002 -1.77962959e-001
      1.28568470e-001 6.01129867e-002 -2.69088358e-001 -2.90333629e-002
      6.92701638e-002 -1.48904277e-002 -2.11335048e-001 -1.63587406e-001
      4.88382220e-001</_>
    <_>
      6.43958747e-002 6.42198324e-001 1.66581422e-001 -2.39395559e-001
      -7.45921493e-001 -3.25231493e-001 -8.87373537e-002
      -1.81381982e-002 2.17308536e-001 -1.19807273e-001 3.44200492e-001
      3.19935620e-001 -2.28772730e-001 -2.74939418e-001 -1.31696597e-001
      -3.31836939e-002 -4.26479355e-002 1.97494030e-001 1.17896840e-001
      9.10570193e-003 3.05650383e-002 -1.37952091e-002 -3.71342957e-001
      -2.67327666e-001 -2.60287784e-002 -1.11330643e-001 5.63297451e-001
      -2.23352015e-003 -3.08707565e-001 -3.79233956e-001
      -2.78618485e-001 -6.61066324e-002 -1.57591999e-001
      -5.22200465e-002 -1.17244676e-001 5.20551980e-001 -8.27782676e-002
      4.70601134e-002 2.42179796e-001 2.04941314e-002 4.39462513e-002
      4.96626906e-002 1.88668128e-002 -3.62648480e-002 3.15006562e-002
      3.33165191e-002 -1.49942815e-001 1.80525407e-001 2.36880809e-001
      1.87409192e-001 5.82188256e-002 7.41410181e-002 1.10286117e-001
      1.36443689e-001 -3.02603468e-002 -5.57981372e-001 -2.91532665e-001
      -2.17506066e-001 3.71773541e-002 2.67271418e-002 -6.16832264e-002
      -5.51973507e-002 4.12370116e-001 -4.77339178e-002 -4.20209140e-001
      -4.39863689e-002 -3.39468643e-002 2.28377521e-001 1.03970125e-001
      5.92762753e-002 3.42057824e-001 2.40281776e-001 -3.15232515e-001
      -2.93488830e-001 6.79769963e-002 2.93731809e-001 6.88659787e-001
      2.80256510e-001 2.96479464e-001 2.41355166e-001 -5.30281067e-002
      -7.84463882e-001 -5.69574237e-001 -8.40043128e-002 2.32591890e-002
      3.60387623e-001 4.28783357e-001 2.41153792e-001 5.75951897e-002
      -2.54520565e-001 -4.13524479e-001 -8.14908743e-002 1.25102073e-001
      1.36720106e-001 4.93459076e-001 3.57050896e-001 3.98242354e-001
      3.58207047e-001 3.08329836e-002 -3.91557395e-001 -1.48071691e-001
      1.10131770e-001 3.89020629e-002 3.88605297e-001 4.04930800e-001
      2.97628194e-001 4.15146738e-001 1.49961665e-001</_>
    <_>
      -2.03425735e-002 4.23107594e-001 -1.66715980e-001 -1.27780050e-001
      2.88903490e-002 -1.58939689e-001 -1.62280664e-001 -1.91079363e-001
      4.68274690e-002 -5.05040586e-002 3.61910492e-001 1.68620989e-001
      1.57859758e-001 1.51242122e-001 -2.39706963e-001 -4.36200351e-001
      -6.83926463e-001 -2.71931827e-001 5.00904322e-001 4.85826582e-001
      7.12413117e-002 -4.54235449e-002 6.33253753e-002 -2.33949900e-001
      -7.25633025e-001 -7.03853011e-001 4.47022408e-001 2.19219446e-001
      -2.08790332e-001 -3.09807390e-001 1.30792350e-001 1.49937402e-002
      -2.93813080e-001 -5.19903183e-001 -5.14353037e-001 2.13277280e-001
      2.74619430e-001 4.60077107e-001 2.19851598e-001 6.85628355e-002
      -3.56691107e-002 -3.10067445e-001 -3.70613843e-001
      -6.19735777e-001 -3.50990206e-001 2.31819406e-001 1.42520992e-003
      -9.82619822e-002 7.45118484e-002 1.20060407e-001 -1.21595323e-001
      -1.62182733e-001 -2.89173752e-001 5.00909723e-002 2.36898616e-001
      -3.10727566e-001 -2.59850055e-001 -1.27559721e-001
      -1.62626669e-001 -4.26969409e-001 -5.41413248e-001
      -5.98045826e-001 2.25334778e-001 3.08265477e-001 -1.59218922e-001
      -1.11112460e-001 -1.57579646e-001 -4.83271144e-002
      -3.27909291e-001 -2.29816779e-001 -6.69683069e-002 1.30813897e-001
      -7.62393549e-002 -3.48890454e-001 -1.50844827e-001 2.64988065e-001
      6.42219305e-001 3.57766986e-001 -2.77810860e-002 -4.12099212e-001
      -1.55726194e-001 1.75552800e-001 9.49822087e-003 -1.87186256e-001
      -1.17243357e-001 3.31779897e-001 -8.47706944e-002 -3.56085032e-001
      -7.02839911e-001 1.98383436e-001 -8.65268037e-002 -1.52606696e-001
      -5.64138293e-002 1.13330223e-001 3.17337871e-001 1.67026117e-001
      1.79112256e-001 1.33643806e-001 1.18651874e-001 1.19011603e-001
      -1.37788698e-001 -2.85293251e-001 -7.33487234e-002 1.54276028e-001
      -8.84760991e-002 1.31232617e-002 6.94050416e-002 7.37941563e-001</_>
    <_>
      1.31340235e-001 5.12891337e-002 -1.53490514e-001 2.04053824e-003
      -1.02196738e-001 2.61155199e-002 -1.94505736e-001 -2.05599576e-001
      2.63414145e-001 -1.14563778e-001 1.21253766e-001 4.22680080e-001
      2.09264547e-001 3.13727707e-001 1.11535296e-001 -8.28283653e-002
      -4.54277575e-001 -3.12216550e-001 6.02271199e-001 1.13843612e-001
      -6.35196716e-002 -2.06971914e-002 7.94730261e-002 -8.24710429e-002
      -6.20399773e-001 -5.78327715e-001 4.56913620e-001 5.43953963e-002
      3.44384126e-002 1.71330661e-001 1.96044117e-001 3.27567369e-001
      1.46712840e-001 -3.81958961e-001 -7.87810266e-001 2.41571255e-002
      8.05882141e-002 3.74115497e-001 4.10100609e-001 2.03646570e-001
      2.39023760e-001 -6.91685900e-002 -1.35056511e-001 -6.88555419e-001
      -2.89028436e-001 5.26766300e-001 4.85310555e-001 2.90678740e-001
      1.51434660e-001 2.73041986e-002 -1.95582628e-001 -4.99655843e-001
      -5.53418636e-001 7.16758072e-002 -1.19895919e-003 -1.40172899e-001
      5.18383533e-002 7.80049190e-002 2.06941187e-001 -9.75426566e-003
      -1.44367978e-001 -3.88019145e-001 -2.08996963e-002 1.97961077e-001
      -1.83958247e-001 -7.62898475e-002 -6.36125635e-003 1.91431548e-002
      -2.10706770e-001 -1.27202064e-001 2.90577918e-001 9.70513821e-002
      2.79346168e-001 -9.93655473e-002 -4.77739014e-002 6.30086660e-002
      1.23220265e-001 2.06180871e-001 -3.07726800e-001 -4.05226141e-001
      2.55038351e-001 1.89471558e-001 -2.34034792e-001 -2.35339820e-001
      -6.79369420e-002 3.44590247e-002 4.08689789e-002 -3.96382272e-001
      -3.85569662e-001 1.99245825e-001 8.18336084e-002 -1.13588460e-001
      -1.75266027e-001 4.96255420e-003 4.23730016e-002 6.53777970e-003
      6.05236255e-002 2.94940889e-001 2.57579803e-001 2.50762433e-001
      -1.88441247e-001 -4.10483420e-001 -5.76241687e-002
      -5.58201456e-003 -1.07837334e-001 -1.91702485e-001
      -5.45516349e-002 5.20258367e-001</_>
    <_>
      8.26876104e-001 -3.37618649e-001 -6.45074427e-001 6.75994754e-002
      7.31626987e-001 5.61911128e-002 -3.61505598e-001 -4.87611026e-001
      5.70688307e-001 3.38003397e-001 -5.01301467e-001 -7.94762313e-001
      -1.50999591e-001 2.55046189e-001 3.48452508e-001 -1.19309448e-001
      -1.05980083e-001 8.66531432e-001 6.73336983e-001 3.84626836e-001
      -1.93712693e-002 5.46823859e-001 1.07358491e+000 -6.04296215e-002
      -1.67231393e+000 -1.29188728e+000 1.20960012e-001 2.73847720e-003
      -1.41159827e-002 3.52483243e-002 4.77898598e-001 6.37068927e-001
      2.29105949e-001 -4.29554563e-003 -3.47838998e-001 -3.50269288e-001
      -2.26106104e-002 -4.92986947e-001 -9.08302888e-002
      -1.31373659e-001 1.66422203e-001 1.75329059e-001 5.68357781e-002
      4.01628047e-001 2.40253180e-001 -9.50400233e-001 -4.55759555e-001
      5.62329173e-001 6.95511699e-001 8.52423131e-001 5.67929327e-001
      2.62126356e-001 3.21999222e-001 -7.10711598e-001 -1.77677542e-001
      -5.36634564e-001 -4.29549441e-002 -4.83571440e-002 2.01832265e-001
      5.49440868e-002 1.61954731e-001 1.36487350e-001 3.44973952e-001
      1.14385352e-001 -9.71373022e-002 1.67654201e-001 1.47259962e-002
      1.31333798e-001 2.61236839e-002 -3.17177400e-002 -3.87883969e-002
      -7.85319284e-002 -3.44339043e-001 2.96134949e-001 3.71416211e-001
      4.87860560e-001 3.66948247e-001 5.04324734e-001 1.96620241e-001
      3.38607691e-002 -9.65466440e-001 1.55679777e-001 3.83195490e-001
      2.69829214e-001 3.17043930e-001 -4.60379273e-002 6.64703622e-002
      2.36413717e-001 2.57687792e-002 1.29598036e-001 1.99791506e-001
      1.77312315e-001 8.11814070e-002 1.57141954e-001 -1.37996137e-001
      -2.16948792e-001 -1.74192443e-001 -1.16018310e-001 9.90423262e-002
      3.24506760e-001 3.96088630e-001 2.30697498e-001 -8.90526995e-002
      -1.48880497e-001 -4.09459174e-001 1.37720585e-001 2.60975480e-001
      -1.25297830e-002</_>
    <_>
      3.13621581e-001 3.62268716e-001 6.34898469e-002 1.26170367e-001
      -3.39908898e-001 -4.61180694e-002 3.02827768e-002 -5.11461683e-002
      1.03761315e-001 2.55727053e-001 2.26812795e-001 -1.54013857e-001
      -6.95549510e-003 -9.20964032e-002 -3.99956740e-002 3.79506573e-002
      -1.23300783e-001 3.43366385e-001 8.31680745e-002 2.07557023e-001
      -1.49486847e-002 1.03879623e-001 -1.79546699e-001 -7.80113637e-002
      4.98448946e-002 -1.44584686e-001 1.85217589e-001 -3.80105913e-001
      -3.27360630e-001 -4.52239513e-001 -2.72350609e-002
      -4.97070067e-002 1.18326217e-001 2.87967622e-001 -7.47106448e-002
      2.67161354e-002 1.05540738e-001 9.68556702e-002 -2.16640830e-001
      2.35809088e-002 2.13145629e-001 1.69391513e-001 2.56654382e-001
      8.00136253e-002 1.38264850e-001 -2.44476825e-001 -2.35343903e-001
      9.29988399e-002 2.18360245e-001 3.10190052e-001 2.44085133e-001
      3.02202553e-001 2.14438856e-001 4.62786481e-002 -4.62992787e-001
      -4.63390857e-001 -3.36135983e-001 -1.65627345e-001 1.59949824e-001
      3.23612392e-001 4.37552631e-001 3.60886186e-001 -9.70110744e-002
      -2.64841169e-001 -3.79705220e-001 -2.49426603e-001
      -7.74803907e-002 1.08275957e-001 2.33328938e-001 2.32260123e-001
      4.19669628e-001 -6.86331987e-002 -4.87046540e-001 -2.79568166e-001
      1.46114409e-001 1.09678745e-001 2.37652928e-001 2.08035365e-001
      3.29679430e-001 2.92926162e-001 -8.34590122e-002 -4.91606474e-001
      -2.82950848e-001 1.04476787e-001 1.65526420e-002 2.14509606e-001
      2.81970650e-001 4.53809232e-001 4.52286482e-001 -3.13083716e-002
      -2.53948063e-001 -1.08555831e-001 2.21240092e-002 3.78767997e-002
      7.39469975e-002 6.14086837e-002 2.09758401e-001 1.76588476e-001
      -3.22441268e-003 -3.37185591e-001 6.78706244e-002 2.76362270e-001
      2.25816861e-001 1.48597941e-001 1.20974325e-001 1.70149848e-001
      1.99633569e-001 -2.08896115e-001</_>
    <_>
      6.73398852e-001 1.89192876e-001 -3.20174187e-001 1.49336949e-001
      3.34989965e-001 4.14394997e-002 -2.67772913e-001 -3.22942346e-001
      5.03425859e-002 4.40567404e-001 -1.73645064e-001 -4.44458097e-001
      2.98298538e-001 2.65336990e-001 1.28753960e-001 -3.05498749e-001
      -8.03942323e-001 6.44542873e-002 2.99100131e-001 4.72228467e-001
      5.17423004e-002 5.00062704e-001 6.89029098e-001 1.20761216e-001
      -8.86161387e-001 -1.06661797e+000 1.39689654e-001 -5.33756256e-001
      -6.16521776e-001 -3.29474181e-001 6.85828745e-001 6.73749030e-001
      7.78715730e-001 1.58816308e-001 -3.52543652e-001 -4.93387699e-001
      2.52958119e-001 -1.88769698e-001 -2.01540738e-001 8.07349458e-002
      1.91380426e-001 5.73423654e-002 4.35066447e-002 -3.28129321e-001
      -1.54093176e-001 -4.17312324e-001 -7.13438034e-001
      -3.69748384e-001 8.38915780e-002 3.29094261e-001 2.43321195e-001
      3.92320275e-001 5.18471777e-001 1.53281298e-002 -8.50115180e-001
      -9.48353708e-001 -1.80864811e-001 1.77074205e-002 2.03921586e-001
      4.77788687e-001 7.53229678e-001 2.54274100e-001 -3.53256732e-001
      1.08113755e-002 -1.71744227e-002 -2.92818975e-002 -2.90686816e-001
      -2.28572026e-001 -1.23449955e-002 1.97103649e-001 3.54588449e-001
      1.89905301e-001 -3.98156881e-001 -2.52569497e-001 -1.44776493e-001
      6.75897002e-002 1.65698081e-001 1.72633991e-001 2.91064769e-001
      2.08817646e-002 -3.30277383e-001 1.80580348e-001 1.97031513e-001
      1.34317473e-001 -6.47349879e-002 -1.69126224e-002 -2.23277688e-001
      5.41025326e-002 1.13463275e-001 5.64050823e-002 1.17773928e-001
      3.81889753e-002 1.20494649e-001 -1.45454869e-001 -2.51608640e-001
      -1.71299815e-001 -1.23039626e-001 -3.23855728e-002 1.67507589e-001
      2.09719718e-001 1.19991213e-001 -5.92035837e-002 -2.06411421e-001
      -4.07226421e-002 -2.19441146e-001 1.55284256e-001 3.87236148e-001
      2.02936515e-001</_>
    <_>
      5.02136171e-001 7.96182081e-002 -3.12993914e-001 1.49035593e-002
      2.67386407e-001 1.28811136e-001 -2.50492334e-001 -6.69533759e-002
      2.62180537e-001 -1.27912862e-002 -6.64341450e-002 -1.62981451e-001
      2.16426760e-001 3.86401117e-001 3.61455351e-001 -4.39334549e-002
      -5.01873791e-001 2.09241793e-001 3.46203625e-001 2.25118890e-001
      3.35284472e-002 3.38246346e-001 7.31140077e-001 1.65610939e-001
      -7.29941666e-001 -6.70589328e-001 -5.84927499e-002
      -2.75077969e-001 -1.59624785e-001 1.30346969e-001 5.30941248e-001
      8.29055369e-001 8.74413252e-001 1.50887519e-001 -6.29499614e-001
      -5.42610466e-001 5.00382781e-002 1.27238214e-001 2.97529936e-001
      3.33462238e-001 3.93597901e-001 2.66014129e-001 1.49420574e-002
      -5.30278563e-001 -3.11331481e-001 1.73605785e-001 3.49588335e-001
      3.54627669e-001 1.90226763e-001 2.73366600e-001 1.12314753e-001
      -3.85409474e-001 -2.18962431e-001 -1.24406435e-001
      -5.12443483e-001 -5.39311945e-001 7.10861608e-002 2.03865379e-001
      4.37801540e-001 5.18638730e-001 5.77357709e-001 1.86646193e-001
      -3.85537237e-001 3.20758760e-001 -1.29559487e-001 -2.15302005e-001
      -4.34322953e-001 -4.35222745e-001 -1.43556535e-001 6.59782141e-002
      6.75472319e-001 4.29540992e-001 1.02329604e-001 1.89405844e-001
      -1.98731050e-002 -1.40787005e-001 -6.93808049e-002 2.27954164e-002
      -1.29125491e-001 -7.74066970e-002 7.04982085e-003 1.98386252e-001
      1.00527920e-001 -6.44096825e-003 -2.13209987e-002 -9.22301263e-002
      2.02150241e-001 -1.88043632e-003 -1.20903127e-001 1.32332519e-001
      5.55200160e-001 -3.53680030e-002 1.30034434e-002 -5.00194132e-001
      -4.32543367e-001 -2.48316646e-001 -1.27880290e-001 2.62023836e-001
      3.84331375e-001 1.59076437e-001 1.94858149e-001 2.63710059e-002
      -1.61845699e-001 -1.07571445e-001 -7.38694593e-002 1.21315934e-001
      8.36373344e-002 1.93305001e-001</_>
    <_>
      -8.16571489e-002 5.59330344e-001 4.80316758e-001 -1.85456082e-001
      -4.52447206e-001 -1.46340907e-001 3.83456722e-002 9.67652351e-002
      -1.29565641e-001 2.18266502e-001 4.13523138e-001 1.71552692e-002
      -1.83635175e-001 -8.82274508e-002 -5.66895604e-002 2.16052067e-002
      -1.96456276e-002 9.53615010e-002 -2.14477718e-001 -2.84690019e-002
      1.77569449e-001 -6.13923855e-002 -3.35653007e-001 -5.84777407e-002
      4.64420497e-001 3.22874457e-001 1.92724988e-002 -3.20215881e-001
      -2.33995229e-001 -3.52024704e-001 -5.09024709e-002
      -5.39416745e-002 4.72306721e-002 3.36100757e-001 3.38845998e-001
      1.06001087e-001 1.83946311e-001 8.87108147e-002 -1.97388530e-001
      -2.26945654e-002 1.46041438e-001 2.16225803e-001 1.03152670e-001
      -3.95619497e-003 2.32621968e-001 2.62020659e-002 -1.67358056e-001
      -7.71498978e-002 -9.41074193e-002 8.82236212e-002 1.99717492e-001
      1.21526748e-001 2.16501616e-002 2.95544446e-001 -4.35177267e-001
      -4.40143824e-001 -3.59091043e-001 -2.13353373e-002 1.20271139e-001
      2.80690759e-001 3.59042585e-001 6.08722746e-001 1.05286296e-002
      -1.75615162e-001 -3.95254493e-001 -3.05214226e-001
      -1.49015576e-001 7.64926076e-002 3.07937175e-001 2.38127038e-001
      5.44564605e-001 1.86638281e-001 -1.60192668e-001 -3.76192391e-001
      -6.06051870e-002 -6.91691712e-002 5.14618978e-002 3.72628146e-003
      1.18875809e-001 3.24142337e-001 1.79133475e-001 -5.25048792e-001
      -5.68147600e-001 -4.86464016e-002 -5.38398810e-002 3.70221622e-002
      5.21460399e-002 4.59529728e-001 5.90693712e-001 -9.00675058e-002
      -1.55325517e-001 -2.16679156e-001 -1.45494327e-001
      -4.31416668e-002 8.74332264e-002 7.53717199e-002 9.57228690e-002
      3.08355838e-001 9.48803201e-002 -2.05947176e-001 -4.64478089e-003
      2.21780539e-001 9.69782248e-002 1.93403199e-001 9.28487554e-002
      1.75797418e-001 3.63653004e-001 -1.75713167e-001</_>
    <_>
      -2.32114866e-002 2.58726120e-001 4.42616314e-001 -6.86055645e-002
      6.27374351e-002 1.55354217e-001 4.78368923e-002 -1.00028537e-001
      -4.37686801e-001 1.37465969e-001 2.31293961e-001 4.69000757e-001
      1.35739580e-001 5.01588762e-001 2.51295835e-001 -2.64705479e-001
      -1.37920856e+000 -9.64122891e-001 -1.04071528e-001 2.04461902e-001
      3.44436288e-001 9.05531347e-002 1.53637841e-001 3.84188831e-001
      1.25370234e-001 -1.85238466e-001 -4.69817333e-002 -7.87379265e-001
      -7.74660170e-001 -3.74232352e-001 3.42208147e-001 7.56656706e-001
      1.12953317e+000 4.75636303e-001 1.08159229e-001 -7.74259388e-001
      3.60308498e-001 3.16404670e-001 -6.22480661e-002 6.68371171e-002
      1.32930651e-001 2.54720479e-001 3.66481729e-002 -1.11628592e+000
      -3.28850657e-001 2.20079958e-001 -3.97613049e-001 -8.98246288e-001
      -6.42387390e-001 -4.29815114e-001 9.31512639e-002 2.75329649e-001
      4.36118305e-001 4.74198639e-001 -1.25807548e+000 -1.29275310e+000
      -5.90033591e-001 -3.82485203e-002 1.10782541e-001 6.07040644e-001
      1.11723113e+000 7.39290059e-001 -5.83909452e-001 1.06210746e-001
      -1.83481023e-001 -4.26339209e-001 -6.44174278e-001
      -5.40775180e-001 -6.63466081e-002 -5.69893643e-002 2.27245107e-001
      4.81206954e-001 -2.27941290e-001 -4.02376354e-001 -5.92915595e-001
      -3.83604944e-001 -1.76256567e-001 -1.80144310e-001
      -6.13443330e-002 1.03730291e-001 3.88404518e-001 3.14670652e-002
      1.79896839e-002 1.11548565e-002 -2.74085253e-001 1.65651869e-002
      -5.21304309e-001 -1.36069492e-001 1.84619322e-001 1.21696785e-001
      2.99138695e-001 -1.47623152e-001 -4.43714231e-001 -3.48643959e-001
      -1.87661464e-003 -4.13202457e-002 -2.79141545e-001
      -1.06605612e-001 2.84818053e-001 1.99417174e-001 -3.05177510e-001
      -2.55530119e-001 -2.11904675e-001 5.53254262e-002 -4.88010943e-002
      -6.81838840e-002 2.87543327e-001 3.74385715e-001</_>
    <_>
      1.80288479e-001 1.73254341e-001 -4.41815332e-002 -1.37310848e-001
      -8.92939493e-002 1.85825899e-001 -9.89811271e-002 1.49844661e-002
      -3.52886245e-002 -1.10298917e-001 3.63695547e-002 1.69320673e-001
      8.62951670e-003 3.89530927e-001 4.67839181e-001 1.50347844e-001
      -4.00733203e-001 -4.72997546e-001 1.60253078e-001 1.21230647e-001
      6.12233914e-002 1.68291152e-001 1.36846468e-001 2.85342127e-001
      -4.64335606e-002 -2.73270369e-001 9.73835140e-002 -3.70138288e-001
      -5.07007949e-002 1.97073504e-001 2.91151106e-001 5.24008512e-001
      9.35476840e-001 1.96500614e-001 -2.42895126e-001 -6.81904078e-001
      1.23355389e-001 3.80424410e-001 2.80708671e-001 2.33174354e-001
      3.25266868e-001 3.14828873e-001 1.76708668e-001 -7.71970868e-001
      -5.53607345e-001 6.38004243e-001 5.67901254e-001 2.03231961e-001
      -2.08295196e-001 -1.53893128e-001 -2.30894089e-001
      -6.28543139e-001 -4.43667024e-001 1.46495089e-001 -4.63297606e-001
      -3.27633858e-001 -1.35616278e-002 1.44600227e-001 3.40474933e-001
      4.96733189e-001 6.53022766e-001 2.92976588e-001 -4.82774019e-001
      2.74286449e-001 -2.64010370e-001 -3.62612337e-001 -5.01312256e-001
      -4.99362797e-001 -2.68442154e-001 2.32665882e-001 7.20856726e-001
      4.22180921e-001 1.43545091e-001 -1.36807943e-002 -1.26598269e-001
      -3.79309148e-001 -3.27095836e-001 -2.93305337e-001
      -3.79216135e-001 6.78685382e-002 7.17082798e-001 -1.86663762e-001
      -4.02291834e-001 -1.33545280e-001 -1.85734078e-001
      -9.03651863e-002 4.25623432e-002 1.97727922e-002 5.19342795e-002
      1.28779104e-002 4.86686498e-001 -1.95667252e-001 -9.63438824e-002
      -5.00527799e-001 -2.68158138e-001 -1.42649874e-001
      -5.10292649e-002 3.47569674e-001 4.66147631e-001 -2.89216310e-001
      -8.55391026e-002 -3.08094337e-003 -2.25430176e-001 9.57193673e-002
      1.56686485e-001 -2.31104344e-002 9.13051516e-003 1.38520012e-002</_>
    <_>
      -3.16147064e-003 -3.84009212e-001 -4.31390196e-001 4.88119684e-002
      5.96900105e-001 1.48919627e-001 -1.61653832e-001 -1.70928031e-001
      -1.78382900e-002 -1.61456063e-001 -3.89588594e-001 8.26832186e-003
      3.09694290e-001 4.03158695e-001 1.76876307e-001 -2.66485631e-001
      -3.66452008e-001 -4.01713401e-001 2.69702196e-001 1.64427996e-001
      -1.20441936e-001 5.31604216e-002 5.23518682e-001 1.85272634e-001
      -5.31606138e-001 -4.85301435e-001 -1.04103759e-001 2.12941766e-001
      1.70080259e-001 3.24757546e-001 3.43569070e-001 3.30836236e-001
      2.09694281e-001 -3.04107726e-001 -2.73906350e-001 -2.54515588e-001
      -4.79441360e-002 -1.30915549e-002 1.66913226e-001 6.45883679e-002
      -3.29308212e-002 -1.64410099e-001 -2.66178757e-001
      -3.60171139e-001 -3.72686118e-001 1.23013750e-001 -6.35196120e-002
      -8.81971717e-002 -1.37124017e-001 -1.62419885e-001
      -2.22620368e-001 -1.67539835e-001 -1.68383226e-001
      -4.66229990e-002 1.62685335e-001 1.66785985e-001 4.07095224e-001
      1.82592079e-001 -1.25846073e-001 -1.81750372e-001 -2.91299343e-001
      -2.88321257e-001 -2.39144295e-001 2.46356457e-001 3.27378541e-001
      3.77909243e-001 -1.43781807e-002 -3.64656776e-001 -2.80694902e-001
      -2.77205855e-001 -4.56480116e-001 -2.56295167e-002 2.87016779e-001
      1.46497339e-001 -3.61155532e-002 -5.61292395e-002 -1.06240138e-001
      -7.46551156e-002 -2.05135852e-001 -3.97855878e-001
      -4.44016568e-002 4.79575634e-001 4.25785571e-001 -2.03238167e-002
      -1.13837488e-001 -9.59034711e-002 -3.05964142e-001
      -4.94115502e-001 -4.76414859e-001 1.39633581e-001 2.28415981e-001
      1.59499437e-001 7.57580325e-002 -7.60352015e-002 -1.70356810e-001
      -9.33584571e-002 -2.13409066e-001 -4.17379498e-001 1.82531048e-002
      3.23537886e-001 -3.92587744e-002 -3.35851818e-001 -2.75218189e-001
      -1.87237009e-001 -1.60740778e-001 -1.51435733e-001
      -1.49352893e-001 3.19251716e-001</_>
    <_>
      -2.05868334e-002 -2.92692184e-001 -2.96885729e-001 1.05766073e-001
      3.22360814e-001 1.38528436e-001 -1.99106961e-001 -1.77861691e-001
      2.57634744e-002 -1.44709945e-001 -1.99840859e-001 1.22369796e-001
      2.30851069e-001 3.09129745e-001 1.54206917e-001 -1.09785527e-001
      -2.63224006e-001 -2.38062128e-001 2.66463727e-001 1.08563967e-001
      -1.95410810e-002 1.03595451e-001 3.24784160e-001 1.39805347e-001
      -3.69796425e-001 -3.66796911e-001 -5.07344529e-002 8.27632919e-002
      2.68026859e-001 3.65031064e-001 3.23300064e-001 2.78087139e-001
      1.36004075e-001 -1.73041180e-001 -3.46596390e-001 -1.93019226e-001
      -7.05810338e-002 1.45131141e-001 1.80723682e-001 1.38722315e-001
      6.35341480e-002 -7.29506984e-002 -6.03433251e-002 -2.58508801e-001
      -2.83469260e-001 2.06074938e-001 3.66877109e-001 2.75560487e-002
      -1.09975077e-002 -1.23860642e-001 -2.26594716e-001
      -3.70728701e-001 -3.67329657e-001 -1.34928420e-001 2.53683347e-002
      1.72911525e-001 3.68618608e-001 2.49581426e-001 1.10720575e-001
      -1.01619516e-003 1.16302492e-002 -1.88671231e-001 -2.20882431e-001
      8.15095827e-002 1.71362758e-001 2.17503518e-001 4.13550325e-002
      -1.61161199e-001 -1.22855991e-001 -4.05065194e-002
      -9.65503752e-002 -8.18697736e-002 2.69737631e-001 3.28252703e-001
      -9.97848138e-002 -1.08268678e-001 -2.14474335e-001
      -1.18281953e-001 -3.74731481e-001 -3.02157611e-001 1.42634958e-001
      3.32153648e-001 1.76726907e-001 -1.55263931e-001 -8.70752409e-002
      -1.81586951e-001 -1.42191574e-001 -3.84282112e-001
      -2.63930202e-001 2.43280351e-001 1.75031096e-001 5.94136007e-002
      -5.01272529e-002 -7.33401105e-002 -1.36978015e-001
      -1.17572509e-001 -1.25838697e-001 -3.75209153e-002 9.90368649e-002
      1.78765491e-001 -5.15445173e-002 -1.74739882e-001 -1.61662623e-001
      -1.10304475e-001 -7.62834102e-002 -1.27475128e-001
      -9.88350287e-002 2.92866826e-001</_>
    <_>
      -1.57476708e-001 -4.52346265e-001 -3.17556381e-001 2.25262925e-001
      1.31076694e-001 3.20525497e-001 -5.80380335e-002 -8.50626528e-002
      3.20592448e-002 -2.40725681e-001 1.26888910e-002 4.06406581e-001
      5.03522635e-001 5.30157149e-001 6.41291082e-001 2.27705464e-001
      1.17391735e-001 -5.98203763e-002 -4.64363210e-002 -2.16933459e-001
      -1.86396971e-001 1.28999978e-001 4.52551283e-002 1.23169951e-001
      -1.87775791e-001 -2.30136126e-001 -1.08328536e-001
      -9.54641327e-002 7.35811830e-001 8.39635193e-001 5.16217887e-001
      3.71181518e-001 5.20630479e-001 -9.85236317e-002 -4.66988325e-001
      -2.93779820e-001 -5.70075586e-002 4.00432885e-001 5.75072050e-001
      6.25929177e-001 5.68714440e-001 2.11406335e-001 -2.16676950e-001
      -5.50560713e-001 -4.72387105e-001 8.33834767e-001 1.39734721e+000
      9.07077730e-001 1.99475229e-001 -1.60834938e-001 -3.48334402e-001
      -1.02641070e+000 -8.57645214e-001 9.94668901e-002 -1.02455139e-001
      3.09737325e-001 5.68299890e-001 4.01000112e-001 5.01306415e-001
      2.65923768e-001 4.78244692e-001 8.97039548e-002 -3.19091856e-001
      -1.92547038e-001 -6.93681955e-001 -2.91526139e-001
      -1.16471894e-001 -3.06995034e-001 2.81758029e-002 6.89658105e-001
      1.28119075e+000 1.06564239e-001 7.66034484e-001 6.34550631e-001
      -2.95246933e-002 -3.60655665e-001 -5.68711877e-001
      -2.38164186e-001 -8.52070808e-001 -1.46679997e-001 6.20934546e-001
      1.69485852e-001 -3.63798320e-001 -3.39951634e-001 3.56081873e-003
      -3.12915117e-001 1.40298143e-001 -8.44492242e-002 -7.14108497e-002
      1.83787808e-001 2.92017937e-001 -2.79796928e-001 -3.14920694e-001
      -2.73684919e-001 -4.59446430e-001 -1.64416626e-001 3.75122465e-002
      1.12881446e+000 9.01800811e-001 6.75808117e-002 1.48112908e-001
      -1.45141006e-001 -1.31431609e-001 -2.88795203e-001
      -1.49897769e-001 -1.44194677e-001 -2.60715216e-001 2.80601114e-001</_></support_vectors>
  <decision_functions>
    <_>
      <sv_count>1</sv_count>
      <rho>1.6629083836969389e-002</rho>
      <alpha>
        1.</alpha>
      <index>
        0</index></_>
    <_>
      <sv_count>1</sv_count>
      <rho>-1.1775629386066102e-003</rho>
      <alpha>
        1.</alpha>
      <index>
        1</index></_>
    <_>
      <sv_count>1</sv_count>
      <rho>-2.3483484519014322e-001</rho>
      <alpha>
        1.</alpha>
      <index>
        2</index></_>
    <_>
      <sv_count>1</sv_count>
      <rho>-7.8914611605913246e-002</rho>
      <alpha>
        1.</alpha>
      <index>
        3</index></_>
    <_>
      <sv_count>1</sv_count>
      <rho>-3.0952814047384780e-001</rho>
      <alpha>
        1.</alpha>
      <index>
        4</index></_>
    <_>
      <sv_count>1</sv_count>
      <rho>1.4449322792668060e-001</rho>
      <alpha>
        1.</alpha>
      <index>
        5</index></_>
    <_>
      <sv_count>1</sv_count>
      <rho>5.7950925445204457e-002</rho>
      <alpha>
        1.</alpha>
      <index>
        6</index></_>
    <_>
      <sv_count>1</sv_count>
      <rho>-2.4327707145368413e-001</rho>
      <alpha>
        1.</alpha>
      <index>
        7</index></_>
    <_>
      <sv_count>1</sv_count>
      <rho>1.8263611152722153e-001</rho>
      <alpha>
        1.</alpha>
      <index>
        8</index></_>
    <_>
      <sv_count>1</sv_count>
      <rho>-1.2760184150509193e-001</rho>
      <alpha>
        1.</alpha>
      <index>
        9</index></_>
    <_>
      <sv_count>1</sv_count>
      <rho>-1.2309907118695669e-001</rho>
      <alpha>
        1.</alpha>
      <index>
        10</index></_>
    <_>
      <sv_count>1</sv_count>
      <rho>-1.7684019827431712e-002</rho>
      <alpha>
        1.</alpha>
      <index>
        11</index></_>
    <_>
      <sv_count>1</sv_count>
      <rho>-1.2849554324974691e-001</rho>
      <alpha>
        1.</alpha>
      <index>
        12</index></_>
    <_>
      <sv_count>1</sv_count>
      <rho>9.3085017160070130e-002</rho>
      <alpha>
        1.</alpha>
      <index>
        13</index></_>
    <_>
      <sv_count>1</sv_count>
      <rho>-1.1083881669076971e-001</rho>
      <alpha>
        1.</alpha>
      <index>
        14</index></_>
    <_>
      <sv_count>1</sv_count>
      <rho>-1.9837416410896763e-001</rho>
      <alpha>
        1.</alpha>
      <index>
        15</index></_>
    <_>
      <sv_count>1</sv_count>
      <rho>1.2713299905764730e-001</rho>
      <alpha>
        1.</alpha>
      <index>
        16</index></_>
    <_>
      <sv_count>1</sv_count>
      <rho>-8.4365348307483171e-002</rho>
      <alpha>
        1.</alpha>
      <index>
        17</index></_>
    <_>
      <sv_count>1</sv_count>
      <rho>-3.0711293981762630e-002</rho>
      <alpha>
        1.</alpha>
      <index>
        18</index></_>
    <_>
      <sv_count>1</sv_count>
      <rho>-1.3868051642928893e-003</rho>
      <alpha>
        1.</alpha>
      <index>
        19</index></_>
    <_>
      <sv_count>1</sv_count>
      <rho>1.6796947419211020e-001</rho>
      <alpha>
        1.</alpha>
      <index>
        20</index></_>
    <_>
      <sv_count>1</sv_count>
      <rho>-3.3704709460430970e-001</rho>
      <alpha>
        1.</alpha>
      <index>
        21</index></_>
    <_>
      <sv_count>1</sv_count>
      <rho>1.4857370083363183e-002</rho>
      <alpha>
        1.</alpha>
      <index>
        22</index></_>
    <_>
      <sv_count>1</sv_count>
      <rho>-5.7609442439068598e-002</rho>
      <alpha>
        1.</alpha>
      <index>
        23</index></_>
    <_>
      <sv_count>1</sv_count>
      <rho>1.9331979545312067e-001</rho>
      <alpha>
        1.</alpha>
      <index>
        24</index></_>
    <_>
      <sv_count>1</sv_count>
      <rho>-4.3744905238135862e-001</rho>
      <alpha>
        1.</alpha>
      <index>
        25</index></_>
    <_>
      <sv_count>1</sv_count>
      <rho>-4.2953132050661769e-001</rho>
      <alpha>
        1.</alpha>
      <index>
        26</index></_>
    <_>
      <sv_count>1</sv_count>
      <rho>-1.4977695406894288e-002</rho>
      <alpha>
        1.</alpha>
      <index>
        27</index></_>
    <_>
      <sv_count>1</sv_count>
      <rho>-5.5714454959323101e-001</rho>
      <alpha>
        1.</alpha>
      <index>
        28</index></_>
    <_>
      <sv_count>1</sv_count>
      <rho>2.1190255438027897e-001</rho>
      <alpha>
        1.</alpha>
      <index>
        29</index></_>
    <_>
      <sv_count>1</sv_count>
      <rho>-4.1282883542475285e-001</rho>
      <alpha>
        1.</alpha>
      <index>
        30</index></_>
    <_>
      <sv_count>1</sv_count>
      <rho>-2.6857751247411793e-001</rho>
      <alpha>
        1.</alpha>
      <index>
        31</index></_>
    <_>
      <sv_count>1</sv_count>
      <rho>-1.8721251710799758e-001</rho>
      <alpha>
        1.</alpha>
      <index>
        32</index></_>
    <_>
      <sv_count>1</sv_count>
      <rho>-1.3526938653477202e-001</rho>
      <alpha>
        1.</alpha>
      <index>
        33</index></_>
    <_>
      <sv_count>1</sv_count>
      <rho>-3.7226592015048972e-002</rho>
      <alpha>
        1.</alpha>
      <index>
        34</index></_>
    <_>
      <sv_count>1</sv_count>
      <rho>6.6162781140398441e-001</rho>
      <alpha>
        1.</alpha>
      <index>
        35</index></_>
    <_>
      <sv_count>1</sv_count>
      <rho>-1.8915664604920737e-001</rho>
      <alpha>
        1.</alpha>
      <index>
        36</index></_>
    <_>
      <sv_count>1</sv_count>
      <rho>1.0091813116226010e-001</rho>
      <alpha>
        1.</alpha>
      <index>
        37</index></_>
    <_>
      <sv_count>1</sv_count>
      <rho>5.0860907790823340e-001</rho>
      <alpha>
        1.</alpha>
      <index>
        38</index></_>
    <_>
      <sv_count>1</sv_count>
      <rho>4.7042231827129390e-002</rho>
      <alpha>
        1.</alpha>
      <index>
        39</index></_>
    <_>
      <sv_count>1</sv_count>
      <rho>-3.8179570382666567e-001</rho>
      <alpha>
        1.</alpha>
      <index>
        40</index></_>
    <_>
      <sv_count>1</sv_count>
      <rho>1.0797822059766313e-001</rho>
      <alpha>
        1.</alpha>
      <index>
        41</index></_>
    <_>
      <sv_count>1</sv_count>
      <rho>-6.2200487657815863e-003</rho>
      <alpha>
        1.</alpha>
      <index>
        42</index></_>
    <_>
      <sv_count>1</sv_count>
      <rho>4.6802872957513432e-002</rho>
      <alpha>
        1.</alpha>
      <index>
        43</index></_>
    <_>
      <sv_count>1</sv_count>
      <rho>3.9113991365862860e-001</rho>
      <alpha>
        1.</alpha>
      <index>
        44</index></_></decision_functions></my_svm>
</opencv_storage>
