<?xml version="1.0"?>
<opencv_storage>
<my_svm type_id="opencv-ml-svm">
  <svm_type>C_SVC</svm_type>
  <kernel><type>LINEAR</type></kernel>
  <C>1.</C>
  <term_criteria><epsilon>9.9999999747524271e-007</epsilon>
    <iterations>1000000</iterations></term_criteria>
  <var_all>108</var_all>
  <var_count>108</var_count>
  <class_count>10</class_count>
  <class_labels type_id="opencv-matrix">
    <rows>1</rows>
    <cols>10</cols>
    <dt>i</dt>
    <data>
      0 1 2 3 4 5 6 7 8 9</data></class_labels>
  <sv_total>45</sv_total>
  <support_vectors>
    <_>
      -3.83786857e-002 9.63129178e-002 -1.16596147e-001 6.86163455e-002
      6.61612079e-002 1.60176344e-002 1.00984178e-001 8.41111541e-002
      -9.45151299e-002 1.15109161e-001 -5.94003685e-002 -2.96538502e-001
      4.53062579e-002 -1.60083786e-001 -1.27317816e-001 5.91847375e-002
      1.65067136e-001 3.80138129e-001 -4.53499258e-001 -3.14966381e-001
      -2.04699561e-001 4.56929132e-002 -2.87721194e-002 1.95179433e-002
      6.21714722e-003 3.58244509e-001 2.81127798e-003 2.45607924e-002
      -3.99773806e-001 -2.56559789e-001 7.15645924e-002 -1.13435574e-001
      -9.74105820e-002 1.05084248e-001 4.76504117e-001 2.45607924e-002
      2.01120436e-001 -2.24776745e-001 -2.27154508e-001 -1.71897616e-002
      -2.63281435e-001 -1.84821323e-001 -1.56669114e-002 3.71977277e-002
      3.39112192e-001 -1.63299926e-002 -6.93412498e-002 -1.15580916e-001
      -2.44552344e-002 -2.34374240e-001 -5.27433604e-002 3.48384343e-002
      6.83966130e-002 -2.33535990e-002 -2.54562683e-002 -6.35133758e-002
      -6.60762340e-002 6.56544603e-003 -1.44162387e-001 -1.38532892e-001
      1.23689827e-002 9.68800336e-002 -2.54562683e-002 -2.54562683e-002
      2.19621524e-001 3.07094655e-003 -9.36365779e-003 -4.30555195e-002
      -3.36450748e-002 4.10850607e-002 1.37995826e-002 -2.54562683e-002
      -2.45103851e-001 1.85563624e-001 7.76491538e-002 1.04485499e-002
      -1.42536843e-002 1.93377003e-001 2.33068362e-001 3.75160813e-001
      -8.79078656e-002 -5.79996347e-001 1.31877825e-001 1.32276043e-001
      1.06283061e-001 2.82977909e-001 3.11516970e-001 3.45813692e-001
      4.45623249e-001 -4.36018854e-001 -9.38877389e-002 6.39300108e-001
      1.65182665e-001 2.88655851e-002 6.92521557e-002 1.42818794e-001
      1.11576594e-001 3.31702344e-002 -2.11026952e-001 -1.02807008e-001
      2.51004130e-001 1.97459668e-001 7.22092018e-002 1.94818303e-001
      2.55442470e-001 7.10935444e-002 1.29935846e-001 -3.33241552e-001</_>
    <_>
      5.19575030e-002 1.16349220e-001 1.63673814e-002 -1.73696112e-002
      -2.01680288e-002 -5.47182560e-002 3.58006246e-002 9.51854959e-002
      5.34707028e-003 3.79668325e-002 4.34920453e-002 -2.53587872e-001
      -6.37057722e-002 -4.26020734e-002 -1.36881813e-001
      -1.12035856e-001 4.33641523e-002 1.77617952e-001 4.58179228e-002
      2.52000596e-002 6.80002710e-003 -4.32056487e-002 -8.54473934e-002
      -1.55710101e-001 3.94062251e-002 3.46726030e-001 1.33277297e-001
      3.65833454e-002 -2.40254685e-001 -2.70307094e-001 -1.99777201e-001
      -5.28742671e-002 -2.93620825e-001 -8.63663256e-002 4.18101773e-002
      3.65833454e-002 1.51138142e-001 -2.46268883e-001 -2.82667637e-001
      -6.72612861e-002 -5.62997796e-002 -5.40252402e-002
      -7.66796768e-002 -3.41483615e-002 3.87555689e-001 2.56392300e-001
      -3.09741527e-001 -5.04755497e-001 -9.25037935e-002
      -2.36022752e-002 1.54335452e-002 3.75654586e-002 9.82811898e-002
      4.01553750e-001 4.77000065e-002 -4.26830381e-001 -3.67959082e-001
      -1.33612767e-001 -2.21276954e-002 -4.75592613e-002
      -6.89728111e-002 -6.52297353e-003 2.27172583e-001 1.96769044e-001
      -1.37991443e-001 -4.66051191e-001 -1.70386732e-001
      -9.66793522e-002 6.13616139e-004 -5.80030214e-003 5.31644225e-002
      5.03707230e-001 -2.75190137e-002 -2.54226506e-001 -3.21780831e-001
      -7.36908391e-002 8.87129363e-003 1.49481133e-001 1.79462254e-001
      3.03870589e-001 2.98638314e-001 -3.70973587e-001 -1.89328864e-001
      6.79205805e-002 1.67234074e-002 2.65301615e-002 1.01159416e-001
      2.28735641e-001 2.33634174e-001 3.51692579e-004 1.40491456e-001
      4.71468233e-002 -1.16879411e-001 -1.90486282e-001 -2.24540785e-001
      6.59456998e-002 9.12748650e-003 4.41030450e-002 5.14255874e-002
      -4.83833477e-002 1.53075665e-001 1.38444602e-001 -4.68308805e-003
      -1.86280340e-001 1.36879378e-003 -1.28344567e-002 2.34927293e-002
      -1.66258097e-001</_>
    <_>
      5.32089267e-003 6.50935471e-002 -1.13599703e-001 -6.46654367e-002
      -9.25722644e-002 -7.16129169e-002 -1.97285954e-002 1.47613704e-001
      -5.28711006e-002 1.58155590e-001 -4.93352413e-002 -4.43975061e-001
      -1.01888902e-001 -5.09219654e-002 -2.05524623e-001
      -1.24260329e-001 1.55732214e-001 2.79409200e-001 -7.89946839e-002
      3.91389355e-002 -5.48493788e-002 2.61666924e-002 -7.11278021e-002
      -1.81155995e-001 -1.83126986e-001 2.03847140e-001 1.23811796e-001
      1.44058645e-001 -6.32512391e-001 -2.79992878e-001 -3.07988636e-002
      1.76196218e-001 -2.06253186e-001 -2.22348906e-002 2.44872466e-001
      1.44058645e-001 4.22570974e-001 -4.79763031e-001 -4.48875368e-001
      -1.06663927e-001 -2.49794737e-001 -1.39169112e-001
      -2.58224756e-001 -9.87703055e-002 3.62869054e-001 4.43516403e-001
      -1.08863423e-002 -1.50473833e-001 -1.56161085e-001
      -3.87386560e-001 -1.99462578e-001 -4.81573224e-001
      -3.99155051e-001 2.48676360e-001 2.02799350e-001 -7.08898127e-001
      -2.87034422e-001 -3.85805219e-002 2.84442157e-002 -5.41721322e-002
      -1.87409878e-001 -2.16703832e-001 2.02799350e-001 2.02799350e-001
      9.20594111e-002 -2.87005361e-002 -2.17665918e-002 -1.22010638e-003
      -4.64247279e-002 -6.80618942e-001 -8.09531391e-001 2.02799350e-001
      1.31122261e-001 8.47259387e-002 -6.86765239e-002 -2.11832449e-001
      -1.13053530e-001 2.81719118e-002 -1.74051598e-001 -5.01548052e-002
      2.03049883e-001 -3.82494986e-001 1.85550489e-002 1.54006422e-001
      -1.08365126e-001 1.32833213e-001 4.88021411e-002 -1.39787450e-001
      2.91684400e-002 -2.33083516e-001 1.33698866e-001 4.00158137e-001
      1.50516018e-001 -8.95033181e-002 8.47366899e-002 9.38659012e-002
      -2.63255656e-001 -6.34803891e-001 -5.90191074e-002
      -5.96974231e-002 1.05761945e-001 1.98628575e-001 -1.21499896e-001
      9.84694660e-002 5.24389669e-002 -3.56927551e-002 -3.55611257e-002
      -1.54359668e-001</_>
    <_>
      -8.54141358e-003 -1.21690510e-002 1.25952512e-001 2.06612125e-001
      4.24585938e-002 4.17574905e-002 1.17772013e-001 1.08218975e-001
      -1.21745830e-002 1.94361225e-001 -1.06894732e-001 -3.94333124e-001
      1.31361604e-001 -1.80802867e-002 -8.17105696e-002 4.92112599e-002
      1.69065148e-001 4.48340923e-001 -4.83738154e-001 -5.80785275e-001
      -5.03204614e-002 1.00554116e-001 -6.94897026e-002 6.19377643e-002
      1.51451305e-001 4.73687530e-001 -1.04212739e-001 -5.48322685e-003
      -5.55188060e-001 -1.85196668e-001 8.14239159e-002 2.60050735e-003
      -9.91390646e-002 2.01242179e-001 5.38330317e-001 -5.48322685e-003
      2.45226324e-001 -4.81178224e-001 -4.49866354e-001 -8.23594034e-002
      -8.83581787e-002 -8.15605819e-002 -5.86967319e-002 4.33107913e-002
      4.76059496e-001 9.80563089e-002 -3.89159769e-001 -3.15518290e-001
      -5.49689755e-002 -1.97593823e-001 -1.10641748e-001
      -3.18070464e-002 7.97119290e-002 2.54600704e-001 9.80563089e-002
      -2.45038554e-001 -1.50656641e-001 -4.67733443e-002
      -8.87502655e-002 -1.32923394e-001 -1.00693099e-001 1.12209246e-001
      1.00113846e-001 9.80563089e-002 -1.82918265e-001 -1.07559673e-001
      -3.01541593e-002 -1.36788338e-001 -9.61596444e-002
      -1.82932213e-001 -3.42204362e-001 9.80563089e-002 7.42173046e-002
      -2.50875559e-002 -1.09637298e-001 -8.43639448e-002
      -3.49815309e-001 -1.07813850e-001 1.69045851e-003 1.94234237e-001
      2.24258572e-001 -3.96047495e-002 6.51149228e-002 9.55153853e-002
      1.79003738e-002 -1.16492487e-001 -1.86500289e-002 1.65719185e-002
      1.66486144e-001 1.94615014e-002 9.34791118e-002 9.52052996e-002
      5.07787466e-002 5.07255457e-003 -1.52915195e-001 5.37937135e-003
      -1.15454890e-001 -3.60617578e-001 -3.22266221e-002 1.06803723e-001
      5.18119670e-002 7.01328963e-002 1.35633558e-001 -1.21276647e-001
      4.99405083e-004 -1.85956746e-001 -2.07684457e-001 -1.98343769e-001</_>
    <_>
      -2.37240225e-001 6.65612444e-002 -7.56215677e-002 1.04710527e-001
      -3.35416317e-001 -2.16235947e-002 1.17851667e-001 1.58041939e-001
      -5.89084551e-002 7.03953728e-002 1.95575356e-001 1.47324912e-002
      1.35331109e-001 -1.76191419e-001 -1.40432760e-001 1.76339597e-002
      2.25940093e-001 1.33893445e-001 -2.40046039e-001 -2.81410869e-002
      -2.82577217e-001 -4.81460765e-002 -4.80211526e-001
      -1.28268972e-001 1.56554043e-001 4.75296974e-001 2.56984115e-001
      1.24386564e-001 -3.97708938e-002 -2.70855337e-001 -1.08998694e-001
      -4.71954167e-001 -3.14861476e-001 4.77570947e-003 2.05516294e-001
      2.70786136e-001 1.49687052e-001 -5.20127229e-002 -1.46815553e-001
      -2.03672409e-001 -7.35677853e-002 -1.41366914e-001
      -2.06205726e-001 -4.63474728e-002 3.02404821e-001 3.33962291e-001
      -1.04391932e-001 -3.03212851e-001 -3.97401363e-001
      -6.80303499e-002 -1.81851462e-001 -2.71399409e-001
      -2.43283778e-001 2.40320563e-001 4.73036140e-001 -1.13708656e-002
      -1.19007260e-001 -2.04621479e-001 -2.95475125e-001
      -3.03744376e-001 -3.59773070e-001 -2.69451499e-001 2.24988356e-001
      1.73974276e-001 7.59077296e-002 -1.80374965e-001 -1.72694013e-001
      -1.01821542e-001 -2.30248258e-001 -3.77556354e-001
      -5.31849027e-001 1.46899998e-001 1.74981549e-001 1.00188978e-001
      -1.01748884e-001 -2.04599917e-001 9.14691668e-003 4.64973934e-002
      -4.32106964e-002 -4.79678921e-002 1.83468133e-001 -1.30788982e-001
      1.00102656e-001 1.12914123e-001 7.05850823e-003 4.02329974e-002
      -4.33748923e-002 -1.91615745e-001 2.38232053e-004 -9.73933339e-002
      7.64776543e-002 1.81098908e-001 -1.65921673e-002 -1.31915987e-001
      -4.09816345e-003 5.68881445e-002 -9.03612003e-002 -3.05209816e-001
      -8.22416618e-002 3.30412202e-002 1.66221559e-001 1.34894326e-001
      -8.68878141e-002 -1.24719173e-001 4.28158157e-002 -5.41278496e-002
      -1.95760369e-001 -5.42911701e-002</_>
    <_>
      -7.92718977e-002 5.58555499e-002 -2.53967702e-001 1.61678657e-001
      -2.62831300e-002 -1.35653377e-001 1.33970305e-001 1.67064950e-001
      5.63904382e-002 1.92509919e-001 -3.48090045e-002 -2.83624589e-001
      9.12418216e-002 -7.87201896e-002 -3.09604198e-001 -1.30146384e-001
      2.65557975e-001 4.67923015e-001 -1.21378027e-001 -9.09461305e-002
      -4.22317833e-001 5.91501668e-002 -1.44494832e-001 -3.07735264e-001
      -1.00165255e-001 3.16067427e-001 1.17852397e-001 2.09517926e-001
      -4.81342286e-001 -6.75867796e-001 -2.70450294e-001
      -4.52937856e-002 -5.50703585e-001 -1.99672654e-001 3.46257657e-001
      2.79153347e-001 1.54684976e-001 -2.32147366e-001 -2.26877332e-001
      -8.22075084e-002 -9.03738141e-002 -1.95817932e-001
      -3.06729317e-001 -1.57210957e-002 3.64705622e-001 1.57354861e-001
      -6.31917417e-002 -2.62227416e-001 -5.05989455e-002
      -1.22942158e-003 -6.93644583e-002 -2.47703895e-001
      -2.34205857e-001 1.57354861e-001 7.13007569e-001 -3.81208122e-001
      -4.59471345e-001 -2.08472773e-001 -1.04328416e-001
      -3.23052913e-001 -5.75395405e-001 -6.12387061e-001 3.90742183e-001
      1.57354861e-001 5.79526648e-002 -3.03619921e-001 -7.86048993e-002
      -5.88483401e-002 -2.09298626e-001 -6.06367350e-001
      -1.03889394e+000 1.57354861e-001 1.07779726e-002 2.43984804e-001
      5.21752872e-002 -1.24743514e-001 5.04321605e-002 2.96362221e-001
      6.65636063e-002 -8.71932656e-002 3.98338661e-002 -2.37376094e-001
      1.74592480e-001 2.87825972e-001 -6.77589187e-003 1.42875269e-001
      1.35621503e-001 -2.33696595e-001 -8.42277035e-002 -1.49866641e-001
      6.62479848e-002 2.84829170e-001 1.75117135e-001 -2.11155385e-001
      1.75248180e-002 1.84929222e-001 -6.70830533e-002 -4.15936172e-001
      -1.83234900e-001 -9.17505473e-002 1.43339515e-001 2.39580765e-001
      -9.75280479e-002 -5.01442403e-002 8.09822455e-002 -1.67672873e-001
      -9.73564759e-002 -8.90950635e-002</_>
    <_>
      1.05457313e-001 3.36600870e-001 1.26975536e-001 -7.84166232e-002
      -3.30301255e-001 -1.93651214e-001 7.24010095e-002 4.22299467e-003
      -5.23912981e-002 1.54611498e-001 -8.96457955e-002 -8.45451746e-003
      -2.82242596e-002 -3.22983950e-001 -2.68628210e-001 6.02049939e-002
      -3.11072469e-002 1.45352781e-001 -2.42599562e-001 -1.11690581e-001
      6.17003925e-002 1.37017965e-002 -2.92969584e-001 -9.21673179e-002
      6.55729920e-002 3.03957194e-001 1.83824524e-001 2.26751883e-002
      -3.55576307e-001 -1.55410394e-001 3.91503051e-002 -6.90419152e-002
      -7.97760785e-002 2.19952241e-001 2.97995001e-001 1.47186384e-001
      1.25612319e-001 -4.04044837e-001 -6.68661743e-002 -2.42012516e-002
      -6.82623386e-002 -5.07422686e-002 4.05683182e-003 1.00236069e-002
      3.57317477e-001 -1.97823923e-002 -3.00599575e-001 -8.67159385e-003
      -5.18562691e-003 1.27043237e-003 1.88830085e-002 3.23334709e-002
      5.65626509e-002 4.04460073e-001 -1.43791288e-002 -4.47169125e-001
      -1.51887596e-001 -3.04178596e-002 -2.86666844e-002
      -5.79657219e-002 2.19530016e-002 1.24788553e-001 3.84291917e-001
      -1.97823923e-002 -2.29713738e-001 -9.37113464e-002
      -3.60257439e-002 -2.69268584e-002 -3.80299166e-002 1.56144397e-002
      1.44590950e-002 3.52812171e-001 -1.50643796e-001 -1.62642077e-001
      3.76341380e-002 1.07547231e-002 4.60229665e-002 1.37819201e-001
      1.42284498e-001 2.16792107e-001 1.59113660e-001 -4.53674704e-001
      -9.96272042e-002 3.68129276e-002 2.20872853e-002 1.23353779e-001
      2.38016415e-002 8.97261053e-002 1.64494067e-001 -1.51034325e-001
      -5.77211604e-002 9.89222229e-002 -5.63802291e-003 -2.77650934e-002
      3.29957838e-004 7.28855878e-002 6.75638318e-002 -1.74471829e-003
      1.11976460e-001 -8.11401010e-002 1.43414542e-001 1.12575829e-001
      9.91841257e-002 3.18395682e-002 6.79357871e-002 -8.85381084e-003
      -6.44390434e-002 -6.94507435e-002</_>
    <_>
      -1.41081095e-001 2.37296805e-001 -9.63608250e-002 -2.25446120e-001
      -1.50052294e-001 -3.42447869e-002 1.84081569e-002 1.18223585e-001
      -1.07920937e-001 2.01238319e-001 2.26339728e-001 3.11462861e-002
      -1.11443549e-001 -6.61529601e-002 -5.45564413e-001
      -1.20615527e-001 -1.12725906e-001 9.77282897e-002 -1.88090935e-001
      8.01781714e-002 -1.04806542e-001 -1.43268658e-002 -6.39189109e-002
      -1.47546872e-001 -3.42397928e-001 2.23998562e-001 7.91393444e-002
      2.01238319e-001 -6.71673834e-001 -1.86718911e-001 -1.60742402e-001
      8.73923376e-002 -4.75414187e-001 -2.10740954e-001 4.90315586e-001
      2.01238319e-001 6.20638430e-001 -2.85599351e-001 -2.64686614e-001
      -3.27001959e-001 -2.20741630e-001 -5.09456277e-001
      -3.45890075e-001 -4.52978581e-001 3.45623106e-001 3.00537109e-001
      -8.99671555e-001 -5.41214466e-001 -6.74264610e-001
      -1.14203133e-001 -2.09186852e-001 -3.38857800e-001
      -1.74322501e-001 3.46375018e-001 3.00537109e-001 -5.51557541e-001
      -4.33268785e-001 -3.30070466e-001 -1.08905271e-001
      -4.19890374e-001 -3.72134328e-001 -1.08029559e-001 3.00537109e-001
      3.00537109e-001 3.22693199e-001 -3.40295762e-001 -5.14746130e-001
      -6.01316057e-002 -3.13940614e-001 -6.67510688e-001
      -1.28670394e+000 3.00537109e-001 -1.95887342e-001 -2.28572577e-001
      -1.45264581e-001 -1.66702583e-001 8.63329396e-002 7.52726793e-002
      1.48598418e-001 4.06647921e-001 1.12260595e-001 -4.89292830e-001
      9.59042013e-002 1.95088431e-001 6.83176965e-002 3.45356390e-002
      -1.93333596e-001 1.79372653e-001 1.09598443e-001 -3.78592312e-001
      1.71091825e-001 3.84504408e-001 1.14425942e-001 -1.23264231e-001
      1.10832609e-001 1.03461463e-002 -1.26048297e-001 -6.73785627e-001
      -1.35837197e-001 -1.15469158e-001 2.36403905e-002 -9.58571136e-002
      -8.79002064e-002 7.05543011e-002 1.45279448e-002 1.72306195e-001
      1.15897879e-001 -2.84299195e-001</_>
    <_>
      1.21927716e-001 6.91112041e-001 -5.53035289e-002 -6.63870871e-002
      -1.85938194e-001 -3.54130901e-002 -9.40540060e-002 2.19241887e-001
      3.18128541e-002 8.96945074e-002 2.18713973e-002 -2.20628574e-001
      -1.60949543e-001 -1.15548983e-001 -3.56690198e-001
      -2.48344228e-001 1.69691164e-002 2.63456325e-003 4.03289273e-002
      1.24002703e-001 2.50062570e-002 1.28148824e-001 -1.89838678e-001
      -2.29093924e-001 -1.48346886e-001 4.65460837e-001 3.73055041e-001
      8.96945074e-002 -2.14806288e-001 -3.68445553e-002 -4.96785380e-002
      -7.17361197e-002 -6.63175523e-001 -7.23107159e-001 8.96945074e-002
      8.96945074e-002 1.77323416e-001 -3.70961010e-001 -9.99627635e-002
      -9.07258540e-002 -5.29784746e-002 -2.48679593e-001
      -3.23132485e-001 -5.99952340e-001 1.03930891e-001 8.71830583e-001
      -3.19078341e-002 -2.85210490e-001 -3.77628803e-001
      -2.83760160e-001 -7.20893145e-001 -8.69379044e-001
      -8.97232294e-001 2.98894405e-001 1.84950545e-001 -4.73483264e-001
      -8.88290331e-002 -9.45297852e-002 2.63493359e-002 -2.16154039e-001
      -3.31015617e-001 -4.04307514e-001 1.84950545e-001 1.84950545e-001
      1.26687899e-001 -2.07030952e-001 -3.64635229e-001 -8.46356750e-002
      -4.87769753e-001 -2.79142410e-001 -2.70998776e-001 1.84950545e-001
      4.91225451e-001 1.06244937e-001 -4.27637815e-001 -4.87375408e-001
      -2.76420236e-001 -2.28304446e-001 -1.98647723e-001 5.23260385e-002
      3.99823397e-001 -5.71169019e-001 -1.30498558e-001 -4.98726778e-002
      -2.89555967e-001 4.16172557e-002 -3.42419222e-002 3.44034135e-001
      1.73869401e-001 -5.43922007e-001 2.30288699e-001 3.80344719e-001
      9.34868772e-003 -3.10368747e-001 -7.04738796e-002 -1.78823918e-001
      -5.59589602e-002 -4.01845366e-001 -1.07345149e-001
      -1.86190486e-001 2.11270019e-001 1.82713643e-002 -1.60163403e-001
      -4.69124690e-002 5.05769588e-002 -3.02651408e-003 -2.70279914e-001
      -2.21205682e-001</_>
    <_>
      -2.46652476e-002 5.63007146e-002 6.47152215e-002 -2.98305824e-002
      4.85788807e-002 -4.18587439e-002 -7.79573098e-002 9.05867107e-003
      1.67625528e-002 -9.11800340e-002 3.57680172e-002 3.85333747e-002
      -6.17311820e-002 -2.03170329e-002 -1.69085599e-002
      -8.99903849e-002 -4.24199738e-002 -8.83996040e-002 2.88138270e-001
      2.96092480e-001 1.51712567e-001 -2.09692549e-002 -9.36843082e-003
      -1.44238621e-001 -1.06903180e-001 -9.94573459e-002 1.03463016e-001
      9.82831512e-003 1.19068110e-002 5.16385809e-002 -1.44091725e-001
      -3.85161228e-002 -1.52061790e-001 -1.82538733e-001
      -2.41942331e-001 1.14468383e-002 2.60477643e-002 -6.72230050e-002
      -3.66578624e-002 -6.45059301e-003 -1.20607270e-002 9.09501240e-002
      3.57498042e-002 4.99754436e-002 8.90874192e-002 2.45084703e-001
      -3.35138708e-001 -2.34978423e-001 1.64987962e-003 1.17081948e-001
      8.80105570e-002 7.13718534e-002 9.57909897e-002 3.34768414e-001
      3.83607112e-002 -3.05907696e-001 -2.27364451e-001 -1.32556800e-002
      5.48326187e-002 9.85205472e-002 -1.93302613e-002 -4.00310308e-002
      2.08577782e-001 1.66728601e-001 -3.93937945e-001 -3.85698974e-001
      -9.72036272e-003 -1.40259955e-002 5.06943278e-002 -7.88408332e-003
      2.30241511e-002 4.19316113e-001 1.20622605e-001 -4.15247709e-001
      -2.87456781e-001 -3.77775691e-002 4.93434668e-002 5.15589165e-003
      -1.28125567e-002 1.32730380e-002 3.23139340e-001 3.46111618e-002
      -3.58265370e-001 -1.73085287e-001 -8.81739259e-002
      -1.46102682e-001 -7.64736906e-002 -2.38219053e-002
      -3.21527719e-002 2.91171044e-001 1.91380978e-001 -4.30676490e-001
      -3.71206403e-001 -1.16344951e-001 -2.27943003e-001
      -5.55013940e-002 -7.12090284e-002 -2.16443930e-002 3.68342608e-001
      1.80964172e-001 -1.66672185e-001 -1.43859327e-001 -1.72189847e-001
      -2.93266982e-001 -1.06957838e-001 2.46176943e-002 5.99465668e-002
      3.24012250e-001</_>
    <_>
      5.51096760e-002 4.32215706e-002 -7.38067999e-002 -1.86322015e-002
      -5.33149869e-004 -4.41955477e-002 -1.07457317e-001 5.12969531e-002
      -2.16825735e-002 -8.86201859e-002 3.27441245e-002 1.04102619e-001
      -2.67249011e-002 1.54644102e-001 -3.68400104e-002 -1.91268474e-001
      -7.76657909e-002 -4.03638363e-001 3.75110090e-001 4.45216060e-001
      8.62876922e-002 -8.64698887e-002 5.74670210e-002 -3.46321732e-001
      -2.65510052e-001 -1.79150909e-001 2.40398258e-001 3.27441245e-002
      5.81437126e-002 1.23452842e-002 -1.24740876e-001 9.60815772e-002
      -1.99292243e-001 -3.23515326e-001 -1.34818882e-001 3.27441245e-002
      7.33807907e-002 -9.14287642e-002 4.34338935e-002 -2.85227969e-002
      6.89635277e-002 1.06263719e-001 -1.56848162e-001 -1.84535030e-002
      -1.53771684e-001 3.38759631e-001 3.20688151e-002 7.15238303e-002
      -5.82145527e-002 -7.98230544e-002 3.67221572e-002 -2.57885247e-001
      -1.02917157e-001 2.69469589e-001 1.36519298e-001 -4.18288141e-001
      -2.48218268e-001 -5.00382110e-002 1.11821778e-001 1.51323378e-001
      -1.28718391e-001 -3.55520062e-002 1.36519298e-001 1.36519298e-001
      -1.80235088e-001 -3.07156127e-002 -1.34687610e-002
      -1.54583991e-001 1.81396790e-002 -5.63692153e-001 -5.96869409e-001
      1.36519298e-001 2.70406604e-001 -1.64263532e-001 -5.92383482e-002
      -1.37583569e-001 -2.68736705e-002 -1.25044525e-001
      -3.16420346e-001 -4.12275523e-001 1.71664700e-001 2.07917914e-001
      -1.12336338e-001 -3.89600135e-002 -8.14065933e-002
      -3.27757969e-002 -3.37403983e-001 -4.21321124e-001
      -5.01970649e-001 1.86169609e-001 2.39901096e-001 -2.45859399e-001
      -9.40952674e-002 -1.07143611e-001 -1.07641183e-001
      -1.32738635e-001 -4.39090699e-001 -5.98220408e-001 2.39901096e-001
      2.39901096e-001 -2.47439399e-001 -1.68192968e-001 -3.22294086e-001
      -1.44468263e-001 -3.37697148e-001 -1.63802132e-001
      -2.47688144e-001 3.42802882e-001</_>
    <_>
      1.53653743e-002 4.10592221e-002 1.43394262e-001 2.93622855e-002
      2.02521011e-002 7.51332706e-003 1.82662532e-002 1.02015128e-002
      -1.80468708e-003 -9.78993773e-002 -5.17269820e-002
      -2.44274959e-002 -4.70926724e-002 8.31078067e-002 4.52279896e-002
      2.37014107e-002 1.66918524e-002 6.17079176e-002 -2.01247796e-001
      7.73959979e-002 9.13289934e-002 7.85935745e-002 -2.04233862e-002
      -3.20205055e-002 3.02223206e-001 2.01792791e-001 -4.56701629e-002
      -5.53993136e-002 -6.34063780e-002 8.65950133e-005 -2.57058237e-002
      -3.60433944e-002 -3.57620306e-002 1.10193297e-001 2.16617644e-001
      -5.17269820e-002 1.80412158e-001 -2.98962891e-001 -2.57989675e-001
      6.69619348e-003 1.83497414e-001 1.53756410e-001 8.76398385e-002
      1.29543126e-001 3.40307891e-001 1.77489430e-001 -6.36995018e-001
      -3.22170436e-001 1.50474794e-002 2.43056655e-001 2.79109050e-002
      -5.66618405e-002 1.13142133e-001 4.70626205e-001 1.77489430e-001
      -3.54050606e-001 -1.40976086e-001 -7.95828179e-004 1.29860714e-001
      5.14690913e-002 -2.93742493e-002 3.30527127e-002 1.78502381e-001
      1.77489430e-001 -6.88065946e-001 -3.54876876e-001 9.14581027e-003
      -7.25428909e-002 -6.01508543e-002 -2.49907583e-001
      -2.80208856e-001 1.77489430e-001 3.01092237e-001 -4.94425595e-001
      -1.97363615e-001 -7.34820068e-002 -1.91545561e-001
      -2.82546341e-001 -2.17752635e-001 -9.11478996e-002 1.92112163e-001
      3.42528790e-001 -2.57819653e-001 -1.79634169e-001 -1.31120503e-001
      -5.10062158e-001 -3.24885309e-001 -1.70379713e-001
      -1.94663480e-001 2.79767752e-001 3.37585181e-001 -8.09836507e-001
      -3.46685201e-001 -6.94889724e-002 -4.52728927e-001
      -2.71911055e-001 -3.37321252e-001 -2.79295325e-001 3.90152901e-001
      3.39007646e-001 -3.63392591e-001 1.49713224e-002 3.52957696e-002
      -3.52228016e-001 -3.78433764e-001 -2.68751711e-001
      -3.99072468e-001 3.37585181e-001</_>
    <_>
      -7.33890980e-002 9.62183904e-003 -5.66224381e-002 7.77138025e-002
      -5.54793589e-002 -1.86682846e-002 -5.00108823e-002 2.47823689e-002
      -1.87885892e-002 -1.10112883e-001 1.86709926e-001 2.52367139e-001
      1.83173895e-001 3.20515856e-002 2.04271246e-002 -1.06662475e-002
      2.10325886e-002 -2.59762436e-001 2.41866738e-001 3.07940662e-001
      -1.00872375e-001 -4.35259044e-002 -1.57888129e-001
      -1.67313606e-001 4.82256850e-003 5.86998044e-003 1.72844484e-001
      7.81170046e-003 3.20629388e-001 1.23587109e-001 -9.15533304e-002
      -3.36517185e-001 -1.16762884e-001 -6.65504113e-002
      -2.00740173e-001 9.08252001e-002 -6.08572550e-002 1.28528625e-001
      8.78302380e-002 -1.99883785e-002 1.07972197e-001 6.80371374e-002
      -2.84202043e-002 1.41746299e-002 -1.00968331e-001 2.96272010e-001
      -1.83096200e-001 -7.92306885e-002 -1.57886490e-001 1.07396603e-001
      -5.84681099e-003 -1.42148763e-001 -1.13332272e-001 1.86658487e-001
      2.92580247e-001 1.00510716e-001 1.35360425e-002 -1.01044565e-001
      -1.19826958e-001 -5.78773618e-002 -1.98115170e-001
      -2.77990878e-001 1.45737842e-001 1.48261294e-001 -2.39985496e-001
      -1.54772446e-001 -6.82614371e-002 -5.69578372e-002
      -1.42083436e-001 -2.98608512e-001 -3.49580079e-001 1.21187009e-001
      3.43948275e-001 -1.45996332e-001 -5.18219918e-002 -1.29876226e-001
      7.19680116e-002 -7.03440011e-002 -2.11033925e-001 -3.00840974e-001
      1.45375863e-001 3.90766412e-001 9.84382071e-003 -3.22626121e-002
      -1.02049895e-001 -1.03645787e-001 -2.14920029e-001
      -3.70587289e-001 -2.80883938e-001 2.54396617e-001 1.52291298e-001
      -3.31763595e-001 -1.87872201e-001 -1.66330650e-001
      -6.45672455e-002 -8.03710967e-002 -1.96719006e-001
      -2.75102377e-001 1.52291298e-001 1.52291298e-001 -2.81854182e-001
      -1.55146122e-001 -3.29238266e-001 -1.62574261e-001
      -1.12950511e-001 -5.55932447e-002 -2.08217576e-001 3.51617157e-001</_>
    <_>
      9.05502066e-002 -7.36884028e-002 -2.28906229e-001 -8.52945223e-002
      -7.66065195e-002 -2.47519631e-002 -2.47253310e-002 1.92272700e-002
      -2.08705310e-002 -1.59948170e-001 5.51232137e-002 3.11189052e-003
      2.57455232e-003 1.89815909e-001 -6.57712575e-003 1.49955954e-002
      2.40247464e-003 -4.12079453e-001 3.79610807e-001 5.25959849e-001
      -5.25989989e-003 -2.74351202e-002 -1.22458346e-001
      -2.43676066e-001 -3.86217088e-001 -7.56538287e-002 3.64126295e-001
      5.20890281e-002 7.43444785e-002 -4.52297479e-002 -1.47176534e-001
      1.25841245e-001 -3.27149928e-001 -1.21540755e-001 -1.72248885e-001
      5.54449260e-002 -3.12967561e-002 -1.32087404e-002 1.73649520e-001
      5.88924251e-002 3.20046216e-001 1.22730099e-001 -7.44143827e-003
      1.37264412e-002 -3.11668456e-001 1.47017524e-001 3.07220910e-002
      -2.72826348e-002 6.37283623e-002 4.20540869e-001 6.27992228e-002
      -7.86941573e-002 -3.26716690e-003 1.47091016e-001 2.45148823e-001
      -3.54738384e-001 -2.88561404e-001 -4.08245772e-002 1.54178292e-001
      -2.85870545e-002 -2.37778112e-001 -2.04880074e-001 1.59432858e-001
      1.52238637e-001 -3.02013308e-001 -3.01752061e-001 -9.30462312e-003
      -6.79434165e-002 -1.56848252e-001 -5.43834507e-001
      -6.43931985e-001 1.51722282e-001 7.65329525e-002 -6.63085654e-002
      -5.96047789e-002 2.52159545e-003 1.57515779e-001 -2.14099884e-002
      -1.25690699e-001 -5.60805798e-001 6.51828721e-002 4.96446908e-001
      2.02695318e-002 -6.99712895e-003 1.32271033e-002 -1.22290753e-001
      -1.89054713e-001 -5.89952826e-001 -7.63603449e-001 1.26840144e-001
      2.35042334e-001 -2.97238648e-001 -1.45262614e-001 -1.04851298e-001
      -1.11859508e-001 -1.03279538e-001 -2.25602880e-001
      -5.66583633e-001 2.35042334e-001 2.35042334e-001 -2.57763654e-001
      -8.09710324e-002 -1.53148249e-001 -2.93476343e-001
      -3.06508154e-001 -2.41760850e-001 -3.74155283e-001 4.33305770e-001</_>
    <_>
      1.84013799e-001 2.65328318e-001 1.86241642e-001 -1.12044893e-001
      -3.42952460e-001 -2.53543377e-001 -1.38048846e-002
      -1.09520040e-001 -8.68756324e-002 8.48015696e-002 -4.26610708e-002
      2.01015264e-001 3.56394537e-002 -2.05497950e-001 -1.68761536e-001
      -4.62741591e-003 -2.09951729e-001 -1.30810201e-001 9.81039181e-002
      2.37307042e-001 2.13684961e-001 5.21052331e-002 -1.84987351e-001
      -1.96960464e-001 5.36926687e-002 -4.53512650e-003 5.46243377e-002
      1.01566464e-002 -3.93226296e-002 2.85714325e-002 9.12824199e-002
      -8.13528989e-003 3.14458050e-002 1.03388421e-001 -3.62736583e-002
      1.62386507e-001 -4.09149751e-002 -3.74857724e-001 3.38669121e-002
      5.61994910e-002 1.28281012e-001 1.07146889e-001 3.69505920e-002
      -8.64918329e-005 1.59060180e-001 5.36796451e-003 -4.97453898e-001
      5.74309900e-002 7.63112977e-002 1.82467610e-001 1.05828665e-001
      1.68807078e-002 1.29859746e-001 5.78504205e-001 4.82881367e-002
      -5.02591550e-001 -1.46941200e-001 7.16022495e-003 1.00118056e-001
      1.34258121e-001 2.13881116e-002 1.11357998e-002 5.66830277e-001
      5.36796451e-003 -5.90360940e-001 -1.24646850e-001 1.64675049e-003
      3.67603973e-002 2.84200367e-002 -2.47265659e-002 3.62536348e-002
      4.87378985e-001 -4.02984349e-003 -5.32853842e-001 2.84347609e-002
      4.87443171e-002 9.88530740e-002 1.47591867e-002 -3.59604731e-002
      2.11434979e-002 1.91025317e-001 -2.68202201e-002 -2.68734604e-001
      -1.65211827e-001 1.18201841e-002 -3.14534828e-002 -1.75201014e-001
      -1.46127835e-001 -4.64954078e-002 -2.12555826e-002 1.78629272e-002
      -4.44970369e-001 -9.59913433e-002 -1.38315810e-002
      -3.82729657e-002 -7.02971816e-002 -3.53788398e-002
      -4.47610691e-002 3.27036381e-001 4.14130911e-002 -1.99259430e-001
      -1.05973758e-001 3.43572795e-002 6.80985441e-003 -1.57667056e-001
      -3.34801786e-002 -1.63610633e-002 3.65760803e-001</_>
    <_>
      1.05241530e-001 -1.96761489e-002 2.48769335e-002 -7.58315623e-002
      -1.01096258e-002 1.62996296e-002 -1.17704779e-001 -2.84470003e-002
      5.55545427e-002 -1.22885533e-001 1.44006684e-001 2.84767121e-001
      2.97645610e-002 2.31988102e-001 -6.32440671e-002 -2.19556153e-001
      -1.61873043e-001 -4.79777217e-001 4.85228270e-001 4.27243561e-001
      8.12842548e-002 -3.65756378e-002 3.02816425e-002 -1.26770407e-001
      -8.19497779e-002 -2.01228693e-001 1.25618741e-001 -2.33299546e-002
      3.26431930e-001 7.65080228e-002 -1.25767574e-001 7.43519813e-002
      -1.29326656e-001 -3.30359638e-001 -2.66415089e-001
      -2.33299546e-002 -4.67140898e-002 2.53008842e-001 1.54632881e-001
      -2.77592428e-002 2.57183284e-001 1.45910503e-002 -1.73467323e-001
      -1.65259480e-001 -3.22084695e-001 1.56681195e-001 -3.21881682e-001
      -8.24616700e-002 -2.25656629e-001 2.93230504e-001 -3.90372090e-002
      -1.52005047e-001 -8.94886702e-002 1.87767521e-001 1.57208085e-001
      1.09040262e-002 -1.71098664e-001 -1.42039672e-001 1.51861832e-001
      2.38023177e-002 -2.12460816e-001 -8.20666775e-002 1.57208085e-001
      1.57208085e-001 -1.21627137e-001 -1.37441501e-001 -2.55701065e-001
      3.69903110e-002 -1.71172589e-001 -3.58173400e-001 -5.43439746e-001
      1.57208085e-001 1.87886432e-001 -3.76412988e-001 -1.21733613e-001
      -1.00226648e-001 1.35505453e-001 -1.72850221e-001 -1.67974144e-001
      -2.88425177e-001 1.05241105e-001 4.31814760e-001 -8.39759111e-002
      -7.72100613e-002 -1.34463608e-001 -1.24902412e-001
      -3.89689386e-001 -3.26874942e-001 -4.36602980e-001 2.46893287e-001
      2.02367485e-001 -5.04570842e-001 -1.86362833e-001 -1.60621956e-001
      -3.10701411e-002 -1.97744250e-001 -2.08501622e-001
      -4.53000247e-001 2.02367485e-001 2.02367485e-001 -2.91569293e-001
      -2.74912089e-001 -3.33774596e-001 -6.54648989e-002
      -2.69080669e-001 1.94736104e-002 -7.24870190e-002 3.29520524e-001</_>
    <_>
      1.35809913e-001 7.55262971e-002 -6.35965317e-002 -6.31969199e-002
      2.04456840e-002 2.10262206e-003 -1.29264355e-001 2.51750927e-002
      9.13028494e-002 -1.05013534e-001 -1.41060143e-003 1.99883372e-001
      -9.29933134e-003 1.67281434e-001 2.72325054e-002 -1.04647696e-001
      -7.82314390e-002 -3.08197409e-001 4.25531805e-001 4.03676450e-001
      8.89525786e-002 -3.68810333e-002 5.03810309e-002 -1.19077124e-001
      -1.26789451e-001 -2.09044009e-001 2.46089980e-001 -2.62842923e-002
      2.56907046e-001 2.19668090e-001 -9.93516445e-002 2.44600959e-002
      -1.17712341e-001 -3.59012574e-001 -3.96242797e-001
      -2.62842923e-002 -1.22206107e-001 1.21773317e-001 2.37555400e-001
      4.53669913e-002 2.20570594e-001 1.18633822e-001 -3.39163356e-002
      -1.75047442e-001 -2.72691518e-001 3.16674709e-001 3.04898713e-002
      5.12649268e-002 3.50878225e-003 1.42715260e-001 -1.84632391e-001
      -2.63936043e-001 -4.07208920e-001 9.41466913e-002 9.78050604e-002
      -9.61543247e-002 6.56326562e-002 -2.62249894e-002 1.59545586e-001
      1.06680505e-001 -1.21486254e-001 -2.92285532e-001 9.78050604e-002
      9.78050604e-002 -1.94610521e-001 -1.06185563e-001 -1.14363588e-001
      2.74705118e-003 -1.92814022e-001 -1.65278748e-001 -1.74288616e-001
      9.78050604e-002 3.54346842e-001 -1.52638376e-001 -2.18879595e-001
      -1.06808081e-001 -2.03707032e-002 -2.13303402e-001
      -2.36227661e-001 -3.67561191e-001 1.56600356e-001 2.35613823e-001
      -1.65852293e-001 -1.92070439e-001 -1.84364036e-001
      -1.64836183e-001 -2.69195735e-001 -1.67717099e-001
      -2.87949026e-001 1.59232169e-001 2.05225021e-001 -3.40751946e-001
      -2.78165907e-001 -1.72790572e-001 -1.44320682e-001
      -2.49814659e-001 -1.44188032e-001 -2.13529885e-001 2.14304090e-001
      2.05225021e-001 -2.38854125e-001 -3.16369444e-001 -2.05157533e-001
      -1.17395990e-001 -2.42406785e-001 -8.81312974e-003
      -1.40975207e-001 3.90922934e-001</_>
    <_>
      -1.35813028e-001 4.69181389e-002 -3.58045101e-002 -7.52955377e-002
      -1.93310548e-002 3.36864702e-002 -5.81411552e-003 3.68300360e-003
      -5.85043840e-002 3.36388387e-002 -5.46414554e-002 1.87306609e-002
      -3.52071263e-002 2.44359355e-002 5.35287820e-002 3.39458250e-002
      3.98110971e-002 -9.78406221e-002 -7.05495402e-002 -2.72117723e-002
      -9.02432948e-002 -3.95558961e-002 1.58073753e-002 8.84000659e-002
      -2.08061170e-002 -1.90184027e-001 1.87691152e-001 4.43932302e-002
      -6.71251714e-002 -1.18189797e-001 3.62212770e-002 5.51798195e-002
      8.44441652e-002 -1.42019857e-002 1.38144806e-001 4.46237288e-002
      -7.63107603e-003 8.69148001e-002 1.15039803e-001 -6.58978447e-002
      -2.89387628e-002 -9.08841640e-002 -1.44955680e-001
      -9.99607593e-002 -1.84386656e-001 -4.09048311e-002 4.97825980e-001
      5.41654468e-001 -1.01409160e-001 -2.49021187e-001 -1.87625706e-001
      -3.93579751e-001 -4.23999608e-001 -2.30473980e-001 1.08093582e-001
      8.41868520e-002 1.06294446e-001 1.94599833e-002 1.05015486e-002
      -5.03060892e-002 -1.04809962e-001 -7.92823806e-002
      -1.83747917e-001 -1.44463390e-001 3.64651680e-001 5.71878493e-001
      9.97267067e-002 -1.09831609e-001 -1.60306841e-001 -3.14938009e-001
      -4.34879154e-001 -5.06563485e-001 1.88892007e-001 5.14030516e-001
      3.61017644e-001 -1.11898370e-001 -1.45375416e-001 -1.33900031e-001
      -3.70919466e-001 -4.95719373e-001 -2.10372865e-001 1.45255864e-001
      3.72266144e-001 1.26503408e-001 3.76821421e-002 2.86741883e-001
      -1.26284137e-001 -2.43333369e-001 -3.51381183e-001
      -1.13397896e-001 -8.60917121e-002 2.73605675e-001 3.65799844e-001
      8.03570226e-002 1.25477955e-001 -4.94015925e-002 -8.55543688e-002
      -4.35341686e-001 -2.67687947e-001 1.72444228e-002 3.81764513e-003
      3.15190852e-002 -9.45061594e-002 1.54049560e-001 -6.59372704e-003
      -2.84304889e-003 -2.68237770e-001 -5.29978946e-002</_>
    <_>
      -6.01112992e-002 2.10191999e-002 8.16872269e-002 1.76860541e-001
      -7.48360455e-002 4.01947424e-002 2.14685977e-001 3.27861682e-002
      -1.38077587e-001 7.63689801e-002 -7.21665565e-003 -1.11531697e-001
      6.32918254e-002 6.08219877e-002 1.79718770e-002 2.59056062e-001
      1.42168343e-001 2.40039960e-001 -7.87395179e-001 -7.16089487e-001
      -3.42087597e-001 8.88541490e-002 -4.66074310e-002 2.39962578e-001
      4.67993528e-001 3.86422068e-001 -5.34599647e-002 1.88405812e-003
      -8.36383738e-003 -3.21316808e-001 1.52930751e-001 2.60936283e-002
      1.44609988e-001 4.10717636e-001 6.72195733e-001 1.88405812e-003
      -5.07402681e-002 7.59113627e-003 -1.71969514e-002 4.33912873e-003
      8.24832171e-002 -4.09582891e-002 3.72661054e-002 7.38791227e-002
      8.90894085e-002 -4.76639628e-001 1.34925395e-001 2.44599953e-001
      2.32597310e-002 -5.52693428e-003 -7.43664801e-002 -1.78645208e-001
      -7.10733756e-002 -4.11303043e-001 1.34925395e-001 2.87262201e-001
      2.94156194e-001 -3.97251397e-002 -1.91258024e-002 -2.30403751e-001
      -5.72266914e-002 5.77160083e-002 -3.59103680e-001 -2.42753670e-001
      1.34925395e-001 4.34346646e-001 4.30253930e-002 -1.19592343e-002
      -1.10509448e-001 -3.04971963e-001 -2.20809817e-001
      -8.12951505e-001 -2.56495681e-002 3.68885249e-001 3.72584671e-001
      5.37243150e-002 -2.74474621e-001 -2.47113913e-001 -1.46627322e-001
      -1.63822621e-001 -5.14632523e-001 9.67378393e-002 4.83596027e-001
      5.27779572e-002 3.70753929e-002 -3.64094824e-002 -2.06043139e-001
      -3.25864479e-002 -1.36920422e-001 -3.39101374e-001
      -7.02200383e-002 1.36229679e-001 2.74125665e-001 2.20998555e-001
      5.47372103e-002 8.80767033e-003 -1.41172409e-001 -1.25166267e-001
      -3.69146943e-001 1.51949357e-002 1.42930850e-001 1.24377228e-001
      3.15004379e-001 2.35029399e-001 -7.81769603e-002 -3.36039335e-001
      -3.59300673e-001 -3.03608984e-001</_>
    <_>
      -2.86785454e-001 -1.61844923e-003 -1.91449411e-002 7.31865913e-002
      -1.83571339e-001 -3.27384956e-002 -2.55525783e-002 2.75600259e-003
      -7.01249167e-002 -2.57161353e-003 1.27266660e-001 2.27558836e-001
      1.68733165e-001 -1.00700617e-001 3.98814306e-002 1.36030108e-001
      1.15883105e-001 -1.77226841e-001 -2.24841774e-001 -3.91673408e-002
      -1.62175506e-001 -3.62504087e-002 -1.92245543e-001 4.55784276e-002
      1.69919461e-001 -2.13917010e-002 1.15561977e-001 1.66564472e-002
      2.28609264e-001 8.78693014e-002 5.27237132e-002 -3.07185113e-001
      7.01565817e-002 1.79047748e-001 1.43248320e-001 1.80051327e-001
      -2.98311096e-002 1.84567556e-001 1.19963579e-001 -2.32491158e-002
      3.78479362e-002 -2.82423235e-002 -2.31216997e-002 1.94808934e-002
      -1.94996640e-001 -3.55101749e-002 2.49165446e-001 2.67110795e-001
      -1.58587083e-001 -1.40005518e-002 -1.23064063e-001
      -2.38232478e-001 -2.67982543e-001 -2.09911495e-001 2.61984438e-001
      4.49938357e-001 2.92426437e-001 -7.98287336e-003 -1.89968690e-001
      -2.00211629e-001 -1.74268097e-001 -1.51769549e-001
      -2.42120530e-002 -5.24981320e-002 2.48788893e-001 3.17415625e-001
      5.36506064e-002 -2.86314748e-002 -2.09627405e-001 -3.16598743e-001
      -4.48654950e-001 -4.11325574e-001 1.71904787e-001 3.35720897e-001
      2.87068576e-001 -1.15119509e-001 -5.64712211e-002 -1.13871478e-001
      -2.87811786e-001 -3.49428594e-001 -1.17524020e-001 3.40827167e-001
      3.50976259e-001 1.55368343e-001 -4.09502350e-003 6.81020692e-002
      -1.53186277e-001 -3.70705605e-001 -1.99063838e-001 2.07932182e-002
      -1.20511793e-001 1.33040160e-001 2.34816700e-001 4.53893244e-002
      1.25218883e-001 -2.01801192e-002 -1.45767227e-001 -3.41465384e-001
      -2.39305153e-001 -4.44345400e-002 3.68075073e-002 -6.88156560e-002
      -2.06094645e-002 1.14162698e-001 1.96059644e-002 -1.44193731e-002
      -2.63811618e-001 5.95873110e-002</_>
    <_>
      8.55119713e-003 -1.57604814e-001 -1.36718586e-001 5.02104647e-002
      -1.91934295e-002 -1.01985130e-002 3.05456631e-002 4.80889343e-003
      4.31065634e-002 4.13444303e-002 -9.05753225e-002 1.29591683e-002
      8.59479830e-002 9.47591942e-003 2.08796840e-002 9.77629051e-002
      1.38463289e-001 -4.55726460e-002 -5.07151894e-002 -6.96591213e-002
      -2.02104449e-001 6.16222620e-002 -6.41920269e-002 -3.17584869e-004
      -7.84979463e-002 -1.28169090e-001 9.15557742e-002 7.08934590e-002
      -1.04010813e-002 -9.05488282e-002 4.05946709e-002 6.57265782e-002
      -9.98504274e-003 1.06872626e-001 1.47349104e-001 5.95082603e-002
      -1.27664030e-001 1.39724359e-001 1.90452129e-001 4.20732312e-002
      4.05608714e-002 -3.17141600e-002 -2.94376239e-002 9.29083824e-002
      -3.32008064e-001 -2.40028888e-001 4.56941485e-001 4.56522465e-001
      7.86894411e-002 6.19805120e-002 -7.80607611e-002 -1.48241058e-001
      -1.36411771e-001 -4.01894212e-001 2.32198954e-001 2.27805346e-001
      1.54649049e-001 5.35467714e-002 3.74642876e-003 -1.52849481e-001
      -1.60124913e-001 -1.52998775e-001 -1.00506730e-001
      -1.50725096e-001 3.59477907e-001 3.89327228e-001 1.47873625e-001
      4.63192426e-002 -1.55217230e-001 -3.10558826e-001 -5.22694945e-001
      -5.10118484e-001 -3.25929672e-002 4.97638851e-001 4.19569016e-001
      4.14825454e-002 4.01562490e-002 -3.88912298e-002 -1.28978789e-001
      -4.22921300e-001 -3.11379969e-001 2.59423137e-001 3.83010507e-001
      1.77400082e-001 4.93261479e-002 8.83885324e-002 -1.54562503e-001
      -3.28452826e-001 -3.94785345e-001 -1.22042552e-001
      -1.15474395e-001 1.98711604e-001 3.44489336e-001 1.43364295e-001
      2.00965255e-001 3.36943455e-002 -3.64053436e-002 -2.52977580e-001
      -2.68732488e-001 -4.07092161e-002 -2.30581686e-002 1.57895047e-004
      6.26316965e-002 9.94737670e-002 -6.19632266e-002 -4.89984266e-002
      -1.59516275e-001 -1.58660468e-002</_>
    <_>
      1.12514794e-001 3.86130780e-001 2.89301038e-001 -1.47508174e-001
      -5.05515099e-001 -2.13117078e-001 1.02021143e-001 -1.42154470e-001
      -1.07138813e-001 2.60958016e-001 -5.21231890e-002 2.14792266e-001
      -1.03972368e-001 -3.35641265e-001 -2.11120799e-001 1.52313247e-001
      -2.20413715e-001 4.29139920e-002 -4.91569698e-001 -2.60789126e-001
      1.31993577e-001 -5.33441966e-003 -3.47845316e-001 7.05874488e-002
      3.85899693e-001 1.50882557e-001 4.80890870e-002 -5.95381297e-002
      -5.95381297e-002 1.21010412e-002 9.36336070e-002 -6.85569867e-002
      1.90389514e-001 3.79057914e-001 3.01723778e-001 2.52692074e-001
      -5.09263016e-002 -2.33818829e-001 2.81145066e-001 4.37898226e-002
      7.83141479e-002 -9.72982554e-004 5.86965568e-002 2.01243442e-002
      8.58030468e-002 -4.92909253e-001 -1.21952690e-001 7.14527726e-001
      1.50439858e-001 9.64233577e-002 7.00338697e-003 2.52535120e-002
      3.24002765e-002 5.92694730e-002 -1.11717600e-002 -1.21952690e-001
      2.35346317e-001 -2.60770228e-002 3.88719253e-002 -2.62415800e-002
      2.99199335e-002 5.80437854e-002 3.53803575e-001 -3.51855069e-001
      -1.21952690e-001 6.07015431e-001 1.37715787e-001 1.10397048e-001
      -2.29326561e-002 -8.90664570e-003 -5.80873750e-002 1.19223101e-002
      -2.33125180e-001 -8.14607143e-002 5.56541800e-001 1.73504725e-001
      1.44013673e-001 1.12430053e-002 -1.22073870e-002 -4.99804281e-002
      -1.99573860e-001 -2.37423748e-001 7.06832856e-002 7.99856111e-002
      9.73820388e-002 2.15549171e-001 -3.49021628e-002 -1.35844842e-001
      -1.05822928e-001 -2.37932324e-001 -3.16255987e-001
      -3.61290425e-002 4.39746350e-001 3.17343086e-001 3.09083402e-001
      8.45221281e-002 7.08848089e-002 -7.33984709e-002 5.87553605e-002
      -2.35491887e-001 -3.84473056e-002 5.56614399e-002 2.86268979e-001
      3.54416817e-001 1.83948964e-001 2.22644843e-002 -1.54125050e-001
      -4.89930511e-002</_>
    <_>
      -1.50652573e-001 -7.90338144e-002 -5.44489585e-002
      -2.08099913e-002 -9.83609781e-002 4.12486196e-002 -2.40873676e-002
      -3.39663438e-002 -5.61108999e-002 -9.24340170e-003
      -3.85882035e-002 3.02928299e-001 4.58733253e-002 3.47438045e-002
      2.11231993e-003 9.14400816e-002 -8.79589990e-002 -2.78021246e-001
      -6.43549785e-002 5.60844988e-002 -6.17544092e-002 3.63813005e-002
      4.49077040e-002 1.32074088e-001 -1.50957808e-001 -2.46855751e-001
      1.77396119e-001 1.18843475e-002 1.59941718e-001 1.19119145e-001
      1.04116008e-001 9.09780562e-002 9.01251957e-002 3.36626209e-002
      1.52123570e-001 1.18843475e-002 -5.22258021e-002 3.22402805e-001
      3.29327464e-001 -1.97948590e-002 2.28359699e-002 -9.61350352e-002
      -5.32782599e-002 -1.83835015e-001 -4.26690966e-001
      -2.78436244e-001 1.34159043e-001 4.66051161e-001 -1.23452939e-001
      1.63455009e-002 -9.78443697e-002 -1.58981755e-001 -1.82559296e-001
      -4.81019467e-001 8.32790360e-002 4.32967097e-001 2.57369965e-001
      -2.35797204e-002 2.23100279e-002 -1.56754345e-001 -1.33621588e-001
      -2.06767675e-003 -2.02185661e-001 -1.86972514e-001 4.68137324e-001
      5.45678139e-001 -5.16075529e-002 6.17280118e-002 -1.67292923e-001
      -2.88949370e-001 -4.79150712e-001 -5.98436177e-001
      -2.38750819e-002 3.05921972e-001 3.73587042e-001 5.12747616e-002
      7.44753629e-002 -1.76583856e-001 -1.40878528e-001 -3.31520051e-001
      -4.07989532e-001 3.16608369e-001 4.22933578e-001 1.43065348e-001
      3.07044983e-002 1.17663078e-001 -2.15533778e-001 -2.57243305e-001
      -3.88040453e-001 -7.88620263e-002 -1.56407759e-001 1.62597314e-001
      3.27091843e-001 2.23385036e-001 2.98194110e-001 -6.22866563e-002
      -1.96046270e-002 -3.67558688e-001 -3.09227079e-001
      -2.57941913e-002 -1.17574319e-001 -1.45787120e-001
      -6.00277968e-002 2.11580187e-001 -6.78782389e-002 3.25716101e-002
      -1.27308652e-001 -4.95877154e-002</_>
    <_>
      6.03781268e-003 8.78902674e-002 -3.70001830e-002 -7.81707168e-002
      -3.00010219e-002 1.85948405e-002 -1.00591488e-001 -4.67160344e-002
      -4.85415338e-003 -2.17342265e-002 1.16458423e-002 1.39179230e-001
      4.83873487e-003 4.32245014e-003 5.62336296e-002 4.73527648e-002
      -2.08484270e-002 -2.48362020e-001 -2.03713942e-002 3.33880633e-002
      -3.07516963e-003 5.09117953e-002 6.24596812e-002 5.11303879e-002
      -6.86970800e-002 -2.58075178e-001 1.27698079e-001 -2.17116196e-002
      2.48089045e-001 2.00258374e-001 1.52773738e-001 5.74985333e-002
      1.23313107e-001 -6.94472268e-002 -3.58112268e-002 -2.17116196e-002
      -1.61537051e-001 2.48387262e-001 2.80110061e-001 6.61916807e-002
      9.27940533e-002 -3.91540043e-002 -3.73955518e-002 -1.78134903e-001
      -4.48701054e-001 -4.24832031e-002 4.86168057e-001 4.97915447e-001
      1.40379434e-002 -5.79651035e-002 -3.01694900e-001 -3.61916006e-001
      -4.96976644e-001 -4.06016558e-001 1.33005250e-002 3.92954022e-001
      3.72040838e-001 1.02522440e-001 6.67675510e-002 -3.01231742e-002
      -4.66364846e-002 -1.09402791e-001 -1.97770551e-001
      -1.62779927e-001 3.36484581e-001 5.11194170e-001 5.90389855e-002
      8.30842555e-002 -2.27083564e-001 -1.35535672e-001 -1.62421450e-001
      -5.49857199e-001 1.71363533e-001 3.88787687e-001 2.23880008e-001
      -7.17339525e-003 -8.55721012e-002 -2.64214247e-001
      -2.58271366e-001 -3.54762882e-001 -2.63873637e-001 1.96259037e-001
      2.44471848e-001 -7.94053078e-003 -3.31581533e-002 -4.58979310e-004
      -1.93687558e-001 -2.18789518e-001 -2.31959909e-001
      -1.44240126e-001 -8.91180187e-002 1.32361516e-001 2.35751659e-001
      1.35336831e-001 2.47426689e-001 -1.67056590e-001 -4.01300825e-002
      -1.52315348e-001 -2.09617570e-001 -4.18560505e-002
      -6.88322932e-002 -1.42521441e-001 3.91104743e-002 1.51786581e-001
      -1.36017660e-002 -9.79672093e-003 -1.46868855e-001
      -1.21175190e-002</_>
    <_>
      -4.43729348e-002 -1.19214855e-001 3.28438878e-001 2.92276919e-001
      1.91390868e-002 1.98122151e-002 1.56175911e-001 -1.27499951e-002
      1.05345417e-002 1.06140070e-001 -1.30676508e-001 -4.13546413e-002
      1.04310356e-001 2.02359464e-002 -4.10765223e-002 2.40088150e-001
      4.83022220e-002 3.78507465e-001 -7.62045503e-001 -6.60475492e-001
      3.18254046e-002 1.22731149e-001 1.34731084e-001 2.04668567e-001
      6.24168098e-001 5.95935464e-001 -4.78796691e-001 -1.30676508e-001
      -8.98152217e-002 1.54243469e-001 1.22110866e-001 -4.20437232e-002
      4.93680090e-002 4.89808410e-001 4.37783748e-001 -1.30676508e-001
      3.57445441e-002 -2.12512106e-001 -3.24384302e-001 -2.30513904e-002
      1.30247921e-001 3.63678969e-002 2.27521777e-001 1.45918235e-001
      2.95183063e-001 -3.59127849e-001 -6.86079204e-001 -4.47577715e-001
      9.05501172e-002 1.57613054e-001 7.99084008e-002 4.49480623e-001
      4.35411453e-001 2.50002723e-002 -2.67573986e-002 3.88920307e-001
      1.28927857e-001 -1.97017491e-002 7.37176137e-003 -1.47981852e-001
      1.19265571e-001 1.64000437e-001 -9.06454306e-003 -2.67573986e-002
      -3.95050496e-001 -2.47060567e-001 1.43297501e-002 6.35612980e-002
      2.74802223e-002 3.55198801e-001 2.53818899e-001 -2.67573986e-002
      -1.58693001e-001 -2.67712176e-001 -7.97454491e-002 1.34058625e-001
      -3.26389462e-001 -2.12212786e-001 3.11754435e-001 3.72378558e-001
      7.82085061e-002 1.31024614e-001 -2.70611476e-002 -6.96497709e-002
      1.84966289e-002 -4.30803806e-001 -1.73992179e-002 2.51737595e-001
      2.20729470e-001 6.27142042e-002 7.11562531e-003 -2.85535127e-001
      -9.11422074e-002 2.09271386e-001 -2.09086061e-001 -3.70064788e-002
      1.80067599e-001 2.14300185e-001 6.65916875e-002 5.56341931e-002
      2.03908626e-002 6.08324930e-002 4.64558840e-001 -1.53198436e-001
      -2.07961220e-002 -2.14437157e-001 -1.52471304e-001
      -2.09417939e-001</_>
    <_>
      -1.21156402e-001 4.38549705e-002 7.75592076e-003 2.71631896e-001
      -4.31381017e-001 1.02214426e-001 1.23700276e-001 7.85430223e-002
      -4.87904344e-003 -5.69119118e-002 3.74263167e-001 5.25697052e-001
      4.32482243e-001 -2.77447522e-001 -1.34382740e-001 1.36498570e-001
      6.30203709e-002 -2.48962864e-001 -3.23443294e-001 -7.14298040e-002
      -2.14467585e-001 2.39298213e-002 -5.53630292e-001 1.21156096e-001
      4.08251852e-001 5.53850234e-001 2.00131126e-002 1.00872777e-001
      6.82471454e-001 7.67295808e-002 -1.27692923e-001 -8.58627200e-001
      -4.40748513e-001 -1.41421303e-001 -9.92862880e-002 2.76310861e-001
      -2.32517034e-001 4.95090634e-001 1.90779597e-001 -4.65309285e-002
      5.13509400e-002 -6.03475310e-002 6.36918545e-002 4.65120971e-002
      -4.11458574e-002 -2.55756173e-002 -1.53459027e-001
      -3.40318561e-001 -3.90001833e-001 1.90712884e-001 7.18271956e-002
      1.55792624e-001 1.98629111e-001 -5.09931110e-002 6.11336708e-001
      8.03961575e-001 2.29198754e-001 -1.91537231e-001 -3.16530168e-001
      -4.52388495e-001 -3.87171894e-001 -4.13346887e-001 1.29285663e-001
      -2.04320671e-003 -7.21849129e-002 -2.20038816e-001
      -1.74422100e-001 1.12993121e-001 -3.52110006e-002 1.08367398e-001
      -9.45942551e-002 -2.91174836e-002 -6.10066056e-002
      -7.59747624e-002 -1.05525933e-001 -1.73622906e-001 1.04719736e-001
      4.31773327e-002 5.60006462e-002 4.75240052e-002 8.64964947e-002
      1.42127872e-001 2.23784707e-002 -1.09368727e-001 -1.39891207e-001
      -8.48990381e-002 9.52834636e-002 -1.62413627e-001 7.08468780e-002
      1.90618441e-001 -3.81364524e-002 -1.80364013e-001 -2.33894005e-001
      -7.21221119e-002 1.00573242e-001 1.22017652e-001 1.13012284e-001
      2.82856166e-001 -3.53446975e-002 9.26975720e-003 -7.91747496e-002
      -1.46214962e-001 -8.38362724e-002 1.68205723e-002 2.09598765e-001
      9.51569760e-004 -3.01924031e-002 1.46101624e-001</_>
    <_>
      2.78327852e-001 -3.26968998e-001 -2.83747941e-001 2.70449221e-001
      -3.49965580e-002 -1.53872728e-001 3.28410029e-001 -3.45681375e-003
      3.01379442e-001 -1.34108486e-002 1.24322651e-002 4.26894397e-001
      4.48152870e-001 1.21121742e-002 -1.83895335e-001 3.36557150e-001
      2.03649297e-001 2.10007668e-001 -1.97130725e-001 -2.96226531e-001
      -4.95584548e-001 3.38988081e-002 -4.39368755e-001 -1.44739911e-001
      1.89771950e-001 4.15354252e-001 -1.18853144e-001 1.24322651e-002
      2.45748892e-001 -3.13949823e-001 -3.26332390e-001 -3.08806062e-001
      -6.57052279e-001 1.76736459e-001 -4.46430361e-003 1.23621069e-001
      -7.31454492e-001 6.73220813e-001 6.98569834e-001 2.28440970e-001
      4.53980237e-001 2.68205185e-003 3.11631650e-001 3.46221417e-001
      -5.29179633e-001 -8.68054271e-001 -1.96898188e-002
      -2.09567323e-001 3.82384658e-001 1.17487872e+000 4.69897538e-001
      8.57744694e-001 7.31127799e-001 -6.37187719e-001 8.72553229e-001
      8.17083716e-001 3.83710628e-003 -2.45681986e-001 -1.33938953e-001
      -5.63827753e-001 -6.95095360e-001 -6.87858880e-001 1.91802844e-001
      -1.57543242e-001 -6.15152046e-002 -6.54973745e-001
      -6.71193302e-002 1.82233378e-001 -2.33239993e-001 2.32112631e-001
      -1.71616092e-001 -1.70720205e-001 -5.28152227e-001 2.86321104e-001
      3.01698983e-001 3.28069776e-001 4.67869282e-001 6.28398657e-001
      7.28200555e-001 -1.83507606e-001 -3.56285810e-001 6.65042818e-001
      3.32471400e-001 1.16075106e-001 7.76762068e-002 -1.26089022e-001
      5.19755840e-001 -1.95891678e-001 -2.39937037e-001 2.73528192e-002
      -1.81258723e-001 -9.29328576e-002 -8.48203897e-002
      -1.07788496e-001 -6.75032809e-002 3.42137665e-001 5.85682988e-001
      5.65826774e-001 -2.01647937e-001 -1.32764563e-001 2.86904305e-001
      6.51295763e-003 4.79402989e-002 -3.54926139e-001 3.50567728e-001
      -1.54291064e-001 -2.63522595e-001 9.79390219e-002</_>
    <_>
      1.41574726e-001 2.48252839e-001 1.70636743e-001 -7.27970973e-002
      -2.53101021e-001 -2.11220935e-001 6.50941730e-002 -1.15480356e-001
      -7.38364086e-003 1.14906743e-001 -3.53416726e-002 1.56584665e-001
      5.57976700e-002 -3.31379443e-001 -2.06484079e-001 1.19390406e-001
      -1.54253915e-001 7.72168785e-002 -2.73012221e-001 -6.88577518e-002
      1.17145009e-001 -8.98056757e-003 -2.01203972e-001 1.32089090e-002
      3.01465213e-001 2.49768317e-001 -1.32117003e-001 -3.53416726e-002
      -9.43818316e-002 2.54252441e-002 1.18664972e-001 -1.24780945e-001
      8.83846134e-002 3.51783544e-001 1.03994466e-001 7.13100061e-002
      -3.59167121e-002 -1.92115873e-001 1.06786713e-001 5.58844097e-002
      3.73293795e-002 6.38820156e-002 1.53635949e-001 1.36459554e-002
      1.90199792e-001 -2.72261590e-001 -4.57204849e-001 3.95492166e-002
      8.81732255e-002 2.87926912e-001 9.66428071e-002 2.67570555e-001
      2.59065062e-001 2.09641293e-001 -1.15897186e-001 -1.51433423e-001
      4.98100333e-002 3.54252271e-002 -2.54172981e-002 1.44632254e-003
      9.23634544e-002 2.04210076e-002 3.75487417e-001 -1.17020778e-001
      -3.83144438e-001 -5.71699962e-002 7.37226848e-003 1.04572430e-001
      2.64520161e-002 3.73926878e-001 4.04957026e-001 3.20686728e-001
      -2.62443691e-001 -4.11395550e-001 3.53691652e-002 1.07854292e-001
      1.58655033e-001 9.65443701e-002 2.18738616e-001 3.00297678e-001
      4.72203195e-002 -2.08144575e-001 -1.92634538e-001 -1.47348776e-001
      3.83461453e-002 1.54333385e-002 8.98014531e-002 1.04274943e-001
      2.78955102e-001 -1.45383745e-001 -1.45398110e-001 -2.52399594e-001
      -3.21891792e-002 6.29674941e-002 5.56049868e-002 4.49913330e-002
      2.71194249e-001 3.34429175e-001 1.34864807e-001 -1.39976725e-001
      1.02631636e-001 7.54031241e-002 2.53537297e-001 7.39347339e-002
      6.78332373e-002 4.96279001e-002 1.22533105e-001 7.61204213e-002</_>
    <_>
      -3.86558101e-002 5.36212362e-002 3.35411392e-002 -7.41252601e-002
      -7.57646635e-002 2.83468924e-002 -1.55111104e-001 -1.32735178e-001
      1.20360777e-002 -1.70768142e-001 4.40460354e-001 8.12628984e-001
      1.29066303e-001 1.04982689e-001 -2.63924867e-001 -1.12941630e-001
      -4.53550398e-001 -4.88985896e-001 -1.66168511e-001 1.28418609e-001
      3.18923086e-001 7.78749362e-002 4.74672318e-002 2.12421730e-001
      -3.21636759e-002 2.68321037e-002 -2.79568374e-001 -1.41869664e-001
      7.94056833e-001 4.67169732e-001 -5.35378121e-002 -2.20513597e-001
      -1.81548730e-001 -1.26155570e-001 -4.26909737e-002
      -1.41869664e-001 -2.69460052e-001 8.63691151e-001 5.78828692e-001
      -1.07250594e-001 3.69974226e-001 -2.32422188e-001 7.46624917e-002
      -3.74596477e-001 -4.04391825e-001 -7.11435318e-001
      -1.09429884e+000 -4.39988047e-001 -6.00188375e-001 8.70291650e-001
      1.65850013e-001 6.84317589e-001 6.52446687e-001 -2.68904805e-001
      -3.53925638e-002 1.02237022e+000 2.32967257e-001 -3.38621825e-001
      -9.47435349e-002 -4.06855166e-001 -2.40428038e-002 1.72232509e-001
      -3.53925638e-002 -3.53925638e-002 2.41881516e-002 -2.38670245e-001
      -7.33940899e-001 2.55931258e-001 -2.83702135e-001 6.23934269e-001
      -9.18171834e-003 -3.53925638e-002 -6.57624304e-001
      -6.83965623e-001 -1.57101572e-001 1.44693390e-001 3.92491788e-001
      -3.31089273e-002 7.01127946e-001 5.78496218e-001 -2.64745533e-001
      3.58284503e-001 -2.04165317e-002 -1.94043368e-001 1.43754184e-001
      -3.51485223e-001 -2.53362060e-001 4.01404589e-001 2.36610085e-001
      7.32050464e-002 -6.87221140e-002 -4.67518419e-001 -2.67637700e-001
      3.23122181e-002 1.88909933e-001 -1.01194583e-001 4.63077366e-001
      3.45371038e-001 -7.95003474e-002 -1.60399273e-001 -2.32888192e-001
      -4.48535681e-001 2.52292871e-001 1.05197191e-001 7.37632513e-002
      2.89398193e-001 2.37970307e-001 -1.11902095e-001</_>
    <_>
      2.56308764e-001 2.62502700e-001 -2.56346930e-002 3.69322360e-001
      -2.60189492e-002 1.42854393e-001 1.89893648e-001 9.58980247e-002
      1.57384858e-001 -2.18814984e-001 -7.70283572e-004 5.68989515e-001
      2.49492243e-001 2.08329447e-002 5.70515506e-002 1.78845122e-001
      -1.00596413e-001 -5.44762731e-001 2.18385264e-001 1.16219018e-002
      3.25627886e-002 1.20877676e-001 -3.06587815e-001 5.85770160e-002
      3.09233487e-001 1.67126149e-001 3.33465219e-001 -1.99540094e-001
      8.93427193e-001 6.15832448e-001 -1.44724667e-001 -4.77601469e-001
      -5.23456514e-001 -5.78057647e-001 -6.05778992e-001
      -1.99540094e-001 -7.43706405e-001 6.52236164e-001 8.34579587e-001
      2.87202150e-001 4.34283584e-001 1.80908516e-001 3.22603613e-001
      -5.27471423e-001 -7.64885187e-001 2.04540506e-001 2.23836958e-001
      1.39971972e-002 2.55082622e-002 5.23652732e-001 -2.86794752e-001
      -1.03750072e-001 -4.20024902e-001 -4.24131870e-001
      -1.35300383e-001 8.73672247e-001 6.07184052e-001 -5.93832768e-002
      2.02268250e-002 -1.22824438e-001 9.14556310e-002 -3.13649833e-001
      -1.35300383e-001 -1.35300383e-001 -7.07839206e-002
      -3.00362945e-001 -5.51627994e-001 4.48542796e-002 -5.72319210e-001
      8.91676784e-001 9.10642684e-001 -1.35300383e-001 4.18803692e-001
      -6.15235008e-002 -3.06093305e-001 -2.18759522e-001
      -8.46493095e-002 -1.41266972e-001 5.85677400e-002 1.29099652e-001
      2.41751730e-001 -1.11261345e-001 -4.12456363e-001 -3.98330420e-001
      -1.73208520e-001 -2.63504505e-001 1.97089359e-001 6.17639184e-001
      1.98459834e-001 -1.27871558e-001 8.62552971e-002 1.14531897e-001
      -4.00066137e-001 -4.00915563e-001 -4.86242980e-001
      -4.51287866e-001 2.91073561e-001 5.15777051e-001 1.91625804e-001
      -6.62694201e-002 -7.30051994e-002 -2.61350006e-001 1.79436401e-001
      -1.62800521e-001 -1.50706708e-001 -3.40226442e-002
      -4.77373123e-001 -1.06380634e-001</_>
    <_>
      -1.94830030e-001 1.87089458e-001 -1.67770579e-001 -7.00982362e-002
      -2.35717684e-001 -1.49870133e-002 -3.56308557e-002 1.08926995e-002
      -1.06980875e-001 -9.75517184e-002 3.96789312e-001 4.11408067e-001
      9.15741026e-002 -1.50665268e-001 -2.95393188e-002 -3.17137577e-002
      -1.01037761e-002 -4.44172949e-001 3.36563855e-001 3.29178005e-001
      -2.60064334e-001 -8.63337740e-002 -3.36574048e-001
      -1.52296007e-001 -1.81334674e-001 -6.06057011e-002 3.75206083e-001
      1.08526371e-001 4.68256027e-001 2.74835043e-002 -1.90392748e-001
      -4.62284714e-001 -2.41513714e-001 -2.81091332e-001
      -3.37877452e-001 2.86450654e-001 -1.56551674e-001 4.52848583e-001
      3.96188349e-001 -3.32999714e-002 -3.51114981e-002 -4.34946269e-002
      -1.05855554e-001 -1.11621886e-001 -2.46730715e-001 2.53505379e-001
      2.76942044e-001 1.26860216e-001 -2.62538195e-001 3.61120924e-002
      -3.93206105e-002 -2.06081524e-001 -2.87336022e-001
      -2.66143563e-003 3.29769582e-001 2.11919278e-001 6.45190552e-002
      -1.11751668e-001 -2.50438839e-001 -2.02710986e-001
      -2.58541465e-001 -3.93638551e-001 1.00449793e-001 5.24719208e-002
      1.38360858e-001 -2.43020300e-002 -9.15080905e-002 -2.69277375e-002
      -1.15217783e-001 -1.35891184e-001 -1.45935684e-001 2.53976453e-002
      1.62373394e-001 1.08387634e-001 -1.87228248e-002 -1.56504393e-001
      2.58238286e-001 1.09520167e-001 -1.97648540e-001 -2.81411082e-001
      5.65509871e-002 1.59206480e-001 8.42479318e-002 2.69121677e-002
      -1.42517881e-002 2.15110391e-001 -3.26920711e-002 -2.89596111e-001
      -8.77297297e-002 1.25957608e-001 -3.91562246e-002 4.29842584e-002
      -1.07987046e-001 -1.70351461e-001 1.61120623e-001 6.16001748e-002
      -4.39349562e-002 -6.69482723e-003 -5.53552434e-002
      -4.24219035e-002 2.15169359e-002 -6.12871014e-002 -3.62095714e-001
      3.55321392e-002 6.55548796e-002 1.25185475e-001 1.13300189e-001
      2.84203827e-001</_>
    <_>
      8.37367475e-002 -2.27652490e-002 -4.17109728e-001 -1.50164664e-001
      -9.28893760e-002 -5.29309772e-002 -6.29223734e-002
      -1.56357384e-003 2.16058902e-002 -1.62560329e-001 1.43587589e-001
      9.79864374e-002 2.48171156e-003 2.39798054e-002 -3.96160185e-002
      -8.17512944e-002 2.42018364e-002 -4.38636243e-001 7.27130413e-001
      4.64983493e-001 -1.88854441e-001 -1.10483333e-001 -1.47494346e-001
      -1.17722750e-001 -3.77743125e-001 -2.92059302e-001 3.90064597e-001
      1.45323887e-001 1.33083910e-001 -2.35614821e-001 -2.12142795e-001
      -4.20969389e-002 -2.41586149e-001 -2.74684340e-001
      -4.28249687e-001 1.47750616e-001 -3.39243829e-001 3.90146196e-001
      5.08499563e-001 1.05619453e-001 4.16535102e-002 -1.01435725e-002
      -7.88250193e-002 -6.85848109e-003 -5.87195456e-001
      -1.90160833e-002 6.59018874e-001 4.11764920e-001 7.77766705e-002
      2.34954864e-001 9.07277465e-002 -1.80442929e-002 -1.96709171e-001
      -3.11355084e-001 3.07116598e-001 -1.59845084e-001 -1.41569108e-001
      -2.43523084e-002 -5.70862815e-002 -3.54628265e-002
      -2.30696827e-001 -3.91684949e-001 5.32228388e-002 -8.36027507e-003
      3.72263640e-001 5.11585400e-002 4.02995339e-003 8.33267346e-002
      -8.79028216e-002 -2.50396103e-001 -3.19093078e-001
      -1.90160833e-002 -9.39315632e-002 3.67308170e-001 2.09261581e-001
      1.75209884e-002 5.14950871e-001 4.00812000e-001 3.92416045e-002
      -4.96151328e-001 -2.22535253e-001 7.89460465e-002 1.41610891e-001
      9.30888653e-002 1.76723003e-002 3.85052860e-001 2.19384313e-001
      -3.44245970e-001 -3.83556008e-001 -1.86750248e-001
      -8.36925656e-002 3.51157784e-001 1.31593436e-001 -1.69936761e-001
      3.18337798e-001 1.72812924e-001 6.97254688e-002 -1.78045526e-001
      -1.27192616e-001 -1.32250831e-001 1.26331210e-001 1.58628654e-002
      -3.49651575e-001 1.49333537e-001 1.62439734e-001 8.69372934e-002
      6.34086803e-002 1.65607616e-001</_>
    <_>
      1.54005542e-001 4.65462536e-001 2.62550563e-001 -2.21882671e-001
      -5.26954770e-001 -3.03414553e-001 -3.53355445e-002
      -1.54967934e-001 -6.27405494e-002 1.31930828e-001 -4.11383715e-003
      3.42261523e-001 -8.47537592e-002 -3.59625161e-001 -2.85793126e-001
      -3.13103124e-002 -3.41527104e-001 -1.80219531e-001 9.74114090e-002
      2.57406592e-001 3.63035202e-001 -5.26515059e-002 -4.07898873e-001
      -1.72456622e-001 -1.21292613e-001 -1.78224146e-001 1.65956125e-001
      -4.11383715e-003 -2.38294415e-002 1.99555010e-001 4.00169864e-002
      -1.22890539e-001 6.01627082e-002 3.87345860e-003 -2.40888044e-001
      2.68583238e-001 -1.07387394e-001 -2.12527633e-001 4.30849284e-001
      2.23439150e-002 3.76645364e-002 8.37266911e-003 1.40224863e-002
      -9.81482342e-002 1.52790733e-002 -2.12527633e-001 -2.12527633e-001
      5.02384365e-001 9.13039148e-002 1.52768031e-001 7.86134973e-002
      1.29775107e-001 2.31262930e-002 3.43921334e-001 -4.32574712e-002
      -3.49805862e-001 5.67445569e-002 1.18435323e-002 1.94450598e-002
      1.38803601e-001 5.64870909e-002 5.15870750e-003 5.64908862e-001
      -2.12589860e-001 -2.36032590e-001 2.73427218e-001 1.02101276e-002
      1.29410833e-001 8.19658265e-002 1.94615871e-001 2.00576454e-001
      4.94337946e-001 -2.57464200e-001 -3.73854458e-001 2.07069516e-001
      1.09457344e-001 3.02926183e-001 2.10669577e-001 1.22158810e-001
      5.28406650e-002 1.43750742e-001 -3.10453892e-001 -2.40142152e-001
      -5.38793914e-002 5.10862358e-002 3.39106381e-001 -9.64389835e-003
      -6.77793398e-002 4.37730365e-002 -8.99969488e-002 -2.10514292e-001
      -7.45413527e-002 1.77393377e-001 2.60880385e-002 3.38390827e-001
      1.54632539e-001 2.33074769e-001 1.13996729e-001 1.93931252e-001
      -1.75860584e-001 1.03897285e-002 -1.41823828e-001 1.30561786e-002
      3.15338671e-001 1.18336640e-001 2.63080806e-001 2.60904253e-001
      2.07555145e-001</_>
    <_>
      -7.03223720e-002 1.27343005e-002 -1.85513422e-001 -3.75339866e-001
      -4.17116433e-002 -8.97313561e-003 -1.42289981e-001
      -7.42274746e-002 -3.57918330e-002 -1.82548329e-001 2.82098204e-001
      4.34614837e-001 -1.46221325e-001 4.48654294e-002 -1.64135605e-001
      -2.14526504e-001 -2.78128535e-001 -6.61104083e-001 6.50749981e-001
      6.72700405e-001 9.92955863e-002 -4.59328033e-002 -3.25725377e-002
      -1.03546031e-001 -4.19625014e-001 -5.16546249e-001 2.88952261e-001
      1.01038568e-001 3.70132625e-001 9.30542648e-002 -1.94177300e-001
      -4.22992446e-002 -1.47956043e-001 -4.17721361e-001
      -5.27796984e-001 1.01038568e-001 -1.26688048e-001 6.13757432e-001
      5.82882643e-001 -2.84766071e-002 1.39223859e-002 -1.79107741e-001
      -1.80751264e-001 -2.94334829e-001 -5.91041446e-001 2.81934869e-002
      2.40769863e-001 1.63121954e-001 -4.01496023e-001 2.40257755e-001
      -2.00405568e-002 -1.25756741e-001 -2.05396429e-001
      -1.88120201e-001 2.81934869e-002 5.80506511e-002 1.34510240e-002
      -1.55217931e-001 -2.45200917e-002 -4.68688309e-002
      -5.51181547e-002 -1.45797193e-001 1.43728415e-002 2.81934869e-002
      4.51607853e-001 1.05984092e-001 -3.64292622e-001 1.25302225e-001
      -1.45588472e-001 -3.75100449e-002 -2.22632051e-001 2.81934869e-002
      -1.73674047e-001 -2.40675379e-002 -2.79599857e-002
      -7.16391504e-002 5.09130538e-001 1.32007778e-001 1.95431188e-002
      -1.34347692e-001 -2.12073058e-001 6.42432645e-002 1.50160259e-003
      -1.05569484e-002 1.88596477e-003 2.48831347e-001 -7.97985643e-002
      -1.13488548e-001 -8.76115263e-002 -5.59718199e-002
      -4.85419482e-002 4.09019999e-002 -4.97698449e-002 -1.43812746e-001
      3.07621062e-001 -2.72827875e-002 8.87171552e-002 -8.13441072e-003
      -1.10195838e-001 -1.12820208e-001 -1.43799424e-001
      -1.76536992e-001 -3.59501749e-001 2.50705868e-001 8.93836692e-002
      3.64765137e-001 3.67153376e-001 1.77208900e-001</_>
    <_>
      3.96573618e-002 2.42795199e-001 -1.91901416e-001 -1.10389203e-001
      -1.07827030e-001 -2.14591194e-002 -1.07018854e-002 1.34355826e-002
      3.46256457e-002 -1.62413031e-001 9.46575850e-002 1.55266017e-001
      -4.07749340e-002 3.78532596e-002 -4.97745862e-003 -5.03057241e-002
      -9.10096914e-002 -4.37137246e-001 6.09530807e-001 6.04713202e-001
      -3.39396261e-002 -9.96666923e-002 -1.18875086e-001
      -2.28058636e-001 -2.98818558e-001 -3.71021807e-001 3.25680852e-001
      3.80077921e-002 4.10462052e-001 8.92946646e-002 -1.78285122e-001
      -1.26461372e-001 -2.14014769e-001 -4.55318689e-001
      -6.25203073e-001 3.80077921e-002 -1.95983157e-001 4.26350117e-001
      4.90790516e-001 1.11178800e-001 7.09337965e-002 1.03623578e-002
      -3.63187641e-002 -2.81501144e-001 -4.71315116e-001 3.18571061e-001
      5.69035888e-001 3.35807413e-001 -7.58278370e-002 2.74654832e-002
      -2.17981949e-001 -3.08997869e-001 -4.34014767e-001
      -1.72968701e-001 -3.34626064e-002 2.52475571e-002 1.66682988e-001
      -9.59648564e-003 4.65172157e-002 6.20344691e-002 1.62310526e-002
      -2.66723990e-001 -3.34626064e-002 -3.34626064e-002 2.48194382e-001
      1.44286275e-001 -2.76520550e-001 8.03176165e-002 -1.49572387e-001
      4.40474153e-002 5.13146259e-002 -3.34626064e-002 2.32600704e-001
      1.33293316e-001 4.02102880e-002 -1.95720017e-001 9.02960971e-002
      4.53106947e-002 -1.28088892e-001 -1.96496099e-001 -3.74659486e-002
      -3.01574655e-002 -9.73651037e-002 -7.59543404e-002
      -2.50177860e-001 1.24805793e-001 -2.40800455e-002 -2.54316442e-002
      -9.17387381e-002 -7.82084242e-002 3.85516174e-002 2.09738642e-001
      -3.35842408e-002 -2.85749644e-001 -1.64209250e-002
      -9.66060534e-002 3.71754961e-003 6.53770491e-002 8.49163067e-003
      -7.40404353e-002 -4.58217338e-002 -1.63766220e-001
      -2.70088583e-001 3.99345718e-002 -6.39717933e-003 3.97335999e-002
      8.73098448e-002 2.58445412e-001</_>
    <_>
      4.34761673e-001 -4.03263807e-001 -4.73763853e-001 -9.77716595e-002
      7.02664852e-001 -3.52039009e-001 -1.65287584e-001 -9.13198292e-002
      2.15836689e-001 8.41708779e-002 -6.34542882e-001 -4.06677216e-001
      -1.75427228e-001 3.18260521e-001 -4.88900691e-002 -2.35774159e-001
      7.03510791e-002 2.39121512e-001 4.37102377e-001 -1.79996714e-003
      2.04933807e-001 7.39478990e-002 6.59863889e-001 -3.04851741e-001
      -4.94081855e-001 -7.98415959e-001 -1.08422048e-001
      -1.52977034e-001 -4.23593163e-001 4.77130665e-003 -1.52764112e-001
      7.84689426e-001 3.19293588e-001 9.51624382e-003 2.22899467e-002
      -2.77681649e-001 -2.07588553e-001 -1.72415048e-001 1.06084600e-001
      3.83554935e-001 7.16419052e-003 1.88181505e-001 5.42208850e-002
      2.81958073e-001 -3.75093132e-001 -6.12786114e-001 1.02953397e-001
      3.62566233e-001 9.39403057e-001 3.63943368e-001 3.78474683e-001
      3.76706362e-001 1.71845242e-001 -4.08815265e-001 -1.64360449e-001
      -4.16669935e-001 -2.00907826e-001 6.80606961e-002 1.97937354e-001
      4.87682790e-001 1.06786221e-001 -9.20855254e-002 7.21245930e-002
      -1.27571002e-001 1.44010305e-001 6.82795718e-002 2.38302007e-001
      4.53944094e-002 6.72306716e-002 -1.16409868e-001 -1.56645283e-001
      -1.13791883e-001 -2.47978166e-001 1.97372526e-001 3.25520515e-001
      3.98680478e-001 1.42109782e-001 4.61073548e-001 3.02510917e-001
      -2.43678257e-001 -4.10629898e-001 8.92218724e-002 8.93726796e-002
      2.20921502e-001 1.56996056e-001 -4.99335751e-002 1.75185591e-001
      5.95859513e-002 -2.54172921e-001 -1.73009500e-001 -2.53993832e-002
      6.21716492e-002 3.75109404e-001 3.39808199e-003 -7.72389174e-002
      1.98093250e-001 1.53492885e-002 -4.56192903e-002 -9.00492966e-002
      -3.34742106e-002 7.46321771e-003 1.31225839e-001 1.15879141e-001
      -1.96737781e-001 2.46662907e-002 -1.14610910e-001 7.07676560e-002
      -7.82635659e-002</_>
    <_>
      2.61091858e-001 2.21103340e-001 2.32791632e-001 -1.25064507e-001
      -1.74934313e-001 -1.78105608e-001 3.78927886e-002 -9.94979963e-002
      -2.34895367e-002 1.34349599e-001 -1.96105495e-001 7.13830907e-003
      -1.15832485e-001 -1.98829234e-001 -2.05865711e-001 1.02361729e-002
      -1.83417976e-001 1.03476748e-001 -1.61435902e-001 -7.32330754e-002
      2.55574554e-001 7.45418519e-002 4.10464033e-003 4.95034456e-003
      6.19831160e-002 4.11804242e-004 -1.18755333e-001 -1.91520825e-002
      -3.05889606e-001 -3.02811489e-002 1.29238427e-001 2.48556539e-001
      8.32300484e-002 1.19735047e-001 1.13918506e-001 6.19315961e-003
      2.50848681e-002 -3.59379262e-001 -1.55183044e-003 7.62203112e-002
      1.45805057e-003 7.69534148e-003 6.56899884e-002 1.81109365e-002
      1.98701799e-001 -2.52151668e-001 -2.17656523e-001 1.52174503e-001
      2.18972206e-001 8.32020119e-002 9.01201814e-002 1.41407311e-001
      2.11438805e-001 2.37553537e-001 -2.33524814e-001 -4.34594601e-001
      -9.17736888e-002 9.39160958e-002 2.06090808e-001 1.32452145e-001
      1.66519955e-001 2.48102143e-001 2.70809412e-001 -1.33048818e-001
      -2.19925150e-001 3.92259918e-002 6.05133586e-002 9.94576588e-002
      1.30798906e-001 2.27532029e-001 3.26604009e-001 2.58104414e-001
      -2.93342799e-001 -2.38606229e-001 9.85093489e-002 1.38638273e-001
      4.90305647e-002 7.59862512e-002 1.47049099e-001 2.58032650e-001
      3.92952235e-003 -3.53869736e-001 -1.86427042e-001 -7.90624991e-002
      2.85152625e-002 6.72900900e-002 4.38913554e-002 2.26143718e-001
      1.60032898e-001 -1.73327506e-001 -1.12246133e-001 -5.63842431e-002
      5.02313487e-002 7.52942711e-002 3.38344797e-002 2.11695544e-002
      1.38744518e-001 2.12772742e-001 1.65621310e-001 -1.14005513e-001
      3.05683762e-002 1.33539876e-002 2.42627800e-001 1.67017654e-001
      5.50190872e-003 3.85447964e-002 1.43136874e-001 1.30844992e-002</_>
    <_>
      1.77674115e-001 -1.47467151e-001 4.00931351e-002 -2.53413439e-001
      4.54534709e-001 -6.60156906e-002 -1.64945379e-001 -1.46373838e-001
      2.49394365e-002 -2.39225794e-002 -2.53196985e-001 -1.65724516e-001
      -2.98850983e-001 3.94955099e-001 -8.41055065e-002 -1.67618841e-001
      -3.54537427e-001 -2.88039118e-001 3.33405495e-001 6.58605993e-002
      3.80038619e-001 1.69574976e-001 5.88541090e-001 -1.05313677e-002
      -2.79153317e-001 -6.13747776e-001 -2.48208433e-001
      -1.90129414e-001 -3.65177304e-001 2.37104386e-001 2.23906234e-001
      8.62593412e-001 3.44612211e-001 1.04809627e-001 1.16752952e-001
      -4.36966032e-001 7.32335001e-002 -9.64575633e-002 6.70745522e-002
      1.29267320e-001 2.90233530e-002 -5.51082231e-002 9.97668579e-002
      -2.51247674e-001 -3.81150603e-001 -4.36827719e-001
      -3.94401580e-001 8.62333700e-002 7.70885646e-002 1.93834379e-001
      1.26188278e-001 3.89794767e-001 1.82329923e-001 -1.19300410e-001
      -7.89104879e-001 -3.78199041e-001 -9.21242982e-002 5.63893914e-002
      2.93089837e-001 3.40722978e-001 5.49703717e-001 6.57365978e-001
      -1.95522606e-001 -2.30639577e-002 1.65708631e-001 1.63139835e-001
      -2.53428370e-001 1.48731293e-002 -1.03074960e-001 2.65323579e-001
      7.10051060e-002 4.01032064e-003 -4.16442811e-001 -3.39015365e-001
      4.49791104e-002 2.62279481e-001 1.06698520e-001 -2.21385225e-003
      3.62273872e-001 2.57932812e-001 -1.95657134e-001 -1.23437956e-001
      -1.29424378e-001 6.57458901e-002 2.27311373e-001 -6.43001590e-003
      -1.93700865e-002 2.73890913e-001 -1.20222867e-002 -2.57892072e-001
      1.10077430e-002 8.57105255e-002 1.85874060e-001 1.92211211e-001
      1.20435217e-002 -1.54882461e-001 7.12629259e-002 -2.42990687e-001
      -8.35435465e-003 -1.50065333e-001 -4.30294238e-002
      -2.75995713e-002 2.56099582e-001 1.12468638e-001 -5.37503958e-002
      1.10435359e-001 1.79299682e-001 -3.87471408e-001</_>
    <_>
      3.59664828e-001 1.98879123e-001 2.27106996e-002 -8.12169462e-002
      4.67982352e-001 4.21238318e-002 -4.79756109e-002 -9.92867425e-002
      1.23729274e-001 -1.02434225e-001 -2.49238044e-001 -3.68681848e-001
      -3.68016779e-001 1.79600671e-001 1.74017161e-001 -4.59492132e-002
      -2.57770449e-001 -1.98285609e-001 4.93724078e-001 1.40300930e-001
      3.86530221e-001 9.74496379e-002 3.52848381e-001 3.46354172e-002
      -2.66989231e-001 -4.13906246e-001 -7.68906549e-002
      -3.16280931e-001 -3.39070298e-002 2.92176753e-001 9.77818966e-002
      5.62872648e-001 3.79710227e-001 -1.15751080e-001 -2.99813449e-001
      -4.69593525e-001 -1.85182646e-001 -1.03907548e-001 1.72335163e-001
      3.70288163e-001 9.79122669e-002 1.41823828e-001 1.77085549e-001
      -3.66445512e-001 -4.98678625e-001 1.45330250e-001 2.43070990e-001
      4.21895355e-001 5.42201698e-001 2.85155941e-002 -2.00911641e-001
      -1.33017033e-001 -3.71160388e-001 -1.80772200e-001
      -8.62685621e-001 -3.64268810e-001 8.86927918e-002 2.45388389e-001
      3.53233635e-001 5.03358543e-001 5.90652347e-001 2.42365599e-001
      -2.36854613e-001 -1.00398637e-001 -3.95049714e-002 1.49360731e-001
      -5.84187284e-002 -1.46577423e-002 -1.92463294e-001 3.54868770e-001
      4.96880472e-001 -7.33243600e-002 3.41468185e-001 7.46349990e-002
      4.49132398e-002 1.07792057e-001 -2.18004689e-001 -1.78185731e-001
      -8.62705335e-003 1.45427966e-002 1.27396420e-001 -9.76552069e-002
      -1.39936402e-001 -9.32337269e-002 -3.14638726e-002
      -1.55749843e-001 2.04399601e-001 4.06223834e-001 -4.96629588e-002
      -3.13066423e-001 9.52509120e-002 3.12367052e-001 4.43375716e-003
      -1.16430312e-001 -2.79086888e-001 -3.16355407e-001 8.79497360e-003
      -1.31996840e-001 1.12497315e-001 1.22481519e-002 7.06835017e-002
      -8.07070285e-002 7.59405494e-002 -2.00863302e-001 -1.75361603e-001
      -1.11106783e-001 -2.41201729e-001 -2.93367922e-001</_>
    <_>
      6.47409856e-002 3.19780231e-001 2.57821947e-001 -7.45814964e-002
      -2.41905898e-001 -2.06950635e-001 2.13746354e-002 -8.51384252e-002
      -9.12462175e-002 9.87007543e-002 -2.64224410e-002 2.27993608e-001
      -3.32124494e-002 -3.78935546e-001 -1.85120121e-001 1.19135184e-002
      -2.13025168e-001 5.10431081e-002 -2.64557719e-001 -2.45675538e-002
      2.22291499e-001 6.45402297e-002 -1.13021560e-001 -5.36310449e-002
      1.25727400e-001 8.29428658e-002 -1.19976297e-001 -2.79665329e-002
      -6.89946562e-002 1.03178382e-001 1.39158517e-001 -4.49798144e-002
      1.79031283e-001 9.91197228e-002 1.06742211e-001 7.65809864e-002
      5.86343370e-002 -2.78092355e-001 4.19449471e-002 -1.06668295e-002
      -6.11135848e-002 9.69064608e-003 3.86299379e-002 -5.45459576e-002
      3.41047585e-001 -9.71497595e-002 -4.59050357e-001 6.04299977e-002
      9.49665066e-003 8.32510274e-003 4.49723676e-002 6.82032034e-002
      1.07451558e-001 3.94695491e-001 -1.90340817e-001 -2.13963553e-001
      6.29421249e-002 2.19845623e-002 2.63341460e-002 1.12964243e-001
      1.45459875e-001 1.72814995e-001 3.62415493e-001 -1.06873140e-001
      -3.54966819e-001 5.21356650e-002 4.72680782e-004 7.03024492e-002
      1.04815155e-001 2.58275181e-001 4.15234149e-001 3.12511504e-001
      -1.38506711e-001 -4.34436411e-001 5.33230044e-003 3.84523310e-002
      5.11418656e-003 1.10114533e-002 5.57462238e-002 3.54890287e-001
      1.09346710e-001 -3.80048960e-001 -2.68553942e-001 -1.80693641e-001
      -3.77621269e-003 1.35507751e-002 -8.96902829e-002 2.69661218e-001
      3.20571393e-001 -1.53182790e-001 -1.16543733e-001 -1.92613661e-001
      -2.00652145e-002 8.93099532e-002 3.47504877e-002 -2.63230428e-002
      7.75889382e-002 2.93541610e-001 1.58927768e-001 -1.15920082e-001
      3.68126407e-002 -5.15207164e-002 2.01969653e-001 1.73244506e-001
      -6.15987256e-002 1.14273570e-001 2.36041352e-001 5.50936796e-002</_>
    <_>
      -1.74416915e-001 1.02375314e-001 2.79701650e-001 -2.57395118e-001
      -1.35711685e-001 1.62647620e-001 -2.42092475e-001 -1.07371323e-001
      -2.42935255e-001 -1.58813491e-001 3.10388327e-001 5.21034718e-001
      -1.89944595e-001 2.04488724e-001 -5.30187264e-002 -1.81026831e-001
      -6.74029827e-001 -8.07023644e-001 5.76666370e-002 2.59145111e-001
      6.65932059e-001 -1.24266753e-002 2.62106150e-001 2.83974320e-001
      -3.34416851e-002 -2.20152318e-001 -1.68312177e-001
      -1.81972101e-001 5.30598819e-001 7.29051352e-001 2.80114442e-001
      1.88779473e-001 4.34296668e-001 -1.41522944e-001 1.57626301e-001
      -3.39982212e-001 4.06285763e-001 3.19536746e-001 7.46709630e-002
      -2.63276935e-001 -5.35135856e-003 -2.26694018e-001
      -1.14968836e-001 -8.83796990e-001 -1.29032642e-001 1.29374504e-001
      -1.27499223e+000 -2.93329835e-001 -9.80740011e-001
      -7.74712786e-002 -2.06012875e-001 7.02524111e-002 1.43646598e-002
      2.04058424e-001 -9.15905476e-001 3.81221235e-001 1.42061085e-001
      -1.46078974e-001 1.37703404e-001 1.35175467e-001 5.48772037e-001
      1.09877074e+000 -3.06170464e-001 1.28935933e-001 1.32217780e-001
      2.61476815e-001 -7.88032353e-001 7.70268589e-002 -1.48898020e-001
      4.16765958e-001 3.97438645e-001 1.29374504e-001 -1.44864082e-001
      -1.09229362e+000 -3.25293571e-001 -1.06859118e-001 5.43424487e-002
      -4.73735005e-001 1.76780909e-001 8.47708225e-001 1.08357638e-001
      -3.81794810e-001 -3.29052806e-001 -1.60540119e-001 4.69306670e-002
      -6.80134371e-002 -4.53495532e-001 5.25184155e-001 3.82526338e-001
      -1.16068430e-001 1.08357638e-001 -1.45918399e-001 -7.54784495e-002
      1.38176143e-001 1.92370594e-001 -4.22574639e-001 8.03853385e-003
      -2.03277141e-001 1.08357638e-001 -1.99655563e-001 -2.84673780e-001
      -4.09286231e-001 -5.94411381e-002 4.51699525e-001 -1.45221755e-001
      4.84278738e-001 3.20747614e-001 -4.51152146e-001</_>
    <_>
      -1.02032349e-002 2.44326875e-001 1.86407357e-001 1.22725025e-001
      -7.76305236e-003 2.10261956e-001 1.25842327e-002 6.05585985e-002
      -4.07058932e-002 -1.80120766e-001 -7.42555112e-002 1.26849338e-001
      -1.08846910e-001 6.92207292e-002 1.69208720e-001 1.28185958e-001
      -1.92317277e-001 -5.20311713e-001 2.63090014e-001 1.46472707e-001
      3.93757015e-001 3.38778533e-002 3.86221595e-002 2.19962284e-001
      3.04275542e-001 -1.34139702e-001 3.41722429e-001 -2.13400871e-001
      2.45902285e-001 7.19654560e-001 1.16948307e-001 -1.09334253e-001
      6.15129620e-002 -3.20227236e-001 -5.23862958e-001 -2.35917062e-001
      -1.10550961e-002 5.98735921e-002 2.55858153e-001 3.55526954e-002
      8.84236768e-002 1.26501411e-001 1.46206260e-001 -6.36188626e-001
      -3.08478564e-001 8.31043005e-001 1.98252738e-001 1.79958135e-001
      -1.99766099e-001 -3.13340873e-001 -6.08648896e-001
      -6.05572283e-001 -8.13169897e-001 1.84273720e-002 -7.05073655e-001
      -2.49930192e-002 5.36661208e-001 8.60654414e-002 1.76813558e-001
      2.98808843e-001 5.51226676e-001 1.89841732e-001 -2.62803257e-001
      7.57440506e-003 -8.99464116e-002 2.14742035e-001 -4.53499973e-001
      -5.67713715e-002 -3.34051967e-001 5.78007638e-001 7.51795709e-001
      7.76030915e-003 8.31011593e-001 -2.33384117e-001 -4.28886443e-001
      -3.00532848e-001 -3.74924511e-001 -5.53724468e-001
      -3.76873702e-001 1.82802767e-001 3.73320699e-001 -3.70713741e-001
      -4.74901438e-001 -3.67550522e-001 -7.58794025e-002 2.13561170e-002
      -6.05655909e-002 6.14143908e-001 3.19469571e-001 -1.88194439e-001
      1.60113141e-001 1.95546806e-001 -2.81396568e-001 -2.93172061e-001
      -3.91812325e-001 -5.84409595e-001 -7.75360242e-002
      -1.05747022e-001 2.43978575e-001 3.61528918e-002 -1.46076337e-001
      -3.01577628e-001 8.80441964e-002 1.63567245e-001 -2.62746811e-001
      8.56606066e-002 -3.25444043e-001 -1.71776593e-001</_>
    <_>
      -1.73216030e-001 -3.20624262e-001 -1.47499666e-001 2.58032922e-002
      2.62627900e-001 2.24288851e-001 -1.01679936e-001 4.98722196e-002
      3.28243375e-002 -1.88835770e-001 1.79087788e-001 2.18676832e-002
      -3.48753333e-002 3.89843434e-001 1.73377529e-001 -9.35688540e-002
      4.32315916e-002 -2.11241901e-001 3.22433591e-001 1.73023686e-001
      -5.26857078e-002 1.21233407e-002 2.78383225e-001 1.10674801e-003
      -3.09056938e-001 -2.66126841e-001 -1.43947536e-002
      -1.84531056e-003 2.01862648e-001 9.74280611e-002 -1.37257263e-001
      1.00454524e-001 -6.90307841e-002 -2.01485068e-001 -1.79037899e-001
      -1.38727039e-001 2.17205267e-002 4.68186885e-001 3.82615477e-002
      -9.40905958e-002 7.45090377e-003 -1.22032963e-001 -9.12689567e-002
      -1.29672632e-001 -3.49199176e-001 1.26438275e-001 2.07238615e-001
      -1.38362199e-001 -2.40497217e-001 -4.82840836e-002
      -1.11966662e-001 -1.35257736e-001 -1.30173624e-001
      -3.92477959e-001 1.22511990e-001 3.62628967e-001 8.15525651e-002
      -1.10725261e-001 9.75384284e-003 -7.11206272e-002 -9.53306183e-002
      -1.73326463e-001 -3.94131303e-001 1.26438275e-001 4.13960457e-001
      3.48836109e-002 -1.63090780e-001 7.03878282e-003 -7.32504874e-002
      -2.13651299e-001 -4.64526981e-001 -3.63115162e-001 1.41266093e-001
      2.27488354e-001 -1.19833075e-001 -7.89390504e-002 -1.54836895e-002
      -1.79360479e-001 -1.19550884e-001 -2.21794859e-001
      -1.27829790e-001 4.54502791e-001 2.10414082e-001 5.40493876e-002
      -2.25042347e-002 -1.13850839e-001 -1.64766610e-001
      -1.16283223e-001 -1.81685194e-001 2.30707154e-001 1.32809624e-001
      2.99292989e-002 -4.38528806e-002 -2.52213888e-002 1.81085821e-002
      -9.41820592e-002 -1.10650077e-001 -2.59002984e-001
      -2.19590768e-001 1.62988544e-001 -1.81850299e-001 -1.18710391e-001
      -2.12019697e-001 -9.03635323e-002 -8.85646194e-002
      -1.92845473e-003 6.68187439e-002 2.76350826e-002</_>
    <_>
      -2.92567257e-002 -1.41966641e-001 -1.93944141e-001 2.20345873e-002
      2.79907823e-001 2.01905459e-001 -1.00904353e-001 6.29146993e-002
      6.85607269e-002 -1.72442794e-001 1.01382658e-001 -7.00593144e-002
      -2.34758053e-002 2.94287950e-001 2.30535761e-001 -1.03653699e-001
      7.28913620e-002 -1.67571321e-001 3.05570155e-001 1.30197510e-001
      -6.48884699e-002 1.65325515e-002 2.20175758e-001 -3.21701309e-003
      -2.19026208e-001 -1.98884547e-001 5.54843321e-002 -2.09023692e-002
      2.99563408e-001 1.22285239e-001 -7.37824440e-002 5.31055555e-002
      -6.49231151e-002 -3.27307582e-001 -2.71054804e-001
      -1.29995778e-001 -1.10862516e-001 3.50029528e-001 7.18619153e-002
      5.76574914e-003 4.96701188e-002 -1.56534165e-002 -8.77766460e-002
      -1.45065546e-001 -3.48101825e-001 2.44827747e-001 3.94258082e-001
      -5.76683059e-002 -8.80550295e-002 -8.60557184e-002
      -2.14006826e-001 -2.50354677e-001 -3.07130903e-001
      -3.20869714e-001 6.22709207e-002 3.55552703e-001 1.35805234e-001
      -1.12507232e-002 4.26465087e-002 1.22605124e-002 -8.43808576e-002
      -1.87123448e-001 -3.49837869e-001 6.54208437e-002 2.96201169e-001
      2.68506724e-002 -7.83037096e-002 -2.18698126e-003 -9.01962370e-002
      -9.71683413e-002 -9.75542441e-002 -3.26986015e-001 2.70174116e-001
      2.83162326e-001 -1.75836518e-001 -1.04068018e-001 -1.07638329e-001
      -1.97739676e-001 -1.68916032e-001 -2.14572236e-001
      -3.84447463e-002 2.78807193e-001 8.89115483e-002 -4.33945656e-002
      -6.89415112e-002 -1.41888589e-001 -8.74889418e-002
      -7.34713376e-002 -1.21665329e-001 1.19878493e-001 1.27902359e-001
      2.84808557e-002 -7.41658136e-002 -6.26277998e-002 -3.79062966e-002
      -1.15616299e-001 -8.09540823e-002 -7.53670707e-002
      -1.32250085e-001 1.34707257e-001 -1.04026839e-001 -1.07874908e-001
      -1.16688669e-001 -1.27711400e-001 -7.40485638e-002
      -3.45718637e-002 -2.89167706e-002 2.76001897e-002</_>
    <_>
      3.26764524e-001 4.31362927e-001 -1.18784122e-001 2.75527984e-001
      3.73737961e-002 5.43806106e-002 -2.62905174e-004 9.49840099e-002
      1.94789544e-001 -1.20433614e-001 -2.86889791e-001 -3.13313186e-001
      2.15697754e-002 -1.32116690e-001 2.29417950e-001 9.72997919e-002
      2.34264761e-001 3.03206034e-002 3.18279594e-001 2.31907447e-003
      1.38779124e-002 7.71857202e-002 -8.56037512e-002 -1.49600059e-001
      2.59691477e-001 2.22118333e-001 3.45266461e-001 -1.20433614e-001
      2.46626139e-001 3.00257802e-001 1.20135479e-001 -2.51196235e-001
      -2.78060883e-001 -4.59137708e-001 -6.02907121e-001
      -1.20433614e-001 -4.99272436e-001 -1.95888042e-001 2.73030579e-001
      3.34370792e-001 1.46802977e-001 3.39259207e-001 2.20342219e-001
      -1.04934976e-001 -3.30163956e-001 8.46055686e-001 1.14036465e+000
      5.52212834e-001 5.44140518e-001 -2.96113908e-001 -6.19125068e-001
      -7.78886497e-001 -1.10393083e+000 -8.53268132e-002
      -1.61956519e-001 -1.12415209e-001 5.61599493e-001 3.57215852e-001
      1.57400697e-001 3.00060540e-001 1.42759413e-001 -5.88886917e-001
      -1.61956519e-001 -1.61956519e-001 -3.01975548e-001 1.52585238e-001
      2.33211055e-001 -2.80177146e-002 -1.44194767e-001 4.94348496e-001
      9.50101554e-001 -1.61956519e-001 1.06169856e+000 5.31942964e-001
      -3.12481225e-001 -3.75421792e-001 -5.13629794e-001
      -3.51994336e-001 -5.38751781e-001 -4.31443721e-001 3.60700309e-001
      -2.05158591e-001 -3.68194401e-001 -4.41181600e-001
      -4.82475281e-001 -8.62278193e-002 2.57981807e-001 3.17778200e-001
      2.94262260e-001 -1.85149461e-001 9.59846526e-002 1.22966118e-001
      -2.44430289e-001 -3.13571513e-001 -3.63474697e-001
      -2.52757430e-001 1.19068235e-001 3.21291983e-001 1.76522404e-001
      3.01576257e-002 5.49093075e-002 -9.10556968e-003 -2.73290258e-002
      -2.48911425e-001 -6.27615256e-003 -1.62166893e-001
      -5.46560943e-001 1.50418669e-001</_></support_vectors>
  <decision_functions>
    <_>
      <sv_count>1</sv_count>
      <rho>3.6088302017238803e-002</rho>
      <alpha>
        1.</alpha>
      <index>
        0</index></_>
    <_>
      <sv_count>1</sv_count>
      <rho>1.0440045513098201e-001</rho>
      <alpha>
        1.</alpha>
      <index>
        1</index></_>
    <_>
      <sv_count>1</sv_count>
      <rho>5.4061398418275987e-002</rho>
      <alpha>
        1.</alpha>
      <index>
        2</index></_>
    <_>
      <sv_count>1</sv_count>
      <rho>4.3264640106010797e-002</rho>
      <alpha>
        1.</alpha>
      <index>
        3</index></_>
    <_>
      <sv_count>1</sv_count>
      <rho>1.1700071199304546e-001</rho>
      <alpha>
        1.</alpha>
      <index>
        4</index></_>
    <_>
      <sv_count>1</sv_count>
      <rho>1.3828116350896147e-001</rho>
      <alpha>
        1.</alpha>
      <index>
        5</index></_>
    <_>
      <sv_count>1</sv_count>
      <rho>1.0988738743413299e-002</rho>
      <alpha>
        1.</alpha>
      <index>
        6</index></_>
    <_>
      <sv_count>1</sv_count>
      <rho>2.5924350095739329e-001</rho>
      <alpha>
        1.</alpha>
      <index>
        7</index></_>
    <_>
      <sv_count>1</sv_count>
      <rho>6.8334189480389065e-002</rho>
      <alpha>
        1.</alpha>
      <index>
        8</index></_>
    <_>
      <sv_count>1</sv_count>
      <rho>4.5592502430725330e-002</rho>
      <alpha>
        1.</alpha>
      <index>
        9</index></_>
    <_>
      <sv_count>1</sv_count>
      <rho>-8.5751984050205232e-002</rho>
      <alpha>
        1.</alpha>
      <index>
        10</index></_>
    <_>
      <sv_count>1</sv_count>
      <rho>1.1906090244821772e-001</rho>
      <alpha>
        1.</alpha>
      <index>
        11</index></_>
    <_>
      <sv_count>1</sv_count>
      <rho>9.4643231915983977e-002</rho>
      <alpha>
        1.</alpha>
      <index>
        12</index></_>
    <_>
      <sv_count>1</sv_count>
      <rho>-1.3244352660424766e-001</rho>
      <alpha>
        1.</alpha>
      <index>
        13</index></_>
    <_>
      <sv_count>1</sv_count>
      <rho>-3.4486888808478867e-002</rho>
      <alpha>
        1.</alpha>
      <index>
        14</index></_>
    <_>
      <sv_count>1</sv_count>
      <rho>8.9293905077499125e-002</rho>
      <alpha>
        1.</alpha>
      <index>
        15</index></_>
    <_>
      <sv_count>1</sv_count>
      <rho>8.2120391017551555e-003</rho>
      <alpha>
        1.</alpha>
      <index>
        16</index></_>
    <_>
      <sv_count>1</sv_count>
      <rho>-4.4417665850138861e-003</rho>
      <alpha>
        1.</alpha>
      <index>
        17</index></_>
    <_>
      <sv_count>1</sv_count>
      <rho>-8.6862598256375073e-002</rho>
      <alpha>
        1.</alpha>
      <index>
        18</index></_>
    <_>
      <sv_count>1</sv_count>
      <rho>1.3069978653219369e-001</rho>
      <alpha>
        1.</alpha>
      <index>
        19</index></_>
    <_>
      <sv_count>1</sv_count>
      <rho>-3.4398598291222965e-002</rho>
      <alpha>
        1.</alpha>
      <index>
        20</index></_>
    <_>
      <sv_count>1</sv_count>
      <rho>-1.2811702681277884e-001</rho>
      <alpha>
        1.</alpha>
      <index>
        21</index></_>
    <_>
      <sv_count>1</sv_count>
      <rho>1.8474961387000045e-003</rho>
      <alpha>
        1.</alpha>
      <index>
        22</index></_>
    <_>
      <sv_count>1</sv_count>
      <rho>-5.6578631569299612e-003</rho>
      <alpha>
        1.</alpha>
      <index>
        23</index></_>
    <_>
      <sv_count>1</sv_count>
      <rho>1.9687765222060949e-002</rho>
      <alpha>
        1.</alpha>
      <index>
        24</index></_>
    <_>
      <sv_count>1</sv_count>
      <rho>-2.6442693228670825e-002</rho>
      <alpha>
        1.</alpha>
      <index>
        25</index></_>
    <_>
      <sv_count>1</sv_count>
      <rho>9.7717692115675964e-002</rho>
      <alpha>
        1.</alpha>
      <index>
        26</index></_>
    <_>
      <sv_count>1</sv_count>
      <rho>-9.6640795497328874e-002</rho>
      <alpha>
        1.</alpha>
      <index>
        27</index></_>
    <_>
      <sv_count>1</sv_count>
      <rho>3.9257161571828861e-002</rho>
      <alpha>
        1.</alpha>
      <index>
        28</index></_>
    <_>
      <sv_count>1</sv_count>
      <rho>-4.2953352462621074e-002</rho>
      <alpha>
        1.</alpha>
      <index>
        29</index></_>
    <_>
      <sv_count>1</sv_count>
      <rho>6.9647813753335647e-002</rho>
      <alpha>
        1.</alpha>
      <index>
        30</index></_>
    <_>
      <sv_count>1</sv_count>
      <rho>-5.9750337265190127e-002</rho>
      <alpha>
        1.</alpha>
      <index>
        31</index></_>
    <_>
      <sv_count>1</sv_count>
      <rho>-8.5481680064003640e-002</rho>
      <alpha>
        1.</alpha>
      <index>
        32</index></_>
    <_>
      <sv_count>1</sv_count>
      <rho>2.3240241630911918e-002</rho>
      <alpha>
        1.</alpha>
      <index>
        33</index></_>
    <_>
      <sv_count>1</sv_count>
      <rho>-3.3204025459520808e-002</rho>
      <alpha>
        1.</alpha>
      <index>
        34</index></_>
    <_>
      <sv_count>1</sv_count>
      <rho>-7.7546586544608206e-002</rho>
      <alpha>
        1.</alpha>
      <index>
        35</index></_>
    <_>
      <sv_count>1</sv_count>
      <rho>-1.2075202774252303e-001</rho>
      <alpha>
        1.</alpha>
      <index>
        36</index></_>
    <_>
      <sv_count>1</sv_count>
      <rho>4.8552250975743221e-002</rho>
      <alpha>
        1.</alpha>
      <index>
        37</index></_>
    <_>
      <sv_count>1</sv_count>
      <rho>-3.3926766590849811e-002</rho>
      <alpha>
        1.</alpha>
      <index>
        38</index></_>
    <_>
      <sv_count>1</sv_count>
      <rho>-8.3764959144209131e-002</rho>
      <alpha>
        1.</alpha>
      <index>
        39</index></_>
    <_>
      <sv_count>1</sv_count>
      <rho>5.1259631807767131e-002</rho>
      <alpha>
        1.</alpha>
      <index>
        40</index></_>
    <_>
      <sv_count>1</sv_count>
      <rho>-1.0977001221416213e-001</rho>
      <alpha>
        1.</alpha>
      <index>
        41</index></_>
    <_>
      <sv_count>1</sv_count>
      <rho>1.1955675189975143e-001</rho>
      <alpha>
        1.</alpha>
      <index>
        42</index></_>
    <_>
      <sv_count>1</sv_count>
      <rho>8.6451261626277864e-002</rho>
      <alpha>
        1.</alpha>
      <index>
        43</index></_>
    <_>
      <sv_count>1</sv_count>
      <rho>-2.0696433233365855e-001</rho>
      <alpha>
        1.</alpha>
      <index>
        44</index></_></decision_functions></my_svm>
</opencv_storage>
