<?xml version="1.0"?>
<opencv_storage>
<my_svm type_id="opencv-ml-svm">
  <svm_type>C_SVC</svm_type>
  <kernel><type>LINEAR</type></kernel>
  <C>1.</C>
  <term_criteria><epsilon>9.9999999747524271e-007</epsilon>
    <iterations>1000000</iterations></term_criteria>
  <var_all>108</var_all>
  <var_count>108</var_count>
  <class_count>11</class_count>
  <class_labels type_id="opencv-matrix">
    <rows>1</rows>
    <cols>11</cols>
    <dt>i</dt>
    <data>
      -1 0 1 2 3 4 5 6 7 8 9</data></class_labels>
  <sv_total>55</sv_total>
  <support_vectors>
    <_>
      1.76794186e-001 -5.15469313e-001 -2.47281894e-001 -1.46916747e-001
      2.52915561e-001 1.00193374e-001 1.28692582e-001 7.21056163e-002
      3.49491179e-001 -1.74346879e-001 -3.93572122e-001 4.03368697e-002
      -8.26984867e-002 2.00223759e-001 4.49917875e-002 1.37216344e-001
      -1.12651577e-002 1.13541618e-001 9.69796106e-002 -5.39540611e-002
      -2.49637999e-002 -1.30504474e-001 1.48367256e-001 1.01233155e-001
      -6.96611255e-002 -5.55517197e-001 -7.75730386e-002
      -2.67692238e-001 8.16851482e-002 1.41405299e-001 -8.26116428e-002
      1.85976699e-001 1.03395320e-001 -1.01985849e-001 -2.65426189e-001
      6.01487309e-002 -3.47314060e-001 -4.12285980e-003 1.66885316e-001
      9.05478150e-002 2.35780984e-001 1.52139843e-003 -1.31640416e-002
      2.12582387e-002 -3.68947297e-001 -3.94839831e-002 5.71303546e-001
      3.64556700e-001 1.06467314e-001 3.46056610e-001 -3.61774340e-002
      -1.08973540e-001 -1.47606388e-001 -4.36408132e-001
      -4.64733690e-001 9.84973833e-002 2.77861714e-001 6.20925762e-002
      1.01364806e-001 6.90728379e-003 -4.06187363e-002 -1.94719315e-001
      -4.15594816e-001 1.84025262e-002 9.39144269e-002 3.83109957e-001
      2.01685086e-001 3.95254433e-001 6.49529919e-002 2.88147666e-003
      -3.68406735e-002 -2.51930237e-001 -2.30071634e-001 4.25591856e-001
      1.75016850e-001 9.81055796e-002 1.63580641e-001 -1.56385496e-001
      -3.86817992e-001 -4.38358158e-001 -5.61828494e-001 2.60343909e-001
      3.27035397e-001 1.56557500e-001 8.57094452e-002 1.58573426e-002
      -1.46300912e-001 -3.75514030e-001 -4.92221445e-001
      -1.02806874e-001 -1.81760773e-001 -4.23714817e-001
      -2.14796811e-001 1.72488809e-001 3.66666079e-001 4.49457169e-002
      3.70733999e-003 -2.11439766e-002 -2.51933262e-002 1.54584154e-001
      -2.20708072e-001 -2.30880171e-001 1.84615236e-002 2.15498611e-001
      7.93013796e-002 1.42355099e-001 1.04817614e-001 3.35280091e-001</_>
    <_>
      2.51590848e-001 -5.30033171e-001 -4.92711782e-001 -2.12513283e-001
      3.54761779e-001 8.37446973e-002 3.05247813e-001 4.39255446e-001
      4.59167123e-001 -1.49710760e-001 -5.86697996e-001 -3.13994706e-001
      -1.03030361e-001 9.51203257e-002 -1.31590173e-001 -7.39126652e-002
      1.08435318e-001 1.14829473e-001 -2.32366860e-001 -7.34872103e-001
      -6.04044855e-001 -2.96533704e-001 3.17133546e-001 3.23990226e-001
      3.32456738e-001 3.48344743e-001 2.32266441e-001 -1.86487865e-002
      -1.30606920e-001 -1.24896847e-001 -1.33045107e-001 9.77537706e-002
      -4.37168747e-001 -2.33813763e-001 1.32254556e-001 -1.47641718e-001
      -3.63655448e-001 -1.96714416e-001 1.67884991e-001 -1.70798507e-002
      7.79680908e-002 -3.90296392e-002 -3.44613552e-001 -1.65982127e-001
      -2.51125813e-001 -1.53565523e-003 4.89853650e-001 4.72047061e-001
      6.64583147e-002 2.99443662e-001 -2.84805268e-001 -3.62390697e-001
      -1.51104450e-001 -2.88264394e-001 -7.78206527e-001 2.68982381e-001
      5.09929121e-001 1.63012259e-002 1.00628175e-001 -3.05566132e-001
      -3.25385749e-001 -1.93544567e-001 -8.67162883e-001
      -2.58114517e-001 1.93452477e-001 7.37583518e-001 4.69263017e-001
      6.17314458e-001 -1.33567248e-002 -8.62297118e-002 -6.64305314e-002
      -5.47124267e-001 -3.24639648e-001 1.84663653e-001 4.12170053e-001
      -1.42585849e-002 2.42190287e-001 -2.89536774e-001 -1.46835595e-001
      -1.71819597e-001 -2.72086799e-001 2.29412615e-002 1.13866501e-001
      2.67531335e-001 2.50788122e-001 2.06525013e-001 -3.75698432e-002
      -1.59967497e-001 -1.17503099e-001 7.01492429e-002 -3.36977124e-001
      4.66672666e-002 4.03238088e-001 1.93119735e-001 2.59549916e-001
      2.89532430e-002 -6.20897189e-002 -4.33152467e-001 -5.46166062e-001
      -1.65982202e-001 2.02438354e-001 1.70217127e-001 -2.11286366e-001
      -1.82499424e-001 -3.61721247e-001 -3.84547830e-001
      -4.19286311e-001 -3.78580868e-001</_>
    <_>
      2.73122430e-001 -6.76559329e-001 -4.49453652e-001 -3.34456056e-001
      7.00915515e-001 3.20145860e-002 1.65740117e-001 2.03797787e-001
      4.19332951e-001 -4.32574540e-001 -2.89146423e-001 -1.31607145e-001
      1.00533590e-001 4.38204020e-001 6.35483786e-002 -2.48477072e-001
      -1.78380251e-001 -5.91081902e-002 5.58779955e-001 5.27260542e-001
      4.75224286e-001 -1.72319293e-001 4.00649965e-001 -6.02784380e-002
      -5.89350522e-001 -1.07070231e+000 -2.81543314e-001
      -5.68152666e-001 -2.64484495e-001 3.02989870e-001 1.50652751e-001
      4.92035776e-001 3.96271050e-001 -3.96290004e-001 -7.10325480e-001
      2.25043431e-001 1.45946607e-001 -1.45007804e-001 -6.11824095e-001
      4.08261567e-001 4.64121550e-001 1.85359001e-001 -8.07081759e-002
      -9.03792158e-002 -3.94800715e-002 5.91846071e-002 -8.32652971e-002
      -5.07582605e-001 2.26593956e-001 6.26648903e-001 1.87813684e-001
      2.36089855e-001 1.85533538e-001 3.19460094e-001 -6.07181549e-001
      -8.72408509e-001 -7.96786189e-001 2.20568344e-001 3.01487595e-001
      2.93531269e-001 1.23243786e-001 9.17018652e-002 8.30573738e-002
      5.34910671e-002 -3.38719368e-001 -6.02851331e-001 3.17152031e-002
      2.01604322e-001 -1.35005444e-001 1.42562300e-001 2.72121459e-001
      6.60120547e-001 -7.71497011e-001 3.90968323e-002 -2.63111144e-001
      1.94444448e-001 3.68211269e-001 6.98758662e-002 1.83696002e-001
      1.06611475e-001 -9.25577730e-002 -2.36825004e-001 2.41747126e-001
      3.14593643e-001 -4.60009724e-002 -1.17637277e-001 -6.15245290e-002
      -1.84260923e-002 -2.01012552e-001 -2.46495008e-001
      -3.67186725e-001 -5.35673618e-001 -3.27427328e-001
      -5.93910329e-002 -1.87402710e-001 -3.54648411e-001
      -7.70369992e-002 4.92819250e-002 2.72470415e-001 -1.56778209e-002
      -6.49396912e-004 8.26152489e-002 -4.05848891e-001 -5.70323944e-001
      -4.21401896e-002 1.35071188e-001 -1.75015945e-002 2.51079082e-001</_>
    <_>
      -1.18528165e-001 -1.80006698e-001 -2.97340125e-001
      -3.27857196e-001 4.67920542e-001 1.01438090e-001 1.90968886e-001
      2.38264963e-001 3.88841182e-001 -3.67408097e-001 -3.11640531e-001
      -2.25446701e-001 -8.86849388e-002 6.23410940e-002 -2.62358040e-002
      1.50295626e-002 1.85645968e-001 2.37068176e-001 -4.01243102e-003
      2.31679916e-001 9.82709825e-002 -9.16958153e-002 1.95920169e-001
      1.31217539e-001 -2.28245825e-001 -3.76859039e-001 -4.70930971e-002
      -3.64632934e-001 -3.10652584e-001 1.83498319e-002 -3.96847650e-002
      2.87363052e-001 1.85207278e-001 -1.33675933e-001 -2.08303466e-001
      -1.66157201e-001 -2.80832320e-001 -5.44617176e-002
      -1.32877573e-001 2.45979160e-001 1.94050655e-001 3.56052294e-002
      -1.94708899e-001 -1.01658933e-001 -1.61328107e-001 1.50805488e-001
      5.26285946e-001 1.99375793e-001 2.26123855e-002 1.90266117e-001
      -1.44759655e-001 -3.84127408e-001 -3.15490037e-001
      -1.56198889e-001 -4.20005172e-001 -3.90747011e-001 1.28939360e-001
      1.30965531e-001 2.32834935e-001 1.61172092e-001 -3.84129316e-001
      -2.10230857e-001 -3.25846702e-001 -1.22302227e-001 1.85150817e-001
      3.37061822e-001 1.99964717e-001 4.38097030e-001 9.43216905e-002
      -5.71683288e-001 -6.11123621e-001 -8.54354575e-002
      -2.89616257e-001 3.76205176e-001 1.91334218e-001 -7.52282590e-002
      2.55066633e-001 -2.25371569e-001 -4.59656715e-001 -5.53828120e-001
      -2.28538245e-001 8.49041790e-002 2.79352158e-001 2.66122431e-001
      2.21018597e-001 3.24724287e-001 -1.74141720e-001 -4.99498874e-001
      -6.35632992e-001 -8.28280970e-002 -2.83723533e-001
      -3.42944115e-001 -2.61236072e-001 -6.58916533e-002 4.31220412e-001
      1.10545203e-001 -2.36462742e-001 -3.06376189e-001 -2.24593543e-002
      1.35056004e-002 -1.24793947e-001 -6.68884367e-002 -1.87567666e-001
      2.15444714e-001 6.71585575e-002 4.22004424e-002 5.79781272e-002
      3.97358537e-001</_>
    <_>
      1.10321157e-001 -5.76778829e-001 -3.31522673e-001 1.88334635e-003
      4.48899776e-001 -5.67710632e-003 2.07784399e-001 3.41808796e-001
      3.83924812e-001 -5.00534773e-002 -5.43089151e-001 -4.60927188e-001
      -8.43886808e-002 3.57129037e-001 -2.38411158e-001 2.47475505e-003
      1.49693847e-001 2.19759941e-001 -4.71079558e-001 -6.81699216e-001
      -2.78624713e-001 -1.91299677e-001 2.26062477e-001 2.47633439e-002
      3.45545799e-001 1.88472390e-001 -4.13833968e-002 -3.82797033e-001
      -2.88410068e-001 -1.83507409e-002 -4.32703979e-002 1.42753720e-001
      -3.61079395e-001 -2.85466984e-002 9.78682935e-002 -2.76883543e-001
      -2.78912485e-001 -3.99178833e-001 -2.31097251e-001 1.48856342e-001
      3.49833608e-001 -5.84339537e-002 -4.53961939e-002 4.03445400e-002
      -1.97555810e-001 -1.04786702e-001 1.88537806e-001 2.94028670e-001
      2.01901823e-001 9.68647301e-002 -2.92821735e-001 8.73267874e-002
      -9.27016661e-002 -7.21059680e-001 -6.75182104e-001 1.68944836e-001
      2.96914190e-001 9.40283760e-002 2.11212844e-001 -1.99040443e-001
      -2.14008853e-001 -1.00182228e-001 -6.87305689e-001
      -1.52166590e-001 4.21955474e-002 6.55036509e-001 4.08442706e-001
      4.11899269e-001 -1.74960904e-002 4.33117002e-002 -6.24437630e-001
      -4.05334771e-001 -2.33455598e-002 5.47653794e-001 4.01248604e-001
      2.25766823e-001 1.46149136e-002 -3.20573807e-001 -5.97093627e-002
      -3.03817421e-001 -5.45084894e-001 1.50966659e-001 3.38332325e-001
      1.81522757e-001 1.83887988e-001 1.28161862e-001 1.28417283e-001
      -1.11440554e-001 -5.76302946e-001 -3.77523303e-001
      -2.34268695e-001 -4.54559684e-001 2.46717244e-001 2.58255422e-001
      2.26506263e-001 8.79782215e-002 1.42359203e-002 -6.98623717e-001
      -3.75284821e-001 -8.16748962e-002 -3.89792882e-002 2.03121692e-001
      2.85103023e-002 -1.48241296e-001 1.30335018e-001 -1.97004795e-001
      -7.73507655e-001 -2.66245872e-001</_>
    <_>
      -1.14029922e-001 -3.46215487e-001 -3.51617038e-001
      -9.88392159e-002 -1.05384156e-001 2.32803270e-001 2.97342867e-001
      2.98644483e-001 3.66826713e-001 -5.01346469e-001 -1.72494188e-001
      1.22211702e-001 2.80475378e-001 -1.54985979e-001 1.13377623e-001
      -5.62562905e-002 1.51709571e-001 -8.62658173e-002 -3.46439540e-001
      -1.11124270e-001 1.49982106e-002 -2.46039056e-003 -4.46582586e-001
      -1.18394755e-001 6.73784688e-002 9.06966925e-002 1.24965347e-001
      -2.72604316e-001 -1.55118644e-001 -6.84704855e-002
      -1.30868718e-001 -3.18439066e-001 -4.69303191e-001
      -1.60242662e-001 6.18664771e-002 9.39517766e-002 -4.35053378e-001
      1.57064334e-001 2.44136289e-001 2.13237971e-001 2.87099719e-001
      1.55765608e-001 -2.83722103e-001 -2.74139494e-001 -2.33033419e-001
      -1.28672212e-001 4.57759619e-001 1.47837713e-001 7.39012519e-003
      6.37878254e-002 -9.05284882e-002 -4.85465169e-001 -5.48512757e-001
      -2.69522160e-001 1.72938600e-001 1.80294096e-001 2.60055244e-001
      9.12884157e-003 -2.43421882e-001 -2.36546189e-001 -4.91607755e-001
      -7.18208253e-001 -4.98396009e-002 -6.65283054e-002 2.53207952e-001
      6.86726153e-001 2.67685026e-001 4.94038671e-001 1.44343749e-001
      -3.15221965e-001 -8.38797152e-001 -3.03842008e-001
      -5.50180197e-001 2.66757339e-001 1.73190102e-001 -5.09653836e-002
      -6.70688301e-002 -3.56955439e-001 -4.56113517e-001
      -4.38816667e-001 -2.71006197e-001 7.96427652e-002 5.39141715e-001
      1.66638419e-001 2.53561348e-001 1.96150362e-001 -3.12600136e-001
      -4.51392293e-001 -3.71342897e-001 -5.67950755e-002
      -3.26848239e-001 -3.93476129e-001 -6.64217398e-002 4.94022779e-002
      3.73638868e-001 2.13600490e-002 -6.21202812e-002 -2.51044154e-001
      -2.04706490e-001 -5.29250130e-002 -4.74685520e-001
      -3.26434463e-001 -8.26986060e-002 2.29366392e-001 4.70046885e-002
      -2.12958902e-002 -6.38367841e-003 2.12559059e-001</_>
    <_>
      1.58745199e-001 -3.55402499e-001 -4.28511113e-001 -9.62602720e-002
      2.20612809e-001 -6.78956658e-002 2.01543823e-001 2.30592221e-001
      4.07808453e-001 -1.55523539e-001 -3.09651822e-001 -7.44129121e-002
      -9.47208551e-004 1.05904877e-001 -2.22790450e-001 -3.45727690e-002
      6.19455986e-002 9.73950699e-002 8.80085677e-003 -1.74069044e-003
      -8.12674463e-002 -4.38059829e-002 -5.19292504e-002
      -2.13419452e-001 -4.14285585e-002 -1.65832624e-001
      -2.27721762e-002 -1.61835000e-001 -1.13117747e-001
      -2.75811255e-002 -1.81881905e-001 -1.13204077e-001
      -3.13695848e-001 -2.45982409e-001 -6.77359924e-002 1.96318537e-001
      -2.81073391e-001 1.31477848e-001 2.38027960e-001 1.54637307e-001
      2.44502172e-001 -9.04004381e-004 -1.33259743e-001 -7.67914802e-002
      -2.92969644e-001 -7.31631443e-002 3.81488442e-001 3.06086212e-001
      1.73611000e-001 3.98481876e-001 4.46751416e-002 -1.90817550e-001
      -3.32909793e-001 -4.76219058e-001 1.54233500e-001 6.69936016e-002
      2.16532692e-001 -3.51795107e-002 4.49681729e-002 -1.14632905e-001
      -4.28246826e-001 -4.87424105e-001 -1.82860434e-001 1.00159191e-001
      2.21121907e-001 3.99655014e-001 1.53421372e-001 2.79148728e-001
      5.87974153e-002 -2.61332244e-001 -6.07439101e-001 -2.63256341e-001
      -2.26280853e-001 2.84755468e-001 2.39550814e-001 9.13522094e-002
      2.67849535e-001 -5.68998791e-002 -3.32733005e-001 -4.31436718e-001
      -4.84444827e-001 1.30025446e-001 2.82082409e-001 2.91756928e-001
      2.48914987e-001 2.80168265e-001 -1.86198696e-001 -3.46739292e-001
      -2.66493559e-001 -3.24561782e-002 -6.43007457e-002
      -3.04993629e-001 6.88417302e-003 -1.48179363e-002 2.17691973e-001
      1.11623093e-001 -2.93941572e-002 -1.47361413e-001 -2.81692892e-001
      -1.03056375e-002 -2.57819653e-001 -1.68015696e-002
      -3.91098261e-002 1.90714642e-001 6.69194981e-002 -2.16568839e-002
      8.21512938e-002 2.65460014e-001</_>
    <_>
      4.77473706e-001 5.31852126e-001 4.33590144e-001 -5.14129996e-001
      -2.63033718e-001 -2.24023312e-001 2.41671503e-002 1.69265628e-001
      4.77853179e-001 -7.23570660e-002 -3.30271661e-001 1.40822098e-001
      -3.13438773e-001 -3.89667928e-001 -4.83705521e-001
      -9.86490324e-002 -1.68289736e-001 1.91189170e-001 -9.88895416e-001
      -5.79864904e-002 5.45790672e-001 -2.27061346e-001 -8.68550129e-003
      -1.45744607e-001 -2.60591537e-001 -3.03257942e-001
      -2.05382586e-001 -5.74314833e-001 -6.16405964e-001
      -4.55194354e-001 -4.66383934e-001 -2.47285753e-001 1.37251154e-001
      2.76148528e-001 5.22905216e-002 -2.77773459e-002 -2.00124562e-001
      -1.06605995e+000 -3.28967646e-002 4.26990062e-001 3.21541280e-001
      5.87911978e-002 7.71524906e-002 7.90291503e-002 1.53648943e-001
      -3.11315268e-001 -1.37267232e-001 3.62469226e-001 4.82896358e-001
      6.60064638e-001 1.55979797e-001 1.29220769e-001 2.25832358e-001
      2.23255992e-001 -6.81463480e-001 -9.64201570e-001 -3.95168602e-001
      -2.18899138e-002 1.06998309e-002 5.74584864e-002 5.70710227e-002
      1.94959521e-001 2.14777693e-001 -3.00971389e-001 -5.80027997e-001
      4.12275910e-001 2.32979208e-001 2.96690673e-001 -1.46888316e-001
      -5.43052182e-002 6.11773245e-002 7.90566057e-002 -1.14330411e+000
      -1.79189444e-001 4.72092956e-001 4.43426073e-001 8.14525247e-001
      1.25833943e-001 1.59780249e-001 1.93296019e-002 -4.38436955e-001
      -6.67496264e-001 -4.76976745e-002 9.66951847e-002 7.90085047e-002
      5.48343480e-001 1.55159786e-001 3.14026512e-002 -2.46298671e-001
      -2.29879156e-001 -6.81242466e-001 -6.53779984e-001 3.98645252e-002
      2.01062500e-001 1.15281932e-001 4.39611524e-002 4.66654599e-002
      -4.28042635e-002 -3.40915591e-001 -2.13443771e-001
      -2.91700631e-001 1.37486681e-001 1.62831455e-001 2.36653388e-001
      3.58281314e-001 2.07051054e-001 -4.31738526e-001 -2.09032521e-001</_>
    <_>
      6.77157491e-002 -3.28159094e-001 -2.13115916e-001 -2.35459521e-001
      3.15033287e-001 1.72496721e-001 1.94507360e-001 1.78085580e-001
      3.79477799e-001 -2.52844512e-001 -1.05564035e-001 2.93588102e-001
      -6.34051338e-002 2.07606792e-001 -3.15822870e-001 -4.36144806e-002
      -1.54426396e-001 -1.03121236e-001 6.71647713e-002 1.93795517e-001
      1.05458736e-001 -1.18839242e-001 2.13217616e-001 1.40862197e-001
      -2.99035460e-001 -4.60709184e-001 -9.00176819e-003
      -1.75038904e-001 -2.38915309e-001 3.29645313e-002 -1.58409640e-001
      2.16864914e-001 -1.02540471e-001 -6.48273379e-002 -3.21551234e-001
      -1.51009345e-002 -2.09211454e-001 8.40313435e-002 2.31397763e-001
      5.79926670e-002 3.00677359e-001 -2.53114104e-001 -7.09256977e-002
      -1.74050882e-001 -3.12344790e-001 -8.89181942e-002 2.95896500e-001
      3.58080231e-002 -1.42703250e-001 4.41931546e-001 -4.80796322e-002
      -8.92975703e-002 -2.55098045e-001 -4.14978385e-001
      -2.22330093e-001 -1.54272497e-001 1.59131676e-001 -9.54395235e-002
      1.60728469e-001 -2.38882408e-001 -2.83109210e-002 -2.28344008e-001
      -2.17494339e-001 1.22758234e-002 3.20135385e-001 3.66269439e-001
      5.64255975e-002 4.42917496e-001 -8.64414349e-002 -3.49263281e-001
      -7.36195743e-001 -1.72033548e-001 -4.03271466e-001 4.13219005e-001
      2.36718461e-001 1.76067367e-001 2.73761451e-001 -2.94073105e-001
      -3.03202629e-001 -5.74843645e-001 -5.98770320e-001 2.91746259e-001
      4.33532923e-001 2.91032255e-001 2.91401327e-001 1.14996828e-001
      -4.47111428e-001 -3.80914152e-001 -6.32465243e-001
      -5.56372218e-002 -2.47991636e-001 -3.54243487e-001
      -2.05723375e-001 3.10224444e-001 4.32962239e-001 -4.94675413e-002
      -7.12496564e-002 -3.37715656e-001 -1.90327808e-001 9.08771530e-002
      -2.17796534e-001 -2.58100152e-001 2.70324722e-002 3.30825210e-001
      -1.84733188e-003 1.69736251e-001 8.42859298e-002 3.18949103e-001</_>
    <_>
      9.96309216e-004 -1.49934575e-001 -2.10764393e-001 -1.12276472e-001
      6.57441691e-002 1.18907847e-001 2.62921780e-001 1.53841367e-002
      3.15783381e-001 -5.58102667e-001 -1.06158756e-001 5.43684848e-002
      -7.69532323e-002 7.19886199e-002 6.85974583e-002 9.25941616e-002
      -1.92646369e-001 7.09687248e-002 1.52103037e-001 1.27800494e-001
      1.40259191e-001 -7.32328445e-002 1.71768647e-002 5.31013869e-003
      -2.10853875e-001 -7.22948253e-001 -1.63726183e-003
      -3.65452826e-001 -3.61753977e-003 3.22567761e-001 -9.77413543e-003
      9.12598446e-002 9.46858749e-002 -2.12353885e-001 -2.77846843e-001
      1.89630851e-001 -3.49795312e-001 1.12468809e-001 2.73294389e-001
      1.28202066e-001 3.91056627e-001 -3.45313177e-002 -2.32994661e-001
      -4.19404268e-001 -3.97891879e-001 1.91372037e-001 4.92853850e-001
      4.64337200e-001 5.64546287e-002 3.56891185e-001 -4.58628654e-001
      -3.90292734e-001 -5.11921763e-001 -3.01966369e-001
      -6.07198715e-001 4.53052074e-002 4.44513828e-001 1.43914402e-001
      2.16799706e-001 6.51852414e-002 5.23152500e-002 -1.59217641e-001
      -5.23403883e-001 -1.09972104e-001 1.63226068e-001 5.42854905e-001
      3.36178571e-001 5.04790366e-001 -4.24698815e-002 7.92847872e-002
      -1.95419952e-001 -5.16246676e-001 -1.31288767e-001 1.86422452e-001
      1.73534974e-001 -8.97192955e-003 -1.39223009e-001 -5.87945521e-001
      -2.72758693e-001 -2.42163047e-001 -3.04624140e-001 2.71362871e-001
      1.65848732e-001 1.76361889e-001 1.95281833e-001 -2.37975568e-001
      -4.22339678e-001 -4.47690308e-001 -3.89482439e-001 3.57525423e-003
      -3.42705846e-001 -4.75898355e-001 -2.75074244e-001 2.82626837e-001
      4.07956481e-001 -9.80320871e-002 7.72532076e-002 4.17256989e-002
      -1.81765839e-001 -5.34133837e-002 -2.20517859e-001
      -3.64947617e-001 9.63414609e-002 2.64517039e-001 -9.20139775e-002
      -3.13299187e-002 1.13791630e-001 4.91717726e-001</_>
    <_>
      -6.06955066e-002 -7.18236491e-002 -2.04576731e-001
      -7.65312687e-002 -2.51601692e-002 6.62624091e-002 2.32191190e-001
      2.66144961e-001 -2.27845475e-001 1.46046400e-001 -1.14302747e-001
      -3.38449299e-001 -3.60634737e-002 -6.36676669e-001
      -5.24925232e-001 4.17905077e-002 2.38268256e-001 3.30429256e-001
      -7.97330618e-001 -8.07945848e-001 -3.56916010e-001
      -1.90848067e-001 -6.17194958e-002 5.17337758e-004 6.66186988e-001
      1.16867065e+000 -3.04204792e-001 9.83910710e-002 -7.54446507e-001
      -1.91031381e-001 6.85237721e-002 -2.22445443e-001 -3.04277658e-001
      3.98858517e-001 1.16116440e+000 7.42277876e-002 2.69589037e-001
      6.11987943e-003 -5.28683364e-002 -3.63513738e-001 -6.35563254e-001
      -3.59380841e-001 -1.96891487e-001 -2.41046950e-001 2.48834372e-001
      -1.02937385e-001 -1.43726785e-002 8.69967043e-002 -1.16158240e-001
      -3.33577275e-001 -3.31267267e-001 -2.30950996e-001 5.49841337e-002
      3.42080779e-002 8.80147889e-002 1.34675875e-002 -1.03704363e-001
      -1.29200771e-001 -2.07348987e-001 -2.11647853e-001
      -8.61422643e-002 2.49520123e-001 2.79118679e-002 2.79118679e-002
      3.87088507e-001 -8.77730325e-002 -6.69886023e-002 -5.21352068e-002
      -1.58603922e-001 -3.56265754e-002 -1.13745786e-001
      -2.43511479e-002 -2.32216850e-001 -7.10207270e-004 2.15536013e-001
      -3.25381011e-003 -2.18047708e-001 -1.74183384e-001 2.81323288e-002
      5.13116777e-001 1.29823044e-001 -2.33361840e-001 -7.98745379e-002
      2.43813470e-001 2.00886279e-001 2.32670665e-001 1.97392553e-001
      7.42262453e-002 2.13899519e-002 -4.90834229e-002 5.01106307e-002
      3.98866594e-001 2.43569016e-001 -8.17016438e-002 -8.20273086e-002
      -3.11422180e-002 3.88464965e-002 -2.68508464e-001 -4.24426228e-001
      -1.50360763e-001 4.33711037e-002 1.01927720e-001 8.09845477e-002
      7.83751830e-002 -1.48251932e-002 -2.11393893e-001 -5.36824703e-001
      -2.08908170e-001</_>
    <_>
      8.79437327e-002 2.11496800e-001 2.58781463e-002 -3.16336863e-002
      6.72598854e-002 -7.76915550e-002 1.37084955e-003 -2.17490867e-002
      -7.97945932e-002 1.38607830e-001 1.22946173e-001 -7.32896402e-002
      3.95999067e-002 -1.76495481e-002 -8.61060619e-002 -9.31075886e-002
      -9.34480876e-002 -7.19909072e-002 1.31494269e-001 7.26854652e-002
      1.93590168e-002 -2.22622864e-002 -2.48801112e-002 -2.00441927e-001
      3.15759815e-002 9.54526849e-003 -6.78108484e-002 8.06136173e-004
      -3.26642573e-001 -1.70088857e-001 5.22058643e-003 2.71199755e-002
      -3.58659402e-002 7.21151233e-002 9.54526849e-003 9.54526849e-003
      4.06768799e-001 -1.42929479e-001 -3.65308195e-001 -7.05926865e-002
      -7.19586164e-002 2.40949318e-002 1.27637330e-002 -4.82601114e-002
      2.73766220e-001 8.26064870e-002 -4.59332049e-001 -5.74802637e-001
      -1.92590073e-001 -8.20972174e-002 5.40130101e-002 1.18527889e-001
      1.82343915e-001 5.22711098e-001 1.58096090e-001 -4.15576607e-001
      -4.94445950e-001 -1.39210284e-001 -1.58626251e-002 2.63012201e-002
      9.88138095e-002 1.82278037e-001 2.58738875e-001 1.71739459e-001
      -1.12577535e-001 -5.05750120e-001 -2.68838853e-001
      -1.99531540e-001 -1.33403391e-001 4.07364257e-002 1.23344623e-001
      5.06422222e-001 -1.11143641e-001 -3.74321848e-001 -2.74594575e-001
      -1.31762937e-001 -6.07640781e-002 1.44066229e-001 3.32272261e-001
      4.89207208e-001 4.18399125e-001 -2.84557581e-001 -9.23862457e-002
      -2.21830867e-002 -1.92932174e-001 -1.38796166e-001
      -7.05828145e-002 2.85221100e-001 4.32639599e-001 3.23970616e-002
      8.13613161e-002 6.63866177e-002 6.09422959e-002 -1.66437224e-001
      -2.39040300e-001 -1.07585885e-001 -2.23877989e-002 1.21751197e-001
      9.84891951e-002 -1.63817108e-001 2.60672182e-001 2.21677870e-001
      -1.45927891e-001 -2.31608629e-001 -2.06635326e-001
      -6.14804290e-002 2.99951062e-002 -1.20326132e-001</_>
    <_>
      -2.01241970e-001 2.52745360e-001 -1.07168388e-002 -1.11267082e-001
      -6.22104257e-002 -1.77158594e-001 -1.36491701e-001 1.63438633e-001
      -3.61566432e-002 1.70257151e-001 -4.89129089e-002 -4.27422762e-001
      -1.05728097e-001 -3.44625302e-002 -1.90283153e-002
      -1.58924624e-001 1.22538663e-001 2.39609286e-001 -2.59557515e-002
      1.80202901e-001 -5.35740741e-002 -1.02250561e-001 -1.71240736e-002
      -2.92519540e-001 -3.37097682e-002 1.36046737e-001 -4.51152259e-003
      1.21861100e-001 -8.98438573e-001 -4.52961355e-001 -4.66860197e-002
      2.67626673e-001 3.10160480e-002 2.80616790e-001 1.81185797e-001
      1.43045127e-001 5.77762842e-001 -5.27698100e-001 -4.11826223e-001
      -6.65030405e-002 -5.35461493e-002 4.03850898e-002 -1.84539735e-001
      -1.72815099e-001 2.30110481e-001 5.57343841e-001 -2.01882675e-001
      -2.73708552e-001 -1.24167375e-001 -1.53927982e-001
      -1.60514951e-001 -5.16663909e-001 -2.17973679e-001 3.46721321e-001
      2.91439444e-001 -9.17587936e-001 -2.86310166e-001 -5.19339852e-002
      1.97402805e-001 4.58798707e-002 -3.45457405e-001 -1.65035769e-001
      2.91439444e-001 3.71319562e-001 3.00149411e-001 2.93018036e-002
      -3.72618646e-003 1.75577179e-001 -1.04624309e-001 -9.23213184e-001
      -8.35247040e-001 1.58313379e-001 2.27493912e-001 -1.81155708e-002
      -3.77075821e-001 -2.32724413e-001 -5.10059111e-002
      -1.18297048e-001 -2.96630803e-002 1.29782826e-001 3.87233108e-001
      -5.60266003e-002 1.86478049e-001 -9.50147137e-002 -1.65864322e-002
      4.62007001e-002 -8.68997276e-002 9.49668605e-003 9.39932615e-002
      1.09504141e-001 2.07957968e-001 5.19194789e-002 2.59272866e-002
      -2.46307179e-002 1.81678519e-001 9.32258833e-003 -3.79114360e-001
      -4.87198353e-001 -2.82084852e-001 -1.58440471e-002 7.87858069e-002
      9.03229788e-002 -1.68634355e-001 -2.64191348e-002 -5.87014891e-002
      -1.98922202e-001 -4.50628288e-002 1.37952402e-001</_>
    <_>
      -7.79187754e-002 1.58015937e-001 -6.10659420e-002 2.02832058e-001
      -5.02273068e-003 -3.42024192e-002 1.41604722e-001 8.71312246e-002
      -2.14869037e-001 1.59683362e-001 3.55472416e-002 -4.04562503e-001
      -2.68951058e-002 -2.86859125e-002 -1.25376940e-001
      -1.48308665e-001 1.12332024e-001 2.61783421e-001 -4.82811481e-001
      -6.02096140e-001 -4.06093001e-001 4.07526903e-002 -4.97923084e-002
      -1.20393649e-001 5.49312592e-001 5.79339087e-001 -1.23225361e-001
      9.02133211e-002 -5.99624276e-001 -3.78016710e-001 -3.84167992e-002
      -5.27126715e-003 -2.34381393e-001 6.15699030e-002 5.10554433e-001
      8.80958512e-002 2.73482859e-001 -3.39157939e-001 -5.30670762e-001
      -2.51937389e-001 -9.93873328e-002 -5.31627089e-002
      -9.67518017e-002 4.90329927e-003 4.80678350e-001 -1.55451884e-002
      -5.92289925e-001 -3.21221918e-001 -1.43467873e-001
      -3.26275975e-001 -2.23801985e-001 1.24393761e-001 1.28765821e-001
      1.77691564e-001 1.95043117e-001 -1.74128324e-001 -2.08961353e-001
      -1.20423548e-001 6.77456474e-003 -1.70672312e-001 -2.51346141e-001
      1.81206405e-001 2.66169369e-001 1.95043117e-001 -1.69246525e-001
      7.44364178e-003 -4.20395508e-002 -1.84303433e-001 -2.13017941e-001
      -6.38827309e-002 -5.14977157e-001 6.19170479e-002 1.24910600e-001
      -6.25186488e-002 1.45284966e-001 -9.68920439e-002 -2.99255282e-001
      -1.33396745e-001 1.93944380e-001 2.00065419e-001 2.81408221e-001
      -1.17912993e-001 1.80774778e-002 1.87111422e-001 1.27295688e-001
      -5.57317138e-002 6.84270859e-002 1.68106407e-001 1.24960862e-001
      -1.37755051e-001 1.47220835e-001 1.19883463e-001 4.88560021e-001
      -3.14633474e-002 -2.75911689e-001 -4.39163037e-002
      -7.55112991e-002 -5.75706482e-001 -2.75945604e-001
      -6.92682108e-003 2.12942481e-001 4.15901423e-001 -2.04268973e-002
      -2.70353019e-001 -8.76512602e-002 -2.31843159e-001
      -5.90277851e-001 -2.13520437e-001</_>
    <_>
      -2.47916788e-001 2.10037827e-002 1.31745502e-001 1.80539452e-002
      -3.13653827e-001 4.86933589e-002 1.74731463e-001 1.91606268e-001
      9.24854260e-003 -1.76034160e-002 2.62956113e-001 1.61566988e-001
      1.26340777e-001 -4.30664420e-001 -1.39765218e-001 -1.16158448e-001
      6.53478354e-002 9.82591361e-002 -3.56694221e-001 -7.52220824e-002
      -2.18321875e-001 -5.49598262e-002 -5.42868376e-001
      -3.01656872e-002 3.64824414e-001 5.82807183e-001 7.19572231e-002
      1.67512417e-001 -1.95674777e-001 -3.96084100e-001 -1.59585252e-001
      -5.04660606e-001 -4.28011596e-001 -8.46910253e-002 2.05704302e-001
      3.48211557e-001 3.15699965e-001 2.21617699e-001 -2.95277722e-002
      -1.65247664e-001 -2.06647769e-001 -1.29734412e-001
      -2.47270778e-001 -1.71472788e-001 2.99952567e-001 2.15059742e-001
      -1.10960461e-001 -1.56144097e-001 -4.28310990e-001
      -3.51018727e-001 -2.84116417e-001 -3.31810474e-001
      -1.62013799e-001 2.01638982e-001 7.66299367e-001 8.63743946e-002
      -9.40437391e-002 -1.81218162e-001 -2.38082618e-001
      -2.94642836e-001 -4.89508033e-001 -3.21449518e-001 3.62023771e-001
      1.68870866e-001 2.04953074e-001 5.39552383e-002 -1.07473113e-001
      -4.45271283e-003 -9.09017771e-002 -2.70625472e-001
      -5.77618957e-001 3.84886302e-002 -1.87732372e-002 -1.09984756e-001
      -4.61714044e-002 -3.04958999e-001 -2.01522022e-001
      -6.83036745e-002 9.76166427e-002 9.38993096e-002 2.98888952e-001
      1.74892694e-002 5.27805239e-002 -2.48422906e-001 -6.10548966e-002
      7.73296431e-002 -9.42810923e-002 5.93934990e-002 8.41589645e-002
      1.67079940e-001 2.45036706e-002 1.97628029e-002 1.37987584e-001
      -8.44550505e-002 4.23098505e-002 2.36874167e-002 1.30018042e-002
      -9.70208421e-002 -2.28478387e-001 -4.86524738e-002 1.97628029e-002
      1.58661250e-002 -1.92950964e-001 1.53229475e-001 -5.00482395e-002
      -3.63340527e-002 2.32923739e-002 1.41731367e-001</_>
    <_>
      -1.78878382e-001 5.82386404e-002 -2.40193889e-001 1.40939787e-001
      -1.17723167e-001 -3.06247532e-001 4.50348780e-002 2.23236188e-001
      1.06337480e-001 1.54559284e-001 3.09640262e-002 -3.62729393e-002
      4.96314652e-002 -2.18796447e-001 -4.42740947e-001 -2.43470669e-001
      1.79147869e-001 2.41538942e-001 -2.23509282e-001 7.26907253e-002
      -3.00401241e-001 -4.89481874e-002 -1.83987886e-001
      -4.89881307e-001 2.80332536e-001 3.03162009e-001 -2.22575665e-001
      3.28246742e-001 -3.64975780e-001 -6.21111333e-001 -3.45322430e-001
      -1.88374951e-001 -6.70186877e-001 -1.34816363e-001 2.70109475e-001
      4.49859947e-001 1.10695757e-001 8.26352388e-002 -7.14794099e-002
      -7.50243142e-002 -1.15557604e-001 -1.61458835e-001
      -2.77522981e-001 -2.44081803e-002 9.41515267e-002 -2.93354932e-002
      -1.99144006e-001 -5.70451878e-002 3.86143513e-002 4.96718809e-002
      2.04219334e-002 -2.14514524e-001 -2.42027327e-001 6.67936727e-002
      1.23230350e+000 -1.32246211e-001 -2.82795101e-001 -2.77803928e-001
      -4.60625738e-002 -3.90727818e-001 -8.01612735e-001
      -6.91618681e-001 6.14068925e-001 2.17269555e-001 3.80684525e-001
      4.41598333e-003 -3.01592294e-002 1.77871808e-001 -1.29595071e-001
      -6.57423556e-001 -1.08068764e+000 7.22578913e-002 -4.19838503e-002
      1.35802090e-001 1.34090289e-001 -1.37238756e-001 5.17027378e-002
      2.45409548e-001 2.50454485e-001 -3.14288318e-001 -1.55812530e-002
      6.84173256e-002 2.14987263e-001 1.34819910e-001 -3.93793620e-002
      1.08348951e-001 1.09723618e-003 -4.34308201e-002 -1.14001065e-001
      9.57061574e-002 9.61196050e-002 6.99559972e-002 4.97706652e-001
      -1.11346483e-001 1.41188413e-001 1.52442619e-001 -8.98169652e-002
      -3.40172797e-001 -4.39824224e-001 -1.98499456e-001 7.21147284e-002
      2.48654053e-001 -3.77248302e-002 1.50064200e-001 -5.46178333e-002
      -2.62164325e-001 -6.90889582e-002 8.72025862e-002</_>
    <_>
      3.14029530e-002 4.89865541e-001 1.63727373e-001 -1.30967638e-002
      -2.78211117e-001 -1.34030461e-001 1.79954600e-002 -2.99290270e-002
      -1.46090761e-001 1.48219571e-001 6.91708624e-002 -7.13290870e-002
      -2.15096489e-001 -2.99195826e-001 -1.34877041e-001
      -5.61221279e-002 -9.01702568e-002 7.30095580e-002 -2.49816284e-001
      -1.41306296e-001 -6.29246533e-002 -3.25316517e-003
      -2.11796060e-001 -1.45418420e-001 2.27122113e-001 2.38065720e-001
      6.39285818e-002 3.60204838e-002 -4.59994763e-001 -4.00750190e-001
      -2.28570014e-001 -1.64890811e-001 -6.66090995e-002 2.84789115e-001
      3.32281619e-001 2.37848595e-001 2.29470894e-001 -4.26719338e-001
      -2.38978341e-001 -1.57507852e-001 -5.46493791e-002 1.28072873e-002
      4.15300690e-002 -5.07586962e-003 3.75099152e-001 -8.54764581e-002
      -4.52586323e-001 -2.46756345e-001 -4.58115786e-002 1.36277303e-002
      8.10885951e-002 1.26324371e-001 1.58192560e-001 3.95384490e-001
      8.85846987e-002 -4.80455488e-001 -3.75008225e-001 -2.23777741e-001
      -7.84734339e-002 -3.83829065e-002 2.86910348e-002 2.72642255e-001
      5.42266667e-001 5.95458038e-002 -1.76988602e-001 -1.12057425e-001
      -1.65436849e-001 -5.89380935e-002 -2.64597256e-002
      -1.32943140e-002 1.03847899e-001 3.30686718e-001 -1.99820340e-001
      -3.87107730e-001 4.75348579e-003 -5.22325821e-002 7.37673417e-002
      1.42796651e-001 2.57075250e-001 3.13985020e-001 2.01846585e-001
      -3.62306893e-001 -2.02107027e-001 -4.27204706e-002
      -4.98209409e-002 1.18323013e-001 8.98282453e-002 1.64679497e-001
      1.69839203e-001 -9.51941982e-002 5.23121469e-003 4.79934737e-002
      2.43573263e-001 -1.28386766e-001 -1.09284343e-002 3.66268307e-002
      6.04934664e-003 4.57096957e-002 -1.89892929e-002 -1.70103610e-001
      1.19706459e-001 2.10319653e-001 -7.37076625e-003 4.02604043e-002
      5.47213014e-003 -7.69390240e-002 -1.61178336e-001 -1.52537420e-001</_>
    <_>
      -2.89891481e-001 2.37680107e-001 4.47063372e-002 -2.05330655e-001
      -1.66742519e-001 -5.36756068e-002 -5.02584279e-002 8.88732001e-002
      -1.68403238e-001 7.44685456e-002 3.81553978e-001 2.38659322e-001
      -1.08397014e-001 -1.81094021e-001 -7.10542083e-001
      -1.72527388e-001 -2.84878284e-001 -2.80659586e-001
      -1.86368734e-001 2.81523675e-001 7.48576447e-002 -1.49304420e-001
      4.89002503e-002 -7.37824813e-002 -5.72581701e-002 2.00844616e-001
      -1.37965620e-001 2.54794449e-001 -1.02048886e+000 -2.32536018e-001
      -2.53330976e-001 1.25594214e-002 -4.17539567e-001 4.94927466e-001
      2.46093303e-001 2.32149959e-001 6.11944914e-001 -1.02061197e-001
      -1.71042904e-001 -4.71046627e-001 -3.48755062e-001
      -5.91154516e-001 -2.08808959e-001 -3.27263981e-001 2.25116149e-001
      1.22102663e-001 -7.57589161e-001 -4.64572459e-001 -8.49378645e-001
      -2.53225952e-001 -1.15476534e-001 -1.88672930e-001
      -1.32599622e-001 3.27956587e-001 5.45446217e-001 -7.13994503e-001
      -2.72404134e-001 -4.58779037e-001 -1.87685952e-001
      -4.93170857e-001 -9.97086763e-002 -9.97357890e-002 4.41630840e-001
      3.95068079e-001 5.14126480e-001 -2.70338338e-002 -5.08099198e-001
      -1.64896366e-003 -2.83269048e-001 -6.84434235e-001
      -1.27218080e+000 2.34185949e-001 -2.23189533e-001 -1.64021298e-001
      -7.27147385e-002 -1.49872079e-001 8.03322122e-002 -1.04935922e-001
      1.84134126e-001 7.28306547e-002 1.59249827e-001 -5.89252412e-002
      2.77474195e-001 6.21912628e-002 7.23646358e-002 6.21646531e-002
      -3.58884782e-001 7.68262669e-002 1.07627124e-001 8.71136561e-002
      1.34151831e-001 1.22378416e-001 2.90739089e-001 -6.07486907e-003
      2.44770840e-001 -8.41670036e-002 -8.12464952e-002 -4.90262419e-001
      -3.21184784e-001 -3.46166015e-001 5.09894937e-002 1.31039143e-001
      -1.68145016e-001 1.92799106e-001 -1.02812089e-001 8.77590403e-002
      1.62916228e-001 1.67043414e-002</_>
    <_>
      9.25398618e-003 4.65941340e-001 -1.15012698e-001 3.66447144e-003
      -2.70129055e-001 1.56610217e-002 -5.17286174e-003 -1.03217356e-001
      -8.82188082e-002 2.34229758e-001 4.53911453e-001 2.00300694e-001
      1.03548303e-001 -2.63743967e-001 -7.84699470e-002 -1.62504420e-001
      -6.08782828e-001 -2.98345774e-001 1.91670954e-001 2.42971763e-001
      1.10943474e-001 -3.74701135e-002 -1.59099534e-001 -1.17961973e-001
      -1.68551430e-001 4.05661538e-002 1.67946309e-001 -1.25295771e-002
      1.77600551e-002 1.20636851e-001 2.13964731e-002 -1.66766703e-001
      -5.00774868e-002 -1.55182004e-001 1.65605964e-003 1.65605964e-003
      7.28819728e-001 2.11614057e-001 -9.75473784e-003 -1.55856293e-002
      -9.80438814e-002 -4.63355154e-001 -6.03429735e-001
      -9.57765400e-001 -2.83260867e-002 1.10110140e+000 -2.65403479e-001
      -2.45716780e-001 -3.97018701e-001 -7.24646807e-001
      -1.10462642e+000 -9.38302934e-001 -5.77575445e-001 8.94081831e-001
      1.26948386e-001 -6.27374351e-002 -4.97764647e-002 -4.80141211e-003
      -4.83993702e-002 -1.67674243e-001 -1.43053010e-001
      -5.86420819e-002 1.26948386e-001 1.26948386e-001 -1.24267392e-001
      -5.56817986e-002 -1.14676170e-001 -3.14848989e-001
      -4.78033841e-001 -3.94679159e-001 -2.80296594e-001
      -6.17767544e-003 2.14698806e-001 -6.53979540e-001 -3.61403316e-001
      -3.13604772e-001 -9.14612293e-001 -6.91841125e-001 2.43552625e-001
      6.50019526e-001 1.15014720e+000 -1.57271653e-001 -2.61074364e-001
      -2.70175546e-001 2.14764699e-001 -3.23541373e-001 -1.37057006e-001
      -8.06825329e-003 3.68133873e-001 2.09078461e-001 2.22553518e-002
      2.48224828e-002 -4.17913683e-003 1.52874384e-002 -3.63935143e-001
      -3.44639629e-001 -4.32008468e-002 5.73280640e-002 2.14242220e-001
      -3.31308186e-001 4.64298911e-002 -1.66861862e-002 3.54726940e-001
      -2.29838908e-001 -2.29821488e-001 -1.10335872e-001 7.32052401e-002
      -4.81541678e-002</_>
    <_>
      1.74190700e-001 3.78656313e-002 1.80713072e-001 6.23800270e-002
      2.15432551e-002 -7.80930296e-002 -1.11403055e-001 -1.62389949e-001
      -4.02741693e-002 -7.47707263e-002 4.00531963e-002 2.50803977e-001
      2.09273413e-001 1.80243418e-001 8.11625794e-002 -2.43975118e-001
      -2.16173485e-001 -2.36714527e-001 4.32343096e-001 4.67972964e-001
      4.42916334e-001 1.56784996e-001 -8.36201683e-002 -2.00130656e-001
      -3.37214053e-001 -5.93394995e-001 -1.97534606e-001
      -1.75541341e-001 4.23622541e-002 1.67116359e-001 1.17089570e-001
      1.37523115e-001 2.27394149e-001 -1.50186539e-001 -4.90788877e-001
      -1.07640833e-001 1.26950517e-001 -1.50929317e-001 -2.68484294e-001
      2.27538988e-001 1.59799293e-001 1.60584405e-001 8.59507769e-002
      6.97961375e-002 -7.74672953e-003 1.27693251e-001 -3.39404374e-001
      -5.32371998e-001 6.84095100e-002 9.55746844e-002 2.36076266e-001
      2.95340747e-001 1.65829122e-001 2.99196482e-001 7.10833594e-002
      -4.61387694e-001 -5.27424812e-001 -2.09245668e-003 7.70690963e-002
      2.25542605e-001 2.21512735e-001 1.07875474e-001 3.18857729e-001
      1.30909711e-001 -2.58907706e-001 -5.28918207e-001 -1.41439185e-001
      -1.91507518e-001 -6.39021695e-002 9.60116163e-002 2.24279106e-001
      6.54602170e-001 -8.23564455e-002 -2.09973007e-001 -3.01292539e-001
      1.16471253e-001 1.03952609e-001 1.33341759e-001 1.58507958e-001
      1.32914841e-001 1.63190529e-001 -8.81204009e-002 7.74915442e-002
      5.10201193e-002 -5.28804436e-002 -9.96050425e-003 -1.59141514e-002
      3.66352461e-002 1.28248464e-002 -1.57658875e-001 1.06471656e-002
      -2.22826704e-001 -2.88565636e-001 -4.95826937e-002
      -2.60360539e-001 -1.88476115e-001 -4.61418778e-002 2.32473522e-001
      4.55954134e-001 -2.00214703e-002 -3.70820239e-002 -3.13125327e-002
      -1.23679517e-002 -4.35452629e-003 5.58531843e-002 2.00711995e-001
      2.67341614e-001 3.78635824e-002</_>
    <_>
      -1.50089204e-001 2.94394046e-001 8.57477337e-002 -2.81420887e-001
      7.61402696e-002 -2.08628878e-001 -2.53671169e-001 -1.62765563e-001
      -4.85349000e-002 -1.90726936e-001 -8.79009888e-002
      -9.41692591e-002 -1.75130486e-001 1.71765879e-001 1.16261736e-001
      -4.10354696e-002 -3.13659310e-002 -2.50825062e-002 3.26453805e-001
      1.10635114e+000 6.73448026e-001 1.98686302e-001 1.12175927e-001
      -3.72085571e-001 -6.99132085e-001 -7.96502769e-001
      -5.09702368e-003 -1.79858953e-001 -2.11311772e-001
      -4.63094339e-002 3.07059325e-002 3.85388404e-001 3.64895135e-001
      1.06053188e-001 -4.64606494e-001 -5.83279729e-002 -2.23705634e-001
      -2.86225289e-001 -4.45632815e-001 3.02422136e-001 3.71814609e-001
      2.04543442e-001 1.00487862e-002 -3.63811292e-002 1.23088852e-001
      2.47836605e-001 9.45112854e-002 -2.18739495e-001 7.17888549e-002
      -9.02062282e-003 4.17041741e-002 -3.37854952e-001 -3.55869323e-001
      8.50785971e-002 8.10624212e-002 -8.40938151e-001 -4.15140390e-001
      1.80099860e-001 3.08371574e-001 3.01940709e-001 -4.59710173e-002
      -1.87222362e-001 2.72976816e-001 2.23010898e-001 1.73590347e-001
      -1.51990755e-002 -5.28035238e-002 8.75985716e-003 5.42483628e-002
      -7.38628447e-001 -6.05879307e-001 2.91772425e-001 1.56559765e-001
      8.89478847e-002 -3.47581148e-001 -2.08202809e-001 1.82359535e-002
      -1.42288834e-001 -4.66476381e-001 -4.39259410e-001
      -2.24124435e-002 1.43710122e-001 2.50158578e-001 -1.34889990e-001
      -1.33072913e-001 4.89026196e-002 -2.36529991e-001 -4.62019980e-001
      -1.34460315e-001 4.31534424e-002 4.38528098e-002 -3.52803379e-001
      -2.10280821e-001 -2.45128334e-001 1.51992723e-001 -5.96469864e-002
      -4.13828224e-001 6.16057329e-002 3.03952605e-001 -8.54658708e-002
      -3.27580541e-001 -1.95816327e-002 -3.11575472e-001 8.25409144e-002
      -1.37451955e-003 2.82610923e-001 8.19584727e-001 6.26757383e-001</_>
    <_>
      -3.43050987e-001 6.33059070e-002 4.77574497e-001 7.98411965e-001
      -6.10987209e-002 2.48532351e-002 8.27563852e-002 -1.76282879e-002
      -1.30800605e-001 -1.57017037e-001 3.98968766e-003 -1.29280537e-001
      4.72254753e-001 7.38914847e-001 3.38718802e-001 -1.49733469e-001
      2.80161854e-002 -3.61466855e-002 -4.43378538e-001 -1.08765855e-001
      5.63271046e-001 7.67424166e-001 -2.68592030e-001 -3.16570044e-001
      -1.35362952e-003 -4.84580368e-001 -4.95747119e-001
      -5.14289856e-001 -1.62849054e-001 4.62130129e-001 4.73726362e-001
      2.09830791e-001 1.98617458e-001 -2.01786190e-001 -3.11433792e-001
      -3.16744953e-001 9.95089039e-002 -9.66674149e-001 -8.93437207e-001
      4.10539567e-001 8.43836606e-001 3.51043701e-001 4.05593455e-001
      4.89492714e-001 9.98897925e-002 8.90180282e-003 -1.06762159e+000
      -7.74197996e-001 2.21830070e-001 -2.72696447e-002 2.28507314e-002
      7.93545067e-001 3.07252288e-001 -3.85680169e-001 6.50421903e-002
      -3.92494619e-001 -4.94507439e-002 2.95226693e-001 3.54673952e-001
      9.47408080e-002 -9.47765261e-002 3.76098678e-002 4.03818458e-001
      2.95874715e-001 -9.02449369e-001 3.07256579e-002 2.02736586e-001
      -3.71309429e-001 -1.89356640e-001 -1.16156954e-002
      -9.77640450e-001 2.97796458e-001 9.47291732e-001 5.46224535e-001
      -1.06652111e-001 -1.07767001e-001 -2.22554758e-001
      -1.16183355e-001 6.14264905e-002 -4.65517402e-001 -2.78879814e-002
      9.52184126e-002 5.20471692e-001 3.50003205e-002 5.30208088e-002
      -1.18297055e-001 3.34573418e-001 -6.55232444e-002 -4.53136474e-001
      -3.86174649e-001 3.24870974e-001 -6.30191267e-001 3.36916655e-001
      2.28711143e-001 -3.26987296e-001 -1.13192931e-001 -5.18487506e-002
      -6.54318571e-001 3.69844854e-001 7.10403621e-002 -4.50510949e-001
      4.64981019e-001 2.38477826e-001 -3.72655213e-001 1.51515724e-002
      3.54247056e-002 -2.85023302e-001 -3.04266904e-002</_>
    <_>
      -2.95090526e-001 -5.71387913e-003 9.66728926e-002 1.16711937e-001
      -3.67076337e-001 6.32911921e-002 1.28206491e-001 4.08973284e-002
      1.14691176e-001 -3.41252327e-001 2.69290835e-001 5.36113441e-001
      4.13416356e-001 -2.29561925e-001 3.19378003e-002 -1.12438910e-001
      -8.20392892e-002 -6.63433298e-002 -7.09339008e-002 4.71600324e-001
      3.55837673e-001 2.14202836e-001 -8.66675436e-001 -6.85522184e-002
      -1.98821783e-001 -1.28329575e-001 1.36542484e-001 -1.68194585e-002
      1.89132422e-001 2.56099477e-002 -1.27525374e-001 -6.59344733e-001
      -2.38010675e-001 -1.58007681e-001 -3.96777540e-001 3.25939953e-001
      -1.56870544e-001 4.55078334e-001 2.11430997e-001 3.12580824e-001
      2.67379463e-001 1.25231389e-002 -9.45705399e-002 -2.06048205e-001
      1.45123273e-001 3.13611478e-002 1.99822143e-001 -2.59205908e-001
      -1.65801302e-001 -1.90243170e-001 -2.11067677e-001
      -2.97171742e-001 -4.14908409e-001 9.36694741e-002 9.44976330e-001
      1.34621978e-001 -6.87001646e-002 -4.61576022e-002 -3.81528169e-001
      -1.39750049e-001 -4.55108106e-001 -8.24537098e-001 5.82902968e-001
      1.49998114e-001 1.18930051e-002 1.88672300e-002 -1.01940587e-001
      -5.57670482e-002 7.62106478e-002 -3.06524724e-001 -8.04502428e-001
      1.78454950e-001 -1.77730158e-001 1.03337348e-001 -2.56422997e-001
      -2.15841070e-001 -1.13282129e-001 -1.44441500e-001
      -4.63239521e-001 -2.37390563e-001 2.24854663e-001 1.37054846e-001
      1.96561024e-001 -3.65805149e-001 -1.50609240e-001 2.16985103e-002
      -2.40417391e-001 -2.20675930e-001 1.22972382e-002 2.36153916e-001
      -2.83762496e-002 -3.89247686e-001 -3.74211878e-001
      -1.48982212e-001 4.58878763e-002 3.41250412e-002 -8.99252854e-003
      2.69938111e-001 3.13609362e-001 3.92650664e-002 -4.48439062e-001
      -3.33453327e-001 -2.77068496e-001 1.23570628e-001 1.82397082e-001
      3.48327458e-001 6.96893692e-001 5.47734797e-001</_>
    <_>
      -9.92624089e-002 1.36938870e-001 -2.64006197e-001 2.37453103e-001
      1.81563661e-001 -2.81055421e-001 -1.06760532e-001 -3.70497257e-002
      2.41410896e-001 -1.74433470e-001 -5.08078560e-003 1.43750444e-001
      2.50909388e-001 3.29588562e-001 -1.30090520e-001 -3.07389379e-001
      -3.55152860e-002 5.94480485e-002 3.73639315e-001 8.36236119e-001
      2.91043222e-001 3.49982262e-001 -1.20900776e-002 -5.14057815e-001
      -6.03382766e-001 -7.11229563e-001 -3.21165696e-002 2.09475517e-001
      2.80626774e-001 -3.61261740e-002 -1.21930484e-002 -2.14436382e-001
      -4.95038033e-001 -5.85747659e-001 -5.84198058e-001 1.87119976e-001
      -4.70642626e-001 1.42632231e-001 1.45119697e-001 3.94095838e-001
      5.16152918e-001 1.56748235e-001 -4.06032465e-002 1.56190693e-001
      -5.44185191e-002 -1.52885124e-001 -1.17117781e-002
      -7.24471509e-002 3.00317943e-001 3.80117983e-001 3.35178137e-001
      -1.26313269e-002 -8.96578431e-002 -2.43017331e-001 1.01674914e+000
      -1.48292929e-001 -1.52690738e-001 2.50274241e-002 2.40420885e-002
      -3.39785904e-001 -6.37708068e-001 -6.95856690e-001 3.94680351e-001
      1.24212071e-001 2.99724210e-002 -9.80757996e-002 1.97287137e-003
      2.86000967e-003 1.39631167e-001 -4.05010134e-001 -7.89425313e-001
      7.02931806e-002 1.44439891e-001 1.68018371e-001 -3.98468599e-003
      -9.18885320e-003 1.12874717e-001 2.48004302e-001 -3.66592973e-001
      -6.20486856e-001 -1.63331389e-001 3.77354592e-001 1.75931349e-001
      -4.35035583e-003 -3.42449285e-002 -1.12406649e-001
      -8.56730640e-002 -4.87328917e-001 -1.87102392e-001 2.91285753e-001
      -1.38103329e-002 -3.35763991e-001 -6.36057556e-002
      -1.81318283e-001 -8.31901729e-002 1.29843727e-001 -2.45865099e-002
      5.81210181e-002 -3.79641391e-002 -7.32311234e-002 -3.03514898e-001
      2.70529658e-001 -6.66686445e-002 -3.66629139e-002 7.15839714e-002
      2.03265548e-001 5.84648728e-001 3.23540986e-001</_>
    <_>
      -4.63334024e-002 7.39414454e-001 4.85299021e-001 -9.74105019e-003
      -4.67868239e-001 -1.95189551e-001 -8.66927113e-003
      -2.04925984e-001 -2.15013251e-001 -6.11855574e-002 1.57592177e-001
      5.93907237e-002 1.37308603e-002 -2.59904325e-001 -5.26463948e-002
      -9.79405269e-002 -1.78561047e-001 -2.58967191e-001
      -2.07088634e-001 5.08170247e-001 6.32741034e-001 1.53492585e-001
      -3.13205928e-001 -1.89783543e-001 -1.81320235e-001
      -4.55516964e-001 -1.44389808e-001 -2.85032362e-001
      -5.44337444e-002 -1.77360862e-001 -6.96425959e-002
      -2.36722752e-001 3.39545578e-001 1.57998338e-001 -1.01493493e-001
      7.22338185e-002 -4.49697822e-002 -5.25031269e-001 -2.75278658e-001
      1.96693704e-001 2.83390671e-001 1.84532374e-001 2.57329404e-001
      2.56469458e-001 7.40957633e-002 -1.94279492e-001 -4.71590370e-001
      -3.03440452e-001 1.38232842e-001 2.46176317e-001 1.65692374e-001
      4.14993674e-001 4.36735898e-001 2.20889390e-001 1.60127580e-001
      -6.74470484e-001 -5.65536261e-001 -1.25077097e-002
      -3.72758806e-002 3.03588718e-001 3.08384091e-001 3.12484235e-001
      8.39159429e-001 -1.10157141e-002 -4.37498540e-001 -3.41197193e-001
      -2.30024591e-001 -2.10275680e-001 -1.97914727e-002 1.27515182e-001
      2.81607121e-001 4.53987807e-001 -2.52090365e-001 -2.41036162e-001
      -6.71140179e-002 6.51163906e-002 2.43838340e-001 1.42118409e-001
      2.12079093e-001 2.08711550e-001 6.80983663e-002 -3.14724326e-001
      -9.75322276e-002 -1.11487702e-001 -1.16340198e-001 1.95883214e-001
      1.41159773e-001 5.51521257e-002 -7.96438530e-002 -8.54838267e-002
      -6.25434071e-002 -2.46748045e-001 -3.95886041e-002
      -2.27128878e-001 -1.29812643e-001 -1.81442071e-002 6.51868805e-003
      2.56162465e-001 4.07762080e-001 -1.24834247e-001 -2.41730303e-001
      2.36388016e-002 -9.66889188e-002 2.79301256e-001 2.44502753e-001
      9.00268555e-002 1.21738628e-001 2.51052231e-001</_>
    <_>
      -2.78605491e-001 3.90087306e-001 2.07953930e-001 -5.04797958e-002
      -4.60530706e-002 -1.56306718e-002 -1.76932514e-001
      -1.64977431e-001 -5.37797436e-003 -2.37769663e-001 4.57023829e-001
      5.81187665e-001 -6.08248403e-003 3.65945935e-001 -9.03429464e-002
      -1.27782032e-001 -4.45056260e-001 -5.34332216e-001 4.78912443e-001
      1.03393245e+000 4.79326785e-001 9.77734625e-002 1.03632286e-001
      5.01683727e-003 -6.59684479e-001 -1.05797696e+000 -5.35281636e-002
      -1.70649942e-002 -1.08833328e-001 1.77974954e-001 -1.72482461e-001
      1.95237696e-001 4.34933603e-002 1.13030717e-001 -8.36440027e-001
      3.36636379e-002 3.22650932e-002 1.31689152e-002 1.96384136e-002
      1.47391260e-002 3.20162863e-001 -1.25708520e-001 8.95988271e-002
      -3.92256752e-002 -1.04399763e-001 6.92330450e-002 -3.99997503e-001
      -3.50663096e-001 -4.42596704e-001 1.25202045e-001 1.53772593e-001
      -8.45354609e-003 -4.94687334e-002 -6.97856769e-002 2.18345821e-001
      -5.81579149e-001 -9.94415656e-002 -1.88851833e-001 1.23811573e-001
      -6.88769370e-002 1.09467342e-001 -3.47644269e-001 2.87526101e-001
      1.92654654e-001 1.40190646e-001 4.91148420e-002 -3.21620196e-001
      2.16615088e-002 1.35554746e-003 -5.44488609e-001 -8.24705422e-001
      1.92654654e-001 -1.47792324e-001 8.85815993e-002 -2.36255154e-001
      3.55824903e-002 2.18821168e-001 -2.63251271e-002 -2.37475991e-001
      -3.45169634e-001 -2.25623608e-001 2.69213200e-001 3.38513047e-001
      -2.56921649e-001 -6.41032085e-002 1.40927985e-001 -3.74522954e-001
      -2.27737784e-001 -3.03908158e-002 4.26491462e-002 5.47288284e-002
      -2.69404083e-001 -6.66119158e-002 3.45089585e-002 1.63132682e-001
      -3.76832858e-002 -2.05088317e-001 -1.61613032e-001 8.38494450e-002
      -1.63248274e-002 -2.77208030e-001 -2.05465659e-001
      -2.88201809e-001 2.94917107e-001 1.27652958e-001 3.97512674e-001
      7.03491628e-001 4.32076395e-001</_>
    <_>
      6.69287816e-002 2.81175822e-001 1.43644363e-001 2.92301504e-003
      -1.80822313e-001 -4.33509760e-002 -1.89052269e-001
      -2.73668587e-001 7.25379139e-002 -1.22393496e-001 3.47545624e-001
      3.91415209e-001 1.63881749e-001 2.18337074e-001 2.97216296e-001
      -9.08723995e-002 -4.62183863e-001 -3.21358502e-001 6.68696582e-001
      7.68957675e-001 5.20150244e-001 1.99497059e-001 -8.89683142e-002
      -1.63556784e-001 -7.32427061e-001 -8.32922578e-001 2.67148286e-001
      -1.17228888e-001 3.60397935e-001 3.95962298e-001 1.59101307e-001
      -4.47405763e-002 1.04195848e-001 -4.57885712e-001 -7.99501359e-001
      -8.80228654e-002 -4.19501886e-002 2.94921175e-003 1.89563960e-001
      4.01300281e-001 4.50046182e-001 4.31169979e-002 -1.34544805e-001
      -3.24394107e-001 -1.56767562e-001 5.02125323e-001 -1.08757228e-001
      1.03823885e-001 4.78785373e-002 -6.65170774e-002 -3.61249655e-001
      -3.01750362e-001 -4.22538489e-001 1.04495004e-001 -2.80424487e-002
      -2.35009477e-001 1.07854471e-001 1.84595257e-001 1.42742142e-001
      1.29276663e-001 7.57625997e-002 -1.53435215e-001 8.71430710e-003
      8.71430710e-003 -2.58109987e-001 7.23117366e-002 2.51720268e-002
      -1.23851083e-001 -6.63570836e-002 -5.78364544e-002 6.22539148e-002
      8.71430710e-003 2.61003792e-001 -1.76956743e-001 -1.82888761e-001
      5.66981314e-003 -2.33534634e-001 -3.83969635e-001 2.98834331e-002
      -3.41218486e-002 1.16332695e-001 1.80287525e-001 -9.53181311e-002
      -2.87532747e-001 1.17957540e-001 -1.43875524e-001 -2.73126930e-001
      -2.47749984e-001 4.85812500e-002 5.86897433e-002 -2.89603695e-002
      -4.29284871e-001 -3.41359496e-001 8.36735591e-002 -4.21526730e-002
      -2.13240370e-001 1.58444811e-002 4.52655673e-001 3.31001729e-001
      -9.50896218e-002 -2.64171183e-001 -2.47666061e-001 4.83033620e-002
      -3.09796799e-002 4.22747657e-002 1.12279698e-001 6.41126633e-001
      2.65514553e-001</_>
    <_>
      -1.76979989e-001 6.69004619e-002 -1.59909308e-001 -2.90826019e-002
      1.62046291e-002 2.84708049e-002 -5.89793585e-002 7.11348504e-002
      2.57427674e-002 -1.00264832e-001 -6.40737116e-002 -2.99757272e-001
      -1.29733711e-001 4.39332128e-002 1.40153125e-001 1.37364879e-001
      2.38677353e-001 1.82732195e-001 -1.45818636e-001 1.94629822e-002
      -6.17638119e-002 5.21819368e-002 8.29645172e-002 7.49022365e-002
      -1.27193615e-001 7.50554428e-002 2.19489664e-001 9.59639549e-002
      -2.15105802e-001 -1.75760061e-001 6.57616043e-003 2.55372953e-002
      6.03829790e-003 1.13767259e-001 1.81736559e-001 -4.78863455e-002
      -3.01729232e-001 -1.21026319e-002 8.46614018e-002 -9.33391303e-002
      9.55138654e-002 4.63108197e-002 -9.37780067e-002 -5.16361408e-002
      -5.07313125e-002 -1.47958890e-001 4.74594891e-001 5.08693457e-001
      -8.14123899e-002 -9.70505327e-002 -1.32834896e-001
      -4.42494780e-001 -2.69272566e-001 -1.94901079e-001 7.06199482e-002
      2.80122925e-002 3.50859314e-001 7.90235847e-002 7.56485090e-002
      3.12537812e-002 -3.59994918e-001 -1.83863506e-001 -2.80564696e-001
      -1.08801909e-001 3.84931296e-001 7.24374235e-001 2.14838892e-001
      2.81587481e-001 9.39658731e-002 -7.58596539e-001 -6.74371183e-001
      -5.83234549e-001 6.12517595e-002 3.34974468e-001 2.62407035e-001
      -1.42561004e-001 -8.34946856e-002 -2.36977488e-001
      -5.19194841e-001 -4.64800358e-001 -5.34110554e-002 2.94623077e-001
      1.94410235e-001 1.17183246e-001 1.40100881e-001 4.16550040e-001
      -2.49945149e-001 -5.20704269e-001 -4.32600498e-001 1.43338531e-001
      -6.59009144e-002 2.95953900e-002 3.32854278e-002 -6.38061613e-002
      3.55871320e-001 1.51168704e-001 -3.40227485e-001 -3.08653414e-001
      -1.98288128e-001 1.37785882e-001 -1.71511948e-001 -2.86370546e-001
      -7.70381093e-002 3.21380615e-001 1.05175309e-001 -1.15670718e-001
      7.80333020e-003 3.09294164e-001</_>
    <_>
      -1.77817836e-001 -1.43574476e-001 -3.87663255e-003 2.06170619e-001
      -5.38191432e-003 1.81330107e-002 1.03393383e-001 1.10257044e-001
      -6.71793520e-002 1.29302338e-001 -1.54833958e-001 -2.07485884e-001
      -7.42704123e-002 8.19270164e-002 -4.18063365e-002 2.28822276e-001
      2.43631333e-001 2.01730072e-001 -5.11445343e-001 -5.86631000e-001
      -2.73938179e-001 1.10973671e-001 1.93362869e-002 -5.65565713e-002
      2.72206813e-001 4.73485976e-001 -7.71508738e-003 2.51940452e-002
      -1.36744156e-001 -3.23339403e-002 4.01811525e-002 -8.17972794e-003
      -1.61231488e-001 9.51262042e-002 4.14566606e-001 1.98347010e-002
      -1.99924529e-001 -1.51141927e-001 3.63428332e-002 -9.13449302e-002
      1.12412766e-001 -8.68824944e-002 3.85956578e-002 6.60432056e-002
      -2.92057823e-002 -2.08865821e-001 1.47924885e-001 4.95674640e-001
      8.91617015e-002 -1.11431293e-001 -2.45667726e-001 -3.26546878e-002
      -1.42095298e-001 -4.95412499e-001 -3.95537540e-002 3.74058515e-001
      5.54111660e-001 9.79802981e-002 7.81957060e-002 -1.76543131e-001
      -2.35663950e-001 -4.27294448e-002 -2.63812870e-001
      -7.50722513e-002 5.54245822e-002 6.92799389e-001 2.03279510e-001
      7.02729747e-002 2.64856797e-002 1.73514127e-003 -4.30130452e-001
      -6.16529882e-001 2.63835639e-001 5.27583539e-001 4.66746569e-001
      5.89917973e-002 -1.56913251e-001 -2.32958868e-001 -1.94672212e-001
      -3.86072248e-001 -2.16061756e-001 1.54947877e-001 1.18226141e-001
      5.75748645e-002 2.95747697e-001 1.73052296e-001 7.06231594e-002
      -1.23895071e-001 -3.55593026e-001 -1.50485054e-001
      -6.87740045e-003 -1.37162944e-002 3.99263501e-001 8.73626173e-002
      1.99304968e-001 1.64199650e-001 2.45408043e-002 -4.43230301e-001
      -3.77560049e-001 4.43259766e-003 -1.98128983e-001 -2.00194512e-002
      9.37133431e-002 1.14065155e-001 1.19499013e-001 -1.04531780e-001
      -4.87210155e-001 -5.59241474e-002</_>
    <_>
      -1.39032990e-001 2.32876069e-003 -4.87335287e-002 5.21733612e-002
      -2.12408960e-001 5.00144325e-002 8.53647292e-002 1.57256395e-001
      1.24034777e-001 -7.79406577e-002 9.26910564e-002 3.41836102e-002
      7.34560490e-002 -2.70088822e-001 -1.48360049e-002 1.55430049e-001
      1.03548467e-001 1.13076091e-001 -3.50123763e-001 -1.75727740e-001
      -1.52313381e-001 5.55290328e-003 -3.09170127e-001 2.52245367e-002
      1.17984533e-001 4.21559691e-001 2.23235592e-001 9.64824259e-002
      1.70171671e-002 -9.78394523e-002 -1.33674711e-001 -3.89717549e-001
      -2.50706822e-001 1.18891813e-001 2.13365987e-001 1.60582274e-001
      -1.30071029e-001 2.55419493e-001 3.28339607e-001 -5.10454848e-002
      -3.25697362e-002 -1.28050804e-001 -9.12042558e-002
      -1.90023199e-001 -4.84199226e-002 -3.42222564e-002 4.05903161e-001
      3.57409567e-001 -9.34114978e-002 -1.61746368e-001 -2.59847999e-001
      -3.60829353e-001 -3.67216170e-001 -2.23830193e-001 3.45175773e-001
      3.65062386e-001 4.14445609e-001 -1.72126386e-002 -2.68727750e-001
      -2.38765284e-001 -2.75335580e-001 -3.79070073e-001
      -2.71864235e-002 -3.19396369e-002 1.77674070e-001 4.66852725e-001
      1.49862081e-001 1.81055471e-001 1.82390213e-002 -2.16697067e-001
      -4.34183806e-001 -3.40714753e-001 -1.60854880e-003 2.87739813e-001
      1.66191310e-001 -7.69296885e-002 -1.19022839e-001 -1.96026266e-001
      -3.34222108e-001 -3.17296386e-001 -7.49884769e-002 1.54645741e-001
      1.04569256e-001 -3.32620032e-002 1.00034818e-001 1.83150887e-001
      -1.12172432e-001 -1.95706189e-001 -1.32624298e-001 1.00512072e-001
      2.02490930e-002 -5.61902672e-003 1.69784147e-002 1.11089423e-002
      2.51670808e-001 7.56136701e-002 -2.96919625e-002 -1.45543978e-001
      -1.35447353e-001 9.93590802e-002 -8.83744881e-002 -1.68090761e-001
      -4.68839854e-002 1.55625790e-001 1.01825148e-002 -3.92011665e-002
      -2.63511110e-002 1.44599855e-001</_>
    <_>
      -7.79446959e-002 -7.32408762e-002 -1.50717959e-001 8.38265866e-002
      -6.69871494e-002 -9.76599306e-002 1.45422984e-002 1.17611110e-001
      1.41296044e-001 -6.37248605e-002 -3.41335237e-002 -3.89963500e-002
      9.29951109e-003 -2.17922926e-002 -1.43277586e-001 1.18294358e-001
      1.79469585e-001 2.29489028e-001 -1.38256133e-001 -1.32151395e-002
      -8.19504261e-002 6.39494583e-002 -3.39938030e-002 -1.93002433e-001
      -1.05628885e-001 1.36212647e-001 8.09714794e-002 1.19627714e-001
      8.87609199e-002 -6.10977085e-003 -1.20735042e-001 -1.56931370e-001
      -3.07397753e-001 -8.88483152e-002 9.57917944e-002 1.53411150e-001
      -2.98421413e-001 1.97142407e-001 3.01988661e-001 5.02244607e-002
      1.14449657e-001 -6.18660934e-002 -2.53360756e-002 2.83634197e-002
      -9.93791968e-002 -1.68986931e-001 3.34194571e-001 4.45006311e-001
      1.49993107e-001 1.35990769e-001 -1.95045564e-002 -1.77774847e-001
      -2.50836074e-001 -4.41248536e-001 3.01180780e-001 3.26915264e-001
      3.77225399e-001 4.60550785e-002 4.52117017e-003 -1.63890839e-001
      -3.14471096e-001 -3.75638187e-001 -4.03754413e-002
      -9.21423733e-002 2.63772756e-001 4.44271803e-001 1.64205790e-001
      1.62166849e-001 4.56268750e-002 -2.28875563e-001 -4.45377797e-001
      -4.62900221e-001 -1.56303756e-002 3.66389066e-001 2.31463820e-001
      3.19299251e-002 6.40333369e-002 -5.53170852e-002 -2.31120944e-001
      -4.47288185e-001 -3.40279073e-001 1.88668847e-001 1.65845200e-001
      1.12872936e-001 2.13468060e-001 1.38084218e-001 -1.48329660e-001
      -2.40014017e-001 -2.18894735e-001 8.34382176e-002 -9.12613608e-003
      -3.15851159e-003 1.11854330e-001 -8.24115705e-003 1.97791234e-001
      1.21295035e-001 -4.74151038e-002 -1.11166470e-001 -3.51068765e-001
      4.51683067e-002 -1.36536524e-001 -1.02308981e-001 8.06616321e-002
      1.46999344e-001 8.94441530e-002 -3.45166959e-002 3.35606001e-002
      1.55227348e-001</_>
    <_>
      1.08983338e-001 8.90599608e-001 5.03601313e-001 -1.82273351e-002
      -6.20139539e-001 -8.34000111e-002 -1.76777039e-002
      -1.12985810e-002 -1.19077958e-001 2.66417921e-001 2.38358006e-001
      1.54798657e-001 -3.63135517e-001 -3.79888117e-001 -2.97272980e-001
      1.49549656e-002 1.08165033e-002 1.16243020e-001 -1.04695165e+000
      -1.72971800e-001 3.29717249e-002 -5.08586951e-002 -4.01938140e-001
      -1.86548024e-001 3.63487929e-001 4.79622424e-001 1.84012070e-001
      -9.33796284e-004 -1.04557648e-001 -6.28712356e-001
      -7.25976169e-001 -4.39898849e-001 -1.19651802e-001 5.41815937e-001
      6.98921442e-001 2.35181272e-001 -3.30530614e-001 -3.29127192e-001
      2.52166897e-001 -1.61858499e-001 7.85688832e-002 -2.04435751e-001
      9.30302739e-002 1.14294983e-001 7.98327401e-002 -4.90444839e-001
      2.36287173e-002 5.51156700e-001 1.75840303e-001 8.05493891e-002
      3.71525288e-002 4.37075309e-002 9.58054326e-003 -1.29473791e-001
      2.21361201e-002 1.04397591e-002 1.10669814e-001 -2.75062323e-001
      -1.84963018e-001 -2.47699216e-001 -1.02480471e-001 2.03508750e-001
      2.77354121e-001 -3.35896462e-001 2.36287173e-002 6.27307832e-001
      2.22672254e-001 -7.10384035e-003 6.83409050e-002 -8.74109566e-002
      -2.06580143e-002 -3.95741105e-001 -1.16618097e-001
      -1.61378160e-002 5.70570230e-001 2.07082957e-001 1.38674825e-001
      4.69690226e-002 -3.66064534e-002 -2.21807748e-001 -2.30453402e-001
      -2.54081458e-001 -4.16494578e-001 -1.84026688e-001 1.63196191e-001
      5.76704800e-001 2.25963652e-001 -3.11487149e-002 -2.85021216e-001
      -2.13194937e-001 -1.65812969e-001 1.71813497e-003 4.72837180e-001
      2.60839373e-001 2.96698064e-001 3.40774417e-001 1.28239840e-001
      -2.47572791e-002 -2.88265973e-001 -1.64665475e-001
      -3.18099082e-001 -1.91893324e-003 4.11076754e-001 4.67786103e-001
      3.49840641e-001 8.83792788e-002 -3.64418268e-001 -1.53207302e-001</_>
    <_>
      -2.28521407e-001 -3.87960114e-002 -4.13468331e-002
      -1.56334564e-001 -1.12031147e-001 8.64220411e-002 -3.17157693e-002
      6.35432005e-002 8.43852311e-002 -1.65413395e-001 5.98638058e-002
      1.54423445e-001 -1.04802728e-001 2.85399947e-002 -2.73872495e-001
      1.07240960e-001 -1.04929753e-001 -5.44496775e-002 -1.70387879e-001
      7.58899301e-002 6.11511320e-002 -1.14213461e-002 7.42858797e-002
      1.10974327e-001 -1.87829599e-001 7.70685822e-002 1.88523501e-001
      1.19514428e-001 -3.57106477e-002 -2.22091582e-002 -1.01726018e-001
      1.69194210e-002 -2.28097931e-001 1.79757506e-001 9.80276987e-002
      4.24948744e-002 -2.46458739e-001 1.20225221e-001 3.91967237e-001
      -7.14875460e-002 4.46984805e-002 -3.45068783e-001 4.62526036e-003
      -1.86317757e-001 -1.97224662e-001 -1.72720522e-001 2.20594943e-001
      3.60796511e-001 -8.57920125e-002 4.68714871e-002 -1.48118436e-001
      -2.13901132e-001 -3.01779300e-001 -5.88398874e-001 1.10458046e-001
      3.03270161e-001 4.69674081e-001 -3.04579386e-003 2.63629723e-002
      -3.24853241e-001 -3.78003456e-002 -1.73913285e-001
      -9.10308510e-002 -5.92042170e-002 4.89182472e-001 6.01848662e-001
      1.69460550e-001 3.22593659e-001 -4.05799933e-002 -4.26172912e-001
      -6.36899948e-001 -6.04418993e-001 -2.33534966e-002 3.79097641e-001
      2.33597204e-001 1.37621835e-001 1.10709392e-001 -2.61727571e-001
      -3.07027489e-001 -5.13406634e-001 -4.60248768e-001 3.41614634e-001
      2.21614137e-001 4.52528968e-002 2.39235967e-001 1.92747355e-001
      -2.56562650e-001 -2.64799029e-001 -4.22115445e-001 1.30917430e-001
      -1.31207537e-002 6.18730932e-002 -5.96594065e-002 2.56092250e-001
      4.24589306e-001 3.38657796e-002 -1.04788147e-001 -2.73905247e-001
      -3.76653433e-001 1.06629752e-001 -1.29420087e-001 -2.41811454e-001
      5.44781163e-002 2.66760141e-001 9.27245840e-002 6.28092885e-002
      7.80701041e-002 1.84601292e-001</_>
    <_>
      -1.68250382e-001 1.51790783e-001 3.02433148e-002 1.26048755e-002
      -1.58929095e-001 3.30606028e-002 4.33038548e-002 -8.44813213e-002
      7.06521571e-002 -2.35031888e-001 1.34429246e-001 1.72846898e-001
      7.86313694e-003 -1.03665061e-001 9.91666391e-002 8.65666568e-002
      -1.60826713e-001 8.73226151e-002 -7.88263232e-002 5.64287119e-002
      6.22910932e-002 4.75581810e-002 -7.82193989e-002 6.75600991e-002
      -1.35076180e-001 -2.62285583e-002 1.67334214e-001 -6.37481827e-003
      2.17584983e-001 2.97779262e-001 2.48423442e-002 -2.17030138e-001
      -6.69032037e-002 -1.00128502e-001 -2.28724908e-002
      -2.28724908e-002 -1.35231078e-001 2.56512016e-001 5.36290944e-001
      1.15109563e-001 7.62592703e-002 -3.07365991e-002 -2.21535668e-001
      -3.23836416e-001 -1.67758912e-001 2.55876720e-001 4.24995452e-001
      6.57733560e-001 1.55334413e-001 -1.27127394e-001 -4.56993014e-001
      -4.28935021e-001 -4.33582306e-001 -4.52453434e-001
      -1.41099691e-001 4.14889723e-001 6.96136296e-001 1.82518899e-001
      2.56580822e-002 -2.20601559e-002 -7.62540549e-002 -2.63374209e-001
      -3.08784842e-001 -2.17923626e-001 1.16071925e-001 5.75630724e-001
      3.75392705e-001 1.53914034e-001 7.55931204e-003 -7.19797835e-002
      -2.77087301e-001 -7.53220975e-001 3.18227082e-001 2.15561584e-001
      2.48023257e-001 6.52030930e-002 -2.38392800e-001 -3.91953707e-001
      -1.89432964e-001 -2.56837249e-001 -1.59247443e-001 2.33502701e-001
      -9.82021838e-002 -1.34803534e-001 3.24743837e-001 8.69777724e-002
      3.01828869e-002 -1.21195801e-001 -2.59819210e-001 1.05694346e-001
      -9.56272334e-002 -7.00161457e-002 -1.56005129e-001 2.53078103e-001
      1.73472568e-001 4.22325283e-002 1.18923627e-001 -4.40306589e-002
      -2.57262528e-001 -1.61944497e-002 -2.67844260e-001
      -3.42943370e-001 2.42712960e-001 2.12054536e-001 1.05962753e-001
      4.83529419e-002 3.21109928e-002 2.03846186e-001</_>
    <_>
      6.43865764e-002 -2.92381406e-001 1.70230046e-001 5.02196729e-001
      7.43072182e-002 1.36790127e-001 3.34161878e-001 -3.76437185e-003
      -1.53344065e-001 2.43751742e-002 -2.34222505e-002 1.44355014e-001
      1.36127755e-001 1.84372336e-001 -1.17368802e-001 2.89697554e-002
      5.51016591e-002 4.79611978e-002 -5.62030911e-001 -1.07476938e+000
      -3.34089637e-001 2.08412945e-001 1.44902542e-002 2.19177991e-001
      8.57536256e-001 4.23684955e-001 -2.96352059e-001 -5.83593026e-002
      7.56818652e-002 2.15427741e-001 9.19853672e-002 -1.69770926e-001
      -3.84572029e-001 -2.95412587e-003 2.77158201e-001 -8.44486281e-002
      -5.96293956e-002 -7.45828077e-002 3.20230797e-002 -8.69363844e-002
      1.06745042e-001 -1.04415841e-001 1.14096299e-001 2.41971195e-001
      1.84732291e-003 -4.81025040e-001 -5.35746455e-001 -7.19241053e-002
      1.27104998e-001 1.47813717e-002 3.31935510e-002 6.54828608e-001
      4.53103095e-001 -3.86599094e-001 -6.16620295e-002 5.62248886e-001
      2.44347602e-001 -3.74573767e-002 -1.06419679e-002 -2.81855643e-001
      3.69920880e-002 2.54035622e-001 -3.92922387e-002 -8.38791057e-002
      -5.59308648e-001 -3.12018041e-002 4.52025756e-002 -1.64314225e-001
      -4.86160927e-002 8.16765606e-001 1.56243637e-001 -1.09199159e-001
      -3.87599431e-002 1.34532992e-002 3.94362628e-001 3.10265183e-001
      -1.61678970e-001 7.63743967e-002 3.52505296e-001 1.53536543e-001
      -8.67913365e-002 -1.00398913e-001 -1.21259719e-001 1.74174145e-001
      1.64984047e-001 -2.58889079e-001 1.87740117e-001 4.63248193e-001
      -4.09821421e-002 -2.44091421e-001 9.82478932e-002 7.44186491e-002
      3.51304710e-001 2.96474993e-001 -4.03347135e-001 3.54062836e-003
      4.17442083e-001 -3.15474689e-001 1.18365576e-002 1.57145977e-001
      1.21289335e-001 2.27194205e-001 2.63713390e-001 -4.39783305e-001
      1.28128659e-002 3.67899723e-002 -8.99320006e-001 -4.87446785e-001</_>
    <_>
      1.94472019e-002 -2.35270873e-001 1.40206546e-001 2.72776723e-001
      -3.91188502e-001 1.81754306e-001 1.95432171e-001 1.32193521e-001
      1.26327813e-001 -4.70656436e-003 3.45834702e-001 6.44977689e-001
      5.11223793e-001 -4.07821745e-001 -1.53726846e-001 -1.44285960e-002
      -1.68449149e-001 -1.48705289e-001 -3.36055815e-001
      -4.62231636e-001 -3.10353220e-001 -5.96434390e-003
      -6.95393801e-001 2.65719742e-001 3.46196890e-001 6.73980832e-001
      1.52698800e-001 1.10451385e-001 4.15254623e-001 -6.88631535e-002
      -1.82964802e-001 -9.18525994e-001 -6.37085915e-001
      -1.80973276e-001 -5.43940291e-002 4.18965042e-001 6.15426525e-002
      5.77255309e-001 4.58387405e-001 9.15561803e-003 -1.21194117e-001
      -3.29828411e-001 -1.16507538e-001 -1.38549566e-001 2.57520620e-002
      -3.27393077e-002 7.11816503e-003 -9.75205526e-002 -2.83053398e-001
      -1.11589678e-001 -2.30757579e-001 -1.34774866e-002 1.25076085e-001
      6.48136958e-002 7.95171380e-001 7.93120801e-001 1.53732896e-001
      -2.02055275e-001 -6.71317339e-001 -5.44126570e-001
      -2.91062295e-001 -5.27166903e-001 2.46201053e-001 -1.50072919e-002
      -2.23100245e-001 -9.15738791e-002 -3.54257375e-002
      -1.43023313e-003 1.34840943e-002 3.81134957e-001 -6.80692270e-002
      -5.73633015e-002 -2.68610954e-001 -6.18267842e-002 6.08835602e-003
      -8.38562772e-002 -8.81811902e-002 6.08295016e-002 8.12007114e-002
      1.36440352e-001 7.89263994e-002 2.24656961e-003 -7.00933710e-002
      -1.65781170e-001 -4.68162894e-002 -4.58308347e-002
      -2.47072168e-002 1.91240609e-001 1.83441743e-001 1.49530992e-001
      -4.05219309e-002 -1.13082238e-001 -1.62639484e-001 1.14108428e-001
      -1.63929574e-002 5.47410958e-002 3.84713084e-001 2.02388555e-001
      -8.71561095e-003 9.41205472e-002 -7.96848834e-002 -2.53365219e-001
      -1.77809894e-002 5.12055084e-002 -7.37033561e-002 6.34397119e-002
      -2.73664165e-002 -1.40204299e-002</_>
    <_>
      1.00945989e-002 -2.15608761e-001 -3.40815783e-001 3.39442343e-001
      2.23151091e-002 -9.66369584e-002 1.94391742e-001 9.26644877e-002
      2.37183258e-001 -8.60988870e-002 8.60775635e-002 6.79979622e-001
      2.91309446e-001 -9.01090074e-003 -4.42362726e-001 -4.39307988e-002
      3.99251282e-002 3.59509066e-002 -1.63963258e-001 -1.21342942e-001
      -4.21128511e-001 1.95626944e-001 -2.93667525e-001 -1.25303030e-001
      1.03134088e-001 1.92819592e-002 -1.53758109e-001 2.86364555e-001
      4.91519630e-001 -1.47449300e-001 -4.63547170e-001 -4.63376731e-001
      -8.27258170e-001 -5.98927557e-001 -5.47097363e-002 3.43281209e-001
      -7.59140372e-001 9.27996099e-001 6.38435602e-001 4.78693396e-002
      2.26000743e-003 -2.09186763e-001 -6.08766973e-002 3.39490741e-001
      -7.83486888e-002 -8.65479767e-001 5.65054044e-002 1.59992367e-001
      3.38526845e-001 3.63442481e-001 3.54602516e-001 5.61912954e-001
      3.10894638e-001 -4.19136524e-001 1.29056203e+000 1.04363132e+000
      7.54761845e-002 -3.91633213e-001 -1.77213967e-001 -4.36045676e-001
      -5.60181856e-001 -8.13066363e-001 2.71995246e-001 -3.31314325e-001
      1.87135264e-001 -1.91231236e-001 -4.41698246e-002 3.33239860e-003
      -2.05729194e-002 3.49885404e-001 -2.52027214e-001 -2.42221117e-001
      -2.98115104e-001 2.30641276e-001 5.86250961e-001 2.79295355e-001
      1.89458713e-001 5.98073781e-001 4.42181081e-001 -3.92910302e-001
      -5.14149904e-001 2.12678954e-001 1.06662162e-001 2.14912638e-001
      -3.66775692e-002 -3.46485674e-002 5.32761663e-002 -2.15490907e-002
      -1.58734635e-001 -3.31867784e-002 -1.65627077e-001
      -3.78481136e-003 2.54159003e-001 -2.31983811e-002 -1.60172969e-001
      2.40445793e-001 5.09329617e-001 4.42794770e-001 -2.45776281e-001
      -1.79332823e-001 -8.85567069e-003 -1.10285223e-001 8.23472664e-002
      -4.22481969e-002 3.28548513e-002 1.43446110e-003 -2.22097374e-002
      -1.67978644e-001</_>
    <_>
      1.77817777e-001 3.99848253e-001 3.86278033e-001 2.38708854e-001
      -3.87258083e-001 -9.15874094e-002 1.60177972e-003 -1.04515895e-001
      -6.37746155e-002 1.61886260e-001 1.15928449e-001 2.42508799e-001
      6.74768835e-002 -2.37832993e-001 -1.64942890e-001 -1.00600004e-001
      -1.61783814e-001 -5.09135127e-002 -3.36781770e-001
      -2.50001043e-001 1.63832176e-002 1.83824655e-002 -3.05006206e-001
      5.28741581e-003 2.33155072e-001 1.23502024e-001 -6.43559247e-002
      -4.98569943e-002 -2.60239579e-002 -1.90237343e-001
      -1.96213067e-001 -3.79399151e-001 -1.12587668e-001 1.50763735e-001
      1.69492617e-001 1.53426930e-001 7.96020254e-002 -2.86932349e-001
      2.02535897e-001 8.50873739e-002 6.18196279e-002 -3.19823786e-003
      1.17453635e-001 1.34329975e-001 8.79098549e-002 -3.09244186e-001
      -4.61301565e-001 -8.16701651e-002 2.46548697e-001 1.95763335e-001
      2.55991966e-001 4.13672626e-001 2.83506066e-001 7.74140358e-002
      2.78773643e-002 -1.52071834e-001 -2.07825527e-001 -2.07307100e-001
      -1.04577087e-001 -5.58185838e-002 2.23289028e-001 2.87474781e-001
      4.32327837e-001 -6.63531497e-002 -4.55758899e-001 -1.63692161e-001
      -1.55639291e-001 -1.21603429e-001 5.53524457e-002 4.51070428e-001
      4.84500557e-001 2.53178269e-001 -3.41663867e-001 -4.69704717e-001
      1.23137124e-001 3.37513745e-001 2.86957324e-001 3.35891157e-001
      4.38070267e-001 3.53371441e-001 -6.05757870e-002 -4.36694562e-001
      -3.98971081e-001 -1.08189195e-001 3.59839201e-002 1.44573927e-001
      2.73610711e-001 3.40775967e-001 1.95845291e-001 -2.02516571e-001
      -5.66010848e-002 1.25804301e-002 2.51550317e-001 5.69398142e-002
      -1.05991721e-001 4.84077744e-002 2.50148565e-001 1.63676381e-001
      5.23119532e-002 -2.43598595e-001 9.96998027e-002 1.92104533e-001
      1.33758217e-001 5.01063019e-002 6.20916747e-002 3.90667580e-002
      -3.39781821e-001 -3.50643277e-001</_>
    <_>
      7.15349987e-002 1.64834753e-001 3.58940601e-001 4.02178764e-002
      -1.11398593e-001 3.53892893e-001 1.23687275e-001 -1.56313330e-001
      -9.10091400e-002 -2.16075271e-001 5.40023327e-001 1.29145491e+000
      6.76618889e-002 -3.77324671e-002 -8.36813331e-001 -4.39488620e-001
      -7.87871718e-001 -1.06636643e+000 -1.04465544e-001 9.46079642e-002
      1.90800324e-001 -5.59789762e-002 6.37186989e-002 5.28574109e-001
      7.75987655e-002 -5.30061089e-002 -1.19632952e-001 4.78812940e-002
      4.13522929e-001 3.49197865e-001 -3.54931086e-001 -3.97143960e-001
      -6.70319617e-001 -4.31001037e-002 -1.35191053e-001 6.21587504e-003
      -1.76443174e-001 7.57717490e-001 6.76771998e-001 -3.61599594e-001
      -2.16328338e-001 -7.76753128e-001 1.10655380e-002 -2.05672517e-001
      -2.60412186e-001 -7.27903008e-001 -6.76622629e-001
      -3.64597589e-001 -6.37850583e-001 4.62855678e-003 2.67975032e-001
      7.94975221e-001 3.14923674e-001 -4.78527516e-001 3.65355641e-001
      5.79183877e-001 1.94861263e-001 -5.79345703e-001 -4.17618185e-001
      -8.13609242e-001 4.62448835e-001 2.96047747e-001 1.27079070e-001
      -2.76018139e-002 6.82673752e-002 -1.85793079e-002 -5.59457302e-001
      -1.61887378e-001 -2.02058583e-001 4.76022393e-001 -8.09314474e-003
      -1.00787900e-001 -6.53191030e-001 -2.76786000e-001 3.39304477e-001
      4.51663822e-001 2.51232058e-001 1.52133167e-001 3.01234782e-001
      -1.17562406e-001 -6.56661570e-001 1.95659801e-001 -2.31599566e-002
      -8.67919549e-002 2.07286641e-001 1.50558144e-001 -1.99077308e-001
      1.63948044e-001 1.41960010e-002 5.60178123e-002 -1.10141538e-001
      5.42062409e-002 1.40919551e-001 3.63258034e-001 6.85770363e-002
      -7.25907087e-002 3.72428954e-001 1.24466620e-001 -1.98697701e-001
      -1.43506648e-002 -1.52085731e-002 -2.05075398e-001 2.20516920e-001
      3.33876520e-001 -5.04059568e-002 2.31582835e-001 1.08571194e-001
      -1.99343473e-001</_>
    <_>
      1.58512354e-001 8.63436237e-002 1.18380301e-001 1.49535492e-001
      -2.63711154e-001 1.53806329e-001 6.39432147e-002 -2.06602231e-001
      1.13580562e-001 -1.81557715e-001 3.83844525e-001 7.32553840e-001
      3.40568423e-001 -6.83098137e-002 5.13864793e-002 -6.16367236e-002
      -5.38478374e-001 -5.63018143e-001 2.11553052e-001 -4.99696173e-002
      8.67946818e-002 -2.64074430e-002 -3.06896627e-001 1.73382789e-001
      -9.37251002e-003 -1.47311360e-001 6.80870097e-003 -1.32837236e-001
      8.76450479e-001 6.37689233e-001 1.39378622e-001 -4.12553132e-001
      -1.56208739e-001 -3.72438431e-001 -2.57003993e-001
      -1.49489924e-001 -1.28993511e-001 5.70864141e-001 6.76705658e-001
      1.84026510e-001 1.40446901e-001 -2.34353498e-001 -3.29857588e-001
      -4.12992477e-001 -3.52766901e-001 1.74885616e-001 -6.47169873e-002
      3.03366035e-001 -8.99527743e-002 -1.95969597e-001 -5.85219681e-001
      -2.29120195e-001 -6.08020872e-002 9.81494933e-002 -1.89839512e-001
      7.07400322e-001 4.20473635e-001 8.38875547e-002 -1.59445360e-001
      -1.23554960e-001 3.92898351e-001 2.45844468e-001 -2.16128856e-001
      -2.58554935e-001 -4.11061913e-001 -2.25399509e-002
      -2.79006772e-002 -2.80025095e-001 -1.13469094e-001 7.67010927e-001
      9.17875648e-001 -2.45573536e-001 8.79135728e-002 -2.62608886e-001
      2.04224139e-001 2.20731739e-002 -4.84933555e-001 -4.39051449e-001
      2.95191437e-001 3.03439975e-001 2.54462156e-002 3.67003307e-002
      -3.09006155e-001 -2.22340420e-001 8.45905989e-002 -2.68139482e-001
      -1.72222761e-004 2.45227907e-002 1.20412849e-001 -1.07847504e-001
      -1.11128248e-001 -8.19273070e-002 -1.31365791e-001 2.14944050e-001
      -2.64266163e-001 -2.38942534e-001 4.85351712e-001 6.98478162e-001
      2.63076156e-001 -6.72025904e-002 -3.30334306e-002 -1.41135678e-001
      3.77994210e-001 2.55352091e-002 -7.45466501e-002 1.21023186e-001
      3.44891362e-002 -2.23115921e-001</_>
    <_>
      -2.66498923e-001 -9.31256742e-004 2.55520064e-002 2.52504274e-002
      -2.97505111e-001 7.01134726e-002 -8.59407987e-003 1.04596116e-001
      1.43664822e-001 -2.38164812e-001 2.73572743e-001 3.52623850e-001
      2.39854053e-001 -5.27194500e-001 -6.02753982e-002 -1.72816887e-002
      -8.58128518e-002 -1.01789713e-001 -9.31724161e-002 3.38096201e-001
      1.89615801e-001 8.68584663e-002 -6.32227302e-001 7.27622658e-002
      -2.91760713e-001 1.98095605e-001 3.42551768e-001 5.23517542e-002
      1.73962280e-001 -4.93462309e-002 -1.85246632e-001 -5.98826885e-001
      -2.09611848e-001 -6.02953695e-002 -9.05430391e-002 3.71682018e-001
      1.38761654e-001 4.80801582e-001 2.62371451e-001 8.25405419e-002
      -2.03816026e-001 -1.71936706e-001 -1.94248199e-001
      -3.11085910e-001 1.01641476e-001 1.92061409e-001 5.26751995e-001
      -4.35152017e-002 -2.40023032e-001 -2.01277062e-001
      -2.35827446e-001 -4.83756393e-001 -4.30185527e-001 3.23827416e-001
      7.63854623e-001 1.07711792e-001 -3.57216187e-002 -9.07339007e-002
      -4.87975925e-001 -2.29075015e-001 -3.16201150e-001
      -5.56935728e-001 3.34457934e-001 1.22386530e-001 2.26847574e-001
      3.42799723e-002 -1.06647350e-001 4.32507731e-002 -3.78170088e-002
      -3.25117469e-001 -2.60707110e-001 1.50843367e-001 -3.91270518e-001
      1.42237348e-002 -1.56737104e-001 -2.05952123e-001 9.53900628e-003
      3.48013896e-003 -2.14128211e-001 -7.47949183e-002 8.32056776e-002
      -8.67230222e-002 2.28936411e-002 -2.62083203e-001 -1.48817465e-001
      1.91700578e-001 -1.58243552e-001 -9.87377111e-003 2.51603842e-001
      2.46253967e-001 -1.78825393e-001 -1.99406371e-001 -2.88332492e-001
      -2.37728566e-001 1.96673349e-001 1.33579317e-002 -4.56158631e-002
      3.76691580e-001 1.34799704e-001 -1.32584244e-001 -2.70480603e-001
      -3.69126678e-001 -3.26812863e-001 3.34058732e-001 1.06517307e-001
      1.44075438e-001 6.40190423e-001 4.87344861e-001</_>
    <_>
      7.64997527e-002 3.59092318e-002 -2.74867296e-001 -3.07946056e-002
      -5.78362793e-002 -2.36231551e-001 -1.71115324e-001 1.61728989e-002
      2.23986492e-001 5.97271556e-003 6.37004524e-002 1.78894177e-001
      1.41273364e-001 -2.60749105e-002 -2.58553416e-001 -1.22316658e-001
      -7.49451201e-003 -3.01885884e-002 5.01886845e-001 8.17662179e-001
      1.52834147e-001 6.35055378e-002 -1.36825785e-001 -3.92346650e-001
      -6.16871357e-001 -3.60652477e-001 6.40935898e-002 2.63790458e-001
      2.27622643e-001 -1.82228237e-001 -1.13340728e-001 -2.15329438e-001
      -3.34378302e-001 -2.98320979e-001 -3.33891034e-001 2.36033365e-001
      -2.15238839e-001 5.09966373e-001 5.16983211e-001 2.77453363e-001
      9.83698294e-002 -4.41267863e-002 -1.35863930e-001 -1.05067566e-001
      -2.24177390e-001 -1.17236063e-001 5.49557865e-001 3.51887375e-001
      2.15450808e-001 4.11059201e-001 3.47329140e-001 -2.69484580e-001
      -4.03933972e-001 -1.52056426e-001 7.90373921e-001 3.87196690e-002
      -2.50898618e-002 -6.35717362e-002 -6.93350434e-002
      -1.61355287e-001 -3.52193713e-001 -7.10803866e-001 8.62688497e-002
      -6.85363337e-002 6.02865577e-001 2.09620781e-002 -1.12015251e-002
      2.37077624e-001 1.98716953e-001 -3.15657467e-001 -3.14040184e-001
      -9.99635309e-002 -2.24976644e-001 1.33154556e-001 1.74809508e-002
      2.70918328e-002 3.62677902e-001 3.29745948e-001 -1.90263540e-001
      -3.51103842e-001 -3.78943652e-001 6.52933195e-002 1.02861643e-001
      1.27086360e-002 6.03341609e-002 2.36921519e-001 -7.40857050e-002
      -3.72056365e-001 2.37176009e-003 2.63625443e-001 -1.58700377e-001
      1.74196798e-003 -2.07083866e-001 -1.83787823e-001 2.69562989e-001
      1.71691597e-001 2.72961594e-002 4.02032495e-001 -3.03933978e-001
      -1.91588998e-001 -1.42206639e-001 -2.49566764e-001 2.92627048e-003
      3.29163462e-001 1.36161849e-001 1.58305205e-002 6.56458616e-001
      3.21295053e-001</_>
    <_>
      4.45628434e-001 7.80297756e-001 1.91037670e-001 -2.37197906e-001
      -5.93956530e-001 -2.03623429e-001 1.49105191e-002 -1.26653001e-001
      1.46762971e-002 2.01734230e-001 1.92255169e-001 1.84725299e-001
      -1.50629759e-001 -5.19126296e-001 -1.08239807e-001 3.68438512e-002
      -2.21884459e-001 -1.06042370e-001 7.86816925e-002 4.41082865e-001
      2.61606306e-001 -2.83237189e-001 -4.10180569e-001 -1.94229037e-001
      -3.10150087e-002 -2.65149713e-001 1.81561559e-001 -9.33633093e-003
      -1.92981914e-001 -3.86828661e-001 -4.22379047e-001
      -2.82876968e-001 1.54684946e-001 1.44821331e-001 1.30044399e-002
      3.50598246e-001 1.92742452e-001 -1.92832500e-001 2.38151729e-001
      -1.14148287e-002 -2.43358836e-002 7.55887851e-002 8.15602094e-002
      -2.51548979e-002 2.13258222e-001 -7.50503466e-002 -2.16768578e-001
      2.19591800e-002 3.03109512e-002 2.82478243e-001 3.22448015e-001
      2.51961797e-002 2.01730847e-001 5.61619937e-001 3.95493321e-002
      -7.49320626e-001 -5.23085833e-001 -2.21554622e-001
      -1.41571000e-001 1.44664004e-001 1.77116632e-001 1.73901096e-001
      7.52133608e-001 -1.20524339e-001 -1.46471053e-001 -3.52639556e-001
      -2.28088826e-001 -2.65799109e-002 6.88536540e-002 -2.42862850e-002
      4.42217231e-001 4.31142300e-001 -4.56977427e-001 -6.05595529e-001
      -1.21081278e-001 3.76635566e-002 3.77646118e-001 2.62327045e-001
      1.58255130e-001 4.69107926e-001 1.98253542e-001 -4.01429296e-001
      -4.65677887e-001 -2.33243927e-002 -1.26408711e-001 1.02044068e-001
      -3.35618109e-002 6.19564280e-002 3.48124683e-001 7.35318959e-002
      -1.54231086e-001 2.95646489e-002 -1.91420645e-001 -1.51483774e-001
      1.01886846e-001 -5.17613143e-002 3.96532863e-002 5.34341156e-001
      2.92687654e-001 -1.25388995e-001 1.16338342e-004 -3.87411155e-002
      -4.46814820e-002 3.22503358e-001 -1.20945694e-002 1.61075309e-001
      3.95543545e-001 7.77838677e-002</_>
    <_>
      -3.24109495e-002 1.52348548e-001 1.17460955e-002 -2.81359971e-001
      -7.46513605e-002 4.98301797e-002 -1.30894765e-001 2.80994959e-002
      2.32230723e-001 -1.79087922e-001 4.25145924e-001 5.54196894e-001
      -3.54216509e-002 -1.10950090e-001 -2.95941383e-001 9.13499575e-003
      -3.15863341e-001 -4.70905781e-001 3.97715420e-001 8.82586241e-001
      3.41934264e-001 -1.71645030e-001 1.98008530e-002 9.67292339e-002
      -6.10511899e-001 -6.04924679e-001 4.71042879e-002 8.89172684e-003
      1.96931208e-003 1.20417871e-001 -1.60209119e-001 2.30661500e-002
      -2.00936031e-002 1.86542839e-001 -4.95580524e-001 5.87185919e-002
      1.78406328e-001 5.04691482e-001 4.37149763e-001 -1.15030326e-001
      -1.25367925e-001 -3.09639096e-001 -5.17358221e-002
      -2.53785938e-001 -2.55500048e-001 -2.91335918e-002 2.84831554e-001
      -9.56232846e-002 -4.51958507e-001 1.83740869e-001 1.95142061e-001
      -3.18619967e-001 -2.93682367e-001 -9.92360562e-002 1.31477237e-001
      -2.40423650e-001 1.31601393e-002 -2.05029041e-001 -6.59016892e-002
      -1.17580459e-001 1.90626800e-001 -2.36345798e-001 7.92900696e-002
      1.49318976e-002 5.95456243e-001 -1.24354858e-003 -3.19147408e-001
      1.94051355e-001 5.13637885e-002 -4.92587775e-001 -2.24603698e-001
      1.34978052e-002 -3.74093920e-001 -4.54934053e-002 -2.03853026e-001
      2.97133066e-002 4.35201168e-001 1.69835836e-001 -1.76731706e-001
      -1.88921764e-001 -3.20750505e-001 2.13535413e-001 1.45548284e-001
      -1.87136829e-001 -5.34394309e-002 3.29399556e-001 -3.04196060e-001
      -1.08624369e-001 5.55596175e-003 2.90201992e-001 -1.17571875e-001
      -4.45680618e-002 -3.23050320e-001 -5.73707148e-002 4.19777662e-001
      -6.63624145e-004 -9.01002735e-002 3.12012434e-001 -6.31332323e-002
      -2.27550343e-001 -1.99335322e-001 -5.69548965e-001
      -1.82344615e-001 5.32028437e-001 3.93287279e-002 2.24601790e-001
      7.71533072e-001 4.27507341e-001</_>
    <_>
      7.56540596e-002 1.96429223e-001 1.07018419e-001 -1.23104081e-001
      -1.89813495e-001 1.46526853e-002 -1.88903749e-001 -1.60606444e-001
      1.50314480e-001 -1.12214670e-001 3.22643101e-001 3.33431482e-001
      1.90411121e-001 -1.72337636e-001 1.27076134e-001 2.73479018e-002
      -3.51293951e-001 -2.99984485e-001 4.83472139e-001 6.70097053e-001
      4.33222532e-001 -6.02344200e-002 -2.08361164e-001 -3.18264142e-002
      -7.03549266e-001 -3.97948742e-001 2.06049919e-001 -8.21311995e-002
      3.80008638e-001 3.97590488e-001 1.34381384e-001 -1.77343681e-001
      7.85985216e-002 -1.74706191e-001 -4.09037948e-001 -7.35768229e-002
      1.09009653e-001 3.88202459e-001 4.51996922e-001 2.51440018e-001
      5.97307086e-002 -5.87814935e-002 -1.79703385e-001 -4.20858413e-001
      -3.04190814e-001 4.00784910e-001 3.44821095e-001 2.34838337e-001
      -5.41354902e-002 5.94384186e-002 -2.94297814e-001 -5.15167892e-001
      -4.11153883e-001 2.06911817e-001 -9.64673460e-002 -3.37911919e-002
      2.14881659e-001 1.35122105e-001 -5.21165058e-002 1.13091953e-001
      2.35610187e-001 -1.09055921e-001 -1.85360506e-001 -9.64673460e-002
      9.73005742e-002 2.84033734e-002 -2.17467528e-002 4.04834487e-002
      2.36512665e-002 -7.24406689e-002 3.85760635e-001 -9.64673460e-002
      4.96717915e-003 -2.74580121e-001 -2.29394183e-001 -6.88216761e-002
      -4.63953689e-002 -1.96932122e-001 2.02203598e-002 7.72498325e-002
      4.93579730e-002 5.04186377e-002 -1.96577415e-001 -2.63240993e-001
      -2.04363046e-003 5.72964773e-002 -1.39350086e-001 -3.36192101e-002
      1.52737901e-001 2.53453374e-001 -1.04692340e-001 -1.01110756e-001
      -5.13445854e-001 -3.09575759e-002 1.16113879e-001 -1.10132195e-001
      4.16481122e-002 6.03320777e-001 2.11272553e-001 -1.43719405e-001
      -1.61548659e-001 -4.77231294e-001 9.64813083e-002 2.12719575e-001
      3.83199751e-002 -6.04016008e-003 6.51220620e-001 3.31842780e-001</_>
    <_>
      2.16872752e-001 -1.12987399e-001 -6.20376468e-001 -3.20909768e-002
      7.52376437e-001 -5.87859750e-001 -2.77376205e-001 -1.11017957e-001
      1.63715139e-001 1.67983741e-001 -4.89433140e-001 -3.63448977e-001
      -2.24173918e-001 5.58108985e-001 -2.78093129e-001 -1.46926090e-001
      1.44167781e-001 2.28202671e-001 5.85928857e-001 2.99013704e-001
      1.81172416e-001 2.11629257e-001 8.46199572e-001 -7.45983005e-001
      -7.92626977e-001 -8.72078300e-001 -1.03949001e-002 4.03033122e-002
      3.23231928e-002 4.12438005e-001 2.27292962e-002 4.85998720e-001
      1.27813980e-001 -1.63397700e-001 -1.29810229e-001 -7.33129978e-002
      -4.85978693e-001 -2.87915409e-001 2.46933877e-001 2.96639055e-001
      1.56643301e-001 2.31934369e-001 1.61776021e-001 3.14385504e-001
      -5.05104125e-001 -7.62667120e-001 -1.15980320e-001 5.52961946e-001
      1.01603508e+000 7.49141097e-001 7.59406984e-001 5.84934413e-001
      2.29420885e-002 -6.26735866e-001 -1.28880158e-001 -1.33491263e-001
      8.03418458e-002 -3.25526819e-002 1.53994262e-001 3.47336143e-001
      2.77145207e-002 -1.90359273e-003 3.67355719e-002 -5.64253479e-002
      1.19666569e-001 1.39186978e-001 1.97093084e-001 1.00983433e-001
      1.32542923e-001 -2.41113633e-001 -5.33273295e-002 -1.28179073e-001
      -1.61637127e-001 2.28421211e-001 4.67574954e-001 5.11251807e-001
      3.43179137e-001 6.09545290e-001 7.89233074e-002 -3.55093092e-001
      -6.00174308e-001 1.59784153e-001 1.09627239e-001 4.83314097e-001
      9.32042077e-002 -4.81572514e-003 1.31067559e-001 -1.85435668e-001
      -2.33931199e-001 -6.79339990e-002 1.15430228e-001 9.99246258e-003
      4.27055806e-001 -5.98839158e-003 -5.52692413e-002 2.03161016e-001
      -1.19884998e-001 -1.20625347e-001 -2.50380933e-001
      -3.99410911e-002 -3.95676903e-002 2.09811106e-001 5.81980171e-003
      -1.19437225e-001 3.87846380e-002 -1.95166767e-001 5.12705706e-002
      1.44686056e-002</_>
    <_>
      2.34891474e-001 3.95686746e-001 2.31552377e-001 -4.16279025e-002
      -5.92641421e-002 -1.31496057e-001 -1.30435288e-001
      -2.08089039e-001 -1.56492412e-001 1.72618017e-001 -3.74513902e-002
      -1.08202145e-001 -2.08902717e-001 1.18076883e-001 -8.12458470e-002
      -4.63978052e-002 -9.42611918e-002 -2.42188796e-002
      -6.77631423e-002 4.80628386e-002 1.51083335e-001 -3.97836231e-002
      1.47941664e-001 -1.52502377e-002 -2.06575785e-002 -2.87830651e-001
      -1.35661229e-001 -5.78471236e-002 -1.50011986e-001
      -4.01008688e-002 -4.68677543e-002 1.51786774e-001 2.15916902e-001
      8.14624801e-002 5.31873107e-002 -1.53461322e-001 1.41433571e-002
      -5.90114057e-001 -2.13363275e-001 5.57475314e-002 1.58394128e-001
      1.19718514e-001 1.79575220e-001 3.21845978e-001 1.48238659e-001
      -1.93788677e-001 -4.82147872e-001 -6.80127069e-002 2.98936248e-001
      2.87077367e-001 2.89901227e-001 3.76509637e-001 5.11446953e-001
      1.43042579e-001 -3.90891492e-001 -5.16138077e-001 -2.56544560e-001
      -9.62516367e-002 3.00031424e-001 2.84441382e-001 1.71970576e-001
      5.60327768e-001 6.94924518e-002 -3.87267247e-002 -1.88011587e-001
      -2.29729667e-001 -1.53701797e-001 -1.77286968e-001 1.94199234e-002
      8.32845047e-002 5.01598358e-001 2.14366227e-001 -1.55653611e-001
      -3.55868369e-001 2.64053643e-002 2.48917311e-001 2.45972231e-001
      2.55461335e-001 3.19980651e-001 3.46369505e-001 -4.17696238e-002
      -3.49583924e-001 -2.86299467e-001 -2.96325032e-002 1.35331005e-001
      9.35021713e-002 3.20800960e-001 1.04229055e-001 5.18779121e-002
      -1.22815512e-001 -6.14935011e-002 1.69887375e-002 1.22667111e-001
      1.53734237e-002 -1.84447512e-001 -2.89517513e-004 3.05605717e-002
      1.71553567e-001 2.68401299e-003 -2.31018484e-001 8.25033933e-002
      2.10249454e-001 2.18169719e-001 2.66243443e-002 1.39849856e-001
      -1.23189494e-003 -1.79751948e-001 -2.56882668e-001</_>
    <_>
      1.79986462e-001 1.21115938e-001 -9.17341709e-002 -7.81929046e-002
      4.77429271e-001 3.88576426e-002 -2.28475749e-001 -2.76041448e-001
      -1.53490379e-001 -2.19252948e-002 -1.10070974e-001
      -1.00150973e-001 -2.15297341e-001 6.44031227e-001 -2.34398574e-001
      -2.64601558e-001 -3.44100267e-001 -4.18455213e-001 4.46286589e-001
      5.15347362e-001 3.65641683e-001 9.71786380e-002 9.32369292e-001
      1.45051718e-001 -5.79135358e-001 -9.85917687e-001 -2.33664751e-001
      -8.03983435e-002 -2.58865833e-001 1.69783011e-001 2.25428477e-001
      7.88830400e-001 4.34492350e-001 2.86836714e-001 -3.18337977e-001
      -3.66587251e-001 -4.81342673e-002 -3.04494768e-001
      -7.47502819e-002 -1.70430671e-002 1.06396899e-001 -1.34562477e-001
      1.14486843e-001 4.74152565e-002 -1.77484438e-001 -3.76314044e-001
      -4.72923338e-001 -1.66192323e-001 1.19709224e-003 2.73447514e-001
      4.26173836e-001 4.65424925e-001 1.45416811e-001 -2.00163499e-001
      -6.94838285e-001 -5.03405273e-001 -1.22847445e-001
      -3.04476954e-002 3.35220933e-001 1.80548042e-001 7.38022864e-001
      5.23755908e-001 -1.63955078e-001 3.26973456e-003 1.97564960e-001
      4.97821793e-002 -1.76562309e-001 -7.58141354e-002 -9.83598977e-002
      -1.34899274e-001 -6.32213149e-003 -4.66623977e-002
      -2.02500403e-001 -1.39300957e-001 1.30188182e-001 4.13570285e-001
      2.68400669e-001 5.11573739e-002 7.30852857e-002 -2.51432462e-003
      -3.65417868e-001 5.88458441e-002 2.94717873e-004 2.84268707e-001
      2.52899170e-001 2.01889984e-002 -1.86293781e-001 -7.08137453e-002
      -1.74759448e-001 -6.32463843e-002 -1.58756820e-003 1.10337280e-001
      2.09382996e-001 2.14518785e-001 4.83655371e-003 -1.19481623e-001
      -1.38873667e-001 -2.12453559e-001 -6.74699023e-002
      -1.96994618e-001 6.76483288e-002 -1.21734291e-002 1.60313308e-001
      -9.96587127e-002 -1.06058635e-001 4.16876227e-002 1.90888301e-001
      -4.83931825e-002</_>
    <_>
      2.34958470e-001 2.61173278e-001 6.38362989e-002 -3.89965996e-002
      1.20412804e-001 -8.73428583e-003 -2.20694393e-001 -3.60632330e-001
      -1.18668236e-001 6.93267062e-002 -4.34332760e-003 8.74572396e-002
      -6.32874295e-002 4.00873750e-001 2.43798479e-001 -4.02775481e-002
      -3.79609972e-001 -3.15607041e-001 4.78451699e-001 2.62931347e-001
      3.43126386e-001 2.95735374e-002 4.61396605e-001 3.58038023e-002
      -5.35909534e-001 -7.37592995e-001 -1.06940456e-001
      -2.82067508e-001 6.59371167e-002 6.18145108e-001 3.05618644e-001
      4.81854320e-001 4.95565146e-001 -1.80705279e-001 -2.97589034e-001
      -3.85209501e-001 -1.17131770e-001 -1.44004613e-001 1.36864841e-001
      2.65000045e-001 3.35880160e-001 1.16174020e-001 -1.62424728e-001
      -2.30183348e-001 -3.15167904e-001 1.24408351e-003 -1.21597722e-001
      2.11547494e-001 3.51371318e-001 1.94301084e-001 -9.57704410e-002
      -1.31324470e-001 -8.19540471e-002 -5.10113835e-002
      -9.02630270e-001 -2.73489952e-001 2.32800946e-001 2.52810508e-001
      4.96195763e-001 4.58704442e-001 5.64387679e-001 4.79639471e-001
      -3.69007349e-001 -1.59130514e-001 -9.96928588e-002
      -5.32506518e-002 6.78120852e-002 -8.96117464e-002 -4.68937494e-002
      2.47505903e-001 6.43382132e-001 -1.32065952e-001 7.02672824e-002
      -1.69102073e-001 -4.26896010e-003 1.28107682e-001 -1.85665533e-001
      -1.98633730e-001 1.78931281e-001 2.16014117e-001 -1.08006001e-001
      -5.51454723e-002 -3.28387022e-001 7.67239705e-002 7.73912519e-002
      -3.09023857e-001 1.86015964e-002 -1.79564394e-002 1.35453373e-001
      -1.43985152e-001 2.29258202e-002 3.75587381e-002 -1.00525230e-001
      2.49890927e-002 -1.69285312e-001 -1.85925096e-001 2.39502620e-002
      3.65885675e-001 1.49203137e-001 -1.32735789e-001 1.15935624e-001
      2.46303603e-002 2.48270497e-001 -1.82459757e-001 -1.34978592e-002
      2.41214093e-002 6.88626617e-002 -1.43611804e-001</_>
    <_>
      1.09727634e-002 3.64128739e-001 3.45961481e-001 -4.19552922e-002
      -2.91834235e-001 -2.66413335e-002 -3.67770344e-002
      -6.18289784e-002 -1.44477472e-001 9.32135880e-002 2.53784340e-002
      -1.55207049e-002 -1.38735160e-001 -2.61455894e-001 1.07025295e-001
      5.47253806e-003 -1.01932235e-001 -1.06295876e-001 -2.24035844e-001
      -1.56879589e-001 8.37855190e-002 -8.72753710e-002 -1.05570421e-001
      9.30157155e-002 2.20271215e-001 9.75132957e-002 -3.07177491e-002
      -1.62190303e-001 -2.27501839e-001 -2.07819059e-001
      -1.28261998e-001 1.69828720e-002 2.74310052e-001 3.29356521e-001
      2.00272009e-001 1.72843896e-002 1.27200544e-001 -4.91784751e-001
      -2.47872323e-001 -1.06329553e-001 -5.98042011e-002 8.37588012e-002
      1.13011651e-001 8.44228491e-002 1.96457490e-001 -5.92066459e-002
      -4.03780043e-001 -1.87211037e-001 -6.90518245e-002
      -6.29511550e-002 2.92731300e-002 2.00622484e-001 3.28803062e-001
      3.94390076e-001 -3.29265177e-001 -4.25258636e-001 -3.22066724e-001
      -8.98768902e-002 2.84521282e-003 1.55022591e-001 3.01600724e-001
      5.06256342e-001 3.47790450e-001 1.16083387e-003 -3.22891384e-001
      -1.94044977e-001 -1.46499529e-001 -8.62511396e-002
      -2.16266923e-002 1.22857377e-001 4.68875945e-001 3.10924560e-001
      -2.32185945e-001 -4.10523832e-001 -6.79136217e-002 9.69214365e-003
      2.95623243e-002 7.04751760e-002 2.99944609e-001 3.84910524e-001
      2.47222885e-001 -3.67282391e-001 -3.08665872e-001 -1.06662482e-001
      -8.18231329e-002 -4.48448205e-004 9.05684605e-002 2.49889359e-001
      8.72313902e-002 -1.77719101e-001 -2.85369605e-002 6.28225058e-002
      -3.73505615e-002 -7.54503682e-002 -3.11058983e-002
      -1.70534719e-002 2.52682734e-002 1.14970274e-001 2.87804216e-001
      -8.85489136e-002 1.64071947e-001 7.63184205e-002 -1.09626465e-001
      2.20734673e-003 3.92969213e-002 7.09446296e-002 -1.87362373e-001
      -1.25875115e-001</_>
    <_>
      -1.66118622e-001 2.90815204e-001 5.97714663e-001 -2.71920890e-001
      1.64209962e-001 4.68240589e-001 -1.88221887e-001 -1.96183890e-001
      -3.39754581e-001 -1.81590587e-001 4.31129515e-001 3.58495206e-001
      -2.13490367e-001 3.37118693e-002 -1.12443030e-001 -1.53776005e-001
      -7.04681218e-001 -9.96915281e-001 -8.53599235e-003 1.64673015e-001
      5.31448245e-001 -1.53373301e-001 4.54001307e-001 7.81380713e-001
      -1.27466053e-001 -2.10739002e-001 4.05932628e-002 -1.40790343e-001
      -2.57183135e-001 3.12165290e-001 1.93183661e-001 1.53142571e-001
      4.84323084e-001 6.86333954e-001 -1.06886774e-001 -2.84955055e-001
      5.73579669e-001 -2.52607495e-001 -1.46863401e-001 -3.85025859e-001
      -2.60426521e-001 -4.41616297e-001 8.32971558e-002 -4.33733195e-001
      -2.11982299e-002 2.02584803e-001 -6.66878760e-001 -5.74234188e-001
      -9.90879059e-001 -3.82875741e-001 -1.33396670e-001 1.43687516e-001
      6.65552691e-002 3.45834583e-001 -1.00545979e+000 -4.65575069e-001
      -6.34766072e-002 -1.02026179e-001 -2.05810994e-001
      -6.63167760e-002 9.41561103e-001 9.89483118e-001 -1.40855163e-001
