<?xml version="1.0"?>
<opencv_storage>
<my_svm type_id="opencv-ml-svm">
  <svm_type>C_SVC</svm_type>
  <kernel><type>LINEAR</type></kernel>
  <C>1.</C>
  <term_criteria><epsilon>9.9999999747524271e-007</epsilon>
    <iterations>1000000</iterations></term_criteria>
  <var_all>162</var_all>
  <var_count>162</var_count>
  <class_count>11</class_count>
  <class_labels type_id="opencv-matrix">
    <rows>1</rows>
    <cols>11</cols>
    <dt>i</dt>
    <data>
      -1 0 1 2 3 4 5 6 7 8 9</data></class_labels>
  <sv_total>55</sv_total>
  <support_vectors>
    <_>
      1.18748292e-001 5.73726073e-002 -1.13227718e-001 -3.50275673e-002
      -3.88292037e-002 -3.07748280e-003 -2.26688944e-003
      -3.23034910e-004 1.23275883e-001 7.75418431e-002 5.78747429e-002
      -1.25189483e-001 -1.17600495e-002 -6.08889088e-002 1.09931655e-001
      2.33211517e-002 7.31794303e-003 6.14285320e-002 -3.55719123e-003
      2.35700584e-003 -3.26904817e-003 -6.70425827e-004 -2.80465316e-002
      -4.28257808e-005 1.61558506e-003 2.74924375e-002 2.23364439e-002
      -1.63844172e-002 3.43981497e-002 5.53045748e-003 6.08716533e-002
      1.06604928e-002 2.12778859e-002 1.90600310e-003 3.60869709e-003
      -1.63844172e-002 1.13983907e-001 1.20392576e-001 -5.01277507e-004
      -1.47665190e-002 -4.90250774e-002 -3.24028842e-002
      -1.15045957e-001 -1.15965933e-001 1.02782756e-001 9.33842137e-002
      -4.41780780e-003 1.90219190e-002 2.18035057e-002 -5.93395671e-003
      -6.12427965e-002 -8.28959122e-002 -1.18290901e-001 6.70365021e-002
      -3.39804217e-003 1.16646932e-002 -4.41033058e-002 -8.74976143e-002
      4.32212986e-002 1.42221689e-001 1.08241765e-002 6.30275765e-003
      1.50213065e-003 3.66750755e-003 3.76621075e-003 -4.51237615e-003
      -4.28381823e-002 4.47381809e-002 -4.12124209e-002 -2.75308844e-002
      -3.56077515e-002 -1.17095737e-002 -1.92199349e-002 1.89849250e-002
      1.39164981e-002 1.16378903e-001 2.50001214e-002 5.33282608e-002
      3.20280041e-003 -7.28931976e-003 -3.51725407e-002 -5.82863726e-002
      6.57021329e-002 6.23489544e-002 6.42548427e-002 9.75426566e-003
      9.11230743e-002 -1.82091240e-002 -8.11687037e-002 -9.12392512e-002
      7.39370659e-002 -1.27116982e-002 3.02131698e-002 6.07082173e-002
      -9.06120315e-002 -5.49822785e-002 -2.45603770e-002
      -9.54068229e-002 8.32750127e-002 6.04224503e-002 4.26156372e-002
      -1.05773315e-001 -1.67757571e-002 -9.58712175e-002
      -3.99396271e-002 1.04669988e-001 -5.59038557e-002 7.79008791e-002
      4.28536301e-003 4.64154733e-003 0. 1.20583642e-002 7.99613148e-002
      -2.83960886e-002 -6.89774156e-002 -4.45683971e-002
      -1.39034465e-002 4.69788851e-004 1.19527080e-003 0.
      3.12960334e-003 6.00156523e-002 7.04306662e-002 -1.34204194e-001
      -4.42160554e-002 -2.23822221e-002 -1.08810075e-001 5.12014106e-002
      8.26763660e-002 1.99643653e-002 1.53560294e-002 1.37199104e-001
      5.13594523e-002 -2.52498556e-002 -1.33458257e-001 -1.01348683e-001
      7.37266149e-003 3.49055603e-002 7.19026290e-003 2.71108001e-002
      1.39027253e-001 1.31608233e-001 1.08955361e-001 -1.14610091e-001
      -1.36401374e-002 5.27854711e-002 -1.17066219e-001 -6.88553676e-002
      -4.31342572e-002 3.86292748e-002 1.36827007e-001 2.74928100e-002
      3.62464041e-002 -1.02394968e-001 -4.12259856e-003 -1.16023898e-001
      -8.21665823e-002 2.27337219e-002 1.30663499e-001 8.02426040e-002
      9.11493972e-002 -5.47513589e-002</_>
    <_>
      1.54417202e-001 1.37094513e-001 -6.99010342e-002 -6.71286881e-002
      -1.09305605e-001 -2.81871818e-002 -1.79857260e-003
      -2.68516014e-003 1.54059514e-001 1.20758906e-001 1.22374602e-001
      -9.99887511e-002 -3.30854789e-003 -4.38568629e-002 6.19650297e-002
      -3.07313967e-002 -4.82330918e-002 6.48487359e-002 9.12976936e-002
      7.09599927e-002 -3.72595377e-002 -1.91495230e-003 -1.08605243e-001
      -8.70983601e-002 -8.59996602e-002 -3.89625430e-002 8.03485811e-002
      4.30047549e-002 1.54568553e-001 -1.81042273e-002 6.58468679e-002
      -8.81307013e-003 -6.22975491e-002 -8.49379674e-002
      -6.22397661e-002 3.72448564e-002 6.52996078e-002 1.62832245e-001
      -5.80106955e-003 -2.11205482e-002 -1.68313447e-003
      -3.34048346e-002 -1.13632940e-002 -1.57904588e-002 5.77597804e-002
      7.21415430e-002 6.05303645e-002 8.21680122e-004 -3.05307712e-002
      -6.65727928e-002 -2.94804992e-003 9.19807609e-003 -3.92177552e-002
      2.94093229e-002 5.39069483e-003 1.29382098e-002 -4.62092534e-002
      -1.73017178e-002 1.02383018e-001 1.48732901e-001 -2.29535494e-002
      -5.48046827e-002 -4.14823219e-002 -1.44054787e-002
      -1.34182116e-002 -2.85742357e-002 -8.25616494e-002 1.13298915e-001
      4.28517237e-002 -4.22675014e-002 -6.62610084e-002 -5.31394705e-002
      1.73099563e-002 1.33549973e-001 3.35844345e-002 1.40630484e-001
      3.04789003e-002 -1.16665745e-002 -5.51957265e-002 -5.05625606e-002
      -5.02669849e-002 -8.24744925e-002 1.06738582e-001 1.41339049e-001
      1.00124940e-001 5.73998727e-002 5.91584519e-002 -1.13606630e-002
      -3.59823108e-002 -1.23337984e-001 1.67072378e-002 -1.29600875e-002
      6.45873975e-003 6.98060915e-002 -5.79369254e-002 -3.09340414e-002
      5.58798946e-002 -1.47923094e-003 5.89809753e-002 8.29598587e-003
      1.19193800e-001 -1.71249937e-002 7.77611136e-002 -6.47045523e-002
      -5.54530546e-002 1.23401023e-001 -5.10292221e-003 2.27916166e-002
      -4.15473320e-002 -4.60088104e-002 -4.10737284e-002
      -6.80168495e-002 1.34498015e-001 3.08281016e-002 -2.44840216e-002
      -4.91261408e-002 -4.35662530e-002 -6.14180006e-002
      -7.45254606e-002 -8.02568346e-002 -8.14909413e-002 5.83277158e-002
      1.62408426e-001 -3.55345905e-002 -2.78293248e-002 -1.60514563e-002
      -1.20991677e-001 5.66794090e-002 8.79685879e-002 2.28687637e-002
      2.09411327e-002 1.32389709e-001 6.61883056e-002 2.84178499e-002
      -1.46134660e-001 -7.39770904e-002 -2.21021511e-002
      -7.71482894e-003 -9.45147779e-003 -4.68590558e-002 1.31149068e-001
      1.17480159e-001 1.25858530e-001 -6.39471263e-002 -4.62373719e-002
      1.48836672e-001 -2.16949638e-002 4.72160894e-003 -4.76252697e-002
      -9.59164556e-003 1.25088125e-001 3.64129543e-002 -2.30292119e-002
      -7.56540224e-002 4.51744013e-002 6.23999280e-004 -3.70582868e-003
      3.39566655e-002 1.16675593e-001 2.94341091e-002 1.24278724e-001
      -6.01489171e-002</_>
    <_>
      1.40166938e-001 6.85128421e-002 -1.11175947e-001 -6.31621107e-002
      -5.24658114e-002 -4.78604529e-003 -8.63611419e-003 0.
      1.47940785e-001 1.15443975e-001 9.76396278e-002 -9.98639837e-002
      -3.32522802e-002 -7.83361048e-002 9.05971751e-002 1.45548293e-002
      -7.18840817e-003 8.38919505e-002 1.59884915e-001 2.90210973e-002
      -1.20895684e-001 -1.39550850e-001 -1.56962723e-001
      -3.37383412e-002 -1.74875162e-003 1.99634954e-002 1.48666009e-001
      1.54209673e-001 4.91587482e-002 -1.63574010e-001 -5.54677881e-002
      -7.37695396e-002 1.31673804e-002 -7.11490121e-003 2.45636655e-003
      1.44828662e-001 1.25992835e-001 1.07594684e-001 -1.30159453e-001
      -4.32308577e-002 -3.65022160e-002 -5.64229302e-003 5.73308440e-003
      -1.44537212e-003 1.40176684e-001 8.72742757e-002 9.98362992e-003
      -1.04121469e-001 -4.07937244e-002 -8.68317634e-002 1.70282461e-002
      3.32048163e-002 1.15103517e-002 1.00638367e-001 7.97122158e-003
      1.74447726e-002 -3.65152247e-002 -5.91025762e-002 5.72430193e-002
      1.12856992e-001 9.57370736e-003 8.93847609e-004 5.40190889e-003
      7.00409431e-003 -2.08502216e-003 -7.67776463e-003 -5.34372292e-002
      5.45890667e-002 -2.08681915e-003 -6.68514669e-002 -3.51705179e-002
      -1.81144150e-003 6.19498603e-002 1.20513337e-002 -1.22047298e-001
      7.04892948e-002 2.31534597e-002 5.94940670e-002 -6.70581404e-003
      -1.47748552e-002 7.06709772e-002 -1.86027065e-002 -3.14107761e-002
      3.14155780e-002 1.12985270e-002 5.78934141e-002 7.82040358e-002
      1.09455467e-003 -2.46251300e-002 -8.48002324e-004 2.09442824e-002
      -2.74521876e-002 -1.80233624e-002 5.55823632e-002 -7.46487230e-002
      1.17918793e-002 5.95709868e-002 -5.69292484e-003 9.19347629e-002
      -3.80563014e-003 5.00761867e-002 -4.48511429e-002 5.32215089e-002
      -6.79304674e-002 -6.04070053e-002 1.37996897e-001 -5.85414618e-002
      1.69831049e-002 3.34995682e-003 3.50256520e-003 -2.48218817e-003
      -1.55634275e-002 1.08336844e-001 -2.22591180e-002 -1.04623623e-001
      -9.69580710e-002 -6.62781950e-003 -5.97202731e-003 1.70953677e-003
      -1.41984352e-003 -9.23901424e-003 6.89702183e-002 1.22226581e-001
      -1.15508266e-001 -8.52258727e-002 -1.51051972e-002
      -4.56607267e-002 -6.32347837e-002 1.66939404e-002 -1.67097151e-002
      2.24561691e-002 1.31358102e-001 7.28658214e-002 3.58385593e-002
      -6.96197972e-002 -4.31523062e-002 -1.08512133e-001
      -2.96589509e-002 -7.90117029e-003 -4.50570993e-002 1.50745764e-001
      1.22395046e-001 1.05108969e-001 -7.20993280e-002 -4.31070216e-002
      5.47781587e-002 -6.78414479e-002 -2.53610108e-002 -1.94463190e-002
      -1.74851362e-002 1.15638368e-001 1.92276333e-002 4.58234223e-003
      -5.66884503e-002 -4.83835153e-002 -7.34170824e-002
      -6.02957867e-002 5.26953265e-002 9.14264694e-002 4.41195853e-002
      8.19195360e-002 -4.14765738e-002</_>
    <_>
      1.23571776e-001 6.33784756e-002 -6.02885894e-002 -3.02742142e-002
      -7.95143321e-002 -5.79118775e-003 0. -2.22550845e-003
      1.34881482e-001 1.06696397e-001 6.30873293e-002 -7.54696280e-002
      1.29752159e-002 -7.84192085e-002 3.53705138e-002 5.98489353e-003
      9.07078851e-003 7.88684860e-002 9.43300873e-002 3.02795637e-002
      -2.98741888e-002 -5.04172184e-002 -1.00219265e-001
      -7.79459924e-002 -3.45428847e-002 1.67095084e-002 7.96628594e-002
      3.86476070e-002 3.92712429e-002 -3.23404148e-002 1.51565280e-002
      -2.44153850e-002 -6.55756891e-002 -9.72632840e-002
      -5.04026897e-002 3.03838048e-002 1.12086877e-001 1.20744497e-001
      -1.23122009e-002 -4.70029451e-002 -8.78880639e-003
      -4.59318832e-002 -1.23566411e-001 -4.95783500e-002 9.78412330e-002
      8.80099759e-002 -8.02702550e-003 -1.87219921e-002 -2.38456149e-002
      -1.05325826e-001 -3.66823412e-002 -7.36553445e-002
      -3.35908085e-002 1.18768521e-001 7.53402477e-003 8.75996333e-003
      -6.38821349e-002 -1.32211754e-002 7.23506659e-002 6.40383810e-002
      -3.26779485e-002 1.34786749e-002 3.48622585e-003 -2.99143256e-003
      1.51269301e-003 -1.96234547e-002 -3.34349833e-002 1.28147870e-001
      -3.61428931e-002 -1.13080680e-001 -3.75580788e-002
      -7.41484296e-003 4.35816217e-003 7.94369448e-003 2.48008743e-002
      1.30076364e-001 3.47499326e-002 2.76135691e-002 -7.33485967e-002
      -5.88529445e-002 -2.08918583e-002 -5.73261306e-002 3.98620479e-002
      1.31747007e-001 9.47672576e-002 5.53639606e-002 8.10036585e-002
      -5.14825061e-002 -6.42989278e-002 -9.00074393e-002 5.53832203e-002
      -7.26085603e-002 -2.59147417e-002 7.03586191e-002 -7.80338570e-002
      -6.81459308e-002 2.06329133e-002 4.04016068e-003 1.23519599e-001
      -1.72097620e-003 4.67181616e-002 -7.76089653e-002 1.95181835e-002
      -7.33579844e-002 -5.44847660e-002 1.37666732e-001 -3.30788922e-003
      3.14162634e-002 -1.18604833e-002 5.04793413e-003 -7.93495867e-003
      -9.67224420e-004 1.76642954e-001 -2.70462558e-002 -1.49304017e-001
      -1.03225894e-001 -1.09949792e-002 -2.18915120e-002 1.66589837e-003
      -4.59732627e-003 -1.60750821e-002 8.92114043e-002 9.72513929e-002
      -1.27975807e-001 -7.75925145e-002 -1.69608258e-002
      -8.91719535e-002 1.50955580e-002 9.35713947e-002 2.40736119e-002
      2.22721491e-002 1.36543348e-001 3.77728194e-002 1.40512560e-003
      -1.13565922e-001 -5.97195998e-002 -4.92494553e-002 8.79244227e-003
      1.54828257e-003 -2.23715268e-002 1.38107181e-001 1.11092255e-001
      7.33741298e-002 -1.00498028e-001 -3.41793150e-002 4.35605720e-002
      -7.13370070e-002 -6.87798187e-002 -4.50043008e-002 5.11001572e-002
      1.57818154e-001 4.44853753e-002 1.01265796e-002 -6.23655878e-002
      -4.96168658e-002 -2.82792971e-002 -1.05653241e-001 9.16495360e-003
      1.56257272e-001 9.22376439e-002 1.27504393e-001 -3.12062800e-002</_>
    <_>
      6.29097149e-002 -2.88174441e-003 -3.94771658e-002 6.19114973e-002
      -1.48418415e-002 -9.31976363e-003 -7.69365672e-003
      -1.35119427e-002 1.10551804e-001 -8.96195509e-003 -5.11858165e-002
      -1.23228066e-001 2.06932351e-002 2.67083067e-002 9.56067368e-002
      1.54463630e-002 1.63288123e-003 5.64894713e-002 8.88801366e-002
      1.41218246e-003 -7.92628303e-002 -2.76161004e-002 -1.08251907e-001
      -1.28499465e-002 -2.64633242e-002 -1.22091006e-002 6.69019222e-002
      3.17928642e-002 3.00158560e-002 -6.48354888e-002 -6.18028548e-003
      -4.45456989e-002 -2.80168410e-002 -5.47887497e-002
      -2.80849561e-002 4.82867211e-002 1.13880761e-001 1.12280287e-001
      -1.06356246e-002 -3.02898511e-002 -6.51271418e-002
      -8.05536099e-003 -4.74122129e-002 -5.68955094e-002 1.00396857e-001
      9.88588408e-002 4.10566814e-002 1.50244050e-002 1.49523737e-002
      -7.74236768e-002 -8.76370445e-003 -9.00940597e-002
      -1.07454799e-001 4.36649881e-002 -2.37693582e-002 -8.68679881e-002
      -1.02395989e-001 -1.03301192e-002 1.04325682e-001 1.32776335e-001
      2.36228760e-002 9.81133990e-003 -5.59829175e-003 -2.44586747e-002
      -4.38580289e-002 -8.51910710e-002 -4.68257442e-002 6.52074516e-002
      2.72596423e-002 -4.25456464e-002 -6.52635992e-002 -7.57861361e-002
      2.38362309e-002 -9.12554935e-003 7.72149477e-004 9.63524133e-002
      1.20957559e-002 1.46566452e-002 -3.61099243e-002 -2.53016055e-002
      -1.36925615e-002 -5.01613021e-002 3.58521752e-002 7.65365958e-002
      6.21382184e-002 3.76513712e-002 5.02968580e-002 -2.39849947e-002
      -5.85237779e-002 -8.51334855e-002 7.40432069e-002 3.67914746e-003
      4.07406129e-002 8.26483965e-002 -8.61021578e-002 -7.26367254e-003
      -2.31430810e-002 -9.58019644e-002 9.31874365e-002 2.04626303e-002
      5.47205172e-002 -8.98781233e-003 5.89371733e-002 -1.21604040e-001
      -6.03293851e-002 6.57114610e-002 -7.66236484e-002 8.43915567e-002
      -4.68504690e-002 -1.42103145e-002 -1.88489985e-002
      -2.17795856e-002 1.04094155e-001 2.62345374e-002 -6.61757067e-002
      -1.05393581e-001 -1.09532766e-001 -7.44161233e-002
      -3.85971041e-003 0. -1.43745402e-002 9.34571773e-002
      1.46012321e-001 -3.64808589e-002 -1.04360238e-001 -1.19280152e-001
      -5.24913818e-002 2.69700401e-002 8.02836716e-002 1.86365359e-002
      1.92383658e-002 1.22315675e-001 4.43531610e-002 -2.19728760e-002
      -1.18940659e-001 -1.74857453e-002 3.97322141e-003 3.18771414e-002
      6.55438937e-003 -2.86195111e-002 1.27484322e-001 6.95828348e-002
      1.40095036e-002 -1.01716802e-001 -2.26867273e-002 2.87362151e-002
      -5.81011251e-002 -2.63288599e-002 -6.69657886e-002 1.96412299e-003
      1.03736870e-001 9.52414051e-003 6.19134754e-002 -5.40147088e-002
      -6.84127584e-002 -6.48490638e-002 -3.85759138e-002 2.21063364e-002
      1.02850787e-001 5.91837838e-002 6.36669546e-002 2.37290803e-002</_>
    <_>
      1.05319239e-001 4.76658866e-002 -6.45149499e-002 -6.40085638e-002
      -6.60978258e-002 -1.26420921e-002 -5.15287463e-003
      -6.45180605e-003 1.30901456e-001 9.32525843e-002 5.04658632e-002
      -5.37665635e-002 4.99281613e-003 -9.76320580e-002 6.65516034e-002
      1.53692730e-003 1.26346573e-003 7.08182454e-002 9.35821086e-002
      2.04936787e-003 -6.22811690e-002 -5.28748184e-002 -1.00813322e-001
      -4.89742644e-002 -8.43425468e-003 -2.54271403e-002 6.74469844e-002
      6.49969652e-002 7.74979442e-002 -8.40614215e-002 -3.80709693e-002
      -1.03921421e-001 -4.49282266e-002 -3.24319713e-002
      -4.53122780e-002 4.10599336e-002 1.37661546e-001 1.46910742e-001
      0. -4.93417447e-003 -2.44519878e-002 -1.05667867e-001
      -8.50226805e-002 -6.79300651e-002 1.30184725e-001 1.34862334e-001
      5.99821508e-002 1.67383794e-002 -1.95190832e-002 -1.55481339e-001
      -5.29910065e-002 -5.18015102e-002 -4.59358618e-002 1.28465280e-001
      2.78854626e-003 1.11092359e-003 -2.91563328e-002 -3.46793197e-002
      1.87795088e-002 1.22164927e-001 1.87481157e-002 -3.84626002e-003
      -1.04937572e-002 -1.09884958e-003 -3.34965736e-002
      -7.82536436e-003 -1.53233334e-002 2.06294004e-002 -2.85782665e-002
      -3.31647880e-002 -3.82938087e-002 -4.45579365e-002 7.39170313e-002
      1.02557890e-001 -1.74258053e-002 7.02765957e-002 -5.41141368e-002
      1.90722086e-002 -5.00407219e-002 -8.59793872e-002 2.09493493e-003
      3.33717838e-002 1.01036929e-001 9.56934243e-002 4.81441021e-002
      -2.63388604e-002 1.20614478e-002 -1.15987599e-001 -1.08064249e-001
      -4.73551787e-002 8.79576802e-002 -2.06628647e-002 -8.98008421e-003
      4.66211177e-002 -1.54096127e-001 -7.85950422e-002 4.85658981e-002
      3.89525876e-003 1.31393149e-001 6.19929545e-002 8.25522691e-002
      -6.94188997e-002 -2.22616848e-002 -1.33149102e-001
      -4.70643938e-002 1.18163668e-001 8.88943486e-003 7.75099248e-002
      -2.29086448e-002 -1.71710309e-002 -1.88216511e-002
      -2.49154624e-002 8.25245008e-002 -5.17246239e-002 -5.69023602e-002
      -6.67596459e-002 -4.39757258e-002 -6.61902651e-002
      -1.27537129e-002 -4.39773835e-002 -5.27615808e-002 6.82975501e-002
      8.11660737e-002 -4.24802601e-002 -5.86534627e-002 -4.97584082e-002
      -1.58773512e-002 3.98429595e-002 8.52907151e-002 1.37818363e-002
      -2.73972079e-002 9.30325538e-002 -1.31110130e-002 -7.43417367e-002
      -8.24761763e-002 3.56805930e-003 -6.38883514e-003 1.88991707e-002
      5.42877056e-003 -6.97537139e-002 1.10324033e-001 5.69691956e-002
      4.55389246e-002 -6.78617358e-002 2.42578462e-002 8.81801024e-002
      -9.07813609e-002 -6.25255853e-002 -6.07374758e-002
      -2.32510199e-003 1.18934758e-001 3.41539644e-002 5.74541688e-002
      -4.56576841e-003 -5.60505083e-003 -1.01813346e-001
      -5.34262061e-002 -1.26631903e-002 9.18524787e-002 7.54489675e-002
      9.06030983e-002 1.90013535e-002</_>
    <_>
      1.15910225e-001 2.39108782e-002 -1.14816561e-001 -3.03521696e-002
      -2.36554909e-002 -1.44712068e-003 -6.00316981e-003
      -4.84206807e-003 1.20447800e-001 9.25209746e-002 5.98221719e-002
      -1.23819090e-001 -2.09384486e-002 -3.96475531e-002 9.98677388e-002
      1.54747022e-002 1.47005310e-003 6.38111681e-002 8.46243836e-003
      -1.02889687e-002 -4.15836973e-003 -2.97510857e-003
      -4.05019671e-002 -3.30176530e-003 -2.55065388e-003 3.69910570e-003
      6.77915365e-002 7.69833475e-003 7.39948601e-002 -6.54427856e-002
      -5.42488880e-003 4.34197951e-003 -4.47097123e-002 -1.87067743e-002
      -6.10013269e-002 1.04445182e-002 1.14179343e-001 1.38089463e-001
      -1.64611521e-003 -8.91895965e-003 1.01986239e-002 -4.07051072e-002
      -1.16245046e-001 -8.64871070e-002 8.67497176e-002 8.97161216e-002
      4.76400405e-002 2.11592559e-002 1.84307173e-002 -7.32322186e-002
      -7.50737637e-002 -6.27330393e-002 -7.10052550e-002 6.49660677e-002
      3.23921419e-003 1.96732581e-003 -5.92661239e-002 -5.92884608e-002
      4.16079164e-002 1.06729455e-001 2.93225218e-002 9.63766873e-003
      2.81526474e-003 4.60555637e-003 -1.78262929e-003 -1.08857537e-002
      -6.03128374e-002 4.26774994e-002 -2.70603318e-002 -1.02862224e-001
      -2.81480644e-002 -2.56038766e-004 5.10533005e-002 9.16357115e-002
      -2.87233591e-002 5.08324206e-002 4.31345124e-003 -3.10887694e-002
      -6.63927495e-002 -4.70082313e-002 -8.14618729e-003 1.16298739e-002
      8.58670771e-002 7.97528923e-002 5.78712709e-002 -1.72721632e-002
      1.60263795e-002 -1.03717498e-001 -9.57427844e-002 -3.80973965e-002
      6.28849864e-002 -2.68921275e-002 -5.10423386e-004 5.80718368e-002
      -7.82145709e-002 -1.04429863e-001 1.42677007e-002 -2.32214481e-003
      9.38626081e-002 1.27841718e-002 6.02590740e-002 -7.91804418e-002
      1.24601172e-002 -7.03464597e-002 -6.18404001e-002 1.21317074e-001
      -1.82960313e-002 5.20531051e-002 -1.11730602e-002 5.61206019e-004
      -1.54166750e-003 2.07272638e-003 1.33336857e-001 -4.80011962e-002
      -1.22759782e-001 -1.02068916e-001 -1.20434649e-002
      -4.63414006e-002 -8.14933516e-003 -5.13889128e-004 1.28486729e-003
      1.14396222e-001 1.19233429e-001 -1.26109317e-001 -1.36883005e-001
      -2.43952796e-002 -4.11493033e-002 3.42385061e-002 8.45789462e-002
      2.14453861e-002 7.52566848e-003 1.15829222e-001 -2.24815942e-002
      -5.62793761e-002 -9.46297795e-002 -5.22658005e-002
      -4.54498306e-002 3.13308723e-002 3.54581140e-003 1.24379834e-002
      1.28977105e-001 7.38899112e-002 5.97637193e-003 -8.15822259e-002
      -1.33007178e-002 4.82554808e-002 -1.38566181e-001 -4.38233502e-002
      -1.86822861e-002 4.16762196e-002 1.37021273e-001 3.16352807e-002
      4.54999059e-002 -6.59327656e-002 -4.72336598e-002 -1.18572213e-001
      -5.07652275e-002 6.53349906e-002 1.35045350e-001 7.85852522e-002
      1.13810614e-001 4.54350468e-003</_>
    <_>
      1.61937520e-001 1.67602062e-001 -1.73464173e-003 -6.51923195e-002
      -1.88720018e-001 -5.52731678e-002 -8.98513012e-003
      -2.68034581e-002 1.55434191e-001 1.02757759e-001 1.39674157e-001
      1.22347502e-002 1.78018434e-003 -1.46506354e-001 3.60808000e-002
      -5.28278612e-002 -1.12260794e-002 9.08467174e-002 3.32870372e-002
      -1.12635352e-001 -9.39207803e-003 -6.41567283e-004
      -9.14226547e-002 -5.33296391e-002 -1.28805880e-002 3.50316688e-002
      1.63267285e-001 -2.42241342e-002 -4.86963093e-002 -4.91054542e-002
      8.68197381e-002 -1.91552634e-003 -2.28169970e-002 -7.54641742e-003
      3.10414601e-002 1.41717747e-001 9.14918855e-002 1.11929365e-001
      -6.29923344e-002 -6.20943829e-002 1.34648969e-002 -2.70704590e-002
      -3.05867810e-002 -8.00762326e-002 8.12847242e-002 7.06431642e-002
      -2.74022780e-002 -9.07022655e-002 -1.74771436e-002
      -5.31476326e-002 4.48175557e-002 -3.12619656e-002 -8.95568430e-002
      4.88380380e-002 -3.58078107e-002 1.18195815e-002 -8.06725677e-003
      4.63846438e-002 5.38545614e-003 1.62376836e-001 -9.50228143e-003
      -1.81989223e-002 -3.84757631e-002 -5.91737740e-002
      -4.25120406e-002 -4.92026731e-002 -1.81170981e-002 5.25947772e-002
      1.32654244e-002 -6.98952004e-003 -5.67587316e-002 -6.41721934e-002
      -3.89247984e-002 -6.45465925e-002 -1.69245023e-002 1.75080091e-001
      5.75904511e-002 6.63795248e-002 7.53490208e-003 9.05391108e-003
      3.97236310e-002 -9.38415825e-002 -7.18590394e-002 1.00390792e-001
      9.48243737e-002 6.96903989e-002 1.28762707e-001 1.75791867e-002
      2.22440306e-002 1.61867160e-002 -3.90844382e-002 -1.27977207e-001
      -1.85281001e-002 1.11322097e-001 -5.05511761e-002 8.15659482e-003
      6.61318526e-002 -2.00814828e-002 1.29830495e-001 -6.92673698e-002
      2.25053895e-002 -2.18567606e-002 1.42772332e-001 -6.47188798e-002
      -4.25720662e-002 1.18957162e-001 -1.72841232e-002 4.78620343e-002
      -7.25385845e-002 -8.12081844e-002 -3.93335000e-002 9.27257445e-003
      1.32173121e-001 -2.41803918e-002 -1.88108068e-002 -7.64095783e-002
      -9.80748236e-002 -3.30610313e-002 -5.89952506e-002
      -1.09193940e-002 4.28591669e-003 8.57117921e-002 1.27515435e-001
      -6.16265200e-002 -8.17223787e-002 -4.42864485e-002
      -7.72944167e-002 -1.07146241e-001 2.33578756e-002 -1.14560584e-002
      -1.33079905e-002 1.21728040e-001 1.08439364e-001 9.29416120e-002
      -2.49332073e-003 -1.46492003e-002 -1.71629280e-001
      -5.97180761e-002 -4.68517980e-003 -6.93194792e-002 1.18552081e-001
      1.99578270e-001 1.94759279e-001 1.25378678e-002 -9.83686894e-002
      7.95628875e-003 -5.76840416e-002 -3.75569463e-002 -1.92450434e-002
      3.14873867e-002 1.23333149e-001 1.19045973e-002 2.76744156e-003
      -5.03908917e-002 -8.69262442e-002 -1.98915116e-002
      -6.38275146e-002 7.48162642e-002 1.53324261e-001 4.44702208e-002
      1.44298315e-001 -5.73749878e-002</_>
    <_>
      1.46786466e-001 6.17104322e-002 -7.89451823e-002 2.95091141e-002
      -1.10369682e-001 -2.93045510e-002 -9.07949172e-004
      -4.65549907e-004 1.67188793e-001 1.26376763e-001 9.86330137e-002
      -9.29762870e-002 2.85378918e-002 -1.24782197e-001 1.09054759e-001
      2.44093109e-002 4.60826745e-003 8.20040628e-002 6.88192621e-002
      -8.39064736e-003 -6.85008289e-003 -1.50203593e-002
      -5.72314411e-002 -8.53152946e-003 -8.37098807e-003 2.08823066e-002
      6.06677607e-002 -1.20160235e-002 9.32168886e-002 -7.18232337e-003
      1.94509570e-002 -2.29114480e-002 -3.45798768e-002 -9.35354643e-003
      -1.49206526e-003 -2.60152686e-002 1.65220246e-001 1.86290830e-001
      -1.61613885e-003 0. 4.16890159e-002 -2.84810718e-002
      -1.10990494e-001 -1.07513547e-001 1.37416765e-001 7.28033856e-002
      2.43852790e-002 1.83411855e-002 3.34392935e-002 -8.01978111e-002
      -4.13120948e-002 -7.30773211e-002 -1.14522614e-001 5.23876511e-002
      4.78151487e-003 6.24588877e-003 -6.55681118e-002 -1.48734432e-002
      5.49513176e-002 1.60293505e-001 3.40463445e-002 4.71962336e-003
      -3.43841761e-002 -1.14733018e-002 -6.16196059e-002
      -6.67628497e-002 -4.28873003e-002 6.41467124e-002 -2.08034404e-002
      -2.89914422e-002 -1.73207540e-002 -8.56054127e-002 2.19620150e-002
      1.10858433e-001 1.81851871e-002 7.01960027e-002 1.05436631e-002
      1.62122380e-002 -1.51259759e-002 -1.92547739e-002 -3.37290987e-002
      -4.68067713e-002 8.51208568e-002 1.07914045e-001 1.62150469e-002
      1.67904366e-002 3.22189182e-002 -4.80023101e-002 -7.04189464e-002
      -5.75187281e-002 6.15155362e-002 -1.53669231e-002 1.87580604e-002
      1.03695206e-001 -8.04949477e-002 -7.89422989e-002 3.22198123e-002
      -7.45887458e-002 8.52100626e-002 3.45031321e-002 1.40722856e-001
      -3.14718783e-002 3.12227458e-002 -8.07831585e-002 -5.25428019e-002
      1.53410703e-001 -7.98862502e-002 1.81564838e-002 -5.47545217e-003
      -6.67651296e-002 -5.87985851e-002 7.66770914e-003 1.50132358e-001
      -2.99447589e-002 -1.17654510e-001 -4.89011519e-002
      -6.41986057e-002 -1.20335724e-003 -4.27455492e-002
      -2.08816379e-002 -3.28255002e-003 1.06279828e-001 1.37331888e-001
      -1.74396053e-001 -7.59054720e-002 -5.37581518e-002
      -1.03848077e-001 1.11253429e-002 1.09324381e-001 -2.83038300e-002
      -9.50440019e-003 1.28361389e-001 3.51550616e-002 -1.12206046e-003
      -1.23897031e-001 -1.01362713e-001 -6.76831156e-002 3.44368517e-002
      -2.28093117e-002 -4.57020700e-002 1.69320911e-001 1.14256546e-001
      9.43465531e-002 -9.72535983e-002 1.40849908e-003 1.32766619e-001
      -7.53333420e-002 -6.54138550e-002 -7.14663044e-002 3.42812985e-002
      1.75763637e-001 -1.19688772e-002 -5.31685678e-003 -4.13252153e-002
      1.24253640e-002 -9.11336020e-002 -8.14409703e-002 2.47791354e-002
      1.08389765e-001 9.73294452e-002 1.25961617e-001 -5.55450022e-002</_>
    <_>
      8.21536928e-002 4.63402197e-002 -3.65786254e-002 -3.41306441e-002
      -5.79958782e-002 -8.14716984e-003 -9.16871300e-004 0.
      8.76946077e-002 6.06429651e-002 5.92182055e-002 -6.03779666e-002
      -1.43667143e-002 -5.90752363e-002 2.25103553e-002 1.38649987e-002
      5.84989088e-003 4.89220731e-002 6.20478466e-002 3.40847783e-002
      -9.86494683e-003 -3.54587403e-003 -5.73908985e-002
      -2.53419597e-002 -6.92748129e-002 -2.80706976e-002 1.61539149e-002
      8.09152722e-002 7.06242919e-002 -4.09212746e-002 -2.11924557e-002
      -3.81673733e-003 -2.98298355e-002 -8.89857486e-002
      -5.78812808e-002 2.77943257e-002 1.00869223e-001 1.01799980e-001
      0. 0. -2.41876226e-002 -8.89194906e-002 -5.55600151e-002
      -9.84701794e-003 9.68564749e-002 9.97644588e-002 4.19914797e-002
      1.33776823e-002 -3.25600058e-002 -1.09418847e-001 -6.53279796e-002
      -2.24146266e-002 3.90843861e-003 9.86859575e-002 -2.50415364e-003
      1.23830587e-002 -2.90756337e-002 -6.30518422e-003 3.41153964e-002
      2.51317732e-002 5.38123120e-003 8.37215316e-003 -2.28998018e-003
      -4.87520965e-003 3.65342107e-003 -2.60735862e-003 3.32172331e-003
      6.93936795e-002 -3.33909914e-002 -9.51890647e-002 1.53286126e-003
      -1.64067913e-002 2.49913279e-002 5.19787632e-002 -1.23478053e-002
      1.20417979e-002 1.90187916e-002 1.56030459e-002 -6.74177408e-002
      -3.79405059e-002 1.26327975e-002 -3.35441045e-002 2.35247333e-002
      4.52648923e-002 1.03559007e-003 3.92418504e-002 6.16227128e-002
      -1.59875210e-002 -2.03190446e-002 -5.72863705e-002 6.56437650e-002
      5.22189168e-003 1.15665765e-002 -1.96257457e-002 -1.11446947e-001
      -3.92010063e-002 3.91532145e-002 1.10183023e-002 9.62436125e-002
      6.23793900e-002 9.70526710e-002 -9.23826694e-002 -2.76567228e-002
      -8.57349187e-002 -7.18918443e-003 9.80120376e-002 6.86014025e-003
      7.09811524e-002 -1.48269790e-003 3.53086507e-003 0.
      8.27319082e-003 1.31816328e-001 -5.27374297e-002 -1.02341436e-001
      -2.82833036e-002 -4.43464331e-003 -1.54534623e-003 1.17695506e-003
      0. 2.09586532e-003 6.22024871e-002 6.40676245e-002
      -1.09051868e-001 -6.66643456e-002 -1.66898232e-003
      -8.38420242e-002 -8.03036802e-003 5.19925132e-002 5.25331649e-004
      1.73149109e-002 1.00311719e-001 5.00147752e-002 4.17157188e-002
      -5.10055386e-002 -7.84661621e-002 -7.33816102e-002 2.25709248e-002
      9.42282379e-004 -5.39611541e-002 1.00574315e-001 9.67412069e-002
      9.42670852e-002 -2.20326614e-002 2.87495758e-002 7.90180415e-002
      -1.21898778e-001 -1.09394446e-001 -1.85698979e-002 3.01341582e-002
      1.00530207e-001 3.27118486e-002 4.79723066e-002 9.91408248e-003
      -3.00990585e-002 -1.20432146e-001 -4.46179360e-002 4.87775765e-002
      8.84654149e-002 5.70308268e-002 8.55239406e-002 1.85088795e-002</_>
    <_>
      4.85285260e-002 5.23032069e-001 -1.07033297e-001 -1.99831292e-001
      -6.72416091e-002 -2.56327242e-002 2.59512453e-003 5.22256792e-002
      -8.24851729e-003 2.02264294e-001 5.09247780e-001 -8.14477354e-002
      -3.48167904e-002 -2.15428442e-001 -1.28364772e-001
      -9.27702934e-002 1.21832497e-001 -6.36870191e-002 7.37993941e-002
      2.05122381e-001 -3.73491794e-002 7.93911458e-004 -2.27057353e-001
      -1.59291744e-001 -3.90947074e-001 -2.97393888e-001 5.68792857e-002
      1.26754776e-001 3.71483803e-001 -2.18679477e-002 -1.16266487e-002
      -8.42601061e-003 -7.81004205e-002 -2.15957254e-001
      -5.63011765e-002 1.16789825e-001 -4.57638092e-002 -1.53797364e-003
      5.37191471e-003 -5.66340424e-002 1.19588494e-001 1.00652361e-002
      5.17993867e-001 -1.98826529e-002 -2.96169609e-001 -3.15059908e-002
      2.25719791e-002 -2.11317390e-002 -2.67336100e-001 -1.58765763e-001
      1.16355479e-001 2.32635736e-001 -1.40467867e-001 -7.78282136e-002
      1.28429219e-001 3.05767864e-001 -2.92096101e-002 2.77095407e-001
      -8.57699886e-002 5.90621606e-002 8.92964453e-002 6.32411689e-002
      -1.56382844e-001 -4.01000455e-002 1.11284979e-001 -1.12343177e-001
      -1.30427897e-001 -2.49352530e-001 2.13300601e-001 9.55053195e-002
      -5.10142045e-003 -4.76903558e-001 -6.14090487e-002 3.77252191e-001
      5.53097911e-002 -3.62510560e-004 2.48297993e-002 2.01310497e-004
      -3.32947634e-002 -9.25169811e-002 -1.44566968e-001
      -1.31603926e-001 6.17750347e-001 2.08507195e-001 4.89360541e-002
      1.17072441e-001 3.93612832e-002 1.43944174e-001 3.54078144e-001
      -1.31603926e-001 -8.99118483e-002 -3.01674404e-003 7.14317039e-002
      1.38545319e-001 1.78332478e-002 1.01042010e-001 1.00831293e-001
      1.22933730e-001 3.18189785e-002 -5.70149682e-002 2.02341244e-001
      4.74429131e-001 1.35177821e-001 -7.79209137e-002 -1.79156333e-001
      -1.55804947e-001 2.75708307e-002 -2.68040132e-002 -1.28692850e-001
      -8.03247541e-002 -7.73688704e-002 -1.61265165e-001
      -2.16957182e-001 -8.16970840e-002 2.61154950e-001 -1.74112707e-001
      -7.87466168e-001 -1.44813061e-001 -5.56875207e-002
      -9.57357287e-002 -7.03463182e-002 2.93964028e-001 2.12133244e-001
      6.37499571e-001 -2.25877419e-001 -3.21596414e-001 -9.96403545e-002
      4.42297310e-001 3.27662453e-002 -4.50841850e-003 2.25139819e-002
      1.09512545e-002 6.38016984e-002 2.82706022e-001 -9.96403545e-002
      -5.25900461e-002 2.66414165e-001 -7.47162178e-002 -4.24029343e-002
      2.55474389e-001 -5.75426454e-003 -1.68641116e-002 8.16380009e-002
      -2.58615743e-002 -1.47784829e-001 1.84760660e-001 2.54984379e-001
      5.86439110e-002 -4.17835206e-001 -2.68361568e-001 -8.55695456e-002
      -2.76675839e-002 -3.49405222e-002 -6.33983091e-002
      -1.26092449e-001 3.70697379e-001 -2.13804767e-001 -4.13913950e-002
      -1.03315927e-001 -3.50348838e-002 9.87217762e-003 1.35000408e-001</_>
    <_>
      -4.51668538e-002 -4.82736044e-002 4.26019318e-002 -3.29295360e-002
      3.74324881e-002 7.87080079e-003 -1.56475324e-002 3.32709514e-002
      3.53266336e-002 -1.43693797e-002 5.27506396e-002 7.43654594e-002
      -2.23095696e-002 -3.56355198e-002 -5.84241711e-002
      -2.79436465e-002 -2.66097356e-002 1.20311817e-002 2.61504143e-001
      -2.60255616e-002 -2.40888014e-001 -1.65176123e-001
      -1.93124563e-001 -5.90836927e-002 -1.71560291e-002 6.83320640e-003
      1.73696995e-001 2.78556019e-001 -1.21858962e-001 -2.81608701e-001
      -1.85268655e-001 -1.08434342e-001 -1.62462201e-002 7.96313491e-003
      9.09914449e-002 2.35137671e-001 -1.62801929e-002 -5.18006198e-002
      -8.36986005e-002 -2.59373244e-002 -1.03479400e-001 4.58296835e-002
      1.46027267e-001 7.69357607e-002 -1.45196123e-002 -1.15829902e-002
      -1.83895770e-002 -8.16594139e-002 -7.98694640e-002
      -1.11567110e-001 1.00947529e-001 2.33652994e-001 1.12298213e-001
      2.73460597e-002 -2.58308050e-004 1.90162063e-002 4.50774804e-002
      6.78771287e-002 -1.04788821e-002 -8.01611841e-002 -1.55942487e-002
      -3.19089070e-002 1.63635850e-004 -2.11426546e-003 -1.42307505e-002
      3.57724726e-002 6.70912266e-002 -1.75029654e-002 5.00611914e-003
      -4.17379141e-002 3.57394572e-003 -2.17454247e-002 1.64927259e-001
      -9.90981460e-002 -2.48791143e-001 -5.73127829e-002
      -8.51376355e-003 -3.35678272e-003 7.94337131e-003 8.91956836e-002
      1.99837312e-001 4.34946790e-002 -1.18172571e-001 -1.18214265e-001
      -6.88570067e-002 5.04631251e-002 -3.53572629e-002 3.32254283e-002
      1.45657241e-001 2.07766190e-001 -5.11174910e-002 -2.66065095e-002
      -2.88539361e-002 1.73536371e-002 -3.53360251e-002 1.51046112e-001
      1.46608695e-001 9.91512761e-002 8.89878068e-003 -5.61327524e-002
      -4.92122537e-003 2.05074579e-001 4.44507897e-002 -2.75858976e-002
      4.11471017e-002 4.92685394e-005 -4.64109797e-003 -5.32436781e-002
      3.84206884e-003 1.57463606e-002 1.17443008e-002 4.79421020e-003
      3.50835137e-002 -3.45240384e-002 -6.84807524e-002 -5.78299575e-002
      -2.67858226e-002 1.28604574e-002 4.98136356e-002 2.82378262e-003
      -1.65940088e-003 2.85941251e-002 -2.20171688e-003 4.24757088e-003
      -3.89016792e-002 -3.41547988e-002 1.56631529e-001 -1.32342622e-001
      -1.96553752e-001 -7.84708187e-002 5.57436002e-003 -2.76232902e-002
      1.61104035e-002 8.48376751e-002 1.80543393e-001 1.75969064e-001
      -8.39598253e-002 -1.49373189e-001 -3.84806991e-002
      -1.44185096e-001 -1.14436131e-002 -4.07884419e-002
      -4.14252579e-002 1.42487407e-001 -3.38770784e-002 -3.73855047e-003
      1.38519600e-001 9.17603448e-002 -3.65043730e-002 -8.33688602e-002
      -6.69893548e-002 -2.07273513e-002 -2.87423134e-002
      -2.14786083e-002 8.05273466e-003 7.95237944e-002 -5.82226589e-002
      2.83189435e-002 -7.85180926e-002 -6.94584325e-002 -1.87913049e-002
      3.49439122e-002</_>
    <_>
      -1.02596767e-001 -4.30945382e-002 1.10261768e-001 -1.09390177e-001
      7.57797360e-002 2.12987829e-002 1.07090047e-003 1.84097532e-002
      -1.80164780e-002 -2.55412199e-002 8.08874667e-002 1.62709594e-001
      2.92914286e-002 -4.24723998e-002 -2.11559519e-001 -4.83229868e-002
      2.09533945e-002 1.50682293e-002 5.00241935e-001 9.66977701e-002
      -1.42250255e-001 -3.43393356e-001 -3.28412414e-001
      -4.38887089e-001 -1.42825529e-001 8.96725338e-003 4.07179892e-001
      2.53662616e-001 -1.47037476e-001 -1.61240503e-001 -3.59284878e-001
      -3.17506462e-001 -3.95964324e-001 -3.74873996e-001
      -1.40553907e-001 2.57080734e-001 -7.67760575e-002 -1.22523576e-001
      -4.37648818e-002 -1.11391574e-001 9.78461877e-002 -6.36079684e-002
      4.85292040e-002 1.72232226e-001 -1.43989667e-001 -7.02624256e-003
      -2.18095314e-002 -6.86433539e-002 -1.96900949e-001
      -1.17912151e-001 1.03106663e-001 5.39534278e-002 1.75420195e-001
      8.26926604e-002 -3.12994719e-002 5.53703345e-002 1.52028710e-001
      2.24140778e-001 -1.09954290e-001 -3.21838707e-001 -3.60190906e-002
      1.53863961e-002 -1.27067068e-003 -9.78511870e-002 7.81666115e-003
      8.98178443e-002 1.49565354e-001 6.68415278e-002 -2.20115948e-002
      -1.52095705e-001 1.55341446e-001 -4.26946431e-002 2.32529491e-001
      -6.37575388e-002 -3.73168453e-003 -6.87853396e-002
      -5.30743264e-002 -9.74908322e-002 -3.94823909e-001
      -1.96863607e-001 1.91263378e-001 1.26826152e-001 4.76668589e-002
      1.43209621e-001 2.43150275e-002 5.67377470e-002 -1.59575883e-002
      -3.60834211e-001 -1.64632887e-001 9.78387892e-002 -6.50382936e-002
      -1.69465721e-001 -1.18196830e-001 1.46442996e-002 1.43738791e-001
      7.40065277e-002 1.25239581e-001 2.04253018e-001 5.84036820e-002
      -2.47327104e-001 -9.53784660e-002 1.24480046e-001 8.46380666e-002
      1.91167295e-001 9.87930223e-002 2.22127903e-002 5.94883375e-002
      -1.98850200e-001 -3.63305770e-002 2.34235898e-002 1.56706385e-002
      1.88143216e-002 1.75131321e-001 -1.42491072e-001 -1.21575706e-001
      -5.77205569e-002 -3.56217436e-002 -4.51687956e-003 6.95416555e-002
      -2.11682469e-002 -2.35585473e-003 1.36483714e-001 2.89286412e-002
      6.35330984e-003 -9.86379758e-002 -2.88697537e-002 1.58623323e-001
      1.95145980e-002 2.12852899e-002 3.14814923e-003 -1.28350686e-002
      1.01424381e-003 -1.25524178e-001 -1.94051012e-001 7.09396526e-002
      1.28699362e-001 1.17333129e-001 -3.08855325e-002 -8.50729272e-003
      -1.74012005e-001 8.36551597e-004 -8.36974084e-002 -4.14506704e-001
      4.54528481e-002 -1.40001893e-001 -1.61208548e-002 2.41886631e-001
      1.69710904e-001 2.04909146e-002 1.24664875e-002 -2.43751798e-003
      6.94856886e-003 -1.34729043e-001 1.38347484e-002 -4.90704142e-002
      2.89390683e-001 -1.73240956e-002 -6.73492476e-002 -1.38898147e-002
      1.15820710e-002 7.94708133e-002 3.47601548e-002</_>
    <_>
      -1.77540034e-002 -1.35578796e-001 1.22852266e-001 1.25159189e-001
      1.56525165e-001 2.69877142e-003 -2.29407400e-002 1.20041631e-002
      1.79982204e-002 -1.50047671e-002 -1.50614649e-001 -3.98327187e-002
      4.18258756e-002 1.54345393e-001 2.77603604e-002 1.73748660e-004
      2.92402189e-002 1.67327020e-002 2.48863474e-001 -9.21238959e-002
      -2.27258071e-001 -1.86795294e-001 -3.57564181e-001
      -4.46508303e-002 -4.85383272e-002 -2.10891794e-002 9.37553570e-002
      3.14178228e-001 -1.76086217e-001 -3.13685060e-001 -1.43890545e-001
      -2.92831361e-001 -1.94372565e-001 -1.55034199e-001
      -3.43058743e-002 2.98164546e-001 -4.02315557e-002 -1.06209060e-002
      -2.68429015e-002 -6.04003929e-002 -1.02584153e-001 2.57251356e-002
      1.73067689e-001 1.95116892e-001 2.68552117e-002 -1.10704117e-002
      4.59497385e-002 2.78181164e-003 -6.07614070e-002 -6.70689642e-002
      -4.91314121e-002 -5.30568436e-002 -1.84999645e-001
      -1.16526233e-002 9.72129125e-003 -1.62226051e-001 -8.30596909e-002
      9.34085920e-002 1.06412195e-001 9.19277687e-003 5.89190871e-002
      4.48377915e-002 -3.04546915e-002 -3.88191417e-002 -2.76152585e-002
      -1.16012141e-001 -2.03884058e-002 -7.31019303e-002 7.91858807e-002
      1.97864603e-002 -9.45830047e-002 -3.09455693e-001 2.75573254e-001
      -1.73112258e-001 -1.15957677e-001 -2.87923664e-002
      -5.57251424e-002 -8.57376158e-002 -1.35540873e-001
      -3.02504878e-002 3.18712890e-001 1.05036050e-001 -6.37492463e-002
      1.73872318e-002 -3.99582237e-002 -7.02208001e-003 -1.67967901e-002
      -2.37084150e-001 -2.27792248e-001 3.89378294e-002 1.30763035e-002
      1.81689262e-002 4.05959897e-002 1.31630391e-001 -1.55725786e-002
      6.43788502e-002 -6.59878403e-002 -9.58744343e-003 2.72867326e-002
      -2.22792421e-002 1.16092097e-002 1.55573189e-001 9.06637609e-002
      -9.36892778e-002 -5.87707162e-002 -9.37587023e-002
      -2.81934664e-002 9.33269411e-003 -1.02354698e-001 1.34604434e-002
      -1.16360385e-003 -4.69629988e-002 -4.27785190e-003
      -9.85333882e-003 5.38612828e-002 -1.48928016e-001 -4.03227985e-001
      -1.46057323e-001 3.92537937e-002 -2.18093605e-003 -5.05739707e-004
      9.83198807e-002 1.44515753e-001 3.08074117e-001 -7.74861723e-002
      -3.30350578e-001 1.86842769e-001 8.13884586e-002 2.18823999e-002
      -3.67488642e-003 2.67179287e-003 4.17336216e-003 -5.67315444e-002
      -3.25874478e-001 2.46126596e-002 9.87335667e-002 1.07429214e-001
      1.41290212e-002 -7.66471567e-006 -1.57325909e-001 -1.14829624e-002
      -7.99158365e-002 -2.59633482e-001 1.70296486e-002 -3.66378985e-002
      -3.33723910e-002 8.75581205e-002 -1.48242917e-002 -2.53057450e-001
      -6.85961843e-002 -2.04113778e-002 -1.71878133e-002 1.28620192e-002
      -6.26121387e-002 6.11886941e-003 1.73591897e-001 -5.32449819e-002
      6.33975863e-003 1.77977944e-003 8.88508838e-003 -4.43334579e-002
      5.83875924e-002</_>
    <_>
      -1.09531708e-001 -3.60530429e-002 8.98617804e-002 -3.46347801e-002
      7.84023553e-002 -1.20957312e-003 -3.17538320e-003 2.54289005e-002
      1.62611175e-002 -1.87853109e-002 -5.56446500e-002 1.01963960e-001
      4.52473648e-002 -1.62044704e-001 -6.23963885e-002 -2.79744714e-002
      6.95334077e-002 -2.18665390e-003 1.36526376e-001 -4.28823270e-002
      -9.06163529e-002 -1.39595568e-001 -1.23981938e-001
      -5.39028272e-002 -3.55555899e-002 -2.02188477e-001 1.50700405e-001
      1.70009375e-001 6.08668812e-002 -2.37991288e-001 -3.20384115e-001
      -3.39311868e-001 -1.46688715e-001 -1.35429546e-001
      -1.17698852e-002 2.37318888e-001 3.17873284e-002 2.06749663e-002
      -3.94631352e-005 -1.14192907e-002 5.23216687e-002 -8.37467164e-002
      5.91814481e-002 5.75744025e-002 1.64209325e-002 5.84857985e-002
      6.11771531e-002 -6.82766316e-003 -7.99105465e-002 -2.53479600e-001
      4.13004458e-002 9.54097286e-002 9.95961279e-002 8.31267387e-002
      7.91705400e-003 6.68135807e-002 -1.59089174e-002 2.84522679e-002
      -9.78205577e-002 1.30304992e-002 2.07097288e-002 2.01013405e-002
      -4.45829816e-002 -6.61830008e-002 -5.28774336e-002
      -3.20910253e-002 6.99124038e-002 -9.65577215e-002 1.56190945e-002
      1.80699036e-001 5.27662560e-002 -1.64824307e-001 2.56831944e-001
      1.22865178e-001 -1.10389933e-001 -2.60515988e-001 -2.46927097e-001
      -9.69112217e-002 -1.58066407e-001 -3.71596441e-002 1.96906596e-001
      1.51943594e-001 1.60708621e-001 5.44709899e-002 -1.21115863e-001
      -1.07804127e-001 -1.63999647e-001 -2.64424473e-001
      -9.27785933e-002 8.60826299e-002 1.19552184e-002 -9.17543843e-003
      -5.14627770e-002 -7.23657906e-002 -3.45190465e-002
      -3.77545133e-002 1.36449963e-001 1.37000486e-001 6.84968084e-002
      -7.20854616e-003 3.29073705e-002 3.97288017e-002 -1.93474479e-002
      -9.36338119e-003 6.72977045e-002 3.90087417e-003 6.77864775e-002
      7.80660613e-003 -1.51170820e-001 -6.50101602e-002 -5.65161370e-002
      -4.71167304e-002 -9.52493921e-002 -1.55452257e-002 2.03597546e-001
      -9.76005627e-004 -1.21952601e-001 -1.90530941e-001
      -7.47059062e-002 -9.38425362e-002 -7.25838393e-002 6.55336007e-002
      -3.88497263e-002 2.60400832e-001 1.45481236e-003 -1.00147322e-001
      1.52120173e-001 9.13600698e-002 1.39496624e-002 -2.08684951e-002
      -8.20378363e-002 -8.90440345e-002 -1.62209794e-001
      -2.32857257e-001 8.61195475e-002 2.23376244e-001 5.06476092e-004
      -3.98536585e-002 -4.83804150e-003 -2.10826769e-001
      -6.95602074e-002 -2.04735458e-001 -2.37740591e-001 7.55110458e-002
      4.41379137e-002 2.78764758e-002 6.54607713e-002 3.02397981e-002
      -2.27066558e-002 -6.67788461e-002 -3.67910154e-002
      -6.76338421e-003 3.78106013e-002 1.13340370e-001 -6.08335845e-002
      2.75149774e-002 4.17295732e-002 -6.95759524e-003 -8.55903924e-002
      -2.07892358e-002 -9.65513755e-003 1.18082218e-001</_>
    <_>
      -1.16674230e-001 6.36164695e-002 1.04797548e-002 -1.69090837e-001
      1.19121380e-001 2.39171460e-002 -3.65608484e-002 2.33027153e-002
      1.21757882e-002 -6.39766753e-002 9.55671594e-002 -4.00634184e-002
      1.37986436e-001 1.39761850e-001 2.41033686e-003 -1.78808607e-002
      -2.75908019e-002 -5.72667792e-002 -4.94811498e-002 1.01924434e-001
      7.95511995e-004 -1.37575837e-002 -4.63408642e-002 -2.86434963e-002
      -1.11118622e-001 3.96199785e-002 3.58556688e-001 1.12698667e-001
      -2.33985543e-001 -3.95401031e-001 -3.99093747e-001
      -9.73905325e-002 -1.15050562e-001 -1.17426932e-001 4.74530868e-002
      1.53437495e-001 2.29957351e-003 1.08990027e-002 -1.26431771e-002
      -6.96535483e-002 1.04862913e-001 4.27361280e-002 -1.58889275e-002
      -6.22274354e-002 -1.12650387e-001 6.42924532e-002 1.01998299e-001
      -1.05494948e-003 -1.12292148e-001 -1.43958345e-001 2.75288913e-002
      1.40398428e-001 -2.88873026e-003 2.90781856e-002 -6.97903782e-002
      -1.50447130e-001 -1.03024229e-001 2.44987771e-001 1.18010826e-002
      -9.10543576e-002 1.33736625e-001 2.49492414e-002 -1.89093016e-002
      -5.98945171e-002 -8.38929489e-002 -1.02418996e-001 9.92218927e-002
      -1.14772193e-001 -1.23033589e-002 -1.83522910e-001 6.34539500e-002
      2.55080815e-002 2.62245148e-001 -8.65360489e-004 -2.13059545e-001
      -3.06568235e-001 -5.67521192e-002 -2.08538815e-001
      -3.82348746e-001 -1.62097216e-001 3.16396117e-001 3.57292801e-001
      1.73483044e-001 9.85341053e-003 -7.85054192e-002 3.34351659e-002
      -3.03848803e-001 -6.17568851e-001 -2.64688909e-001 1.91506729e-001
      -1.76623370e-002 -3.02049834e-002 3.25627771e-004 -6.94233179e-003
      7.63843656e-002 -1.04992814e-001 2.30434462e-001 1.89564720e-001
      7.82729760e-002 -7.77538419e-002 4.63300906e-002 1.95697471e-001
      -3.95985646e-003 -3.89340520e-002 -4.38513188e-003
      -2.86470409e-002 1.10411897e-001 -2.13731844e-002 -9.78278890e-002
      -9.44501814e-003 2.32414436e-002 9.58615355e-003 1.33539751e-001
      3.47453635e-004 -1.06167749e-001 -2.87058055e-001 -1.17780432e-001
      -2.69056141e-001 -4.76064421e-002 6.85981801e-003 6.74174726e-003
      2.18092233e-001 5.29170744e-002 1.79519013e-001 -2.10251376e-001
      -1.05134338e-001 3.79795641e-001 1.91472828e-001 -1.67847089e-002
      1.26476213e-003 -3.14339017e-003 -1.15510397e-001 -4.87799436e-001
      -5.47889888e-001 9.38442498e-002 5.00968754e-001 1.06810607e-001
      -1.42078437e-002 -2.74840593e-002 -6.10079840e-002
      -4.80393767e-002 -3.55668664e-001 -8.03751945e-001 1.48665562e-001
      4.41333950e-002 1.52426912e-002 -2.08560959e-003 5.88652268e-002
      -3.60398404e-002 -1.50520094e-002 5.20004751e-003 1.48050720e-002
      5.22598401e-002 1.37612268e-001 -6.84034675e-002 2.87636206e-003
      -1.44079879e-001 9.44444612e-002 -8.49435222e-004 -2.80651962e-003
      6.64141476e-002 1.94130331e-001</_>
    <_>
      -3.29828449e-003 7.87536055e-002 1.22763492e-001 -6.66274782e-003
      -8.20138231e-002 -1.08008690e-001 -1.37760686e-002
      -5.70123009e-002 -5.54419048e-002 -4.19937354e-003 9.68568474e-002
      1.98851883e-001 1.32662207e-002 -6.12135641e-002 -1.59504876e-001
      -9.96157676e-002 -7.86581933e-002 -2.28534359e-002 4.12981305e-003
      -1.75462648e-001 -3.22144525e-003 -5.31811791e-004
      -5.41238301e-003 -2.99600437e-002 -3.53305251e-003 2.79826932e-002
      1.70908302e-001 -1.33720906e-002 -1.36222392e-001 -4.35901284e-002
      2.73520569e-003 -9.25848074e-003 -2.55035609e-002 1.08479783e-002
      8.47696364e-002 2.15136632e-001 -2.99902428e-002 -3.00440285e-002
      -4.37669419e-002 -2.75145806e-002 5.11222854e-002 -8.50230921e-003
      9.79548097e-002 2.97342688e-002 -3.64870280e-002 -1.45846969e-002
      5.69145288e-003 -1.44263789e-001 -1.40021741e-001 -7.58083239e-002
      8.43609571e-002 1.29263923e-001 6.97074234e-002 -1.56735280e-003
      -3.27186175e-002 9.86638945e-003 7.39267021e-002 1.46147177e-001
      -8.14243034e-002 -1.55833168e-002 5.52119571e-004 -7.12435246e-002
      -4.72414866e-002 -8.21489021e-002 -5.83029315e-002
      -8.66654292e-002 2.83272192e-002 -5.98675571e-002 3.41824628e-002
      7.99087733e-002 3.54388654e-002 -5.64296357e-002 -2.98506953e-002
      -1.08935475e-001 -1.02463756e-002 1.14861894e-002 2.21289732e-002
      -1.27854641e-003 1.52011579e-002 6.90333247e-002 1.45909116e-001
      -2.94957794e-002 -1.61453247e-001 -1.48316622e-002 1.72064435e-002
      5.88027276e-002 3.82199674e-003 4.84672673e-002 1.56497911e-001
      1.86636761e-001 -9.40247476e-002 -1.25259951e-001 -1.33393943e-001
      -2.72007696e-002 4.74342369e-002 5.91425672e-002 1.15123354e-001
      1.18793540e-001 2.77243219e-002 -1.31630197e-001 -9.33542773e-002
      8.79683197e-002 1.35944188e-001 1.12748101e-001 5.18925376e-002
      -1.20380362e-002 3.39463726e-002 -4.73657772e-002 -6.41732886e-002
      -9.32724774e-002 -3.25759985e-002 -6.52713788e-005
      -8.81748740e-003 -1.28274122e-002 8.28725323e-002 1.25873191e-002
      -1.31500423e-001 -2.95147244e-002 -1.04912885e-001
      -5.40592894e-003 3.46247409e-003 4.09170575e-002 2.59756632e-002
      1.02985337e-001 -4.26365510e-002 -1.01599641e-001 4.74449620e-002
      -1.86809793e-001 -1.67002052e-001 -2.39880178e-002
      -2.10521035e-002 -4.83518429e-002 3.72145660e-002 1.24859624e-001
      2.03161523e-001 1.16898611e-001 -1.66251987e-001 -1.09548107e-001
      -1.00833913e-002 -9.06249657e-002 -5.46122752e-002 1.23875774e-002
      2.72022486e-002 1.71485677e-001 -6.90953359e-002 -1.25663579e-001
      8.47461969e-002 1.00769795e-001 6.43039420e-002 -1.35477539e-002
      -5.91656491e-002 -1.46751821e-001 -6.44435063e-002 9.34361592e-002
      2.42968462e-002 1.84933722e-001 7.09549263e-002 1.34398453e-002
      -2.09167600e-002 -7.76424780e-002 -4.08330821e-002 2.79965959e-002</_>
    <_>
      -1.84081912e-001 -2.57697664e-002 1.36218712e-001 1.33593664e-001
      -1.43513847e-002 -3.35597731e-002 7.12349126e-003 1.89280044e-002
      -1.66290086e-002 -8.26238003e-003 6.19946495e-002 1.72552720e-001
      1.40326232e-001 -1.73800170e-001 -1.34176835e-001 -5.18849865e-002
      2.34515369e-002 -5.13755195e-002 1.56358957e-001 -3.34128737e-001
      -6.00704402e-002 -6.21893182e-002 -1.41788423e-001
      -4.40180190e-002 -1.26947481e-002 2.37497166e-002 1.87585682e-001
      2.15302870e-001 -8.01626369e-002 -2.66730458e-001 -4.34535563e-001
      -2.43386298e-001 -2.80640870e-001 -1.37782479e-002 1.35403410e-001
      1.63916051e-001 3.63938212e-002 4.86662649e-002 -2.33327691e-003
      -9.09608207e-004 1.58694699e-001 1.63793296e-001 9.63664427e-002
      -5.70036136e-002 -6.85553998e-002 -7.12172017e-002 2.75202598e-002
      -5.77499419e-002 -4.38636914e-002 -1.97764009e-001 1.06788956e-001
      1.33190170e-001 5.05556911e-002 -3.31452824e-002 8.32740963e-003
      2.09268443e-002 -5.75004518e-002 2.98084766e-001 -2.98522785e-002
      -1.59831420e-001 6.41110167e-002 -9.43004247e-003 -1.06511869e-001
      -1.23676807e-001 -1.40969038e-001 -1.22959837e-001 1.06911898e-001
      -6.59543499e-002 9.31541845e-002 -1.72169413e-002 1.76976383e-001
      -2.02012390e-001 4.81507301e-001 1.44182995e-001 -2.11290866e-001
      -5.15661359e-001 -3.46886396e-001 -4.40653473e-001
      -7.28757158e-002 6.12192526e-002 2.46523336e-001 3.41127098e-001
      1.55869976e-001 -2.87587717e-002 -3.42425942e-001 -2.78153032e-001
      -5.70227921e-001 -2.35203564e-001 4.13358212e-002 3.05718422e-001
      -8.61871988e-002 -7.56570250e-002 -1.43938109e-001 7.10285082e-002
      2.09273398e-001 -5.83479963e-002 1.84582770e-001 1.69200018e-001
      -7.81353656e-003 -1.72956318e-001 9.09613520e-002 3.23214144e-001
      8.30558315e-002 2.25113347e-001 4.86083142e-002 2.61269398e-002
      -2.38975827e-002 -2.04871789e-001 -9.91019458e-002
      -1.56460375e-001 -1.06786795e-001 -1.53957475e-002 1.25237256e-001
      -2.52941549e-002 -9.43150744e-002 -6.34301081e-002
      -1.15742683e-001 -1.04986792e-002 -6.84555918e-002
      -4.00487520e-002 -2.00809091e-002 6.29887953e-002 1.49555057e-001
      5.64215407e-002 -1.50483489e-001 2.74228901e-002 2.65802413e-001
      2.32884437e-002 -3.63734215e-002 -1.66156963e-001 -1.65271550e-001
      -3.02433193e-001 -1.11302182e-001 -1.84319153e-001 1.97194234e-001
      1.78585991e-001 -1.18247129e-001 -5.76030426e-002 -6.10020943e-002
      -2.60432720e-001 -5.77431172e-002 -1.13720953e-001
      -4.92873043e-001 1.29115477e-001 1.15391740e-003 1.61205560e-001
      2.27470562e-001 1.25265121e-001 -1.68514568e-002 -3.14941406e-002
      -2.96092331e-002 -1.19902782e-001 -1.48023099e-001 1.42439082e-001
      8.52680132e-002 2.15170234e-001 -1.37997001e-001 -1.01629384e-001
      -1.51906982e-001 -6.12298287e-002 5.88566298e-004 9.04439986e-002</_>
    <_>
      -1.47847412e-002 1.76942386e-002 7.77389407e-002 -2.44955957e-001
      5.08538308e-003 1.54129881e-002 2.45557330e-003 4.10223939e-002
      3.72905806e-002 -6.14762418e-002 1.42315626e-001 6.53478280e-002
      5.65695530e-003 -1.73269168e-001 -3.61913675e-003 -1.10121397e-002
      9.96812899e-003 1.94288022e-003 4.27038282e-001 -3.58108170e-002
      7.33544771e-003 1.86015568e-005 -2.12343141e-001 -8.11126530e-002
      -3.77171665e-001 -4.25799102e-001 2.54361302e-001 6.17589176e-001
      7.94043094e-002 -2.30551045e-002 -2.11734891e-001 -1.87438801e-001
      -3.99883807e-001 -5.42638600e-001 -2.35267684e-001 1.65842175e-001
      1.05090132e-002 9.44667030e-003 0. 0. -4.29495461e-002
      -8.01082924e-002 3.89780663e-002 4.92100138e-003 -6.60253922e-003
      3.13844383e-002 2.83400137e-002 -1.18042738e-003 -3.98956127e-002
      -1.28632143e-001 2.06243303e-002 6.14243448e-002 4.74580675e-002
      3.28464657e-002 -1.80458352e-002 4.39470597e-002 1.52696699e-001
      2.28786077e-002 -9.23183039e-002 -1.44402534e-001 2.71170475e-002
      -1.35520669e-002 -1.87175125e-002 -5.27661815e-002 2.15779170e-002
      6.45198300e-002 1.51637167e-001 -2.76602041e-002 -2.69414317e-002
      -8.70391950e-002 1.12311639e-001 -5.98155521e-002 5.02916336e-001
      4.04349454e-002 -9.01813582e-002 -2.90646613e-001 -1.53553158e-001
      -2.78175086e-001 -3.67240131e-001 -1.02931529e-001 4.42153841e-001
      7.63330385e-002 2.03749001e-001 -1.03484787e-001 -2.73538291e-001
      -1.98068377e-002 -8.88229311e-002 -1.46401912e-001
      -1.93226561e-001 7.63330385e-002 7.57065276e-003 2.39322335e-003
      -4.82173488e-002 -1.18133634e-001 -4.48997915e-002 3.47662829e-002
      2.23675743e-001 6.37593716e-002 2.83046290e-002 4.77810064e-003
      2.11203955e-002 -4.23718765e-002 -4.18144800e-002 -2.17962377e-002
      1.77630588e-001 3.57273072e-002 3.15143541e-002 8.72394070e-003
      -3.17331925e-002 4.01914343e-002 3.20444070e-002 1.83594357e-002
      1.10771514e-001 -1.55871153e-001 -5.47101758e-002 1.34175703e-001
      -1.14670210e-002 2.85163634e-002 6.91292211e-002 9.79824923e-003
      4.49160393e-003 7.53182694e-002 -1.44965857e-001 -1.72058959e-002
      -4.50996049e-002 2.11173818e-002 -1.37803825e-002 -1.55451056e-002
      -2.48650629e-002 -4.08841819e-002 5.80283115e-003 6.99041225e-003
      6.14746846e-003 3.40241520e-003 3.63666005e-002 -1.37803825e-002
      -2.02633634e-001 1.64956283e-002 -3.29970615e-003 -2.82048900e-002
      2.01014802e-003 3.12127871e-003 -7.22695934e-003 1.68177113e-001
      3.30553390e-002 1.29922656e-002 -5.63583225e-002 -5.61569333e-002
      1.50317699e-001 -3.19223069e-002 2.75640539e-003 -6.23216154e-003
      2.47006081e-002 7.99035802e-002 -6.09590076e-002 -6.36540651e-002
      1.56071484e-002 1.02259330e-001 -1.14524439e-001 -1.44268889e-002
      -1.93461627e-002 6.99009970e-002</_>
    <_>
      -1.65219251e-002 -1.46387681e-001 2.61921175e-002 3.48380953e-003
      2.29166634e-002 1.75827146e-002 -2.34090630e-002 3.60153872e-003
      5.05645294e-003 5.58333984e-003 -3.75032462e-002 3.27969119e-002
      -2.44154502e-002 -3.69270071e-002 1.56765636e-002 1.26832603e-002
      1.61172710e-002 3.57395485e-002 1.75402969e-001 -1.02411620e-001
      -2.12560385e-001 -2.65011817e-001 -1.43827498e-001 6.39359131e-002
      1.57293916e-001 1.25417367e-001 1.53675467e-001 1.85799062e-001
      -2.32383043e-001 -2.75553524e-001 -2.15070605e-001
      -1.20168246e-001 1.36293530e-001 1.45929545e-001 1.29692659e-001
      1.78225547e-001 9.19897854e-002 -1.23143151e-001 -1.95886552e-001
      -4.28758413e-002 -5.23151755e-002 5.69191799e-002 5.99592328e-002
      3.14735174e-002 1.36472374e-001 4.26157787e-002 -1.04001656e-001
      -1.65130034e-001 -1.29915972e-003 -1.66035052e-002 3.93805131e-002
      3.51599380e-002 4.48315516e-002 8.33333209e-002 1.09645789e-002
      8.70902464e-003 -5.10488674e-002 -1.06729064e-002 1.98301263e-002
      -7.84002915e-002 -2.56794295e-003 2.57081650e-002 7.37285316e-002
      3.65786701e-002 -9.98887816e-004 -7.98924733e-003 6.50128350e-002
      3.70678329e-003 -4.32449393e-002 -1.00108773e-001 2.86324061e-002
      1.12501979e-001 3.36742513e-002 -2.44133204e-001 -2.97843099e-001
      -9.08892304e-002 2.89094565e-003 1.46952108e-001 1.34026378e-001
      5.43442592e-002 2.11260572e-001 9.86001939e-002 -2.00365886e-001
      -1.77930236e-001 -1.59448832e-001 1.90231167e-002 1.59036722e-002
      1.55019974e-002 1.03659164e-002 2.72212595e-001 2.34359000e-002
      -3.88661735e-002 -2.88206413e-002 2.36181784e-002 -2.77400445e-002
      2.20796689e-002 1.24057764e-002 -1.72588695e-002 6.32963777e-002
      9.95382387e-003 -9.38396305e-002 -8.22605938e-003 9.54677258e-003
      -5.50507344e-002 -5.97478598e-002 1.78178325e-002 -1.03470922e-001
      1.40191559e-002 6.11915775e-002 3.75544764e-002 3.01187020e-002
      5.18176071e-002 3.17954570e-002 -1.50515782e-002 -1.38988227e-001
      -1.10960729e-001 1.15701124e-001 5.97437620e-002 5.46898916e-002
      7.06311539e-002 6.81285411e-002 -3.17494269e-003 3.39070857e-002
      -1.19142048e-001 -7.39453584e-002 6.35959655e-002 1.80031195e-001
      -2.18880787e-001 -1.51222289e-001 -1.05682313e-001
      -9.29165538e-003 -4.12382148e-002 -1.68329049e-002
      -5.24038039e-002 1.94559172e-001 1.88841373e-001 -1.86712086e-001
      -4.50629108e-002 -3.74315567e-002 -1.06847227e-001
      -9.68729798e-003 -4.29628193e-002 -1.16122082e-001 8.52856562e-002
      3.63997109e-002 -1.26682922e-001 -2.32034493e-002 7.64631550e-004
      -1.34194447e-002 -5.14274724e-002 -3.90422568e-002
      -2.68999934e-002 5.17720878e-002 3.75944301e-002 -1.16819166e-001
      -2.64045745e-002 -7.85887092e-002 6.00735948e-004 -4.37679254e-002
      -1.54117271e-002 -5.12698963e-002 5.63086644e-002</_>
    <_>
      -1.03213921e-001 -2.74964839e-001 5.18495888e-002 1.45941421e-001
      1.24257021e-002 -1.01921326e-002 -3.66820805e-002 -1.19564589e-002
      -4.69649918e-002 -8.28861743e-002 -1.57400191e-001 1.72467142e-001
      1.22357123e-001 -8.39265287e-002 -2.37110540e-001 2.61200387e-002
      8.24358314e-002 2.05487832e-002 3.49292815e-001 -5.34540638e-002
      -5.19988835e-002 -2.53207922e-001 -1.60224438e-001
      -2.11519435e-001 6.63417727e-002 8.37304071e-002 2.85940826e-001
      6.58572018e-002 -4.83357936e-001 -1.56983212e-001 -3.02942246e-001
      -1.71998307e-001 -1.89943954e-001 -1.93423465e-001
      -7.41743892e-002 1.76725984e-001 2.78765466e-002 -1.69117093e-001
      -5.09316027e-002 -4.41563576e-002 -9.33392644e-002
      -1.00805677e-001 -2.07701877e-001 -1.40495622e-003 1.09330140e-001
      1.63518697e-001 -6.95185363e-002 2.10331799e-003 -2.23017652e-002
      -5.71408495e-002 -8.51162225e-002 -1.35996282e-001 3.17284130e-002
      2.64733195e-001 -2.91247405e-002 -9.76220146e-003 -1.13907605e-001
      9.80821922e-002 -3.71411480e-002 -3.44029099e-001 -2.98379771e-002
      1.63882792e-001 1.45436183e-001 4.46291007e-002 4.06128267e-004
      1.11273851e-003 9.95284617e-002 2.35913754e-001 -2.09346518e-001
      -2.24761039e-001 7.26152062e-002 2.07391649e-001 7.82828480e-002
      -4.02143568e-001 -6.31819740e-002 -2.96239704e-002
      -6.09440031e-003 4.94229868e-002 -2.93912083e-001 -1.42881066e-001
      2.22606927e-001 1.99746206e-001 -2.81220138e-001 -5.15966713e-002
      -9.32966638e-003 -1.05125075e-002 -1.17366696e-002
      -2.96264112e-001 -3.27568144e-001 2.32173696e-001 1.80556446e-001
      -1.37447432e-001 -7.15358406e-002 2.63483520e-003 -3.12185120e-002
      -8.08042809e-002 -2.06929311e-001 3.64903584e-002 1.99910104e-001
      1.95970247e-003 -2.19031826e-001 -2.74751902e-001 -1.22696102e-001
      1.73472419e-001 -6.84644654e-002 1.64789129e-002 2.65314169e-002
      -3.18612307e-002 3.63849215e-002 6.92749023e-002 -2.11135275e-003
      1.35100409e-001 3.06387901e-001 -1.35952473e-001 -3.23675483e-001
      -1.13479435e-001 2.59691060e-001 -1.05393469e-001 1.44702479e-001
      1.71198994e-002 2.08099484e-002 1.86421230e-001 6.25946596e-002
      -2.47010753e-001 -1.35675758e-001 1.19546436e-001 2.75578827e-001
      -2.04246596e-001 1.10235270e-002 1.60221534e-003 -8.32846109e-003
      -6.09127320e-002 -2.60542810e-001 -3.44580293e-001 2.03181952e-001
      2.41563901e-001 -8.81971121e-002 4.37457189e-002 2.02835836e-002
      -1.49918035e-001 -5.51318042e-002 -2.61308759e-001
      -3.95393968e-001 7.60811567e-002 1.25689790e-001 -2.58812726e-001
      4.51861024e-002 -1.88554481e-001 1.52947709e-001 1.44658387e-001
      4.30941805e-002 8.35930277e-003 4.29440429e-003 1.26062110e-001
      -2.49271005e-001 -1.03733614e-002 -6.72967285e-002
      -9.84320864e-002 7.86450803e-002 2.88395267e-002 2.63589784e-003
      4.36559282e-002</_>
    <_>
      -6.74388409e-002 -1.67946771e-001 2.53659606e-001 2.04997599e-001
      1.15989111e-001 -5.18239737e-002 -1.87215414e-002 -2.49462365e-003
      6.48759678e-003 -1.98536009e-001 -2.64276147e-001 -1.25852525e-002
      -6.36874605e-003 8.34871829e-002 2.10179798e-002 4.52539064e-002
      6.77504987e-002 9.97360423e-003 1.28638342e-001 -2.45957971e-001
      -3.05141002e-001 -2.24509433e-001 -2.52873510e-001 1.07410654e-001
      1.64350376e-001 1.18727386e-002 7.79551193e-002 2.73442060e-001
      -4.01768237e-001 -3.16926479e-001 -2.34806016e-001
      -2.35719159e-001 4.90872143e-003 6.25704601e-002 6.05951175e-002
      2.45133877e-001 1.81423292e-001 6.63098842e-002 -3.39187570e-002
      -6.21031262e-002 -2.36016259e-001 -1.96343046e-002
      -6.06135242e-002 -6.29284307e-002 1.54193446e-001 1.73836038e-001
      1.09560169e-001 -2.31119916e-002 -1.41188996e-002 -1.03774279e-001
      2.94031221e-002 -2.73840755e-001 -7.43199065e-002 2.43226200e-001
      -5.84027432e-002 -1.75870642e-001 -6.35509044e-002
      -4.21834225e-003 3.16942111e-002 -3.37312222e-002 7.84408152e-002
      8.19514319e-002 2.48086695e-002 -2.69354656e-002 -7.38859326e-002
      -3.57275382e-002 3.15714590e-002 7.72315562e-002 -8.50448087e-002
      -4.42465879e-002 -5.92655018e-002 -5.17074019e-002 2.25802898e-001
      -4.38380748e-001 -1.70971215e-001 -5.20102680e-002
      -7.96586275e-002 -2.91980077e-002 -2.45803390e-002
      -7.12560192e-002 2.63561338e-001 1.19780734e-001 -4.08727527e-001
      -1.09712631e-001 -5.39992452e-002 -4.89646196e-002
      -3.86797562e-002 -1.60991222e-001 -2.67480403e-001 1.53308555e-001
      5.51266149e-002 8.51046667e-003 3.14018615e-002 7.54871443e-002
      -1.08107053e-001 1.32844448e-001 -1.02158003e-001 -1.49121016e-001
      1.64943084e-001 -4.01878431e-002 -8.55910257e-002 -2.21354682e-002
      2.85024177e-002 -4.30443361e-002 6.00219890e-002 -9.52361710e-003
      -9.00506228e-002 9.92318168e-002 -5.33385240e-002 -4.02067825e-002
      3.69847268e-002 -5.68121206e-003 3.71866077e-002 3.91932670e-003
      -1.72140956e-001 -1.32173449e-001 -9.16748568e-002
      -6.12544045e-002 2.29151230e-002 3.45667708e-003 1.49116302e-002
      7.43002370e-002 6.40426204e-002 -5.16558960e-002 -5.81261739e-002
      -7.98668116e-002 2.16907978e-001 -1.46640673e-001 -1.05774319e-002
      -3.82209686e-003 9.46484786e-003 4.23704199e-002 -2.64009889e-002
      -3.18154216e-001 1.98056977e-002 1.49749056e-001 -5.36598563e-002
      1.53527560e-003 7.06709828e-003 -1.46870255e-001 5.27464747e-002
      -4.07976285e-002 -3.40947777e-001 -1.66899506e-002
      -1.61025226e-002 -1.60006791e-001 -7.93090388e-002 1.19008936e-001
      -1.03664249e-002 7.47833326e-002 -3.22980881e-002 -7.60592446e-002
      3.87696475e-002 -2.08074674e-002 -1.64056197e-001 -3.09191104e-002
      8.98667797e-002 -2.89649349e-002 1.65342912e-002 -3.39460485e-002
      -1.21644169e-001 3.22556943e-002</_>
    <_>
      -1.06336892e-001 -1.76718414e-001 1.04220204e-001 4.65848967e-002
      4.59789447e-002 8.82965419e-003 -2.19670944e-002 -2.79350262e-002
      -8.10341630e-003 -8.63208324e-002 -1.88776031e-001 1.03765570e-001
      1.29132822e-001 -1.33148879e-001 -3.92934978e-002 -3.28230150e-002
      6.22640364e-002 -8.15589447e-003 2.11652592e-001 -2.03384906e-001
      -1.97373658e-001 -2.25541487e-001 -9.34160054e-002 8.52897093e-002
      1.46285370e-002 -1.72255486e-002 2.42633581e-001 2.20179513e-001
      -1.85712934e-001 -2.60974795e-001 -3.25743735e-001
      -2.95700133e-001 -5.39950766e-002 -3.19752209e-002
      -2.37470232e-002 1.66019052e-001 1.02196805e-001 2.58816909e-002
      1.50243500e-002 2.65630577e-002 1.35776391e-002 -2.48032331e-001
      -8.41542557e-002 4.31083795e-003 1.36451930e-001 8.77458826e-002
      2.16088947e-002 2.57371143e-002 -7.99049512e-002 -1.67824447e-001
      5.07151224e-002 -4.92345961e-003 1.00104295e-001 1.98889494e-001
      -1.25270402e-002 -6.14967272e-002 -3.12719122e-002 8.56467485e-002
      -1.66576013e-001 -2.30479846e-003 2.96879057e-002 3.04641444e-002
      3.22432555e-002 2.93227080e-002 -1.37097672e-001 -1.16980653e-002
      8.52060616e-002 -7.72328079e-002 -1.45204902e-001 3.31072472e-002
      1.14560658e-002 -3.03682406e-002 2.16313004e-001 -7.60820135e-002
      -1.47245884e-001 -1.84192315e-001 -2.02629611e-001 4.58580665e-002
      -1.22946188e-001 -1.37265250e-001 1.93701953e-001 2.77819484e-001
      -1.32920323e-002 -5.82749546e-002 -1.23030476e-001
      -1.64995447e-001 -5.39471917e-002 -3.42422277e-001
      -2.96337813e-001 1.43447444e-001 8.11279416e-002 1.19662238e-002
      -4.65302914e-002 -9.49687734e-002 -1.57868758e-001
      -4.61647697e-002 6.78332895e-002 4.53620739e-002 1.03429705e-001
      7.31783286e-002 4.43131290e-002 -1.59990028e-001 -1.40702456e-001
      -6.24710768e-002 3.46469544e-002 2.37630047e-002 3.00828367e-002
      7.91505650e-002 1.11929430e-002 -5.67411631e-002 -5.55436574e-002
      6.89649507e-002 -2.99491808e-002 -1.76062375e-001 2.94724144e-002
      -2.14273781e-002 1.79065913e-002 -8.17392990e-002 -3.30682993e-002
      -8.47286582e-002 5.25872596e-003 -3.05936206e-002 -1.42608061e-001
      6.45026267e-002 7.50789866e-002 1.36672156e-002 2.03724518e-001
      -6.98551163e-002 1.92046314e-002 -2.15055142e-002 -1.24444723e-001
      9.67140775e-003 -1.62878841e-001 -3.63833547e-001 6.75096065e-002
      2.20977202e-001 -5.65504245e-002 3.58125865e-002 3.16916741e-002
      -2.10530281e-001 1.32539589e-002 -1.09429106e-001 -2.49150187e-001
      -3.27194855e-002 9.11610574e-002 4.95601483e-002 -1.25517979e-001
      -1.42701253e-001 6.33060932e-002 2.31757946e-002 -9.42476839e-003
      -1.74402036e-002 1.07955098e-001 1.06457382e-001 6.69355243e-002
      -1.61777467e-001 -1.56308383e-001 -1.15128551e-002 3.01981368e-003
      1.12932973e-001 -9.72696319e-002 8.84158239e-002</_>
    <_>
      -6.22544438e-002 -1.38665199e-001 -3.13139334e-002
      -1.62977148e-002 1.50285184e-001 1.71789434e-003 -2.07109582e-002
      -1.63570140e-002 -9.45374742e-003 -4.63710576e-002
      -1.21370390e-001 8.90503114e-004 7.27090091e-002 1.75778866e-001
      -1.29909245e-002 -4.33847215e-003 -1.68453790e-002 1.44906237e-003
      -1.11258179e-001 -6.46366924e-002 3.63861248e-002 -2.56537516e-002
      2.61727348e-002 1.35455057e-001 1.61449298e-001 1.43496066e-001
      1.79335818e-001 -6.68596625e-002 -2.90004492e-001 -2.91297466e-001
      -9.96583551e-002 -1.29495546e-001 2.48017311e-002 4.81409207e-003
      6.90467879e-002 1.67575460e-002 6.72295317e-002 1.94994628e-003
      -4.21670440e-004 8.29443522e-003 -5.19060418e-002 -2.60084998e-002
      -3.05263430e-001 -2.18257736e-002 9.79660973e-002 7.92075470e-002
      2.45987643e-002 1.21353110e-002 7.89366141e-002 -8.74962732e-002
      1.44106513e-002 2.03181524e-002 -2.43428815e-002 7.11844414e-002
      -3.91815528e-002 -1.17776290e-001 -5.65456152e-002 8.67555887e-002
      -2.83802841e-002 -1.12577081e-001 3.98503393e-002 1.94123629e-002
      4.32953238e-002 -8.06806702e-003 -5.26205376e-002 -3.31256799e-002
      7.37652853e-002 3.69981863e-002 -1.32223606e-001 -1.60920128e-001
      1.06459014e-001 2.17934817e-001 1.49758667e-001 -1.52953014e-001
      -2.29602411e-001 -7.62213245e-002 -1.12445995e-001
      -8.65017250e-002 -1.64559752e-001 -2.00024787e-002 2.97528267e-001
      2.58774310e-001 -4.22440097e-002 -2.16575310e-001 -3.75158824e-002
      -8.28670859e-002 -2.10667297e-001 -3.94625187e-001
      -3.10297668e-001 1.66539058e-001 4.23825644e-002 -7.21039474e-002
      -2.04349887e-002 -1.77739635e-002 -7.64027461e-002 1.30786961e-002
      -3.00829988e-002 -1.50781991e-002 7.96599463e-002 -4.34088781e-002
      -1.26564398e-001 -2.28198931e-001 -5.06395213e-002
      -1.35990214e-002 1.91687606e-002 2.60134879e-002 2.42541749e-002
      1.81996413e-002 1.94167476e-002 -1.38928182e-002 2.56211441e-002
      1.38410181e-001 1.82656482e-001 -5.94375990e-002 -2.09527716e-001
      -7.66490474e-002 2.64575362e-001 1.38886515e-002 -5.95330633e-002
      2.81867404e-002 8.96409452e-002 1.09136142e-002 -8.61689225e-002
      -1.61105081e-001 -1.65830597e-001 1.86407179e-001 2.63031900e-001
      -6.74329847e-002 -5.64865135e-002 -1.13378828e-002
      -1.03579741e-002 -5.00753298e-002 -3.93408716e-001
      -4.08451080e-001 1.12180814e-001 2.83585906e-001 -1.53942972e-001
      -6.42357627e-003 -1.78146865e-002 -1.58087820e-001 2.32836604e-002
      -3.11146587e-001 -5.10062635e-001 1.47404850e-001 6.92409948e-002
      -8.83086249e-002 -2.49164551e-001 -8.83121789e-002 1.90382093e-001
      1.20788112e-001 2.55017970e-002 3.99154052e-003 7.06316307e-002
      7.41176605e-002 4.05562259e-002 -2.38884285e-001 -3.99505496e-002
      6.11958392e-002 1.15442015e-001 1.45808309e-002 9.79455747e-003
      7.17952996e-002</_>
    <_>
      -9.13942792e-003 1.78169813e-002 1.17185600e-001 4.69151102e-002
      -8.03233609e-002 -9.29718539e-002 -1.45823052e-002
      -7.58187398e-002 -6.97828606e-002 -2.94689666e-002 5.64331096e-003
      1.74354360e-001 -1.98910274e-002 -8.33709911e-002 -9.92219523e-002
      -6.28464520e-002 6.16366938e-002 6.25190660e-002 -5.61895818e-002
      -3.54963541e-001 4.10878174e-002 -8.19142326e-004 3.65697443e-002
      6.77305162e-002 1.03203423e-001 1.05729543e-001 1.96946681e-001
      -1.03590459e-001 -3.67713660e-001 -3.81538458e-002 1.70847028e-002
      1.10546835e-002 6.97121546e-002 1.12118930e-001 1.15320385e-001
      2.04204187e-001 3.51289921e-002 -9.84640270e-002 -9.44295749e-002
      -8.61452669e-002 1.22837164e-002 4.13413979e-002 -1.07208290e-003
      -8.79967138e-002 2.31639706e-002 -3.55294882e-003 -9.35013890e-002
      -1.22625776e-001 -6.18193625e-003 5.34869991e-002 1.56745818e-002
      -3.97350080e-002 -9.61384028e-002 -1.37711912e-002
      -4.70237657e-002 -5.75661380e-003 1.06746852e-002 2.53168158e-002
      -1.37933686e-001 -1.83612127e-002 1.80300269e-002 6.63466454e-002
      7.81371891e-002 -3.07912491e-002 -5.32803237e-002 -1.07618086e-001
      2.97821444e-002 -1.33557662e-001 -8.29548091e-002 6.85437471e-002
      6.84628263e-002 6.34713024e-002 -8.76502171e-002 -3.42268795e-001
      -7.20281452e-002 2.13032067e-002 3.66998687e-002 9.42471176e-002
      1.00158885e-001 6.38165921e-002 2.07584590e-001 2.68924851e-002
      -3.01885515e-001 -1.37700260e-001 -2.46089753e-002 8.25241022e-003
      4.76495810e-002 3.26314084e-002 5.37173040e-002 2.83093631e-001
      -5.12104183e-002 -1.11186400e-001 -1.56567916e-002 3.05550788e-002
      4.40046266e-002 -9.42136813e-003 -2.25376878e-002 -4.52673659e-002
      5.92608489e-002 -7.96493217e-002 -9.72226039e-002 1.61812231e-002
      1.11771822e-001 -2.64321975e-002 -6.02519233e-003 -7.32972771e-002
      -3.90536152e-002 1.01367217e-002 1.10029317e-002 -6.87593743e-002
      7.12974835e-003 6.19961508e-002 -7.00848401e-002 -5.94348796e-002
      4.43829369e-004 -2.70914380e-002 -3.36050615e-002 8.27539042e-002
      -1.40129458e-002 1.36843324e-001 9.91859362e-002 1.85889322e-002
      -3.58139016e-002 -5.81067018e-002 -8.16877708e-002
      -5.47898076e-002 9.61185172e-002 -2.35591307e-001 -1.69397026e-001
      -4.15849760e-002 -6.91321492e-002 -1.04030505e-001 1.65102612e-002
      1.75567959e-002 2.73688436e-001 1.32234871e-001 -1.77703574e-001
      -6.23635063e-003 4.44666855e-002 7.91822618e-004 -1.06057547e-001
      3.68398428e-002 3.45477415e-003 1.43154576e-001 4.94563626e-003
      -1.99743152e-001 -2.21442543e-002 -3.96658108e-002 6.25719375e-004
      3.19508798e-002 -2.84759477e-002 -1.16266951e-001 3.56357843e-002
      6.91318661e-002 -1.22940220e-001 -2.03940761e-003 -4.90548499e-002
      3.20767844e-003 5.67916185e-002 2.58935187e-002 -1.68522261e-002
      2.84906551e-002</_>
    <_>
      -5.96220642e-002 -1.66895613e-001 1.55564204e-001 2.17420831e-001
      -1.60576269e-001 -2.00631917e-002 6.95829745e-003 7.63149606e-003
      -1.68106090e-002 -4.13216352e-002 -1.62893217e-002 2.02079386e-001
      1.10791214e-001 -2.16386378e-001 -6.17582425e-002 -2.11492274e-002
      1.82959527e-001 7.08533451e-002 9.27250460e-002 -4.41038638e-001
      -2.32960824e-002 -1.94052786e-001 -9.66806244e-003 1.90501064e-001
      3.25211227e-001 2.22553775e-001 1.98962048e-001 -1.50024763e-003
      -4.43126678e-001 -1.48324311e-001 -4.59341377e-001
      -2.26464465e-001 -1.24208950e-001 1.17104836e-001 1.14127323e-001
      -5.30773327e-002 2.46592164e-001 3.60802002e-002 3.33911245e-004
      7.31532499e-002 1.86523050e-002 3.59461308e-002 -3.55742484e-001
      -1.19661994e-001 1.95017532e-001 -5.06547019e-002 -1.97406739e-001
      -9.75614190e-002 1.44283801e-001 1.17449731e-001 -8.03721696e-002
      -1.34226218e-001 -1.77284479e-001 -1.93836875e-002
      -9.92880855e-003 -8.84939730e-003 7.36342743e-002 1.79533064e-001
      -9.33486074e-002 -2.17447549e-001 -3.56162414e-002 1.12879477e-001
      7.79703036e-002 -5.66393323e-002 -2.28410751e-001 -7.74289295e-002
      2.23944873e-001 1.79137010e-002 -1.52956098e-001 -5.59465885e-002
      1.84879467e-001 -7.47619718e-002 2.71313965e-001 -1.78776160e-001
      -1.34057835e-001 -3.92533362e-001 -1.65302157e-001
      -1.02079712e-001 4.36594337e-002 -4.01523523e-002 1.95603803e-001
      2.51278967e-001 -9.78419334e-002 -2.03471005e-001 -2.97651321e-001
      -1.67517886e-001 -2.31143147e-001 -2.25615203e-001
      -4.04510915e-001 2.89968282e-001 8.69838297e-002 -1.36140630e-001
      -1.70521662e-001 1.09294569e-002 1.77631468e-001 -2.64787935e-002
      -4.90333401e-002 -2.24920556e-001 2.10223254e-002 6.06093071e-002
      -4.47419658e-002 -1.68957353e-001 -1.03580050e-001 1.73516303e-001
      1.51421130e-001 4.37496006e-002 -2.04100400e-001 -5.77711463e-002
      4.74739037e-002 -1.89978153e-001 -6.96016997e-002 2.14310616e-001
      1.06469713e-001 3.52676176e-002 -3.90398413e-001 8.75466131e-003
      5.03049009e-002 2.03746811e-001 7.00864643e-002 1.85688406e-001
      1.51838720e-001 7.91008696e-002 1.77691027e-003 -3.30537766e-001
      -7.75148496e-002 -7.82515574e-003 2.00463772e-001 -1.71953484e-001
      1.84453074e-002 -9.98516753e-002 -7.66981021e-002 -1.76400915e-001
      -1.98405638e-001 -4.65428591e-001 1.92189232e-001 1.10401973e-001
      -2.09372625e-001 1.36194259e-001 8.42254236e-003 -1.41644269e-001
      2.00376175e-002 -1.81861490e-001 -4.73744184e-001 5.96808009e-002
      2.11616740e-001 -4.45737131e-002 -1.65364429e-001 -1.08543716e-001
      7.89979696e-002 1.39508739e-001 4.38544229e-002 -1.70875639e-001
      -6.90208748e-002 1.06550470e-001 7.40276948e-002 -2.00590774e-001
      -7.24195987e-002 -1.31793022e-001 -1.02808289e-001 3.98075506e-002
      -1.54587522e-001 -2.00937867e-001</_>
    <_>
      -2.35294942e-002 -2.56677598e-001 1.09699510e-001 4.64374982e-002
      1.35144191e-002 -8.56903102e-003 -1.62241468e-003 9.05990193e-004
      -5.37964515e-003 -4.72966768e-002 -7.68084899e-002 4.81816605e-002
      2.54252777e-002 -3.09502035e-002 -3.65781821e-002 4.27773735e-003
      2.51219813e-002 9.08658188e-003 2.49866605e-001 -8.10133889e-002
      3.25046517e-002 -4.67375247e-003 -4.83285189e-002 4.54358347e-002
      -1.83525339e-001 -1.06919013e-001 7.84886330e-002 2.89547265e-001
      -6.07521087e-002 -5.91586307e-002 -1.58866942e-001
      -8.02122951e-002 -1.72082052e-001 -2.55697280e-001
      -6.43065199e-002 2.35261489e-002 9.76949409e-002 2.81829364e-003
      3.64967098e-004 2.26260852e-002 -1.85659751e-002 -2.06500813e-001
      -1.20568000e-001 3.58670130e-002 1.63478553e-001 1.06524177e-001
      7.68314907e-003 3.60284816e-003 5.37572205e-002 -6.89599663e-002
      -7.62650073e-002 -6.73891902e-002 6.75634220e-002 1.30962789e-001
      -1.33897141e-002 8.51070136e-003 -5.15887514e-002 1.79349370e-002
      -7.72263203e-003 -1.81394666e-001 1.89940482e-002 2.68028732e-002
      2.79499684e-002 -3.44544556e-003 5.21212956e-003 -1.79850543e-003
      8.77635032e-002 9.80138704e-002 -5.54786697e-002 -1.40618965e-001
      2.18140781e-001 1.26370952e-001 2.10155189e-001 -1.73560172e-001
      -7.40724280e-002 -1.83097675e-001 -5.24845906e-002
      -1.22283287e-001 -1.45492733e-001 -1.50428405e-002 2.33285949e-001
      1.05708323e-001 -1.81356490e-001 -8.22991505e-002 -1.51886344e-001
      -2.91224598e-004 -3.40195224e-002 -5.81616387e-002
      -1.88940138e-001 1.05708323e-001 1.05676912e-001 5.67819783e-003
      -6.27042949e-002 -1.42476127e-001 -6.27900660e-002
      -5.13879769e-002 -1.61510482e-002 1.78152565e-002 1.06338963e-001
      1.06082022e-001 2.26822235e-002 -3.50978345e-001 -6.46526292e-002
      -2.18335092e-002 8.56625065e-002 2.70022992e-002 8.05331208e-003
      1.05919428e-001 3.13739739e-002 1.25869205e-002 1.18979700e-002
      3.94560769e-002 1.82341263e-001 -8.87725055e-002 -1.68976724e-001
      1.23374626e-001 2.66808957e-001 7.86897987e-002 1.84567459e-002
      2.33462639e-002 2.35417802e-002 1.68880038e-002 2.65434850e-002
      -2.03192741e-001 -8.17847699e-002 2.74427772e-001 1.88258216e-002
      -1.74712017e-001 -2.49133855e-002 -3.48980464e-002 2.46328232e-003
      3.50547559e-003 -9.03241616e-003 -6.58181086e-002 1.28060788e-001
      1.77232847e-002 -2.63083547e-001 1.42744388e-002 -1.45420374e-003
      -2.08639517e-001 1.81496073e-003 -3.01415822e-003 -3.62123325e-002
      1.58364028e-001 1.35950118e-001 -5.33440441e-004 -2.98026681e-001
      -2.21809044e-001 1.90017626e-001 8.03892687e-002 1.94432270e-002
      -2.09443737e-003 1.06900737e-001 1.98610574e-001 -6.62181675e-002
      -2.48146966e-001 8.08715969e-002 1.23053037e-001 7.98614770e-002
      2.09550317e-002 -1.99629068e-002 1.02083795e-001</_>
    <_>
      -2.33667344e-003 1.24524914e-001 4.21713404e-002 -1.45608336e-002
      -8.47612917e-002 7.61679653e-003 4.71271090e-002 -1.32109961e-002
      -3.89807560e-002 -3.57790221e-003 -3.11072953e-002 3.18185277e-002
      6.84965998e-002 1.87861510e-002 -1.02144174e-001 3.67440954e-002
      8.14380199e-002 -1.37334485e-002 -1.39900833e-001 1.02405563e-001
      2.74281502e-001 1.51321009e-001 1.11449562e-001 -1.69767007e-001
      -6.06434867e-002 -1.93998646e-002 -1.14873432e-001
      -2.61630595e-001 1.31321535e-001 2.78208464e-001 1.29272103e-001
      4.87384945e-002 -2.09345311e-001 -2.83247739e-001 -1.67164415e-001
      -2.43073061e-001 1.37252761e-002 1.02029629e-001 1.86060354e-001
      -1.14963772e-002 1.65015861e-001 -1.41074806e-001 -3.29199135e-001
      -1.20694794e-001 -3.64963412e-002 2.96421703e-002 2.53056567e-002
      1.00359127e-001 -1.08309016e-001 6.86693657e-003 -7.02288523e-002
      -3.32224667e-001 -9.93151963e-002 4.78883944e-002 -4.07021726e-003
      -1.62369236e-002 -2.49034427e-002 4.10699174e-002 -7.57803395e-002
      -3.44976746e-002 7.66038615e-003 7.05443174e-002 -2.91864085e-003
      -4.72124629e-002 2.87595391e-002 -2.88906991e-002 -3.17292474e-002
      6.65194243e-002 -3.05853244e-002 -1.11559490e-002 1.23991854e-001
      1.51946952e-004 -1.19235359e-001 1.36100248e-001 3.49827230e-001
      7.76399523e-002 3.66845145e-003 -7.13573247e-002 -2.81151742e-001
      -1.28655523e-001 -2.37197459e-001 -1.65635329e-002 2.61354536e-001
      2.55415767e-001 1.95229083e-001 -1.23379612e-002 1.19282184e-002
      -2.42066249e-001 -1.62567943e-001 -2.80921340e-001 2.25380473e-002
      -8.99764448e-002 -6.18378185e-002 -5.27558886e-002 5.92804067e-002
      -1.78168684e-001 -1.33389741e-001 1.98217798e-002 6.17986396e-002
      -7.08645880e-002 -8.02134126e-002 -1.41923100e-001
      -5.46290986e-002 1.18347779e-001 1.50856581e-002 -1.17861945e-002
      1.16201065e-001 1.35849286e-002 -4.85570170e-002 7.82360043e-003
      -1.82750151e-002 -7.95371644e-003 7.45711848e-002 -5.34013100e-002
      6.17201300e-003 1.08810782e-001 -3.41535057e-003 -3.09254061e-002
      -9.65390209e-005 -1.64802540e-002 -4.00575548e-002 3.19506600e-002
      -7.51642063e-002 4.01928611e-002 6.58963993e-002 6.70828813e-005
      -1.39163360e-001 2.08310425e-001 2.86710799e-001 1.78392157e-001
      5.81226544e-004 1.67143419e-002 -1.43149376e-001 -1.32497743e-001
      -1.37217969e-001 -1.61058813e-001 1.50657073e-001 1.15108475e-001
      7.56903514e-002 7.76828453e-002 -2.71863677e-002 -5.85452765e-002
      -6.61493167e-002 -7.97212869e-002 -2.64673661e-002
      -5.62761240e-002 -5.85762970e-002 -4.57597151e-002 3.30569297e-002
      1.76602438e-001 1.12904899e-001 4.64564338e-002 3.84439565e-002
      -2.18619723e-002 -1.36264507e-002 2.89645698e-002 -1.87029298e-002
      -6.23153001e-002 1.69374168e-001 1.35606036e-001 6.78114444e-002
      2.33945325e-002</_>
    <_>
      8.79562087e-003 -4.72602956e-002 2.15390790e-002 1.72233239e-001
      6.26558065e-002 6.97419606e-003 7.98607431e-003 -1.46122305e-002
      -1.43066263e-002 -1.24446504e-001 -2.34951928e-001
      -9.25399140e-002 8.79379809e-002 1.96549386e-001 8.12696069e-002
      1.66788790e-002 3.47236879e-002 -1.26642110e-002 -7.17570111e-002
      3.24184485e-002 1.06180228e-001 9.07812938e-002 -1.60516538e-002
      2.08893791e-002 -2.09352970e-002 -5.82260825e-003 -8.24680179e-002
      -1.60218537e-001 4.99010198e-002 1.26289353e-001 9.76448357e-002
      -7.45102987e-002 -1.09195367e-001 -9.72775221e-002
      -7.37394169e-002 -5.82122467e-002 1.09344544e-002 5.51168770e-002
      6.19084574e-002 -1.21588567e-002 6.83943704e-002 6.58302829e-002
      -3.85346487e-002 -6.72602654e-002 3.96327255e-003 7.36447517e-003
      8.12846944e-002 8.94369856e-002 3.79454233e-002 2.49065198e-002
      -8.06518123e-002 -2.86500752e-001 -2.44434863e-001
      -1.62734948e-002 -5.34880869e-002 -1.78688601e-001
      -1.33726269e-001 5.56038804e-002 1.24372765e-001 1.14877559e-001
      4.96412441e-002 4.50500734e-002 -1.05482824e-002 -4.32156809e-002
      -8.56966376e-002 -1.45519644e-001 -1.06540695e-001
      -1.13978656e-002 1.32558331e-001 7.50620440e-002 -3.39773670e-002
      -1.23559378e-001 -3.13926227e-002 3.64970528e-002 2.52323121e-001
      3.80430594e-002 -3.73407975e-002 -6.26537055e-002 -7.87611157e-002
      -7.72826821e-002 -6.01016171e-002 -1.22290319e-002 7.85903558e-002
      1.89403161e-001 5.63984625e-002 -2.73140389e-002 -1.49660381e-002
      -1.32328168e-001 -1.86234519e-001 -2.16081426e-001 6.43153340e-002
      5.07878251e-002 4.92990687e-002 6.22661896e-002 4.51038852e-002
      -1.10787660e-001 -2.24685177e-001 -1.22990541e-001 4.11701426e-002
      4.65103500e-002 2.04119496e-002 -7.95679241e-002 1.03065856e-001
      -2.46737022e-002 -1.18292637e-001 -1.09168120e-001
      -3.66602950e-002 8.51771012e-002 -5.89512065e-002 -3.24605741e-002
      -4.93641496e-002 -6.52985424e-002 -5.46284057e-002 1.03781812e-001
      8.38642344e-002 8.10549501e-003 -1.96020603e-001 -9.07150060e-002
      -8.23070109e-003 -5.39027213e-004 -4.11600657e-002 2.36762967e-002
      7.04993829e-002 1.67961672e-001 -3.17233130e-002 -1.94770291e-001
      -9.02720243e-002 1.60679638e-001 2.16194734e-001 7.97944143e-002
      2.81579676e-003 2.48278882e-002 -2.12900061e-002 -1.58207148e-001
      -1.77917138e-001 -1.37456998e-001 1.84013098e-001 1.50724009e-001
      4.53115664e-002 -2.94696949e-002 7.91295990e-003 5.09443972e-003
      -9.26319063e-002 -1.36085063e-001 3.69184837e-002 -2.74010431e-002
      -1.17053375e-001 1.74898542e-002 -7.67581165e-002 8.46744329e-003
      3.49127576e-002 -1.92565098e-002 8.35415050e-002 4.85535711e-002
      -5.05044609e-002 -4.91398685e-002 6.73306063e-002 -6.43493161e-002
      5.02328649e-002 7.79768527e-002 2.80231191e-003 8.02398548e-002</_>
    <_>
      -2.41587013e-002 2.09174119e-002 6.49985597e-002 -4.43995371e-002
      -3.96853499e-002 -4.62238817e-003 2.58050673e-002 -2.04523858e-002
      -1.80973783e-002 -8.53846744e-002 -3.53801213e-002 2.20092349e-002
      8.49816427e-002 -9.11058709e-002 4.31724638e-002 5.58145810e-003
      5.22927195e-002 -7.02009946e-002 -6.81814104e-002 9.39304475e-003
      1.07626207e-001 1.02236867e-001 1.07425489e-001 -6.58941418e-002
      -8.88772011e-002 -8.22688192e-002 -4.89499383e-002
      -9.89706740e-002 1.44012898e-001 1.35451883e-001 -2.86495946e-002
      -1.32020608e-001 -1.50248796e-001 -1.54034555e-001
      -1.40062094e-001 -1.04067408e-001 1.57331731e-002 4.59195301e-002
      1.45067334e-001 4.47800830e-002 1.20724343e-001 -2.14416116e-001
      -1.07266672e-001 -1.10959537e-001 1.55774234e-002 4.82542478e-002
      4.49071974e-002 1.32485598e-001 -1.22621330e-002 -3.03522963e-002
      -1.00041494e-001 -1.32281348e-001 -1.01928689e-001 2.98046842e-002
      -2.62816697e-002 -1.56915281e-002 -1.57625712e-002 2.57108547e-002
      -1.10906348e-001 6.20205477e-002 6.31945282e-002 1.81101132e-002
      -5.77870458e-002 -1.00149661e-002 -7.86863714e-002
      -5.30491732e-002 1.05955340e-002 -9.62934718e-002 -6.44339016e-003
      3.78120951e-002 2.14185212e-002 -1.45463690e-001 -3.46882902e-002
      2.43460312e-001 2.52285659e-001 -3.19332294e-002 -1.73400834e-001
      -8.33819881e-002 -1.92264125e-001 -2.11080894e-001
      -1.62471771e-001 7.86092579e-002 3.04934770e-001 2.86548316e-001
      1.48742095e-001 -1.61926970e-001 -9.29967314e-002 -2.75068700e-001
      -2.88439065e-001 -2.10884854e-001 7.03870431e-002 -2.37528216e-002
      -3.37925963e-002 -6.54249117e-002 -1.37437759e-002
      -1.81644276e-001 -1.46630863e-002 -3.21594370e-003 4.54238728e-002
      5.85303828e-002 3.29778297e-003 -1.32124633e-001 -7.00030252e-002
      1.97337940e-002 -5.68999387e-002 -2.60985754e-002 5.64032868e-002
      6.33391738e-002 -7.19313473e-002 -1.11746080e-001 -8.39499682e-002
      -3.38704623e-002 2.12460803e-003 -1.84820481e-002 1.52507320e-001
      4.50028218e-002 -1.47680685e-001 -1.88544065e-001 -1.23373121e-001
      -1.03590570e-001 -9.45158452e-002 1.14834405e-001 3.77549492e-002
      2.29349315e-001 2.87889987e-002 -1.24939263e-001 -5.89973889e-002
      1.75764292e-001 2.95702994e-001 1.47064865e-001 -9.65402350e-002
      -3.32712941e-002 -1.56482056e-001 -2.81173885e-001
      -8.18879381e-002 -4.46353704e-002 9.33204219e-002 1.58417493e-001
      7.72340447e-002 -2.26221904e-002 -4.09406200e-002 -7.79814199e-002
      -1.11993715e-001 -3.03496122e-002 7.95306936e-002 4.84051630e-002
      -9.30139422e-002 -4.10000384e-002 7.28146508e-002 -3.09096035e-002
      -1.47293080e-002 4.31308104e-003 5.96255846e-002 8.21497813e-002
      1.11501053e-001 -6.27943501e-002 6.92346022e-002 -1.19713973e-002
      -1.81563292e-002 3.36815380e-002 -1.01639023e-002 6.45836294e-002</_>
    <_>
      4.54441607e-002 9.10080150e-002 -6.68335259e-002 -8.78574327e-002
      1.51710268e-002 1.39459865e-002 2.85357106e-002 -7.69348675e-003
      -1.69489048e-002 3.25048389e-003 3.72284390e-002 -9.36149657e-002
      -2.42030006e-002 4.22225669e-002 9.76600349e-002 3.93699408e-002
      3.86443399e-002 -2.87291743e-002 -2.93830276e-001 7.97313377e-002
      2.74018914e-001 1.97680756e-001 1.67623878e-001 3.37646566e-002
      -1.02188950e-002 6.31180219e-003 -6.56503588e-002 -2.88665354e-001
      1.60459131e-001 1.66645586e-001 9.96259451e-002 1.78478882e-002
      -9.05518904e-002 -1.06459536e-001 -8.54882151e-002
      -2.04536557e-001 1.50303915e-002 5.63390180e-002 8.98961872e-002
      2.99054384e-003 1.81678206e-001 -1.04401566e-001 -1.94242582e-001
      -1.10898055e-001 -3.55878053e-003 3.69072221e-002 6.75210878e-002
      9.32516828e-002 2.12514531e-002 -2.34929714e-002 -5.50021529e-002
      -1.76082715e-001 -9.52849016e-002 -2.68661845e-002
      -1.98840909e-003 -3.16773029e-003 2.14773417e-003 -5.06049432e-002
      -8.51048306e-002 3.96406725e-002 7.92229250e-002 3.60799991e-002
      -7.83060957e-003 2.10114266e-003 1.90217849e-002 5.36309322e-003
      -1.33699598e-002 -8.56220052e-002 -6.98784832e-003
      -6.78849220e-002 2.58399472e-002 1.96792372e-002 -9.81311649e-002
      2.32901990e-001 2.14562073e-001 -1.60071608e-002 -5.78101352e-002
      -1.39554784e-001 -1.49316281e-001 -1.00505963e-001
      -1.54645458e-001 5.03817014e-002 2.63560116e-001 1.52949169e-001
      1.07366785e-001 -6.30876645e-002 -1.05182782e-001 -2.21956596e-001
      -2.12860823e-001 -2.08337292e-001 2.73433775e-002 -1.06044803e-002
      2.84170639e-002 -6.49362290e-003 3.62639409e-003 -1.81862563e-001
      -2.41594557e-002 -1.10174688e-002 2.15136372e-002 -9.32552665e-003
      -1.29629914e-002 -1.27015620e-001 -2.31459904e-002 4.27854769e-002
      -5.21871187e-002 2.47328095e-002 5.84139116e-002 3.27347517e-002
      -7.32891634e-003 -5.47044119e-003 1.31656392e-003 2.13356186e-002
      5.00918105e-002 -5.42478487e-002 -4.29339893e-003 -1.93078797e-002
      1.70766823e-002 -2.32358612e-002 -2.73127947e-002 4.23403020e-004
      1.03818383e-002 8.14586133e-002 -8.88941140e-005 1.91775169e-002
      -9.90912467e-002 6.01099757e-003 -6.97242245e-002 1.84057370e-001
      2.25602537e-001 1.18222676e-001 -1.39640765e-002 -1.14993453e-002
      -2.01346204e-001 -2.02364028e-001 -1.45463184e-001
      -5.49529567e-002 9.57665890e-002 1.53328255e-001 4.33258377e-002
      4.50259745e-002 -5.12122316e-003 -1.41607523e-001 -1.66649133e-001
      -6.11495562e-002 3.73927020e-002 1.63993239e-002 -1.71530053e-001
      -4.36377116e-002 6.26430437e-002 8.62295330e-002 6.31455928e-002
      2.53800098e-002 5.28580546e-002 4.64403294e-002 2.88886186e-002
      -1.17067590e-001 1.81506090e-002 7.25369230e-002 8.86551887e-002
      6.69128671e-002 4.46604118e-002 5.30555993e-002</_>
    <_>
      2.32953001e-002 1.59704700e-001 2.09199935e-001 4.82620485e-002
      -1.86503425e-001 -1.22056246e-001 -3.34353708e-002
      -7.65066072e-002 -6.30914420e-002 -5.49752340e-002 9.02398005e-002
      1.90263495e-001 9.68414471e-002 -5.63868955e-002 -1.95686609e-001
      -1.74603119e-001 -5.75238429e-002 -4.60882299e-002
      -3.12763274e-001 -2.33650476e-001 3.77540439e-001 2.33440697e-001
      1.52110413e-001 -1.03501277e-002 -1.24796787e-002 -9.81005491e-004
      -4.40514535e-002 -3.82957399e-001 -1.53232336e-001 3.39596838e-001
      2.14316159e-001 1.20841175e-001 -3.85346226e-002 4.77361167e-003
      4.73827459e-002 -4.31799218e-002 -6.12363592e-002 -3.91710699e-002
      1.22993976e-001 -1.56384297e-002 1.05891198e-001 -3.98580730e-002
      -5.76564670e-002 -1.01202659e-001 -9.86970663e-002 2.68584080e-002
      -7.92360455e-002 -2.42019147e-002 -1.99933499e-002 1.06028996e-001
      -3.91859263e-002 -9.75403935e-002 -1.45459503e-001
      -2.50975136e-002 -8.41196477e-002 3.90203996e-003 3.25959660e-002
      1.55027062e-001 -4.56661768e-002 3.66483256e-002 -4.81663123e-002
      -2.92875711e-002 -6.49563000e-002 -1.11326493e-001
      -1.02003261e-001 -1.05249479e-001 -6.12746626e-002
      -7.48578180e-003 4.75216247e-002 1.20057881e-001 4.84814979e-002
      -3.07593290e-002 -1.87761858e-001 -9.32981968e-002 2.84897059e-001
      1.00432329e-001 5.58153763e-002 -7.42710987e-003 1.77591722e-002
      5.86292855e-002 -4.91939150e-002 -1.01271383e-001 -5.83147742e-002
      8.37102458e-002 6.72009140e-002 -1.45426008e-003 2.10958272e-002
      2.00694092e-002 1.10983618e-001 4.69151102e-002 -5.59427664e-002
      -1.49579808e-001 -1.17232159e-001 -3.42535898e-002 6.52275532e-002
      -5.34705222e-002 -1.64897852e-002 -1.80884134e-002 3.74644473e-002
      -1.34574994e-001 -7.69723877e-002 1.83340069e-002 1.59279257e-001
      1.05431832e-001 9.36150998e-002 -6.69181794e-002 8.74866173e-002
      -1.29340533e-002 -1.22692801e-001 -1.86920539e-001
      -6.83547184e-002 -3.14844679e-003 -7.13528469e-002 3.69639066e-003
      2.03619540e-001 8.50336328e-002 -1.66204259e-001 -5.50378263e-002
      -1.86844438e-001 -1.72033384e-002 1.25633990e-002 -1.04123782e-002
      -2.74945591e-002 1.51960790e-001 1.54061150e-002 -4.43973765e-002
      -4.13090959e-002 -9.80296917e-003 -1.55103682e-002
      -1.01187900e-002 -6.71790317e-002 -9.28622931e-002 2.17899065e-002
      6.54395148e-002 8.09274390e-002 4.03627753e-002 -1.54637732e-002
      9.77575406e-002 1.25910798e-002 1.70043122e-003 -1.13451697e-001
      5.20875230e-002 4.86418158e-002 2.70573795e-002 -1.37770355e-001
      -1.85328797e-002 4.35668491e-002 3.10173202e-002 3.32769193e-002
      1.20711684e-001 -5.35246283e-002 -6.74943328e-002 -7.39128292e-002
      4.57619540e-002 1.07256345e-001 1.43044278e-001 5.04066832e-002
      -8.52118582e-002 1.04255475e-001 -4.02918272e-002 7.48149976e-002
      2.98433043e-002</_>
    <_>
      1.88644547e-002 9.16381702e-002 1.20056815e-001 7.74595235e-003
      -1.04950488e-001 -7.21157109e-003 5.21264337e-002 -1.24671394e-002
      -3.02817319e-002 -1.50603643e-002 -2.57876143e-003 5.43371104e-002
      5.31574041e-002 -2.65660509e-002 -5.77346096e-003 -2.84359581e-003
      8.81234333e-002 -3.68442535e-002 -2.80094385e-001 -4.43123393e-002
      2.68532008e-001 2.03116149e-001 2.37618580e-001 3.75907198e-002
      -1.11896908e-002 2.27248110e-002 -1.38148963e-001 -2.58339256e-001
      1.45428672e-001 2.58937716e-001 -3.51653211e-002 -2.34930180e-002
      -2.00693890e-001 -1.83911413e-001 -5.65267950e-002
      -2.24581778e-001 5.09804040e-002 1.03441097e-001 1.71807006e-001
      7.39601031e-002 1.96161151e-001 -2.13105679e-001 -1.75927609e-001
      -1.20744340e-001 2.54616211e-003 7.06617394e-003 2.42355908e-003
      1.13008536e-001 1.43343676e-002 3.66239995e-002 -1.34282380e-001
      -1.87176943e-001 -1.08226024e-001 -2.18251161e-002
      -2.17040889e-002 -1.29709048e-002 4.13700938e-002 6.85585812e-002
      -1.33060083e-001 5.88837340e-002 6.52300864e-002 2.19567493e-002
      -5.63405603e-002 -8.34776312e-002 -2.43047550e-002
      -4.33052965e-002 2.26245075e-002 -1.57643538e-002 9.91648436e-003
      8.17374289e-002 5.81123196e-002 -1.19746424e-001 -3.66777554e-002
      2.66067713e-001 3.49251479e-001 -1.76186264e-001 -9.81845930e-002
      -2.35011935e-001 -1.80046901e-001 -8.71504694e-002
      -2.10194752e-001 3.44118066e-002 3.54152411e-001 3.00483048e-001
      7.78077617e-002 -1.37862489e-001 -8.83769840e-002 -1.67302117e-001
      -2.71441072e-001 -2.63696164e-001 5.57427928e-002 -3.31641771e-002
      -2.59360224e-002 -5.14803492e-002 6.39933273e-002 -1.89322069e-001
      -3.51631269e-002 -4.07343358e-002 1.41226789e-002 6.51372895e-002
      3.90147232e-002 -1.03717424e-001 -4.45823409e-002 9.47331637e-002
      2.73985285e-002 7.87346903e-003 2.79702935e-002 6.69222474e-002
      -7.38244727e-002 -7.50569627e-002 -4.73519452e-002 4.07723635e-002
      5.77314869e-002 -5.55177045e-004 3.51243541e-002 1.22184895e-001
      -7.30607212e-002 1.23254973e-002 -4.64060567e-002 -1.70316361e-002
      1.71301924e-002 1.07760718e-002 4.02021185e-002 2.68859975e-002
      -1.13725234e-002 3.35346535e-003 -1.39047056e-001 1.85374051e-001
      3.34576070e-001 1.40899017e-001 -5.48154041e-002 -5.79955317e-002
      -8.78254175e-002 -2.47012496e-001 -1.32011816e-001
      -2.07671747e-001 6.16137870e-002 1.59135371e-001 7.47795925e-002
      2.41141412e-002 5.92403207e-003 3.25801484e-002 -6.51471317e-002
      -7.97703192e-002 8.17332491e-002 7.06285238e-002 -1.26680240e-001
      -1.21768102e-001 7.55702034e-002 1.19161040e-001 8.58995914e-002
      -2.40847599e-002 1.04478542e-002 8.48749056e-002 1.19802848e-001
      -1.02466561e-001 4.70812097e-002 1.46424444e-002 6.85576349e-002
      1.00762799e-001 2.50646491e-002 -4.66847233e-003</_>
    <_>
      2.02511009e-002 6.96557835e-002 8.59101862e-002 -3.91166322e-002
      -8.10492262e-002 -8.85492377e-003 2.41137650e-002 0.
      -1.05473781e-002 -2.32726336e-002 3.11599672e-002 -1.80782157e-003
      4.81906114e-003 -4.20885272e-002 -4.80194055e-002 3.34301218e-002
      4.89593968e-002 -8.93624499e-003 -9.24561471e-002 1.15647733e-001
      2.60794640e-001 1.65519625e-001 1.24434069e-001 -1.58031862e-002
      -2.03719199e-001 -1.27169490e-001 -1.73165143e-001
      -2.36652587e-002 2.17491716e-001 1.94294333e-001 -5.98226395e-003
      5.54806367e-002 -1.30781710e-001 -2.82126158e-001 -1.91187650e-001
      -1.42900497e-001 4.30894196e-002 5.08139692e-002 6.85922429e-002
      3.17000933e-002 1.27934247e-001 -1.25838220e-001 -5.65051064e-002
      -8.73241760e-003 3.73183526e-002 5.17967530e-002 5.69572672e-002
      6.05588742e-002 -6.66675642e-002 -2.44865572e-004 -1.20512798e-001
      -1.21327236e-001 -3.53369256e-003 3.80082354e-002 -2.19210815e-002
      1.23588517e-002 1.14705293e-002 5.53454570e-002 -4.16288786e-002
      -1.06512398e-001 3.79867703e-002 3.95823941e-002 -1.69600975e-002
      -2.62806434e-002 2.33809799e-002 1.28849773e-002 5.74519336e-002
      5.17568886e-002 -3.86124179e-002 -1.14586681e-001 1.23430230e-001
      -3.00574042e-002 -7.97929913e-002 2.01384068e-001 2.17857391e-001
      -1.57680050e-001 -1.47169605e-002 -7.56766126e-002
      -2.10724741e-001 -1.06513441e-001 -9.31448191e-002
      -3.51283737e-002 1.37557656e-001 1.72717422e-001 -3.59774493e-002
      2.44469498e-003 3.20478827e-002 -5.40727638e-002 -8.56946707e-002
      -2.29740366e-001 5.20743504e-002 3.36446427e-002 -3.02849207e-002
      -1.49414569e-001 2.32269354e-002 -1.24434218e-001 -2.71037426e-002
      1.51296072e-002 3.56420241e-002 5.67017905e-002 5.62514141e-002
      -2.60926157e-001 -4.32663038e-002 9.64024812e-002 3.92897949e-002
      3.99766602e-002 4.57568765e-002 5.84012307e-002 -7.64349150e-003
      5.20872278e-003 3.63436854e-003 1.76954251e-002 1.31128758e-001
      -8.86918977e-002 -4.23884243e-002 1.24193266e-001 1.68499332e-002
      1.58566795e-002 7.13959016e-005 9.30579205e-004 7.45475013e-003
      3.25698741e-002 -1.71689298e-002 -4.23884243e-002 4.30987123e-003
      4.44019623e-002 -2.19444573e-001 8.56083035e-002 2.38261700e-001
      7.07829669e-002 7.54830055e-003 4.48602289e-002 1.09472033e-002
      2.81148218e-002 -7.98856616e-002 -2.33738005e-001 -3.64408419e-002
